0.017988882958889008
0.08611979335546494
0.012401506304740906
0.04602424055337906
-0.01144089549779892
-0.012582510709762573
-0.06318599730730057
-0.08180469274520874
-0.05019938200712204
0.05528334528207779
0.013543307781219482
-0.0013144239783287048
-0.08431123197078705
0.046792589128017426
-0.07031576335430145
-0.003638334572315216
-0.014217004179954529
0.08010963350534439
-0.008505254983901978
-0.0518491268157959
-0.027696579694747925
0.03113318234682083
-0.04769180342555046
-0.03251872584223747
-0.02757585048675537
-0.029092010110616684
0.004965499043464661
-0.06141669303178787
0.06724091619253159
-0.03862997889518738
-0.004120402038097382
-0.0298774354159832
0.034694939851760864
0.08020684868097305
-0.03644191473722458
0.07856094092130661
0.016914457082748413
-0.004366464912891388
-0.009616486728191376
0.05426187068223953
0.011771664023399353
0.010980136692523956
0.034762896597385406
0.03373159468173981
-0.07904351502656937
-0.020747974514961243
-0.08740665018558502
-0.0429154708981514
-0.04058430716395378
0.08159283548593521
-0.010244034230709076
0.07290317863225937
-0.07398071885108948
0.02504327893257141
0.022350788116455078
-0.028519824147224426
0.005317278206348419
-0.08197401463985443
0.04764748364686966
0.024007149040699005
-0.07350321859121323
0.0678495541214943
-0.006230965256690979
0.04779651015996933
