-0.11922231316566467
0.10638487339019775
-0.06352192163467407
-0.12020102143287659
0.052346572279930115
-0.06638611853122711
-0.07590591907501221
0.0762699544429779
0.004153117537498474
-0.02917252480983734
-0.05760122835636139
0.10905419290065765
0.01834505796432495
-0.017559722065925598
-0.1242649108171463
-0.07618904113769531
-0.013131260871887207
-0.01786966621875763
-0.11168628931045532
-0.0380120575428009
-0.11535915732383728
-0.07099887728691101
-0.11714035272598267
0.07999095320701599
-0.09344300627708435
0.10655124485492706
-0.07936298847198486
-0.1187748908996582
-0.08180935680866241
0.026295632123947144
-0.10087321698665619
-0.01791703701019287
-0.06342518329620361
-0.08682987093925476
-0.03773204982280731
0.08601772785186768
-0.04550392925739288
0.054326534271240234
0.049565792083740234
-0.07052385807037354
-0.04543396830558777
-0.023231759667396545
0.004450276494026184
0.01738332211971283
-0.008813321590423584
0.08625398576259613
0.06872716546058655
0.08303980529308319
-0.10013033449649811
-0.023085251450538635
0.09005425870418549
-0.06518037617206573
-0.057341232895851135
-0.061887502670288086
-0.0982954204082489
-0.082699716091156
0.03398258984088898
0.016209527850151062
0.014519169926643372
-0.02805057168006897
-0.09016691148281097
-0.09977072477340698
0.07949687540531158
-0.10467836260795593
