0.10151806473731995 0.1080484390258789 0.05807366967201233 0.04162287712097168 -0.046963319182395935 -0.08170486986637115 0.031811341643333435 -0.025578677654266357 0.06676247715950012 0.0937003493309021 -0.015298843383789062 0.03583231568336487 -0.05617229640483856 0.0022809654474258423 0.08847561478614807 -0.12033559381961823 -0.06270882487297058 -0.012237995862960815 -0.08562053740024567 -0.02315405011177063 0.037092581391334534 0.022689342498779297 0.0521768182516098 0.03620532155036926 -0.11684627830982208 -0.016298845410346985 0.008410975337028503 0.065951868891716 0.024246573448181152 0.09101890027523041 -0.012864992022514343 -0.005539149045944214 0.04559217393398285 -0.053861722350120544 -0.029233500361442566 0.11983534693717957 -0.06762965023517609 -0.06238304078578949 -0.037465453147888184 0.09600748121738434 -0.026452019810676575 0.06453260779380798 0.09022209048271179 -0.0857822597026825 0.008567631244659424 -0.03181298077106476 -0.03967127203941345 -0.0050788819789886475 -0.05784507095813751 -0.1231517344713211 -0.03272354602813721 -0.11595757305622101 -0.06359745562076569 0.07530906796455383 -0.06599435210227966 -0.06449554860591888 0.0620238333940506 -0.02947370707988739 -0.09884802997112274 0.004294395446777344 -0.092230424284935 0.0902748554944992 0.11631688475608826 -0.06987395882606506
0.059740930795669556 -0.08697053790092468 0.01576852798461914 -0.07116763293743134 0.08510832488536835 -0.12344899773597717 0.08401301503181458 0.02135498821735382 -0.03992350399494171 0.10220982134342194 -0.08228820562362671 -0.1106434315443039 -0.07180838286876678 -0.11857891082763672 0.059024497866630554 -0.00281524658203125 0.042211636900901794 0.02488577365875244 -0.07521098852157593 0.12150658667087555 0.011459529399871826 0.022339940071105957 0.12230540812015533 -0.06618772447109222 -0.12334977090358734 -0.08999370038509369 0.09746119379997253 -0.014418840408325195 0.034459710121154785 0.025850951671600342 0.022657662630081177 0.11043688654899597 0.047702446579933167 0.012488871812820435 0.056329190731048584 -0.038175374269485474 -0.07637248933315277 -0.010971754789352417 -0.002287760376930237 -0.0043177008628845215 -0.0803249180316925 0.09579731523990631 0.11688527464866638 -0.12289948761463165 -0.021505415439605713 0.038561299443244934 -0.0821637511253357 -0.06917776167392731 0.030654698610305786 -0.040731728076934814 -0.07083180546760559 0.06165537238121033 0.11321169137954712 0.02971610426902771 0.08220510184764862 -0.0411212295293808 -0.09663097560405731 -0.09545274078845978 0.04363788664340973 0.03397679328918457 -0.003012150526046753 -0.01711614429950714 0.07384189963340759 -0.12421505153179169
-0.03207629919052124 0.006151109933853149 0.09428863227367401 0.09119558334350586 -0.05568087100982666 0.001169055700302124 0.043823063373565674 0.07822825014591217 0.12222473323345184 0.0038528144359588623 -0.02285762131214142 -0.017498105764389038 -0.06033432483673096 0.05442264676094055 0.08852945268154144 0.06742125749588013 -0.052271708846092224 0.006066426634788513 0.028999358415603638 0.07266595959663391 0.007611587643623352 0.019012585282325745 -0.05189332365989685 0.003728896379470825 -0.07736292481422424 0.11334112286567688 0.06540264189243317 -0.043983206152915955 0.12200680375099182 -0.1219506710767746 -0.0019462555646896362 -0.05735202133655548 -0.07339891791343689 -0.12252610921859741 0.03996817767620087 -0.05926382541656494 -0.05678713321685791 0.12469834089279175 -0.045604556798934937 0.058000922203063965 -0.06908689439296722 -0.06297004222869873 -0.002339601516723633 -0.12468911707401276 0.01808425784111023 0.025338903069496155 0.01600070297718048 -0.09420913457870483 -0.06092023849487305 -0.1060740053653717 -0.018999353051185608 0.06352052092552185 -0.06041818857192993 -0.0644012987613678 0.049975574016571045 -0.07170258462429047 -0.11739534139633179 0.1232542097568512 0.07433976233005524 0.1010807603597641 -0.01772060990333557 0.006807640194892883 -0.09967397153377533 0.00948631763458252
-0.020972952246665955 -0.07194267213344574 -0.017930105328559875 -0.035381823778152466 0.04858329892158508 -0.0224016010761261 -0.016037747263908386 -0.01185162365436554 -0.03732672333717346 0.01374836266040802 0.08562791347503662 -0.07705268263816833 0.035019367933273315 -0.029880717396736145 -0.08348092436790466 0.044903263449668884 -0.0021263211965560913 -0.005728572607040405 0.09315629303455353 0.0735325813293457 -0.1235395222902298 0.08869361877441406 0.08759939670562744 0.01929783821105957 -0.11252553761005402 -0.008721694350242615 0.09398186206817627 -0.019165098667144775 -0.108976811170578 0.05387859046459198 0.10435959696769714 -0.014704793691635132 0.10652628540992737 -0.034116655588150024 0.020543918013572693 0.12396597862243652 0.03285542130470276 -0.04964049160480499 -0.07815928757190704 0.060946255922317505 0.03680281341075897 0.12049625813961029 -0.06550879776477814 0.03946894407272339 -0.11678114533424377 -0.08012726902961731 -0.009491503238677979 -0.06490682065486908 0.08513660728931427 0.05486886203289032 -0.0918937474489212 -0.11095133423805237 0.03132137656211853 -0.09802667796611786 0.06897291541099548 -0.1035047173500061 -0.038813114166259766 -0.040143415331840515 -0.09364446997642517 0.08905990421772003 0.0733214020729065 0.0032481402158737183 0.11145235598087311 0.09165702760219574
0.08811953663825989 -0.09965196251869202 -0.0947999656200409 0.04585540294647217 -0.04780535399913788 -0.046052247285842896 0.0615842342376709 -0.09564296901226044 -0.016241848468780518 -0.05587424337863922 -0.0355711430311203 0.0865228921175003 -0.09119467437267303 -0.027160674333572388 -0.12368480861186981 -0.1152077317237854 -0.0904502272605896 0.11244674026966095 0.044222936034202576 -0.10054655373096466 -0.02897396683692932 -0.052060842514038086 -0.007328495383262634 0.075248122215271 0.061520546674728394 0.033123865723609924 0.12458059191703796 -0.11231592297554016 0.0046050697565078735 -0.026560544967651367 -0.11147014796733856 -0.0034351199865341187 0.057862237095832825 -0.05038943886756897 0.05085216462612152 0.07568986713886261 0.07949075102806091 0.03390026092529297 -0.06615060567855835 0.06840851902961731 -0.03202597796916962 -0.11602695286273956 -0.0320284366607666 -0.11288674175739288 -0.08122792840003967 -0.028119593858718872 -0.10801081359386444 -0.10296639800071716 0.08189435303211212 -0.05472239851951599 0.061029091477394104 0.0016200840473175049 0.03625795245170593 0.0424322783946991 -0.022776782512664795 0.08508297801017761 0.03357356786727905 -0.07612638175487518 -0.06359399855136871 -0.007997021079063416 -0.032506272196769714 -0.048633307218551636 0.11210139095783234 0.03142170608043671
-0.0638541579246521 -0.09292683005332947 0.10957734286785126 0.10959267616271973 -0.01370607316493988 -0.10550829768180847 -0.018761590123176575 0.053477585315704346 0.05618160963058472 -0.0015715062618255615 0.10908627510070801 0.07583804428577423 0.06986388564109802 0.11111029982566833 0.06346364319324493 -0.09413588047027588 0.0031263381242752075 0.06259453296661377 0.1211465448141098 -0.11713877320289612 0.0393880158662796 0.12082621455192566 -0.07969316840171814 -0.03820878267288208 -0.0620572566986084 0.12444233894348145 0.08591099083423615 0.10193096101284027 -0.07406947016716003 0.10896076261997223 -0.02831292152404785 0.016588181257247925 0.10965125262737274 0.030733928084373474 -0.020293012261390686 -0.003246977925300598 0.10227543115615845 -0.07677654922008514 -0.10886912047863007 -0.019612133502960205 0.09311109781265259 0.10267823934555054 -0.09790846705436707 -0.1025419533252716 -0.03836806118488312 0.11979261040687561 0.0394035279750824 -0.0014274567365646362 0.054018840193748474 -0.03187599778175354 -0.060006096959114075 0.07843682169914246 0.012852117419242859 0.04527091979980469 -0.03269781172275543 -0.019576236605644226 0.1064339429140091 -0.032573431730270386 -0.006531432271003723 -0.0018174946308135986 -0.09910251200199127 0.10338960587978363 -0.07104167342185974 -0.0513143390417099
-0.022924676537513733 0.03811122477054596 0.06153133511543274 0.08697296679019928 0.09659399092197418 -0.04432550072669983 0.1074308454990387 0.030458703637123108 -0.014881595969200134 -0.12243840098381042 0.08535492420196533 -0.04274916648864746 0.03671422600746155 0.035336464643478394 -0.10278083384037018 -0.0002626478672027588 0.11781130731105804 -0.06671236455440521 0.0524744987487793 0.09524931013584137 -0.0883646309375763 -0.11586005985736847 0.0364728718996048 0.039048224687576294 0.12480379641056061 0.006760254502296448 -0.1056840568780899 -0.07642596960067749 -0.0040399134159088135 0.09982773661613464 -0.09589852392673492 -0.06431154906749725 0.02136947214603424 0.10434393584728241 -0.022102847695350647 0.05394367873668671 -0.11164462566375732 -0.12303890287876129 0.011730819940567017 0.096467986702919 0.0035570859909057617 -0.11863747239112854 -0.034036457538604736 0.023577287793159485 -0.10310554504394531 0.07600826025009155 0.10714216530323029 -0.08921553194522858 0.10632911324501038 -0.08577097952365875 0.1024513989686966 -0.007468223571777344 0.07644182443618774 0.08105383813381195 -0.0972570925951004 0.0010544806718826294 -0.10956072807312012 0.11553753912448883 0.0024600625038146973 0.07051530480384827 -0.07939757406711578 -0.06232300400733948 0.022257760167121887 0.11071164906024933
0.042347103357315063 -0.06858010590076447 0.027514398097991943 -0.0947045236825943 -0.0853361189365387 -0.0686439573764801 -0.0036176592111587524 -0.11446599662303925 0.11288756132125854 0.07581166923046112 0.06968089938163757 -0.04489357769489288 -0.12031900882720947 0.019271284341812134 0.10815635323524475 0.11810098588466644 0.0798153430223465 -0.08061380684375763 0.014507725834846497 -0.05067664384841919 0.08567635715007782 -0.015579119324684143 -0.05678775906562805 -0.12293654680252075 0.04341666400432587 0.027275532484054565 0.0715271532535553 -0.022365719079971313 0.007154405117034912 0.10282360017299652 -0.010576635599136353 0.058133721351623535 -0.028130263090133667 0.06329181790351868 0.11236207187175751 0.08925977349281311 -0.005795106291770935 -0.06928429007530212 -0.07289627194404602 -0.11619870364665985 0.0762961208820343 0.02138829231262207 0.07554672658443451 0.024295732378959656 -0.04834666848182678 -0.0380387008190155 0.02308794856071472 0.06030076742172241 -0.07867215573787689 -0.10133956372737885 0.1116689145565033 0.025824621319770813 0.02651837468147278 0.07230576872825623 0.11267952620983124 -0.08257260918617249 0.09517903625965118 0.035394713282585144 0.056243568658828735 0.011543840169906616 0.07732096314430237 -0.012128174304962158 0.12139393389225006 -0.11936910450458527
0.12185588479042053 -0.022125855088233948 -0.04686953127384186 0.026972606778144836 0.10207712650299072 -0.09144666790962219 0.1060933917760849 -0.026306167244911194 -0.0610329806804657 -0.11816668510437012 -0.0523931086063385 0.05257543921470642 0.10592806339263916 -0.03123694658279419 -0.0009333640336990356 0.11317874491214752 -0.043707266449928284 0.011957094073295593 -0.10357087850570679 -0.055523112416267395 -0.02443385124206543 0.07455939054489136 0.06062871217727661 0.11664609611034393 -0.07924884557723999 -0.11588732898235321 -0.07078143954277039 0.08053117990493774 0.11584486067295074 -0.117910236120224 0.07440455257892609 0.03068600594997406 0.11928465962409973 0.0429154634475708 0.059722959995269775 0.07201147079467773 -0.08152629435062408 0.05603204667568207 -0.07374192774295807 -0.09007921814918518 -0.09448613226413727 0.0682537853717804 -0.029670029878616333 -0.006753191351890564 -0.11416104435920715 0.02902020514011383 -0.08256565034389496 -0.1116272509098053 0.09732787311077118 0.05629315972328186 -0.038004353642463684 -0.06478787958621979 0.06629283726215363 0.07232809066772461 -0.009560659527778625 -0.09107606112957001 -0.055391907691955566 0.10547178983688354 -0.11703172326087952 -0.09484824538230896 -0.0179205983877182 -0.1132945567369461 0.09965889155864716 0.037199318408966064
-0.012611716985702515 0.01852373778820038 -0.0822029560804367 0.10496664047241211 -0.05879189074039459 -0.11944839358329773 0.12492446601390839 -0.0948333740234375 0.038344115018844604 0.06635308265686035 0.07567495107650757 0.07150198519229889 0.01334238052368164 -0.0026510804891586304 -0.0041968077421188354 -0.07055613398551941 -0.07092350721359253 -0.012921914458274841 -0.005807012319564819 -0.05564408004283905 0.03344854712486267 -0.11182977259159088 -0.018750742077827454 0.1005897969007492 0.007117033004760742 -0.10310813784599304 -0.053289055824279785 0.1075899600982666 -0.11666716635227203 -0.05861388146877289 -0.029497593641281128 -0.07978096604347229 0.08262202143669128 -0.018477439880371094 -0.005152121186256409 0.01233285665512085 0.030332311987876892 0.04918912053108215 -0.07818920910358429 -0.12381592392921448 0.10970199108123779 -0.042736366391181946 -0.0099983811378479 -0.036106422543525696 0.06250207126140594 0.04962293803691864 -0.08897021412849426 -0.09974436461925507 0.020754560828208923 0.08009499311447144 0.12202660739421844 0.03618462383747101 0.032563865184783936 0.0029716938734054565 -0.013339594006538391 -0.06857752799987793 -0.07330821454524994 -0.080474853515625 -0.07645490765571594 -0.019494205713272095 -0.0253598690032959 -0.00585588812828064 0.10264116525650024 0.0944657176733017
-0.08653795719146729 0.040288642048835754 0.0009129196405410767 0.06376141309738159 0.02124534547328949 -0.03330446779727936 -0.0838080644607544 0.015442609786987305 -0.10399696230888367 -0.062041863799095154 -0.0005319267511367798 0.0286342054605484 0.0641050636768341 -0.02390088140964508 0.02523842453956604 0.10584807395935059 0.03731098771095276 0.07823051512241364 0.08230462670326233 -0.05206488072872162 0.05054503679275513 -0.11249098181724548 0.024364128708839417 -0.09409397840499878 0.0731680691242218 0.06668366491794586 -0.100532665848732 0.004613772034645081 0.08129702508449554 0.0738992691040039 0.10347522795200348 -0.03401859104633331 -0.08309273421764374 -0.03193686902523041 0.07835745811462402 0.060667261481285095 0.08855584263801575 -0.1120280921459198 0.09294809401035309 -0.077567458152771 0.04849652945995331 -0.0888134241104126 0.06539653241634369 -0.00516296923160553 -0.11824281513690948 0.06962242722511292 0.08043418824672699 0.07547950744628906 -0.01696598529815674 0.008078455924987793 -0.01627829670906067 0.10230757296085358 0.0908791571855545 -0.07747112214565277 -0.10408861935138702 -0.06690646708011627 -0.029480233788490295 0.035825371742248535 0.08009587228298187 -0.07130318880081177 -0.07114988565444946 -0.0659290999174118 0.04748700559139252 0.09023840725421906
0.10276497900485992 0.09012782573699951 -0.10295915603637695 0.07802650332450867 -0.06496545672416687 0.07310119271278381 0.06074643135070801 -0.045538097620010376 -0.065498486161232 -0.11955283582210541 -0.1165585070848465 -0.06486013531684875 -0.07863780856132507 -0.0018758624792099 0.023478657007217407 0.014930784702301025 -0.10674963891506195 0.0497962087392807 -0.07575568556785583 -0.123777374625206 -0.026431560516357422 0.1244051456451416 -0.011727780103683472 0.024441376328468323 -0.08288010954856873 -0.022175058722496033 0.06487174332141876 -0.10455627739429474 -0.02858102321624756 0.1197541356086731 -0.12394773960113525 0.039443016052246094 -0.024802371859550476 0.013764575123786926 -0.00968654453754425 0.027932748198509216 0.05648389458656311 -0.04020184278488159 0.0020296722650527954 -0.09735649824142456 0.04058776795864105 -0.0028869658708572388 0.00010290741920471191 0.09425407648086548 -0.0902920812368393 0.01679675281047821 0.03014466166496277 0.03706793487071991 -0.05993080139160156 -0.05719149112701416 -0.03896141052246094 -0.03881548345088959 -0.09719090163707733 -0.08918227255344391 0.03502298891544342 0.03258375823497772 0.09903860092163086 0.00438198447227478 0.07595783472061157 -0.10126608610153198 -0.06995369493961334 -0.04611571133136749 -0.07391968369483948 0.001997709274291992
0.013127729296684265 0.03525668382644653 -0.055145859718322754 0.03448067605495453 0.1139841079711914 0.023560896515846252 0.10965202748775482 -0.001284867525100708 0.017955690622329712 -0.01856023073196411 0.060802608728408813 0.10906314849853516 0.1141146570444107 -0.09088052809238434 0.005843743681907654 -0.005834802985191345 -0.09927959740161896 -0.06182107329368591 0.04258611798286438 -0.04796580970287323 0.04902888834476471 -0.10457517206668854 0.026302874088287354 0.04535384476184845 0.02828487753868103 0.011333271861076355 0.06460945308208466 -0.017488613724708557 0.07011003792285919 0.08944903314113617 -0.001308053731918335 0.07942268252372742 0.1190643161535263 0.12445555627346039 0.037166208028793335 0.08714136481285095 0.05100034177303314 0.10143886506557465 0.10860840976238251 0.067051962018013 -0.05033786594867706 -0.04871340095996857 -0.07407407462596893 0.006374239921569824 0.05227361619472504 0.037691786885261536 0.1175699383020401 -0.04178151488304138 0.07895030081272125 -0.053728580474853516 -0.08586739003658295 -0.10230907797813416 -0.02451135218143463 -0.10879452526569366 -0.11127667129039764 -0.09459888935089111 -0.08895237743854523 0.011914566159248352 0.05722092092037201 -0.12071272730827332 -0.012536659836769104 -0.03144007921218872 0.054686009883880615 0.12435902655124664
-0.04066230356693268 0.07200080156326294 -0.0960502177476883 0.031447142362594604 -0.04605250060558319 0.10639005899429321 0.07274232804775238 0.010723337531089783 -0.10615168511867523 -0.05031725764274597 -0.02764838933944702 -0.09862206876277924 -0.006944909691810608 -0.06656436622142792 0.03342971205711365 -0.0747995674610138 -0.10380859673023224 0.013290226459503174 -0.10950042307376862 -0.11903484165668488 -0.04184234142303467 -0.003144174814224243 0.07759524881839752 -0.08430512249469757 -0.03794032335281372 0.06334912776947021 -0.098356693983078 0.04061490297317505 0.045154720544815063 0.0439600944519043 0.04479755461215973 0.03556664288043976 0.018378421664237976 0.047086507081985474 0.06574815511703491 -0.10381528735160828 -0.040320828557014465 -0.08543288707733154 -0.042665883898735046 0.11260455846786499 -0.01621076464653015 -0.023546889424324036 0.03497950732707977 -0.11964397132396698 -0.047331467270851135 0.02246241271495819 -0.042942970991134644 -0.10789328813552856 -0.018361374735832214 -0.09337903559207916 0.06314651668071747 0.06502586603164673 -0.09209249913692474 0.10834567248821259 -0.06259970366954803 -0.012333646416664124 0.104469895362854 -0.05747111141681671 0.04880902171134949 -0.0403304249048233 0.008621931076049805 0.031926557421684265 -0.057752758264541626 -0.048735395073890686
-0.08393967151641846 0.009614676237106323 0.12176455557346344 -0.03760351240634918 -0.09167458117008209 0.040367379784584045 -0.09638746082782745 0.05276763439178467 0.09008966386318207 0.027852550148963928 -0.07852397859096527 0.07266205549240112 -0.12009543180465698 0.014681801199913025 -0.07417687773704529 -0.12437686324119568 -0.009998604655265808 0.09745953977108002 -0.05788885056972504 0.10376691818237305 -0.01862102746963501 -0.07476359605789185 -0.039285317063331604 0.04742465913295746 0.033524289727211 -0.045405253767967224 -0.088428795337677 0.09653235971927643 -0.027143076062202454 0.0906912088394165 -0.05210667848587036 0.12370243668556213 0.1245269775390625 -0.06372000277042389 -0.03215663135051727 -0.022813647985458374 0.0278337299823761 -0.017492294311523438 -0.04876168072223663 0.09255017340183258 0.12070688605308533 -0.08644804358482361 0.08398355543613434 -0.002167314291000366 -0.06741765141487122 0.11541153490543365 0.0334518700838089 0.09356120228767395 0.0038188397884368896 -0.08541792631149292 -0.035221368074417114 0.02595841884613037 0.11757621169090271 0.00021925568580627441 -0.02165248990058899 -4.938244819641113e-05 -0.05758589506149292 -0.0430695116519928 -0.10492019355297089 -0.10976517200469971 -0.013337329030036926 0.03010113537311554 0.10549309849739075 0.03665599226951599
0.0576183944940567 0.11447884142398834 -0.08087487518787384 -0.05490681529045105 -0.058132559061050415 -0.020131409168243408 0.07691237330436707 -0.06844362616539001 0.08022692799568176 -0.018031269311904907 0.06928344070911407 -0.010440856218338013 -0.05929619073867798 -0.11537390947341919 -0.004527479410171509 0.011061444878578186 -0.05213706195354462 -0.08226656913757324 -0.08103111386299133 -0.050482675433158875 0.08181436359882355 0.10772325098514557 -0.09899768233299255 0.05460759997367859 0.03240115940570831 0.026307642459869385 -0.0015705674886703491 0.095221608877182 0.10579261183738708 0.020991280674934387 -0.04238404333591461 0.0414726585149765 -0.016967937350273132 -0.030056089162826538 -0.07003028690814972 0.07022984325885773 -0.08117660880088806 0.10665194690227509 0.07834489643573761 -0.009854808449745178 0.05087924003601074 0.07604774832725525 0.11163777112960815 -0.10644260048866272 -0.0891711562871933 -0.03845846652984619 -0.09191913902759552 0.07018779218196869 -0.01878391206264496 -0.028550490736961365 0.12269143760204315 0.1020936667919159 0.011509552597999573 -0.05769263207912445 -0.05072703957557678 0.008726954460144043 0.1149493157863617 0.12153010070323944 0.04619310796260834 -0.11088152229785919 0.01431359350681305 -0.09875522553920746 0.11762295663356781 -0.07273320853710175
0.05223505198955536 -0.12232860922813416 -0.09575311839580536 -0.06654505431652069 -0.05507199466228485 0.10702112317085266 0.10218451917171478 0.036588504910469055 0.04557181894779205 -0.10033759474754333 0.06870438158512115 0.0920725166797638 0.11132082343101501 -0.08861112594604492 0.08396728336811066 0.06879056990146637 0.09595192968845367 0.08640578389167786 0.0781041830778122 0.035328879952430725 -0.06927016377449036 0.10331100225448608 0.09358234703540802 -0.08886989951133728 0.11429989337921143 -0.055774182081222534 -0.07498380541801453 -0.11423905193805695 0.056269869208335876 -0.11273312568664551 0.07524733245372772 0.018926963210105896 -0.00867520272731781 -0.08732213079929352 0.0019469261169433594 0.09546995162963867 0.0673658549785614 -0.0806238055229187 -0.02502274513244629 -0.09519508481025696 -0.11255219578742981 -0.09162642061710358 -0.0025016218423843384 -0.09469538927078247 0.01245737075805664 0.05786596238613129 0.06261637806892395 -0.09885337948799133 -0.06427153944969177 -0.1169266551733017 -0.06574158370494843 0.018100321292877197 -0.10272432863712311 -0.07605116069316864 0.07027657330036163 0.010621175169944763 0.031158074736595154 -0.05663482844829559 0.08383910357952118 0.08864511549472809 -0.04063507914543152 0.07079336047172546 -0.04710184037685394 -0.05001154541969299
-0.08617714047431946 -0.1151982843875885 -0.05984935164451599 -0.08977232873439789 -0.004257142543792725 0.012207269668579102 0.039042115211486816 -0.08311229944229126 0.12362396717071533 0.03442759811878204 0.10477454960346222 0.012056544423103333 0.05238330364227295 -0.05758930742740631 0.056413665413856506 0.027196615934371948 -0.11976447701454163 0.08500790596008301 0.07472366094589233 -0.06728561222553253 0.052425265312194824 0.015871018171310425 -0.10818035900592804 -0.02669668197631836 -0.121755450963974 -0.025612056255340576 -0.09141652286052704 0.0869436115026474 0.1127360612154007 0.01173943281173706 0.06670263409614563 0.0847659558057785 0.0719861090183258 0.11954982578754425 0.1002635508775711 -0.012386724352836609 -0.019785702228546143 0.10115684568881989 -0.019579574465751648 -0.04869581758975983 -0.1046576201915741 0.08844244480133057 0.0651780217885971 0.060864001512527466 -0.09503388404846191 -0.12215463817119598 0.05949968099594116 0.11114206910133362 -0.06746929883956909 0.11168703436851501 0.020379528403282166 0.11139649152755737 0.03492826223373413 -0.08211207389831543 0.014082476496696472 -0.12320162355899811 -0.06875587999820709 0.0764414370059967 0.060807839035987854 -0.06285682320594788 -0.042366236448287964 0.012037411332130432 -0.1131245493888855 0.06096167862415314
-0.10291829705238342 -0.04646000266075134 0.055515095591545105 -0.05161714553833008 0.04676848649978638 0.09212052822113037 -0.033283814787864685 -0.05521926283836365 -0.07788912951946259 -0.11996175348758698 0.05088546872138977 -0.08605487644672394 0.06393717229366302 -0.007223114371299744 -0.0705394595861435 0.10873597860336304 -0.003888443112373352 0.0455499142408371 0.07086668908596039 -0.0809350311756134 -0.00575333833694458 -0.10388082265853882 0.06282724440097809 -0.03891219198703766 0.047819241881370544 0.003907889127731323 -0.0858343243598938 -0.021194100379943848 -0.06031613051891327 -0.03246058523654938 0.05284208059310913 0.07582266628742218 0.0748530924320221 0.11133942008018494 0.002482861280441284 -0.05672711133956909 0.06610721349716187 0.07095479965209961 0.11375893652439117 -0.016044020652770996 -0.0159006267786026 0.07767468690872192 -0.08241081237792969 -0.07351765036582947 -0.017735496163368225 -0.02892547845840454 0.011096462607383728 -0.09336486458778381 -0.0899156779050827 0.019915804266929626 0.05957448482513428 -0.07414285838603973 0.0928998589515686 0.10325564444065094 -0.0937071293592453 -0.05153846740722656 0.015354767441749573 0.014902472496032715 -0.06892591714859009 0.048849716782569885 0.10833875834941864 -0.10529138147830963 -0.09063480794429779 -0.05899666249752045
-0.06337802112102509 -0.0208035409450531 0.04751013219356537 0.09667839109897614 0.06302660703659058 -0.11888712644577026 -0.015889957547187805 0.09483982622623444 -0.0733809620141983 -0.09691353142261505 0.12230874598026276 0.04821877181529999 -0.04515963792800903 0.018828868865966797 -0.1068333238363266 0.017053604125976562 0.05677862465381622 -0.07319732010364532 -0.05799150466918945 -0.11254459619522095 0.07864096760749817 0.1017051637172699 -0.07335777580738068 0.12237595021724701 0.0508449524641037 0.06566780805587769 -0.11507931351661682 -0.06058278679847717 0.09338702261447906 0.12302197515964508 -0.051365286111831665 0.04523354768753052 0.12264436483383179 0.0029416531324386597 0.07850232720375061 -0.030042573809623718 0.042013898491859436 0.09924542903900146 -0.0019882619380950928 0.07758522033691406 0.008800238370895386 -0.0839548408985138 0.0022465288639068604 0.04107637703418732 -0.12030628323554993 0.12276840209960938 -0.018231913447380066 0.09198172390460968 -0.07557669281959534 -0.07422393560409546 0.003683418035507202 0.1003284603357315 -0.016586869955062866 0.010843425989151001 0.06232234835624695 -0.00896349549293518 -0.03470045328140259 -0.009483590722084045 0.020035147666931152 0.0898907482624054 -0.08545747399330139 0.10670974850654602 -0.09278421103954315 0.026539668440818787
-0.006338551640510559 0.11695687472820282 -0.015278249979019165 -0.06527569890022278 0.05537158250808716 -0.09714889526367188 -0.10888688266277313 -0.07382090389728546 -0.005267918109893799 -0.002956181764602661 -0.026158496737480164 -0.08129110932350159 0.050881773233413696 -0.05229482054710388 0.04603146016597748 -0.00882236659526825 0.11476026475429535 0.004405379295349121 0.10362975299358368 0.08971643447875977 -0.12033697962760925 0.058396488428115845 -0.09013757109642029 -0.09509141743183136 -0.1083562970161438 0.0978047102689743 0.0293302983045578 0.11432017385959625 0.06449353694915771 0.08899807929992676 0.08552542328834534 -0.08279210329055786 -0.0001415163278579712 -0.032287269830703735 0.08649811148643494 -0.10666884481906891 -0.07367560267448425 0.0535670667886734 -0.11143596470355988 0.027814477682113647 -0.02658495306968689 -0.0850343406200409 0.013906419277191162 0.10047625005245209 0.0812498927116394 -0.05361872911453247 0.03702758252620697 0.012526005506515503 -0.00817851722240448 0.04538916051387787 -0.037915945053100586 -0.12368202209472656 0.05301934480667114 0.1045709103345871 -0.034710973501205444 -0.12261724472045898 -0.10024385154247284 -0.06770908832550049 -0.01587994396686554 -0.1101425290107727 -0.10380305349826813 0.08329722285270691 0.11155198514461517 -0.05725327134132385
0.0340837687253952 -0.09585133194923401 0.08985187113285065 0.09940595924854279 -0.04586385190486908 0.025468304753303528 0.09824429452419281 0.11948132514953613 0.018658652901649475 0.02159889042377472 -0.06904445588588715 -0.08954431116580963 0.0683535635471344 0.09542384743690491 0.05672106146812439 0.01863163709640503 -0.09035463631153107 0.10463123023509979 0.0307626873254776 0.09869720041751862 0.11819297075271606 -0.033016741275787354 -0.086004838347435 0.06295052170753479 -0.10313592851161957 -0.07007308304309845 -0.059418320655822754 0.029398411512374878 0.06252394616603851 -0.03218702971935272 0.020801439881324768 0.0952209085226059 0.02005879580974579 -0.06166498363018036 -0.01493293046951294 0.10454411804676056 0.061385378241539 0.12229487299919128 -0.0015773624181747437 -0.0498417466878891 0.07678601145744324 0.09787744283676147 0.022475585341453552 -0.09724953770637512 -0.013321205973625183 0.09215064346790314 -0.00853756070137024 -0.11103926599025726 0.03162574768066406 -0.089780792593956 -0.031056150794029236 -0.11604106426239014 0.015377342700958252 0.07300218939781189 -0.0666721761226654 0.06441742181777954 0.0766681581735611 -0.08741232752799988 -0.021610409021377563 0.1058449000120163 -0.05436226725578308 -0.06614013016223907 -0.06601390242576599 -0.041237667202949524
0.04981279373168945 0.09391754865646362 0.007910281419754028 -0.0847354531288147 -0.06405556201934814 0.013659417629241943 -0.04692177474498749 0.011926382780075073 0.03790321946144104 -0.0574648380279541 0.12129049003124237 0.05800682306289673 -0.06878197193145752 0.0022344738245010376 0.044754624366760254 0.011038869619369507 0.021929562091827393 0.04832777380943298 0.07677645981311798 -0.07662105560302734 -0.06690558791160583 0.08732056617736816 0.11831015348434448 -0.020046278834342957 -0.027959555387496948 -0.09610779583454132 -0.06442712247371674 -0.11379091441631317 0.1022283136844635 -0.0761413425207138 0.08243104815483093 0.029158368706703186 0.089840829372406 -0.05177058279514313 0.05165699124336243 0.09662806987762451 0.004074558615684509 -0.012912988662719727 -0.1245444118976593 0.024190112948417664 0.053816840052604675 0.0424758642911911 -0.10608726739883423 -0.00516510009765625 -0.026250600814819336 -0.07532915472984314 0.02915017306804657 -0.10647450387477875 -0.09674477577209473 0.060028076171875 -0.12486161291599274 -0.07859699428081512 0.058458179235458374 0.025963619351387024 -0.020925715565681458 0.06623627245426178 0.07235416769981384 -0.083638995885849 0.03881552815437317 -0.08201293647289276 -0.10611176490783691 0.05252276360988617 0.025388002395629883 0.0370071679353714
-0.05851799249649048 -0.03296416997909546 0.06911173462867737 0.10965658724308014 -0.08275119960308075 -0.011427357792854309 0.12300947308540344 -0.05288809537887573 0.041278690099716187 0.07706351578235626 0.10466597974300385 -0.009417518973350525 -0.087257981300354 0.022162646055221558 0.09313365817070007 -0.09699536859989166 -0.044108808040618896 -0.08837400376796722 -0.07214455306529999 -0.03767850995063782 -0.031030774116516113 0.005780920386314392 0.03383554518222809 0.09636421501636505 -0.006908133625984192 -0.08227010071277618 0.06508117914199829 -0.04978246986865997 -0.04358941316604614 -0.027529031038284302 -0.03603056073188782 0.06660555303096771 0.00027683377265930176 -0.08082148432731628 -0.06174132227897644 -0.02209801971912384 0.012304261326789856 -0.07376827299594879 -0.05379185080528259 -0.12339611351490021 0.09942570328712463 0.018981769680976868 0.08856815099716187 -0.015078440308570862 0.07739093899726868 0.0452921986579895 0.05335637927055359 0.09903226792812347 0.05462746322154999 -0.07604344189167023 0.07013154029846191 0.054321348667144775 0.05663256347179413 -0.006095394492149353 -0.08049453794956207 -0.007154986262321472 0.028215885162353516 -0.012026458978652954 -0.08933791518211365 0.004757210612297058 0.0502861887216568 0.06913672387599945 0.042089030146598816 0.07677988708019257
-0.010201215744018555 -0.056621626019477844 0.04904375970363617 0.018112167716026306 -0.032050520181655884 -0.07935567200183868 -0.11817361414432526 -0.03759448230266571 -0.12015339732170105 0.03715233504772186 0.06388087570667267 -0.07476867735385895 0.03480552136898041 0.12305949628353119 0.026325970888137817 0.07959870994091034 -0.01187141239643097 0.07055504620075226 -0.07712197303771973 0.059304073452949524 -0.045957982540130615 0.09935727715492249 0.046158015727996826 -0.011551007628440857 -0.1243818998336792 -0.08788128197193146 -0.10366334021091461 -0.07793642580509186 -0.03212907910346985 -0.08939936757087708 -0.02922147512435913 -0.09236691892147064 -0.12128262221813202 -0.003529176115989685 0.11002106964588165 0.08317379653453827 0.025124698877334595 -0.031478479504585266 0.10500214993953705 -0.0381612628698349 -0.05299031734466553 0.07701410353183746 0.011450543999671936 -0.03781360387802124 -0.08856940269470215 -0.030197814106941223 0.015849530696868896 0.11431659758090973 -0.09154802560806274 0.010924920439720154 -0.06147968769073486 0.07467822730541229 -0.09743696451187134 -0.00927823781967163 0.11983233690261841 -0.03217354416847229 0.11572231352329254 0.08613313734531403 -0.10419811308383942 -0.08116243779659271 0.08634956181049347 -0.030742943286895752 -0.06805576384067535 -0.12305311858654022
0.016751915216445923 0.04187542200088501 -0.07107830047607422 -0.0012710094451904297 -0.048645228147506714 0.07870736718177795 0.0694553554058075 -0.04775182902812958 0.11935660243034363 -0.07655739784240723 0.12189798057079315 0.025549590587615967 -0.07526342570781708 0.06921105086803436 0.1097777932882309 -0.09754513204097748 0.05587667226791382 0.0978548526763916 -0.05949185788631439 -0.0875549167394638 -0.03450550138950348 -0.11560472846031189 -0.034692928194999695 -0.051829174160957336 -0.09087075293064117 -0.04206763207912445 0.034878432750701904 0.07288914918899536 0.08139455318450928 0.01062193512916565 0.0654280036687851 0.029028043150901794 0.05911949276924133 0.09547226130962372 0.04429242014884949 0.020266711711883545 0.10711124539375305 -0.08308576047420502 0.004545971751213074 0.04432260990142822 0.06554090976715088 0.01656116545200348 0.04416772723197937 0.03340862691402435 0.0344218909740448 -0.09985853731632233 -0.09738367795944214 -0.07212686538696289 0.06729310750961304 0.08133706450462341 0.10986973345279694 0.05594974756240845 -0.0570385605096817 -0.09955938160419464 -0.019833311438560486 0.042930394411087036 -0.03416457772254944 0.021369904279708862 0.02005697786808014 -0.0035394281148910522 -0.1119271069765091 -0.020755350589752197 -0.050316691398620605 0.05289489030838013
-0.053281232714653015 -0.10914883017539978 -0.04690907895565033 0.11037799715995789 0.12431754171848297 -0.08846886456012726 0.007061615586280823 0.0797417163848877 -0.06484279036521912 0.08282524347305298 0.03181159496307373 0.12323296070098877 0.06887388229370117 0.11326044797897339 -0.036252617835998535 0.11151978373527527 0.09096716344356537 0.10672269761562347 -0.01732286810874939 0.058693140745162964 0.09848178923130035 0.05785031616687775 -0.10684588551521301 -0.08873525261878967 -0.00846022367477417 0.10304376482963562 0.0035018473863601685 0.1075257956981659 0.09200885891914368 0.045029401779174805 0.0343264639377594 -0.09251943230628967 0.09010036289691925 0.06669031083583832 -0.028116032481193542 -0.11991845071315765 0.12001967430114746 0.035616159439086914 -0.08168953657150269 0.1124352514743805 0.10365030169487 -0.04710972309112549 -0.0042852312326431274 -0.03727900981903076 0.03144671022891998 -0.07567518949508667 -0.0365666002035141 0.11092697083950043 -0.07670515775680542 -0.1231343001127243 -0.09441545605659485 -0.0750110000371933 0.02141803503036499 -0.023127034306526184 -0.06930260360240936 -0.04639936983585358 -0.047874003648757935 -0.10696420073509216 -0.03097839653491974 -0.06748485565185547 -0.02170388400554657 0.07735419273376465 0.0024538636207580566 0.010746121406555176
-0.11262014508247375 0.07976368069648743 -0.022059336304664612 -0.025773510336875916 -0.06916126608848572 -0.08484865725040436 -0.03369733691215515 -0.04157331585884094 -0.08609907329082489 0.09859369695186615 -0.047438085079193115 0.0016073882579803467 -0.11096636950969696 0.10659588873386383 0.08454807102680206 -0.07447610795497894 0.010449066758155823 0.08285266160964966 -0.04965484142303467 0.08511662483215332 0.11166754364967346 -0.11821487545967102 -0.07014346122741699 -0.028693586587905884 -0.017485111951828003 0.0563284307718277 -0.10282278060913086 -0.006451442837715149 -0.009506523609161377 -0.11599420011043549 0.05974814295768738 0.11506670713424683 0.11761218309402466 -0.08663706481456757 0.0484197735786438 0.012631610035896301 -0.07824355363845825 -0.03976824879646301 -0.02655130624771118 0.08425827324390411 -0.057030364871025085 -0.12438873946666718 0.1070229560136795 0.0995870977640152 0.0368032306432724 -0.1113470196723938 0.04734799265861511 -0.014175966382026672 -0.07929472625255585 -0.0295695960521698 -0.08617785573005676 -0.026610732078552246 -0.017131641507148743 -0.02660462260246277 0.09905919432640076 -0.040400370955467224 -0.10149607062339783 -0.1011829674243927 -0.10574112832546234 0.026796475052833557 -0.04153299331665039 -0.1087864488363266 -0.06588102877140045 0.09004431962966919
0.07668937742710114 0.028161168098449707 -0.1180473119020462 -0.039867281913757324 0.07483179867267609 -0.06701335310935974 -0.026291027665138245 0.01742596924304962 -0.011127620935440063 0.06134690344333649 -0.10895402729511261 -0.04078841209411621 0.10740841925144196 0.09480920433998108 0.09034451842308044 -0.04939571022987366 0.06984981894493103 -0.07399448752403259 -0.04981796443462372 -0.044433265924453735 0.04582759737968445 -0.07245329022407532 -0.08587941527366638 0.04951198399066925 -0.010569840669631958 0.05204823613166809 0.034717366099357605 -0.004162907600402832 -0.04120682179927826 0.0995381623506546 0.12122444808483124 -0.02833370864391327 0.09114263951778412 0.045178890228271484 0.013816878199577332 -0.06317184865474701 -0.07961529493331909 -0.0777936726808548 -0.06755255162715912 -0.043348073959350586 -0.057918623089790344 -0.06491218507289886 0.02403251826763153 -0.11215277016162872 0.07598713040351868 0.07543246448040009 -0.1074071079492569 0.10280033946037292 -0.05073845386505127 0.07377661764621735 -0.016923964023590088 -0.0017692595720291138 0.07806457579135895 -0.010268732905387878 0.08896426856517792 -0.12446866929531097 0.04622006416320801 0.06451421976089478 -0.04545888304710388 0.013709306716918945 -0.08231143653392792 -0.12089809775352478 -0.07354235649108887 0.08215415477752686
-0.00923188030719757 -0.042312830686569214 -0.04819732904434204 -0.06651628017425537 0.03212745487689972 -0.06036290526390076 -0.03943769633769989 -0.03387558460235596 0.08772340416908264 -0.07550221681594849 -0.020258620381355286 -0.03119710087776184 -0.07882873713970184 -0.12284103035926819 0.00811949372291565 0.023403435945510864 -0.12280452251434326 0.016845107078552246 0.019262894988059998 0.07729654014110565 0.017392247915267944 0.07911328971385956 -0.10662998259067535 -0.07588642835617065 -0.12285460531711578 0.11996769905090332 0.04724738001823425 0.01402314007282257 0.011358484625816345 -0.026721373200416565 -0.00099848210811615 -0.011392593383789062 -0.0063689351081848145 -0.03202298283576965 -0.001102164387702942 0.08273747563362122 -0.01329590380191803 0.021382063627243042 0.04533272981643677 0.012500181794166565 0.08393298089504242 -0.04140171408653259 -0.07926182448863983 -0.09241160750389099 0.016105666756629944 0.01370251178741455 -0.12284436821937561 0.08064630627632141 -0.0461975634098053 -0.10599282383918762 -0.053716301918029785 0.09301283955574036 -0.08352796733379364 0.08033700287342072 -0.049538835883140564 0.054281532764434814 -0.06568054854869843 -0.08287087082862854 -0.10892443358898163 -0.023804157972335815 -0.05154474079608917 -0.0200529545545578 0.12364910542964935 -0.02219410240650177
-0.05513574182987213 0.11745506525039673 -0.06673534214496613 0.01391744613647461 0.060029298067092896 -0.10298620164394379 0.02871634066104889 0.1191757321357727 -0.08384236693382263 0.09576065838336945 -0.08840769529342651 -0.07913300395011902 -0.029981136322021484 -0.011127322912216187 0.06153181195259094 0.05891089141368866 0.025535449385643005 -0.1046658456325531 0.03188923001289368 0.09615646302700043 0.06666658818721771 0.03108242154121399 -0.0007605254650115967 0.09179827570915222 -0.04540872573852539 0.01870715618133545 -0.007984459400177002 -0.0925210565328598 -0.03314734995365143 -0.04090303182601929 -0.035444170236587524 0.06854662299156189 -0.06315270066261292 0.08537700772285461 -0.08415031433105469 0.08783422410488129 -0.07763901352882385 0.07623422145843506 -0.055772408843040466 -0.029034137725830078 0.12385380268096924 0.10475799441337585 0.027390271425247192 -0.0459747314453125 0.12145918607711792 0.0681062638759613 -0.052886515855789185 -0.06930731236934662 -0.03491765260696411 0.12479883432388306 0.06653639674186707 0.020099714398384094 0.09392328560352325 0.07847213745117188 0.11834448575973511 -0.11029008030891418 -0.04648062586784363 -0.015628963708877563 0.0023695826530456543 0.09245030581951141 -0.09634076058864594 -0.0024241507053375244 0.03643251955509186 0.013736575841903687
0.06553146243095398 0.04055798053741455 -0.06731052696704865 0.08142521977424622 0.12488709390163422 -0.07642237842082977 0.0048049986362457275 0.06038495898246765 0.11705674231052399 0.10224941372871399 0.014698609709739685 0.0931863933801651 -0.0073135048151016235 -0.12463629245758057 0.11126068234443665 0.05150717496871948 0.04954899847507477 -0.1154923290014267 0.11940006911754608 -0.05283993482589722 -0.09874813258647919 0.10187022387981415 0.0517132431268692 0.002244323492050171 -0.06486335396766663 -0.038305044174194336 0.10596196353435516 0.03633113205432892 0.022922873497009277 0.06638427078723907 0.09160345792770386 -0.08654725551605225 0.05553160607814789 0.028122946619987488 0.013041198253631592 -0.04503732919692993 -0.01851917803287506 -0.11527308821678162 -0.09630690515041351 -0.03466825187206268 -0.04907520115375519 0.08664819598197937 0.08019715547561646 0.0890149474143982 -0.06866505742073059 -0.09708650410175323 -0.06883662939071655 -0.10665546357631683 -0.08194227516651154 0.05387480556964874 -0.10488064587116241 -0.06998546421527863 0.04913492500782013 -0.11136038601398468 0.052364006638526917 0.006121456623077393 0.015021085739135742 -0.06157638132572174 0.0162973552942276 0.016882017254829407 -0.019841015338897705 -0.08847256004810333 0.020972028374671936 0.005208790302276611
-0.01115696132183075 -0.052439555525779724 -0.05578525364398956 0.09138233959674835 -0.10007289052009583 0.01438799500465393 0.11120463907718658 -0.03860656917095184 -0.077725350856781 0.09448182582855225 0.0006570518016815186 0.055851295590400696 0.005666747689247131 0.012500807642936707 -0.09054192900657654 0.0937766432762146 0.08684249222278595 0.020588889718055725 0.033261001110076904 0.10616788268089294 0.07189296185970306 -0.08374901115894318 -0.07165434956550598 -0.012937188148498535 -0.06333556771278381 -0.03564515709877014 -0.04433080554008484 -0.0913858711719513 0.016069456934928894 0.0201081782579422 -0.07242308557033539 -0.014925479888916016 0.004318058490753174 -0.062410250306129456 0.05408880114555359 -0.06972174346446991 -0.005407437682151794 0.10551704466342926 0.10931521654129028 0.10296481847763062 -0.010621681809425354 0.06642705202102661 0.023310184478759766 0.07888452708721161 -0.10892938077449799 0.07763397693634033 -0.08587391674518585 0.009471938014030457 -0.032415613532066345 0.0558655709028244 0.10825148224830627 -0.06126609444618225 0.07629752159118652 0.07969033718109131 0.005157396197319031 -0.027370154857635498 0.07558707892894745 -0.005482807755470276 -0.12148953974246979 0.0005265176296234131 -0.02716095745563507 0.09541520476341248 0.04344560205936432 0.00923869013786316
0.11128298938274384 -0.021774351596832275 0.08116835355758667 0.10624861717224121 -0.04009158909320831 -0.06834514439105988 -0.08325137197971344 -0.005010098218917847 0.05442754924297333 0.12287382781505585 0.01805683970451355 0.10386472940444946 -0.06567618250846863 0.016514167189598083 0.057088300585746765 0.017135396599769592 -0.12210418283939362 -0.06090322136878967 -0.00794866681098938 -0.03468199074268341 0.06328842043876648 0.11451175808906555 -0.10556161403656006 0.05555272102355957 0.028987973928451538 -0.02567233145236969 -0.004298537969589233 0.06566742062568665 0.028000786900520325 0.022216856479644775 -0.04867388308048248 0.08961689472198486 -0.0986306369304657 0.015054509043693542 -0.11643840372562408 0.0020009279251098633 0.04062913358211517 0.04642762243747711 -0.031268179416656494 -0.10926303267478943 0.10403147339820862 0.10602732002735138 0.10517692565917969 -0.05570109188556671 0.08771003782749176 -0.03814150393009186 0.10150468349456787 0.09642800688743591 -0.09570877254009247 0.05900774896144867 -0.06912638247013092 -0.06602884829044342 0.025181487202644348 -0.014385461807250977 0.02490045130252838 -0.10318407416343689 -0.11238856613636017 -0.06911951303482056 0.009425252676010132 0.08281795680522919 -0.04906800389289856 -0.09950274229049683 0.047816723585128784 -0.11047708988189697
-0.00108259916305542 0.11354236304759979 0.11329112946987152 0.006765261292457581 0.08768069744110107 -0.10678833723068237 -0.055465057492256165 0.05464091897010803 0.061280012130737305 0.05103260278701782 -0.09336374700069427 0.06758561730384827 0.012027919292449951 -0.08383964002132416 0.12117873132228851 0.07755933701992035 -0.09292846918106079 -0.07972291111946106 0.027930542826652527 -0.08937720954418182 0.12375085055828094 0.012642472982406616 0.08382794260978699 0.016598880290985107 -0.053557947278022766 0.11029396951198578 -0.03695066273212433 -0.008944883942604065 0.03212513029575348 -0.021686986088752747 -0.10033917427062988 -0.10818147659301758 0.04246450960636139 0.0525527149438858 -0.005740001797676086 0.03260914981365204 -0.10302145779132843 0.035541072487831116 -0.03634369373321533 -0.09794729948043823 -0.09656226634979248 0.1226850152015686 0.06875938177108765 -0.015249133110046387 -0.05693097412586212 -0.08783815801143646 -0.03180590271949768 0.08495822548866272 -0.09537947177886963 0.09847056865692139 0.07091552019119263 0.013321489095687866 -0.09860225021839142 -0.05019448697566986 0.026753351092338562 -0.025657981634140015 -0.05450171232223511 -0.058682531118392944 -0.11022591590881348 -0.11069658398628235 -0.007893532514572144 0.11233687400817871 -0.05706264078617096 -0.11762301623821259
-0.09213279187679291 -0.05121040344238281 -0.07659292221069336 0.026799768209457397 -0.11496850848197937 0.10604733228683472 0.07520720362663269 0.055615246295928955 -0.10884460806846619 0.06456907093524933 0.12288592755794525 -0.10083030164241791 -0.06639406085014343 0.11899054050445557 0.060219600796699524 -0.0007311105728149414 -0.09030014276504517 0.07800760865211487 -0.023993834853172302 0.0790179967880249 0.11551868915557861 -0.1040848046541214 0.047949567437171936 0.11173713207244873 0.07152588665485382 -0.03128468990325928 0.00825279951095581 -0.09774115681648254 -0.04494515061378479 0.09646183252334595 0.034631237387657166 0.01827031373977661 -0.08544240891933441 -0.060793712735176086 0.0016453266143798828 -0.08904685080051422 -0.02911214530467987 0.04801420867443085 0.026937976479530334 -0.07525376975536346 -0.1091763973236084 -0.07702109217643738 -0.09500542283058167 0.05393624305725098 -0.10054284334182739 -0.008698835968971252 -0.021533668041229248 -0.013812333345413208 0.08615624904632568 -0.0012691617012023926 0.06545239686965942 -0.02935539186000824 -0.015377998352050781 -0.029445290565490723 0.00872427225112915 0.08792354166507721 0.06596481800079346 0.11780698597431183 -0.0009168237447738647 -0.002384081482887268 -0.12396882474422455 0.05363959074020386 0.024470582604408264 -0.04377320408821106
-0.006371974945068359 -0.09256725013256073 0.026574179530143738 -0.023513123393058777 0.10566467046737671 -0.009910911321640015 -0.010299667716026306 0.09970240294933319 0.04107443988323212 -0.07161276042461395 -0.08507050573825836 0.05611881613731384 -0.020960882306098938 0.04735708236694336 0.0009428411722183228 0.052435994148254395 -0.03751935064792633 -0.11275851726531982 0.007278621196746826 -0.0008160024881362915 -0.01494520902633667 0.01566605269908905 0.0821322351694107 -0.08430823683738708 -0.08940005302429199 -0.09040297567844391 -0.10158087313175201 -0.0949990451335907 -0.04761210083961487 0.1135607361793518 0.0004747360944747925 0.06936773657798767 -0.048578158020973206 0.04068523645401001 0.039209142327308655 -0.12447640299797058 -0.00969436764717102 0.05292852222919464 -0.12430301308631897 0.06765151023864746 0.07213141024112701 -0.04436999559402466 -0.10264971852302551 0.10389702022075653 0.0726315826177597 -0.015686601400375366 0.06295230984687805 -0.06687156856060028 -0.07365268468856812 0.035400792956352234 -0.10880178213119507 0.05561867356300354 0.06866128742694855 0.10360424220561981 -0.10430900752544403 0.08639189600944519 0.08171917498111725 -0.006623610854148865 0.0005952119827270508 0.10158337652683258 -0.001379355788230896 0.061101481318473816 -0.04838046431541443 -0.07220657169818878
0.11272341012954712 0.05951163172721863 0.04018697142601013 -0.07676084339618683 0.10863345861434937 0.11567410826683044 0.0719720721244812 -0.11457259953022003 -0.08635590970516205 0.11155003309249878 0.01378294825553894 -0.033645883202552795 -0.09992241859436035 0.04208576679229736 -0.11961397528648376 -0.05693681538105011 0.07405436038970947 0.018731728196144104 0.10898378491401672 -0.04364101588726044 0.10697850584983826 0.02351553738117218 -0.004420727491378784 -0.08368106186389923 -0.003670021891593933 -0.06774184107780457 -0.0026814788579940796 0.045447006821632385 -0.024666130542755127 0.041135042905807495 -0.10229575634002686 -0.07840614020824432 -0.04584500193595886 0.0974816083908081 0.04179491102695465 -0.05253899097442627 0.062360361218452454 -0.0587724894285202 0.0025585591793060303 -0.024538978934288025 0.0028244853019714355 -0.05889219045639038 -0.12196850776672363 -0.12036065757274628 0.039643943309783936 -0.07639604806900024 0.11230644583702087 -0.11964745819568634 0.05180932581424713 0.019786253571510315 0.07392728328704834 0.04483455419540405 -0.11608237028121948 0.10997137427330017 0.09888041019439697 -0.06557205319404602 -0.0672830194234848 0.026189833879470825 0.061851680278778076 0.12466989457607269 -0.043270841240882874 -0.10377846658229828 -0.04589182138442993 0.021020621061325073
-0.09868580102920532 -0.005813077092170715 0.088243767619133 0.0730004608631134 0.096676766872406 -0.00012786686420440674 -0.03925831615924835 -0.018016263842582703 -0.09930038452148438 -0.022517919540405273 0.0867433249950409 -0.09641797840595245 0.013954371213912964 -0.10877850651741028 -0.009765833616256714 0.05582082271575928 -0.11582542955875397 0.04110877215862274 -0.1091955304145813 0.11370296776294708 0.027690470218658447 0.034435272216796875 0.015001356601715088 0.07674041390419006 -0.11581774055957794 -0.031074360013008118 -0.05397748947143555 0.02685488760471344 -0.08273917436599731 0.06834706664085388 0.07685120403766632 0.001783519983291626 -0.05347582697868347 0.048637643456459045 -0.1153874397277832 -0.08809393644332886 -0.0010561347007751465 0.07893304526805878 0.014505118131637573 0.027025863528251648 -0.06962771713733673 -0.12051446735858917 0.013880863785743713 -0.019856005907058716 -0.07229536771774292 0.06763562560081482 0.08772812783718109 0.07022330164909363 -0.11189199984073639 -0.0015400201082229614 -0.11108830571174622 -0.008745342493057251 0.03582604229450226 -0.0005340874195098877 -0.06336945295333862 0.044641733169555664 0.02967037260532379 0.06136879324913025 -0.1159304827451706 -0.0645458847284317 0.006014049053192139 -0.0468689501285553 -0.1200694739818573 -0.05734279751777649
-0.10417546331882477 0.041747987270355225 -0.05750297009944916 0.02371770143508911 0.09335312247276306 0.06356525421142578 -0.10557880997657776 -0.10203155875205994 -0.1198340505361557 0.04719202220439911 0.01837584376335144 -0.0615125447511673 -0.0408748984336853 0.09834085404872894 -0.124707892537117 -0.034912869334220886 0.06342098116874695 0.09348772466182709 0.06360340118408203 -0.08081847429275513 0.06615994870662689 0.09507875144481659 0.07628616690635681 0.06555360555648804 0.04250544309616089 -0.028484269976615906 0.04832164943218231 0.05723196268081665 -0.05256955325603485 -0.07918645441532135 -0.021445631980895996 0.0926034152507782 -0.045806050300598145 0.11448787152767181 0.013903528451919556 0.049465835094451904 -0.02377079427242279 0.07075093686580658 0.030978769063949585 -0.0817667692899704 0.06902159750461578 0.11266821622848511 -0.09198214113712311 0.047080039978027344 -0.052477702498435974 -0.05502396821975708 0.03321714699268341 -0.11170917749404907 -0.11748777329921722 0.015943869948387146 -0.07761943340301514 -0.08612705767154694 0.04549512267112732 -0.11573748290538788 0.09133939445018768 0.11360985040664673 -0.017868950963020325 0.12092036008834839 0.0011481791734695435 -0.0945790559053421 0.09766383469104767 0.09876580536365509 -0.009630575776100159 -0.10537493228912354
0.06142425537109375 -0.073818638920784 -0.038330331444740295 -0.020744800567626953 0.10045772790908813 0.04409275949001312 -0.00019632279872894287 0.1055392473936081 0.10870295763015747 0.03658352792263031 -0.03139534592628479 0.11863827705383301 0.11730538308620453 0.0007437765598297119 0.07586252689361572 -0.025461435317993164 0.07877658307552338 -0.08117657899856567 0.09627142548561096 -0.003053620457649231 0.014281943440437317 -0.074454665184021 0.0020842701196670532 -0.04286441206932068 -0.07532204687595367 0.07972513139247894 -0.036134764552116394 -0.0035212934017181396 -0.053224459290504456 0.04747740924358368 -0.0680055171251297 -0.0713893473148346 0.04743415117263794 0.10212202370166779 0.12067152559757233 0.02930338680744171 0.11892540752887726 -0.09205441176891327 0.05887459218502045 0.05461156368255615 0.08871881663799286 -0.08221742510795593 0.06515966355800629 -0.011323302984237671 -0.025956928730010986 -0.041978880763053894 0.04135347902774811 0.061989158391952515 -0.10178723931312561 0.039886802434921265 -0.061338648200035095 0.0024174153804779053 0.052419841289520264 0.07406100630760193 0.007862716913223267 0.03658375144004822 -0.011273473501205444 0.03166387975215912 -0.11023056507110596 0.08936174213886261 0.05007798969745636 0.10488525032997131 0.06886963546276093 -0.06756041944026947
0.06361311674118042 0.06306472420692444 0.07248865067958832 -0.08987250924110413 -0.09182405471801758 -0.02907925844192505 -0.01948961615562439 0.055401578545570374 -0.07483930885791779 -0.044101327657699585 0.022140949964523315 0.11332915723323822 -0.0948529839515686 0.04518960416316986 0.02833692729473114 0.09255988895893097 -0.03586201369762421 0.07943463325500488 -0.1230321079492569 -0.12022723257541656 0.029833659529685974 0.023810669779777527 0.07065035402774811 0.02369232475757599 0.008719265460968018 0.040822774171829224 -0.0925787091255188 -0.06843183934688568 0.05648094415664673 0.07399803400039673 -0.06233491003513336 0.08247487246990204 -0.007760792970657349 -0.07571907341480255 0.026718586683273315 0.09994855523109436 0.06692850589752197 0.05878259241580963 0.05171523988246918 0.08691541850566864 -0.07136371731758118 0.03609474003314972 -0.08688582479953766 -0.004898741841316223 -0.09751343727111816 -0.08543871343135834 -0.0006313323974609375 -0.09932555258274078 0.10570676624774933 -0.06912903487682343 -0.11720886826515198 -0.1187511533498764 0.08108939230442047 -0.021107837557792664 0.037230730056762695 0.05830812454223633 -0.006547361612319946 0.06246921420097351 0.0875949114561081 0.10781364142894745 -0.0952576994895935 0.05417117476463318 0.08021987974643707 0.000696331262588501
-0.11084499955177307 0.03577013313770294 -0.03985297679901123 -0.10860618948936462 0.02096863090991974 -0.05130624771118164 -0.07586583495140076 0.12413203716278076 -0.01658111810684204 -0.02012614905834198 -0.02558685839176178 -0.07972341775894165 0.07521504163742065 0.058976978063583374 -0.022394999861717224 -0.0071237534284591675 0.03680604696273804 -0.005568057298660278 -0.09415577352046967 0.06550095975399017 -0.035365551710128784 0.005360156297683716 0.08690235018730164 0.08992215991020203 -0.0998576283454895 0.09358474612236023 0.010867699980735779 0.004408538341522217 -0.10404156148433685 0.018415361642837524 -0.014578163623809814 -0.031144052743911743 -0.07381880283355713 -0.03120286762714386 0.012330278754234314 -0.07035483419895172 -0.04800328612327576 -0.0037422925233840942 -0.1099262535572052 -0.07175056636333466 -0.03561265766620636 0.07317599654197693 0.016689077019691467 -0.03234769403934479 0.04883547127246857 0.020115047693252563 -0.10869620740413666 -0.05901464819908142 0.05785684287548065 -0.023792892694473267 -0.03154180943965912 -0.08346839249134064 0.08352576196193695 -0.057212963700294495 0.03856682777404785 -0.036222055554389954 0.026241347193717957 0.08887574076652527 0.06915061175823212 0.059471115469932556 -0.009098634123802185 0.11599959433078766 -0.04632429778575897 0.04319290816783905
-0.05193406343460083 -0.0855633020401001 0.12347383797168732 0.11329934000968933 0.11389386653900146 -0.06352806091308594 -0.10592801868915558 -0.10621291399002075 -0.07846103608608246 0.016594737768173218 0.03922051191329956 0.0732555091381073 -0.09367024898529053 0.050557926297187805 -0.09084232151508331 0.09316657483577728 -0.0800500214099884 0.0013477057218551636 -0.05769643187522888 0.08835548162460327 0.025045335292816162 0.07887667417526245 0.11659283936023712 0.06603236496448517 -0.10934758186340332 -0.0294874906539917 -0.10632443428039551 0.09786626696586609 -0.04262992739677429 0.10239969193935394 -0.09679894149303436 -0.10658882558345795 0.0124758780002594 0.10645568370819092 0.02554003894329071 -0.10922315716743469 0.0019958168268203735 0.09300513565540314 -0.0711134523153305 -0.05728714168071747 -0.002149909734725952 0.05243873596191406 -0.022494971752166748 -0.030313238501548767 -0.005904197692871094 -0.01741132140159607 -0.07037915289402008 -0.12447015941143036 -0.10590992867946625 0.11487369239330292 0.0397326797246933 -0.047763124108314514 -0.07967834174633026 -0.11005741357803345 -0.03733944892883301 0.0047931671142578125 -0.03750386834144592 0.05466414988040924 -0.0575314462184906 -0.07045625150203705 0.02611720561981201 -0.11983872950077057 -0.12428440153598785 -0.032915472984313965
0.014852151274681091 0.09692643582820892 -0.06491532921791077 -0.044327884912490845 0.02385464310646057 0.11076149344444275 -0.042798712849617004 -0.03812718391418457 -0.08583743870258331 7.233023643493652e-05 -0.05396375060081482 -0.11003197729587555 0.05022728443145752 -0.06588897109031677 0.08807268738746643 -0.04583375155925751 0.04235430061817169 0.05490158498287201 0.05494903028011322 -0.031050607562065125 -0.02090880274772644 -0.0885777622461319 0.06677709519863129 0.09408947825431824 -0.024705752730369568 0.11670127511024475 0.0021084100008010864 -0.08057790994644165 0.03794126212596893 -0.08127892017364502 -0.04127512872219086 0.12025630474090576 -0.10264641046524048 -0.05277414619922638 -0.03045731782913208 -0.007804736495018005 -0.06367987394332886 0.008402004837989807 -0.03191637992858887 -0.0483173131942749 -0.08180136978626251 0.025673016905784607 -0.10805720090866089 0.06488670408725739 -0.06489112973213196 -0.007003620266914368 -0.030295372009277344 -0.1148790568113327 -0.039246201515197754 0.04818509519100189 0.022366493940353394 -0.007342144846916199 -0.05505670607089996 0.07800808548927307 -0.07676962018013 0.08614170551300049 0.08433070778846741 -0.07537569105625153 0.06691277027130127 -0.08001980185508728 -0.10143963992595673 -0.11876057088375092 -0.055636927485466 0.061599478125572205
-0.11313508450984955 -0.015490144491195679 0.018109872937202454 -0.09805576503276825 -0.01154547929763794 0.11234049499034882 0.017443597316741943 0.06553831696510315 0.10494855046272278 -0.08427919447422028 -0.002852335572242737 -0.02320575714111328 -0.0009633898735046387 0.0351765900850296 0.01012393832206726 0.0707445740699768 -0.029760971665382385 0.04054422676563263 -0.006606936454772949 -0.01594606041908264 0.02874317765235901 -0.10273206233978271 0.007195129990577698 0.0662812888622284 -0.0742461085319519 0.018920138478279114 0.06784535944461823 -0.10708355903625488 0.06469649076461792 0.011424079537391663 -0.07304064929485321 0.029819875955581665 0.09550122916698456 -0.10232611000537872 -0.07989560067653656 -0.11844773590564728 0.05050279200077057 0.0785469114780426 0.015109285712242126 -0.030572712421417236 0.09243156015872955 -0.007320120930671692 0.1113419234752655 0.06593035161495209 -0.1175539642572403 0.0666303038597107 -0.04883287847042084 -0.07516567409038544 0.054673999547958374 0.01326945424079895 0.09529149532318115 0.022763878107070923 0.03686407208442688 -0.10395234823226929 0.06678251922130585 0.008818134665489197 -0.10777100920677185 0.06261025369167328 -0.06716844439506531 0.0010307282209396362 -0.06926262378692627 -0.05595456063747406 -0.05979004502296448 0.05457831919193268
-0.016848087310791016 0.056296467781066895 0.11925430595874786 0.05047374963760376 -0.012233078479766846 0.10969017446041107 0.03186039626598358 -0.04439710080623627 0.02797490358352661 -0.055717095732688904 0.014576449990272522 0.08140115439891815 -0.11848817765712738 0.02255953848361969 -0.01933431625366211 0.030788972973823547 -0.11830520629882812 0.026293247938156128 -0.11290763318538666 -0.025074049830436707 -0.09246000647544861 0.04955960810184479 -0.02352677285671234 0.09679310023784637 0.09917226433753967 -0.039524197578430176 0.04685601592063904 0.10097114741802216 0.08736167848110199 -0.036126792430877686 -0.05601052939891815 -0.014638826251029968 -0.03977726399898529 0.11767946183681488 -0.020844921469688416 -0.08284439146518707 0.10428239405155182 0.08890266716480255 -0.10169370472431183 -0.09558629989624023 -0.05996255576610565 -0.025083616375923157 -0.08324369788169861 0.07593026757240295 -0.06133727729320526 -0.1177649050951004 -0.0963127613067627 -0.02333332598209381 -0.019069388508796692 -0.05738705396652222 0.020843490958213806 0.02070823311805725 0.0427139550447464 -0.0027602463960647583 -0.05606868863105774 -0.06660912930965424 -0.06788696348667145 -0.10427100956439972 0.1062188595533371 0.11885763704776764 0.07638052105903625 -0.01963670551776886 0.05600865185260773 -0.055028513073921204
-0.10393990576267242 -0.04829686880111694 0.061599284410476685 0.11451759934425354 0.07523860037326813 0.04744957387447357 -0.08509998023509979 0.11178332567214966 0.07946932315826416 0.08101020753383636 -0.013200148940086365 -0.025174632668495178 -0.042984798550605774 -0.007797867059707642 -0.07623220980167389 -0.06851217150688171 0.010002762079238892 -0.09646908938884735 0.08393295109272003 -0.07404963672161102 -0.018708616495132446 -0.09065558016300201 -0.039463818073272705 0.07405941188335419 0.03717406094074249 -0.03511510789394379 -0.06250154972076416 0.10600936412811279 -0.07325339317321777 0.10449548065662384 0.10998809337615967 -0.04207390546798706 -0.04710683226585388 0.03208737075328827 -0.05439998209476471 0.12196874618530273 -0.03262525796890259 -0.03242851793766022 0.10038630664348602 -0.04025086760520935 0.03373707830905914 0.07203061878681183 0.012841716408729553 0.07774804532527924 0.04901452362537384 0.10385474562644958 -0.10147455334663391 0.10721533000469208 -0.1045391857624054 -0.09011365473270416 -0.07021893560886383 0.06898875534534454 0.02664726972579956 -0.018588468432426453 0.03533986210823059 0.0420302152633667 -0.009092703461647034 -0.09348902106285095 -0.03507104516029358 0.013079822063446045 -0.11907646059989929 -0.0453278124332428 -0.06546826660633087 -0.0845438539981842
-0.05063329637050629 -0.06226705014705658 -0.0693880170583725 0.03176569938659668 0.021121397614479065 -0.04088136553764343 -0.07140232622623444 -0.0920998752117157 0.106011763215065 -0.12415803968906403 -0.0015879422426223755 0.12247820198535919 0.008034959435462952 0.057501375675201416 0.10881277918815613 -0.08848404884338379 -0.10682716965675354 0.027729719877243042 -0.11146458983421326 0.04212884604930878 0.04735511541366577 0.11226131021976471 0.05930224061012268 -0.010509192943572998 -0.09210330247879028 -0.1209818422794342 0.08910612761974335 0.11666284501552582 -0.06752623617649078 -0.12096905708312988 -0.12167693674564362 -0.11742919683456421 0.04529239237308502 0.09295208752155304 0.12050536274909973 -0.012679815292358398 0.06988726556301117 -0.03584727644920349 -0.06734251976013184 -0.04892045259475708 0.023164257407188416 -0.006067097187042236 -0.0314972847700119 0.028034687042236328 0.10553476214408875 0.030973881483078003 0.05272352695465088 -0.06999187171459198 0.03744646906852722 0.04152140021324158 0.07613284885883331 -0.08233195543289185 0.06948110461235046 0.008518770337104797 -0.08070133626461029 -0.11345191299915314 0.027638792991638184 0.057027265429496765 0.037723228335380554 -0.11276240646839142 0.009901702404022217 0.0032829195261001587 -0.04119722545146942 -0.023967117071151733
0.08182182908058167 0.07628098130226135 0.07671195268630981 0.08097447454929352 -0.1248529851436615 -0.028895258903503418 0.06640000641345978 0.015075638890266418 0.11560054123401642 0.012931540608406067 0.11917909979820251 -0.08322502672672272 0.08840037882328033 -0.07481493055820465 -0.07522131502628326 0.04878373444080353 -0.03973042964935303 -0.06694851815700531 0.11743436753749847 0.01571469008922577 -0.014341920614242554 -0.07971842586994171 -0.012072727084159851 -0.026473671197891235 -0.06228242814540863 0.06238195300102234 -1.7687678337097168e-05 -0.05997796356678009 0.11035937070846558 -0.059186726808547974 0.08512401580810547 -0.09905737638473511 -0.054136231541633606 0.09963423013687134 0.10888463258743286 -0.0809190422296524 0.10150231420993805 -0.10894519090652466 -0.05671803653240204 0.0668826699256897 -0.0530322790145874 -0.049448162317276 0.09003406763076782 0.11759242415428162 0.03383199870586395 -0.03478620946407318 0.11367350816726685 0.04629369080066681 -0.06062480807304382 0.09532913565635681 0.0716295838356018 0.07526572048664093 -0.008504822850227356 0.08698710799217224 -0.08593538403511047 -0.09388467669487 -0.06893247365951538 0.08409519493579865 0.07954277098178864 0.013592183589935303 0.123281329870224 0.007051005959510803 -0.02327863872051239 -0.020888105034828186
-0.10543245077133179 -0.0544985830783844 -0.06052292883396149 -0.01421000063419342 -0.04901359975337982 0.0037650316953659058 0.12459105253219604 -0.12075725197792053 -0.03312104940414429 0.08881421387195587 -0.07762539386749268 0.1157875508069992 0.0868806540966034 -0.1184467226266861 0.002679884433746338 -0.06532171368598938 0.05119854211807251 0.01717430353164673 -0.00894629955291748 0.06524105370044708 -0.0007713884115219116 -0.01826392114162445 0.08162356913089752 -0.06235146522521973 0.06357075273990631 0.09276215732097626 0.08730213344097137 -0.08395600318908691 0.03126780688762665 0.07585462927818298 -0.08575068414211273 0.06060764193534851 0.03061939775943756 0.05845029652118683 0.10347644984722137 0.11461184918880463 -0.06646689772605896 -0.03454269468784332 0.0774247944355011 -0.10764902830123901 -0.0957641750574112 -0.006712377071380615 -0.027469739317893982 0.047590553760528564 0.02245841920375824 -0.05720238387584686 0.019532620906829834 -0.0739014744758606 -0.037488311529159546 0.1038077175617218 0.1086043119430542 -0.11217895150184631 -0.10040619969367981 -0.021181657910346985 -0.06979012489318848 0.008164167404174805 -0.051649779081344604 -0.0286598801612854 0.06828929483890533 -0.036140233278274536 0.017966151237487793 -0.04333752393722534 -0.031079605221748352 0.09690499305725098
-0.06305952370166779 -0.09698134660720825 -0.09612052142620087 -0.08900821208953857 -0.05826936662197113 -0.03301604092121124 -0.024406522512435913 0.07064001262187958 -0.09978063404560089 0.12433885037899017 -0.07369405031204224 0.006188228726387024 -0.03571876883506775 0.11758457124233246 -0.054145559668540955 0.00048579275608062744 0.014097213745117188 0.11314451694488525 -0.04433779418468475 -0.01473100483417511 0.01888294517993927 -0.08167745172977448 -0.11576807498931885 0.08629007637500763 -0.08557207882404327 0.09684582054615021 -0.09106795489788055 0.046499401330947876 -0.01171836256980896 0.058011189103126526 -0.12262965738773346 0.03374142944812775 0.026554539799690247 -0.012076228857040405 -0.07205967605113983 0.05153800547122955 0.014139965176582336 0.08013710379600525 0.058449625968933105 0.024186834692955017 -0.09025122225284576 0.10494229197502136 0.06717179715633392 0.03290097415447235 0.01683744788169861 0.023436158895492554 -0.03380227088928223 0.017466723918914795 -0.004305511713027954 -0.019861921668052673 -0.011932209134101868 0.11150851845741272 -0.04118292033672333 0.10789084434509277 0.005752012133598328 -0.026492923498153687 -0.07772979140281677 0.09276580810546875 0.022792205214500427 -0.1070864349603653 0.06441214680671692 -0.06681129336357117 0.012850284576416016 -0.06002911925315857
-0.10804860293865204 -0.015483483672142029 -0.08720812201499939 -0.06575252115726471 -0.03924718499183655 0.026401370763778687 0.03799796104431152 0.0345102995634079 -0.10093536972999573 0.09349648654460907 0.014354139566421509 -0.0822032243013382 -0.04911497235298157 -0.036088645458221436 -0.05060693621635437 0.06571267545223236 -0.021065548062324524 -0.002457067370414734 -0.048755943775177 0.05947120487689972 0.02319304645061493 -0.04974229633808136 -0.06329959630966187 0.10313324630260468 0.09453137218952179 -0.012936174869537354 0.01084563136100769 0.06496676802635193 -0.1217336356639862 0.004013776779174805 0.09263138473033905 -0.05419871211051941 0.11306670308113098 -0.11666035652160645 0.07052190601825714 -0.05959394574165344 -0.08369503915309906 -0.10622502863407135 0.10632824897766113 0.11284084618091583 0.013608798384666443 -0.051487997174263 0.09875224530696869 -0.024943426251411438 -0.028755471110343933 0.08603659272193909 -0.011074364185333252 0.05749210715293884 -0.06106993556022644 0.014021873474121094 0.013924509286880493 -0.11526674032211304 0.12210248410701752 0.04017026722431183 0.01715885102748871 -0.0736747682094574 0.015605494379997253 -0.017068609595298767 -0.06992043554782867 0.10397033393383026 0.06251473724842072 0.028775528073310852 0.03763936460018158 -0.032306134700775146
-0.017221078276634216 0.0005995184183120728 0.047013312578201294 -0.03707441687583923 0.036909595131874084 -0.0849199891090393 -0.002256914973258972 -0.04631069302558899 -0.08932815492153168 0.12059211730957031 0.07917490601539612 0.005128636956214905 0.03355424106121063 0.058113232254981995 -0.009863406419754028 0.07293672859668732 -0.005263194441795349 -0.1090586930513382 0.06320872902870178 0.029980376362800598 -0.009360939264297485 0.1034981906414032 0.10689970850944519 -0.03251095116138458 -0.11441749334335327 -0.03403729200363159 -0.08553096652030945 0.11183728277683258 0.08476096391677856 -0.09638705849647522 0.017065048217773438 0.0633457750082016 0.022174865007400513 0.018096208572387695 0.10702838003635406 -0.02298605442047119 -0.11639510095119476 -0.09599204361438751 0.05327807366847992 -0.026782959699630737 0.0812622457742691 0.03405104577541351 -0.11977647244930267 -0.05825595557689667 -0.08315052092075348 0.0941135585308075 0.05772647261619568 0.04310275614261627 0.038709357380867004 -0.07040101289749146 -0.050322964787483215 0.0987989604473114 0.020038262009620667 0.04446740448474884 0.008256509900093079 0.08075790107250214 -0.002067580819129944 -0.05457553267478943 -0.026587560772895813 -0.07977841794490814 0.11680428683757782 0.033744484186172485 -0.11006593704223633 0.004551425576210022
0.025510579347610474 0.09734180569648743 -0.1186298280954361 0.06060655415058136 -0.003883853554725647 0.07884678244590759 -0.03309670090675354 -0.10480605065822601 0.0805499404668808 0.01667235791683197 0.09155447781085968 -0.07524381577968597 -0.07489801943302155 -0.029127851128578186 0.05121836066246033 -0.11535507440567017 -0.052737265825271606 0.006728574633598328 0.11968274414539337 0.032178059220314026 -0.02522176504135132 0.03741455078125 -0.005935207009315491 0.01499079167842865 0.03058895468711853 -0.08191947638988495 -0.018248483538627625 0.06273998320102692 0.1207892894744873 -0.026932060718536377 -0.06719475984573364 0.013033151626586914 0.08252663910388947 -0.028335824608802795 -0.08454449474811554 -0.056818991899490356 -0.04805557429790497 -0.033694684505462646 -0.09372235834598541 -0.048936888575553894 0.051708295941352844 -0.08135227859020233 0.10433188080787659 0.07408556342124939 -0.006322041153907776 -0.12314298748970032 -0.03717944025993347 0.012496456503868103 -0.07686176896095276 0.05042479932308197 0.06833280622959137 0.05262230336666107 0.11815565824508667 0.00931522250175476 -0.048236966133117676 -0.0600387305021286 0.05241928994655609 0.021610647439956665 0.05456998944282532 -0.05513183772563934 0.050993531942367554 0.11586770415306091 -0.08722229301929474 0.031305328011512756
0.0011169463396072388 0.06630617380142212 0.02937251329421997 -0.030325934290885925 -0.04317349195480347 0.07235787808895111 -0.06667548418045044 -0.07190278172492981 -0.08227258920669556 0.08838345110416412 0.05339762568473816 0.078524649143219 0.12012389302253723 -0.054840415716171265 -0.027686521410942078 0.05074326694011688 0.11576980352401733 0.05864192545413971 -0.013115331530570984 -0.08284205198287964 0.06774765253067017 0.002739548683166504 -0.031789615750312805 0.10135987401008606 -0.05026210844516754 0.05325087904930115 0.08974377810955048 -0.0361563116312027 0.0020598173141479492 -0.04486837983131409 -0.11289875209331512 -0.029476433992385864 0.08883075416088104 -0.017934203147888184 -0.00734730064868927 -0.09328894317150116 0.10878930985927582 0.018364638090133667 -0.02433265745639801 -0.11704924702644348 0.05831331014633179 0.034956544637680054 0.03148476779460907 0.07135547697544098 0.09820081293582916 0.08684760332107544 -0.05357186496257782 0.0593559592962265 0.09060344099998474 -0.015100285410881042 0.05718214809894562 -0.046670615673065186 0.0964912474155426 0.0919456034898758 0.022041037678718567 0.02147582173347473 0.08991138637065887 0.04672586917877197 0.06386891007423401 -0.04085414111614227 -0.11127905547618866 0.10296861827373505 -0.032009124755859375 -0.08357751369476318
-0.03032594919204712 -0.10041901469230652 0.10245120525360107 -0.1160314530134201 0.12438419461250305 -0.06065739691257477 -0.02047388255596161 -0.0949583500623703 0.019861236214637756 -0.0914413183927536 0.11496978998184204 0.06931298971176147 -0.11402364075183868 -0.003022700548171997 -0.05966570973396301 -0.01944798231124878 0.020015910267829895 0.031626418232917786 0.023080259561538696 -0.04682214558124542 0.06207205355167389 -0.006869196891784668 0.11941054463386536 -0.02997460961341858 -0.06202724575996399 -0.11864325404167175 0.11552056670188904 -0.12467268109321594 0.014863848686218262 0.091808021068573 0.09262843430042267 0.11904045939445496 -0.09709466993808746 -0.08050094544887543 -0.0105353444814682 0.06697458028793335 0.029928162693977356 0.07180848717689514 0.05977661907672882 -0.1082371324300766 0.11234086751937866 -0.10982875525951385 0.1198519766330719 -0.021710962057113647 -0.024634256958961487 -0.026877835392951965 0.06719309091567993 0.1197013258934021 -0.03521403670310974 -0.08927862346172333 0.09248188138008118 0.10574711859226227 -0.11321847140789032 0.015678226947784424 0.11520819365978241 0.045260533690452576 0.06977982819080353 -0.05805577337741852 -0.07920056581497192 -0.04864510893821716 0.12366129457950592 -0.05555461347103119 0.06890062987804413 0.051033034920692444
-0.015479609370231628 -0.007930740714073181 -0.040442973375320435 -0.07040470838546753 -0.029181495308876038 0.07058185338973999 -0.09386013448238373 0.09853047132492065 0.07696044445037842 -0.05654454231262207 0.0787336528301239 -0.053195834159851074 -0.06595583260059357 0.07396472990512848 -0.02165915071964264 -0.0776260495185852 -0.0021945685148239136 0.0034509748220443726 0.004982054233551025 -0.006869569420814514 -0.08717864751815796 -0.016858413815498352 -0.11654026806354523 0.11284530162811279 -0.10322964191436768 0.014272764325141907 0.06034158170223236 -0.0787712037563324 0.013469398021697998 -0.05566170811653137 -0.000967562198638916 0.05481010675430298 0.1054483950138092 -0.08697117865085602 -0.037879571318626404 0.03909805417060852 0.034156277775764465 -0.07363250851631165 0.00022140145301818848 0.040281638503074646 0.03404562175273895 -0.010050222277641296 0.03466419875621796 0.03204469382762909 0.08982890844345093 -0.03411516547203064 0.057673051953315735 0.11395731568336487 0.12256576120853424 -0.01051168143749237 0.07810308039188385 -0.07978878915309906 0.10255566239356995 0.017102330923080444 -0.06070534884929657 0.11938264966011047 0.07165241241455078 -0.023631423711776733 0.021473169326782227 0.03380359709262848 0.03807453811168671 -0.09209293127059937 -0.06150251626968384 -0.08520428836345673
0.02552686631679535 0.0059736669063568115 -0.035742998123168945 0.01271095871925354 0.034264445304870605 0.10153715312480927 0.0832204520702362 0.06766350567340851 -0.09579864144325256 0.10433493554592133 -0.05887100100517273 -0.10323929786682129 0.010508239269256592 0.01138836145401001 -0.05795362591743469 -0.009267553687095642 0.03558191657066345 0.027877867221832275 -0.0998188704252243 0.017626702785491943 0.005248129367828369 -0.06766390800476074 0.08787444233894348 0.10989657044410706 -0.006419256329536438 0.05216924846172333 0.0683353990316391 -0.014399930834770203 0.10125723481178284 -0.03532502055168152 -0.06431980431079865 0.01792985200881958 0.05175173282623291 -0.11200520396232605 0.09075231850147247 -0.07057096064090729 -0.05588904023170471 -0.05749419331550598 -0.002555936574935913 0.08865322172641754 0.062039390206336975 0.04961274564266205 0.03352968394756317 -0.07830199599266052 -0.06773954629898071 -0.1114044040441513 -0.11678311228752136 -0.021831735968589783 -0.09440945088863373 0.07028244435787201 -0.004105105996131897 -0.1082986444234848 0.00679895281791687 -0.07578511536121368 -0.08176775276660919 0.021811246871948242 -0.11193734407424927 -0.09335088729858398 0.12321160733699799 0.08264246582984924 0.12203168869018555 -0.11782830953598022 0.048440396785736084 0.0559244304895401
0.04596798121929169 0.09957006573677063 -0.01657070219516754 0.043669283390045166 0.07878552377223969 -0.019108131527900696 0.12054461240768433 0.12172350287437439 0.11997576057910919 0.053775474429130554 0.07113644480705261 -0.0497504323720932 0.11228257417678833 0.09828758239746094 -0.11750826239585876 0.10258631408214569 0.0046462565660476685 -0.02126474678516388 -0.12028822302818298 0.000731348991394043 0.08094526827335358 -0.1082175225019455 -0.09125979244709015 0.039457157254219055 -0.019243568181991577 -0.11399111151695251 0.07597005367279053 -0.004530265927314758 -0.01891632378101349 0.03796336054801941 0.07136249542236328 0.08270946145057678 0.10083135962486267 -0.040293797850608826 0.0315699577331543 -0.10780850052833557 0.09989827871322632 -0.03689815104007721 0.04087541997432709 0.03741276264190674 0.043698787689208984 -0.06572344899177551 -0.06302770972251892 -0.06111502647399902 0.11372102797031403 0.009152606129646301 -0.010759443044662476 0.059408292174339294 0.11759942770004272 -0.10835349559783936 -0.0908842384815216 -0.009146034717559814 0.03910176455974579 -0.06662033498287201 0.0381445437669754 0.09695729613304138 -0.009771376848220825 0.06977163255214691 0.06942892074584961 0.04338909685611725 0.110447958111763 0.043133288621902466 0.004736647009849548 0.10997262597084045
-0.07164016366004944 -0.005367308855056763 0.052296921610832214 -0.04075363278388977 -0.06146378815174103 0.03306874632835388 0.108069509267807 0.06422047317028046 -0.0999002456665039 0.07875549793243408 0.11167258024215698 -0.04028944671154022 0.10369548201560974 -0.11443950235843658 0.035682812333106995 0.1212250292301178 -0.0038794130086898804 0.015836015343666077 -0.019440650939941406 -0.004659771919250488 0.015093415975570679 0.011212453246116638 0.08643835783004761 -0.10811080038547516 -0.04610215127468109 -0.01925770938396454 0.07767263054847717 -0.015558108687400818 0.09430386126041412 -0.024410083889961243 -0.03282669186592102 0.08875153958797455 -0.1171923279762268 -0.043526068329811096 -0.09388755261898041 0.0932338684797287 0.07298967242240906 0.00035043060779571533 -0.0761052817106247 0.1170453131198883 0.12295117974281311 0.08481338620185852 0.07583728432655334 0.01500771939754486 -0.05703377723693848 -0.08483648300170898 -0.09590816497802734 -0.10828210413455963 0.023562923073768616 -0.12174707651138306 0.04620125889778137 -0.042494386434555054 -0.0898732990026474 0.12032465636730194 -0.09705063700675964 0.004918605089187622 0.059658393263816833 0.01465897262096405 0.00235806405544281 -0.11389172077178955 -0.016479015350341797 0.11349804699420929 -0.04356108605861664 -0.12447026371955872
-0.10506902635097504 0.11292198300361633 -0.010894820094108582 -0.08557775616645813 0.05486755073070526 0.0374169647693634 0.049305811524391174 -0.06576260924339294 0.11703653633594513 0.027617022395133972 -0.008978128433227539 0.09030696749687195 0.06694822013378143 -0.03186197578907013 -0.0033712685108184814 -0.023628130555152893 0.04321032762527466 -0.11359274387359619 0.002335190773010254 -0.03337857127189636 -0.006194025278091431 0.09128257632255554 -0.054574429988861084 -0.08952493965625763 -0.04948396980762482 -0.01689837872982025 0.09619815647602081 0.07604873180389404 -0.04880140721797943 0.06253132224082947 0.12283186614513397 -0.09500360488891602 -0.006254702806472778 -0.086199551820755 -0.08901719748973846 0.006729722023010254 0.04785534739494324 -0.018006324768066406 0.10282626748085022 0.07217597961425781 -0.03929072618484497 -0.014944344758987427 -0.08413144946098328 0.0030537843704223633 0.07004515826702118 0.08496984839439392 -0.00508512556552887 0.011777713894844055 -0.10085532069206238 -0.07794411480426788 0.07947863638401031 0.11176793277263641 -0.01616072654724121 0.07328659296035767 0.009627744555473328 0.032255128026008606 0.0837368369102478 -0.11785745620727539 -0.0025800317525863647 0.11663530766963959 0.09459565579891205 -0.05298560857772827 0.06281541287899017 -0.019002199172973633
0.057656869292259216 0.0975210964679718 -0.09799274802207947 0.0484839528799057 -0.07378672063350677 0.012518003582954407 -0.03822062909603119 0.036942124366760254 -0.035276174545288086 -0.07252851128578186 0.06377764046192169 0.08234062790870667 0.07145142555236816 0.07065050303936005 -0.0801362693309784 0.0061470866203308105 0.06446602940559387 0.003108665347099304 0.013593301177024841 0.07461541891098022 0.033290788531303406 0.0644809752702713 0.10041540861129761 -0.030351340770721436 -0.08831092715263367 -0.10005514323711395 -0.0008559972047805786 0.028064653277397156 -0.010566428303718567 0.10698500275611877 0.01532745361328125 -0.08044570684432983 0.03691655397415161 -0.018517285585403442 -0.05767397582530975 0.0645909458398819 -9.164214134216309e-05 0.0876026600599289 -0.011949658393859863 -0.06753700971603394 -0.094975546002388 -0.02613760530948639 -0.12335328757762909 -0.09565480053424835 -0.093880295753479 -0.04162760078907013 -0.0980883240699768 0.0444660484790802 0.03013172745704651 0.03578503429889679 0.09263409674167633 0.10788588225841522 -0.07988190650939941 0.06820181012153625 -0.021990925073623657 0.08860878646373749 0.009654343128204346 -0.11608591675758362 0.07913365960121155 0.08650301396846771 0.03701522946357727 0.04406501352787018 -0.0454428493976593 0.002992779016494751
-0.02546893060207367 0.11450746655464172 0.08205994963645935 -0.11566923558712006 0.03839515149593353 0.10698749125003815 -0.1039840430021286 -0.10696765780448914 0.003223434090614319 0.051144078373909 0.08989173173904419 -0.005547821521759033 -0.06628647446632385 -0.012303322553634644 -0.005575701594352722 -0.050502002239227295 -0.018432408571243286 0.12293672561645508 0.10240058600902557 0.06040419638156891 -0.12021090090274811 0.025307729840278625 -0.06941911578178406 0.10038980841636658 0.001768946647644043 -0.1030890941619873 -0.04057590663433075 0.0879533588886261 -0.031086847186088562 -0.06529922783374786 0.05705524981021881 -0.09563557803630829 6.103515625e-05 0.026845350861549377 -0.05205598473548889 -0.041187167167663574 -0.024548843502998352 0.028465554118156433 -0.04845316708087921 -0.05701705813407898 0.015311852097511292 0.028286144137382507 0.04767301678657532 -0.11225035786628723 0.12152926623821259 0.02388259768486023 -0.07332603633403778 -0.0705086886882782 -0.11256977915763855 -0.0032375454902648926 0.09709370136260986 0.10925108194351196 0.0178682804107666 -0.026001542806625366 0.06421472132205963 0.06209537386894226 -0.10002198815345764 -0.04504099488258362 0.01233498752117157 -0.11403706669807434 0.0001540929079055786 0.08176684379577637 0.03735199570655823 0.07883551716804504
