-261 228 -18 360 -93 -225 69 268 -104 72 75 -69 5 -49 244 317 306 197 -41 174 157 -144 -65 152 207 289 -281 -296 -299 -264 305 50 91 130 145 -354 360 -245 72 5 149 -1 301 -293 337 339 -6 48 -252 84 -66 -235 316 -80 -40 255 25 -230 -129 -164 -43 23 204 182 41 127 -277 149 62 -281 122 -2 169 122 -274 313 -316 115 -60 324 -236 -344 -57 -207 -287 327 248 -160 -190 330 -128 301 31 -228 297 179 63 -286 -170 283 125 131 -89 334 337 -22 352 -221 -32 -66 237 77 -351 -327 173 341 -360 261 -207 326 105 152 47 165 -226 -347 -151 330
231 -94 -143 -69 -113 244 -124 -192 -128 25 183 -71 -130 -103 38 -225 161 316 191 191 102 -354 266 138 -223 -227 293 58 -300 -173 -182 317 -357 238 -238 -224 -209 223 305 337 -350 213 362 90 202 296 -284 -1 194 307 104 58 -94 -213 101 76 272 -197 206 -195 -129 88 -73 118 156 -124 144 -352 12 7 -145 179 -108 127 -83 344 69 -270 236 -6 -115 304 -22 19 268 137 163 95 219 89 275 -264 -166 -105 -333 -252 -123 229 155 -248 -227 -192 65 289 -166 195 -39 39 -184 -318 1 -157 -343 188 -162 -220 -246 293 88 55 272 -23 -318 6 197 27 -289 141
-172 -25 215 229 -121 -111 -121 -3 49 -30 -120 81 0 -113 -328 -340 -226 100 -355 -137 -99 -109 -242 308 -188 214 17 0 42 262 203 35 309 288 -287 -291 6 -164 -177 -178 229 335 266 113 242 -80 336 -184 -271 -112 -347 -54 -218 26 -288 219 125 167 -69 6 -11 -210 148 -326 285 -9 92 -158 143 290 240 118 -29 -130 -35 41 116 248 179 -295 145 -52 -24 -170 255 109 -206 -167 -249 163 -343 -235 -8 40 -16 125 -128 -318 -280 278 -337 253 101 -135 268 -262 -151 -314 -76 -189 56 -228 -39 -48 266 122 -32 134 -11 163 1 255 -1 -188 -28 -182 -252 272
-49 -262 -125 -358 340 207 64 257 244 328 -226 -164 182 19 -258 315 310 -72 329 287 -87 -252 -343 -345 346 11 147 -128 152 -289 174 301 -270 -328 60 140 -283 243 210 -70 -105 226 -69 -76 -316 286 333 21 353 -313 82 -83 -314 -2 187 -107 88 17 80 -191 65 84 127 -45 -4 119 340 125 293 -358 72 166 -313 -211 -322 182 243 277 328 -246 -262 -136 256 287 -27 -67 103 299 111 131 -112 126 -276 341 -243 283 -128 -12 -2 223 -183 84 131 -181 -358 138 -315 -224 107 -242 -274 -114 -84 -218 111 -133 219 -23 169 53 -293 83 -124 -304 301 -185 -71 38
-56 -39 -94 -13 -306 -279 -38 -61 281 -28 358 -66 203 -271 -194 201 -361 273 -241 -95 305 -267 -180 331 -122 209 -181 32 -69 -323 298 -206 -68 -294 -217 -244 -146 140 -256 343 -38 82 -239 190 75 -173 313 143 55 -50 -187 -68 -110 150 -256 69 297 231 -178 -322 -33 274 73 -116 -236 -247 -119 -338 -328 149 -198 -1 -154 -43 306 -298 -141 231 -122 319 62 -289 -174 149 52 311 232 214 -269 221 89 -139 -353 -228 346 81 50 330 -191 -334 103 -8 228 -45 77 -230 -138 226 -298 243 -176 -213 156 337 211 -144 -270 168 7 -207 170 -128 327 -47 198 81 186 343
-146 -198 -335 273 20 255 -116 95 -84 -98 328 -152 -346 267 -194 -210 -75 274 166 52 333 -52 -134 -297 348 136 308 -304 -93 -324 -353 -230 96 -32 106 -215 66 311 -101 183 351 257 118 -266 -241 26 -103 133 -155 99 -180 -261 -136 -115 -56 -49 -296 55 -239 -361 -36 -10 288 -161 -108 -239 238 38 -309 -330 -234 320 108 173 59 -272 124 63 -176 -331 143 -273 150 -287 182 29 340 -286 80 90 -67 -189 146 57 -64 281 157 143 89 -325 -200 -218 361 353 -47 -137 -357 174 -22 214 283 81 -37 68 -31 45 -162 -31 250 345 -158 226 -56 -254 -185 -168 -324 357
-269 -270 -9 112 -160 23 -222 -326 -199 -137 13 342 -255 60 109 -220 142 -3 -70 184 78 -261 309 18 -200 3 207 -145 -351 65 24 336 282 -302 -71 228 -300 -185 211 242 326 -67 -10 162 -272 -163 338 -230 -43 -126 -45 -182 -111 360 -324 -70 -82 -300 316 287 223 276 -112 -243 -106 -3 29 322 181 -193 10 -259 -126 -20 -283 -192 -130 -262 281 -63 72 128 360 -159 -190 -195 235 0 -258 226 288 -32 72 195 67 -47 -139 37 -129 102 -354 -70 341 177 -101 -173 303 197 -124 11 248 -347 283 -275 -170 76 164 -299 -119 331 -213 -37 228 227 -291 -340 144 -344
-247 -36 28 -46 238 -360 10 -4 -253 138 132 88 270 159 -77 -176 -204 -98 160 -328 -6 -166 -312 324 132 313 38 -198 -298 -34 357 347 -286 355 -123 -195 -275 -272 176 344 -61 356 21 214 215 48 123 -167 -308 -236 -217 -86 333 198 218 -2 349 -224 150 -189 -3 -139 -203 -46 -304 -182 193 -358 -144 -10 -219 -270 -110 217 -23 83 306 265 329 -85 -241 -307 112 -9 233 -185 -200 -250 -289 -68 -50 47 -30 41 -30 -310 -32 -81 57 -10 -195 215 -132 -205 -357 -85 305 -276 -226 -123 -53 11 -166 -272 -239 -89 -267 341 273 -58 277 180 -153 -139 -33 130 26 291
191 159 -75 97 51 -57 -307 -298 -205 139 290 283 105 104 -315 281 -165 360 196 -90 164 194 238 -108 258 348 -308 -215 -133 274 -59 290 -212 43 -82 -347 26 -37 228 316 295 -318 286 1 14 -292 -78 48 -224 -223 119 -327 233 92 355 231 93 -342 -76 14 126 -133 349 -199 -310 292 31 -223 80 -81 -253 318 76 -108 -316 -98 47 319 -318 -29 118 287 -327 -226 -145 -84 -58 -257 -231 -35 -302 -32 -325 -153 357 287 -327 -201 285 23 320 232 -1 354 12 -193 156 345 11 -224 74 43 227 -342 219 -133 232 334 234 152 210 -306 63 350 96 335 236 26
95 282 252 204 261 -182 231 -337 -28 73 -303 58 -66 39 118 -107 333 52 -186 -179 38 -202 25 -147 -356 151 175 137 -25 6 319 208 -311 280 -166 159 357 -22 190 350 -342 143 204 94 184 -88 12 -82 311 37 -67 -69 175 197 -329 -337 317 -287 321 -301 -123 324 -61 276 -220 -55 -340 4 98 41 165 254 -341 -162 -100 94 -272 221 265 -104 -57 6 -168 -46 349 194 -74 286 -183 14 280 271 -258 103 305 128 347 20 162 353 249 -42 245 182 56 162 342 -57 -151 259 -200 6 151 -132 24 -342 25 -72 214 -87 -25 77 279 353 239 -220 -168 60
-332 -97 -344 37 -273 -158 225 158 -158 359 237 76 322 -70 -55 -334 -61 303 173 -14 -293 -91 252 -45 89 -94 187 154 222 -328 -274 328 -107 138 15 289 -241 41 -29 264 -244 151 -164 236 -315 -300 103 -310 -75 -282 289 238 294 265 151 57 -10 -69 26 -38 153 168 -151 227 147 -164 -122 -76 -88 -17 56 -214 -239 -305 298 191 -156 193 202 174 -264 58 -232 -138 87 -342 63 63 202 339 357 -185 -203 -15 54 333 102 -75 -94 326 317 98 -159 -174 126 -38 49 -250 -86 -132 41 79 -228 -167 -127 -15 277 -56 159 280 320 326 263 120 3 -189 299 -203
241 -54 265 -312 -350 -138 -240 -22 295 234 -341 -220 260 -198 -107 -192 -113 -311 153 74 -337 54 -274 284 -327 -28 -350 228 -190 116 201 195 -74 -214 -359 -296 -71 -141 -349 238 154 51 63 -224 134 -185 -86 189 -163 -285 280 -282 23 -192 40 -290 -99 111 -56 -33 63 238 40 -285 104 38 247 327 182 -132 226 204 -35 -56 -352 -337 247 46 -142 115 -164 76 303 -103 -194 -156 -86 82 351 -149 3 339 -198 -40 -282 -41 -338 -214 236 -194 98 250 33 -212 -287 -188 -77 -105 -148 25 39 -204 60 59 76 -86 81 -242 -288 -133 -95 20 -185 -267 202 -211 -240 338
282 -58 -336 -302 -16 -83 73 361 289 -34 -285 -347 -113 -277 -52 157 -258 2 117 -157 108 212 299 -252 177 -130 302 -76 182 240 19 221 -92 288 109 212 180 -105 -69 111 342 -292 -329 -1 -237 -285 -131 116 -130 115 -142 -347 -235 286 214 -98 -196 -180 257 -107 284 225 -322 42 44 190 59 -299 -132 63 -275 -234 -41 242 -324 -362 -41 240 101 -88 -305 175 -64 -26 -238 -37 115 131 -328 21 -332 -306 -248 -313 47 -136 197 -73 220 218 -117 246 172 73 -237 -206 -53 0 78 82 204 -48 127 330 -305 168 -297 176 340 72 187 155 134 159 261 91 334 97
-223 139 -352 -311 -302 143 28 -112 -28 -130 -29 -309 -331 311 -242 109 133 -303 -102 -208 -262 78 -77 48 265 296 -335 289 -29 -162 -6 -83 170 -271 -13 -215 243 23 -276 101 -269 26 -68 202 344 -190 -305 263 -127 316 43 76 -156 45 143 257 109 -187 -361 -323 -268 -259 -205 -282 151 212 127 -56 103 14 300 -9 -263 -32 -174 -313 -141 97 -17 110 -298 -262 40 126 348 125 16 -275 -236 53 -233 303 83 -145 -215 112 -345 -180 57 191 128 -259 39 -179 215 -100 316 -67 173 -169 242 -160 -204 -189 -248 -354 73 8 -113 267 183 -205 -192 146 -311 178 115 -313
-306 -100 95 -96 -242 -273 54 170 283 -50 -174 160 -354 -197 192 -230 -331 17 -70 12 199 -30 -104 -307 -353 -349 -97 -255 -228 -258 209 -134 -75 -219 323 300 182 -229 -138 245 251 -185 -300 155 167 341 94 -218 339 184 -209 -100 151 -335 102 115 348 215 -38 -135 -19 218 -78 -328 289 -356 -105 312 -227 -100 16 340 -214 240 -18 78 103 -166 -69 -258 271 -9 335 31 260 119 206 98 -65 216 -361 244 -218 -255 -79 -136 134 291 324 -48 43 315 176 -241 216 44 -283 -103 257 309 -226 132 31 -62 -336 -20 -298 188 39 -87 13 -273 -101 254 -107 -16 -287 213
-336 243 57 -266 -107 -241 -1 -13 21 149 -54 -236 86 -190 -167 -25 70 -194 -179 -75 -175 40 -193 -81 275 98 -1 171 -337 178 -299 -356 150 220 358 -244 254 46 -5 336 210 264 229 353 -266 -138 -119 -35 97 246 22 -58 -204 -123 -248 -344 -154 -232 122 347 140 -298 -309 3 -306 -156 139 -123 53 -85 284 -340 99 286 336 359 148 146 46 -37 282 328 -65 -278 341 24 -3 246 -190 326 329 121 26 -164 -362 331 205 43 -136 -1 -128 -166 218 -226 50 265 17 4 -308 235 -142 -357 267 145 104 -348 -314 -73 256 52 47 -119 -5 -162 117 -228 -360 306
89 338 -207 315 221 3 -316 168 -205 61 89 -37 -208 348 173 -317 -349 134 -218 -110 328 -95 -209 292 -104 25 -51 332 251 -20 -35 315 -167 -351 34 -223 64 -336 -253 92 -177 294 -114 157 -162 -26 221 -241 104 -348 345 146 136 80 -352 277 -142 -32 212 51 80 4 -95 186 -289 299 -57 310 -317 125 39 57 -299 21 37 25 -176 -239 -194 343 -67 128 119 116 -192 -214 231 -223 -215 108 102 -320 -19 136 145 149 92 -56 -143 259 282 -88 -55 154 172 -214 -331 -19 75 292 69 -228 -100 204 -122 -114 6 -355 46 238 -27 90 -151 178 -35 -91 5 171
-148 -199 79 192 109 243 -21 -169 19 55 -45 -336 201 -236 -303 -298 -272 30 321 125 -351 -130 352 38 -348 -86 -69 248 294 -36 -123 -147 153 -360 72 -112 234 164 -22 264 256 -95 93 -159 107 -129 57 -221 -29 -279 69 -7 0 132 -103 -115 -224 154 -194 24 68 300 -338 352 -309 144 -333 252 -36 -2 -157 -315 -176 -77 -335 135 84 273 -215 251 -330 317 -80 44 119 -206 35 261 132 117 -46 264 -296 -333 13 158 -315 -14 81 -42 249 55 25 116 234 -182 -151 -139 -184 -185 -205 -134 225 28 -82 4 189 326 -295 -70 69 41 -180 324 -330 111 -192 79
-234 -325 70 -148 -148 -91 116 -9 287 -257 334 -115 -119 149 126 146 204 49 187 169 279 -102 341 -163 300 274 298 -35 158 143 40 -8 -13 11 22 267 -171 85 147 258 -158 -292 358 -82 24 81 76 354 178 -66 29 306 -185 -167 -354 332 353 128 -295 82 -22 244 99 -131 185 -344 -287 43 -129 -85 -172 217 -346 -287 -150 -253 -334 263 269 -109 179 -317 -251 34 -358 -216 30 -213 -190 340 239 251 -180 78 358 -351 -252 332 146 -114 213 -354 343 145 -138 -78 -332 331 -324 -21 -178 -330 260 -192 -353 -87 92 267 -14 -340 -89 273 -181 83 24 178 -34 118
-259 -258 153 -20 -148 73 -91 343 158 359 16 -165 23 30 3 -133 200 -210 -199 38 269 -57 143 -142 -332 66 -309 -328 156 115 72 -278 20 97 49 -145 282 -349 -96 -267 -225 -311 279 355 -16 280 -205 2 -319 187 52 238 171 19 -163 153 57 248 -115 20 -19 22 303 283 129 265 -252 97 34 -352 -16 136 -304 -41 -361 -63 -170 -244 -338 -123 -112 12 -340 -340 -187 176 -281 -142 345 -41 336 164 35 302 313 -351 104 206 34 -43 -162 156 -170 -146 66 -27 195 -189 -236 -47 116 327 -104 -181 174 281 -342 2 3 65 -145 -63 -342 242 -108 -11 42 -271
-157 19 199 -316 205 39 269 332 209 205 93 -200 -240 -108 156 -247 -303 -280 229 50 -199 264 182 326 -274 142 -346 -141 269 230 15 -66 36 -219 75 -245 55 85 -215 187 281 -302 -38 316 136 91 293 -155 -302 85 -200 233 -333 -25 241 -281 -179 -180 -99 361 -282 -44 107 126 82 -340 317 228 171 -91 35 -346 -99 188 289 -187 -181 -273 15 -30 -8 9 -191 -196 -19 -329 90 101 -172 260 278 279 -246 -291 153 65 -76 -79 278 337 -191 212 -285 141 -131 111 -20 -211 348 -232 218 125 -58 -62 270 325 241 -159 96 -265 114 276 -133 -71 158 216 -97 -1
-143 -306 -285 -50 299 66 -89 -117 -213 290 -28 -135 -214 258 211 144 93 -49 129 -49 360 301 232 240 268 242 136 -98 123 211 312 133 160 291 23 359 113 -39 -353 13 -97 -108 -100 77 -136 316 -352 -68 3 -96 27 22 -201 289 127 98 -1 -85 236 198 -4 -97 121 -197 286 -262 194 95 193 346 -58 361 -326 -311 216 -147 -237 -332 -211 97 -19 105 -123 -28 353 -235 -313 267 -312 -46 143 -136 -115 184 -216 -56 49 126 202 -100 25 249 -49 -329 -31 -301 -164 278 -64 -328 -286 -201 -163 87 111 -322 102 -353 73 186 -227 -202 124 276 -144 260 126 -323
303 -242 327 -322 191 126 341 178 95 189 -37 166 317 -16 270 -282 0 211 276 197 -344 204 290 -194 150 268 116 276 -97 -284 337 88 316 -54 -24 -114 231 229 -263 204 -146 306 187 302 -1 230 163 -65 277 7 -53 -102 -293 233 -37 262 -344 -80 23 85 -258 -106 -124 -98 31 -105 -119 107 -319 332 104 -296 -323 13 232 -333 313 1 -35 249 128 33 45 -178 303 35 -40 -161 251 -100 -341 274 -194 -209 -3 -216 -150 67 -107 265 64 -70 181 -196 225 298 170 82 -292 -107 311 166 -239 -352 26 -136 -89 -103 123 136 -264 279 -91 -244 -200 -360 134 -25
-304 34 -101 -5 197 -66 330 134 276 304 -333 -192 -88 -359 50 12 -48 -243 -211 -116 90 -191 -306 -295 -228 8 -262 -18 -267 242 10 -79 -81 312 -165 299 -250 -20 -57 276 -224 -136 -219 -311 131 -80 118 -169 60 -354 -101 358 -46 -194 71 246 -303 -326 -152 106 -41 359 -357 -84 142 -327 55 -174 9 76 256 -25 238 4 -75 -168 -252 -64 221 281 -42 5 -7 -169 21 -299 -24 67 229 -314 185 -207 -299 -183 227 -178 -350 87 285 -56 25 193 64 -250 100 134 -203 -126 285 231 239 190 -359 129 266 34 -287 -193 119 169 -10 298 148 194 121 -262 -269 138
257 -234 -194 335 136 -71 214 -218 -214 -342 -289 -205 279 -164 -281 25 82 189 -84 149 218 -76 -161 268 -102 -33 105 39 5 -135 -139 -2 -2 -80 172 -291 278 333 -81 -206 -348 197 -281 -63 -52 2 358 -329 -222 -319 -72 287 132 -193 -300 -206 325 -258 23 209 -68 285 155 -170 -255 164 210 -273 130 322 183 199 141 -202 -111 -237 29 -328 -357 -355 156 -233 -63 -309 -231 -94 -318 195 297 -71 246 109 340 -242 225 347 15 71 -253 277 -314 332 19 -360 -133 114 -230 -146 -348 269 -328 238 -338 -195 -2 361 70 -268 65 -291 17 115 -156 -247 -121 99 -348 -87
-114 43 273 -317 143 241 -219 247 330 19 149 -50 102 -33 77 -49 -158 -62 -283 205 -26 -151 -28 -28 -2 -120 -135 -255 200 -214 358 43 -331 323 339 159 158 -275 293 38 11 135 47 114 -315 137 -6 -53 -202 -153 -347 -110 -121 -296 -162 -189 309 143 -317 98 159 338 -35 49 -52 160 -341 302 -27 -278 -180 -160 -338 41 146 -164 331 -212 -105 -357 274 -16 46 36 253 196 -35 -67 108 -16 199 -84 -198 -212 -262 261 -101 -157 110 335 229 -68 -93 -132 191 -146 34 299 94 343 -52 172 -1 220 -74 89 69 -101 -146 -106 269 -257 -360 263 317 -88 45 217
305 -266 -150 235 75 276 -210 -24 348 -303 -166 33 145 175 342 -249 -253 27 228 -282 107 151 124 -41 -258 -315 -293 329 356 122 -303 178 177 -77 -10 171 -159 51 -196 227 270 -82 -149 48 249 -323 38 -358 -215 -18 341 156 -296 -352 160 14 39 237 -203 -284 -182 -280 134 55 -224 314 -84 -299 169 -14 135 140 177 99 -138 -347 -347 -64 -155 238 -271 -327 -329 319 -174 -76 77 -320 -231 -108 -243 59 346 -260 136 -160 152 55 -253 -273 -179 -163 229 -64 356 287 -76 221 -263 -35 8 -327 163 -243 30 93 -356 22 -335 -86 217 -133 219 34 326 349 57 121
-97 -284 163 -13 -212 203 -212 -320 -350 85 -95 -176 5 -9 -320 -335 -29 24 -280 358 -330 124 228 286 -23 87 250 -244 -288 210 -164 227 -90 -204 -9 153 -12 -105 -124 -281 -58 -140 250 -81 104 170 172 190 -313 -34 -258 93 108 -163 283 260 178 -3 -284 222 92 69 105 -328 -101 172 218 -206 161 330 -112 22 229 -247 -300 236 -264 -339 -301 -69 292 344 90 -86 94 215 5 21 100 -41 -351 -161 301 1 -195 -123 175 -245 -270 146 -31 123 -62 -315 -28 -274 -244 61 -137 -173 128 124 -64 251 35 306 -99 -44 -57 240 -45 -118 144 -329 -41 19 167 22
-262 349 -260 -20 -354 -283 249 -289 20 240 42 147 -325 310 -217 219 -161 -324 70 196 224 70 185 323 -106 -51 268 -34 326 -163 -193 -275 -316 311 -122 -112 165 -173 -41 -110 320 187 -39 292 -223 270 9 278 -220 -286 220 260 -142 199 -158 -237 232 -319 238 -320 90 69 -289 -223 -4 58 261 -238 314 325 336 289 -288 -260 148 8 -101 230 -35 -21 -153 -350 105 185 -269 -91 144 231 204 138 97 -131 -44 -112 -312 118 98 -319 290 290 -325 299 -59 -227 113 -52 216 182 183 63 289 -176 60 -36 -134 57 -34 -52 231 -80 269 -223 274 224 -61 -242 -128 -87
-255 -142 248 -262 -218 131 317 -31 -245 -150 -70 -339 -294 341 -346 -98 229 -319 -238 301 190 329 317 -236 209 288 75 -8 183 306 -47 144 -260 349 -61 -103 21 12 -185 330 279 171 -333 -80 -51 -166 104 -103 31 198 278 109 -245 128 -15 128 127 209 -131 -97 282 199 120 178 288 -118 -32 346 246 341 295 -52 15 -36 250 -144 48 -220 11 -42 93 -311 318 -298 142 346 -335 -31 264 -181 -284 -106 308 254 177 222 -159 249 -146 -108 95 -332 183 -357 31 134 322 -302 294 -336 301 -70 -204 -53 -104 -209 160 287 6 235 158 218 -106 156 164 -293 -291 -341
-223 263 -1 -72 -108 278 -340 -202 -39 -239 -138 -360 60 41 54 42 -163 154 265 -25 -354 -319 249 -135 298 44 -32 356 8 50 -174 262 193 -43 331 43 -297 -175 239 -45 215 56 313 -1 33 -100 41 24 -339 42 212 324 -351 45 57 -32 -36 -153 105 134 166 65 33 11 -120 228 -341 214 -148 93 -358 305 184 -244 -272 137 176 -334 356 62 -241 352 -297 27 187 -250 344 -116 -162 -319 -175 216 144 256 143 -262 -179 258 -163 185 -127 -297 -84 41 141 268 -80 72 -52 303 254 -91 300 65 263 -97 -186 -260 -102 287 -194 -94 66 -120 -302 -96 -323 -220
339 -258 -47 -109 -320 144 30 105 64 244 201 -15 -295 -302 133 253 -344 224 -69 -332 25 -278 245 -79 -52 75 -287 148 63 268 37 220 -333 357 249 -243 82 49 -268 197 -82 156 290 -268 282 -201 68 -260 -68 -130 358 -273 -99 -94 -263 -359 -61 240 -18 110 43 -269 -218 193 152 -9 -317 -250 197 -14 344 -1 -112 317 143 -70 322 -173 234 193 -120 150 -216 -243 317 33 160 325 -155 -143 175 -44 299 -258 249 244 222 -105 199 -93 -72 152 63 294 133 -202 150 328 272 49 349 150 -69 -43 -83 195 -59 -3 -191 -230 -318 185 -111 222 121 110 -139 6
-284 45 200 45 -114 309 111 -102 346 -257 222 -305 -11 -210 -10 11 293 -108 -200 -316 -239 -106 -43 53 295 217 -169 87 62 99 -261 -1 109 340 -20 230 55 -87 -255 -235 261 -272 26 11 319 -222 198 120 -232 202 30 -274 -231 109 -19 248 -171 -163 202 219 211 -272 53 170 222 -159 184 -105 -348 186 135 -261 -174 122 359 227 -334 291 235 -135 35 -171 -236 -231 67 -28 -337 -201 -43 267 -2 337 -106 -91 175 296 18 -86 269 211 309 49 136 207 -25 251 338 -178 352 2 42 329 -229 -134 145 -135 -204 -12 -324 271 -329 -343 138 -175 267 200 238 -176
212 26 317 127 -120 181 -75 331 -236 115 215 36 -297 -161 59 -137 -128 -199 -48 356 -239 139 68 356 -213 -313 -99 -86 -277 -124 151 321 4 33 -305 -242 -295 -14 -219 -343 185 322 53 -183 361 68 210 -181 -107 -359 6 242 -20 -85 -281 50 -311 250 -275 178 -168 352 107 105 -174 327 237 -170 201 -193 281 228 281 -315 -119 -37 175 -137 -275 -287 -308 26 38 257 -96 -330 -307 -83 -360 -217 -289 280 -224 133 -129 8 316 -40 225 93 -186 193 -277 -194 188 -341 -106 136 -212 18 304 -334 28 -36 -252 -2 139 -22 -117 -143 -3 11 329 -103 -334 154 313 -276
-167 -37 -216 284 -256 -62 173 65 128 310 226 287 -352 -309 -18 355 -56 166 316 269 320 34 -77 253 -80 -273 -60 268 -54 -272 -94 -94 -11 -305 -202 -327 233 214 -306 -294 -48 249 70 358 -319 -174 247 132 -6 -345 -234 -38 -5 -56 -145 -314 -313 218 247 -337 -124 -181 187 106 302 -131 -129 230 -96 97 243 163 -300 -168 134 3 -55 -296 -216 225 105 87 152 301 182 99 64 -111 61 -124 -246 162 102 -262 320 294 -322 282 29 -47 186 -304 -352 -99 -51 92 23 219 93 -99 24 68 -173 321 36 123 -18 277 348 247 40 223 240 -332 215 -293 -43 148
102 -357 -141 212 -203 1 146 60 -71 184 294 80 -196 -225 88 -188 -339 25 -213 -335 0 -41 -234 -198 -81 19 -313 -23 -297 -213 159 -135 133 -179 -341 -134 127 -227 192 271 -122 262 -8 339 121 -100 128 -220 8 240 119 -316 320 -226 -203 247 -110 -348 15 -294 120 -302 -129 211 84 335 -12 -269 -237 264 -60 -118 -69 -102 -107 -63 29 102 -206 -143 263 -31 -346 336 196 -239 -298 -291 252 173 -225 25 9 319 -64 -125 -159 -270 -50 179 -134 -164 -200 247 81 -290 -290 115 -204 310 141 233 83 -248 33 78 -291 346 226 296 -193 176 -282 -166 176 28 -268 -243
255 -62 83 -289 151 -349 -192 3 -47 -14 -165 -258 -67 358 187 354 -175 -188 310 -59 147 346 176 -86 -117 171 284 211 -233 -277 -132 289 -96 345 302 -251 317 -325 253 266 -183 298 160 -10 150 186 -328 325 145 59 186 139 -36 341 193 349 115 -40 -276 -277 -225 14 276 328 175 69 302 -193 240 144 1 75 -271 -326 93 -328 -84 165 -66 247 -356 -349 276 225 -280 221 40 83 -118 109 216 312 351 157 -23 -12 188 -290 265 -154 -294 158 171 24 -184 -244 153 163 95 -27 -89 50 230 255 -48 -109 -135 -279 -272 -297 161 -14 -43 263 181 -276 140 -174
172 141 210 277 -232 -63 299 -263 -319 -315 -227 359 -2 -209 -201 249 -8 -23 21 37 -227 308 154 233 -99 -21 -185 -352 350 270 222 -209 221 -303 207 -346 -94 123 349 -17 271 -127 -121 -313 -36 237 88 327 94 76 -107 251 211 -292 306 -107 -196 151 223 327 -22 -76 7 133 -163 85 215 346 -230 294 309 -80 -86 -126 314 -269 -173 -348 -242 -20 242 -153 -276 183 -97 37 104 -349 -95 -299 -242 234 212 -335 -205 67 41 -70 -248 174 260 -198 163 -192 299 -274 170 138 -84 201 -213 176 -265 -355 -336 176 131 -310 -252 205 -204 -174 100 246 -319 -310 128 -193
-259 288 -166 272 175 -354 156 176 41 -47 48 18 -161 182 98 347 -25 221 -118 -222 194 -14 -19 -156 119 -290 3 -136 -247 -289 155 173 -17 -290 151 31 6 349 -44 47 222 237 110 -242 -212 111 -70 288 61 32 81 165 -256 138 202 2 252 -267 -199 228 -16 -331 42 81 204 -239 332 91 191 -108 68 -33 199 -344 -228 178 -224 -289 -181 101 -315 127 -287 -209 76 -177 305 -358 184 80 56 77 262 -222 -328 63 -244 -5 299 -88 224 351 20 246 173 -229 -341 104 317 -309 29 -352 -225 104 115 -284 -11 25 -24 -113 -301 -58 -242 -233 -169 255 91 -185
-339 -111 -342 70 348 -138 212 -248 -316 -273 -46 343 195 313 162 -298 -285 -196 -256 106 -227 -162 82 58 -141 -354 -163 167 299 309 76 -32 -189 -248 66 -272 7 -114 97 -120 76 -190 -319 14 -118 -86 -18 317 -172 -115 -77 42 -293 256 240 97 -210 284 330 317 259 -106 -88 112 101 -304 -262 -59 -193 -42 -66 16 -328 -29 -222 -39 -327 10 351 -220 -154 37 -244 -65 245 293 -334 -304 172 6 -200 -48 106 -329 -284 264 69 -109 246 -7 -123 -298 -218 -244 -269 289 -292 290 -303 -282 -262 280 -120 54 -23 -258 -108 50 198 7 126 274 203 -187 359 -235 -189 -250
-243 -92 45 -226 -298 243 -166 -181 286 -267 -121 58 -138 -54 -50 -250 242 -174 81 47 -327 40 254 -261 -338 111 -359 277 221 -130 355 -30 -205 155 -253 133 196 283 63 -82 -178 96 55 -221 -304 225 91 -80 86 302 214 -85 -275 115 63 -195 24 -261 -102 -134 -268 106 156 -190 -262 -341 -190 -43 198 148 -272 356 139 51 -217 -288 -12 138 -6 113 284 84 -150 277 56 159 -18 100 -241 -184 -111 -145 247 -170 341 -100 12 -124 293 358 137 100 113 -339 333 -156 175 -151 271 -117 -64 -200 142 -225 -17 -241 -79 219 -319 -160 -37 -162 -214 172 -281 187 -329 -5
249 315 327 -13 -27 336 85 -153 -84 91 285 -24 352 225 -271 63 29 71 -27 157 214 281 -13 -156 318 105 -172 273 -307 -279 -57 68 -252 -257 -182 -139 -47 212 -140 -5 -101 1 295 -238 -213 178 -290 -343 -105 14 302 145 335 284 -304 -7 -248 300 276 -1 -353 -240 235 287 -82 -98 -36 300 -202 41 -276 -240 -86 -287 -239 152 -18 -322 357 340 274 312 -277 -215 -152 316 -89 69 -257 -251 -200 294 328 -190 150 -116 -343 -229 258 306 169 295 285 -47 227 336 -176 329 132 -263 140 -39 189 181 -155 -349 -12 -218 249 240 148 121 -351 333 129 161 285 -197
71 86 191 331 123 275 -286 224 -72 279 34 33 257 -288 -320 -220 152 -355 163 273 35 115 -330 -56 161 -264 -252 43 226 -348 239 309 236 72 132 81 -165 -72 -58 290 325 -335 328 -345 -296 150 -202 0 -199 -350 -231 215 327 212 -257 -137 -225 -288 217 -172 -281 -20 88 106 -215 -155 184 -296 252 89 -186 -281 -3 -147 -134 -227 -273 -66 10 166 252 -173 309 76 -18 -90 -309 -142 -100 131 174 312 68 214 -167 66 -268 49 239 -305 70 -249 175 350 340 -256 42 -359 -128 319 -110 243 -109 231 149 40 -190 -48 -95 47 349 -290 -154 204 317 -112 204 228
-303 36 362 322 151 -188 -71 256 -249 263 -358 -227 201 4 -70 47 344 -321 49 250 8 285 39 -199 194 41 245 256 -97 29 -348 97 -1 266 276 -108 179 114 -91 -198 235 -79 175 -301 -38 37 -186 -229 135 -265 -339 -49 -98 -70 331 63 -44 -249 178 250 -63 -189 107 183 -214 -162 -327 -148 -180 -235 -101 -254 -336 96 -80 180 284 93 -354 -341 -53 187 322 162 -275 -221 -61 -95 -344 292 118 285 -49 -251 -359 260 -81 -246 -304 99 -184 189 -14 -276 -26 -226 124 358 238 209 305 -143 -100 80 -292 120 302 13 208 126 -85 102 -130 283 164 113 113 -192
-240 -278 286 -362 -131 -199 -113 328 147 19 106 77 -356 -129 -237 -164 91 -91 -285 146 6 -236 246 -71 -359 8 175 276 -223 -63 -34 200 205 -276 -15 127 236 160 -200 241 104 131 361 152 194 250 318 299 -308 162 228 314 199 -328 -181 163 22 145 78 102 112 139 110 -35 -249 -19 -244 238 293 95 -299 238 297 29 -86 55 -300 -128 318 -321 304 182 -7 -52 -105 -324 22 203 111 -78 14 275 341 -2 178 8 103 312 108 278 -197 -239 143 226 271 275 235 247 25 219 -21 44 219 36 -256 -204 218 139 140 -228 232 -74 10 -5 279 210 -117 -330
-333 54 174 166 -200 -176 189 351 147 -276 99 -67 361 114 -45 -151 -8 139 353 -155 -350 -100 -12 157 -178 -240 -98 331 328 -196 38 142 179 -74 -275 77 344 -56 204 -112 -157 11 19 317 -341 25 -98 9 -154 36 138 -129 202 343 345 -109 -234 -263 342 333 -357 218 -280 112 -120 -36 315 136 -121 356 33 -327 43 48 -185 -243 -68 34 -70 -13 -104 146 113 275 -176 -177 75 -97 -129 188 -347 50 177 -65 -247 46 305 156 74 -37 55 308 19 -42 85 27 -29 3 -145 -361 307 165 -264 -8 76 -83 -42 -256 1 -263 29 -193 342 -324 163 30 159 -328
326 -68 -225 18 -198 -358 -165 146 -179 27 100 -85 247 315 55 -87 -300 -132 112 299 271 245 343 190 1 245 340 67 27 2 -179 252 78 252 -256 -227 43 -323 21 154 83 49 -126 -132 158 86 -184 241 127 -126 -201 190 28 -175 328 299 59 122 -288 151 -269 -34 126 275 177 138 -29 -74 142 274 163 -113 48 -211 197 107 -56 174 -356 -317 163 53 42 -225 314 -318 61 -165 -23 -315 327 293 -156 -194 70 9 330 -113 325 230 74 -254 -177 -12 -198 -235 200 -209 -130 304 218 246 346 -328 -179 81 -92 119 100 -280 -182 -175 -127 150 -324 36 -34 -191
-47 205 244 -148 361 -37 -132 324 220 -203 -165 -66 -304 319 169 -94 -308 260 -33 -144 -45 -92 -332 -90 -77 81 -197 236 196 142 154 266 170 -119 30 -160 156 -68 -136 -301 -57 -265 321 -53 -197 238 353 331 -313 -360 -255 68 -58 225 -266 -216 -199 -252 139 -7 331 48 -157 352 219 332 321 216 -58 -314 265 -280 231 -231 6 -314 -181 -132 -226 262 358 -315 -182 66 23 263 -92 304 -20 -150 -126 -82 -265 -120 15 196 29 -327 -34 -12 -173 -130 -120 145 278 -227 -180 -70 80 358 -64 -140 -261 249 332 -340 334 255 -54 345 -106 -356 229 2 -164 7 -204 -277
-154 -168 188 3 8 -204 -329 151 -180 334 -219 346 -318 341 92 -172 -225 -318 -302 87 -73 -171 218 -353 -297 234 77 -143 106 -315 306 2 46 106 -195 246 340 3 -263 89 268 -123 155 -273 -194 -3 19 -102 238 327 130 -106 127 -240 319 -229 -44 -106 78 80 66 203 -170 164 -37 101 299 -23 -195 -100 -169 -142 -51 255 -130 -146 237 -84 83 329 233 137 -169 293 -35 -278 -287 -127 232 -105 240 -101 262 -7 284 220 233 98 155 230 -71 327 265 -66 -288 -16 -53 -335 -208 -4 -264 -5 -64 136 -128 306 326 98 200 -185 -199 104 -219 -44 -36 219 -288 235
356 327 -200 80 299 112 -61 75 -196 -77 -342 323 -95 303 -53 128 111 -7 -159 102 196 112 -271 277 -105 114 306 -185 31 -278 310 283 189 -282 81 -356 -257 -92 -232 -260 99 -1 47 -213 -41 -176 -224 -316 63 40 -224 217 -274 -254 -65 -353 -34 54 98 100 190 267 109 172 61 -41 167 221 -123 -29 -21 -45 77 -11 -229 287 144 -330 302 205 -340 118 -194 78 284 -130 305 113 -159 199 -219 342 -217 -334 -295 177 170 -84 -303 -270 67 -74 -336 182 41 -307 -360 57 -1 -47 158 101 -255 254 28 -99 156 -118 -134 257 -107 -227 -107 327 -198 101 -275 166
290 216 -172 -64 83 22 -26 314 117 -222 -136 29 -93 85 71 62 -210 110 102 -128 307 243 -157 -350 -166 66 118 239 117 -270 -248 314 -200 -317 -28 357 -104 24 -329 319 -206 40 41 138 -128 65 148 82 110 -288 275 256 -303 -340 -60 -251 64 -122 6 -333 124 226 97 195 -350 -273 -165 -51 -154 -103 -276 194 -307 -105 -213 250 -124 -332 147 -191 356 -28 31 -300 -331 -64 -333 327 -154 154 151 -26 -89 -319 -292 -88 -159 238 -245 48 78 130 237 14 -217 87 167 5 -13 314 -176 -26 68 -78 27 -86 -319 -241 -154 227 -311 -239 224 -78 195 327 -183 21
39 104 -94 -133 -201 155 -352 -251 -29 -154 229 -247 -74 -23 26 -68 -164 -72 -75 -188 174 339 342 -304 225 104 -159 249 28 -223 -86 240 61 126 277 84 126 -278 263 99 -210 -166 170 262 34 -309 -125 -50 53 -147 43 -57 -284 287 336 40 -43 -199 -162 206 -297 337 -252 36 87 288 51 76 -183 -120 -76 -342 -185 -309 -307 95 188 212 -281 -289 -203 62 119 -53 182 -274 320 -141 -128 103 344 263 -193 350 94 -127 143 152 -82 216 -54 -57 -261 163 180 30 -177 -285 29 214 -90 46 58 179 128 -274 -253 147 131 314 -93 -314 -296 -223 -85 198 -50 -149
-95 -222 -31 -342 -208 -259 -262 -348 103 313 -163 209 -210 232 -60 -261 313 -171 211 -289 -63 -350 -196 25 147 -247 54 49 72 124 311 129 310 63 26 -12 -59 -76 -304 -160 -150 -151 -302 -257 75 -247 167 310 200 357 16 361 261 38 1 135 163 -355 286 54 -317 20 -207 171 306 -317 82 207 240 97 -231 224 -298 27 113 8 110 139 68 -210 -87 59 -161 253 49 125 -335 -79 -173 283 -27 -318 171 -361 -213 198 -218 -287 226 349 -274 -182 216 -195 337 -220 354 -285 121 354 -299 306 259 -60 325 -36 -317 -99 -230 -100 163 -229 -359 0 150 56 -123 -176
302 -324 -30 212 -142 -151 -325 174 100 -29 -188 -37 65 76 307 211 -13 -112 -184 -117 -254 -91 337 -352 -101 -292 233 151 -293 -56 -49 -156 -31 99 343 -277 277 -10 95 -194 -283 287 245 -310 -126 325 200 -247 -350 105 -280 -171 -236 -161 92 -63 -37 -6 -180 -122 -261 -105 -244 331 32 -276 235 206 105 -95 -88 222 -198 -173 -314 -145 322 13 239 -124 287 265 226 124 -354 -179 -67 240 138 107 114 127 -252 6 259 135 -167 212 251 28 -333 26 141 112 -85 -45 102 83 41 -302 69 180 27 -192 145 0 234 314 -14 165 -140 308 126 360 -195 211 64 199
-21 317 -243 11 275 -85 351 104 108 -181 349 51 -297 -300 -129 -253 241 27 48 -152 281 -168 271 -337 -7 -119 66 225 174 236 -27 224 -312 -269 -190 197 -112 -196 88 -202 -69 -269 131 -214 -270 -15 53 345 7 321 -205 -337 -156 108 -100 303 310 263 163 -226 182 -36 138 277 92 -265 -305 -178 -108 -29 -310 -194 215 -354 -277 60 51 -187 -110 -3 84 -50 16 -236 -200 -204 -287 6 -333 -215 81 200 149 125 -112 56 231 166 -320 124 -19 115 -332 322 158 340 103 -358 15 -244 -287 239 32 -142 79 287 -129 -187 118 -106 -123 -247 236 -140 -179 -256 -24 -259
-330 -295 -23 172 -358 218 -224 352 317 73 143 -263 -338 216 231 -281 -312 -255 336 -230 152 191 172 45 -160 325 152 192 -361 -327 216 158 184 26 114 -215 -289 -37 241 288 289 162 -212 275 -57 -80 152 -14 317 -274 105 95 120 247 167 70 -51 237 293 -172 291 349 -354 80 -238 -90 -356 -111 33 -157 -41 -359 -150 -159 349 105 -71 -110 -21 -321 -69 -116 120 315 -14 -27 -44 -8 -204 -55 7 -14 -15 -120 321 -82 270 231 111 163 -105 175 141 -36 337 -4 161 45 356 -68 -298 -60 -307 217 -87 -356 -204 345 338 54 162 -24 -99 -270 156 86 -66 204
143 -81 357 227 154 352 -148 -10 -173 355 175 -273 340 37 -187 -317 -59 351 196 -20 38 -202 261 -202 -242 354 179 -60 15 -80 62 -193 47 102 253 -190 51 -101 -11 179 -97 -201 -195 275 -239 -149 345 -179 84 79 -94 -339 -238 146 323 -105 -84 -286 -4 -216 206 111 23 224 -77 58 -321 236 72 80 -277 69 48 271 16 300 47 -51 35 -143 162 5 15 -112 -241 321 156 -191 -298 117 137 226 356 195 187 283 30 -58 -166 46 77 118 -237 143 29 354 -119 338 175 45 -240 96 299 -324 -60 -116 -249 -237 -194 -117 300 -176 -105 -1 -134 328 -206 -244
334 -331 -191 226 84 -151 -94 -257 147 345 304 326 -19 190 -36 -60 -132 -135 217 -166 -93 -14 247 -82 354 -295 -61 78 -4 -47 72 201 290 -70 96 -323 -360 236 163 -227 -213 123 318 -313 15 166 164 205 268 -97 104 -198 160 -333 34 213 108 261 212 -256 -360 -115 338 -262 170 235 270 -311 22 -205 245 -55 60 76 333 223 73 -243 192 -209 42 -160 -294 -198 -312 -137 -219 318 220 -318 333 6 338 141 290 103 7 -226 -287 92 -151 -19 -248 -145 -259 197 258 -309 220 -55 107 202 267 -185 20 -109 258 265 60 104 -326 -155 240 -65 -187 -11 302 66
-40 4 87 -345 141 317 -337 122 -277 -161 170 267 -261 -168 -135 -56 -246 302 -308 265 -287 38 -246 -241 143 -56 146 -105 -173 170 -63 -300 312 63 272 18 -82 169 -93 -95 -13 19 218 35 -74 338 268 125 -144 338 -130 69 -47 -85 25 119 -17 -55 259 -165 -167 151 -7 -77 -10 107 316 -165 -38 -22 -183 -288 -244 -243 128 -351 327 -217 -122 111 221 199 220 -224 299 354 137 84 266 -211 -73 73 -264 -337 -7 -41 143 230 -131 -278 258 -312 -173 -148 240 137 10 -156 72 228 227 281 -223 6 120 -349 48 295 -129 -202 -181 -241 348 -219 -324 -28 -342 -322
354 -116 245 -253 290 -218 287 -129 -130 131 358 -70 -50 97 164 -226 -103 230 7 170 -129 99 -97 -319 -361 175 110 -310 -281 -135 1 219 247 -246 342 236 324 -9 218 -148 106 -287 -352 151 -81 -16 -221 -166 214 312 275 270 297 -21 -107 -91 -248 4 -316 241 -71 -139 -82 -30 -76 -325 70 355 -326 241 85 -191 66 -69 -41 83 -81 -155 215 36 -76 70 167 98 -353 331 -127 240 -291 272 67 -328 125 94 -292 336 -215 34 7 -155 158 12 -177 -222 94 -341 113 6 26 105 -15 286 352 -16 -121 274 -1 17 97 299 225 -151 -186 -36 294 -219 -96 8
80 106 -275 246 92 -183 282 222 -150 -278 -2 -303 -356 -283 -251 260 -50 341 -177 -265 24 -142 -283 -195 24 -89 8 121 -204 141 55 -59 248 147 -241 -288 -91 85 -35 -86 -239 41 -90 131 247 310 235 267 -182 242 185 73 -315 -49 -69 -239 324 189 97 306 -204 93 -211 -325 -279 -162 -186 -46 16 -269 51 -32 265 150 167 234 44 -304 165 -137 -301 -153 -113 -295 217 233 309 -165 -113 258 136 -226 -7 273 173 190 95 -223 78 23 -83 -191 40 -21 187 158 31 276 33 -93 -46 287 -32 -356 56 55 -258 275 186 251 -164 279 -208 319 -352 324 70 -85
316 34 120 -335 353 112 203 -6 128 -220 116 317 127 353 -312 239 -203 131 -253 -220 138 -315 107 -265 -220 182 -347 -246 -253 71 -264 52 32 344 -346 293 24 -184 -4 -174 -347 -164 -157 -153 334 298 -228 28 29 344 66 323 223 338 -240 -44 -52 -361 346 67 -204 87 132 110 -112 105 -205 -343 241 -181 -172 164 -205 19 -160 -138 -151 -23 89 185 80 -189 334 299 -19 -348 102 60 -81 -341 -113 -116 160 95 108 -51 98 230 -126 -257 288 325 182 263 -237 -87 -113 166 114 337 -221 306 128 64 -65 126 -338 245 179 233 227 -9 -174 99 -308 165 -20 -122
-161 -326 282 232 140 196 151 -63 -240 -207 51 -278 208 -328 326 -123 -77 122 279 -341 -26 139 -61 74 -174 -290 -25 -46 359 -6 -6 216 132 165 -201 221 64 83 -283 -94 149 -206 -157 -219 233 295 98 -342 -167 275 -15 -117 -164 111 -25 252 -281 -240 160 237 -11 -140 -286 -129 299 -8 354 212 -321 -268 -275 -185 252 295 221 -218 163 -182 54 30 68 -143 -274 -175 -74 -124 143 -230 -328 -333 -316 123 199 -157 135 -319 -309 -96 -65 -21 -342 323 -136 -159 -321 -75 300 55 249 -142 71 56 40 -143 -246 -43 -357 -170 151 -54 242 -34 -224 -329 -74 -119 -71 305
100 78 3 -132 -42 -228 -254 166 -360 -195 200 122 252 -100 113 -56 217 -12 201 -224 -125 -205 198 267 46 290 28 288 -52 267 257 -173 196 -176 -56 330 132 109 -77 -117 162 27 -341 259 218 -59 -116 -107 -193 -287 339 236 7 192 239 335 -83 298 -200 -256 350 190 66 -312 43 -316 -249 183 -121 -96 169 -13 -301 268 188 48 311 -274 -321 -77 -362 154 -199 186 -278 -212 -98 -212 77 -203 -250 335 -184 118 -37 33 -6 -222 264 -54 333 -293 120 270 348 38 -76 -253 137 263 -127 21 -138 182 -323 -41 -31 -179 315 -202 -93 -187 248 26 -287 -182 69 339
