249 -343 177 -128 -400 -258 -472 308 -367 353 269 -101 -4 62 -307 199 -207 82 -467 201 -195 316 93 475 -210 -257 -431 -148 -237 164 474 -258 93 -354 276 -451 451 -333 171 -310 -116 -192 -450 -10 -351 220 -462 -248 -380 -306 -445 -328 67 -407 487 235 -494 230 374 11 -184 347 31 -246
-68 204 -285 -90 -346 276 -122 -395 133 -274 102 234 -311 429 -116 322 -445 434 108 372 346 169 -366 -432 2 -114 103 117 158 186 -127 -174 -196 181 -292 -92 -210 111 438 -5 234 391 268 -6 -137 214 274 404 438 488 -123 511 -410 504 293 -23 455 328 83 -101 -51 -337 368 370
-481 139 -33 5 323 -275 -278 -74 -58 218 378 -26 49 -483 124 -432 77 -309 -488 132 35 155 380 -484 -438 -265 -59 -273 -263 -293 294 77 -334 348 97 -222 73 354 -463 -323 -364 210 -247 173 -289 -304 -507 107 131 367 496 -95 153 275 182 -336 -296 450 310 438 -196 436 -18 223
-200 191 227 -140 285 2 -386 349 -61 -296 297 -38 342 384 278 -369 380 509 -48 24 -315 337 238 35 332 504 -413 389 -232 -494 414 -241 -142 -253 -441 -212 504 -507 97 -67 165 -211 476 367 -296 -27 367 191 63 183 -412 264 315 -180 344 385 37 -439 -106 -53 132 -179 200 -203
-46 -415 216 -248 66 82 -115 105 253 -1 20 304 16 -86 -321 -243 401 151 223 -260 -288 -510 152 -422 -224 235 -392 352 -16 -342 344 256 -414 251 -256 -95 -65 445 465 461 -413 -399 417 -168 80 -217 372 490 111 137 285 351 -296 -2 42 -221 464 -478 -105 -52 -177 321 -358 115
344 199 -39 335 113 107 -384 71 -411 98 270 512 -89 106 42 334 -38 496 -83 104 -239 -2 -84 307 418 434 187 -356 89 423 29 448 -61 360 -281 -345 -489 196 36 41 -4 -72 -312 471 -222 19 -450 302 318 -345 499 -177 163 -113 312 402 -499 -439 100 -271 -148 429 -491 83
300 -368 398 -11 -411 108 18 166 -387 110 138 323 35 410 -414 375 124 13 50 -425 187 -57 405 364 231 -375 -19 -471 149 14 -80 -233 -354 -159 146 307 458 -112 500 -472 319 143 -464 183 -385 506 -24 -177 44 168 -34 416 -259 499 -266 188 473 -258 318 344 -445 -377 26 -211
-91 511 -179 -179 -217 369 400 -478 -225 -296 -287 461 -172 199 -266 -83 -191 -411 1 418 182 -33 -226 -218 -436 347 -122 -389 -324 487 -53 -364 -221 312 126 428 62 128 373 -22 -117 -509 -94 -274 -449 102 -483 -302 -479 -44 360 461 361 -60 300 -213 247 -454 -118 -423 411 254 -219 227
-16 363 259 -216 422 -376 -153 117 -308 -473 327 -421 -430 -193 479 246 446 -14 -187 118 -466 -366 -510 416 125 -241 -78 -337 -181 323 329 -119 206 -204 453 399 -175 -266 -247 13 451 -282 -325 98 -199 -188 398 -449 -45 322 -454 -290 399 325 334 71 -344 -267 117 -302 -492 220 -69 40
-176 -290 -268 72 483 329 263 228 334 348 144 -238 453 -465 -164 95 23 364 396 -251 50 125 143 0 -463 -338 425 38 18 -434 -398 32 -201 -325 -486 447 181 -131 -351 122 -40 438 206 -165 -110 -161 92 183 -444 -64 -408 -234 180 118 50 393 340 -5 -183 286 -376 -452 -331 -172
159 22 509 202 354 -489 76 137 391 392 458 443 -45 -451 321 28 -411 -93 -41 -19 -111 17 -11 -299 -498 378 -457 174 506 -371 -458 119 332 462 -319 253 -387 390 -215 -284 4 268 381 348 365 176 -72 -17 53 -3 -258 -414 -20 -272 -394 -229 -104 392 104 -446 278 -207 -204 229
-284 67 207 -11 -480 -313 -90 449 -378 106 -57 223 425 -238 -292 -330 -183 -350 -360 133 311 -274 -151 -213 -78 -334 58 82 -425 -379 356 -292 -175 -268 -140 -179 -502 -317 125 346 64 102 -76 -78 259 351 328 -248 -409 -407 111 -219 228 -475 59 133 -284 -205 -495 -140 230 -233 -207 31
80 -288 -125 -460 -184 -460 -397 -44 478 309 229 -413 68 -27 397 -80 466 -44 -88 319 -339 -367 -65 475 130 -491 40 -350 411 -290 454 -459 -375 -204 94 381 -174 -282 -130 -150 -207 27 -32 51 -38 118 -456 -476 408 -56 -486 223 413 371 466 446 272 -452 332 -85 -18 122 98 -508
-485 344 -31 -152 29 504 206 348 -247 -85 -6 139 147 320 210 -361 -157 -270 -378 -130 404 -288 -494 -409 464 102 325 397 -1 -467 449 139 -427 275 249 -202 55 73 -356 210 -202 245 454 -166 -424 -180 169 396 138 -315 -446 -203 219 311 349 -393 432 19 47 -354 342 -418 40 -428
-81 -53 10 -173 347 179 90 181 455 349 446 200 374 176 -205 95 24 -432 240 368 342 206 407 -248 199 -157 417 81 -280 -149 -318 387 -398 358 129 123 -258 244 354 84 -489 326 -310 -232 -81 472 33 -272 -238 -393 479 -213 -348 231 310 -325 -242 251 -288 -74 318 -15 435 126
-131 -64 163 35 -377 95 -19 -128 -387 -55 -353 -377 65 -213 -288 -403 -352 351 -445 423 -95 67 -214 331 357 440 179 261 -219 -352 237 442 -118 -227 -393 -446 -29 438 -135 -499 -248 352 357 -508 -174 -207 -140 456 232 164 -390 61 58 -311 266 -202 -235 -390 -19 -98 -462 276 273 -420
-437 189 -207 -328 56 334 -331 67 -79 -370 61 -348 292 464 -68 -34 174 392 -347 174 308 -24 -505 37 294 465 471 -292 240 471 412 -432 495 -107 49 -397 -66 260 90 -195 -321 134 404 128 -426 -154 -428 -243 -234 299 224 50 -243 465 298 -495 466 190 -104 486 230 110 160 46
226 326 -344 -497 -21 359 -360 389 138 -73 -223 -350 320 -47 -313 362 -306 -62 101 316 -203 408 335 309 426 325 -387 -256 317 -403 253 231 -466 -192 -130 -72 -107 338 145 -236 435 67 249 239 -509 63 208 436 -47 437 -450 -261 360 45 263 -354 -351 326 -173 -134 -469 -198 -478 429
-43 -325 384 377 364 -86 -367 -222 274 -36 137 150 -399 -34 242 445 507 180 -119 -461 -30 -168 42 -251 -260 501 78 57 -371 -340 341 -264 -2 -282 -420 -46 220 -11 -210 -269 -457 194 -399 -42 -402 155 74 219 -245 385 -153 -179 -24 119 13 296 -196 1 422 266 108 503 386 -348
-435 511 -168 -202 -276 319 -116 -216 -218 141 -281 -211 -187 -56 -295 -17 -429 -473 -95 -87 152 -444 132 -416 -417 -175 -113 52 138 -475 -470 296 -394 -66 436 -510 -426 58 -67 462 -26 -438 69 241 -97 322 -486 -121 -290 -9 -208 -162 -297 313 196 -260 260 141 113 155 -123 434 -46 -307
-9 -169 256 433 -369 258 384 -104 -421 -290 -151 342 357 -173 134 -137 1 -282 -116 144 -314 158 162 176 -320 -252 -260 -100 -96 -79 -76 -149 181 89 113 322 391 -209 -242 288 417 480 462 421 389 41 -467 41 -477 -10 369 -62 402 69 -231 -261 -17 114 254 117 -169 -146 -214 335
-458 -347 297 106 125 -19 -320 95 347 175 -321 344 -423 -321 -188 -241 -286 487 -165 -443 436 -44 -148 9 406 341 -363 233 426 -145 -427 -450 -447 -363 444 321 472 119 -177 8 443 -367 -224 -417 234 -335 -310 -47 -508 80 219 -58 -80 -113 336 427 97 443 38 73 -494 482 -167 237
-397 -108 219 439 434 95 -144 264 284 -415 -307 417 46 424 37 -163 219 -340 405 60 338 -335 268 194 -371 -456 -472 151 -228 -250 -188 -356 500 -239 505 135 -443 -163 -111 467 458 -503 315 184 167 -189 63 437 344 -310 -263 -406 488 -62 -331 49 327 488 370 31 222 -290 318 260
107 -280 -394 234 379 -126 -38 136 439 313 -133 -2 -235 -501 -78 275 294 475 -185 -181 280 295 -116 493 423 336 -407 -370 167 210 -416 -443 198 223 101 -293 -268 42 -178 -23 358 14 365 276 312 -259 398 -394 104 -390 -149 317 -226 285 131 359 -224 -382 -483 -206 -149 -7 224 507
360 -481 -3 95 -165 -183 -13 -351 224 -30 -384 408 -304 238 -58 63 47 -72 469 78 31 66 -361 424 12 111 -420 -33 428 -140 -116 206 183 -497 -372 -429 397 268 267 -365 -162 -493 -429 408 112 14 468 -393 -281 -410 -294 483 148 393 185 -42 425 -374 385 456 -181 136 -204 -136
159 418 48 -476 -441 -225 190 242 -201 175 53 -8 -389 -494 273 -201 -41 457 302 -309 496 -354 -429 -344 -59 -192 474 78 491 -14 364 334 -493 365 -203 436 -36 -501 26 447 453 -466 162 272 181 211 270 -33 -303 386 502 342 181 2 -348 419 -498 76 -59 -399 -6 426 218 502
-476 505 -480 353 -228 135 -392 487 -115 -338 196 -326 -20 47 322 -180 -139 410 -134 215 -162 -17 -475 -239 502 77 449 28 -13 258 -440 -268 389 -107 177 -128 402 -454 65 357 -486 -430 288 60 65 87 -297 138 -125 3 281 100 113 -363 -293 224 480 46 391 377 67 167 -273 482
265 147 -126 397 -380 -197 253 -94 -468 -489 335 89 -252 294 361 -45 -113 226 -371 68 -377 -503 -496 -160 -11 -449 436 -2 384 -455 461 471 282 424 -280 -143 -48 -438 99 473 -298 -125 196 269 324 100 399 350 233 -244 -422 -348 -443 -402 253 126 62 -471 -267 121 456 284 281 444
-383 -390 215 -1 405 375 -368 376 -330 -455 499 -83 -155 -1 -175 -388 70 343 -401 -2 -414 -253 209 -66 -68 -333 287 -3 -500 -234 159 402 76 200 -275 377 -105 -10 291 449 76 -221 460 332 -449 -410 -265 7 386 505 251 129 -135 228 272 334 -166 -231 -335 451 289 -348 34 -74
88 -95 -364 135 40 461 335 -307 -330 -461 66 -297 489 388 -344 -452 -347 361 -113 -173 -38 -27 187 -425 22 199 -140 284 98 451 223 -463 -13 -336 7 -161 -468 303 -7 -453 106 147 239 -198 101 220 136 -228 202 352 -413 -330 447 253 -176 -419 95 457 -334 193 114 379 -263 95
-160 -437 -156 361 -377 -327 142 177 252 -423 454 280 185 -335 40 362 381 286 81 438 -313 -487 -485 -342 331 454 412 452 46 -509 11 34 499 424 -124 -164 426 149 -96 22 381 313 156 233 -48 -402 -242 153 269 -366 174 188 390 -117 66 -12 146 -315 -158 -347 396 180 104 492
243 -312 496 -169 441 231 289 -150 111 389 52 195 -173 -505 168 344 4 139 -196 -115 -294 54 -383 -355 -179 453 206 147 352 -332 138 -451 -191 -244 -493 76 275 -497 -91 -270 -447 286 326 348 493 -204 -475 -137 -375 -143 261 73 369 -358 460 -455 135 506 -312 -241 -493 -474 -189 -146
121 -233 -377 -56 -243 487 -12 -363 -322 414 333 -334 353 -422 -16 33 -90 292 78 -432 -302 204 -453 -220 54 -241 34 -419 509 106 428 377 211 480 -127 -76 -384 -379 489 114 -242 153 16 -497 -83 429 395 -122 -342 -377 -414 -467 -99 -211 -415 218 -331 -364 267 10 395 -91 -248 371
302 498 -40 -106 31 499 -64 -299 -380 330 464 354 154 254 173 30 -4 -421 -219 -397 163 -148 -179 -361 118 -418 510 342 -278 503 -171 -150 -15 509 430 -280 -258 142 293 -285 -245 -319 -334 -283 -231 -36 -194 358 -362 22 69 -281 47 441 489 -177 328 -38 -125 72 -93 470 -294 -107
-413 -37 -332 375 -73 -299 -163 389 -134 160 26 -11 -409 -397 -146 -381 -254 -54 -188 367 -178 -492 94 -165 -142 364 301 -283 189 6 -17 222 76 -195 -449 -73 495 -183 509 77 460 23 -391 54 228 -245 327 26 227 352 -293 369 -399 -188 316 -160 -12 104 -178 -43 -457 -264 -145 -283
486 -18 -175 -464 27 183 428 506 -390 -14 -124 336 -490 -61 -294 -89 -476 100 415 157 -175 163 436 321 486 -310 441 63 302 -58 114 438 170 77 -374 42 -423 -287 -158 -507 -272 505 275 -340 -474 393 367 345 138 -458 407 -350 -71 -298 141 -119 -33 -28 372 249 301 -38 -36 27
-76 391 -52 -380 334 260 -69 -492 -495 -334 -316 -410 2 427 -428 -420 -392 397 -103 374 -424 -264 11 -269 -334 -257 448 -26 -257 213 11 -186 -473 -328 26 -37 187 442 -269 311 -288 -454 -438 -408 468 186 379 -62 -36 83 18 359 428 -40 -79 -142 -284 -57 220 -40 -300 -396 144 -470
-389 256 -336 388 291 -147 265 -207 -354 21 -86 176 269 -250 -453 -129 451 156 -310 239 510 72 503 -193 61 -453 201 -241 17 243 296 93 -120 -169 342 -374 -301 -162 -170 350 46 -364 -363 145 96 -114 30 471 -357 -367 -323 -32 -396 251 324 -402 -376 103 499 140 -403 -197 -334 221
62 -394 -70 -462 409 -509 77 194 -229 331 -238 -396 50 207 188 -264 280 -137 4 28 -268 414 457 -317 456 352 -389 94 -316 133 -78 -42 259 -44 494 478 261 440 38 -393 68 -417 -61 251 301 -504 -178 298 354 -149 -282 76 -266 199 -363 -28 11 179 -471 354 -269 -466 1 -493
122 446 207 -262 360 83 -203 -110 -241 37 -21 -174 434 217 458 -476 17 -102 454 -155 245 374 -294 371 157 -105 -388 -317 236 -23 -192 -142 100 -434 -96 262 -191 401 201 -479 -342 55 -197 343 -184 316 272 -400 374 -358 391 -415 123 41 -212 -415 -361 201 -238 -194 39 134 508 108
160 76 380 -23 -343 -436 381 -386 -460 306 -320 506 497 -411 -129 -55 244 191 -323 176 447 313 18 -159 225 65 -67 350 -233 -58 313 -426 -391 42 188 -422 -243 -438 415 -109 -427 -103 -217 108 -109 113 66 -94 -21 -115 -271 221 390 -250 295 360 -170 31 182 478 211 90 27 241
-94 221 -336 24 213 302 495 -385 -418 -208 506 -140 -472 -474 331 -393 448 283 163 51 -331 161 -64 -11 426 -361 187 -440 74 -220 77 -145 117 -315 -381 -411 116 -138 -281 -32 -365 235 181 219 -66 229 425 206 -323 68 -298 326 159 137 502 428 347 306 464 181 121 -25 168 -121
86 406 -202 451 -67 -419 313 -40 -23 180 443 123 -195 70 -116 -219 50 322 -149 -159 -1 486 391 -227 488 -397 -386 204 -207 -43 -204 94 110 -134 98 -140 -505 -25 -45 -174 2 -398 -215 -400 407 -462 482 62 -258 -148 381 -133 435 372 -149 -452 -414 -352 11 -239 -217 -438 146 -327
165 392 -277 343 -23 367 -1 128 -354 -498 -85 -477 -385 330 -211 385 -200 443 30 -162 113 161 -187 100 106 -3 -403 -115 319 85 354 -176 391 159 478 -210 -399 -471 154 461 -390 -310 -100 69 475 -254 288 -157 -366 198 11 -51 -475 -343 404 210 -281 -40 347 326 283 -135 -283 -244
228 -190 -165 -218 -142 -436 -402 -483 -138 -181 89 236 -367 260 481 -97 -356 194 252 475 195 -358 -157 232 213 -2 407 -109 305 -171 -50 -320 211 -367 -300 246 -180 468 -199 -418 -22 289 -32 -59 49 159 314 276 -71 36 47 -316 30 226 -504 211 66 182 52 57 -6 -509 -509 87
-239 -245 -55 42 -75 321 338 -383 -337 341 -450 -250 -374 -86 374 441 -212 -335 -135 -262 -15 -496 386 -107 266 -171 -395 -247 -11 124 -186 -77 50 103 -84 -117 -56 -448 502 336 -327 384 201 -123 438 -95 -37 -456 -192 -127 126 12 -496 -30 -89 70 37 435 -496 266 246 -11 362 459
-490 483 -143 -232 -168 224 -159 -424 135 432 -211 4 -436 187 178 343 145 -459 133 7 -394 246 183 375 -209 -82 429 -502 477 -369 -92 -299 233 31 -100 -16 149 -312 -225 417 85 200 -39 -435 -101 -34 162 -397 401 -238 226 4 -331 -209 508 505 -251 416 113 -33 465 389 -35 -309
76 274 -366 312 -346 5 -511 477 -380 178 172 371 -383 5 29 396 377 246 -261 -309 -343 -278 269 -242 488 -496 273 511 -484 -7 390 -251 -36 451 -343 -197 5 240 423 -305 374 -251 368 334 96 175 -5 48 -497 470 -117 -412 -16 -170 -500 11 88 112 116 -152 45 467 6 365
434 -277 487 -191 28 -379 378 254 251 -249 167 -273 397 -432 329 -351 339 100 293 -354 -340 155 198 341 -502 -273 -489 233 169 55 -457 -242 279 -54 225 -269 165 -326 -320 -282 -380 -371 -208 -157 -354 -383 -375 -281 126 -510 -435 -403 396 -128 -316 -211 -424 70 96 64 -426 361 -90 -196
49 466 -445 -246 149 34 266 216 -184 335 488 -484 128 265 396 411 -81 -44 429 357 -175 502 -130 -264 -157 -169 159 -49 -242 97 465 -408 120 435 -371 104 236 453 -479 163 3 -13 307 97 67 -103 126 331 -52 194 198 -149 -262 193 281 273 -173 -190 450 -212 463 -273 -291 430
305 345 216 -474 263 -447 91 -203 489 -499 311 301 -316 -506 -359 -78 -260 124 72 47 -361 -291 -400 28 375 -454 396 -226 -78 334 -21 -332 70 -399 2 208 -157 233 415 -240 495 -180 284 -293 211 195 256 109 77 230 -40 -331 238 -143 445 0 226 161 -346 102 265 -219 433 -40
-6 -327 -279 -322 -129 -96 -430 358 161 249 -254 -74 -386 -202 -183 55 -157 -409 246 -256 -179 73 69 -78 415 49 -136 -54 -190 191 64 -277 -283 216 -447 333 24 -337 278 -25 -327 -401 -395 253 -350 76 -119 -15 -112 54 140 -13 -9 -237 149 374 180 75 -490 16 135 -264 403 215
-39 -1 -252 -358 -357 -189 -170 74 -254 306 409 379 -79 313 306 243 -132 203 -431 41 -440 -50 484 270 -366 205 -279 -355 415 347 -399 -124 324 325 -1 -113 -95 -305 398 -336 117 485 174 -442 490 16 -339 -511 -365 390 204 -264 175 249 -164 -106 313 -373 -263 -150 -481 -225 -7 -58
330 -233 144 -438 -442 -285 350 452 450 -177 506 29 -65 420 -439 -421 320 144 -68 415 -143 -315 -223 487 288 185 304 -313 16 332 400 482 203 -38 -135 494 59 12 -133 -232 115 -375 209 -89 249 -28 -27 201 -470 -372 132 117 504 -242 485 197 217 273 474 -492 301 227 82 297
481 -74 -463 490 412 310 187 -22 -71 215 -200 334 -404 -463 208 50 410 -241 193 74 297 69 -394 -348 164 432 281 -263 -455 -447 -410 64 -122 20 -78 424 455 -441 -66 -298 189 139 -287 144 -203 43 -401 -123 89 316 476 -383 -103 -308 511 -45 129 -433 274 -15 -82 -239 -386 -191
-337 -143 -481 -133 -317 -415 396 238 -98 150 439 375 50 -347 -36 417 -167 355 -327 315 -117 374 282 -157 -283 -380 395 13 -423 -36 -451 274 -341 324 -472 126 237 100 218 247 -406 92 274 -497 71 235 -41 302 -117 -64 406 -83 -493 474 176 359 -362 149 -241 -358 -238 -254 -92 69
-465 369 441 -6 398 50 -67 -292 -412 -33 -307 -127 83 297 496 -71 -418 70 -397 -144 -339 -440 153 308 -125 387 -179 -329 217 -251 392 380 -366 -362 -221 -153 400 319 -460 -443 -48 -136 492 70 94 -270 -417 -104 181 327 78 33 162 -110 269 -471 186 329 339 512 483 302 220 -430
320 15 63 455 146 21 271 288 -113 7 -440 458 -284 -304 -135 -56 220 -309 451 291 330 310 -492 -134 -227 -78 152 264 211 -57 -454 365 -379 -409 89 -248 -28 414 291 -386 46 -495 450 -171 141 -425 -81 -356 -11 -328 123 -500 -99 -507 10 138 74 -103 119 -139 505 302 -110 24
362 -452 -201 511 260 -14 54 95 2 364 228 -493 454 303 449 431 234 -420 127 -232 -338 248 183 82 -25 257 -376 -320 7 -375 471 -248 -429 35 146 -378 -195 -13 296 440 210 -110 380 19 193 168 -266 31 298 451 227 239 111 217 172 -133 -224 256 414 -387 65 235 341 156
248 -132 158 -326 487 -145 189 372 -302 -245 -150 -394 30 304 -407 -271 -246 186 -44 130 -408 -407 -341 -441 335 -422 -78 -25 -80 -502 282 -331 241 -56 -397 -157 371 -153 -233 -358 179 -397 118 150 443 -33 -479 145 -295 65 276 370 436 104 -92 192 465 -325 -199 -150 233 303 -247 -477
-354 -309 253 -103 404 477 -152 -131 -116 152 -214 -253 -460 48 252 419 -468 46 457 383 359 405 -131 -219 -183 338 416 0 247 -284 297 82 371 283 494 -154 -366 235 -183 373 -94 -457 274 -286 45 146 -187 -465 23 231 -430 268 395 -217 179 323 -252 192 125 302 -352 -188 262 66
157 275 -430 -92 373 154 155 339 466 178 228 287 72 -369 196 210 -379 172 492 -153 -283 -266 -333 -313 -6 -436 85 344 -430 405 -137 -331 -338 -502 432 226 186 24 145 -249 253 78 117 219 317 82 240 -222 336 203 444 418 442 -317 200 401 -370 62 102 208 415 -118 -436 104
-92 474 398 271 152 29 59 -344 -408 256 -468 33 179 344 59 132 133 409 438 67 -139 -140 -77 -303 -88 277 53 -239 -91 184 -362 464 38 -130 -150 412 -83 123 240 -225 349 -486 111 274 474 -282 278 150 -410 278 -55 231 202 372 -395 -207 -122 -247 -453 -189 -492 -378 2 -103
13 -68 -126 339 -444 472 435 22 443 -313 -147 -72 -425 -488 396 115 -474 312 -82 -98 -91 -11 146 -33 -87 -303 24 -75 -71 -298 328 -149 294 338 -119 379 308 -315 -108 405 307 92 360 -172 65 410 294 -303 452 -272 -214 -172 -95 -13 -465 -331 -114 -263 37 -304 -75 -417 -146 28
