0.08000476658344269
-0.09771169722080231
0.06042955815792084
0.010696068406105042
0.010525301098823547
-0.07263702154159546
-0.07810993492603302
-0.024654805660247803
-0.0862259566783905
-0.11496442556381226
0.0012209266424179077
0.11490604281425476
-0.028235718607902527
-0.033037036657333374
-0.12367856502532959
0.028059765696525574
-0.12270550429821014
-0.10392537713050842
-0.005371689796447754
-0.06002655625343323
-0.07375885546207428
0.07612146437168121
0.06262902915477753
-0.11858364939689636
-0.011774346232414246
-0.04215812683105469
0.07466760277748108
-0.036562591791152954
-0.016697660088539124
-0.03576992452144623
-0.010959073901176453
-0.004008591175079346
-0.11868257820606232
0.06995938718318939
-0.07220932841300964
0.020587950944900513
0.02582506835460663
-0.02616901695728302
-0.1102784126996994
-0.03850196301937103
-0.10141986608505249
0.032005906105041504
-0.03808288276195526
0.06795571744441986
-0.1241554319858551
-0.00980299711227417
0.01549406349658966
0.11217719316482544
-0.061184704303741455
-0.10924200713634491
0.12266242504119873
0.01592506468296051
-0.07496194541454315
-0.08604806661605835
0.038107261061668396
0.015884414315223694
0.0597088485956192
0.06787674129009247
0.016258463263511658
-0.042227596044540405
0.049330323934555054
-0.0763697624206543
-0.07042519748210907
0.11122502386569977
