-0.07882305979728699
-0.03413936868309975
-0.014249958097934723
-0.04332404211163521
0.003124535083770752
0.01460351049900055
0.07244259864091873
0.0021157637238502502
0.044399015605449677
-0.03323427587747574
-0.04266923666000366
-0.06691344082355499
-0.08748677372932434
-0.03695444017648697
0.08203063160181046
-0.0843225046992302
0.007292598485946655
-0.007839828729629517
-0.08290454745292664
-0.05883084610104561
-0.029901817440986633
-0.00834173709154129
-0.052404504269361496
0.007674500346183777
0.05088851600885391
0.04688946157693863
0.08253856748342514
0.08256860822439194
-0.02419627457857132
-0.04319128766655922
0.045897774398326874
0.03922506421804428
-0.008638903498649597
0.06079844385385513
-0.01094597578048706
-0.0027883723378181458
0.08065695315599442
-0.036305032670497894
0.027513638138771057
-0.03026144579052925
-0.034900013357400894
0.05579824000597
-0.027843143790960312
-0.08423729985952377
0.004880540072917938
-0.05286501348018646
-0.05250978842377663
-0.0734693631529808
0.06855050474405289
0.001965552568435669
0.017382875084877014
0.017391473054885864
0.04917510598897934
0.01895027607679367
-0.03658843785524368
0.05754180997610092
0.03492897003889084
0.019725874066352844
0.05749199539422989
0.015132211148738861
0.009982720017433167
0.04933678358793259
0.06328075379133224
0.03992701321840286
