0.0055397748947143555
-0.018231451511383057
-0.07500888407230377
-0.10397952795028687
-0.09734554588794708
0.010348677635192871
0.09053406119346619
-0.03622408211231232
-0.008557036519050598
0.08692950010299683
-0.00777888298034668
0.0025455355644226074
-0.014230817556381226
0.09829454123973846
0.027698799967765808
0.07904520630836487
-0.07288408279418945
0.09217171370983124
-0.08254782855510712
-0.06354932487010956
0.06398488581180573
0.04558862745761871
-0.06270551681518555
-0.06524486839771271
-0.07776640355587006
0.02457001805305481
0.04109075665473938
-0.032354146242141724
0.08000703155994415
-0.07746310532093048
-0.05698271095752716
0.08111204206943512
-0.09081168472766876
-0.07968667149543762
0.06161288917064667
0.02841031551361084
0.10547970235347748
0.02831268310546875
-0.0853847861289978
0.04330447316169739
0.11327521502971649
0.08723659813404083
-0.010052144527435303
-0.09445515275001526
0.1232672929763794
0.08470050990581512
0.056890666484832764
-0.04079978168010712
-0.03490254282951355
-0.10004152357578278
0.09962648153305054
0.03132203221321106
0.03592142462730408
-0.016642063856124878
0.11732132732868195
-0.014475598931312561
0.0422932505607605
0.01594989001750946
0.09770244359970093
-0.0717536062002182
-0.0655197948217392
-0.00026488304138183594
-0.019541561603546143
-0.0002599060535430908
