0.03430767357349396 0.036631472408771515 -5.5558979511260986e-05 0.03343215584754944 -0.041400257498025894 0.047992072999477386 -0.08305121958255768 -0.0070825740694999695 0.007485009729862213 -0.08552707731723785 0.0005576834082603455 -0.03578684478998184 -0.0018260106444358826 0.009459003806114197 -0.02673802524805069 0.06678148359060287 -0.0370437391102314 -0.059297073632478714 -0.01963047683238983 0.01790381222963333 -0.08623861521482468 0.01803380250930786 -0.07625290751457214 -0.03550076484680176 0.03145758807659149 0.03485995531082153 -0.06390459835529327 0.07200341671705246 -0.06058795005083084 -0.06870009005069733 0.0683671161532402 0.006879568099975586 0.03793465346097946 -0.006577983498573303 0.046440817415714264 0.07352375239133835 0.03157929331064224 -0.0022622495889663696 0.040089331567287445 0.044546954333782196 -0.04765873774886131 0.0670178160071373 -0.0839180052280426 0.03955944627523422 -0.06983110308647156 0.06578213721513748 -0.04076983779668808 -0.04587254300713539 0.03271741420030594 -0.03315427899360657 -0.03080056980252266 0.0019756853580474854 0.042148612439632416 -0.06489837914705276 0.021957188844680786 0.009558185935020447 0.06150657683610916 0.008270718157291412 -0.007846012711524963 -0.01440940797328949 0.08156899362802505 0.08483508974313736 0.04847808927297592 0.07489559799432755 -0.02947438508272171 -0.044320255517959595 0.026842370629310608 0.018723420798778534 0.019103698432445526 -0.00821765512228012 0.033775389194488525 -0.06190655380487442 0.017496012151241302 -0.04629784822463989 -0.06182184815406799 0.0321924164891243 -0.05642525106668472 0.025080248713493347 0.061889149248600006 0.04528311640024185 -0.0793810784816742 0.029015250504016876 -0.029676195234060287 0.0024474114179611206 -0.07145674526691437 0.03802689164876938 -0.07530303299427032 0.04716501384973526 -0.08620020002126694 0.014452479779720306 0.045189760625362396 0.018037788569927216 -0.062191255390644073 -0.04942716658115387 -0.07423795014619827 -0.004415564239025116 0.014313429594039917 0.025271691381931305 0.07319772988557816 0.06869582086801529 -0.05020301789045334 0.04513709992170334 0.044751472771167755 -0.06027704104781151 -0.026532556861639023 0.027757510542869568 -0.022889308631420135 -0.027342725545167923 0.007472790777683258 -0.047955453395843506 -0.08153931796550751 0.02772372215986252 -0.07174624502658844 -0.08085697889328003 -0.009931936860084534 -0.019088201224803925 0.07970026880502701 0.0446166917681694 0.07500673085451126 0.08367566019296646 -0.016979984939098358 -0.02977452427148819 -0.006464242935180664 -0.06700293719768524 -0.07176834344863892 -0.056707900017499924 0.032558590173721313 -0.03649907559156418
-0.0754581168293953 0.06026247888803482 -0.05873825028538704 -0.05697104334831238 -0.03543929383158684 0.036662764847278595 -0.050299353897571564 -0.041075918823480606 -0.03676041588187218 -0.052018776535987854 -0.03175005316734314 0.04879050701856613 -0.06677281856536865 0.05953574925661087 -0.01084938645362854 -0.021996155381202698 0.002962656319141388 -0.0629081279039383 0.002468593418598175 0.01933693140745163 -0.0469755083322525 0.0274818018078804 0.0001254156231880188 -0.034779198467731476 -0.033709511160850525 -0.024215534329414368 -0.009397156536579132 -0.053382765501737595 -0.07304195314645767 0.023117490112781525 0.01330481469631195 0.0016092285513877869 0.051458947360515594 0.08771929889917374 0.04351866990327835 0.032481156289577484 -0.08214239776134491 -0.005076460540294647 -0.014479704201221466 -0.06645551323890686 -0.06622454524040222 -0.041094567626714706 -0.008512891829013824 -0.05435119569301605 -0.019943416118621826 -0.03228740394115448 -0.05142848938703537 0.06153271347284317 -0.08248792588710785 0.005150452256202698 0.013763189315795898 -0.023090891540050507 0.07350436598062515 -0.044235244393348694 -0.08518834412097931 -0.003836587071418762 0.048490457236766815 0.03891798108816147 -0.045688532292842865 -0.008616693317890167 -0.025471128523349762 0.05376847833395004 -0.031737808138132095 -0.02113524079322815 -0.08767630904912949 0.016055427491664886 0.04081378132104874 0.07262138277292252 0.01934114843606949 -0.04127298668026924 -0.062078721821308136 -0.020834237337112427 -0.0016008839011192322 -0.0358429029583931 -0.006280101835727692 -0.03434167429804802 0.008901499211788177 -0.07188338786363602 0.04509744793176651 0.06025119870901108 0.07191910594701767 0.08580266684293747 -0.04579450935125351 -0.08108431100845337 -0.056756798177957535 -0.050333745777606964 0.08416800945997238 0.03577248752117157 -0.029055479913949966 0.0453362837433815 0.06627864390611649 0.041584424674510956 0.057444699108600616 0.04523954540491104 0.006952047348022461 -0.05748336762189865 -0.044558215886354446 -0.07265274226665497 0.05771549791097641 -0.08829935640096664 -0.025371283292770386 0.06240773946046829 -0.04628147557377815 0.07511333376169205 -0.040763672441244125 0.0122247114777565 -0.004805900156497955 0.08469279855489731 0.028233036398887634 0.06806551665067673 -0.00483202189207077 -0.014012247323989868 0.05322103947401047 0.08421332389116287 0.02975565195083618 -0.03661298751831055 -0.02298368513584137 0.05754738301038742 0.03299366682767868 0.040039755403995514 -0.018153734505176544 -0.06935133039951324 0.03438355773687363 0.011615671217441559 0.06002143770456314 0.012455172836780548 -0.04183987155556679 -0.04245058819651604
-0.014660030603408813 -0.005260966718196869 -0.015030167996883392 -0.04157675802707672 0.058749161660671234 0.07667116075754166 -0.035468690097332 0.05319385975599289 -0.08384254574775696 -0.06068945676088333 0.05643682926893234 0.02458333969116211 0.0771666094660759 -0.08813144266605377 -0.03695172071456909 0.07475683838129044 -0.02315118908882141 -0.021227553486824036 -0.04483368992805481 0.024009838700294495 0.04252489656209946 0.026036985218524933 0.031328149139881134 -0.07788575440645218 0.07226822525262833 0.041944362223148346 -0.02984248474240303 0.021708406507968903 0.0692494735121727 -0.015219882130622864 -0.07307510823011398 0.06653264909982681 0.031056873500347137 0.0453808531165123 -0.022168651223182678 0.07913311570882797 0.05564842373132706 -0.08500058948993683 -0.008655264973640442 -0.028071466833353043 -0.0015296787023544312 -0.05117593705654144 -0.06938157975673676 0.0009079053997993469 -0.07728514075279236 0.02598358690738678 0.023305237293243408 -0.04537312686443329 -0.012111946940422058 -0.05937989056110382 0.0065835267305374146 0.050855912268161774 0.016097083687782288 0.04158783704042435 -0.07752008736133575 0.05553127080202103 0.026149287819862366 -0.025852710008621216 -0.032798223197460175 0.047401659190654755 0.08179249614477158 0.0016044378280639648 0.05679399520158768 0.03913109749555588 0.031917914748191833 0.06109822541475296 0.08447406440973282 0.07955136150121689 -0.058018557727336884 0.016188383102416992 -0.013061046600341797 -0.027941063046455383 0.010838240385055542 -0.05113032087683678 -0.018894851207733154 -0.02561868727207184 0.04962683469057083 0.00479501485824585 0.06623023003339767 0.024450622498989105 0.028099320828914642 0.07882014662027359 0.06308268755674362 0.009883023798465729 0.05223686248064041 -0.08569704741239548 -0.053519438952207565 -0.013221494853496552 -0.0604194775223732 0.037788622081279755 -0.02148342877626419 0.059098415076732635 -0.01577039062976837 0.07624813169240952 0.04643820971250534 -0.07307739555835724 -0.05771761015057564 0.08835669606924057 -0.014927200973033905 0.06117963045835495 -0.018876157701015472 -0.07103671133518219 -0.058552224189043045 -0.022319860756397247 0.01527097076177597 -0.04553715139627457 0.0465853288769722 -0.011572882533073425 -0.054225437343120575 0.06496766954660416 -0.07796963304281235 0.009520329535007477 -0.044855352491140366 -0.0446089506149292 -0.010442674160003662 0.04932800680398941 0.05735772103071213 0.03606751561164856 0.03521665930747986 -0.025344915688037872 0.012985773384571075 -0.012821175158023834 0.014751069247722626 -0.0029667988419532776 -0.020935237407684326 -0.01709914207458496 0.034564048051834106 0.0812039002776146
0.07184848934412003 0.0451258048415184 -0.028289426118135452 0.017508335411548615 0.030066736042499542 0.07599660009145737 0.01502632349729538 0.01894417405128479 0.05178043991327286 -0.04058504477143288 -0.06682731211185455 -0.05824364721775055 -0.07682757079601288 0.055911771953105927 0.0032657384872436523 0.04155298322439194 0.012357570230960846 -0.051694951951503754 -0.027141612023115158 -0.026602163910865784 0.06666205078363419 0.03742048889398575 0.07314025610685349 0.08101051300764084 -0.08005908876657486 0.019839003682136536 0.0553717240691185 0.024458616971969604 0.04660635441541672 0.00601872056722641 -0.006056599318981171 0.02174057811498642 -0.07299993187189102 0.04800447076559067 -0.037442658096551895 0.018772035837173462 -0.08158229291439056 0.07643774896860123 0.012390278279781342 0.08181300014257431 0.022016480565071106 -0.0024363845586776733 -0.012966595590114594 -0.0077810138463974 0.017934739589691162 0.021622605621814728 -0.0057632774114608765 -0.015700913965702057 -0.012093260884284973 -0.03557795658707619 0.04601196199655533 0.07428888231515884 0.06161671131849289 -0.0005576834082603455 0.059939391911029816 -0.013934411108493805 -0.02355717122554779 0.01723594218492508 0.0037743523716926575 -0.02704595774412155 0.05221997946500778 0.06418869644403458 0.05030066519975662 -0.05836641788482666 0.012032844126224518 0.007650136947631836 -0.07863491028547287 -0.03405869007110596 0.08420511335134506 -0.001066364347934723 0.08593759685754776 0.06402241438627243 0.05038722604513168 -0.071247398853302 0.03917301446199417 -0.014658823609352112 0.01694747805595398 -0.0008649975061416626 0.08564824610948563 -0.07416003197431564 -0.03755367547273636 0.008683018386363983 0.033976636826992035 0.06416957825422287 -0.05822465941309929 0.07949105650186539 0.07763329893350601 -0.04547389969229698 0.08072467893362045 0.029540054500102997 0.05890946835279465 0.03509470820426941 -0.00866658240556717 -0.07226857542991638 -0.05828657001256943 0.0394410565495491 -0.04491499066352844 0.0508112832903862 0.06636755913496017 0.04412735253572464 0.0005853325128555298 0.03284650295972824 0.00414624810218811 0.009985223412513733 -0.07774285972118378 0.05533965677022934 -0.03686937689781189 -0.05305115506052971 0.06726283580064774 0.043491534888744354 -0.0391211062669754 0.08167082816362381 0.0777110680937767 0.05252494663000107 -0.06521790474653244 -0.024752318859100342 -0.04688355326652527 0.007835611701011658 0.03904915601015091 0.08639540523290634 -0.026653889566659927 0.056185878813266754 0.05520682781934738 -0.06772136688232422 0.02842865139245987 -0.03137404844164848 -0.0204036682844162 0.08538059145212173
0.020186029374599457 0.0499822273850441 0.061399199068546295 -0.07128763943910599 0.0370800718665123 0.03694196790456772 0.03983577340841293 0.04728495329618454 0.03152935206890106 0.020605280995368958 0.02485603839159012 0.060871370136737823 0.04431480914354324 0.07945356518030167 0.06294695287942886 0.052076585590839386 0.023743845522403717 -0.05225848779082298 -0.051537271589040756 -0.022034592926502228 -0.029501330107450485 -0.037331487983465195 -0.02982042357325554 0.04117726534605026 -0.049903396517038345 -0.014346078038215637 0.0814187303185463 0.07927096635103226 -0.012947604060173035 -0.058117467910051346 0.002186022698879242 0.0005204901099205017 0.006252095103263855 0.0409674271941185 0.043182142078876495 -0.0034747421741485596 -0.013379611074924469 -0.02800271287560463 -0.015546135604381561 0.030499882996082306 0.013785742223262787 0.012321822345256805 -0.04628787189722061 -0.00870995968580246 -0.055723149329423904 -0.0027073994278907776 0.0016474276781082153 -0.07304048538208008 0.06587692350149155 0.03503510355949402 -0.08519840240478516 -0.0008588656783103943 -0.030351031571626663 -0.010460488498210907 0.036425866186618805 -0.009541571140289307 -0.07900606095790863 0.018351085484027863 0.07619751244783401 -0.03991907089948654 0.06109466403722763 -0.057363029569387436 -0.005630902945995331 0.02998100221157074 -0.07448596507310867 0.004049614071846008 0.053475476801395416 -0.04075174406170845 0.05046180635690689 -0.05010060966014862 -0.007873177528381348 -0.053790345788002014 -0.03270181268453598 -0.0686396062374115 -0.07691293209791183 0.06610962003469467 -0.06690870970487595 -0.08289625495672226 0.08634304255247116 0.006942674517631531 -0.06167475879192352 0.07533255964517593 0.059488795697689056 0.06184051185846329 0.0282864049077034 0.07967100292444229 -0.07326164096593857 -0.07036444544792175 0.04567054659128189 0.0755915567278862 -0.03063342347741127 0.010384775698184967 0.011802606284618378 -0.07496378570795059 0.06445012241601944 -0.05025370046496391 -0.018261060118675232 0.07946253567934036 0.055308349430561066 -0.0290653295814991 0.008983664214611053 0.0830770805478096 -0.029634512960910797 0.03934841603040695 0.03812495619058609 0.05419207364320755 0.011052809655666351 0.04540251940488815 0.0837782695889473 -0.005516186356544495 0.05551575869321823 0.07177946716547012 0.04411471635103226 0.038056619465351105 -0.02675948664546013 -0.0827426090836525 -0.03539668396115303 0.01790614426136017 0.043293677270412445 0.014283157885074615 0.0410928949713707 -0.07625153660774231 -0.08689761161804199 -0.006306640803813934 -0.04056210443377495 0.0772465392947197 0.07334070652723312 -0.06123333424329758
-0.03588370978832245 -0.0009732469916343689 0.026905030012130737 0.05034733563661575 -0.0024841278791427612 0.05657096952199936 0.023117780685424805 0.05750831216573715 9.731948375701904e-05 0.007887691259384155 -0.04314089193940163 -0.015533745288848877 0.06590066105127335 -0.05683204159140587 -0.08531759679317474 -0.029612407088279724 0.0026649311184883118 -0.0617419071495533 -0.0002669617533683777 -0.008793845772743225 -0.018889203667640686 0.0713384672999382 0.03838696330785751 0.08268211036920547 -0.012495815753936768 0.01729918271303177 0.0048547908663749695 0.04460222274065018 -0.0604412779211998 -0.01775447279214859 -0.0779125913977623 0.04685883969068527 0.08776863664388657 0.06501612812280655 0.0620584562420845 -0.0560636930167675 0.03474927693605423 -0.018629424273967743 0.0642949566245079 -0.013675317168235779 0.01704709231853485 -0.016784019768238068 0.013099774718284607 0.041874103248119354 -0.07710832357406616 -0.07748036086559296 -0.0015681609511375427 -0.06431391090154648 -0.010732702910900116 0.03712286800146103 -0.014887310564517975 -0.019521377980709076 0.0420219823718071 0.058270953595638275 -0.005688756704330444 -0.0673985704779625 -0.06705206632614136 -0.048316314816474915 -0.028772618621587753 -0.03724685683846474 -0.013215430080890656 0.06056206673383713 0.0439736470580101 -0.04072543606162071 0.00963292270898819 -0.028544794768095016 -0.059815987944602966 0.006904758512973785 0.06499677151441574 -0.0878075435757637 0.056464724242687225 0.020889297127723694 0.005793653428554535 0.054506056010723114 -0.01240556687116623 -0.05564050003886223 0.00407632440328598 0.07894168049097061 0.01949838548898697 0.0677601769566536 -0.06726323068141937 -0.056421730667352676 0.020464442670345306 -0.05097545310854912 0.05287746340036392 -0.04692909121513367 0.06483026593923569 0.011802494525909424 0.054487280547618866 0.08566106110811234 0.010468855500221252 -0.08208687603473663 0.07166212052106857 0.014426656067371368 -0.02211480587720871 0.06246582418680191 -0.035192932933568954 0.07368005067110062 0.019620709121227264 -0.0544036366045475 0.07046287506818771 -0.0063321515917778015 -0.06418369710445404 0.024466626346111298 -0.03157209977507591 -0.04180188477039337 -0.07335004210472107 0.0014911890029907227 -0.02694457396864891 -0.014278404414653778 0.02867034077644348 -0.004255987703800201 -0.028143979609012604 -0.06169438734650612 0.05546440929174423 0.05308999866247177 0.01889747381210327 -0.08372978866100311 0.01703498512506485 0.08639592677354813 0.0774950161576271 -0.031212564557790756 -0.008503295481204987 0.04605407267808914 -0.056503940373659134 -0.03485099598765373 -0.07277834415435791 0.044529400765895844
0.031729087233543396 -0.019222363829612732 -0.05896798148751259 -0.08675998449325562 -0.06453101336956024 0.004417918622493744 0.02297235280275345 0.04260372370481491 0.06370250135660172 -0.05931179225444794 -0.05964575707912445 0.01993253082036972 -0.08622976392507553 -0.08368103951215744 -0.04381008818745613 -0.06342191249132156 -0.05647894740104675 -0.03519705310463905 -0.08726686239242554 0.004865735769271851 0.06697607785463333 -0.015596188604831696 0.05632593482732773 0.0763787254691124 -0.02489076554775238 0.02175479382276535 0.03599022328853607 0.04211103171110153 -0.043650299310684204 -0.07036177814006805 0.06044744700193405 -0.00033748894929885864 -0.04930751398205757 -0.056589581072330475 0.00500333309173584 0.02311808615922928 -0.06244296580553055 -0.005468457937240601 0.0328478068113327 0.020766176283359528 -0.05785582959651947 0.0008743777871131897 0.045872487127780914 0.05047295242547989 -0.03943197801709175 -0.01341954618692398 0.08531548827886581 0.001141369342803955 -0.019910499453544617 0.06279770284891129 -0.07670073211193085 -0.053374018520116806 -0.06378582864999771 -0.03155454248189926 -0.004236862063407898 -0.050552815198898315 0.015057563781738281 -0.041149936616420746 0.06690330058336258 -0.008422911167144775 -0.0029700547456741333 -0.011114537715911865 0.06766534596681595 0.07349395006895065 0.0645933672785759 -0.03890075907111168 0.02677835524082184 0.04056005924940109 0.06426621228456497 -0.04798904433846474 0.00334891676902771 -0.08822528272867203 0.025523491203784943 0.019165456295013428 0.08234981447458267 -0.06861606240272522 0.04173368960618973 0.01574239879846573 0.007343769073486328 -0.011005029082298279 -0.06985550373792648 -0.01614508032798767 0.011590048670768738 0.037984661757946014 0.015287354588508606 0.07008474320173264 0.0699213370680809 0.08329050987958908 -0.06637502461671829 -0.05621545389294624 -0.0508040115237236 -0.08054204285144806 0.06652281433343887 0.03737600892782211 0.05959009379148483 -0.0770656168460846 -0.033849555999040604 0.014771461486816406 0.012808836996555328 -0.0701553151011467 -0.06775714457035065 -0.015624649822711945 -0.03954600915312767 -0.0019684284925460815 0.03611496090888977 0.013573423027992249 0.0292418971657753 -0.07897432893514633 -0.0834483653306961 -0.0769074484705925 -0.03323964774608612 0.04649462550878525 -0.031821660697460175 -0.08027089387178421 -0.02999413013458252 0.0661669597029686 0.01098247617483139 0.0873711034655571 0.03666967898607254 -0.01652449369430542 0.07424541562795639 0.06357299536466599 -0.0647585541009903 -0.0691010132431984 -0.03188681975007057 0.007007427513599396 0.06323961168527603 0.020045682787895203
-0.027484707534313202 -0.06340683251619339 -0.07343748956918716 0.026425659656524658 -0.08602816611528397 0.034799426794052124 -0.05025035887956619 -0.04904991015791893 0.004819221794605255 0.04701478034257889 -0.021418914198875427 -0.01047726720571518 -0.03945596143603325 -0.004932045936584473 -0.01492743194103241 -0.08087076991796494 0.012710265815258026 -0.06862988322973251 0.05278582125902176 0.009203247725963593 -0.007717616856098175 -0.018900498747825623 -0.07925964146852493 0.08464155346155167 -0.044220663607120514 -0.08541834354400635 0.02083486318588257 0.02520614117383957 -0.020500756800174713 -0.0604550801217556 0.05145599693059921 -0.08053198456764221 -0.060531534254550934 0.04625701159238815 -0.006590910255908966 -0.06452867388725281 0.036067403852939606 0.035222068428993225 0.02037009596824646 -0.007637284696102142 0.0670507475733757 -0.07639607042074203 -0.08538902550935745 0.0859769806265831 -0.0198122039437294 0.05658327788114548 -0.023305542767047882 -0.014431431889533997 0.08117357641458511 -0.0433463454246521 -0.0022952109575271606 -0.05194825679063797 -0.08096867054700851 0.06575065106153488 0.05980250984430313 -0.032179106026887894 -0.0614151656627655 0.06760632246732712 -0.06574179232120514 -0.05185350030660629 0.01901259273290634 0.04410210996866226 0.07293578237295151 0.01649577170610428 -0.04551347345113754 -0.07343379408121109 0.061233989894390106 0.08454401046037674 -0.026492148637771606 0.06154290586709976 -0.027698643505573273 0.02958739548921585 0.029989197850227356 -0.054845649749040604 -0.04646778479218483 -0.04099928215146065 -4.4889748096466064e-05 0.07259722799062729 0.037629760801792145 -0.04669352248311043 -0.004878886044025421 0.02678655833005905 0.039485685527324677 0.013916119933128357 -0.07789845764636993 0.05767538398504257 -0.05087853595614433 0.019477374851703644 -0.055476926267147064 -0.020015232264995575 -0.06871477514505386 -0.05409417301416397 0.01409255713224411 -0.0749167799949646 -0.08145133405923843 0.01721467822790146 -0.001810126006603241 -0.06954798102378845 -0.06610667705535889 -0.04699200764298439 -0.06841276586055756 0.0391632542014122 0.07972978800535202 0.0412181094288826 0.0026481598615646362 0.05883171409368515 0.04481499642133713 -0.05615972727537155 -0.07714895904064178 -0.009607359766960144 0.015021093189716339 -0.06570357084274292 -0.00585879385471344 -0.00873982161283493 -0.0038087815046310425 0.051437340676784515 0.07291979342699051 0.07260074466466904 0.006785273551940918 -0.020517654716968536 -0.027299724519252777 -0.0484219454228878 0.0034856200218200684 0.026522263884544373 -0.02582331746816635 -0.07020771503448486 -0.007909201085567474 -0.03235914930701256
0.006583847105503082 -0.0366295725107193 0.027501262724399567 0.002817697823047638 0.018367543816566467 -0.07792218774557114 -0.05952361226081848 0.012116268277168274 0.04022660106420517 -0.005748316645622253 0.06250684708356857 -0.08176776021718979 -0.018991634249687195 0.029055669903755188 0.07249904423952103 -0.03792130947113037 -0.05725966393947601 -0.07683327049016953 -0.06154291331768036 -0.062141984701156616 0.026595517992973328 0.0064233168959617615 0.03206393122673035 -0.01815735548734665 0.037115536630153656 0.014934293925762177 0.0010328590869903564 -0.03788506239652634 -0.02312837541103363 -0.0018929392099380493 -0.04677586629986763 -0.02686745673418045 0.030739404261112213 0.000715695321559906 0.05495326966047287 -0.020292654633522034 0.0017462000250816345 -0.004736907780170441 -0.040744297206401825 0.03557944297790527 -0.03268234059214592 0.042813681066036224 0.08772014826536179 -0.01600584387779236 -0.026480674743652344 0.05062311142683029 0.0731407180428505 -0.012433931231498718 0.07459389418363571 0.04235892742872238 -0.06702030450105667 0.02112804353237152 0.08486736565828323 0.015017494559288025 0.03066699206829071 0.020509585738182068 0.05489707738161087 -0.014499664306640625 0.06100871413946152 0.05080624669790268 -0.045973002910614014 -0.08173755556344986 -0.07666932791471481 -0.059756115078926086 0.011265158653259277 0.03139932453632355 -0.01659373939037323 0.07282743602991104 -0.013977698981761932 0.02280796319246292 -0.060690462589263916 0.027934543788433075 -0.038569193333387375 -0.013791009783744812 0.0439150407910347 0.06370995193719864 -0.024381548166275024 -0.04501991346478462 -0.05851359665393829 -0.05558524280786514 0.0009320154786109924 0.046717919409275055 0.009669572114944458 0.019065454602241516 0.07575394958257675 0.016229331493377686 -0.02094274014234543 0.006783977150917053 8.890777826309204e-05 -0.013537481427192688 0.06418927758932114 -0.06960827112197876 0.03463508188724518 0.08545445650815964 0.026224032044410706 -0.06604424118995667 -0.025165334343910217 -0.03293899446725845 0.03564617037773132 0.0022658556699752808 0.012418419122695923 0.024460822343826294 -0.05690987780690193 -0.05028213933110237 0.055586330592632294 -0.01048412173986435 0.01731453835964203 0.03468013554811478 0.015600673854351044 0.08062291890382767 -0.025073856115341187 0.06485127657651901 -0.06685297191143036 -0.04082794487476349 0.07680318504571915 -0.0866984874010086 0.05569548159837723 -0.03841017186641693 0.023252151906490326 0.07820882648229599 -0.06422974914312363 -0.051454294472932816 0.03313114494085312 0.05678790062665939 0.06692353636026382 0.032918184995651245 0.07631144672632217 0.00886373221874237
-0.030716706067323685 0.008186064660549164 0.07913757115602493 -0.009436912834644318 0.03199058771133423 0.006843149662017822 0.03109630197286606 -0.03315001353621483 -0.07553474605083466 -0.04150119051337242 0.04863622039556503 0.058566369116306305 -0.00789526104927063 0.038859523832798004 -0.0029357820749282837 0.020871415734291077 -0.0073324888944625854 -0.026429686695337296 -0.06444856524467468 0.07814104110002518 0.031321585178375244 0.06317190080881119 -0.01917746663093567 0.06634358316659927 0.08501898497343063 0.0659034475684166 -0.04723725840449333 0.07997236400842667 -0.014844119548797607 -0.04731316491961479 0.015869133174419403 0.03856154531240463 0.042865000665187836 -0.0480743907392025 0.07053939253091812 0.028652913868427277 -0.03119795024394989 -0.03460770472884178 -0.028202667832374573 -0.02313961088657379 -0.029683604836463928 0.05536290258169174 0.05859314650297165 -0.017876610159873962 -0.016089655458927155 0.02639952301979065 0.06295653432607651 -0.06331166625022888 0.0588703528046608 0.06190542131662369 -0.0767110139131546 -0.03275464475154877 0.08446662873029709 0.05913045257329941 0.04612208157777786 0.027944743633270264 0.08692406862974167 -0.07682209461927414 0.0322074219584465 0.08790036290884018 -0.06945915520191193 -0.08440445363521576 0.07423240691423416 -9.93385910987854e-05 -0.046617280691862106 0.02626488357782364 0.03425142914056778 -0.01816347986459732 -0.05465386062860489 -0.002489328384399414 -0.03134167194366455 -0.036435969173908234 0.022056400775909424 0.05963524430990219 -0.05317552760243416 0.05306204408407211 0.004452645778656006 0.058832429349422455 0.006915256381034851 -0.017865635454654694 -0.08723907172679901 -0.0054973214864730835 0.0856126919388771 0.03557440638542175 -0.024642758071422577 0.026143722236156464 -0.046187710016965866 0.0035853832960128784 0.04069869965314865 -0.027867645025253296 -0.012139610946178436 -0.08403633534908295 -0.048098668456077576 0.008554652333259583 -0.06738974153995514 -0.06918053328990936 0.03497915714979172 -0.08556751906871796 -0.061170145869255066 -0.040390271693468094 -0.009971670806407928 0.06502532213926315 -0.011471979320049286 -0.0601569227874279 0.08355391770601273 -0.07542315125465393 -0.04917483404278755 0.08496717363595963 -0.0005206838250160217 -0.021477296948432922 0.02799195796251297 -0.03560042008757591 -0.03184888884425163 0.033130064606666565 0.0716433897614479 0.08448875695466995 -0.02076440304517746 0.00612272322177887 0.007268182933330536 -0.019358612596988678 0.0812293216586113 -0.014211401343345642 -0.02932778000831604 -0.007704846560955048 0.037957943975925446 0.023131757974624634 -0.0025801658630371094 0.060556717216968536
-0.059205152094364166 -0.006474137306213379 0.05129048973321915 -0.04470884054899216 0.033859387040138245 0.0782536044716835 -0.010009683668613434 -0.007347807288169861 0.05850481241941452 0.06369810551404953 0.018716737627983093 -0.05594341829419136 -0.051123715937137604 0.07478358596563339 0.010837040841579437 0.026635564863681793 -0.05368930101394653 0.06483688205480576 -0.04537854343652725 0.03120923787355423 -0.011581048369407654 0.06569588929414749 -0.055479180067777634 0.07233359664678574 0.05248669534921646 -0.06229243054986 0.0479634627699852 -0.004073120653629303 0.02764151245355606 0.03675595670938492 0.019348688423633575 -0.027112234383821487 0.050831638276576996 -0.01033337414264679 -0.04211064428091049 -0.07338429242372513 0.04344763606786728 0.061031632125377655 0.040302298963069916 0.052641578018665314 0.026448771357536316 0.0774550512433052 -0.007566399872303009 -0.08209636062383652 0.04848860949277878 -0.013859055936336517 -0.016557008028030396 0.07071585208177567 0.004851870238780975 -0.03183412551879883 0.04092615097761154 -0.0809837132692337 -0.07167989015579224 -0.013829559087753296 -0.05333447456359863 0.02838762104511261 -0.001561194658279419 -0.022733531892299652 0.045406900346279144 0.06088637560606003 -0.07799190282821655 0.030908063054084778 -0.075934499502182 0.023188740015029907 0.006321854889392853 -0.05349387601017952 0.0752941444516182 0.00990130752325058 -0.037076909095048904 0.05028631538152695 -0.08473877608776093 0.0034098252654075623 -0.05602414160966873 0.02869868278503418 -0.008140265941619873 -0.07012641429901123 0.040910013020038605 0.010622456669807434 -0.017425842583179474 -0.06352206319570541 -0.07627267390489578 -0.025791794061660767 -0.07350313663482666 -0.027859393507242203 -0.06488299369812012 0.06748852878808975 -0.025385096669197083 0.029599256813526154 0.0014071166515350342 -0.054765719920396805 0.07624451071023941 -0.050215207040309906 0.018332384526729584 0.05052391439676285 0.040288977324962616 0.052458472549915314 -0.04918479174375534 -0.07351187616586685 0.02037786692380905 -0.0008247196674346924 -0.024857640266418457 0.04048144072294235 0.037100277841091156 0.007915101945400238 0.03937981277704239 0.023565247654914856 0.013845458626747131 -0.06731899082660675 -0.005778297781944275 -0.08080169558525085 -0.00970429927110672 -0.0042974501848220825 0.03546367585659027 -0.06423336267471313 -0.0250532329082489 -0.07353587448596954 0.006418883800506592 -0.009254224598407745 0.048948682844638824 0.08476576954126358 -0.03305784985423088 0.00849413126707077 -0.084778793156147 0.03323504328727722 0.046851493418216705 -0.06944651156663895 -0.06704731285572052 -0.0011256560683250427
-0.07184441387653351 -0.06454901397228241 0.052037738263607025 0.03887305408716202 -0.00886499136686325 0.0339084267616272 -0.04773881658911705 -0.024277500808238983 0.03678803890943527 0.05505269020795822 0.05489421635866165 -0.0324082188308239 -0.020537734031677246 0.023720860481262207 0.08373825997114182 0.00857507437467575 0.023575879633426666 -0.0865563154220581 0.03766123205423355 0.014943882822990417 -0.05993771553039551 -0.03311543166637421 -0.024019934237003326 0.08600770682096481 0.0034650787711143494 0.07429125159978867 -0.00952015072107315 -0.0851563960313797 -0.011624887585639954 0.07931303232908249 -0.04008443281054497 0.01181194931268692 0.0361107662320137 0.06327077001333237 0.026799991726875305 -0.08348555862903595 -0.055775199085474014 -0.06557144224643707 0.07260609418153763 0.05993496626615524 -0.03262028098106384 -0.03147997707128525 0.06951188296079636 0.01592934876680374 -0.0869419202208519 0.0452738031744957 0.05157344788312912 0.06247065216302872 -0.05457298085093498 -0.04462195187807083 0.06016363948583603 0.05936255306005478 -0.019215434789657593 -0.08156336843967438 0.02970913052558899 -0.02638969197869301 -0.014310985803604126 0.07896255701780319 0.03339087963104248 0.0091124027967453 0.011804260313510895 -0.07261261343955994 -0.042120810598134995 -0.062079839408397675 -0.08264365792274475 0.07145727425813675 0.008478157222270966 -0.05594959110021591 -0.04509783163666725 -0.01309368759393692 0.0865446999669075 0.08761497586965561 -0.08383575826883316 -0.009947888553142548 -0.044436126947402954 0.042452894151210785 0.02107091248035431 0.012833893299102783 -0.04493793845176697 0.013839833438396454 0.031244292855262756 -0.08685287088155746 0.027987822890281677 -0.0338260680437088 -0.0811152458190918 -0.03886726498603821 0.008372828364372253 -0.06966274231672287 -0.04829246923327446 -0.017602451145648956 -0.05016779154539108 -0.08539430797100067 0.05366801470518112 -0.044707994908094406 0.05079115182161331 0.04304150491952896 0.05236392468214035 0.05727776139974594 -0.07769159972667694 0.0551285520195961 0.004774540662765503 0.08513129502534866 0.01165858656167984 -0.007818818092346191 0.023711934685707092 0.009613551199436188 -0.05666308477520943 0.04805459827184677 -0.025800414383411407 -0.023455165326595306 -0.0633293092250824 -0.020003527402877808 0.01888757199048996 -0.03834118694067001 -0.03043610230088234 -0.08192508667707443 0.043634749948978424 -0.015072211623191833 0.06896085292100906 0.06555702537298203 -0.00698108971118927 0.08548521250486374 0.027358785271644592 -0.05963856726884842 0.03485272824764252 0.01567339152097702 -0.07972748577594757 0.046535082161426544
0.005711056292057037 -0.06750891357660294 -0.05349499359726906 -0.059557121247053146 -0.024223946034908295 0.05354485660791397 -0.005103603005409241 0.03947385400533676 0.0797828659415245 0.0548725351691246 -0.08762390911579132 -0.011340603232383728 -0.0251321941614151 -0.004198729991912842 0.017112135887145996 -0.022191181778907776 -0.0615314245223999 -0.029032476246356964 0.06732650846242905 0.02028576284646988 -0.039405521005392075 -0.04093410447239876 -0.04335464909672737 -0.04063795879483223 -0.05013188347220421 -0.04313043877482414 0.08268528431653976 -0.04840375855565071 -0.004701457917690277 0.08750497549772263 -0.025311961770057678 -0.02162604033946991 -0.05942923575639725 0.01482623815536499 -0.0782465934753418 0.0019985735416412354 -0.0666685402393341 0.03380011022090912 -0.0826449766755104 -0.03400898724794388 -0.07480255514383316 0.005231685936450958 0.07485371083021164 -0.0018117427825927734 -0.010793186724185944 -0.04576466977596283 0.0530812069773674 0.043001048266887665 -0.051697250455617905 -0.04961942136287689 -0.06809572875499725 0.07727355509996414 0.08372726291418076 -0.08463460206985474 0.06607504934072495 0.046814195811748505 -0.02356971800327301 -0.08185771107673645 0.04981366544961929 0.07872184365987778 -0.08057563751935959 0.011668942868709564 -0.0009923502802848816 -0.0728989765048027 0.0022421255707740784 0.08054716140031815 0.048275552690029144 0.052288226783275604 0.07853535562753677 0.008692942559719086 0.06021089106798172 -0.07250440120697021 -0.06331102550029755 0.08774473518133163 0.019633911550045013 0.08309652656316757 0.001992069184780121 -0.0619037002325058 -0.06958209723234177 -0.08255931735038757 0.061198167502880096 -0.08105087280273438 -0.04706912487745285 -0.004215642809867859 0.08389229327440262 0.02815641462802887 -0.05889583379030228 -0.060870710760354996 0.05584704130887985 0.0037941038608551025 0.051307953894138336 -0.04339998960494995 0.012547105550765991 -0.03062305599451065 0.08660703152418137 -0.016784347593784332 -0.0659608468413353 -0.0848957747220993 -0.04815320670604706 0.05348385125398636 -0.012114301323890686 -0.039343398064374924 -0.013064377009868622 0.0017914175987243652 0.04016076773405075 -0.04611964151263237 -0.0549125075340271 0.05669694393873215 -0.062195271253585815 -0.07219184190034866 -0.08776063472032547 0.07550028711557388 -0.028476234525442123 0.08205244690179825 -0.005284152925014496 0.04822363704442978 -0.015836849808692932 -0.010628342628479004 0.002158254384994507 -0.05556238070130348 -0.009043239057064056 -0.07145572453737259 0.07496867328882217 -0.031544387340545654 -0.025036007165908813 0.015735946595668793 0.006200768053531647 0.07462310045957565
-0.002781227231025696 0.04617559164762497 -0.08448070287704468 -0.010286539793014526 0.06379833072423935 -0.06417553126811981 -0.07212682068347931 -0.02983204647898674 -0.05092989280819893 0.012260809540748596 0.08387076109647751 0.020790912210941315 0.007630757987499237 -0.05034642294049263 0.015236735343933105 0.07330260425806046 -0.07603485882282257 0.06264571100473404 0.044530756771564484 -0.007930971682071686 -0.050050657242536545 -0.0746016800403595 -0.08102382719516754 0.08380109816789627 -0.0382031574845314 0.0010639354586601257 0.029189862310886383 -0.02582506090402603 0.04233039170503616 -0.07792392373085022 0.03411298245191574 -0.06110735610127449 0.007715232670307159 -0.06705422699451447 -0.04563536494970322 -0.044942762702703476 0.045681603252887726 0.07625433057546616 -0.05465957149863243 -0.05924651026725769 0.06440997868776321 -0.035535670816898346 0.02036510407924652 0.004694633185863495 -0.011575587093830109 -0.08653245121240616 0.024981923401355743 -0.05975138396024704 -0.049855757504701614 0.06923244148492813 -0.044484712183475494 -0.013712212443351746 -0.08779510110616684 0.042935438454151154 0.02016088366508484 0.022020041942596436 -0.005728080868721008 -0.05265742912888527 0.06056667119264603 -0.05386420711874962 -0.07769673317670822 0.06325911730527878 0.05464158207178116 0.0704713687300682 0.020549409091472626 0.042561911046504974 0.06083076447248459 0.08411011844873428 0.00148019939661026 -0.03891415148973465 -0.08216161280870438 0.0209663063287735 0.0007085949182510376 0.024208568036556244 -0.014939285814762115 0.04091561585664749 -0.06221022456884384 -0.036319468170404434 -0.038171831518411636 -0.06403923034667969 -0.04480554535984993 -0.001697443425655365 0.013873748481273651 0.019940130412578583 -0.05151700973510742 0.014471478760242462 -0.008979901671409607 -0.08313964307308197 -0.0536092109978199 0.016735345125198364 0.057622842490673065 -0.0027760565280914307 -0.05692619830369949 0.025156483054161072 -0.0771743431687355 0.04095181077718735 -0.06774652004241943 0.024391688406467438 -0.06764909625053406 -0.054513007402420044 -0.048656754195690155 0.014775417745113373 0.08647207170724869 0.022105082869529724 -0.027737747877836227 0.05160043388605118 -0.015762098133563995 -0.02425549179315567 -0.05814782530069351 0.06616250425577164 -0.04169195517897606 -0.0410531684756279 -0.01860334724187851 -0.013785675168037415 0.04257393628358841 0.0675053671002388 -0.0810735672712326 0.016269750893115997 -0.0047714561223983765 -0.06054835021495819 0.04728976637125015 -0.030077632516622543 -0.03453876078128815 0.045879118144512177 -0.01071525365114212 0.033581092953681946 -0.06986715644598007 -0.023506149649620056
-0.08248887956142426 0.03888372331857681 0.07355418056249619 0.07076915353536606 -0.07286442816257477 -0.001958012580871582 0.037238411605358124 0.04578987509012222 0.07459539920091629 -0.022632382810115814 0.05591712146997452 0.0792485848069191 -0.00795622169971466 -0.07982364296913147 0.018346555531024933 0.06162754446268082 -0.05618585646152496 0.06115642935037613 -0.08411186188459396 0.04577643424272537 0.052917204797267914 -0.03772277757525444 -0.005535438656806946 -0.022572293877601624 -0.07096175849437714 0.010346144437789917 -0.062283020466566086 -0.026990704238414764 0.05915757268667221 0.0807739868760109 -0.08785794675350189 0.07605557888746262 7.84844160079956e-05 -0.028270218521356583 0.06666906923055649 -0.05781938508152962 0.04758907109498978 0.08377199620008469 -0.06091317534446716 0.0022716522216796875 0.05195453017950058 -0.08746752142906189 0.06432908028364182 -0.06839659065008163 -0.00813613086938858 0.0427095964550972 -0.08533790707588196 0.04837348312139511 -0.04979598522186279 -0.06955316662788391 0.005486026406288147 -0.06671474874019623 -0.05078311637043953 -0.04338407889008522 -0.021320603787899017 0.012755371630191803 -0.08300136774778366 0.040112562477588654 0.014130912721157074 -0.05552399531006813 0.04114247113466263 0.05829993635416031 0.030802689492702484 -0.08058232814073563 -0.04274047538638115 0.08661807328462601 -0.02256482094526291 -0.004764921963214874 -0.058191508054733276 0.05772940069437027 0.0651666596531868 0.06790364533662796 0.015048004686832428 0.05253731459379196 0.03762415796518326 0.02306455373764038 0.06684956699609756 -0.05249474197626114 0.08150740712881088 0.07539477199316025 0.07221248000860214 0.08208421617746353 0.011777997016906738 -0.05013224110007286 -0.06640276312828064 0.03818318992853165 -0.0030391886830329895 0.04041752964258194 -0.06181609630584717 0.05087587982416153 0.028771117329597473 0.03559425473213196 -0.04265610873699188 -0.03188159316778183 -0.0815148875117302 0.08066771179437637 0.08089413493871689 -0.06384871900081635 0.0608229860663414 -0.010234162211418152 -0.03985871747136116 0.009899996221065521 0.0351959690451622 0.030772484838962555 -0.018729135394096375 -0.029270533472299576 0.01257403939962387 0.014647156000137329 0.08036807924509048 -0.03925846144556999 0.07597977668046951 0.06675650924444199 -0.07871885597705841 -0.07992063462734222 -0.031387630850076675 -0.040451426059007645 -0.06898240000009537 -0.054918669164180756 0.0013332292437553406 -0.05757961422204971 -0.020860865712165833 0.016341663897037506 -0.03882436826825142 0.02378184348344803 0.06954298168420792 -0.029690422117710114 -0.003055386245250702 0.030280180275440216
0.05903320759534836 -0.013663269579410553 -0.06403668969869614 0.021841205656528473 0.07383733242750168 0.03249416500329971 -0.06663772463798523 0.08753987401723862 0.01843792200088501 -0.02626951038837433 0.01366664469242096 -0.012954473495483398 0.06396997720003128 -0.07060609757900238 0.022748373448848724 -0.04304013028740883 -0.033718109130859375 -0.08087904006242752 0.07544972747564316 -0.04748201742768288 0.07713917642831802 0.005099557340145111 -0.0447637140750885 0.02483079582452774 -0.05888364464044571 -0.05941753834486008 0.08149958401918411 -0.06308788061141968 -0.03753124177455902 -0.08349287509918213 -0.005982480943202972 0.07907319813966751 0.0008446350693702698 -0.03969784080982208 0.0627250000834465 0.06016378849744797 0.04721006006002426 0.07299258559942245 0.04099570959806442 -0.036974839866161346 -0.07446899265050888 -0.0026682764291763306 0.08489521592855453 0.08499101549386978 0.026590362191200256 0.06428516656160355 -0.04318883270025253 -0.049313634634017944 0.06831016391515732 0.03500214219093323 -0.0443374402821064 0.062455229461193085 0.026921994984149933 -0.01368413120508194 0.015402637422084808 0.026894643902778625 -0.06860034167766571 0.026595450937747955 -0.022958986461162567 -0.08467140793800354 -0.03857473284006119 0.01242915540933609 0.01750928908586502 -0.07520784437656403 -0.039203595370054245 -0.06312192231416702 0.00410124659538269 0.013653069734573364 -0.0004501268267631531 0.03225480020046234 0.06760943681001663 0.06582137197256088 -0.0023879781365394592 -0.07197162508964539 0.08679600805044174 -0.07166116684675217 -0.010455749928951263 0.04967331141233444 0.019299082458019257 -0.0798768401145935 -0.05042927339673042 0.008268505334854126 0.02989736944437027 0.06705794483423233 -0.08799508213996887 0.07736910134553909 0.06099904328584671 -0.04118293896317482 -0.06530991196632385 -0.052933353930711746 -0.0851152241230011 -0.053056687116622925 -0.05826859921216965 -0.0029671266674995422 -0.04946430027484894 0.014856740832328796 -0.0135345458984375 -0.05950234830379486 -0.011174939572811127 0.02636662870645523 -0.0796404629945755 -0.04980360344052315 0.017860442399978638 0.0821569636464119 0.03416354954242706 0.009125523269176483 0.07214761525392532 -0.06816717237234116 0.056433744728565216 -0.023415200412273407 -0.05838269740343094 0.028515711426734924 -0.024897582828998566 -0.05406628176569939 0.06623291224241257 0.033342406153678894 0.07950808852910995 -0.05734974145889282 0.04185011237859726 0.01204981654882431 0.03607475012540817 -0.016080066561698914 0.061160631477832794 -0.05382407456636429 0.030406951904296875 -0.004807561635971069 -0.03835781291127205 -0.025622732937335968
-0.07804976403713226 -0.08166355639696121 0.022766463458538055 -0.07745267450809479 0.028668180108070374 -0.021920986473560333 0.07999897748231888 -0.00023417919874191284 0.057405032217502594 0.08511119335889816 -0.05557283014059067 -0.06482642889022827 -0.03116195648908615 -0.005447514355182648 -0.012163378298282623 -0.018327422440052032 -0.061523184180259705 0.011162973940372467 -0.012334063649177551 0.0744275227189064 0.04431673139333725 0.07748910039663315 -0.0055935680866241455 -0.029783092439174652 -0.022755950689315796 -0.048777949064970016 0.014327391982078552 0.055880509316921234 -0.015647441148757935 -0.008648522198200226 0.037534646689891815 0.07249072939157486 0.02257157862186432 -0.06733659654855728 0.03606892377138138 -0.06440047919750214 0.039602749049663544 -0.05375205725431442 0.03700650483369827 0.03237900882959366 -0.07599379867315292 0.002502627670764923 -0.009038224816322327 -0.06888764351606369 0.06911443918943405 -0.010637916624546051 -0.001593276858329773 0.05651973932981491 -0.06251711398363113 0.017211131751537323 -0.06496334820985794 0.019030608236789703 0.08661829680204391 0.05340728908777237 -0.005063772201538086 -0.0829869955778122 0.05007050186395645 0.008615724742412567 0.053749002516269684 -0.019132696092128754 0.0013447403907775879 -0.037733789533376694 -0.06733834743499756 -0.045533180236816406 0.03306669741868973 -0.04934661462903023 -0.01091039925813675 0.06281187385320663 -0.08510790765285492 0.0373186394572258 -0.058140870183706284 0.06287892907857895 -0.05983245372772217 -0.020390041172504425 -0.08246482908725739 0.03627637028694153 0.08609452098608017 0.0784568265080452 0.027704864740371704 -0.029208838939666748 -0.023958176374435425 -0.07415223866701126 0.08313333243131638 0.01947871595621109 0.01801767200231552 0.040045253932476044 -0.017832837998867035 0.027970239520072937 0.08508547395467758 -0.06518643349409103 -0.05136718600988388 0.08689575642347336 -0.06286107748746872 -0.007408834993839264 -0.05623018369078636 0.05595598369836807 -0.08117347210645676 -0.08834382146596909 0.07731085270643234 0.011036597192287445 -0.06151728704571724 -0.017186380922794342 0.03523033857345581 0.00036282092332839966 0.08582551032304764 -0.006558172404766083 -0.02168721705675125 0.021957263350486755 -0.043719179928302765 0.0030396059155464172 -0.03289243206381798 -0.0812402218580246 -0.015933088958263397 -0.03193654119968414 -0.05706198513507843 -0.07134027034044266 0.052122898399829865 0.026870153844356537 -0.06791843473911285 -0.0398319736123085 0.016448937356472015 -0.006490007042884827 -0.04847990721464157 -0.003261364996433258 -0.04982883855700493 0.04477658122777939 0.017549924552440643 0.02843119204044342
-0.059100955724716187 -0.08485966175794601 -0.08805136382579803 -0.08702004700899124 -0.021259397268295288 0.05201990157365799 -0.08151523023843765 -0.08475072681903839 -0.05742960050702095 -0.06430836766958237 0.014388702809810638 0.04018215090036392 0.02489938586950302 -0.07347429543733597 0.08237006515264511 0.04544243961572647 0.0748244896531105 -0.08622521907091141 -0.0074018388986587524 0.07995402067899704 0.041483767330646515 -0.0826149582862854 0.07708653062582016 -0.0618121474981308 -0.07344071567058563 0.0727374330163002 -0.07879959046840668 -0.0251566544175148 -0.08119097352027893 -0.06541188806295395 0.007033072412014008 -0.045987848192453384 0.04140105098485947 -0.002407565712928772 0.00895032286643982 -0.08059082925319672 0.06726814061403275 0.023021407425403595 -0.007130049169063568 0.08699222654104233 -0.07687902450561523 0.08240952342748642 0.030724726617336273 -0.017485789954662323 0.058430708944797516 0.01451064646244049 -0.04366198554635048 0.010678902268409729 0.057954542338848114 -0.00012721866369247437 -0.05822710320353508 0.03354232758283615 -0.03122372180223465 0.0018303841352462769 -0.051828451454639435 0.08628501743078232 0.07597490400075912 -0.010799087584018707 0.04852164536714554 0.06836675852537155 0.054858557879924774 0.039274223148822784 0.015656203031539917 0.003243677318096161 -0.05971384420990944 0.06245345622301102 0.05318398028612137 -0.00967254489660263 0.0326075479388237 0.03955975919961929 -0.06307540833950043 -0.07864093035459518 0.07899842411279678 0.05634953826665878 -0.036336883902549744 -0.08432187139987946 0.012759461998939514 -0.08066438883543015 0.01637767255306244 0.040808312594890594 -0.05302073433995247 0.019167177379131317 0.005740903317928314 0.026434309780597687 -0.07901618629693985 0.04137594252824783 -0.004503294825553894 -0.02209819108247757 -0.011174753308296204 0.07702649384737015 -0.03260311484336853 0.08581747859716415 0.021453559398651123 0.006951965391635895 -0.001751832664012909 0.08038658648729324 0.011386707425117493 0.0316150039434433 0.03383710980415344 -0.022136032581329346 0.007627084851264954 0.0574595108628273 0.040482111275196075 0.03535177558660507 -0.051061276346445084 0.07951351255178452 -0.00847836583852768 -0.029962867498397827 -0.06948065012693405 -0.07799114286899567 -0.04553823545575142 0.04330954700708389 -0.0630922019481659 -0.027846813201904297 -0.07710850238800049 0.05314967781305313 0.017604030668735504 -0.04354265704751015 0.0724167600274086 0.04017343372106552 -0.04767804220318794 0.07497052103281021 0.07073221355676651 0.013994134962558746 -0.053616881370544434 -0.04453101009130478 0.06014188379049301 -0.06766889989376068
-0.047253042459487915 0.04971914738416672 0.05443403869867325 0.05144905298948288 -0.057166676968336105 -0.06986968219280243 0.06393086165189743 -0.007627211511135101 -0.08399324864149094 0.015050366520881653 -0.03921567276120186 0.059479691088199615 0.020500868558883667 -0.08769088238477707 -0.050810594111680984 -0.0025824308395385742 -0.009406819939613342 -0.027217675000429153 -0.020998626947402954 -0.05748482048511505 0.0585382804274559 0.008854523301124573 0.03474852442741394 0.0388551726937294 0.06296800822019577 0.06278529018163681 -0.07348070293664932 0.03191829472780228 0.02174294739961624 0.022663667798042297 -0.011672109365463257 -0.04616347327828407 -0.05730085074901581 0.04048418253660202 -0.025080017745494843 0.08192635327577591 0.04613322764635086 0.013691037893295288 0.04452347010374069 -0.047212328761816025 -0.06263158470392227 0.05525461584329605 0.06340829282999039 -0.03461745008826256 0.023474790155887604 -0.07591037452220917 0.028190627694129944 0.08008163422346115 0.07067923992872238 -0.07732781022787094 -0.07568886131048203 0.019505679607391357 0.058725662529468536 -0.05111108347773552 -0.015147842466831207 -0.04881736636161804 -0.009449966251850128 -0.06838049739599228 0.025587908923625946 -0.034135639667510986 -0.06428582966327667 0.03768499940633774 0.05711432546377182 -0.03202059492468834 0.05081910640001297 0.03850550204515457 -0.07162265479564667 0.01670420914888382 -0.05730919539928436 0.020268037915229797 -0.02135932445526123 -0.0011510103940963745 -0.042496297508478165 0.07028006762266159 -0.053180187940597534 0.046255238354206085 -0.04556309059262276 0.017439156770706177 -0.01390422135591507 0.04421006888151169 -0.014437004923820496 0.010159887373447418 0.07240321487188339 0.02113770693540573 -0.06475605815649033 -0.04533125460147858 0.016436904668807983 -0.06895800679922104 -0.07777608931064606 0.014111556112766266 0.045201174914836884 -0.05713014677166939 0.04927521198987961 0.04367376118898392 0.0773099884390831 0.07930614799261093 -0.08037076145410538 -0.07602278888225555 0.024985335767269135 0.012866653501987457 0.05836590379476547 -0.08612789213657379 -0.045069385319948196 0.0882493332028389 0.05168188363313675 0.023659028112888336 -0.009531594812870026 -0.020362399518489838 -0.012646414339542389 0.0820005014538765 -0.08192063122987747 -0.0013352259993553162 -0.06734102219343185 0.0788252130150795 0.02656940370798111 -0.027066823095083237 0.045788563787937164 0.051185064017772675 -0.0036216601729393005 -0.03849955275654793 -0.030538257211446762 -0.08006364852190018 -0.021096467971801758 -0.06253885477781296 -0.08571621775627136 0.07325217872858047 0.0458231195807457 0.029714584350585938
0.016256004571914673 0.03213459998369217 -0.08799692988395691 0.04653621464967728 0.0287565216422081 -0.06682021915912628 0.06960394233465195 -0.04944375157356262 0.0716203972697258 0.010821901261806488 -0.08308291435241699 -0.01880405843257904 0.01989806443452835 -0.017894521355628967 0.0023513585329055786 -0.0668158307671547 0.06234114617109299 -0.08787643164396286 -0.06547706574201584 0.016013644635677338 0.0158059224486351 0.06289663165807724 -0.04632008075714111 -0.060269467532634735 0.010946139693260193 -0.0585501566529274 -0.002173416316509247 -0.06362336874008179 0.08817388862371445 -0.07857265323400497 0.048588089644908905 -0.042617619037628174 -0.029098782688379288 -0.061696115881204605 -0.009471289813518524 0.02152736485004425 0.038045234978199005 0.06533000618219376 -0.06830962002277374 0.06009296327829361 0.0003323480486869812 0.08572135120630264 0.056879736483097076 0.012709975242614746 -0.014880597591400146 0.08467315882444382 0.05351672321557999 -0.0817326009273529 0.06226814538240433 0.05313587933778763 -0.051543571054935455 -0.016624510288238525 0.0351313054561615 0.04216013103723526 0.06290785223245621 -0.07520267367362976 0.00442861020565033 0.011679522693157196 -0.04069345444440842 -0.0002479627728462219 -0.02152198553085327 -0.07163646072149277 0.06048790365457535 -0.08646634221076965 0.04144563525915146 0.05501652508974075 0.08640582114458084 -0.07829216122627258 -0.010321855545043945 -0.07069246470928192 0.04601982980966568 -0.07629168033599854 -0.029047608375549316 -0.026870764791965485 -0.05698900669813156 0.013896562159061432 0.0452766939997673 0.08576313406229019 0.03980167955160141 -0.013036094605922699 0.0383748784661293 0.05893031507730484 0.07631152123212814 0.08326100558042526 0.06056872755289078 0.00504341721534729 -0.04951154440641403 0.021335460245609283 0.04090554267168045 -0.011678434908390045 -0.07579661905765533 -0.056888457387685776 0.011029943823814392 0.07855453342199326 0.006772622466087341 0.007207594811916351 0.0021973252296447754 0.07316914945840836 0.07007839530706406 0.043772660195827484 0.032319940626621246 -0.04472124204039574 0.0772663876414299 -0.04929542914032936 0.03771053999662399 -0.028986632823944092 -0.022634565830230713 -0.026112407445907593 0.03608018904924393 0.042750366032123566 -0.08139651268720627 -0.07923544198274612 0.011306904256343842 -0.06589449942111969 0.018630631268024445 0.02523590624332428 0.06106340140104294 0.052394889295101166 -0.01609102636575699 0.04180242866277695 0.03822699934244156 0.02838047593832016 -0.055610962212085724 0.046960003674030304 -0.02784869819879532 0.030331730842590332 -0.005515158176422119 -0.010853499174118042
0.0498524084687233 -0.01755823940038681 -0.0647890493273735 -0.028769154101610184 -0.03840639814734459 0.05862800031900406 0.049665071070194244 0.012994609773159027 0.024895109236240387 0.01851365715265274 0.024239398539066315 0.03281625360250473 -0.04667162895202637 -0.00037154555320739746 -0.04179820790886879 -0.00870765745639801 0.04770051687955856 0.035794518887996674 -0.08473625779151917 0.05949147790670395 -0.03150366246700287 0.05766553431749344 0.07127950340509415 -0.04535333812236786 -0.03714881092309952 0.08130993694067001 0.02587779611349106 -0.04638369008898735 -0.07783126831054688 -0.08496333658695221 -0.04252888634800911 -0.07532161474227905 0.03529512882232666 0.05786158889532089 -0.03614285960793495 -0.030957259237766266 0.005866333842277527 -0.08046979457139969 -0.048461709171533585 0.014565445482730865 -0.08170114457607269 0.03278087079524994 -0.002057790756225586 0.04250400513410568 0.015860848128795624 0.004170633852481842 0.07766827195882797 0.03694305568933487 -0.00795116275548935 0.06279035657644272 0.05425509065389633 -0.05810363590717316 -0.002325884997844696 0.08094844967126846 -0.05333318933844566 0.015357606112957 0.08365035802125931 -0.046171050518751144 -0.05568021163344383 -0.06860154867172241 -0.038269273936748505 0.08352818340063095 -0.050324760377407074 -0.04752163589000702 0.027293741703033447 0.0881403312087059 0.07184921950101852 0.06502767652273178 -0.013979442417621613 -0.057187244296073914 0.011572197079658508 0.053719617426395416 0.009255751967430115 -0.07241888344287872 0.05804578214883804 -0.0751386433839798 -0.01466386765241623 -0.08745193481445312 0.062351398169994354 -0.011663772165775299 0.06579355150461197 0.08017823845148087 -0.003875814378261566 0.06261301785707474 0.021049946546554565 -0.08047185838222504 0.06810129433870316 -0.037692051380872726 0.07994461804628372 -0.02620749920606613 0.04341933876276016 0.03501371294260025 -0.04632892087101936 -0.06233090162277222 0.007091119885444641 0.021751858294010162 0.0013118386268615723 -0.06653362512588501 0.009974665939807892 -0.005119189620018005 -0.08689087629318237 -0.0072627440094947815 0.06175936013460159 -0.0018941611051559448 -0.009951889514923096 -0.07498089969158173 0.0862567201256752 0.032945916056632996 0.04647883027791977 -0.0707068145275116 -0.029432259500026703 0.04599691182374954 -0.07412561029195786 0.06849148124456406 -0.038306016474962234 -0.08554606884717941 0.010183721780776978 -0.0327388271689415 -0.04628397151827812 -0.00012365728616714478 0.07718401402235031 0.04139726608991623 0.07793397456407547 -0.04229045286774635 -0.0017405897378921509 0.08176250010728836 0.03617846220731735 -0.03956475108861923
-0.007987573742866516 -0.08566109836101532 -0.04498939961194992 0.08656030148267746 0.08143354207277298 -0.07711656391620636 0.04461417347192764 -0.08799365907907486 -0.00879155844449997 -0.07683941721916199 0.08713462203741074 -0.011903196573257446 -0.011612571775913239 -0.07878969609737396 0.036246418952941895 -0.0776701271533966 -0.002734169363975525 0.057731546461582184 -0.04402259364724159 -0.029625333845615387 -0.021209262311458588 -0.00994112342596054 -0.04788808152079582 0.021101802587509155 0.004774302244186401 -0.011404156684875488 -0.04425938427448273 -0.023656897246837616 -0.00115232914686203 0.0343848317861557 -0.052962951362133026 -0.06311273574829102 0.015207603573799133 -0.04932839795947075 0.032531678676605225 -0.009552717208862305 -0.07302416861057281 0.011254370212554932 -0.0031066015362739563 0.05926349014043808 -0.03496169671416283 0.07002811878919601 0.059557460248470306 -0.05483030900359154 0.07869864255189896 -0.00041669607162475586 -0.017772823572158813 0.07411087304353714 -0.08096076548099518 0.05653504282236099 0.06396739929914474 0.06964049488306046 0.01370362937450409 0.07687220722436905 0.061248548328876495 0.04315740615129471 -0.04546142369508743 -0.06919074058532715 0.021361030638217926 0.06695818156003952 -0.08822691440582275 -0.07655160129070282 -0.0010492652654647827 0.017713069915771484 -0.040753576904535294 -0.029876582324504852 0.03445618599653244 -0.030717287212610245 0.07484392076730728 -0.042496394366025925 0.04530807584524155 0.013486906886100769 -0.014817483723163605 -0.021672844886779785 -0.07646093517541885 0.07252689450979233 0.011788368225097656 -0.007250472903251648 -0.08737756311893463 0.070785291492939 -0.03893120214343071 0.038004063069820404 -0.022928394377231598 -0.049219731241464615 -0.053357046097517014 0.06679511815309525 -0.08496805280447006 0.02110634744167328 -0.009165018796920776 0.013084299862384796 0.04804538935422897 0.028264395892620087 -0.0856277197599411 -0.02940433844923973 0.056242041289806366 0.044223301112651825 0.08366198092699051 0.0164196640253067 0.030904531478881836 -0.08234836906194687 -0.04267831891775131 -0.04429654777050018 -0.007278226315975189 0.08748815208673477 0.030866414308547974 0.031756699085235596 -0.0132540762424469 0.06591857224702835 0.029710642993450165 0.0452977791428566 0.061208270490169525 -0.015082083642482758 -0.047622766345739365 -0.051187146455049515 -0.018479593098163605 -0.04788031429052353 0.04771152883768082 -0.05455583706498146 -0.023959629237651825 0.08594069629907608 0.0774429515004158 -0.030707571655511856 0.08828815072774887 -0.0629856288433075 -0.00505702942609787 0.04391912370920181 0.06552387028932571 -0.053376223891973495
-0.014017432928085327 0.03238964080810547 0.05413491278886795 -0.006005249917507172 0.0620308592915535 0.008169926702976227 -0.04271753877401352 -0.08566919714212418 -0.007415398955345154 0.0694141611456871 0.08663863688707352 -0.01676170527935028 0.0788213238120079 -0.05634503439068794 0.0646454468369484 -0.0071668922901153564 0.036469414830207825 0.006808750331401825 0.05878675729036331 0.012830428779125214 -0.06943697482347488 -0.0767073780298233 -0.06313157081604004 0.040018610656261444 -0.08376552164554596 -0.04630830138921738 0.0023158863186836243 0.0012337416410446167 0.04134490340948105 -0.06233609467744827 0.04865599423646927 0.005723878741264343 0.07144252210855484 0.035221874713897705 0.05095789581537247 -0.05078379064798355 0.05015266686677933 -0.06290905922651291 0.06648210436105728 -0.08131412416696548 -0.03736875578761101 0.07620558887720108 0.06896301358938217 0.02102287858724594 0.08445515483617783 -0.05123583599925041 0.060506366193294525 0.046183861792087555 -0.058967456221580505 0.0798715129494667 0.038515426218509674 0.05090949684381485 -0.00036882609128952026 0.08337748795747757 0.06472223252058029 0.07403174787759781 0.07995613664388657 -0.0008881837129592896 0.036679111421108246 -0.05401427298784256 0.018507935106754303 0.07312820106744766 -0.08221670985221863 -0.05390148609876633 0.0332721471786499 0.027644462883472443 -0.08314864337444305 -0.030231092125177383 -0.06371544301509857 -0.005869001150131226 -0.022730931639671326 0.01981329917907715 -0.039060477167367935 0.0676179900765419 0.06326346844434738 -0.01963934302330017 -0.07630131393671036 0.009860105812549591 -0.057694628834724426 0.07798013836145401 -0.02330607920885086 0.08464256674051285 -0.05102553591132164 0.04476689547300339 0.03249628096818924 -0.06321410834789276 0.0862167552113533 0.020656920969486237 -0.03470020741224289 -0.038268156349658966 0.046416111290454865 -0.022759675979614258 0.08547178655862808 0.021524034440517426 0.07886812835931778 -0.054261233657598495 0.000516846776008606 -0.08099647611379623 -0.07710341364145279 -0.029561154544353485 0.02788095921278 -0.05124823749065399 0.011030949652194977 -0.010386385023593903 0.01999284327030182 0.08254296332597733 0.009792007505893707 -0.05823687091469765 0.06739450246095657 0.01847773790359497 0.028724506497383118 -0.02856089547276497 -0.023579813539981842 0.03290286660194397 -0.008335225284099579 0.012737691402435303 0.005274511873722076 0.005840227007865906 0.025941133499145508 -0.0758153423666954 0.07134703546762466 -0.010416433215141296 -0.08771912753582001 0.008076176047325134 0.04281409829854965 -0.05886197090148926 -0.013623617589473724 0.009650014340877533
0.04486290365457535 -0.0030819550156593323 -0.076735720038414 -0.01316351443529129 0.07431753724813461 0.08287984877824783 0.03421635180711746 -0.032496970146894455 0.054669491946697235 -0.0062392279505729675 -0.06792179495096207 -0.058524396270513535 0.030106209218502045 -0.08108708262443542 -0.00862109661102295 0.045682333409786224 0.012847170233726501 -0.07900136709213257 -0.0704081729054451 0.07799413055181503 0.020618915557861328 -0.07748549431562424 0.050234757363796234 0.08012641221284866 0.037215910851955414 -0.04364583268761635 -0.06455878913402557 0.06842077523469925 -0.01594334840774536 -0.03923282399773598 0.03893402963876724 -0.0607030913233757 -0.008310697972774506 0.06678429991006851 -0.036403559148311615 -0.054846324026584625 0.04280503839254379 -0.04548698663711548 0.07003267854452133 0.04391827434301376 -0.03461579605937004 -0.04568849131464958 0.02444256842136383 -0.016539931297302246 0.048276253044605255 -0.021803468465805054 0.06922689825296402 -0.06588103622198105 -0.026483412832021713 -0.0153440460562706 -0.04747448489069939 -0.018057160079479218 -0.06194338947534561 0.02231290191411972 -0.06664250046014786 0.08594914525747299 0.074619360268116 0.0529286190867424 0.060999564826488495 -0.05437524989247322 0.0011554732918739319 -0.005474254488945007 0.07206157594919205 0.0023406147956848145 0.04519813507795334 0.024567194283008575 -0.0009044408798217773 0.0490194633603096 0.06717010587453842 -0.007826067507266998 0.07539612799882889 0.07209163159132004 0.034018076956272125 -0.009449385106563568 -0.028324000537395477 0.0038276538252830505 -0.010404981672763824 -0.06158997118473053 -0.029383189976215363 -0.05806887149810791 -0.03472922369837761 -0.07219091057777405 0.0783105120062828 -0.08304956555366516 0.07428259402513504 0.0046409666538238525 -0.03267015889286995 0.04356617480516434 -0.08091022819280624 0.04758868366479874 0.0724935308098793 0.032505303621292114 -0.054180435836315155 0.05206777900457382 -0.05109614133834839 0.08770347386598587 0.013000555336475372 0.05930016189813614 -0.03238220140337944 -0.041399553418159485 -0.07436459511518478 -0.004089921712875366 0.05391126126050949 -0.007273577153682709 -0.07837795466184616 -0.043009087443351746 -0.006835140287876129 -0.0850839838385582 0.0010441243648529053 -0.058563120663166046 -0.04345838353037834 -0.07068714499473572 0.06777185946702957 -0.010680019855499268 0.06608612090349197 -0.00042125582695007324 -0.08715417981147766 0.05883953720331192 0.005175210535526276 -0.008659079670906067 -0.033905547112226486 0.07026136666536331 -0.057749852538108826 -0.009929463267326355 0.08583972603082657 -0.07882210612297058 0.013694509863853455 -0.006487734615802765
0.016847357153892517 0.06685701757669449 0.02861478179693222 0.04320391267538071 0.038231320679187775 -0.02344776690006256 0.0097726508975029 -0.006185807287693024 -0.07436960935592651 0.02839750051498413 -0.08819519728422165 -0.056407928466796875 -0.010644756257534027 -0.038249898701906204 -0.07666076719760895 0.04094729572534561 0.04020942002534866 -0.06768173724412918 0.025056608021259308 0.022036440670490265 -0.05649895593523979 0.08662410825490952 -0.038683220744132996 -0.04014495760202408 -0.03831343352794647 -0.058840326964855194 -0.0447423979640007 -0.043198589235544205 -0.08679313212633133 -0.0732162818312645 -0.03526005148887634 0.008562065660953522 -0.016643546521663666 0.03787871450185776 0.06150849908590317 0.04659517854452133 -0.08600836992263794 0.002881288528442383 0.03657974302768707 -0.05772280693054199 0.027857139706611633 0.06617970019578934 -0.05537129566073418 -0.0361342616379261 0.08497012406587601 0.007450215518474579 0.010697036981582642 -0.03953247889876366 -0.06973469257354736 0.06718716770410538 -0.00464533269405365 0.02712707221508026 0.06302521377801895 0.028001204133033752 0.053385160863399506 -0.04611537232995033 0.08058195561170578 0.052398331463336945 -0.08415881544351578 0.056978337466716766 -0.057749971747398376 0.08042972534894943 6.670504808425903e-05 0.04195363074541092 0.08047757297754288 0.030987553298473358 -0.018741726875305176 0.05972161144018173 0.0856381431221962 -0.03487061709165573 0.05550365895032883 0.031226523220539093 -0.055543117225170135 0.07861105352640152 0.03616367280483246 -0.029446065425872803 0.0349811390042305 0.013923831284046173 -2.3953616619110107e-05 0.016131483018398285 -0.020855717360973358 -0.06110701709985733 0.04911453276872635 -0.012271285057067871 0.04067143052816391 -0.04385175183415413 -0.06307397037744522 0.011669449508190155 0.05498339980840683 0.018237479031085968 0.048312537372112274 -0.053409021347761154 -0.08826085925102234 -0.008002467453479767 -0.00548967719078064 -0.029681645333766937 0.06783022731542587 -0.0008160769939422607 0.015611253678798676 0.013690866529941559 -0.01843993365764618 -0.04394789785146713 -0.018296271562576294 -0.00390847772359848 -0.015010103583335876 0.00022360682487487793 0.06524036079645157 -0.01675083488225937 -0.0827406793832779 0.04880652576684952 0.06991755217313766 -0.012375660240650177 -0.07267814129590988 0.06582694500684738 0.027294501662254333 0.04628501087427139 -0.013982616364955902 0.029483407735824585 -0.0002606585621833801 -0.047479402273893356 -0.00927211344242096 0.05772341042757034 0.07355419546365738 0.028002895414829254 0.08455813676118851 -0.05332786962389946 -0.007465556263923645 -0.012890972197055817
0.019889064133167267 -0.01901090145111084 0.0026265084743499756 0.05411434918642044 -0.06719928979873657 -0.0807848572731018 0.07027501612901688 -0.01426348090171814 -0.05187620595097542 0.0034631937742233276 0.07380487769842148 -0.07832024246454239 -0.028250105679035187 -0.035410813987255096 -0.05954250693321228 -0.06034717336297035 -0.018800020217895508 -0.07628567516803741 -0.03444172069430351 -0.017899252474308014 -0.046688105911016464 0.06558332592248917 0.03162757307291031 -0.03488205745816231 -0.03079719841480255 0.043008409440517426 0.06209363788366318 0.05322851985692978 0.07206738740205765 0.0870836153626442 0.06963589042425156 0.034171491861343384 -0.06124670431017876 0.05639389902353287 0.06285225600004196 -0.03745393455028534 -0.07764148712158203 0.025407366454601288 -0.06888905167579651 -0.049747053533792496 -0.0026855692267417908 0.0744466558098793 0.06250811368227005 0.034751877188682556 0.05783151835203171 0.06476134806871414 0.025406695902347565 0.0655522271990776 -0.04226774722337723 0.07572156935930252 0.06130213290452957 0.07142705470323563 0.08366771787405014 0.06469572335481644 -0.06538223475217819 0.04569772630929947 -0.026207026094198227 -0.04650430381298065 0.029128916561603546 0.03173056244850159 -0.051775895059108734 0.04246223717927933 0.03964409977197647 0.024833522737026215 0.04679890722036362 -0.020844116806983948 0.08655362576246262 0.007023520767688751 -0.0642646923661232 0.004399232566356659 -0.05002160742878914 0.04525630921125412 0.0040724799036979675 -0.049189839512109756 0.020973853766918182 0.02516915649175644 0.002944439649581909 -0.02675536647439003 0.021404139697551727 0.013569936156272888 0.039418645203113556 0.04288619011640549 0.07435334473848343 -0.08124817162752151 -0.01601986587047577 -0.05722455680370331 0.037940047681331635 -0.014702335000038147 -0.08142320066690445 0.05994939059019089 0.02878206968307495 -0.07844218611717224 0.034562498331069946 0.051705844700336456 0.06254182010889053 0.027791164815425873 -0.04639940336346626 0.01616007834672928 -0.06370075792074203 -0.006143122911453247 0.08717504888772964 -0.020978786051273346 -0.019169576466083527 0.057922787964344025 -0.03293768689036369 -0.07583259046077728 0.04006945341825485 -0.08112036436796188 -0.045825760811567307 0.02816491574048996 0.024348199367523193 0.08449249714612961 -0.0035802051424980164 -0.015911653637886047 0.05460955947637558 -0.062288470566272736 -0.036295220255851746 0.08632544428110123 -0.03033403307199478 0.07408686727285385 0.02626294642686844 -0.0835355892777443 0.0021623969078063965 0.05536273866891861 0.08370210975408554 -0.0037388280034065247 0.06313424557447433 0.034475117921829224
-0.0757487565279007 -0.03837168961763382 -0.027526136487722397 0.08448687940835953 -0.06796697527170181 0.019896522164344788 -0.028718747198581696 0.02274034172296524 -0.07178862392902374 -0.06349518895149231 -0.017231673002243042 -0.03003799542784691 0.03024914860725403 0.01943518966436386 -0.06867923587560654 -0.08068297803401947 -0.07438037544488907 0.030419468879699707 0.017099522054195404 0.011197522282600403 0.07822410017251968 -0.06422633677721024 -0.01814737170934677 -0.05187303200364113 0.07271427661180496 0.017121903598308563 0.03825639933347702 -0.011853337287902832 0.0291864275932312 -0.05442557483911514 0.0003811269998550415 -0.0431155189871788 0.07166201621294022 0.06145181506872177 -0.06337539106607437 0.027517899870872498 0.05950259417295456 -0.06553247570991516 -0.0408959835767746 0.0802646204829216 0.03564105182886124 -0.030513737350702286 -0.08405767381191254 -0.07296621799468994 -0.0036617890000343323 0.0043326616287231445 0.05063531547784805 0.06218380481004715 -0.08428996801376343 -0.07824796438217163 -0.06735671311616898 -0.014256149530410767 0.08218315988779068 0.0297490656375885 -0.057115331292152405 0.07294809073209763 -0.07920962572097778 -0.04192955046892166 -0.04664819315075874 0.08646947890520096 -0.075052410364151 -0.05843496322631836 -0.004478573799133301 -0.07882480323314667 0.02832428365945816 0.037487126886844635 -0.016658782958984375 0.008202344179153442 0.06450606137514114 0.08030634373426437 0.007471732795238495 0.04034452885389328 -0.0335855707526207 0.01975606381893158 -0.04245227575302124 0.06791681796312332 -0.04806819558143616 -0.010824978351593018 0.02698483318090439 0.050110481679439545 0.01650872826576233 -0.0711141973733902 0.03621610254049301 0.005252227187156677 -0.07914096862077713 0.06068549305200577 -0.08834673464298248 0.05666748434305191 0.05735022574663162 -0.07427678257226944 0.08509138971567154 -0.06203757971525192 -0.03911525756120682 0.0756155326962471 -0.03976646810770035 0.01257302612066269 -0.0008176714181900024 -0.078891322016716 0.06425375491380692 0.02335657924413681 -0.004451125860214233 -0.011093713343143463 -0.08696302771568298 -0.0805174708366394 -0.039879199117422104 0.013413943350315094 0.074478380382061 0.06886669248342514 -0.07489240914583206 0.010422863066196442 0.06361516565084457 -0.016961775720119476 0.0487024262547493 -0.02886592224240303 0.010800942778587341 0.06938125938177109 0.0328831821680069 0.022199638187885284 0.06324291974306107 -0.06351839005947113 -0.03159625828266144 -0.03403322026133537 0.08496793359518051 -0.048310793936252594 -0.08390349894762039 0.004303552210330963 0.08790997415781021 0.020041756331920624
0.045110978186130524 -0.046391479671001434 0.07925654202699661 0.07937423139810562 -0.03297276422381401 -0.07405067980289459 0.062135763466358185 0.08299585431814194 0.044908635318279266 0.05092688649892807 -0.08329624682664871 -0.0819510817527771 0.039567746222019196 0.055594153702259064 0.03580057621002197 0.08499117940664291 0.01022319495677948 -0.05090418457984924 0.0866948589682579 0.029952511191368103 0.06464426964521408 0.008841536939144135 -0.0735822468996048 0.06718382984399796 0.06490076333284378 0.0029162541031837463 0.03588498383760452 -0.05262367054820061 -0.016859248280525208 0.036406539380550385 -0.0681237131357193 -0.07750725001096725 0.005507633090019226 0.056115858256816864 -0.023718714714050293 0.033384256064891815 0.023760177195072174 -0.01040823757648468 -0.06864029169082642 -0.05117734894156456 -0.05377579480409622 0.07265280932188034 0.04023689776659012 0.08776118606328964 0.04212155193090439 -0.08321627229452133 -0.002656906843185425 -0.05961434543132782 0.06708800047636032 -0.04600898548960686 0.033905401825904846 0.013619966804981232 -0.02992033213376999 0.009426891803741455 0.07703844457864761 0.06601317971944809 0.03704320639371872 0.08542909473180771 0.019542843103408813 -0.03412680700421333 0.02334931492805481 -0.0457187294960022 -0.016830265522003174 0.012717559933662415 0.015060357749462128 0.0705256387591362 -0.07754778861999512 0.003876224160194397 0.027269527316093445 -0.028725236654281616 -0.06469382345676422 0.04417593032121658 0.005579106509685516 0.02293817698955536 -0.057697929441928864 -0.016169488430023193 -0.0013812854886054993 -0.08381346613168716 0.03582143038511276 -0.02720959484577179 -0.06566260755062103 0.04948965460062027 0.054636336863040924 -0.061837729066610336 0.05786073952913284 -0.08744371682405472 0.0629652664065361 0.0005233660340309143 -0.07261691987514496 -0.04660428687930107 0.01923324167728424 -0.012824095785617828 0.03050805628299713 -0.061948783695697784 0.045884184539318085 -0.07090923935174942 0.051456861197948456 0.0420675203204155 0.017565913498401642 0.07455409318208694 -0.04722340404987335 0.03637591004371643 0.06239790469408035 0.06741782277822495 -0.035356149077415466 -0.022432789206504822 -0.08753925561904907 -0.026869606226682663 -0.0637563019990921 -0.0725487768650055 -0.045161958783864975 0.027607493102550507 0.0003246888518333435 0.04527609795331955 -0.027443423867225647 -0.07288648188114166 -0.0531168095767498 0.039060451090335846 -0.018916934728622437 -0.02931099385023117 -0.036681126803159714 -0.06388361006975174 -0.01630176603794098 0.06186165660619736 0.08690624684095383 0.0051447078585624695 -0.05058346688747406 0.06857039779424667
0.03160666674375534 0.0289841890335083 0.030474580824375153 -0.04256144538521767 0.016675114631652832 -0.08402232080698013 0.024395540356636047 0.06580647081136703 -0.057031407952308655 -0.059934020042419434 -0.07582757622003555 -0.03960689902305603 0.02967625856399536 -0.035252708941698074 -0.03993261978030205 0.0033801570534706116 -0.03457459807395935 -0.026794731616973877 0.0508582666516304 -0.005828395485877991 0.06312676519155502 -0.0399177111685276 0.017165333032608032 -0.06764848530292511 -0.010837569832801819 -0.01970972865819931 -0.0715053379535675 0.026716962456703186 -0.051974546164274216 0.03585825115442276 0.06661402434110641 0.02747073769569397 0.009672574698925018 0.052268438041210175 0.04688438028097153 0.02201119065284729 0.0177440345287323 -0.048701684921979904 0.006313219666481018 -0.03315465897321701 0.01685544103384018 -0.053530268371105194 0.004040196537971497 -0.014511823654174805 0.03719339519739151 0.016763612627983093 -0.0370355099439621 0.000589422881603241 0.025359220802783966 -0.04742103070020676 -0.012813650071620941 -0.03125692531466484 -0.05819975957274437 0.03843965381383896 -0.03737778589129448 0.0667470321059227 -0.04582660645246506 -0.030212007462978363 0.03738953918218613 0.029708586633205414 -0.02319483458995819 0.030447296798229218 -0.02806905284523964 -0.031604181975126266 0.042779214680194855 0.047424398362636566 -0.05600445717573166 0.08700395375490189 0.04489348083734512 0.050529785454273224 0.056491561233997345 -0.0824863463640213 0.02202894538640976 -0.0013142302632331848 0.008597619831562042 0.06342736631631851 0.06046951562166214 -0.03190220147371292 0.029436707496643066 -0.07627241313457489 -0.04272087663412094 -0.04779193177819252 -0.04868442565202713 0.0337241068482399 -0.04545978084206581 0.010886676609516144 0.07818090170621872 0.060250960290431976 0.029633983969688416 -0.05977099388837814 0.03913881629705429 0.08263065665960312 0.03233002871274948 -0.07513757050037384 -0.05269448459148407 -0.08691786229610443 0.07310759276151657 -0.06879828125238419 0.053416408598423004 0.020817436277866364 -0.017219997942447662 0.009019307792186737 -0.07284916937351227 0.0772830918431282 0.045964546501636505 -0.056694790720939636 -0.029165808111429214 -0.011082366108894348 0.013366736471652985 -0.07284044474363327 -0.050632599741220474 0.03981702774763107 -0.0024258866906166077 0.08251849561929703 -0.056987933814525604 0.06908067315816879 0.06821618229150772 0.007136210799217224 -0.05003555864095688 -0.0740242600440979 -0.08343587815761566 0.05423315614461899 0.054669640958309174 0.04204719513654709 -0.014199323952198029 0.014852158725261688 0.046190448105335236 -0.04500021040439606
0.007618509232997894 0.07471851259469986 -0.07878775894641876 -0.0508979856967926 -0.08364968001842499 -0.041494425386190414 0.043313898146152496 0.014171287417411804 0.04089892655611038 0.044188790023326874 0.08538373559713364 0.03847280889749527 -0.014870524406433105 -0.02786407247185707 -0.058828793466091156 -0.010931171476840973 -0.06338810920715332 0.015704765915870667 -0.056162383407354355 0.026710383594036102 0.04685991257429123 0.0020239651203155518 -0.004376918077468872 -0.028056345880031586 -0.05233382433652878 0.02387789636850357 -0.04716884344816208 -0.030663728713989258 -0.015598535537719727 0.027311041951179504 0.06101810187101364 -0.04109705239534378 0.08671791106462479 -0.0513036735355854 0.0690217837691307 -0.06420309841632843 0.008030861616134644 0.08052853494882584 -0.04825056344270706 0.051593877375125885 -0.07899215817451477 0.028341107070446014 0.01269155740737915 0.03788302093744278 -0.005928628146648407 -0.06098160892724991 -0.06451725959777832 -0.023827582597732544 0.00231044739484787 -0.07097151130437851 -0.007540516555309296 0.03112877905368805 -0.08238700032234192 -0.07370740920305252 0.015957720577716827 0.08716081827878952 -0.08387482911348343 0.08478377014398575 0.03258863836526871 0.04606001824140549 0.04137449711561203 -0.06342624127864838 0.048014454543590546 0.08455539494752884 0.0122305229306221 0.0034972503781318665 0.002766326069831848 -0.04832731559872627 0.08602534979581833 -0.04722992703318596 -0.06289495527744293 -0.05894151329994202 -0.04366833716630936 -0.024443529546260834 0.051557861268520355 0.007841601967811584 0.05780022591352463 0.0209491029381752 0.029457584023475647 0.04096422344446182 0.08587449043989182 0.022102229297161102 0.049836449325084686 0.06619653850793839 -0.018680192530155182 0.07665153592824936 0.08460768312215805 -0.08330466598272324 -0.07855956256389618 0.027295313775539398 -0.00391194224357605 0.07444445043802261 0.08485109359025955 0.06323986500501633 -0.06833244860172272 -0.03689374029636383 -0.03367122262716293 0.026757851243019104 -0.06289312988519669 -0.08152857422828674 0.038196660578250885 0.03748955577611923 0.08465763181447983 0.07038182765245438 -0.01614478975534439 0.048610396683216095 -0.04780435562133789 0.020122811198234558 -0.039701879024505615 0.015309572219848633 0.08361824601888657 0.01979728788137436 -0.05348777398467064 -0.06885594874620438 -0.007882684469223022 0.07254267483949661 0.07540129870176315 -0.04860362783074379 -0.04283644258975983 0.007748953998088837 0.06792490929365158 -0.056422289460897446 -0.04990365728735924 -0.02112530916929245 -0.0746365338563919 -0.06445351988077164 -0.04792496934533119 0.040832750499248505
0.06483786553144455 0.01972462236881256 -0.05166183412075043 -0.07572521269321442 0.05872312933206558 0.01805921643972397 0.03684117645025253 0.02248324453830719 0.015937507152557373 0.07418451458215714 -0.025696195662021637 0.07774447649717331 0.021124348044395447 -0.06461325287818909 -0.0658075362443924 0.03422398120164871 0.037906013429164886 -0.03233112022280693 0.02049017697572708 0.06870198994874954 0.0362408384680748 -0.07109928876161575 -0.02859969064593315 -0.051684364676475525 0.07216838747262955 -0.03089553490281105 -0.01992882788181305 0.030277207493782043 -0.05239679291844368 0.0032250359654426575 0.03454410284757614 -0.053559739142656326 0.0832684114575386 -0.027233563363552094 -0.0028316155076026917 -0.017039313912391663 -0.0458419993519783 -0.08157676458358765 0.04045989364385605 -0.05952834337949753 -0.016371697187423706 0.04590112715959549 -0.08228473365306854 0.08504287153482437 -0.02027396857738495 0.009699277579784393 0.03047337383031845 -0.017583094537258148 -0.07936113327741623 0.018388353288173676 -0.08474075794219971 -0.0647573471069336 0.02880946546792984 -0.08742040395736694 0.008060276508331299 -0.018917061388492584 -0.0031406059861183167 0.033477336168289185 0.04524742811918259 0.02068488299846649 -0.024891093373298645 -0.028174713253974915 0.03905528038740158 -0.07607918232679367 0.004533581435680389 0.06018363684415817 -0.06356789171695709 0.05046514421701431 0.0344686284661293 0.03557739406824112 0.08516720682382584 0.003255970776081085 -0.005594298243522644 0.07832407206296921 -0.08384212106466293 -0.03972954675555229 0.03947199136018753 -0.04727204144001007 -0.04087617248296738 0.012022547423839569 -0.0034078434109687805 0.07160630077123642 -0.03784721717238426 0.005348868668079376 -0.06316445767879486 0.0732666626572609 -0.018915019929409027 0.03929578512907028 0.03954414278268814 0.04972884804010391 -0.02904723957180977 -0.02033018320798874 0.03351704031229019 -0.0828499048948288 0.0711832270026207 0.039141662418842316 0.04935670644044876 -0.027357541024684906 -0.01817595213651657 0.08138450235128403 0.0690438523888588 0.05352789908647537 -0.08747416734695435 0.010299384593963623 -0.043263643980026245 0.07779758423566818 -0.08626961708068848 0.05786002427339554 0.02602345496416092 0.08719382435083389 -0.006874069571495056 -0.041259877383708954 -0.013405345380306244 -0.02161707729101181 0.021683454513549805 0.07378653436899185 -0.056801937520504 0.08109203726053238 -0.00615527480840683 -0.022753030061721802 -0.08824622631072998 0.03659241646528244 -0.06448729336261749 0.08432333916425705 -0.04942280426621437 0.03428105264902115 0.005359865725040436 -0.03958563506603241
0.08527407795190811 0.06501514464616776 -0.00782082974910736 0.017083942890167236 0.07723899930715561 0.0472717210650444 -0.054894573986530304 -0.0811305046081543 -0.01487325131893158 -0.029332604259252548 -0.044652603566646576 -0.018063537776470184 -0.0597439780831337 -0.06621062010526657 0.05558570474386215 -0.02223021537065506 0.05442168563604355 -0.03865131363272667 -0.06456588208675385 0.07125193625688553 -0.07527150213718414 -0.05709982290863991 0.06756510585546494 -0.08792153745889664 -0.04341955482959747 0.0025462210178375244 -0.009979531168937683 -0.022775091230869293 -0.08052825182676315 -0.06613475829362869 0.0847790315747261 0.0670439675450325 0.020193755626678467 -0.017713025212287903 0.04977542906999588 -0.0022558122873306274 -0.057664401829242706 -0.04173288121819496 -0.034676868468523026 0.0600750669836998 -0.022619307041168213 0.022427275776863098 -0.04757121205329895 0.08812996000051498 0.038547299802303314 -0.004512138664722443 -0.001213662326335907 -0.018716931343078613 0.019590169191360474 0.014615997672080994 0.0785471573472023 0.05614469200372696 -0.018367230892181396 0.03943375498056412 -0.0009947717189788818 0.058159731328487396 -0.05727357417345047 -0.008937090635299683 0.08616282790899277 0.011238791048526764 0.07674811035394669 0.07683310657739639 0.01734049618244171 -0.018448032438755035 0.017627425491809845 0.021486707031726837 -0.07022997736930847 0.0650637224316597 0.07173266261816025 -0.04994037002325058 -0.04055267572402954 0.06465872377157211 -0.05096415802836418 -0.0707770437002182 -0.02470744401216507 0.04531451314687729 0.08270024508237839 0.02491486817598343 -0.0601598396897316 0.07424554973840714 0.013473600149154663 -0.023189693689346313 -0.04618877172470093 -0.022646315395832062 0.0773077979683876 -0.03892695531249046 -0.04045650735497475 -0.07516983151435852 -0.047368209809064865 -0.03751854598522186 -0.0254475399851799 0.08515485376119614 -0.002659022808074951 -0.015185676515102386 0.04828215390443802 0.06746567040681839 -0.0369315966963768 0.004049226641654968 0.06515184789896011 -0.039094477891922 0.07564849406480789 -0.006439872086048126 -0.04115084558725357 0.08673941344022751 0.03801331669092178 0.07548180967569351 -0.07131063938140869 -0.06324521452188492 0.062106452882289886 -0.061794232577085495 0.08329086750745773 -0.06617317348718643 0.02087564766407013 0.024515651166439056 0.0635543093085289 -0.026764292269945145 0.01838715374469757 0.023600652813911438 -0.07871396094560623 0.043934695422649384 0.0024501532316207886 -0.010588869452476501 -0.005657084286212921 -0.06156794726848602 0.04146517068147659 0.05635149031877518 -0.01603175699710846 0.007071018218994141
-0.03777717798948288 -0.07695351541042328 -0.06910854578018188 0.007851660251617432 -0.011352695524692535 -0.029284704476594925 0.05028601735830307 -0.08588475733995438 -0.06345194578170776 -0.06528060138225555 0.012184232473373413 -0.026583459228277206 0.03106527030467987 0.051632679998874664 0.02184879034757614 0.01937781274318695 -0.05122554302215576 0.05781584233045578 -0.01834852248430252 -0.07938089221715927 0.012626595795154572 -0.06729742884635925 0.04046493023633957 0.02844627946615219 -0.007253959774971008 -0.03402504324913025 -0.07965587079524994 0.03002335876226425 0.06570487469434738 0.07556917518377304 0.08775310963392258 0.08434043079614639 0.07644303888082504 0.026629239320755005 -0.012671753764152527 -0.06941545009613037 0.0018197223544120789 -0.003204748034477234 0.06758221238851547 0.07618329674005508 0.02042180299758911 0.04018346220254898 0.07766864448785782 0.04272808879613876 0.0881078764796257 0.05936231464147568 -0.05780624598264694 -0.0643351674079895 -0.0334431454539299 0.03840611129999161 0.036641158163547516 -0.08380482345819473 0.041571907699108124 -0.05459679663181305 0.015358522534370422 -0.07191190123558044 -0.06314519792795181 0.00898229330778122 -0.05821320414543152 -0.049271002411842346 -0.026617292314767838 -0.02786341682076454 0.06452029198408127 0.0840020403265953 -0.04890034347772598 0.03380347788333893 -0.06974983960390091 0.056635864078998566 0.007915280759334564 -0.044425275176763535 0.046563275158405304 -0.0587177649140358 0.040712155401706696 0.07877358049154282 0.05100933462381363 -0.07995180785655975 0.08024028688669205 -0.03749655559659004 0.01743295043706894 -0.034874893724918365 0.07232633978128433 0.0025490745902061462 0.005426816642284393 0.05788946896791458 0.06428240984678268 0.03359778970479965 -0.0018517747521400452 -0.016858242452144623 -0.05611341819167137 0.0733087882399559 -0.0049166008830070496 0.08784887939691544 -0.024399325251579285 0.03012915700674057 0.04202871769666672 -0.0713731199502945 -0.08765678107738495 -0.07044126838445663 0.06039593368768692 -0.07629363238811493 -0.07662152498960495 -0.0008283555507659912 -0.04107526317238808 0.0641370639204979 -0.039120618253946304 0.051126040518283844 0.06035574525594711 0.06028056889772415 -0.0651085376739502 0.004614286124706268 -0.08156748116016388 -0.022672057151794434 -0.06517000496387482 -0.015965312719345093 0.0539352223277092 -0.0404459573328495 -0.08643490076065063 0.03454609215259552 -0.0861760675907135 -0.07469203323125839 0.031236693263053894 -0.0025231242179870605 0.02927102893590927 0.038188107311725616 0.07760048657655716 -0.03409099578857422 -0.003934964537620544 0.029910802841186523
0.0670035108923912 0.08021386712789536 0.08697158843278885 0.015940524637699127 -0.05509835109114647 -0.07770270109176636 -0.04036130756139755 0.07060422748327255 0.0036772489547729492 0.062284983694553375 -0.007504984736442566 -0.08812608569860458 -0.030614618211984634 0.07245615869760513 -0.07455120980739594 0.03755628317594528 0.04336134344339371 0.008745282888412476 0.07148728519678116 -0.0782250240445137 -0.030889160931110382 -0.010896243155002594 0.050839535892009735 -0.04488862678408623 -0.01612815260887146 0.027916334569454193 0.0008169189095497131 -0.07617303729057312 0.06840010732412338 -0.026198353618383408 0.049014829099178314 0.04411496967077255 -0.02132241427898407 -0.026270393282175064 0.020215347409248352 -0.04654053971171379 0.0874490961432457 -0.0743829607963562 0.06999952346086502 0.009882442653179169 0.059873826801776886 0.07733844965696335 -0.07564982771873474 -0.034475795924663544 0.054381363093853 -0.07481706887483597 0.06025291234254837 0.05416751652956009 -0.023724183440208435 0.03014475107192993 -0.0046493783593177795 -0.003531545400619507 0.04500172287225723 0.004635870456695557 0.018873602151870728 -0.03748996928334236 -0.014316163957118988 -0.008798867464065552 0.05478177219629288 0.05405347794294357 -0.02374640852212906 0.04547407478094101 -0.049548834562301636 -0.03491438552737236 -0.013375513255596161 -0.01861976832151413 0.025949962437152863 0.07191955298185349 -0.013039253652095795 -0.06476496160030365 0.0702468529343605 0.03688261657953262 -0.035146381705999374 0.04137729853391647 0.08391571789979935 0.04564789682626724 -0.06699738651514053 0.07424765080213547 -0.023310452699661255 0.07951057702302933 -0.0172911137342453 -0.019037939608097076 0.02353404462337494 -0.0260455384850502 -0.08295230567455292 -0.014558635652065277 -0.07817220687866211 -0.03261592984199524 0.05354303866624832 -0.03822217509150505 0.04183446615934372 0.014451943337917328 0.049275822937488556 0.0761348083615303 -0.06079518422484398 0.08101298660039902 0.07915278524160385 0.004307158291339874 -0.0242307111620903 -0.032113201916217804 0.07237676531076431 0.03811856359243393 0.06109631806612015 0.0822446271777153 -0.08105975389480591 -0.07513872534036636 -0.04039043188095093 0.020384356379508972 -0.05995681881904602 -0.050362858921289444 -0.004650086164474487 0.012485042214393616 0.011198416352272034 -0.03580530732870102 0.07966431230306625 0.018948934972286224 -0.0697244256734848 -0.037975046783685684 0.0659477487206459 -0.08000702410936356 0.0015282034873962402 0.03928659111261368 -0.06140297278761864 0.086237333714962 0.04635699838399887 0.031933464109897614 -0.03427134081721306 0.0086078941822052
0.002084791660308838 -0.02537599205970764 0.07147344201803207 0.06853904575109482 0.006166607141494751 0.04958958178758621 0.017115525901317596 -0.057751137763261795 0.08582653850317001 0.01644568145275116 0.07751726359128952 0.054432205855846405 0.047570787370204926 -0.03930527716875076 -0.08136079460382462 -0.027505211532115936 0.07020572572946548 0.056305892765522 0.005663365125656128 0.03314625471830368 0.008067145943641663 -0.06100578233599663 -0.02849545329809189 0.07311222702264786 -0.056089963763952255 0.04660090059041977 -0.029274147003889084 0.03993929177522659 -0.005711227655410767 0.04147077351808548 -0.006844617426395416 0.04135601967573166 -0.043256256729364395 0.0194428488612175 -0.021001309156417847 0.04564126580953598 0.04322000592947006 0.05778831988573074 -0.010198242962360382 0.012729443609714508 0.08499033004045486 0.028399012982845306 -0.025033079087734222 -0.03565724566578865 0.07637601345777512 0.031325437128543854 0.028294920921325684 -0.08567648380994797 -0.010907910764217377 -0.053575754165649414 -0.0019425079226493835 -0.03874147683382034 0.0763569101691246 -0.03426390141248703 -0.07823555916547775 0.08463647216558456 -0.024274572730064392 -0.0405392199754715 -0.004352293908596039 -0.06107865273952484 -0.03432348743081093 -0.01616711914539337 0.05122589319944382 -0.029912419617176056 -0.012100718915462494 0.07071512192487717 0.04421263188123703 -0.08828479051589966 -0.012942276895046234 -0.053877707570791245 -0.08123575150966644 -0.013023532927036285 0.021484315395355225 -0.06385436654090881 -0.003879919648170471 0.04718969017267227 0.012906640768051147 0.04668235033750534 -0.06222952529788017 0.02288609743118286 0.06488784402608871 -0.04863136261701584 0.066352479159832 0.033306412398815155 -0.018488459289073944 -0.0380956195294857 0.0023333653807640076 -0.07605807483196259 -0.04962858930230141 -0.04883838817477226 0.011786989867687225 0.04959132522344589 0.060124196112155914 0.027493946254253387 0.06848380714654922 -0.04843258485198021 0.0789022222161293 -0.03978489711880684 0.06480375677347183 -0.03340534865856171 -0.03429208695888519 0.08082183450460434 -0.0779847577214241 -0.04173450544476509 0.008473992347717285 -0.0759367048740387 -0.042878273874521255 -0.0474875271320343 -0.012736082077026367 0.0402059480547905 -0.06367361545562744 0.08534350246191025 -0.08469521999359131 -0.06774567067623138 -0.042672671377658844 0.07257641106843948 -0.05963102728128433 -0.03177696466445923 0.07509905844926834 -0.0881018117070198 -0.05059437081217766 0.05200860649347305 0.0368281826376915 -0.015829816460609436 0.03023947775363922 0.03602434694766998 0.028458118438720703 0.055052511394023895
-0.08093433082103729 -0.055294252932071686 0.057874538004398346 -0.017952926456928253 -0.056548118591308594 -0.012744247913360596 -0.025103315711021423 -0.015977419912815094 0.012109488248825073 -9.371340274810791e-05 0.02779512107372284 -0.034205034375190735 -0.0752715915441513 -0.03133449703454971 0.04471515864133835 -0.053046464920043945 -0.0011075735092163086 0.06805086880922318 0.03912258893251419 0.0583319291472435 -0.07756908237934113 0.06708129495382309 0.0789443776011467 0.051288776099681854 -0.04393980652093887 -0.06920719146728516 0.07478072494268417 -0.024793021380901337 0.03206067532300949 -0.0752827376127243 0.017932184040546417 0.07268223911523819 0.004427075386047363 -0.020290948450565338 0.006749048829078674 -0.060406189411878586 -0.023243732750415802 -0.016451671719551086 -0.017150312662124634 -0.045350104570388794 0.04906942695379257 0.01064271479845047 -0.08296520262956619 -0.032110270112752914 -0.03953707218170166 -0.08423417061567307 0.07024707645177841 -0.03592798486351967 -0.05908428505063057 -0.04274847358465195 0.00562073290348053 0.0031173303723335266 0.04425766319036484 -0.06228920817375183 -0.08229470998048782 -0.03525809198617935 0.06189718097448349 -0.04940596967935562 0.060588590800762177 0.05030228942632675 0.06781908124685287 0.05992516130208969 -0.0605352446436882 -0.010515078902244568 0.08466265350580215 0.00011315196752548218 0.022482402622699738 -0.006235070526599884 0.04639685899019241 -0.046687494963407516 0.05390501767396927 0.014409467577934265 -0.04994902014732361 0.02362072467803955 -0.05119246616959572 -0.022161297500133514 -0.03251013904809952 -0.03907501697540283 -0.05267035588622093 0.07900796085596085 0.009230442345142365 -0.019720986485481262 -0.009257584810256958 -0.0613119974732399 0.07328332215547562 -0.04162968322634697 0.011586308479309082 0.02629399299621582 -0.00786096602678299 -0.00953345000743866 -0.06189907342195511 0.04946563392877579 -0.06667248904705048 -0.07693924754858017 0.0007804781198501587 -0.0702991709113121 -0.0601351223886013 -0.010642550885677338 0.029276221990585327 -0.0006482526659965515 -0.02242158353328705 0.029461488127708435 -0.038946110755205154 -0.0852297693490982 0.07671237736940384 0.004146203398704529 -0.007628411054611206 -0.007346227765083313 0.0185927152633667 -0.057202354073524475 0.02490675449371338 -0.01341036707162857 -0.033785607665777206 -0.011749908328056335 -0.014884434640407562 -0.041608791798353195 0.07817911356687546 -0.06824930012226105 -0.06906504929065704 0.017350994050502777 0.036060117185115814 -0.08064541220664978 0.0725778117775917 0.044098906219005585 0.07700913399457932 0.0037931203842163086 -0.03326814994215965 -0.04553549736738205
0.07777708023786545 -0.036051202565431595 0.012787796556949615 -0.07156702131032944 0.05416909605264664 0.027165673673152924 -0.08050268143415451 -0.07111474871635437 -0.07670582085847855 -0.03511478379368782 -0.0030648037791252136 -0.07627228647470474 0.009504050016403198 0.07004573196172714 -0.08173947781324387 0.014355964958667755 0.08436087518930435 0.007432557642459869 -0.018181636929512024 -0.012080095708370209 -0.05796634033322334 -0.08794023841619492 0.04324314743280411 -0.011495575308799744 0.019380398094654083 -0.075640968978405 -0.02414509654045105 -0.06271433085203171 -0.02712930366396904 -0.08698119223117828 -0.03398405760526657 -0.06938595324754715 -0.010869964957237244 -0.04867568984627724 -0.03652673587203026 0.03131605684757233 0.042290352284908295 -0.031125269830226898 0.01596132665872574 0.060843490064144135 -0.00795445591211319 -0.05333184078335762 -0.0652204230427742 0.022290930151939392 0.05996911972761154 0.03582843393087387 0.03203663229942322 -0.05984186381101608 0.03454720973968506 0.011427581310272217 -0.0297732912003994 0.05285624414682388 0.07142288237810135 -0.0033937767148017883 0.05335880070924759 -0.0803627222776413 0.059356801211833954 0.06851048022508621 0.03312060236930847 -0.02934407815337181 -0.006305873394012451 0.007093600928783417 -0.02485337108373642 -0.04947981983423233 -0.03423500061035156 0.00014875829219818115 0.04348819702863693 -0.08398312330245972 -0.011927597224712372 0.07652438431978226 0.08380988985300064 0.015266641974449158 -0.007265694439411163 0.06843245774507523 0.08505114167928696 0.037963829934597015 -0.002199515700340271 0.04540165513753891 -0.06483852118253708 0.009205564856529236 -0.017221391201019287 0.05998476594686508 -0.005431666970252991 0.01604120433330536 -0.0549984872341156 0.03214073181152344 0.04080673307180405 -0.05402231216430664 0.07222423702478409 0.010659262537956238 -0.055221620947122574 0.05845706909894943 -0.0008542314171791077 0.06775575131177902 0.03833923488855362 -0.01979752629995346 -0.03719668090343475 -0.022663258016109467 -0.06858450919389725 0.02684721350669861 -0.05849767476320267 0.033641278743743896 -0.07291609048843384 0.04377197474241257 0.03272509574890137 0.03379838168621063 0.059142060577869415 -0.04632130265235901 0.06529522687196732 -0.073600172996521 -0.037050049751996994 -0.04061649739742279 0.0782199278473854 -0.039216797798871994 0.008515805006027222 0.04595179110765457 0.015814222395420074 0.061132900416851044 -0.05988149344921112 -0.06422436982393265 -0.06017586588859558 0.013576194643974304 0.08088118582963943 -0.02483360469341278 -0.0517766959965229 0.013292722404003143 0.049949564039707184 0.04758336395025253
