0.06080194562673569
0.06748803704977036
0.0012090131640434265
-0.03926714509725571
-0.04619549587368965
0.010546721518039703
-0.02264837920665741
0.038181014358997345
0.04128279536962509
-0.0667995736002922
0.0858478918671608
0.07267393916845322
0.0869535580277443
-0.04559027776122093
0.008162282407283783
-0.05308721959590912
-0.07537959516048431
-0.05312991514801979
-0.039834387600421906
0.07800471037626266
-0.0018859952688217163
-0.08231471478939056
-0.00046350061893463135
0.07155150920152664
-0.030117429792881012
0.015171587467193604
0.033383093774318695
-0.03121829777956009
0.003021135926246643
0.01116839051246643
0.020167291164398193
-0.005040459334850311
-0.07161939144134521
-0.04865749180316925
-0.03437194600701332
0.027455277740955353
0.02735726535320282
0.07306566089391708
-0.07683829963207245
0.07221098989248276
0.008750788867473602
-0.07607400417327881
-0.053185295313596725
-0.06964953243732452
0.07225372642278671
-0.08733820170164108
-0.00034993141889572144
0.02870379388332367
-0.05640392377972603
-0.054947447031736374
0.08008458465337753
0.0847778245806694
0.041538529098033905
0.03884046524763107
-0.041313160210847855
-0.0739242434501648
0.08002995699644089
0.03740144520998001
0.058462075889110565
0.034637607634067535
-0.03622879832983017
0.044348932802677155
0.07781762629747391
0.04784693568944931
