-60 268 -19 -217 144 -83 390 292 -467 131 198 331 404 -385 398 -211 -494 452 -30 114 -75 373 -359 479 -408 28 17 382 -108 107 60 -77 465 48 -57 72 -298 -501 205 66 -394 9 234 -125 -111 495 -455 441 61 201 94 -6 -215 199 308 -450 -494 -28 -306 424 480 146 263 -347
408 377 -475 41 12 240 449 77 283 8 -208 221 121 -95 243 289 269 -137 -32 -220 284 474 -191 199 -509 -63 299 428 449 -227 -100 278 -318 276 -154 297 321 407 406 -378 233 -425 -424 -96 -268 -135 -341 41 -132 36 88 491 -51 -4 -28 -280 494 -147 4 -404 -342 -131 240 75
372 -24 490 -342 -253 -197 412 130 459 328 368 466 367 -171 367 -395 497 42 -413 54 -301 22 24 -246 -50 320 155 479 322 -150 -263 -503 -260 85 49 42 -126 -281 111 174 152 -207 -127 349 -478 287 -143 388 358 102 -506 -186 496 -265 -315 355 259 507 -389 -423 -287 -61 -275 132
369 -135 161 241 400 497 -170 -77 -161 -384 -241 125 -364 482 -390 -400 -75 317 -342 355 371 474 -337 -436 422 284 171 -210 479 -107 -364 -32 -25 442 479 97 -466 10 -440 -339 -481 -235 248 451 -311 304 441 231 -439 226 -209 -256 -503 141 -145 281 -245 276 -251 -48 401 -49 -425 428
436 48 374 -28 -118 -84 509 -418 -200 -467 -433 -400 -45 -373 -348 102 -285 -167 -344 -42 152 383 47 -325 -500 153 -375 199 -458 412 -172 -302 73 -253 312 -252 -147 510 321 -108 353 -283 -127 -139 452 -206 -269 94 -372 -22 178 188 143 361 305 -422 -493 -336 380 350 428 -58 -497 -202
184 71 -30 -114 -485 -139 -475 63 -81 185 -37 353 -302 430 -407 -67 -129 170 -205 -326 -20 -56 256 -154 -155 15 90 246 -351 447 462 455 428 -449 161 419 -425 -318 466 -485 -160 287 -17 122 72 294 477 17 432 23 75 -444 475 -225 -410 363 360 506 118 185 213 -286 -488 -337
-358 -184 349 392 222 474 122 282 171 -45 -178 -435 270 -16 -384 -425 390 -221 282 -50 -235 -188 -426 -75 -246 -128 -266 418 23 63 -177 468 -503 409 -319 -260 -146 152 -189 423 358 -334 -268 -400 -283 -461 464 362 398 -76 385 152 -192 -407 302 413 260 -284 314 -432 -236 -54 219 -398
272 82 -166 373 194 436 447 -93 218 328 12 -318 203 253 150 -215 -188 -16 69 227 124 -65 164 -181 191 -481 -503 -467 380 402 -148 -419 180 -294 -49 360 -286 179 399 -448 397 -55 -465 -234 357 -179 -148 -153 349 15 151 318 300 92 281 -335 -71 504 41 126 286 201 420 370
201 -59 415 290 -301 233 499 369 64 449 262 489 -366 240 418 -459 190 -51 -296 -135 8 493 81 273 -265 348 -396 -160 322 -428 274 217 -320 2 292 -254 296 415 -76 -340 106 -187 240 7 -260 -280 399 97 -413 1 -444 328 -24 214 -51 -384 299 74 445 228 433 191 -127 -221
228 -300 344 -261 -367 240 386 443 483 -451 -139 108 -236 190 -195 -153 364 -442 389 -422 440 -309 -250 -10 -90 -63 -320 400 -286 371 -369 383 -301 344 144 -496 -39 -412 -374 -301 436 -361 303 -355 -128 -499 354 -104 266 341 207 82 205 57 -301 -263 -21 -211 -491 421 -325 -274 -377 -304
