406 450 -198 199 301 238 51 -456 306 241 430 131 184 474 429 145 159 471 210 -48 115 -303 339 435 430 -281 -295 113 -411 189 142 170 -86 -116 -13 225 -90 349 -488 508 -282 311 69 250 338 239 -461 -162 -159 103 399 133 -90 -245 -373 403 -218 106 -413 -322 -298 150 495 36
-372 5 -218 -362 -359 -324 -302 117 74 506 398 61 433 237 308 162 104 222 -5 -406 -72 -81 471 257 20 171 369 353 -214 -367 319 37 199 -266 85 -475 -315 326 -128 296 76 -48 -502 -419 118 -116 -422 -359 -192 -268 -25 -291 -245 -465 323 198 -259 174 -424 -285 104 360 353 -500
-448 -7 -377 160 225 -148 212 -85 83 -484 464 137 262 -244 -371 -290 -56 -140 -56 -221 -475 -114 47 -331 -79 286 40 -304 280 -499 158 217 292 -344 24 83 441 27 265 195 -173 330 361 465 279 -450 -289 3 -408 -212 459 106 43 288 15 262 -417 -73 320 24 -156 -261 57 -153
-286 163 396 178 -202 360 -413 72 15 110 218 46 39 -342 -373 478 138 -376 284 -151 -497 494 98 394 476 -287 61 -385 209 -230 -100 -201 -155 -202 44 396 -372 505 -150 212 114 361 236 -62 109 -471 52 272 378 -129 5 -506 458 -286 233 65 82 -335 -279 -267 279 287 -12 409
192 -244 389 222 -166 40 -293 390 349 91 -199 226 402 -305 26 -143 -473 -238 -414 -288 122 -343 480 -156 355 -337 304 -500 -425 271 336 78 13 -471 -481 482 352 192 88 -123 -281 -24 180 -81 117 276 137 -474 122 492 285 -75 -464 -270 180 -281 -389 75 339 -5 4 7 -324 -505
339 95 -159 502 494 149 -168 -360 -453 -306 292 316 -398 -303 401 198 243 377 419 -480 -103 275 -320 -443 -505 194 -54 -416 -119 -248 263 -342 366 -446 -9 -432 13 82 92 323 -358 98 114 426 -236 421 -196 332 312 100 -308 197 -2 -281 -46 326 -378 217 -195 -58 -219 74 -131 -187
-157 -82 -448 -127 -170 -61 362 -195 313 57 71 162 -243 78 88 283 -67 -429 -177 140 7 -457 -512 -373 -264 -412 -310 106 -210 -116 68 386 328 -136 382 360 -286 -279 505 -470 367 452 -502 179 511 -402 -233 -121 24 240 -67 -303 124 192 -446 -54 9 -150 462 -88 -49 -327 449 -485
415 50 -85 -58 -334 -99 335 422 -309 293 350 407 -357 61 119 -252 -433 238 -316 -99 26 231 387 -118 323 39 -465 -145 374 -176 304 127 124 -12 162 269 -48 389 -66 -137 160 50 163 472 190 181 13 -165 159 226 140 -284 -49 -369 432 373 454 -232 -399 -19 478 -262 377 175
-118 -280 96 -129 198 -430 -236 -466 57 -261 -268 187 511 -259 163 490 416 121 26 -123 -364 -114 -489 89 -112 7 -481 320 364 429 95 -270 400 -250 -300 -394 436 -474 254 283 -249 41 195 -23 378 -160 -136 -220 -317 319 329 -78 -428 127 144 313 264 17 151 -473 362 -313 512 470
-254 -495 387 -370 434 -339 -304 411 271 -504 -371 32 28 -493 -2 253 434 261 390 91 -110 182 201 40 -444 271 502 -385 -142 481 178 505 195 -17 227 73 436 233 281 -241 259 38 -144 -216 -388 -258 269 -497 264 179 -122 -116 -274 -293 208 2 -355 -313 414 210 -314 251 423 498
437 -152 55 -153 -343 -440 304 -168 122 493 -218 466 -393 30 -378 31 347 168 134 367 297 -79 51 261 139 257 62 184 413 -388 -226 23 -29 495 -85 498 334 -488 -423 354 -335 201 -422 362 -223 312 361 510 -163 -421 231 394 478 377 -120 -48 -138 -367 -306 509 -90 391 -28 -80
-424 192 6 185 -294 -350 -76 -451 -181 -494 -457 -460 -330 438 152 -65 -494 -487 88 -198 427 200 -55 37 -105 -412 -465 227 -351 15 -137 -166 455 -501 500 -109 -185 258 469 -221 357 79 -54 412 -368 407 132 195 243 503 506 291 88 -468 -220 128 327 241 -102 444 -130 226 -173 36
142 435 467 -413 -168 292 4 49 423 -147 -193 8 -446 241 492 151 -318 -146 -15 505 437 16 -115 496 387 -154 281 53 187 244 275 -491 -76 133 27 -109 -222 431 -231 -113 -272 -470 255 -346 -182 -399 236 -337 -207 -16 220 43 -372 183 255 389 -246 351 350 -184 -219 365 -329 5
437 400 -143 -169 -206 -138 -398 -264 84 272 177 -185 -29 188 432 102 -356 -464 94 138 -18 403 -433 -351 414 -473 155 -40 -180 283 -419 -506 39 -231 -388 317 330 160 -145 488 363 -370 -256 485 -328 -103 373 0 -190 226 -226 -435 69 449 336 52 17 87 269 324 489 24 -301 423
-218 -80 -486 -364 -68 177 433 512 214 314 362 -32 -138 211 -174 101 -50 -505 -157 -211 -286 -118 17 450 246 -135 375 -347 -348 -358 -340 29 278 -211 121 -202 -457 444 -155 189 85 457 279 -362 -163 -147 -201 99 -321 354 -248 40 -441 -116 -132 -287 31 -225 336 223 384 -290 -483 201
239 432 -497 340 -279 449 -486 499 -355 290 -324 509 243 363 -295 453 -23 -235 508 -341 224 -29 -205 -403 -106 -259 142 -190 -183 199 77 -284 -229 227 400 -56 319 293 23 120 -117 156 296 -360 -493 -503 -238 -498 -119 -244 -495 494 -253 354 256 371 -429 361 428 -428 498 253 273 409
-95 307 73 329 -496 108 136 -230 -356 348 101 -344 408 233 498 151 -287 -470 -133 236 -401 272 329 439 -25 -132 -464 -143 -415 -224 434 -427 -122 -58 -47 400 -132 -244 288 295 202 512 -412 236 -490 510 56 279 365 155 5 479 -251 417 252 397 -1 118 274 -202 -354 164 109 -172
73 -152 237 79 -505 -512 319 -162 -45 -68 133 44 297 -462 -229 -290 -319 -235 123 -439 440 -471 150 -158 -350 -58 319 -198 -233 -16 -194 -210 -301 427 52 222 -17 -398 -3 23 -496 285 -483 -298 485 309 76 -358 352 71 325 -361 59 -115 -458 -218 -73 111 416 449 351 -497 -214 511
-129 370 -502 469 -510 -55 -161 466 461 -144 -312 29 -216 -388 115 240 -473 466 -436 -152 204 378 252 495 322 -31 -483 -397 136 136 -492 -410 -318 244 11 118 501 -1 -147 426 147 -408 11 446 204 468 47 392 -5 -105 213 85 30 -182 356 -292 204 -102 -268 409 -20 -410 -259 223
360 204 403 -337 335 -496 -510 285 -84 -157 -253 -478 121 -417 -151 -253 144 151 -450 -247 -132 -89 -390 -170 453 128 276 293 -416 262 -138 395 350 404 149 156 -379 -383 -492 296 -501 368 -352 387 -444 -113 -94 23 -428 112 -275 113 455 42 -157 43 -448 433 -491 106 -229 300 -428 117
167 -474 -496 -9 217 -60 -395 -185 -284 244 429 384 204 -377 -103 474 75 -325 430 -490 397 -298 -199 101 144 -240 -493 41 -298 106 -509 -349 484 153 442 285 -361 211 29 219 230 447 313 282 -35 128 342 84 -372 493 174 445 393 20 -417 -342 242 26 -162 469 -246 504 226 352
35 252 461 322 -232 332 -273 502 395 -505 -73 -457 -53 -89 367 -75 142 -424 -167 162 130 324 51 -224 103 -264 56 284 104 366 397 417 318 499 -157 -281 149 -27 -152 113 -13 280 -218 354 82 -369 298 -504 -178 -96 -305 -483 88 -291 469 -214 275 245 79 -244 138 323 -161 -137
61 474 -261 -404 501 -237 -392 -30 -498 -130 36 -258 370 305 -247 77 -486 -102 -195 501 -19 -453 -23 268 -397 -494 9 -280 -139 61 276 462 -422 366 -473 -402 -111 134 431 -501 -308 -269 261 153 450 -491 -501 -339 -318 -337 -433 -236 -348 -110 2 207 158 -433 -79 58 -344 -128 -458 416
-200 -290 17 -467 246 191 -460 506 145 -169 -225 -444 -470 253 361 -486 -381 -215 -494 -426 -260 80 383 -430 -84 274 391 333 -102 175 -192 -5 -215 437 33 -86 -479 -176 181 271 -126 -7 -163 374 101 -115 143 510 252 296 -182 -433 -289 -256 392 381 420 297 -270 -365 122 62 287 -41
-370 86 -476 -362 228 129 11 -337 -112 269 305 -352 -57 274 201 -66 121 238 -470 284 398 -193 246 311 130 -158 -125 -99 -406 -236 -486 -236 245 155 -417 -271 228 294 -51 440 -475 502 126 148 305 162 419 221 301 -170 374 242 -191 254 -458 350 -297 176 304 -171 263 -497 -195 411
-159 -249 -429 122 373 236 -311 76 101 392 245 -157 233 158 357 -409 107 -471 -323 32 -331 408 237 490 -450 -495 112 50 -297 -405 278 -457 -207 309 178 423 -238 217 309 -227 266 442 97 -271 510 -189 381 179 -308 -344 -128 177 68 20 -231 -415 419 277 51 -416 505 -418 -420 35
469 -79 324 460 126 -423 268 116 -257 -280 -374 387 -226 -135 -272 -299 42 217 192 -347 -325 -21 391 11 114 328 403 -49 432 463 -254 234 -143 89 -352 88 393 -88 449 -417 -80 -103 -466 -40 -127 -406 57 -277 -345 495 266 -263 -377 112 114 -88 -102 400 -341 -165 -132 0 -468 70
-121 -328 128 -384 400 143 502 457 427 -228 -211 -185 -441 -499 30 -397 303 -235 9 -346 306 -346 -69 -494 -263 171 290 97 -214 199 287 -45 505 -391 150 250 -120 430 -196 383 -322 237 125 -65 493 -200 -415 352 103 -377 -112 -176 500 -346 -498 176 -184 -239 0 -171 -306 -97 -337 58
379 -234 150 -470 66 318 116 147 -259 328 157 -380 495 224 92 -72 344 -169 356 -261 -127 287 -327 -164 -511 -191 -465 -396 -225 463 370 455 145 -174 63 89 -244 287 -163 -144 497 -306 255 386 272 477 -279 -267 -290 406 -171 -347 -79 -111 357 223 447 -480 225 -15 98 248 503 -225
193 286 409 -508 240 267 -112 -306 163 -204 70 126 -335 -230 -325 -380 -466 -300 471 308 159 205 294 366 -245 90 -230 202 105 126 448 -95 403 441 -56 0 68 -144 430 10 322 109 -346 -402 -306 272 342 -486 -372 -88 -166 -373 -177 -106 -364 -409 396 327 -229 -476 -26 311 -15 -485
92 -471 483 223 500 -386 125 431 -80 -492 -124 -499 109 -85 27 -483 -185 132 317 -60 -510 402 -43 122 149 -116 -45 505 -105 501 -177 -396 -96 -465 88 13 8 476 -197 -204 -42 437 -10 -368 -178 -428 -286 46 -498 -154 288 154 -56 365 236 -123 -343 318 -462 390 -232 246 491 10
-421 158 -389 425 -390 -32 -252 151 258 385 10 406 -119 -225 -10 27 -97 -267 211 -414 384 300 70 443 -403 498 -280 43 244 50 251 -124 -211 160 237 421 -281 -201 -34 -284 232 -124 501 -188 157 -42 355 -451 23 145 -307 -442 -395 -298 -124 330 353 -354 424 113 268 -265 -39 361
406 270 -310 -189 482 401 361 -235 87 -30 -511 236 -480 -19 118 203 -35 -104 -371 -55 427 212 261 -141 -30 -218 392 -232 448 -409 293 -382 -257 3 -394 501 -334 462 -479 265 -349 -309 169 370 462 -133 151 -108 329 -510 421 356 -510 -241 416 -341 468 37 215 303 -157 224 -219 403
368 465 -75 -307 177 0 -2 61 163 421 320 208 65 209 -294 -433 -100 29 355 138 162 199 -294 -463 -89 -109 297 -309 76 -32 -122 -128 355 499 -330 241 -385 5 -377 374 -447 -461 157 356 -62 328 341 -135 -5 -16 434 143 479 -333 -2 24 109 251 -136 242 -508 -253 -141 400
182 362 416 219 432 248 -280 -431 127 133 148 -357 -456 185 184 195 -226 344 -99 -2 14 38 245 256 -226 -476 363 355 433 -161 342 3 357 419 223 217 -280 59 -448 -443 220 468 475 346 426 363 -475 -24 -286 82 438 413 352 -181 339 -41 -427 134 250 345 -376 -291 296 453
409 343 -272 303 173 -492 -193 0 -24 18 125 -452 23 -166 -43 -124 -305 -233 -397 -402 49 -308 104 208 -264 19 95 -405 -34 378 -146 377 -230 -222 -302 -102 -243 245 -128 -262 -248 460 -177 -177 176 487 -450 300 -67 -381 149 -323 310 -260 262 -73 -447 168 -338 -435 429 92 -280 112
142 -135 -508 -141 -442 -342 96 176 -281 -267 365 -453 -44 -411 90 64 -22 424 -361 -395 -69 -274 237 -383 165 -178 294 470 0 41 -491 270 419 339 -437 37 244 -508 162 503 112 478 295 228 440 423 206 198 -227 401 257 -250 99 -169 -231 -434 202 -176 112 -220 157 343 -464 25
-206 -68 -27 62 423 129 57 -496 168 -504 -223 -147 -22 -501 -460 329 -120 501 225 -200 -246 9 -78 -257 289 -166 -323 457 -92 -455 356 -316 -109 -388 126 -270 444 271 409 35 374 -93 -24 428 105 2 79 207 338 -314 -37 -66 -119 126 42 343 -205 497 -257 206 207 -427 -250 417
-102 95 -192 -124 28 -153 -64 378 -476 -445 -89 -30 380 -203 -272 -77 -285 357 252 364 -445 472 506 -350 311 -441 57 -319 189 59 -8 331 -123 -203 496 252 -134 157 179 -262 -261 192 14 240 -389 -100 -305 -389 -460 286 249 327 -69 -500 113 -244 480 -17 -131 -464 290 -119 -115 446
-119 -10 -33 427 -409 129 -96 202 159 230 -489 20 229 325 72 -254 -288 -506 -13 63 72 433 -280 -297 -37 -321 -424 329 -22 -44 249 -148 -242 436 463 414 222 349 -495 -57 -446 133 226 332 -464 -271 406 -431 -366 -491 -296 -167 161 299 403 -419 -124 -134 256 -307 -42 -469 1 337
-300 -448 394 -25 151 -93 -509 -503 70 113 428 -316 459 366 -383 -42 106 -416 -33 -132 -94 -361 -128 -175 -362 241 -83 -273 -361 -135 4 372 -405 253 -499 367 183 -468 307 398 -341 -464 25 407 314 291 179 -223 438 -112 -147 -377 -26 378 -96 -453 -380 479 168 255 -13 -153 94 92
-479 68 -415 -150 -296 226 -376 -405 -90 -50 278 -313 -340 -453 135 -79 -129 234 -24 -377 -193 265 32 -445 -495 209 -173 423 128 -410 383 -162 334 321 -145 -274 52 67 -316 402 76 19 -97 -264 397 -111 74 -494 24 217 367 -412 -129 -447 -457 -485 64 -492 324 -23 423 27 -474 360
-227 -14 -228 -281 -396 457 -219 466 440 -289 379 -339 -181 -71 382 -229 444 16 310 -19 391 29 228 -430 292 -444 -211 -464 -109 -49 162 -53 300 -182 -439 33 64 -189 501 -386 316 -97 215 -59 216 -228 -279 -475 -115 -57 243 -247 -276 -45 199 -472 -196 -352 201 -53 -392 258 219 313
-1 349 478 236 -367 436 -278 -216 118 -180 77 -66 381 402 -448 -433 160 -358 -477 6 -85 -202 -348 262 378 490 28 -505 249 116 -342 -458 137 161 -397 -235 -276 -362 -477 -189 -242 -467 -17 -373 -132 -185 -282 -227 205 317 -69 89 -118 417 -361 49 220 68 -198 -396 277 -155 331 339
196 375 265 -30 446 -156 266 -379 -386 226 -198 321 -227 495 -389 -79 -491 -149 276 324 108 112 358 -208 388 268 355 394 -134 437 264 -1 -485 277 59 206 338 95 456 226 224 -6 111 361 -13 189 -403 -507 130 -320 488 -450 -222 425 -9 -463 348 217 33 420 74 -305 87 196
113 -202 271 -133 66 -376 -414 -174 131 -245 -357 -73 477 -237 -501 390 -219 -186 -184 -222 131 153 -118 298 -28 129 -332 398 174 -210 -294 126 49 319 -363 468 509 199 471 -391 368 61 94 -7 383 484 502 385 -508 -14 171 506 391 117 184 -32 490 -385 507 -335 171 106 363 -86
-218 -459 121 362 496 396 -13 101 308 213 -375 387 -410 339 454 310 136 64 -487 221 228 115 -147 -246 -246 -352 353 209 174 255 328 500 163 222 -340 309 287 -139 -19 -105 -100 -134 -334 -451 10 -440 -224 -485 -332 363 297 -500 140 138 -156 127 112 195 84 210 32 483 -475 267
-249 -366 -88 -39 197 -217 -125 -286 -239 399 -172 -49 -466 -306 374 -35 292 -317 -385 122 226 -378 -434 269 -291 -272 -289 -173 335 174 -437 106 94 17 200 -340 333 -225 413 165 -39 241 350 -407 407 28 -242 453 -370 -394 -329 -222 79 370 62 210 -482 311 205 283 -382 -128 467 -482
292 267 61 -88 23 -270 -388 -397 170 231 -218 -308 -421 99 -125 -445 236 -361 423 -244 -149 229 239 173 -319 164 146 -84 149 353 -315 -446 -406 -57 -6 -419 262 8 491 408 -5 202 140 -323 -299 88 -188 1 -121 -9 -58 291 278 -187 488 79 -302 110 -479 179 150 473 -427 -432
-86 208 -32 -462 -214 -228 403 -96 83 -329 398 491 -278 -506 451 -362 43 -97 -259 -49 -480 -13 474 -31 409 -451 108 -407 -452 -166 426 -226 -458 511 222 293 198 -319 281 -166 -247 -100 275 -227 -498 -7 458 -453 298 -75 -323 105 -235 199 -299 -77 137 -210 -1 -236 -340 393 -289 37
463 359 293 -347 233 -305 196 290 495 36 239 96 -247 -450 -392 139 -321 -511 -289 -192 478 -348 -468 -326 -152 224 -385 -224 256 365 -60 493 59 332 -10 -12 -157 354 91 152 313 315 307 -6 214 345 -472 380 -207 -156 259 -409 85 -61 390 -392 -357 373 404 268 -510 347 -231 218
-28 -378 -480 391 -215 -29 -267 435 50 -490 299 189 471 -490 192 117 -321 455 456 -11 -227 -267 255 432 -446 -500 27 31 213 472 428 -81 -242 -215 258 385 -460 -363 408 -127 307 387 -358 -78 -144 472 -85 -79 -324 -190 365 249 -139 495 435 -298 145 248 342 -501 144 425 -177 432
225 -278 -502 -352 495 134 271 -73 247 490 490 -385 135 -139 -5 -134 -253 120 -405 -421 -20 22 -91 261 -456 -247 13 399 411 -127 -401 -188 89 29 -471 -476 -266 -509 -96 161 -371 -386 337 39 -26 510 -361 272 -193 200 -314 -505 -252 105 149 -18 -386 -390 -412 -342 453 295 -157 378
399 -181 208 -166 214 -232 -147 -481 7 -126 31 -505 -225 -277 -382 165 30 424 214 80 -489 506 1 -300 268 21 -504 -346 364 -294 -39 61 290 139 28 432 414 -430 -92 410 -358 -96 -276 510 -420 -75 -119 25 320 -107 -54 -311 191 130 110 -159 490 124 239 -22 81 59 103 -120
-36 -59 -269 -287 96 455 20 -205 254 450 -283 -61 -70 323 88 -382 -330 -33 199 446 -278 -438 152 -285 400 -188 -370 241 -122 -130 503 -25 -65 178 206 -133 460 16 -105 260 -317 326 -332 -204 -243 164 118 121 280 -231 -212 123 39 -471 203 -351 -476 -163 -395 85 273 -345 318 62
-88 282 338 276 259 368 -262 -105 -42 374 124 140 -293 -273 45 423 -218 80 59 305 -302 58 -103 -201 175 -195 -299 -283 -53 -433 -421 -400 -434 174 342 150 284 -427 41 203 -91 -3 -439 -412 -273 285 -498 500 369 387 -29 -273 402 143 -126 129 -263 486 -97 314 -45 480 -242 -394
118 32 413 221 45 -284 -293 -401 329 -174 17 -321 -136 -397 20 -246 -400 -282 96 -347 88 314 -92 -460 455 234 -210 477 296 -189 -336 305 -244 -85 470 400 -484 -145 341 -115 -49 59 202 35 -461 490 -167 18 443 29 -350 -134 -277 -317 444 224 234 302 -239 -488 488 -28 -322 -223
50 -487 -262 222 390 462 -256 -2 144 175 -494 353 -74 332 -468 73 170 -234 481 -252 36 -32 392 324 57 -308 197 326 503 43 391 -474 -208 -446 -506 212 -301 9 -242 39 90 432 -441 291 -296 -361 323 -440 -214 298 283 355 -242 -262 -124 -36 -260 94 -326 -162 326 280 285 -427
27 -170 -108 -472 -280 438 189 305 -449 440 -5 142 -334 273 -209 -311 479 102 106 20 -434 340 -449 -311 385 229 64 -197 -271 153 234 -329 339 463 -342 437 43 -166 10 106 22 -343 220 -85 -437 379 314 0 314 -487 -89 -308 -280 71 460 85 415 -466 434 -268 -130 326 245 -504
52 194 257 -95 -297 -308 407 -407 153 -18 -27 287 -164 -240 -330 52 -157 -166 -321 -443 99 127 165 326 -435 64 285 350 -234 -122 278 -439 165 -66 206 351 -23 431 -384 -245 126 -138 -241 -173 -245 66 271 42 -31 -72 13 -342 -210 482 -265 -257 451 -128 84 -489 -331 193 -179 141
179 -222 332 460 359 298 -503 53 289 -25 119 140 374 -406 150 -114 -13 -142 352 45 -353 305 -416 -389 -279 -127 -427 -465 -325 -95 -56 89 -280 248 253 -96 450 208 341 -339 -63 -486 91 -104 -340 -425 177 -7 -498 508 479 354 -52 54 -224 -229 134 297 -330 502 -462 -387 9 -458
198 150 -82 470 510 135 47 -340 -163 -29 415 155 -270 -177 135 268 -370 265 -471 253 231 -272 450 -443 -362 -261 -506 107 155 -134 222 180 10 110 -165 -13 206 -402 -141 319 -5 292 354 77 151 -236 -188 486 -378 496 -484 472 -392 183 357 165 239 -395 498 463 -229 -104 -189 -331
395 -391 -451 -221 198 -221 -29 -354 -143 317 166 125 -197 76 343 17 -205 -169 258 470 207 -451 361 -394 -197 -170 -286 -101 -233 -383 -491 -177 322 262 -217 -342 -4 369 -122 -121 41 -110 77 471 357 -100 -63 74 386 -409 57 -303 276 -95 -101 306 9 -358 226 -472 -48 -51 -247 -404
54 323 364 -184 -446 -306 -275 293 200 -506 40 65 219 -234 -259 342 264 -207 109 447 466 360 242 71 499 503 -262 -29 -446 402 -427 -411 -211 11 -53 274 -198 81 364 -320 398 74 309 360 249 -470 303 156 61 -183 411 195 413 308 -87 473 68 215 -192 147 -482 -117 -331 68
243 416 215 -120 -469 -275 -21 332 307 86 281 -230 438 261 -446 34 -156 257 -20 -480 207 -116 53 -490 120 -11 170 -54 245 -279 128 -464 391 -158 -83 340 -355 -67 -478 266 -228 385 -492 180 -492 465 104 353 311 -10 -130 -138 -59 -15 52 367 -340 -104 -200 -123 -255 -371 -30 -39
-234 -307 -28 -269 30 93 -35 364 179 216 141 511 372 -54 -392 -295 -261 -417 327 69 401 319 -52 52 351 140 -58 260 74 -334 -205 306 31 -332 -186 350 49 -284 262 -491 -474 -123 -379 73 86 -423 -358 -123 -337 165 78 348 36 469 172 189 -40 36 -255 105 254 211 144 135
-377 424 -424 -375 430 120 444 -189 90 296 -389 395 -95 -169 118 9 222 -357 209 156 132 157 471 386 365 -510 -210 -375 309 89 377 -101 -206 -365 -387 105 -390 451 362 257 -409 76 382 -298 -461 387 -240 -158 -16 -80 -308 188 -261 -38 398 215 -286 -376 387 266 221 -299 -102 55
65 -454 -366 375 -453 122 -449 83 241 -453 -101 67 261 -82 493 219 -402 197 94 -394 -395 173 -21 54 167 173 -479 451 -179 394 -447 -66 -445 -100 238 -101 463 -396 393 -132 -75 57 -115 68 306 365 -406 41 -451 255 -16 501 63 -453 488 -6 -328 142 253 -316 43 189 -375 -232
219 -423 108 -158 -367 -224 15 27 -32 111 135 244 -80 -98 380 -510 -307 -328 429 -356 -123 -45 -385 -445 -52 -326 339 448 132 -329 -250 175 -300 -80 -501 252 -169 345 -251 166 -59 -489 381 279 -451 -240 264 474 -190 -11 91 -197 469 473 425 325 362 325 74 -196 19 -164 340 271
-422 -388 48 344 -436 422 -464 -89 470 230 481 269 266 -463 -146 -197 -469 133 -329 -369 -251 242 479 289 -102 -37 320 -385 -472 -477 -287 -174 -83 6 -225 297 43 -467 139 154 -346 -234 321 -69 -195 439 334 230 374 -511 -475 -49 386 177 340 -212 -486 -317 -221 490 505 433 -308 342
248 82 488 320 -67 95 -69 -228 386 10 475 162 -97 -299 58 454 -271 265 243 294 505 -491 159 460 282 251 -487 70 -316 439 159 -57 -30 -452 -163 293 -62 393 3 330 -400 428 492 185 -349 -195 291 -331 124 -186 -5 -7 110 -237 -374 -68 -467 242 -175 -50 -243 -309 42 -255
184 17 102 96 -99 428 453 310 -109 -408 454 197 -500 100 328 415 437 95 -231 157 287 -449 -349 -332 238 207 1 -356 -470 -326 179 -364 165 -417 -363 125 416 378 -350 350 -230 481 -6 316 77 113 73 -180 74 -384 -483 -310 -142 471 445 225 487 323 -277 -313 207 58 -175 52
-485 -448 146 329 43 459 258 -267 78 85 -216 -376 -302 -129 -247 -90 133 52 -113 -503 -159 -423 -384 302 5 260 174 -131 366 144 286 -21 -19 306 122 -206 405 423 91 -291 301 -345 481 -417 -272 162 118 324 -69 86 426 397 -346 -61 -46 -88 237 -432 197 -141 -208 61 348 -424
-87 -21 468 390 396 110 234 129 -90 19 -137 88 -282 -76 -288 4 -459 335 53 -143 -18 -364 92 -35 350 408 68 -264 -459 -254 8 508 382 46 -266 41 -145 432 -501 -207 -476 508 -249 98 -264 183 -398 143 352 163 -229 -398 270 76 -231 -476 -52 -481 -429 143 117 -223 -19 -155
501 -154 -323 311 138 463 170 400 -445 492 269 -503 -256 78 428 -215 118 -133 275 142 -152 324 -117 24 365 437 371 -178 327 -129 -410 -510 46 310 -325 -80 447 211 493 310 -448 497 -222 -76 7 -190 -304 433 35 363 111 -466 201 327 -248 84 176 462 464 -329 295 507 -118 176
98 -329 -399 -79 -1 8 488 -331 -238 -315 -209 151 16 -84 417 382 27 -39 206 -474 -22 29 -79 47 -146 476 59 -214 -333 -13 -392 61 216 -218 -165 78 74 -377 80 -430 -134 -449 -365 275 -398 445 176 348 -31 -347 482 -261 115 -122 73 320 -82 240 378 486 339 355 243 31
-405 270 -313 -55 -190 -422 -469 489 263 210 433 -433 -277 -493 -187 462 -470 96 312 259 -312 -471 45 93 -108 -286 274 68 -508 93 -198 -339 443 -482 -433 -180 220 339 -199 161 -252 57 454 -496 422 -341 422 -162 -335 -461 440 236 359 -131 411 179 49 -132 -240 25 182 359 258 449
-80 -441 441 473 13 269 158 341 214 216 87 -53 254 179 475 501 138 280 -425 -247 225 88 171 497 416 -365 -492 -253 -149 62 54 72 -313 472 -504 209 -325 -289 476 225 139 88 256 -468 448 463 168 -402 289 -262 -397 -33 246 180 278 338 -480 -332 446 467 275 -399 224 -483
266 342 -281 -144 289 504 -231 -454 227 -423 -316 28 -346 -182 -165 267 -46 109 -231 53 113 65 338 -208 -417 -191 -377 -245 -157 377 456 482 -21 -463 -15 -277 -189 -307 -297 -328 168 118 -132 388 298 -342 203 296 -84 -308 -438 213 -46 469 443 -395 -35 72 -448 308 -216 -512 -69 96
-320 -12 424 409 -418 -476 -23 -28 446 -478 -40 267 105 255 493 -315 163 214 453 -504 436 -7 -70 113 -55 -113 463 209 144 320 251 -38 -448 298 -43 -455 198 123 171 -283 335 317 -231 -487 22 -146 435 -349 -476 23 -3 123 -501 23 64 358 -496 -257 89 265 -285 -406 -161 -240
331 468 13 294 223 -125 -477 -426 -140 485 -161 204 457 -286 -155 -67 248 -363 112 110 207 218 -360 125 331 154 -100 -482 -21 172 -127 -380 470 -263 103 237 439 68 346 299 402 -389 429 -503 194 315 379 -381 330 343 497 19 -251 71 -129 327 -30 -22 354 -249 -264 -116 -285 99
-215 371 324 -186 416 -461 -298 190 -426 -48 49 -94 120 -69 -324 -84 -107 -262 -289 -356 -338 -488 111 -486 -100 387 5 -53 421 155 427 200 -19 -140 458 272 -108 461 18 -208 494 391 346 -505 405 -410 -488 476 217 -103 -492 -225 -500 -138 -440 -170 -147 459 -339 251 -360 -34 126 96
477 -220 25 49 181 -383 203 -26 -19 293 -348 -360 -406 35 130 283 -235 504 -369 134 -256 63 314 218 -451 -283 193 108 -38 275 -470 83 198 50 477 -320 -141 -434 -358 -447 401 -149 250 247 -111 335 60 478 290 371 -453 155 -483 293 64 174 202 -299 -450 508 -163 473 120 -88
-194 -105 206 305 -124 184 -82 -499 161 481 224 -81 -313 423 65 408 -260 130 -407 180 165 -367 -221 331 166 -456 4 188 167 381 168 146 -498 471 -184 254 -309 -43 -215 -163 176 280 139 -463 -145 -455 -28 -83 -119 343 142 -168 159 391 -311 496 14 325 118 26 290 -228 -400 119
37 -198 421 161 215 272 -180 258 -292 342 -54 141 262 479 475 -135 124 403 -511 -260 170 98 -239 -362 166 -130 -464 379 32 83 97 -494 -379 262 -448 -291 -35 399 385 -22 237 156 481 363 -37 -209 -209 235 -491 -497 281 265 314 279 267 -365 267 -233 -435 102 318 -447 56 501
-246 -138 -499 372 -388 -153 -207 -156 -69 -27 324 -137 45 -177 -230 417 373 -19 -19 391 -364 -66 -330 -407 124 -229 -415 125 -82 -66 -314 -421 -373 40 196 -471 -165 198 -138 -312 471 172 126 510 -443 14 -398 489 467 -477 483 418 -448 -325 -420 50 264 491 137 -240 -401 52 -202 -392
251 305 474 248 -87 102 -299 194 170 309 247 -14 457 -108 88 246 -171 -335 95 -429 475 173 340 -267 -288 -471 325 224 340 -459 -145 335 -280 -400 251 173 -65 -15 -363 121 -222 358 263 -230 -64 339 -100 434 -335 -263 -180 11 -501 -490 497 41 -13 -91 -449 233 76 -438 -497 302
-97 -152 -185 116 -283 -503 -297 -181 303 241 -488 106 -237 -304 -445 359 -14 -381 168 -229 440 -223 431 -117 43 -120 483 452 -308 -292 -123 213 -441 383 -147 -319 396 -398 -315 243 412 285 317 178 200 -371 457 -369 -327 340 192 186 -131 26 309 -500 309 176 323 421 -189 494 38 -486
150 -410 -248 -245 -101 -354 -51 469 -157 -497 -7 -317 499 -385 116 -235 25 262 -44 334 3 105 25 -137 -242 402 -39 290 491 328 -266 -466 -486 -402 -271 -489 -281 443 -258 -184 -380 -320 197 313 117 353 -383 333 301 -226 -471 109 57 -426 -44 86 40 -27 441 -418 -417 271 -271 -280
-4 -220 -78 -317 123 44 386 301 -74 -24 -476 -241 307 -129 -510 -212 -511 -459 465 306 41 83 -132 -162 275 132 -422 -85 -180 -6 -2 59 331 -21 396 -34 -49 88 -348 -3 187 -199 480 -415 -179 342 197 -322 315 178 -302 -144 506 464 368 -96 411 -375 -287 -342 270 6 -133 457
-81 -439 159 206 105 -377 -412 -459 170 447 -384 -428 -247 217 -435 -9 346 125 114 163 -412 276 -291 184 287 -348 -177 442 368 -312 466 499 252 -108 346 25 -352 -81 170 56 386 225 -176 71 128 340 -271 -335 385 377 261 -371 17 -478 221 445 254 -290 -178 -365 -308 -12 -99 273
461 410 322 -267 482 295 136 -406 -395 -105 -201 24 -125 -117 128 -417 -9 -478 422 444 335 203 225 390 150 186 -258 262 -432 -14 -498 211 336 339 -194 -436 436 491 234 42 464 13 -99 401 133 407 476 302 262 179 -100 192 510 410 -138 -55 470 197 -357 -124 -392 325 449 -403
23 319 236 75 117 485 81 -208 -51 461 -10 -42 98 356 158 14 -100 222 362 -151 274 -190 -297 401 446 330 -148 36 305 -221 -183 470 450 476 283 -441 274 491 -129 -290 -346 69 -487 228 284 -453 -100 -81 -98 -446 -62 -249 -39 132 -199 14 309 22 108 19 232 203 193 -159
183 -64 391 320 352 491 -462 -74 423 -353 28 -497 510 -396 -380 -60 -364 -137 184 -454 -400 442 -240 -388 167 345 392 -426 -255 -265 281 -418 506 384 309 -321 207 1 -311 89 33 412 -154 -470 353 -118 -343 67 188 83 504 -456 -422 426 -203 177 -460 8 -48 -165 -73 56 76 19
-47 -100 14 -33 433 249 413 286 201 381 -460 172 75 60 -508 -104 35 -501 -62 -374 -416 -387 429 340 -505 -36 136 -136 262 -182 268 94 103 -141 -410 -89 446 22 -363 -263 -309 -489 251 -408 114 244 -416 -214 -174 -239 252 176 -102 -54 -428 441 -202 -17 -373 427 449 -286 -252 490
320 49 196 289 147 340 244 -3 141 232 205 115 142 -319 -496 234 -340 -412 494 389 -50 41 108 26 53 470 -17 -195 233 -141 -409 503 -58 124 312 263 1 -162 -179 -275 -503 -252 66 -398 66 -381 -409 -338 265 418 216 -412 -148 -365 -499 -282 128 298 87 100 208 179 321 383
423 -472 -295 -35 40 100 394 -323 -109 246 40 -354 468 -26 292 -483 -406 368 139 -207 -301 320 211 49 148 115 -192 139 154 -303 163 -310 108 82 -305 456 26 158 485 0 -472 239 360 249 -140 136 -328 -498 -237 -280 210 189 376 -193 -247 208 432 -349 -2 348 226 -56 472 -443
-52 -475 -254 -302 -463 -415 -387 220 48 502 173 -65 42 -25 -454 447 349 230 184 -53 179 -84 194 -437 405 -381 91 54 460 -196 -389 -504 54 76 -60 -361 -397 -116 -229 147 283 -92 -417 -336 198 484 474 334 -10 -279 -406 443 55 164 20 -44 294 197 -136 -171 -439 -215 -33 -67
-380 110 339 -252 152 -377 351 -387 -301 64 39 197 -85 -226 293 282 73 401 193 120 176 -198 -276 -284 0 -124 193 -155 14 431 -448 406 -497 -69 -377 144 215 223 188 491 121 221 428 -296 482 -239 450 25 -30 -509 298 -188 -312 420 331 -392 -26 409 -394 -185 204 200 -50 -355
199 54 -361 -434 23 471 216 239 -504 420 -238 85 126 -80 -413 -412 403 86 453 -128 -60 -8 211 492 449 -142 -6 498 270 -180 -80 85 467 -371 219 111 261 -472 -392 176 -115 -288 112 91 352 42 -308 -472 -361 -320 -110 -425 78 -415 476 351 -244 85 460 -3 -161 -168 -435 -475
-432 436 455 -112 129 -115 -335 72 -124 503 -506 50 493 45 -353 486 -170 -270 -186 -194 157 -273 -491 -335 324 1 -141 -382 416 -336 141 179 -469 92 445 103 279 371 -75 399 -165 490 -509 -403 94 -123 401 410 399 250 2 262 -504 -430 325 -348 337 461 176 -238 -85 303 -52 -84
-183 351 -466 -3 -157 -140 -65 -159 -386 -171 104 -360 -449 15 -498 -509 143 -36 -288 429 -248 90 -390 59 -417 -368 -149 22 52 154 -105 38 -52 -211 -313 -235 427 -199 -291 169 -105 -253 96 50 72 242 54 512 -88 -348 155 -81 -241 457 365 -216 -319 261 223 -312 364 36 402 490
284 151 481 447 439 -164 414 -144 200 -236 -122 -109 138 -353 -222 -400 437 483 -89 276 -140 -99 -287 -272 511 48 196 -25 380 -334 -369 -252 217 -1 -202 276 -166 -322 -236 105 -333 448 320 -111 -145 364 165 443 -225 482 33 97 238 -174 80 -289 -336 -474 218 -76 502 343 82 -251
487 -51 419 59 131 480 354 -221 -98 118 475 -195 -257 453 -43 481 -498 126 -212 -89 215 79 -489 -45 86 63 71 -360 -31 -465 -82 -262 -218 382 -380 -197 318 465 -19 93 387 10 348 257 336 -489 -14 89 -461 -466 84 233 498 -432 -50 429 69 500 499 24 -69 138 -101 380
-260 -157 46 -261 -324 248 41 68 237 -309 -76 209 233 163 -117 359 -144 269 474 -227 -506 460 157 267 -167 -109 -56 266 280 -308 -417 -304 407 -283 -199 -48 -89 485 -168 143 132 -148 461 -29 -202 -218 -400 198 -167 397 -28 -90 -318 447 -380 -245 -362 -263 357 21 -303 508 217 -217
-267 429 -449 162 -352 -103 -81 137 -113 -69 -37 -43 -23 72 302 442 -105 -512 504 224 65 15 96 -364 -153 -474 -181 -290 -72 99 -304 -493 -264 21 303 -474 380 -385 -204 181 161 -284 -39 -256 80 422 495 -258 315 445 -467 -459 108 -216 492 -438 426 -171 -356 -398 -159 -269 -135 69
-169 -15 -176 76 -273 -78 324 418 -188 27 51 233 -94 -321 106 105 -315 475 -110 -484 13 224 -404 -217 -285 286 -106 -149 297 500 -222 -337 390 -492 -136 -9 419 -36 10 -317 69 -360 -353 12 389 -213 124 -137 282 -331 427 320 -294 -332 64 378 157 -175 376 208 420 444 198 -126
-313 210 -269 -224 -135 -425 72 -253 -247 58 283 -479 -412 -341 -502 -413 47 180 -185 -146 183 -32 -180 -162 -337 -249 484 -511 -257 226 231 24 -75 215 13 146 -295 99 279 -398 -486 158 112 -484 92 -281 -333 388 467 323 244 -402 -488 -101 -327 -286 -215 68 93 -275 88 -303 -403 67
-236 -440 460 -235 327 30 84 198 -151 12 60 -190 487 437 290 -392 464 142 -224 -157 447 -278 -158 480 -33 66 -138 478 29 133 -243 -29 52 283 -191 132 375 103 -333 63 -16 266 -227 -117 -128 457 -188 11 489 296 -437 -186 427 272 -76 420 -306 141 503 71 422 -54 -338 275
57 -157 179 357 -371 234 -235 -167 484 370 416 314 -371 341 -264 -54 488 217 492 -261 -72 324 -354 -249 265 48 132 242 467 -242 438 480 51 103 -298 -216 188 45 374 392 -37 483 359 -174 -40 -397 -135 -45 377 285 -348 -489 422 459 36 -398 504 -501 -295 376 327 -160 -346 453
-241 -12 -332 -71 338 -169 62 445 58 -107 -427 -468 270 354 -444 -511 -40 -280 88 468 6 115 -161 273 353 176 -272 -497 -201 250 -442 113 -162 -95 -247 121 178 -324 473 91 -109 123 417 -257 -326 -412 306 400 186 83 -420 218 438 -172 116 66 46 -390 -238 382 -263 -461 449 11
396 -443 481 -170 278 -90 267 -76 -496 72 -4 -202 -125 263 505 -165 445 320 233 162 9 202 137 227 -298 425 82 -306 -425 312 52 289 -140 -366 -106 182 -367 -122 24 -269 -148 35 -52 455 -421 9 -98 117 410 462 -472 -71 -491 -156 79 98 -345 -458 179 -179 481 216 228 -161
-199 -286 -303 -314 -289 34 302 -162 240 507 159 -66 137 -446 217 483 -193 -422 441 -440 -16 -445 -494 465 -317 -285 -61 -24 -142 1 391 109 425 180 43 -294 117 -263 18 -281 -258 44 399 -267 281 -114 -261 -249 -219 -208 -268 291 197 485 440 164 200 -329 66 84 -173 314 85 444
-148 369 441 -105 485 -27 331 -37 -195 -195 298 131 -468 -163 233 380 423 415 -234 163 -106 -102 225 -153 -262 -368 311 399 -316 -97 317 -467 398 -279 491 334 -42 27 23 -432 -466 508 -64 129 164 -34 355 128 334 -441 -228 -505 -173 437 -80 -444 69 224 285 358 482 394 80 216
-176 -512 -240 46 -432 109 -206 79 197 -167 227 -104 -267 -328 127 159 -159 445 -35 -408 13 161 481 0 -62 115 -55 -228 -98 -418 -276 -285 -1 33 187 -442 460 475 30 -289 271 202 205 -359 -482 -129 158 246 5 -154 -389 230 -281 -226 375 123 -417 169 -286 39 470 109 508 7
363 427 -114 202 -109 475 -189 8 136 202 -120 87 34 -487 277 10 172 34 -220 3 104 -97 167 -148 280 -416 13 224 -280 -61 385 -123 199 -346 -425 -7 -308 -151 445 274 388 -142 -144 148 -373 -381 -406 -430 72 -343 154 -223 88 -319 14 -210 -149 -67 117 348 -409 108 -414 370
-157 302 271 465 -188 387 -302 -412 295 322 48 -197 -419 -129 211 -496 -283 -324 -355 209 -413 107 132 431 -334 -449 -116 -25 42 446 -412 -349 -474 269 -155 285 290 450 -201 133 249 -188 -420 -307 -54 415 -140 -406 -326 273 18 138 -281 -435 236 88 447 449 79 -210 -400 296 34 400
-54 -201 339 339 -91 351 414 -396 159 -207 -398 -418 354 435 301 -434 454 -233 193 -238 -59 429 418 191 142 -65 11 -438 4 502 476 -309 -38 -291 -456 -92 158 -7 -224 -238 251 418 147 175 250 230 -66 155 265 289 175 -216 43 -68 309 389 -509 -273 511 309 -400 -273 -57 -157
109 452 -362 -46 103 -119 181 307 -470 -188 -444 482 -200 505 359 -402 -51 -363 354 482 -141 88 -50 225 58 -23 466 -298 -415 -421 493 -285 448 487 -352 218 278 312 -25 -503 176 -137 -66 214 226 -132 -205 104 488 -424 397 -291 509 -142 -77 -144 47 102 -262 465 145 -155 487 -192
311 225 -5 358 -478 -112 423 -224 -8 325 -490 214 64 459 177 -373 293 85 133 -416 -120 -368 -419 -403 -53 237 180 477 -9 -207 251 66 247 405 -413 221 373 19 -35 -161 479 -484 49 -287 -161 278 -387 -258 235 436 222 170 -195 -46 256 399 12 -111 325 472 110 263 -204 -348
-285 -421 -218 -112 -57 -387 240 109 -148 331 -82 219 -91 -113 164 22 -59 -247 197 406 424 -59 -179 197 -382 -386 133 -20 257 -232 -26 -234 -311 458 -504 110 161 -163 445 509 460 -175 -85 -503 404 449 86 -283 393 26 306 -260 366 -491 -264 177 -267 -366 -32 440 -479 419 46 242
256 -19 -143 361 -114 182 223 165 230 225 312 -466 -183 -253 -198 -109 -196 404 -361 -167 92 -253 443 -81 -27 463 456 439 -503 -55 -365 -251 497 -100 -97 -15 -215 228 -394 115 498 -15 507 -511 414 146 -395 105 -409 251 -426 -108 31 506 -187 -34 419 261 -320 295 385 -390 450 -233
113 173 -54 283 109 -330 22 -19 -106 304 -60 136 38 -91 -430 91 -24 132 -424 390 -134 459 -75 427 -75 -41 227 -206 -270 -298 375 -80 209 157 -21 4 291 -157 -326 83 -364 -441 -210 127 -8 -42 -200 477 -87 -205 -194 -139 -476 173 123 396 447 -426 -240 405 -405 391 -344 338
309 -471 -173 87 162 -284 335 71 244 378 -102 35 -431 77 -13 -279 -107 68 -354 416 396 -233 -80 -418 171 -128 385 17 -155 -406 -294 -28 83 388 65 425 171 -233 153 67 310 85 27 -487 -292 37 441 -368 -51 427 424 208 -30 30 504 -500 40 -119 58 489 383 358 23 455
-216 320 325 194 300 304 -424 372 258 29 491 417 238 53 73 -334 371 -111 245 -459 143 293 390 5 425 489 -146 74 -69 175 -500 -298 -313 -301 493 -153 151 -130 -356 58 485 -355 384 -36 -191 -389 253 -446 460 -376 -151 -493 -167 -343 -127 -112 -73 -310 -190 215 252 -475 333 -427
357 453 277 -201 -462 274 153 -504 -294 37 463 -93 -63 -130 -36 485 -406 10 70 355 -192 407 82 -124 37 289 169 -181 89 -148 163 -153 8 169 -326 -24 291 -337 203 126 -12 52 239 -285 449 -267 -66 6 -272 435 235 -321 429 -168 48 505 41 -455 -447 -145 -321 -436 15 426
332 368 175 -239 330 258 -93 -447 -445 322 -361 -85 458 -1 -265 296 383 -105 250 -359 -187 -163 450 173 91 -329 -13 -393 352 -177 -350 394 -503 -319 3 468 450 -373 -477 -307 -206 -245 -257 489 -363 -373 335 -359 267 426 -206 145 -16 -294 -275 310 -317 99 197 -214 100 -74 83 -188
302 276 -184 -353 -224 -308 309 432 -129 485 -500 9 441 254 164 386 -73 405 -125 347 -147 -16 -228 -491 462 -379 461 37 -355 306 66 -276 -272 253 51 -145 180 -414 -198 78 -13 502 -306 -475 -234 -177 343 -179 50 21 -378 75 -457 -155 -172 -278 11 452 -383 276 -23 318 -231 163
