274 -15 -353 -90 -17 -258 51 57 215 -191 -209 138 318 237 -176 226 -262 134 -266 325 360 -247 257 -142 211 184 319 -40 -131 204 238 223 345 -358 144 -111 -124 -144 -122 167 -232 -67 94 233 176 -257 -266 68 -254 114 59 -207 -177 -277 186 216 136 -131 -291 230 307 -212 -61 352 304 308 -219 -254 -97 311 -14 -68 320 201 24 207 -139 -359 137 -232 -129 -177 149 -25 -100 -277 255 -114 -46 276 -339 -280 341 301 -141 -352 -20 -14 -71 313 337 -189 -49 210 -308 -201 -65 110 -335 91 296 -28 32 230 -314 80 -190 -188 -285 230 -154 -184 337 -338 -179 -324 142 -46
-5 -338 -340 258 -38 -57 165 -247 191 254 226 -24 235 75 148 -285 -169 -160 -105 -329 221 268 341 115 163 -287 116 -257 28 347 122 -145 -55 -6 -346 -189 343 328 110 -322 337 238 315 222 -114 239 293 156 141 309 219 -209 -128 140 -169 285 -17 -304 -67 326 1 -215 -211 -78 -67 -262 276 22 -112 -221 -295 -14 50 -40 338 277 -72 205 -37 -195 335 -322 -160 61 -28 93 -146 -85 213 -200 -46 -161 218 -141 237 -186 234 349 -246 -17 308 255 -19 110 -248 168 -188 -335 206 34 -336 154 51 219 -281 140 81 359 194 332 -190 -206 -352 213 310 -296 -87 -49
-249 -311 254 316 115 151 24 -56 -17 -236 110 345 29 57 -15 -241 321 60 -356 -222 43 -41 84 -130 153 -283 174 -8 272 -325 219 317 -112 -158 -137 -269 182 42 1 43 -278 -195 -126 302 256 8 128 -113 328 -192 -114 -30 -79 -137 85 -204 6 -252 -294 -263 -16 341 291 254 152 140 -76 361 4 -141 135 -58 -279 159 -139 -212 -180 156 -201 261 201 26 185 245 122 157 236 -77 212 -149 168 132 101 335 228 -361 5 -147 -33 -290 -233 -74 -279 -331 -316 128 255 105 356 -175 261 49 86 25 -198 71 134 69 180 10 -329 86 -273 -237 315 -151 359 -328
-135 185 41 36 257 331 -325 -243 -9 57 170 -168 -317 217 -218 -240 -329 87 -324 -227 350 154 -282 -84 292 270 211 -290 119 -241 -24 55 288 -217 -355 -326 -150 92 -192 -129 230 -193 -68 -256 -97 233 138 250 -206 -230 -339 -95 209 353 -181 200 -303 -59 10 207 -84 341 -88 250 194 -49 13 47 315 326 79 -44 7 200 -328 -180 -66 -131 -45 242 137 246 -242 -275 77 -224 59 308 9 29 -206 80 -166 -179 313 87 -178 -48 -224 99 -46 166 -349 249 62 -296 -21 355 -94 -29 262 112 -85 -246 172 353 20 87 74 91 -48 190 348 8 -129 -126 0 333
260 15 343 204 297 -322 -95 92 -331 -253 -148 246 245 270 256 -166 224 -92 86 -316 40 -31 -354 -296 142 127 100 92 -3 -20 126 -14 55 186 -328 4 -84 320 -347 -155 -72 2 -247 -35 343 -189 78 -92 225 210 -81 -99 -115 -193 64 -327 328 288 228 291 280 -157 196 -68 333 330 140 -75 283 181 -340 88 -360 -59 264 226 176 178 206 -345 -302 213 -159 289 322 -105 359 -201 -138 -333 299 -86 134 -26 -285 -121 -177 284 283 -327 -324 12 128 75 304 -242 278 37 -287 335 -215 -41 244 -311 -8 -343 82 -238 221 -349 -39 -152 -198 334 10 -327 -294 -83
-328 -289 -52 -358 -328 313 145 264 -22 -69 9 -294 290 -186 -252 128 -296 -352 79 25 -280 -109 -114 31 98 -327 141 -140 283 90 -67 314 -154 -283 111 289 252 0 -275 272 263 42 -316 146 -77 221 -148 -192 -122 160 205 -96 295 83 -128 -125 -188 73 -129 157 279 232 -23 -116 98 -14 -22 173 128 -309 22 -37 93 -272 311 289 -196 -244 70 137 -185 -157 -25 -145 -328 256 -262 -177 361 -174 43 101 107 129 245 339 168 343 94 -21 -137 -323 -216 -16 247 -167 224 89 26 87 -317 -275 -195 -346 311 251 -344 351 -336 -284 -184 335 -37 112 -66 -126 -11 144
224 -200 -109 -199 -47 56 -30 -235 -59 -285 -50 -208 299 252 92 -133 1 237 219 -313 -73 74 307 110 259 -269 275 297 -246 -179 350 253 -146 -351 -250 -283 280 78 155 -65 -140 259 -68 91 348 -322 193 231 1 164 -286 300 152 -161 23 220 275 3 -116 -184 -247 61 184 302 -293 182 321 -57 248 134 -290 -185 279 -204 3 -7 22 70 -306 5 -152 -286 354 -6 -337 -56 -316 -71 -286 -122 -115 -336 -84 -123 -85 60 -233 8 -311 -49 240 56 319 -212 310 -215 -331 -98 -236 274 -29 332 116 -156 305 213 -179 -94 -192 -61 104 -209 68 -4 -9 50 327 -104
-350 -281 263 188 75 -220 -80 -245 217 -327 311 150 240 259 -79 263 54 192 9 -194 -216 -135 84 2 -126 -312 -11 197 -35 193 -200 -130 164 -271 44 -69 84 110 2 232 -36 -209 -343 323 113 104 316 137 315 -315 -239 58 -350 -198 137 -10 -216 269 -62 352 184 208 -229 15 -180 -200 116 334 -146 -174 232 -18 -119 -12 6 332 129 302 -38 268 -281 91 82 -91 -302 -299 -54 125 178 -334 24 -160 -26 -17 25 -226 164 306 1 -236 298 -309 -253 321 278 152 -261 -21 -223 -297 317 118 288 -170 348 -336 -189 -279 -188 -83 292 -325 116 293 314 -171 151 -343
-63 142 -67 110 -66 88 302 -216 -344 150 -231 286 -205 -221 -29 134 -256 -342 -72 78 -232 -274 61 324 -151 273 -197 -35 64 -285 -296 -273 316 313 54 -298 -106 -5 -196 -342 -221 211 40 199 -145 -326 211 -280 -40 357 276 135 -87 90 72 309 291 51 158 225 239 -198 -121 -176 -285 -157 320 126 -311 194 -96 -177 343 -154 103 292 -53 -4 -356 -275 32 361 302 353 -313 8 172 337 -236 -72 335 -295 -134 -63 207 -237 -162 10 30 -183 143 -311 -99 343 -202 139 -24 11 112 -12 -120 -110 -331 291 269 -297 246 82 -42 -243 -341 -346 -320 86 49 -319 -323 355
198 -146 -245 -127 -108 -140 321 -302 -203 54 119 -52 205 -28 227 69 356 -187 -272 -320 -149 306 -60 -94 -187 326 -62 340 -14 325 -57 -167 42 263 -201 200 99 346 192 -215 -57 72 31 103 108 -188 258 -14 -77 88 -108 194 22 350 67 298 307 -271 -213 -260 176 189 -48 -297 -149 153 -159 -336 164 -263 -256 -199 -109 -215 -225 334 -205 -51 -55 287 317 -25 22 -245 181 -9 -284 104 84 28 -54 -194 -72 210 13 9 164 -45 -311 -23 313 98 -114 120 293 -269 113 -201 -247 283 -87 60 104 75 -304 -142 187 -37 50 144 -237 307 191 114 36 -30 -192 -201
-243 -318 339 -78 -342 -300 123 -3 75 328 352 -157 -13 105 -287 87 -135 -86 185 94 206 -156 55 -94 -359 123 -152 -306 -277 268 206 -252 -61 287 271 -82 -219 68 239 -351 -73 94 20 139 262 -290 10 -107 320 234 -21 -13 -264 -255 344 -305 -251 171 240 164 -73 -342 50 243 40 110 -277 137 155 253 271 343 -269 299 302 260 -215 -65 -100 354 310 347 -121 -309 -121 211 337 -264 267 73 29 -143 331 -294 182 14 -49 305 -273 325 93 108 351 230 136 -52 -276 -342 37 -67 -209 -127 -337 -201 -79 354 -331 -46 -176 110 225 62 -320 -310 -61 179 -135 -259
67 -142 -216 -225 254 -164 53 -9 -83 -291 -332 356 75 27 149 103 304 61 -317 91 312 -341 -144 -51 -48 234 40 -178 87 126 180 355 -345 0 -98 207 -141 -327 -161 218 144 -69 -290 238 -81 -66 -330 85 -242 230 -346 176 72 -130 -126 -111 -174 -15 230 -201 -23 -235 318 343 -336 239 208 -39 100 149 177 -145 36 183 -202 126 -269 51 -79 -222 -344 313 -4 -73 -362 199 -162 303 302 187 100 -29 -120 176 345 120 -113 49 -46 108 -294 57 -113 84 -117 108 -47 -240 -144 -337 328 237 -236 -312 111 187 -220 -309 -308 234 -125 338 -65 -260 174 -69 -220 -156
322 -136 -9 -23 22 -342 117 190 149 -96 -274 325 -76 -320 334 259 14 -241 -286 -116 -154 -227 -325 163 158 278 -332 292 66 80 321 -335 342 187 -26 55 -348 -264 153 -243 126 -295 2 286 237 256 306 -267 -169 -206 323 7 19 279 -351 -12 -68 151 -149 315 237 200 270 187 316 -362 64 -5 -264 216 99 331 -305 -17 53 -346 -360 -256 -308 -141 170 297 11 -252 -332 10 168 -28 -224 335 -306 94 324 92 -288 -126 39 38 7 211 -168 -80 61 29 -269 -176 69 91 -244 1 -17 149 -138 -243 18 184 268 -320 -111 292 -317 274 -121 -215 -222 -232 -257 290
264 -319 -279 129 355 -91 -140 -216 -318 65 268 -28 0 37 193 -7 -219 127 -67 169 -1 -28 -48 185 197 351 354 -329 -39 -288 128 213 -280 57 -197 -26 199 -200 22 -195 -9 355 293 64 55 -136 192 69 -32 300 225 299 -21 -10 154 -268 18 191 231 11 -20 -355 349 258 88 102 106 -284 231 -292 139 -276 95 142 -170 30 220 88 141 -51 319 -360 144 -237 -155 -237 242 233 236 -346 322 106 -88 -348 -150 221 172 -252 -265 209 -198 -357 42 -51 69 360 -344 -359 280 277 -309 73 57 289 111 -180 48 104 -300 331 -51 280 -9 -14 78 67 257 -204
111 108 342 93 222 -107 -199 -294 259 -234 19 193 -103 126 290 -97 59 14 -223 -220 250 -70 -348 -167 -183 343 -337 92 74 -217 85 -39 -130 -334 20 67 52 343 101 328 129 186 309 108 116 -284 248 21 -104 -14 -142 185 -42 148 -101 1 73 52 37 84 -148 165 304 19 116 1 -332 -64 200 220 223 -164 167 -29 -131 175 -42 31 23 -308 -108 330 6 -40 272 -197 -30 6 -197 -291 -306 -146 167 -55 -227 141 -183 332 217 254 -191 -93 -279 214 55 289 -317 -46 351 -357 334 -286 -25 -297 -115 256 174 80 -184 -335 215 22 -108 -40 -307 -82 188 -343
-156 134 17 -162 66 -210 331 51 133 288 -345 -215 -179 123 330 -358 -196 -220 -277 103 227 -268 272 294 50 339 315 147 -149 -35 -145 -109 32 240 -93 326 310 -290 16 182 -85 247 -162 43 -226 -113 -231 -36 -88 25 -224 -216 25 -191 142 146 128 190 40 -12 -107 286 15 221 -231 18 135 -141 -195 329 -274 181 -98 58 241 -92 -87 -343 207 140 -296 -99 313 -302 137 -119 -309 92 146 -331 -245 181 -7 -320 -83 258 -103 151 350 -40 10 359 -303 15 144 -14 222 -185 77 -281 -132 -67 -127 315 141 236 -209 -180 -357 111 -298 -151 282 71 218 100 -110 9
206 -356 135 37 -58 230 -139 -329 -54 19 -54 45 270 4 -167 96 -149 203 82 345 -319 152 136 -33 160 321 323 -195 40 39 9 -129 144 69 -14 148 -289 -337 -175 -196 -1 -205 198 -203 60 62 -347 162 148 -277 216 -189 -9 -73 -138 -321 137 355 -145 129 -182 -14 -294 211 -80 -93 -211 -76 -300 285 358 340 -86 231 325 -154 243 244 -312 -177 280 180 311 295 320 -236 94 177 -188 -204 -133 -212 112 225 -281 44 319 -39 -9 -85 -55 -169 -214 327 110 -99 38 -281 -305 240 32 -240 297 -214 223 -56 14 37 -203 -140 -257 -7 -91 70 127 2 118 -185
-124 244 -25 72 -308 171 -38 83 41 -226 -307 -19 -14 -318 224 314 199 -197 86 -338 -43 -221 272 -144 14 125 -130 237 -250 -305 -72 -205 -64 58 -9 -153 -8 -66 -337 14 23 -288 -33 350 96 12 -78 -351 -136 -354 296 -355 130 57 57 -16 282 254 113 -216 126 279 -210 33 -48 -95 -14 342 -246 180 79 -281 -93 -312 -204 -224 77 -97 77 -143 209 -82 -4 142 -346 -7 93 149 -170 -216 48 -283 -13 319 60 113 85 -73 -77 9 16 261 188 -163 142 53 -123 -306 -270 -102 172 91 225 -171 165 180 192 -190 249 -172 344 -40 -359 -101 316 149 214 171
272 -346 -106 271 -321 -321 -22 -324 200 -149 -197 119 150 -70 -71 -282 312 -340 57 223 182 -189 -114 261 62 332 305 195 138 -186 104 -348 -197 -114 -304 -74 -297 285 -313 -190 35 -323 56 -331 -133 166 81 -241 345 205 -90 -337 140 -79 64 -305 -51 51 -297 262 -8 -216 273 -83 145 -188 -350 264 -40 73 -330 -159 187 49 130 -284 28 111 -159 -351 190 176 -331 118 -144 -28 227 261 -296 -59 320 -270 145 328 315 231 163 336 253 -123 -105 -142 -24 -125 310 284 -49 85 -301 338 97 337 220 176 89 -302 -322 -183 -120 85 235 169 63 222 -230 304 -235 -83
21 189 135 178 -344 -100 -16 -236 342 54 -294 148 -195 -358 131 -288 333 112 -12 275 194 76 -274 -44 43 149 11 -225 245 -313 -83 51 17 340 290 -351 158 284 -183 -98 146 -283 44 -335 -168 234 -115 -246 322 334 73 75 -103 244 236 -256 258 -330 295 -8 -94 -356 -242 123 -232 -145 289 13 69 105 -243 311 37 -66 -266 -99 -197 303 -339 -346 59 168 268 -355 -269 -160 360 -154 113 -340 -309 89 -212 43 -115 -187 330 181 -31 -75 192 142 -259 -150 -131 -21 -23 357 305 -281 154 14 -356 40 180 240 51 43 66 347 -258 -20 290 220 238 62 10 -132
78 318 171 -54 274 -53 275 -246 -158 9 101 335 1 53 361 -330 -92 167 -251 -55 -34 -75 -86 193 174 -338 -349 204 -95 33 241 -332 -9 -181 -170 309 -223 14 -118 -217 162 -68 -233 266 -4 -218 317 -41 -33 266 -96 5 236 314 -161 164 251 -206 123 309 302 21 208 -66 242 343 309 203 137 213 -307 296 310 -237 -360 -335 -329 128 -281 -186 274 233 -218 77 -276 263 -142 -62 169 197 55 -102 -330 187 324 -217 32 152 -156 -174 -108 -230 -140 96 232 133 306 -334 213 16 232 110 141 -288 -122 -316 -290 262 97 -226 -118 322 199 -292 -291 -188 359 -292
-70 -2 345 208 -289 -183 -12 287 -179 355 57 -174 186 -216 87 -243 143 16 -241 -218 83 -317 -13 -157 41 323 55 -112 240 295 -147 -155 -312 -160 144 168 118 288 241 -223 -188 -326 -35 321 -195 242 -126 92 356 -134 122 -283 342 -157 28 -64 -293 -223 125 185 -25 165 262 -219 -359 -258 256 -132 43 58 223 214 157 271 228 295 122 280 -166 280 -81 323 41 29 -260 143 -344 -247 -343 -40 -38 -87 -198 211 -22 -211 248 94 259 -337 203 -189 -218 -185 193 -16 -185 261 -229 -262 -110 -116 -243 161 -96 -164 306 -228 -117 219 -145 -277 310 -204 -144 -72 -18 50
-13 -12 279 41 -3 349 271 181 -250 54 91 -18 304 -137 -138 -264 292 326 283 238 187 -59 160 197 -76 254 -31 -262 42 -354 229 86 -118 -120 -33 -64 259 58 339 360 81 148 -351 -69 -108 -9 -361 -147 -173 -287 -47 340 -335 -84 -21 -221 237 291 12 325 61 -62 -161 279 317 -29 6 -165 -317 58 52 163 -172 -328 245 -248 182 105 -203 -198 -307 327 280 163 140 341 -96 -144 259 -166 -149 -68 -349 -158 224 15 123 -55 17 -350 -157 -241 69 -77 -154 -311 -77 15 235 -338 -156 -172 -250 205 175 99 146 -328 165 52 -217 326 -115 45 22 269 225 175
-149 208 223 146 -308 30 45 -106 -185 89 -122 107 -172 298 252 334 172 -252 -211 -174 -243 246 31 321 -326 165 -50 -297 342 99 110 67 -50 240 -186 -241 220 -295 8 -292 98 -348 262 233 72 -223 116 -356 191 146 49 -253 -16 -183 -269 -202 -95 -262 1 33 -232 -176 -318 256 224 -324 265 91 262 -58 -174 341 -339 226 -245 26 298 187 -318 -196 -61 -97 108 -201 248 277 -30 -250 127 161 -255 -120 -23 -157 -112 230 232 200 -273 -158 44 -210 272 -334 -300 -163 174 65 193 198 197 -300 -201 -143 -7 -247 -126 248 248 202 -300 151 11 -213 -71 288 -70 -108
-282 196 59 141 -91 -156 168 -107 -63 -111 -4 -256 -274 15 91 86 30 -5 58 -257 86 232 148 -272 285 -11 327 -163 227 62 71 132 -222 -255 125 -162 164 27 -285 -172 -53 347 -54 57 -104 56 152 19 267 349 -204 -300 301 -127 -12 9 353 -215 -185 228 108 351 255 38 -114 -358 -263 -66 55 328 281 9 44 -143 -267 170 359 -74 121 -349 92 -295 -190 271 292 193 -279 45 117 261 -43 125 348 -294 -318 144 307 294 79 -126 102 90 220 -276 -316 37 81 -190 -28 -99 -265 -332 180 313 -126 -215 -321 121 -336 272 294 -289 -148 25 264 166 54 350
287 -33 164 253 268 165 255 200 186 -345 227 146 49 -123 28 157 37 -269 -191 174 65 -82 -86 -359 -337 164 -149 -302 325 -318 185 174 -294 137 -124 327 -347 -240 60 -258 19 -260 -272 -288 253 40 156 -108 -48 -147 -214 -263 -80 241 315 322 -104 62 312 -209 -68 229 345 -68 -122 19 2 -95 36 126 94 -12 -294 37 260 291 4 116 -265 357 348 -19 123 -105 84 91 247 -211 188 151 14 298 98 -142 18 25 143 -338 192 327 22 255 -30 33 332 336 177 -268 -198 355 211 31 162 -343 332 -36 25 182 267 193 48 -55 -36 -85 143 -142 -143 68
-116 -127 -47 -242 285 188 116 -174 82 -21 -268 -360 -39 -237 -171 241 215 68 277 330 23 -64 -361 -112 -235 164 28 266 213 62 168 -194 -18 -255 324 300 -320 245 219 255 -305 317 -36 -242 -103 -163 -227 -97 62 79 125 -100 189 -113 -8 -146 268 55 -146 360 -190 -249 -172 -305 -163 -311 -130 24 216 39 -348 -42 -235 154 -286 -31 3 33 21 57 -3 203 -223 194 -111 47 48 -105 -238 -283 261 68 246 -277 -357 -87 -203 -234 147 285 350 151 34 303 -77 159 75 132 -300 216 273 -149 -349 -293 -214 -257 114 202 -67 -225 201 -302 219 115 -165 111 1 -66
-143 -63 133 333 -153 336 -175 80 343 44 355 118 -174 340 345 -187 -351 139 114 252 295 337 -303 -204 24 -213 325 62 14 -184 -270 -260 -180 222 -76 -344 172 -44 292 190 -304 110 -27 -52 315 -246 77 -293 220 315 147 351 -128 -124 -110 286 222 -60 -287 -219 -14 332 -81 -181 162 -270 108 314 282 -324 204 -166 61 -119 -48 68 251 -315 -350 -291 -18 136 -157 -340 -193 8 -356 -329 -99 92 -76 41 -289 -359 302 105 -101 -289 -167 -162 -82 341 -248 282 -275 -276 -65 138 190 -179 -172 300 288 60 -252 -193 97 -20 -119 94 244 151 297 18 173 -306 136 -249
123 -300 -18 -226 -252 -343 -230 -267 154 360 -259 306 155 329 -103 116 45 -317 113 353 -42 237 101 -96 -265 67 125 -243 -124 -343 -270 211 247 -167 90 22 153 85 68 312 117 -147 -167 41 -128 220 -90 80 -282 -303 122 -23 92 -354 249 121 19 -342 -6 -152 -13 70 22 62 217 9 280 -246 189 -19 207 70 -55 39 -204 -351 -269 81 -102 -179 -29 135 132 -92 -68 355 264 76 37 -252 -159 -231 210 -330 23 25 288 -41 349 284 -289 31 -282 255 337 -65 341 -84 191 -126 211 -165 -353 52 28 324 -84 -258 254 119 -320 -13 257 175 107 259 -182 -95
137 54 -70 120 -29 127 273 174 -345 237 189 -214 49 100 174 266 -108 -40 -328 -205 -168 212 24 269 361 177 218 -299 355 209 315 336 317 210 -183 335 67 -316 -123 -331 161 244 -308 -342 241 -280 -5 -11 -187 145 -35 184 262 241 -142 -341 351 38 131 281 -336 -349 309 335 187 60 -40 346 200 228 72 -63 -104 314 -71 -64 -329 131 44 336 172 117 340 234 -278 10 9 50 325 118 29 351 -303 324 -242 149 49 205 -313 -127 -188 -269 59 277 240 -96 295 264 -72 32 191 341 -100 148 -208 146 123 -136 -218 274 -328 350 -200 95 -55 -213 -292 -15
81 56 253 232 184 53 -12 -353 -323 138 257 -84 -16 285 139 347 233 -99 -67 -120 -86 -356 -124 -83 200 -229 -274 -128 244 350 -293 -5 -30 -109 86 -201 -61 6 -23 -332 306 -159 225 -92 -273 -255 336 -331 211 9 -311 -309 -154 -269 -349 209 -66 218 -283 165 94 10 -77 103 202 -348 -357 321 313 238 -211 320 -25 354 205 188 226 170 247 -310 -203 -155 349 -286 218 -241 -203 26 252 14 -323 -132 141 -323 -37 -269 8 -126 -302 105 266 358 89 -153 9 17 -177 -79 290 258 -12 -78 260 -172 -361 -230 58 -69 -323 -314 80 352 -164 -45 -342 279 -62 -115
273 -74 349 316 -99 -124 -347 -273 -100 227 -234 -151 -176 194 333 -241 -293 -238 -279 -317 -110 27 -113 35 75 -312 -148 45 -238 -285 138 -165 183 265 124 -309 70 -211 -82 -134 50 69 348 361 32 250 83 -30 64 -103 170 159 174 87 74 -91 -175 70 120 -309 -276 -241 -315 258 125 -214 -122 -223 109 -27 149 -144 288 79 26 -205 111 -76 140 -86 179 -228 -247 103 220 232 -301 191 -164 168 326 139 -62 322 228 -341 -239 100 150 91 82 118 -233 -15 -326 -182 243 279 -78 163 -40 -191 299 -350 -34 346 186 -253 -163 159 132 -154 161 92 150 -250 310 -256
-130 -127 -320 313 36 -256 257 253 -314 181 108 -221 286 -113 -239 281 51 220 114 -176 -305 -248 -106 -351 -337 162 -207 -54 -97 241 -193 152 131 -109 110 -327 -269 209 -256 248 -111 -167 279 -223 -151 -63 238 356 -220 -28 -190 -355 -262 58 132 184 -155 -176 -350 -350 -10 -280 -52 329 -205 -131 -217 346 117 131 278 -112 -263 -134 -99 -295 302 -183 -308 -72 330 85 -198 -340 -271 141 -305 -174 -152 -239 -93 7 -198 -250 -233 33 33 -80 -216 44 -155 -324 -26 -113 6 -98 3 -214 205 350 -263 -80 277 323 29 8 -107 56 -2 -143 -195 -28 201 -125 -227 57 240 -110
218 211 -321 123 135 216 -322 64 319 281 66 19 -237 -235 162 -48 175 -76 38 220 -18 -231 329 -118 -333 327 224 -120 -347 70 79 91 161 -311 -126 7 290 288 -152 -151 143 -154 205 -341 -106 125 -106 -318 -194 296 -350 52 -272 -45 -350 -339 -13 212 275 346 -106 -191 -301 246 -358 -171 195 271 179 -155 56 327 280 -166 239 -39 -142 181 60 149 -213 -219 -255 241 -242 -276 294 -305 -276 157 -211 299 -180 -34 -336 214 18 -27 -331 213 -340 264 56 124 -275 -124 64 350 7 -361 76 170 -185 -64 53 17 156 -206 47 256 -132 -34 -342 -156 -34 -182 82 -61
95 230 229 104 5 -20 288 76 7 -83 177 222 -83 -49 0 225 -65 316 -302 139 62 90 -260 -251 -186 154 113 125 354 13 -133 13 -183 -267 171 -230 93 -208 -156 -80 68 -53 -194 -29 -114 -76 -69 -273 -122 -58 -203 280 -62 220 -89 -144 -230 170 -10 -238 -352 -136 120 -334 -181 326 257 -133 -326 -271 -8 -145 118 1 141 -229 98 132 -38 -287 151 -189 232 172 -255 -204 123 3 194 26 130 93 -170 -244 -164 -135 -306 183 227 -342 112 298 -165 -91 -326 299 179 16 3 122 129 148 177 34 -201 -159 -325 -146 36 246 226 172 276 40 137 339 -243 59
-85 344 -163 63 243 298 -267 -19 286 -348 -198 -197 -99 -300 325 90 -263 19 -92 336 347 249 -25 191 354 -211 -44 -255 208 243 -102 -322 205 121 -223 35 -151 147 222 22 107 -73 31 340 -203 -119 131 -286 246 -194 324 189 -338 -191 74 108 -259 -183 278 -119 -135 149 -39 -203 205 -345 -295 -209 99 230 152 -82 -240 185 -137 34 49 -321 -149 259 124 215 -288 159 275 -301 -347 285 218 115 -17 317 -195 54 -221 322 222 295 -235 7 -298 -353 -257 124 -94 5 -219 121 159 91 225 -321 83 140 278 -299 -296 -322 -127 253 154 -56 -53 9 101 -46 -78 357
-40 3 -317 -336 -46 -185 172 311 7 -58 9 34 220 280 69 -261 119 161 -254 -356 240 -143 104 -130 -347 52 -339 94 -193 -299 311 1 -115 289 353 -149 47 150 -251 204 254 -6 -137 -52 -121 307 198 312 -82 259 -195 -275 36 262 -308 257 285 -176 86 -42 -220 159 -332 51 -32 31 -170 288 -206 17 308 -77 70 -96 -70 136 -330 -51 -334 235 318 -260 267 -181 -167 72 187 -114 -73 -138 -313 84 -299 343 -219 216 204 48 -152 -16 188 -264 217 24 -281 68 177 36 -78 -253 -218 -48 -230 -184 -25 328 -10 -44 356 -55 330 -123 -320 253 330 -60 -165 318
358 -252 38 -186 -227 302 -194 -350 287 25 174 114 -268 57 355 -21 300 12 -235 -247 -302 -256 166 226 -100 -252 -287 -147 -351 38 -138 -170 218 -11 182 136 157 -138 -60 -274 -156 -115 154 -22 342 -74 254 357 258 268 -136 -250 -139 -94 -114 208 25 -349 328 -271 224 183 360 -286 329 -357 208 -84 -124 166 -31 -283 -172 178 93 286 202 311 205 -40 -321 -186 212 53 342 175 317 360 -41 162 120 261 -278 15 -328 313 203 -342 -275 -64 -354 101 -72 114 -205 324 257 -290 -236 353 -130 -292 106 103 341 -50 -121 -276 -22 228 302 175 23 -139 129 -54 -131 14
153 244 -296 -193 -97 253 322 -66 -257 -271 -354 15 -174 -150 -157 187 -67 148 -198 -53 -149 51 -264 -156 -350 0 -319 -350 -10 -102 -44 -180 54 268 236 -312 -120 55 -105 -157 248 -122 -21 162 354 281 219 -195 351 156 -325 356 -310 -73 156 -344 -102 358 -200 -24 158 185 134 246 50 -4 7 -300 -192 -14 18 13 -211 -300 179 279 -86 -109 143 45 246 323 59 290 202 63 -229 -350 29 154 9 -208 -109 -356 12 275 -202 226 26 58 -67 239 184 -152 -245 263 23 112 248 -278 190 342 -274 -264 -171 259 351 -100 -198 -280 327 136 -273 337 264 8 -23 -287
-141 23 346 251 -3 348 -257 259 -22 188 304 -184 213 13 240 -5 -228 80 -117 252 -31 -68 -217 58 -9 -131 207 275 -1 -64 -297 206 126 305 -71 -109 -222 -156 12 -275 58 322 -331 80 297 -340 359 -167 -258 112 214 -51 273 -57 -297 359 151 -118 -240 10 -261 -192 118 -204 106 -73 -236 -279 113 -48 -152 -349 -25 306 294 -296 90 -173 34 124 327 -351 -328 226 134 329 207 -348 76 -246 2 332 -186 208 -74 -297 -225 -49 -215 -104 -44 313 -201 153 -85 -47 -257 86 57 245 -159 67 316 -112 -133 -93 -50 -5 -58 221 236 -185 -159 -284 -244 -88 24 -293
184 -42 -98 -67 -153 -121 -13 62 127 29 -309 49 200 210 9 -352 -320 22 257 -55 333 -171 -270 254 -292 -97 216 -109 -126 38 16 333 175 35 -194 133 233 -71 -193 196 248 318 325 -51 -122 -349 -332 -137 343 -185 -29 -337 246 -145 165 -116 -84 191 107 147 255 245 -9 244 -225 313 -208 -88 333 169 258 -265 -45 298 285 -232 315 -42 41 323 356 55 -13 -8 270 -16 343 -336 358 42 -344 -269 183 97 -103 33 -274 -77 -170 55 328 -221 279 198 -216 283 -168 -225 229 -69 61 -97 -326 183 -226 32 61 -276 305 -245 -111 19 -82 -16 -322 -33 45 -169
-277 -33 12 314 -311 8 113 101 -10 73 -275 210 -253 -184 180 310 342 -112 -74 44 -306 217 212 -72 -59 210 275 -43 189 -171 68 259 -69 115 -214 97 -109 -296 118 -217 101 342 -100 212 107 -168 309 104 257 119 92 -160 147 274 -266 155 320 -39 -237 261 -17 -324 314 194 -40 287 87 -326 233 41 257 -80 -279 149 224 -361 -3 184 -163 -336 142 -56 125 152 335 145 -181 84 -29 -108 -117 -130 32 22 -51 -360 -244 -108 293 -26 -273 348 -151 -339 207 -331 304 -70 252 309 77 230 -195 294 140 225 -153 -161 -252 -345 -112 -90 -118 -123 228 -143 333 324
-135 187 129 -244 223 -101 359 141 277 186 215 -132 -34 23 -95 -70 75 -87 -230 -161 142 -352 -106 -115 -222 311 16 -71 -118 -223 -109 75 308 165 -77 245 -213 -330 135 -176 -290 219 23 -29 -263 -167 146 248 294 63 60 56 34 225 122 27 -334 252 184 -296 144 299 17 113 -87 -263 -254 321 169 -170 -8 170 257 -56 -179 191 39 -171 -95 -124 -230 -97 -75 305 113 54 192 -81 345 153 -12 76 137 84 262 319 -188 -147 81 133 -102 80 103 -297 -216 -116 -193 81 133 104 354 -124 -173 -139 -49 86 -282 -216 84 -109 -312 -255 293 0 25 -58 -308 -48
-184 154 207 18 -74 -44 -241 16 26 274 -70 -228 -289 299 -169 -185 293 -104 361 -89 -280 -355 -62 -208 103 14 -60 191 305 -16 280 185 -29 -344 -188 -192 96 51 -332 -280 274 -7 -109 -11 -147 354 241 -117 337 107 180 -291 -287 258 -98 212 166 263 153 -250 344 312 307 -199 277 254 -272 156 124 -187 -78 253 -39 -77 139 -235 -98 -162 362 295 -241 -213 196 25 -237 -109 -50 120 -229 -150 -296 179 128 310 -257 -326 202 -33 -202 138 -19 -332 199 229 122 -57 330 322 211 216 -283 0 41 -150 157 227 354 -70 -138 28 252 -64 -214 -303 257 -66 -70 -67
-240 -73 362 -19 213 -246 -226 53 2 -265 -20 15 317 337 86 -5 -262 27 -188 -88 -340 284 302 -313 -55 102 183 274 125 -108 96 59 -112 -22 53 0 -262 -35 239 14 294 -178 51 -36 -125 158 294 323 6 355 -197 218 -276 254 5 -292 235 -204 306 -215 -122 190 -336 -86 337 -260 31 -55 140 -68 53 -303 222 129 -235 -161 -42 -130 -361 -298 293 -12 328 -42 -154 -80 -183 93 181 -146 -349 -212 300 260 298 -304 152 49 324 -178 -17 -237 -306 -71 264 127 269 26 -213 32 -275 -256 -274 266 -55 246 275 97 253 -75 45 -268 122 246 -330 -168 48 -95
103 -239 -211 -49 -42 -153 -166 256 276 -83 344 -138 299 106 -70 38 278 102 -198 -32 249 -68 -320 236 -217 -147 -188 338 96 -136 322 -246 9 -117 -105 -281 -169 336 60 302 -17 138 245 -113 240 211 333 -87 -95 -115 -296 3 61 -51 144 315 228 298 340 -162 -12 -266 -346 140 -143 -162 -332 -56 325 -205 -250 20 282 16 -43 -354 -140 349 -22 -150 -63 286 -44 323 118 -315 -109 193 349 100 -273 335 208 17 210 -325 101 -277 104 191 -181 -190 176 314 -197 -127 -185 -26 3 -318 337 10 172 244 110 -97 213 93 -329 -116 -342 272 -93 -201 -163 102 242 171
-61 282 -8 -62 288 -326 227 -255 67 116 -308 267 112 -143 -318 197 31 89 143 -320 -319 -67 -351 74 -262 -293 138 -235 -246 330 -332 141 -6 -9 212 107 184 73 -338 321 21 308 -204 13 -149 -244 -349 -301 236 -180 239 -112 -338 -243 -202 62 -57 -252 -126 -81 -282 147 45 150 -311 82 -82 200 -162 155 248 42 -137 -49 -140 -110 114 -330 133 -332 -2 -55 -8 75 248 -50 281 -282 -137 -152 303 -323 -147 -284 344 -358 -130 -245 361 -77 -362 -8 304 158 72 246 2 -174 309 -11 24 209 227 205 -45 287 256 -169 -32 -180 41 348 -200 -199 -216 170 96 -321
101 192 28 339 232 293 22 234 -134 226 -129 24 -220 154 118 -260 1 145 160 -99 -279 -340 183 202 299 -47 179 81 119 172 343 -213 -210 145 170 -160 -239 249 -291 -286 27 -181 280 -3 82 -251 122 94 245 256 358 -345 133 16 -100 -316 -180 -3 -247 -295 36 192 225 -179 -263 45 265 125 49 150 -286 -21 -83 -10 147 -342 -90 24 -175 168 -320 -163 -212 -270 -247 25 -228 -72 140 190 -145 132 -7 219 244 222 -120 231 156 25 -87 241 36 -64 203 164 -248 81 184 -63 105 -103 296 340 -342 -126 -14 -4 168 64 -156 -121 61 -75 -276 175 -236 -34
73 -4 -341 323 216 314 284 -22 84 294 -226 120 274 -131 -323 -218 -45 101 -237 244 -304 -242 -136 -321 -203 111 -298 77 108 -272 228 -353 71 269 -135 -237 -58 50 66 -74 297 140 -22 131 4 -127 173 316 -328 47 61 -291 86 221 109 5 358 -294 182 242 -241 92 -3 -128 -236 286 236 -283 -284 288 -306 46 -335 -252 342 -308 218 175 195 -100 -228 218 -89 129 39 149 -10 -255 64 107 45 299 239 -83 308 35 351 196 339 -305 -82 -339 -356 225 18 158 -125 16 298 -243 258 73 -132 -60 -210 -275 -36 187 -338 241 62 121 121 -166 249 332 74 -275
-256 -78 -293 -148 -14 -315 349 213 -199 274 -181 212 47 108 -161 254 53 -353 -202 -92 -266 -335 -146 -2 310 -43 -177 -286 -228 -300 108 308 225 339 61 180 168 67 224 67 247 256 -162 -35 -301 -249 66 -273 -227 242 -256 293 -288 132 154 -111 -307 120 -173 300 319 245 271 -48 -27 238 -40 -306 79 -134 -253 167 76 93 -275 10 172 70 -153 273 247 -340 325 -135 -337 300 -116 80 -60 -138 -121 351 346 40 45 331 -315 -185 77 -165 349 251 57 -312 228 25 -5 109 -215 175 -64 31 68 -5 333 232 17 65 302 -291 -209 -30 -39 -186 286 119 -243 -121
162 12 -260 -28 -35 359 259 231 225 -158 -118 -51 220 -349 5 339 -254 88 -112 -15 345 181 -112 -29 -260 -72 124 -150 -107 -123 197 -165 164 -339 -69 -211 236 315 -201 296 -1 -238 76 324 -81 -88 259 44 -261 79 247 -227 298 -158 345 -338 -233 -266 -241 193 138 124 115 -174 -227 -230 265 -168 -43 -56 237 -212 -327 -356 5 129 -246 -357 -216 -127 168 -242 -258 -152 83 330 171 -318 -160 -320 -219 32 -195 294 357 -86 -252 -296 206 85 345 -14 325 275 152 -328 16 329 -47 -250 -352 -108 166 96 -237 204 100 -324 -210 -47 60 -170 288 76 -41 315 -323 23
35 -94 -47 -137 185 -57 -45 -236 -315 108 -281 -168 -295 -359 150 59 163 134 46 -225 -165 308 154 72 -354 -168 64 355 245 -51 -219 -139 347 -163 -276 -291 346 224 -40 215 -347 273 -166 -207 51 -353 -120 -155 -327 204 -133 -225 -186 58 57 172 92 190 9 -213 -272 165 -183 355 -77 -227 159 -277 -151 -39 194 56 -201 -206 -45 326 -93 -123 -91 1 53 359 -204 -102 -225 88 -136 107 148 120 268 -356 101 -292 9 -29 197 267 -34 -159 21 -44 348 347 66 65 33 94 348 57 -105 -328 30 -236 77 45 -26 294 258 -277 -211 -37 282 0 99 -252 344 -333
109 -155 262 -276 36 141 30 280 121 25 -41 -31 -44 -28 338 361 -183 -69 275 -247 -48 -124 -196 248 -56 -195 -73 94 -359 -116 -316 214 62 338 228 -146 -49 143 325 -271 -140 -289 -204 -160 76 86 -20 226 -238 -187 -177 33 -163 360 -182 -222 -236 23 81 -81 186 -281 226 -97 -330 32 -297 -47 29 45 -222 355 -358 305 -40 99 243 273 10 -204 -189 360 310 31 202 -257 243 224 166 -93 -68 -254 -63 -20 62 -44 -13 -91 -337 60 -4 196 -6 -264 202 -349 -9 -38 60 270 21 -183 -127 318 -335 -165 -171 124 140 -157 123 331 350 224 153 1 -160 311
6 251 108 -169 -267 -80 -26 -276 276 43 154 -301 -198 262 -35 -223 -43 115 186 184 -282 -273 -84 4 247 244 163 334 51 52 -194 -8 57 137 201 123 55 289 -100 -135 -113 -337 -151 -175 -118 279 307 -67 -92 301 90 324 -245 111 188 -133 -293 -282 -263 275 -25 92 -110 82 -112 -87 196 244 -69 -223 130 241 -298 75 -297 -25 65 -87 318 58 -351 -278 296 -276 -25 209 329 203 320 243 -200 319 262 -168 194 -238 63 -234 293 300 -256 106 -158 -347 81 -136 346 -69 -62 291 -155 313 309 -214 -9 106 106 199 -91 -116 -321 52 148 -338 -96 -190 -88 209
-341 237 282 -73 131 -210 -160 52 163 -361 115 193 38 -220 -29 -80 -76 154 -3 -321 -115 -242 82 71 45 -198 313 185 -285 134 -210 -153 -149 -155 319 188 322 -300 -134 43 -340 319 -297 -282 -185 238 -247 -288 -307 -107 -11 -280 -252 -254 203 -273 -249 141 -56 350 -33 0 358 112 -183 -165 112 -86 53 256 313 -312 14 -83 -13 300 -276 221 142 -26 -359 19 -272 -346 85 308 323 312 274 -45 -270 56 230 -29 -199 -280 -151 11 -158 27 -57 248 -284 79 -40 -210 -248 121 -86 -226 242 222 65 199 153 -333 148 -206 -270 -143 -244 -298 196 -129 39 -90 274 -78
203 -57 -134 238 -232 319 330 -83 174 161 -51 -307 8 301 -258 -267 169 -41 -299 -327 -40 329 -147 -5 -343 348 -159 -121 -157 334 -297 163 -21 -47 -308 69 83 -235 258 247 -146 252 -179 121 251 -79 342 -103 334 -137 -277 -175 -69 296 78 -288 -324 219 -349 30 -300 71 -118 83 -339 75 246 -136 158 278 -254 -81 94 -270 231 -99 -89 -57 264 167 287 304 159 -188 81 -205 -63 229 -358 -128 -124 157 -219 139 -185 -174 -334 53 20 -214 280 274 337 208 -279 -296 -293 -308 264 61 -80 289 -6 225 48 -89 159 347 204 -183 -323 -131 -172 -299 186 277 168 -127
-236 140 136 121 -314 -244 115 -91 255 104 356 -227 -81 -226 -128 320 -311 -55 155 -232 99 360 102 -322 -304 -1 -229 341 -127 345 63 -94 -69 -331 352 69 303 94 -265 -282 -285 -219 -66 -314 -264 -166 -342 102 -13 -51 -10 -75 112 -131 75 326 -324 35 -174 245 -6 97 -262 -127 88 -108 -1 -275 -227 47 214 -85 110 -176 239 -184 -216 289 -112 -345 214 102 -92 -313 -15 -219 -337 101 311 -227 258 66 -52 76 -359 -265 -27 137 46 291 293 -177 263 -331 187 324 81 255 -192 266 -129 244 298 -149 95 -80 26 -4 -189 -161 -115 260 156 -185 63 -267 -361 -293
-146 99 87 -248 209 119 269 212 14 -181 4 314 182 241 -318 299 -112 75 -15 -323 223 299 -27 37 131 -3 -167 290 -135 -170 315 278 336 280 313 171 344 -156 135 -133 296 -159 -312 -316 24 182 82 53 -290 -335 253 -280 -330 -10 -239 -338 -268 -48 20 -79 -47 -315 -266 249 -360 -112 158 236 -280 156 -199 248 94 -236 336 281 -304 -21 327 -61 86 212 -349 -198 -310 -52 83 -19 242 188 347 121 -7 42 160 292 8 -14 292 141 36 218 359 298 -316 -55 317 193 291 105 311 -283 -166 -12 -297 -206 -314 -52 -174 48 45 6 -245 -195 99 -204 280 -181
-235 -97 281 323 280 176 -296 -65 95 -93 189 -235 361 -213 230 -27 -187 185 184 -329 -32 -160 -102 18 -290 -130 -242 104 314 -330 147 250 -100 153 254 -85 -360 -242 -295 -60 -84 142 -174 330 348 -175 55 -34 357 185 -296 -155 -260 341 -92 -136 109 107 203 252 63 323 169 -302 119 268 314 268 -179 263 59 -342 -263 -173 -348 -5 338 169 278 -86 -207 -341 -38 -50 111 129 166 -67 71 -259 276 12 40 174 -76 181 263 63 199 -90 228 234 -279 145 77 -70 -88 165 185 264 -282 -177 -306 -355 -49 319 189 -124 -195 -173 -36 137 235 -140 -94 -230 -277 250
280 147 -27 -88 -357 233 1 171 302 148 -195 353 -339 -257 -60 299 84 -31 131 -164 -67 92 171 -21 -59 -118 -4 17 -350 -187 132 43 323 -358 -313 -144 -275 106 -31 239 356 -245 143 -361 -224 -5 -302 -264 108 285 -305 -44 -132 289 -182 284 49 -176 -267 356 196 325 309 195 320 156 -193 206 226 -6 343 -53 -210 348 -61 358 89 -44 219 184 -325 -234 278 166 -287 -335 -275 -290 66 -23 128 305 0 171 111 -176 224 -186 -318 -84 -320 -79 66 227 247 -291 150 123 113 -30 172 234 113 -162 -135 -285 38 131 -318 28 113 342 111 27 -114 203 -175 -267
148 -243 198 -46 -111 -48 -25 -274 78 105 224 49 -105 11 94 199 272 -109 161 -337 332 354 62 36 267 205 123 174 218 56 -110 -63 -229 86 -80 80 -218 -209 16 275 -240 -352 -27 -59 -344 -300 -113 250 208 -340 -285 -93 -11 167 144 -323 25 252 339 171 -289 16 73 -177 92 18 328 -181 134 -301 -328 -281 167 262 343 -100 56 -298 60 -199 211 116 -328 -107 179 -157 198 292 -266 -168 177 173 327 239 50 12 -318 -15 164 221 -260 217 259 -229 -39 -158 -219 -61 -156 -132 62 321 254 -57 36 359 -1 -220 90 -57 189 -352 -70 -43 -286 120 282 279
-106 -350 227 -328 -110 -54 -275 276 -256 51 256 146 -213 -231 -173 -217 49 -32 -74 -105 -144 143 -222 227 348 -94 -113 86 -216 30 84 341 88 186 -329 321 -217 188 2 -338 -5 -195 315 351 -171 358 -245 196 -95 269 -73 -24 -32 -217 -110 -99 -89 185 186 216 152 193 -243 -252 -234 173 -103 203 -240 -332 -209 -151 -237 -45 -206 -165 -171 144 -192 219 334 333 208 295 281 235 -309 186 277 -24 222 270 246 291 114 -58 -344 306 145 -215 -198 -6 230 -35 225 197 84 -259 42 -337 111 -95 -80 -338 146 -167 318 -258 261 350 340 84 300 -348 59 335 -294 147
342 -196 -279 94 -353 114 -91 -82 10 -250 -348 35 -98 188 288 -265 -179 286 -170 286 -204 -168 -321 195 350 71 -72 140 -262 308 -35 -324 254 -294 -296 81 -142 -226 -315 -58 -92 -64 -65 256 240 205 179 -324 354 224 -164 -99 -151 -17 115 -296 98 -336 241 57 127 -112 37 145 -173 -346 -298 35 289 -102 -8 -12 -291 -40 -104 -110 360 188 244 287 -194 334 278 358 299 -102 -268 103 -178 160 105 -268 295 -155 229 178 -174 -43 158 -361 -104 -95 -360 -151 250 -349 -207 -301 110 -318 -288 157 95 -344 -179 -206 118 223 312 79 120 56 11 22 7 191 -266 177
249 -299 -192 -19 88 -309 -181 124 -151 18 266 298 -171 298 -66 149 274 78 -97 -229 -175 -125 -83 69 63 84 -321 -235 -287 137 -276 -353 332 -267 160 -350 -226 14 -24 254 -221 -173 -210 236 -98 -313 -203 126 209 205 -241 294 -102 -164 -7 -251 356 115 -23 257 -150 19 291 88 -182 49 29 -163 -232 268 -199 -21 260 111 146 -284 -151 -31 -52 9 101 205 142 256 -349 -3 229 -126 -48 -143 -60 245 -360 -149 -215 313 149 -181 -310 -33 -361 298 77 -310 -257 -199 -353 -72 187 17 259 219 232 310 272 -70 -209 242 -98 82 360 -300 247 -294 -280 36 169 28
