449 29 469 -372 -485 44 76 92 -196 -357 -481 108 73 -106 268 22 -350 -343 476 182 -91 95 366 141 478 -219 425 185 -308 176 -157 91 -42 183 -343 -465 272 -147 -328 -323 -68 -350 396 -53 378 374 60 240 -281 474 -391 311 412 -185 165 -492 -447 415 -206 449 -137 395 -252 454
459 -331 -186 -436 385 438 112 -79 505 393 210 468 349 410 358 448 335 -23 -141 487 442 225 -105 54 -398 98 504 -431 253 301 1 294 -287 -41 -255 302 324 -373 -81 380 -28 -337 138 -360 -479 -47 9 -86 349 93 85 444 -442 470 178 -198 475 456 290 -115 -240 103 253 137
147 -299 -42 -396 -262 143 20 481 -461 68 -454 481 252 -99 461 -364 -132 -293 -231 -171 -260 364 417 -71 487 130 168 134 -368 -416 -196 -56 17 482 -140 -274 -276 -395 12 -251 149 429 171 149 314 -81 261 465 286 464 -354 -287 185 432 -413 -456 -412 184 288 -316 62 -5 57 -58
-496 -210 253 68 -213 408 -197 -167 -309 359 -386 -150 458 446 -318 -258 -138 292 318 -479 -432 85 -175 430 -457 -115 -81 -127 218 -421 112 349 -158 108 -418 246 -491 313 -290 444 -175 -503 69 -349 213 285 211 398 -192 -230 324 -367 6 -474 -219 -285 467 254 -237 177 404 -357 304 -115
417 -507 166 -302 386 455 -432 414 444 123 276 108 -459 -341 315 114 -194 -184 -425 208 234 0 -58 -44 -234 294 -503 -434 56 -97 355 313 -200 -279 -459 27 460 -148 59 28 440 304 364 337 -242 -351 32 -257 -337 359 415 367 364 -204 -150 -327 449 283 81 226 440 274 23 -121
-301 489 14 -301 -100 -92 361 236 -380 505 -152 -48 212 -264 -146 164 255 -434 75 381 -321 252 311 206 27 409 3 282 -280 -455 331 -511 -393 -29 -480 277 -84 380 84 -173 -159 -298 386 142 -99 -416 334 -279 -491 -498 -46 -363 -179 355 176 64 90 434 301 -182 -79 114 -432 -233
371 184 79 -143 -303 108 -291 96 -75 27 -58 -509 433 11 124 -493 -308 237 -346 -421 235 -221 -269 39 -243 -57 -362 393 448 315 92 -321 -370 422 -224 -510 -244 -342 -230 -91 272 417 425 382 -495 43 16 55 377 -484 -336 480 57 -451 -248 402 -365 11 305 -318 408 122 -247 432
146 -230 -56 477 36 140 334 -174 34 150 426 -33 303 -31 177 -204 507 192 38 345 -283 263 465 -8 46 -258 -253 -48 381 -501 -462 -305 -354 -283 67 -31 -224 -66 180 -236 -465 329 -275 182 380 -116 386 432 273 -235 -91 -279 20 388 120 -332 167 -12 -314 -236 325 420 323 46
429 -344 316 111 87 226 -186 43 -213 -379 474 -133 -80 -501 411 369 475 483 -121 161 149 271 137 305 322 -22 -63 -477 203 -292 -5 87 -37 346 -343 -393 435 194 -149 320 351 -111 -141 -84 -84 -448 -491 500 186 129 -74 146 -61 87 -237 118 -16 -291 333 -305 -213 434 -177 284
149 155 189 -337 75 499 448 -58 -493 -94 212 -309 428 -330 145 319 472 -12 277 170 -270 -441 16 97 -199 -96 305 95 231 -33 299 81 195 198 -179 59 292 164 -470 9 -248 -244 -49 473 484 -476 340 376 23 -116 153 -406 -15 459 -288 66 -483 147 -42 -511 -448 -330 163 374
190 -416 -411 -297 357 469 -362 -5 237 284 -283 406 -119 411 88 124 -425 -297 51 337 -195 305 83 56 -457 12 84 55 63 -480 -472 70 -39 -399 -260 -466 -437 -220 -382 434 137 -29 -283 80 490 421 487 -375 357 364 64 -124 109 112 447 156 -339 -395 21 -360 -146 -10 112 474
141 -338 221 -4 -100 330 -500 -440 212 147 60 218 180 111 -157 -140 -324 -65 248 -404 -37 267 408 -261 -56 -498 151 110 217 -134 200 123 -22 -183 82 -482 240 -305 383 -90 348 375 -132 -500 -313 307 275 -171 479 419 475 -55 101 -110 462 -410 -204 -465 -150 -326 135 39 -274 462
-179 -212 -43 455 -473 -347 309 267 -24 328 -280 60 362 -371 483 209 241 -326 -245 -202 -22 -319 39 313 81 -256 -19 -431 -242 179 471 -497 7 441 350 -280 -379 -409 354 -108 -186 -352 -478 -122 181 -250 353 145 -400 -191 -421 -329 -262 -438 -75 279 -357 -323 342 -391 -327 -130 44 -242
244 464 -428 -4 -460 -132 486 440 -211 236 509 418 -254 220 -438 -426 90 -318 -166 -99 -261 454 442 211 -72 -421 44 432 5 124 490 164 -399 -62 -212 -309 -402 -58 -134 440 35 -299 -55 -460 440 298 -262 53 501 -337 80 20 -396 126 99 -214 495 123 250 -374 -291 87 -458 62
-343 352 -486 -158 201 -112 -394 401 50 182 30 -184 107 319 39 256 244 -475 -119 247 -477 -247 3 350 41 -194 -305 280 -274 -338 401 144 179 -155 363 396 -185 142 -329 503 -181 351 154 -391 -313 -223 406 -447 471 -247 70 464 -478 118 83 246 441 -281 419 370 196 287 -248 23
-236 448 -36 -34 -471 200 -18 -259 -351 -457 -267 456 -189 334 0 3 -188 83 272 375 -46 -277 280 8 -495 404 -130 111 -408 -161 127 501 -83 358 -194 -159 -261 429 -370 244 -75 361 -228 -139 -459 278 -236 219 383 51 -411 162 -440 119 -437 -277 118 -47 -220 -170 -321 126 -57 -64
-194 36 -262 -42 -200 -209 -167 -189 -387 312 -210 -82 484 209 -177 -412 300 -287 -118 -59 -112 -173 403 444 -430 -325 382 -64 345 356 81 201 -437 -248 114 482 104 -256 167 141 45 -268 -357 158 91 110 -278 264 75 422 176 86 -267 -400 -292 64 67 -398 395 -341 -93 -481 -187 236
156 -216 201 174 -179 388 -370 -83 -40 367 105 264 368 -57 -54 -18 -70 -294 -57 -154 -125 -228 353 342 55 511 -251 -34 487 478 142 -341 479 -363 115 70 181 437 -444 -184 -300 -268 -31 -42 491 -167 192 450 368 215 -220 -254 -331 265 201 293 265 -69 36 -452 459 315 9 227
-136 324 -510 133 62 223 389 211 -261 -482 -152 -427 380 461 106 39 -153 -144 319 479 426 -482 -151 -268 250 355 109 30 394 223 35 -157 -18 82 198 -121 395 -463 -488 -144 60 97 -237 180 -466 -120 -172 335 341 68 -368 312 -382 85 493 -46 -322 -321 -379 -124 -356 45 165 425
-350 479 163 480 -492 -314 -354 416 503 264 -299 508 -478 480 -185 331 -399 -375 292 364 -371 385 -19 -98 -312 -17 75 -50 486 331 -383 150 -140 108 -364 398 -41 -329 182 115 173 -240 179 -173 -139 -159 482 -413 475 394 -432 203 289 0 -265 434 291 -179 -41 -58 -493 -65 -212 -212
-115 -188 144 347 166 -482 237 21 458 440 -74 -157 342 -306 -340 -85 205 -407 458 227 -331 -308 -379 378 -29 62 420 -457 -103 -356 506 -50 20 318 -173 1 442 -272 -459 12 -197 174 353 -476 -159 -390 444 214 -401 -163 329 -223 -65 -362 -48 -204 292 -88 436 -197 229 -362 -414 -159
74 -432 -1 -116 -199 189 -4 361 402 139 138 384 315 -313 -260 126 -136 -204 191 -95 106 39 260 -283 252 -232 -329 -105 -256 -34 263 -443 409 291 -161 -330 -298 319 -457 276 -146 -440 231 159 -158 -355 -125 226 483 265 -218 -350 -320 439 -496 -46 452 -124 -8 -369 133 209 364 256
-39 -460 -355 -268 -239 -97 120 -52 -18 -369 -216 219 -511 334 353 491 -11 -87 -291 53 -438 42 52 257 1 -512 213 118 295 498 456 -370 227 341 -363 95 -452 -433 30 -194 256 -311 371 350 -218 -79 -301 -263 134 -39 397 -504 333 293 -184 494 145 381 312 459 50 414 464 -56
419 -326 -142 441 23 -493 -250 452 211 424 -434 -80 484 -453 200 306 -275 -44 217 50 -464 -285 -285 108 337 225 -294 -157 255 206 -265 -145 -101 -435 459 312 388 321 -156 32 273 69 359 -486 -308 300 -206 437 -492 484 241 501 177 142 -137 -27 405 277 214 428 -268 -186 -117 395
-376 -4 -187 314 490 -273 40 -145 371 143 -49 -295 -463 248 -366 189 168 -256 319 255 -266 350 -195 -366 -251 98 91 297 97 339 230 62 140 -273 -103 486 62 -337 -100 -332 131 -57 367 -189 251 -491 -423 250 -339 65 343 -159 -165 -272 -346 457 17 147 85 55 -37 -102 -279 -401
96 281 -290 417 -437 475 161 489 -259 -63 21 114 276 -144 231 -364 -358 -278 21 436 303 106 -461 -183 -272 296 -387 -305 -403 -365 -313 192 -364 51 -467 -6 -332 -318 141 -155 -462 -113 -463 465 -339 -18 -218 -348 390 476 -473 138 368 -280 290 191 -150 -59 -431 -187 -326 257 307 168
316 240 -369 -225 -98 159 336 323 -247 -83 -25 -246 -235 -222 347 -489 -316 -257 124 259 374 -204 453 130 484 -204 -115 -303 -511 63 -510 58 277 -9 188 -400 373 3 365 337 -266 487 120 -437 26 -210 346 -175 -467 -123 -280 339 -459 221 -60 19 293 66 12 229 104 -4 -239 -95
447 500 -7 102 111 133 -55 198 360 -165 280 -173 -18 190 289 -433 426 -306 -321 7 -119 284 145 -355 -499 295 99 -204 471 26 -457 348 -253 -491 340 53 420 -276 -467 308 -123 -372 296 273 333 219 -443 -300 354 372 92 -282 455 -428 -397 353 -421 -482 42 95 469 -214 442 -414
-452 -69 -428 -413 -243 -435 104 -308 -238 105 280 355 433 236 -122 256 -129 344 23 34 -225 425 409 -322 -125 -179 354 -370 -381 389 338 397 -147 303 -204 -103 197 6 259 -46 458 -43 -11 -243 -42 205 391 412 -155 -42 420 181 -292 -98 117 -465 -222 504 -357 -160 -46 -451 6 337
-471 -168 -432 454 -442 474 -86 478 342 -393 307 225 -34 176 457 396 238 160 348 103 -255 263 -126 -53 -112 -192 222 447 93 -220 -78 -161 -23 164 -450 460 -442 252 493 -300 91 436 -61 -50 70 50 115 135 384 -189 92 -376 -252 0 -436 388 115 480 143 -282 -496 46 228 366
334 -332 -37 -372 -219 80 -419 457 -212 -371 304 499 409 -485 63 -506 315 -356 -464 -103 420 291 337 484 204 447 -140 189 -450 167 167 228 31 332 -351 -337 172 465 -314 379 4 -168 498 -430 -222 227 129 -335 11 -1 467 360 157 470 -263 169 -389 -476 -243 94 -297 -267 -434 -475
133 385 284 372 -228 -47 373 -222 131 63 -65 355 109 -505 -283 -135 399 337 161 -478 -246 -157 505 -468 235 45 288 418 48 194 -488 -378 -195 -416 496 114 379 -498 -319 362 -188 -181 469 65 -459 326 220 -4 325 -361 65 195 128 -362 268 -444 409 503 -18 -16 -506 -312 -89 129
-48 371 5 361 1 -404 174 158 -419 -176 -89 330 -492 -110 -109 314 360 347 -314 -276 -208 506 -168 359 -503 336 452 -354 -374 -419 -283 349 -359 -237 -60 241 -111 505 -132 35 -7 382 -257 435 71 -350 -333 -173 -407 -225 292 449 181 396 35 117 -470 352 -257 366 -211 135 129 -426
6 92 88 -511 -234 139 -367 221 -264 423 259 -78 131 -137 381 57 -48 -63 -492 118 282 42 80 -86 477 296 -134 -337 -287 -373 106 447 498 9 -110 -224 -263 33 329 -45 -54 21 285 -232 -241 226 400 -91 329 79 143 155 240 415 126 -214 -509 -426 -142 440 431 -155 -242 326
501 288 179 -13 -99 292 288 123 -482 30 236 479 -355 -131 427 325 -265 368 -123 -308 438 -202 -202 395 -119 243 -502 277 -202 24 349 -339 -428 201 -289 316 -183 363 379 -252 243 113 -264 -143 -496 389 507 -45 287 -78 -1 -408 -59 -164 113 -220 -460 253 -185 15 451 47 -52 -107
109 -72 51 417 -289 -233 -22 382 -127 475 -436 -254 422 352 206 219 174 322 175 458 479 -193 370 263 122 -282 -345 -460 -466 53 -431 159 360 -216 499 -374 -105 425 -120 70 -404 -272 -119 -113 -334 -199 -146 109 -380 -257 -190 308 -208 338 -353 16 -123 330 330 -206 -509 355 326 277
-88 -216 -68 -23 226 480 84 -261 -483 132 181 -103 166 178 -487 -373 149 -122 25 -67 147 165 -488 253 -237 139 -471 128 -30 493 394 69 -153 -104 462 132 113 19 244 -207 -412 30 -112 -127 -30 497 231 315 -379 -459 237 443 81 -327 -507 -158 -90 -477 159 376 391 45 -221 -7
61 336 -204 -12 199 500 -61 24 -364 -262 330 -512 386 -166 -322 276 -70 275 -507 -286 -63 -416 229 -421 -235 294 291 -56 -269 134 -425 -32 -28 344 163 401 490 221 314 150 -475 -511 87 482 6 -66 93 -477 122 -479 378 379 -301 -235 348 135 -167 290 489 -460 371 252 -67 291
279 208 476 -95 -158 -44 407 185 53 -457 -199 -254 -405 350 88 -212 10 -226 -42 2 118 208 -364 428 -158 -271 360 136 -389 -344 -511 267 99 209 428 350 -303 112 -81 -238 -398 41 456 251 -235 -102 -186 432 446 35 -485 82 215 -159 68 254 -202 -43 137 241 -439 417 296 -449
190 -290 -85 -44 510 124 345 -118 -497 9 -344 424 -177 130 132 426 373 269 -457 -314 60 362 477 -429 -502 -435 -234 357 -231 133 84 -250 -506 -214 186 412 -171 276 -293 -148 -248 271 -185 -385 -405 382 -422 -285 70 469 28 503 -427 303 -235 4 -29 185 116 -434 -77 -262 -358 -236
25 285 327 -27 -44 -55 -506 173 -477 204 -1 -320 -122 -337 -207 -29 64 394 -20 -351 214 354 28 190 85 -342 48 456 315 -56 -31 -10 164 -103 378 496 366 -35 -332 -392 -385 268 70 129 459 161 70 -328 -435 292 -64 -160 -177 134 65 254 -251 486 -109 -388 -475 114 327 270
-75 -410 -33 147 -174 -210 -150 -216 -492 480 23 -378 44 -221 2 416 -178 -346 -245 481 -40 -308 423 -82 171 -24 -346 -56 -285 -214 236 -280 325 103 -255 -350 -375 177 367 -277 -130 85 76 -326 -330 -52 -1 472 277 -388 497 134 -109 -311 106 207 159 457 403 434 -25 426 402 195
425 104 434 -475 -365 -215 144 202 -45 464 61 476 -169 -149 -166 512 -349 -385 -392 -465 -281 167 -161 53 -307 398 -227 186 -340 -319 -397 115 -203 498 -258 476 511 -392 504 -109 -74 -245 -380 393 435 -336 -154 245 342 -277 112 -147 263 -388 9 47 -82 83 -471 -256 -261 -324 -272 239
-323 75 -61 -339 -112 -378 -322 505 11 -424 368 -264 34 0 -165 365 -255 313 -106 331 -208 296 276 -364 -471 -142 128 210 357 64 -451 507 -228 -141 163 -102 416 -256 -89 42 -237 -356 277 -156 -352 -220 259 427 -190 310 -386 -357 244 245 285 -341 -221 135 503 395 -5 216 -3 192
-59 301 128 -55 426 -465 -475 -192 446 -193 212 142 -334 319 499 -330 346 283 -336 -451 -50 61 -6 -33 245 268 48 58 -97 -270 57 455 74 449 -308 -179 -452 99 511 -36 86 182 146 222 11 345 -72 188 -229 -258 -385 -357 -19 430 97 50 505 349 395 342 489 509 -385 -356
471 -1 379 -76 159 -199 -97 -284 434 -399 429 262 -191 249 -331 -94 235 -242 465 -476 508 192 285 -292 191 231 136 -476 126 -77 -314 -294 204 487 500 34 258 31 57 111 -278 -181 -493 176 -288 -225 -404 260 386 283 112 -278 -415 121 -95 180 -206 107 160 -456 398 395 -443 -42
-472 55 -390 -125 435 447 418 11 132 -505 -194 318 138 -263 -124 194 -323 -280 -305 439 -57 -222 -309 -425 101 399 274 252 -297 -291 61 275 -122 -146 374 150 -494 270 307 320 333 203 -481 257 245 -392 -500 -282 121 437 93 -376 203 -13 -30 235 -394 468 198 -85 -317 231 478 -110
-403 507 -349 12 -213 -379 -148 -503 -144 -55 119 180 -405 346 328 479 -143 -388 449 -41 -103 275 -212 32 470 -107 448 129 -276 -79 -10 439 -456 173 -28 485 139 -410 213 407 225 38 189 -399 -433 0 316 -298 -328 -173 -435 -15 142 -197 -78 -90 470 137 -298 495 340 -182 21 308
330 194 -354 -312 141 20 -253 80 -63 -458 19 96 -353 287 498 -166 323 -374 -450 491 -478 -460 17 -294 -191 240 497 -152 226 471 275 498 -435 325 -482 -207 132 365 -480 -44 -27 149 -298 104 302 -152 115 448 -111 480 137 72 -242 -422 194 304 254 -208 474 377 -234 3 234 419
-251 -487 -235 225 -266 -53 311 47 119 355 16 405 -458 76 122 401 -156 488 -409 106 -15 151 288 323 428 -322 415 296 -505 -181 341 358 -488 276 3 -356 166 -180 226 -503 487 391 -423 140 -136 -402 437 285 -495 -111 -145 430 -15 213 -454 -27 -352 391 94 -225 -130 -366 -415 -61
-98 -480 374 481 -293 -39 323 -166 446 -180 235 495 335 -351 -165 -489 254 -44 487 455 -466 -377 350 76 232 307 -309 320 -257 476 -285 176 -346 247 424 -382 -450 18 -86 -335 166 -19 296 -238 118 90 -235 -11 -2 -70 88 291 312 -255 -145 23 231 59 -66 -476 63 81 -7 272
-343 425 -331 -435 -253 -322 -255 333 443 131 116 86 165 169 5 -311 -415 31 -124 478 40 -374 -406 -78 266 451 91 -480 -101 82 10 -448 351 -58 -124 73 92 -349 215 -85 -15 -389 71 120 -143 -131 -301 -487 249 -316 -149 -296 32 -7 233 93 -52 -66 469 105 -230 10 206 317
166 -382 -174 -333 -284 101 319 -440 -147 -180 -270 285 -372 183 -354 154 -96 346 303 -255 -39 -286 -354 -458 -181 -270 -259 -386 -12 132 475 61 -430 62 75 425 -180 -186 -394 -73 -28 -12 -33 -166 296 434 -91 118 -303 129 -291 170 -250 -385 -107 -455 -491 -394 139 490 -57 293 -258 -179
-305 -496 111 -94 210 -390 -204 -483 -215 419 256 77 85 286 33 -161 -220 -138 64 450 180 -378 -176 -290 16 -475 445 -259 312 384 -189 307 -313 52 194 -238 470 74 9 -151 31 115 -296 -187 -327 241 -194 442 -188 -40 -51 -377 -206 444 -438 448 -412 -206 410 494 -29 -149 -212 -512
-336 -3 -204 -258 57 -226 -484 360 198 -221 -447 -70 16 -329 -168 110 -387 -3 298 -329 284 -437 -344 131 157 -454 -131 -425 315 286 -65 137 -483 257 313 73 313 -120 377 -92 489 402 371 425 229 -327 -272 -172 55 -165 458 -136 466 468 -283 -460 65 -199 -192 -364 219 -280 -280 251
162 -430 406 -210 329 -442 -342 459 275 208 108 -307 24 -479 -62 307 407 -512 -148 179 -209 287 99 -8 419 -285 -352 392 420 -374 -491 -205 -421 -275 -2 345 -267 -462 -453 433 -28 -133 238 -493 175 -305 -383 -71 256 92 -246 -131 36 438 -298 48 -413 341 41 508 -501 -277 -348 269
485 -111 435 -112 461 -191 -395 -100 454 42 316 -29 -56 416 206 400 -328 -359 45 -114 -38 -351 -26 435 -269 -417 -70 -420 -257 -89 458 216 -229 21 469 -292 472 -126 433 -277 -210 407 -30 -132 -470 -456 -341 -234 11 -3 89 -395 -42 -507 160 -403 -223 -32 -425 -256 154 355 -12 409
446 -291 -335 -110 -324 -364 476 499 -39 439 -194 318 69 338 -350 149 94 -448 88 488 -288 325 -41 50 -87 22 265 90 389 -261 -414 161 508 -257 392 -28 -463 -243 384 -420 -392 98 243 125 181 65 -142 -361 51 -404 251 -129 -153 384 431 -122 434 -248 -479 -223 496 -457 -81 -63
115 475 -169 64 -264 409 21 195 -34 283 -53 53 -239 -244 449 -7 293 60 109 112 219 -227 -173 122 -504 475 294 -178 288 -492 -305 -335 -253 309 -327 -444 -210 415 101 417 -415 278 106 -294 88 78 -423 -462 458 143 -247 -358 399 331 -401 223 -186 -38 483 -494 -346 443 504 -167
181 -336 270 -494 -117 -121 -242 -183 123 -144 -139 141 7 207 -434 -378 71 407 -372 -341 -329 -18 -202 75 420 -157 444 303 208 -448 22 79 -421 193 -53 330 -442 480 -113 -157 214 -327 -337 -411 -377 -70 191 -245 -313 -148 -157 112 -334 -176 38 -277 433 -333 -164 119 -67 -211 -221 -53
407 -118 496 449 328 193 -318 -67 220 117 481 47 22 494 318 -138 -379 -140 -215 -312 -249 495 472 256 -400 -66 130 -274 80 265 458 224 200 -490 438 -227 -172 112 492 443 -469 317 -432 -428 236 159 5 421 251 -101 55 -62 386 408 -442 196 -307 99 -198 -509 508 -280 -85 170
-486 -263 -65 489 -196 -326 208 390 321 -427 -277 354 49 -193 -136 225 312 -232 -140 -338 -204 342 311 18 -87 -422 396 109 334 -511 -75 271 -478 339 -77 250 -313 221 397 394 339 15 386 -389 468 97 -511 396 215 -132 -181 -440 447 429 -417 166 167 -307 -239 -260 178 86 365 330
479 -358 -380 0 465 -210 372 488 298 181 98 382 60 414 -107 147 -400 -356 -193 385 -360 -390 122 -376 127 302 -448 99 496 -282 -24 416 173 -69 111 -162 220 480 -210 0 -292 -273 -83 -264 -412 347 139 -165 281 475 -205 -106 490 335 -439 -72 -56 -390 123 -415 364 79 -315 386
-478 302 157 146 -214 -270 493 262 -255 306 -502 345 -343 -71 -125 239 -231 191 159 -64 87 -343 495 193 464 276 378 201 48 264 402 414 0 123 -4 278 289 -362 105 -134 102 -447 136 86 -216 -234 -391 -341 391 -41 227 -448 -304 39 179 349 449 -216 448 30 42 93 -354 328
