-0.03356528654694557
0.05566810816526413
0.06190965324640274
0.07963826507329941
-0.0338420532643795
0.043408624827861786
-0.07931211590766907
-0.021115005016326904
-0.007436186075210571
0.07369299978017807
-0.030904103070497513
0.08461988717317581
0.06383044272661209
0.032373808324337006
-0.028201162815093994
0.0017991214990615845
-0.016257010400295258
-0.052796829491853714
-0.06350404024124146
0.022380031645298004
0.05929500609636307
-0.048168230801820755
0.034791894257068634
-0.018357396125793457
-0.007556699216365814
-0.05085493624210358
0.06620679050683975
0.08594680577516556
-0.05792033672332764
0.0334852933883667
-0.007403545081615448
0.05367176979780197
-0.048242632299661636
0.08744724839925766
0.048756979405879974
-0.04218323156237602
0.038566894829273224
0.046521224081516266
-0.0868103876709938
-0.05775512009859085
-0.05600936710834503
-0.0803036093711853
-0.023607879877090454
-0.08333426713943481
-0.007484152913093567
-0.00510888546705246
0.0036108866333961487
-0.023677527904510498
0.02705956995487213
0.0194711834192276
0.06155397742986679
0.0333879217505455
0.06153073161840439
0.019034020602703094
0.05214511603116989
0.047185637056827545
0.01944682002067566
-0.04834822937846184
0.06394509226083755
-0.02802722156047821
0.009344227612018585
-0.0021865591406822205
-0.02349146455526352
-0.054629743099212646
