0.07865257561206818
0.09276752173900604
-0.10898835957050323
-0.04533238708972931
0.08703693747520447
-0.09172850847244263
-0.07405894994735718
0.05193138122558594
-0.0027452707290649414
0.005236521363258362
0.0017438530921936035
-0.084911048412323
0.09379702806472778
-0.08067356050014496
0.11258122324943542
-0.0956810712814331
-0.035216107964515686
-0.10027165710926056
-0.09114009141921997
0.1097879558801651
0.0199735164642334
-0.029053568840026855
0.07549723982810974
0.06235811114311218
0.018614813685417175
-0.06368659436702728
-0.09955929219722748
0.11470596492290497
0.030662894248962402
-0.0011145174503326416
0.0069357603788375854
-0.09104786813259125
0.0053844451904296875
-0.008226379752159119
-0.08688238263130188
0.11072514951229095
-0.11589618027210236
-0.09195572137832642
0.025401264429092407
-0.11719581484794617
-0.06661006808280945
-0.04810135066509247
0.02953939139842987
-0.05685842037200928
-0.014197513461112976
-0.05431945621967316
0.046261683106422424
0.08429692685604095
0.05253215134143829
-0.039304718375205994
-0.09026800096035004
-0.04821386933326721
0.04643446207046509
0.07380706071853638
0.08710236847400665
-0.07056362926959991
0.09854355454444885
0.013988539576530457
-0.08374874293804169
0.02570505440235138
-0.06118789315223694
-0.012366026639938354
-0.0466238409280777
0.09156349301338196
