0.012242570519447327 0.08450952172279358 -0.0650121420621872 -0.011543452739715576 -0.09231704473495483 0.08839261531829834 -0.011770933866500854 0.043960124254226685 -0.05020402371883392 -0.01099124550819397 0.07555700838565826 -0.001239001750946045 -0.0917411744594574 -0.034744903445243835 0.051278769969940186 0.004216998815536499 0.001097172498703003 -0.012329578399658203 0.10771764814853668 0.12022319436073303 -0.05472730100154877 -0.03683611750602722 0.06955434381961823 0.051309600472450256 -0.0677788257598877 0.010151848196983337 -0.043359458446502686 0.0368412584066391 0.08190616965293884 0.11138901114463806 0.07746186852455139 -0.024387195706367493 -0.01783032715320587 -0.05115090310573578 -0.013874486088752747 -0.06396012008190155 0.05893927812576294 0.008570879697799683 -0.010011062026023865 -0.10003761947154999 0.06607760488986969 -0.012801289558410645 -0.008295968174934387 -0.003703698515892029 0.06737470626831055 -0.03670312464237213 -0.03808419406414032 -0.09889937937259674 -0.1218736469745636 0.09495726227760315 -0.10663241147994995 -0.08793005347251892 0.04915793240070343 0.06737369298934937 0.08146996796131134 -0.02674366533756256 -0.11592899262905121 0.05350823700428009 -0.019786939024925232 0.04227924346923828 0.019590526819229126 0.050943613052368164 -0.07875914871692657 0.09044338762760162
0.07142461836338043 0.1209617555141449 0.006210193037986755 0.02483952045440674 0.03604482114315033 -0.09885221719741821 -0.10165469348430634 -0.11600126326084137 -0.030693843960762024 0.026314392685890198 0.02932165563106537 0.10350678861141205 0.05485449731349945 0.10865795612335205 0.038448765873909 0.07437719404697418 0.09918168187141418 0.10189080238342285 -0.11470776796340942 0.05485758185386658 -0.07365769147872925 0.007959380745887756 -0.10624028742313385 -0.1221327930688858 0.02117958664894104 -0.03754040598869324 -0.12135940790176392 0.09456786513328552 0.0017213672399520874 -0.023829668760299683 -0.09146086871623993 -0.06804156303405762 0.06879544258117676 0.05731320381164551 -0.04460664093494415 0.09443312883377075 -0.055128902196884155 -0.12245000898838043 0.11726506054401398 0.03599664568901062 0.030397340655326843 -0.0484500527381897 -0.12301553785800934 -0.09380052983760834 0.061896055936813354 -0.06177164614200592 0.05475585162639618 -0.027621760964393616 0.01815296709537506 0.007623195648193359 0.04578900337219238 0.0683479756116867 0.08557043969631195 0.11153768002986908 -0.03224414587020874 0.12190376222133636 -0.0207558274269104 0.019468069076538086 0.07938709855079651 -0.08615170419216156 0.09699934720993042 0.03758244216442108 0.12460073828697205 -0.017932698130607605
0.0186404287815094 -0.09424693882465363 -0.11576724052429199 -0.07016058266162872 0.12353244423866272 0.07623787224292755 0.05966143310070038 -0.018797650933265686 -0.019032776355743408 -0.05557359755039215 -0.10888981819152832 0.07370753586292267 0.0635257363319397 0.03297215700149536 0.12310421466827393 0.039512425661087036 -0.08081965148448944 -0.07868033647537231 0.05990445613861084 0.06135469675064087 0.10657504200935364 -0.06702910363674164 -0.028852373361587524 0.0695338249206543 0.09500521421432495 0.07943202555179596 -0.1062714010477066 0.002812206745147705 0.040225669741630554 0.08711029589176178 -0.012654364109039307 0.09707845747470856 0.09478914737701416 0.0022046416997909546 -0.08864723145961761 0.08623003959655762 0.0424555242061615 0.0875236988067627 -0.03266845643520355 0.024035930633544922 -0.0759643018245697 0.08639761805534363 -0.05332276225090027 -0.07154466211795807 -0.007224485278129578 -0.02903793752193451 0.03921206295490265 0.0272396057844162 0.0849061906337738 0.032767727971076965 0.12182964384555817 -0.0005716085433959961 0.07673294842243195 -0.0884169191122055 0.041897252202034 -0.1011924296617508 0.12296740710735321 0.10862831771373749 -0.04248139262199402 0.026964545249938965 0.0735320895910263 0.10857692360877991 0.09492751955986023 -0.04009459912776947
0.02434171736240387 0.037421852350234985 0.07618202269077301 -0.025985851883888245 -0.025914445519447327 -0.07682694494724274 -0.0855104923248291 -0.06280636787414551 0.050771892070770264 0.007009297609329224 -0.10481235384941101 0.03514024615287781 0.021186962723731995 0.0952654778957367 -0.058170005679130554 -0.06949213147163391 -0.07457534968852997 0.11010618507862091 0.049877822399139404 -0.03298497200012207 -0.06647306680679321 -0.0405377596616745 -0.07031425833702087 0.06809575855731964 0.006696656346321106 -0.005373835563659668 -0.06481058895587921 -0.08319097757339478 0.006066650152206421 -0.11632633209228516 0.03916119039058685 -0.05849750339984894 -0.04460199177265167 0.024513542652130127 -0.006049409508705139 0.03010314702987671 0.11226662993431091 0.11548790335655212 0.047984540462493896 0.0096912682056427 -0.08106683194637299 0.022040724754333496 -0.07792812585830688 -0.09949356317520142 -0.03702542185783386 -0.09503713250160217 -0.03224758803844452 0.057768166065216064 0.030803009867668152 -0.0927734375 -0.12407195568084717 0.1171589195728302 0.051821738481521606 -0.018768027424812317 -0.058164581656455994 0.07930675148963928 -0.09605400264263153 -0.09955985844135284 -0.03430852293968201 -0.06308123469352722 -0.11106246709823608 0.04625433683395386 -0.07248660922050476 -0.049733102321624756
-0.052198588848114014 0.10887432098388672 0.06228664517402649 -0.05600784718990326 -0.010370776057243347 -0.11130130290985107 -0.06587499380111694 0.11703188717365265 -0.11007197201251984 -0.11835664510726929 -0.06538344919681549 -0.046762123703956604 0.09105081856250763 0.011577203869819641 0.06177122890949249 0.10112707316875458 0.12353481352329254 -0.009738236665725708 0.05803796648979187 0.041720569133758545 0.02457474172115326 -0.02087344229221344 0.03166279196739197 -0.019650578498840332 -0.0030004531145095825 0.1178002804517746 -0.10892222821712494 -0.10430057346820831 -0.10733476281166077 -0.07221953570842743 -0.04772581160068512 -0.045078083872795105 0.012159481644630432 0.04580862820148468 0.10026189684867859 -0.06738413870334625 -0.01486755907535553 -0.09313493967056274 0.035826489329338074 -0.050296634435653687 0.1026584804058075 -0.11373227834701538 -0.048328548669815063 0.11964364349842072 -0.023784026503562927 0.05933256447315216 0.009879067540168762 -0.05869393050670624 -0.10977861285209656 -0.11895744502544403 0.008876502513885498 0.057312265038490295 0.10744835436344147 -0.10280656814575195 -0.017742887139320374 -0.09088790416717529 0.04752461612224579 -0.06467892229557037 -0.05577853322029114 0.08976854383945465 -0.009962514042854309 -0.06095463037490845 -0.10864517092704773 0.08907225728034973
-0.009496763348579407 0.10127487778663635 0.02407526969909668 -0.041910767555236816 0.07585133612155914 0.07829234004020691 -0.00023448467254638672 -0.0695258378982544 0.11853760480880737 -0.0620834082365036 -0.08885893225669861 -0.08751717209815979 0.09752605855464935 0.05770622193813324 0.07590919733047485 -0.08222551643848419 0.11594551801681519 -0.04500885307788849 0.025873318314552307 0.07957859337329865 0.10207270085811615 -0.05250151455402374 -0.11726203560829163 -0.03443583846092224 0.12209227681159973 -0.0009391605854034424 0.1231604814529419 0.07431404292583466 -0.10419806838035583 0.09424412250518799 -0.018244415521621704 -0.050864413380622864 -0.08375558257102966 0.04949742555618286 0.11681482195854187 0.020136386156082153 -0.03665006160736084 0.10091429948806763 -0.09235237538814545 -0.11890313029289246 -0.03524395823478699 0.017229706048965454 0.09053270518779755 -0.12457779049873352 -0.11285512149333954 0.06508450210094452 -0.08125424385070801 -0.042587488889694214 -0.009706631302833557 0.06848087906837463 -0.08282606303691864 -0.11317369341850281 -0.11802451312541962 0.04675029218196869 -0.012762308120727539 -0.0656789243221283 0.018829330801963806 -0.03899341821670532 -0.11567254364490509 -0.002427533268928528 0.05032150447368622 -0.06464239954948425 0.10768303275108337 0.08599328994750977
-0.02126370370388031 -0.08728276193141937 -0.09939336776733398 0.08700264990329742 -0.08782088756561279 0.031867802143096924 -0.06810881197452545 -0.05751648545265198 -0.10605356097221375 -0.020505428314208984 -0.09993518888950348 -0.07000310719013214 -0.07474476099014282 -0.05570077896118164 -0.0638033002614975 0.046545788645744324 0.014275431632995605 0.040739476680755615 0.11625957489013672 -0.00027973949909210205 0.09569549560546875 -0.01583169400691986 -0.10550075769424438 0.12372525036334991 0.03999011218547821 0.11209145188331604 0.08929173648357391 -0.026552870869636536 -0.08740156888961792 -0.059825748205184937 -0.05822204053401947 0.0337713360786438 -0.07105916738510132 0.014744356274604797 0.003998845815658569 -0.10025814175605774 0.08800184726715088 0.09841978549957275 0.0441160649061203 0.05906689167022705 -0.09158734977245331 -0.03833615779876709 -0.12368237972259521 -0.06304396688938141 -0.004119023680686951 -0.07701607048511505 0.03528463840484619 -0.07754386961460114 -0.016370579600334167 0.05195029079914093 0.013739272952079773 0.049410223960876465 -0.03213781118392944 -0.0815228819847107 0.10760684311389923 -0.052013665437698364 0.1202479749917984 -0.022070258855819702 -0.06545887887477875 -0.12195861339569092 -0.07757565379142761 -0.08344762027263641 0.00038695335388183594 -0.10344532132148743
0.032351553440093994 0.0033752620220184326 -0.004357323050498962 -0.09347066283226013 -0.030235782265663147 0.038618266582489014 -0.09793773293495178 -0.021912038326263428 -0.08575442433357239 -0.08102595806121826 -0.04472102224826813 0.020989418029785156 0.031788259744644165 0.07484851777553558 0.0215938538312912 -0.08828477561473846 0.10799442231655121 -0.0020985454320907593 0.11308199167251587 -0.009311795234680176 -0.044419288635253906 0.111437126994133 -0.1011175811290741 -0.05802126228809357 0.11492851376533508 -0.11456334590911865 0.010645478963851929 0.10699525475502014 0.013523593544960022 -0.004955306649208069 -0.04557189345359802 -0.09183390438556671 -0.029576390981674194 0.0069110095500946045 0.09300833940505981 0.11576153337955475 -0.10738065838813782 -0.06799566745758057 0.005980044603347778 0.04514323174953461 0.10132531821727753 0.028646573424339294 0.08982807397842407 -0.05353805422782898 -0.1017175167798996 -0.022847354412078857 -0.09433920681476593 -0.02592696249485016 -0.042702481150627136 0.053485482931137085 -0.0063039809465408325 0.0032799243927001953 -0.07585711777210236 0.05834396183490753 -0.02886734902858734 0.10805429518222809 0.0807088166475296 0.007563278079032898 0.060606881976127625 0.0954345315694809 0.11347471177577972 0.005390778183937073 0.06206180155277252 -0.08007526397705078
0.07252950966358185 0.05700477957725525 -0.09405434131622314 0.06100040674209595 0.0787581205368042 0.05252666771411896 0.0942123532295227 0.043194785714149475 0.11512957513332367 -0.12498511373996735 -0.03723709285259247 0.004480227828025818 0.027230888605117798 -0.013654008507728577 -0.07668817043304443 0.017896875739097595 0.11954192817211151 0.09699518978595734 -0.1202467530965805 0.049322500824928284 -0.031215012073516846 0.11307565867900848 0.040588781237602234 -0.01687467098236084 -0.04906228184700012 0.09283773601055145 0.11108402907848358 0.039793193340301514 0.07848072052001953 -0.040926143527030945 0.04032517969608307 -0.0528845340013504 0.1247614324092865 0.04658113420009613 0.005459025502204895 -0.0406544953584671 0.09091512858867645 -0.04377087950706482 0.009008258581161499 -0.012488439679145813 0.021955549716949463 -0.07044218480587006 -0.028841078281402588 0.07790793478488922 0.10267026722431183 -0.020692437887191772 0.09306566417217255 0.0366295725107193 -0.12045378983020782 0.062027186155319214 -0.11269652843475342 0.004708424210548401 -0.05557064712047577 -0.09446027874946594 -0.05348750948905945 -0.10987398028373718 0.09398679435253143 0.06578472256660461 -0.032915279269218445 -0.08123612403869629 0.0987803190946579 -0.02817678451538086 0.07602109014987946 -0.06217829883098602
0.02918820083141327 0.058255016803741455 0.08548352122306824 -0.05329948663711548 -0.09399144351482391 0.10082563757896423 -0.10061731934547424 -0.030920058488845825 -0.09099002182483673 -0.030356377363204956 0.025615066289901733 0.08210256695747375 -0.008427724242210388 -0.07634121179580688 0.059917524456977844 -0.08613251149654388 -0.04192556440830231 -0.07442806661128998 -0.12095624208450317 -0.005580335855484009 0.07211212813854218 0.1048528254032135 0.03709821403026581 0.05830198526382446 0.03659933805465698 -0.051666319370269775 -0.06462390720844269 -0.090044766664505 0.025741279125213623 -0.02569127082824707 0.02445775270462036 -0.04544457793235779 -0.016825541853904724 0.018821239471435547 0.021367624402046204 0.08301268517971039 -0.11112040281295776 -0.08308562636375427 0.02287141978740692 -0.10691763460636139 0.10032618045806885 -0.11693811416625977 0.05913862586021423 0.11884899437427521 0.017549484968185425 -0.06400473415851593 0.12175743281841278 -0.09056995809078217 -0.05748024582862854 -0.04298749566078186 -0.11163307726383209 0.05981019139289856 0.007831722497940063 0.017948970198631287 0.008863717317581177 0.04706043004989624 0.031082510948181152 -0.07557755708694458 0.03546379506587982 0.08812986314296722 -0.08477205038070679 -0.10475800931453705 -0.035331860184669495 0.01668509840965271
-0.01410125195980072 -0.05188605189323425 -0.007878988981246948 0.009095221757888794 -0.1102147251367569 0.12120212614536285 -0.029191404581069946 0.041220828890800476 0.03760656714439392 0.04565386474132538 -0.08196958899497986 0.021625161170959473 0.11549399793148041 0.07887005805969238 -0.05186529457569122 -0.0012009590864181519 -0.05155418813228607 -0.005877494812011719 -0.01916193962097168 0.08653527498245239 0.1116049587726593 0.0270879864692688 -0.033536091446876526 -0.10642752051353455 0.049822211265563965 0.05722104012966156 0.023861169815063477 -0.10685035586357117 0.09736855328083038 -0.005695447325706482 -0.09398922324180603 -0.007554188370704651 0.013664066791534424 0.014817878603935242 -0.04204489290714264 -0.019921496510505676 -0.0332893431186676 0.015160098671913147 -0.010591447353363037 -0.10379518568515778 0.10096330940723419 0.10550299286842346 0.111052006483078 -0.06893090903759003 0.11507000029087067 0.10145065188407898 0.04108637571334839 0.05420367419719696 -0.09319530427455902 0.038787320256233215 0.036684319376945496 0.07856777310371399 0.01249551773071289 0.11528606712818146 0.09936913847923279 0.030071169137954712 0.06427313387393951 -0.03575804829597473 0.0009637027978897095 0.044932737946510315 0.043733373284339905 0.0743839293718338 0.07858110964298248 0.030117526650428772
0.08287955820560455 0.039612919092178345 0.10588236153125763 0.09584186971187592 -0.10042202472686768 0.008524835109710693 0.012985840439796448 0.007813423871994019 -0.07656264305114746 -0.10851417481899261 0.01871071755886078 -0.005562379956245422 0.10596725344657898 -0.0004472285509109497 -0.09687565267086029 -0.029876813292503357 -0.028464660048484802 0.12027420103549957 -0.09970082342624664 0.029372140765190125 -0.013181030750274658 -0.02382849156856537 -0.12476392090320587 -0.05198736488819122 -0.062103912234306335 -0.0920005589723587 0.033224478363990784 -0.1179661750793457 -0.030740544199943542 0.09834441542625427 0.006601393222808838 0.04471448063850403 -0.013990923762321472 -0.0845191478729248 -0.07552006840705872 0.12285508215427399 -0.06938329339027405 -0.05349116027355194 -0.015820786356925964 0.032478779554367065 0.0638679563999176 0.06875567138195038 -0.12117096781730652 0.04022136330604553 -0.08111882209777832 0.0037324130535125732 -0.01637783646583557 0.05551820993423462 -0.044137582182884216 0.0954631119966507 -0.10833881795406342 -0.10372884571552277 -0.05165529251098633 0.11402168869972229 0.03737686574459076 -0.08278314769268036 -0.10614418983459473 0.032519012689590454 0.10722264647483826 0.023478999733924866 0.020751208066940308 0.12122085690498352 -0.01025727391242981 -0.0895242840051651
0.055433228611946106 -0.12213778495788574 0.09484417736530304 -0.10442662239074707 0.07734614610671997 0.08766253292560577 -0.08408552408218384 0.0007871091365814209 -0.07143531739711761 -0.01880541443824768 0.039714545011520386 -0.000707283616065979 0.055136218667030334 0.0667073130607605 0.03887394070625305 -0.08023697137832642 -0.02294115722179413 0.07614539563655853 -0.09882847964763641 0.10522077977657318 -0.11519265174865723 0.0750948041677475 0.013775840401649475 -0.10238084197044373 -0.030027315020561218 0.0640028715133667 -0.007632404565811157 0.007524460554122925 -0.0018548816442489624 0.08302772045135498 -0.01136094331741333 0.12451334297657013 -0.07131172716617584 0.09693694114685059 -0.07861572504043579 -0.09973643720149994 -0.10270658135414124 -0.05262120068073273 0.06877274811267853 0.09192155301570892 0.030165016651153564 -0.046862274408340454 0.07110516726970673 0.11344170570373535 -0.12173649668693542 0.05509370565414429 0.1051531732082367 0.09571520984172821 0.026217803359031677 0.0016538798809051514 -0.021874725818634033 0.044243261218070984 -0.030213117599487305 0.08783172070980072 -0.09878061711788177 0.007514134049415588 0.12361249327659607 0.07893665134906769 -0.08479280769824982 0.1027684211730957 -0.053696006536483765 0.016838476061820984 0.017596885561943054 0.056311607360839844
-0.07386772334575653 -0.033720314502716064 0.04634985327720642 -0.09902232885360718 -0.1153792291879654 0.11001762747764587 0.04151514172554016 -0.05252964794635773 0.10064570605754852 0.052138686180114746 -0.03403833508491516 0.08323416113853455 0.12157100439071655 -0.00022417306900024414 -0.12075069546699524 -0.01949097216129303 0.06148365139961243 0.08429111540317535 -0.09423026442527771 -0.03149622678756714 0.06954477727413177 -0.020343095064163208 -0.034925416111946106 0.068294957280159 -0.011997818946838379 -0.07885141670703888 0.11832909286022186 -0.06486138701438904 -0.12118184566497803 0.08493517339229584 -0.014142036437988281 -0.005863994359970093 -0.08218403160572052 0.09743352234363556 0.03936859965324402 0.08576545119285583 -0.04818095266819 0.11088602244853973 0.04989662766456604 0.12125460803508759 0.06415392458438873 -0.018415644764900208 -0.06373703479766846 -0.04958692193031311 -0.06796567142009735 -0.009375184774398804 0.10697980225086212 0.04487757384777069 -0.05001969635486603 0.04895000159740448 -0.02527102828025818 0.07441581785678864 0.0030768215656280518 -0.08642366528511047 0.024857521057128906 -0.03906680643558502 0.0372006893157959 -0.02270849049091339 0.07932274043560028 -0.08429451286792755 -0.10530306398868561 -0.07393552362918854 -0.08889235556125641 0.08404532074928284
-0.0865570455789566 -0.0020859986543655396 0.08782108128070831 -0.03205209970474243 -0.11023204028606415 0.07448695600032806 0.04838080704212189 0.1162145584821701 0.0689677745103836 0.11140583455562592 0.10164819657802582 -0.11135543882846832 0.06393285095691681 -0.01632864773273468 0.06041383743286133 -0.009664222598075867 -0.03904522955417633 0.0038178563117980957 0.038543492555618286 -0.029829606413841248 -0.09899604320526123 -0.07376785576343536 0.11169371008872986 0.11624056100845337 -0.07303918898105621 -0.04271434247493744 -0.10560262203216553 -0.060929298400878906 -0.04766663908958435 0.03217419981956482 0.03794737160205841 -0.07906614243984222 -0.02161671221256256 0.11166702210903168 -0.09257709980010986 -0.05661188066005707 0.004993349313735962 0.07262574136257172 0.11039392650127411 0.00042743980884552 0.037313804030418396 0.12254288792610168 -0.10402275621891022 0.12147325277328491 -0.11078260838985443 -0.027616605162620544 0.04163964092731476 0.00476895272731781 -0.0488148033618927 0.06022122502326965 0.0774964839220047 -0.06058530509471893 -0.027898401021957397 -0.03225964307785034 0.0867685079574585 -0.04923005402088165 0.12170441448688507 0.08329793810844421 -0.06515145301818848 -0.0007777214050292969 0.12492932379245758 0.029374897480010986 -0.08451393246650696 0.008113712072372437
-0.11466492712497711 -0.06763464212417603 0.0636640340089798 -0.10603263974189758 -0.09139350056648254 -0.051213473081588745 0.06739795207977295 0.0891425609588623 0.10439439117908478 -0.04902651906013489 0.09634308516979218 -0.12035173177719116 -0.1014445424079895 0.005916193127632141 0.0033124834299087524 -0.09360596537590027 -0.008814826607704163 -0.010268926620483398 -0.09745635092258453 -0.08497011661529541 -0.08490107953548431 0.035160794854164124 0.07493895292282104 0.11570900678634644 0.11964975297451019 0.08732923865318298 0.06258070468902588 -0.015933558344841003 -0.10575881600379944 0.029232129454612732 0.07171353697776794 0.1188589483499527 -0.036337271332740784 -0.10541403293609619 -0.1188671737909317 -0.11324843764305115 -0.058704450726509094 -0.001236245036125183 -0.06992660462856293 -0.024329274892807007 0.04101760685443878 -0.07757754623889923 -0.10792428255081177 0.03329811990261078 0.06701211631298065 -0.05150185525417328 0.07199370861053467 0.1087396889925003 0.10826312005519867 -0.058515310287475586 -0.11950504779815674 -0.048384711146354675 0.0026986896991729736 0.03353169560432434 -0.12337698042392731 -0.02650141716003418 0.03372156620025635 -0.06590835750102997 0.012000888586044312 -0.02679377794265747 -0.010823532938957214 -0.11487434804439545 -0.056395500898361206 -0.03631478548049927
0.11859418451786041 -0.08522026240825653 -0.012814566493034363 -0.015397995710372925 0.020083069801330566 0.007188126444816589 -0.12028832733631134 0.11450444161891937 -0.03331393003463745 0.05772764980792999 -0.09536990523338318 0.0209360271692276 -0.0945819616317749 -0.018166139721870422 -0.11679647862911224 0.05531418323516846 -0.08255311846733093 -0.0051529258489608765 -0.04549035429954529 -0.10231372714042664 -0.01535053551197052 0.013040557503700256 -0.12291713058948517 -0.05766531825065613 0.02624368667602539 -0.0699501484632492 0.04657265543937683 -0.11920258402824402 0.04409034550189972 -0.022291138768196106 -0.09900486469268799 0.021642670035362244 0.08795565366744995 0.10882687568664551 0.08621804416179657 0.09391570091247559 0.023277997970581055 -0.09235921502113342 -0.119823157787323 0.026537299156188965 -0.04478064179420471 0.12095566093921661 0.09776325523853302 -0.06874439120292664 0.10662151873111725 -0.07501034438610077 -0.10746772587299347 0.002110898494720459 0.10101576149463654 -0.009241148829460144 0.025519534945487976 -0.026205435395240784 0.03456471860408783 -0.11302223801612854 0.05305983126163483 0.0661599189043045 0.04642769694328308 -0.11067284643650055 0.060889020562171936 -0.009908676147460938 -0.04644253849983215 0.0674043744802475 0.019074589014053345 0.08556954562664032
-0.09468814730644226 0.004040732979774475 0.06640276312828064 0.023016780614852905 0.09782031178474426 -0.11025373637676239 0.03683941066265106 0.12414306402206421 0.001408502459526062 -0.0029290467500686646 0.012538895010948181 0.11634011566638947 -0.06051957607269287 -0.057613834738731384 0.05430664122104645 -0.010270625352859497 -0.05357988178730011 -0.0020656436681747437 -0.0020825713872909546 0.05465686321258545 0.08386051654815674 0.1166229099035263 -0.06447252631187439 -0.11471740901470184 -0.04033501446247101 -0.09461449086666107 0.08480963110923767 -0.0718076080083847 -0.10903842747211456 -0.023279279470443726 -0.009322717785835266 -0.09369733929634094 -0.11994186043739319 0.05139726400375366 0.003645762801170349 -0.04774126410484314 0.10189191997051239 0.09428946673870087 0.09552960097789764 -0.019203707575798035 -0.041120827198028564 -0.0371425598859787 -0.009175717830657959 0.06737029552459717 -0.10883994400501251 0.10634638369083405 0.0634460598230362 -0.02215111255645752 -0.12332265079021454 -0.04616861045360565 0.10464225709438324 0.0063795894384384155 -0.022335559129714966 0.10505697131156921 -0.028557702898979187 0.04880604147911072 0.1008790135383606 -0.1040203720331192 0.08612877130508423 0.11297082901000977 0.05573301017284393 0.025812983512878418 -0.015042409300804138 -0.07917051017284393
-0.008005678653717041 0.020294740796089172 -0.0045074522495269775 0.11074057221412659 -0.03844478726387024 -0.01399916410446167 -0.06341627240180969 -0.10251687467098236 -0.11591517925262451 0.06546546518802643 -0.07321806252002716 -0.03779241442680359 -0.04275524616241455 -0.06867574155330658 0.09519687294960022 -0.0498695969581604 -0.09044112265110016 -0.004646912217140198 -0.006891146302223206 0.011803403496742249 0.08542560040950775 0.0517207533121109 -0.07341894507408142 -0.08363068103790283 -0.02170434594154358 -0.0337662398815155 0.12463454902172089 -0.04171109199523926 0.07026104629039764 0.0999230295419693 -0.06678114831447601 -0.09586238861083984 0.07185293734073639 -0.03381124138832092 0.08373349905014038 -0.06296269595623016 -0.09109272062778473 -0.01595810055732727 -0.11797532439231873 0.054990485310554504 0.09936858713626862 -0.08793318271636963 -0.06392578780651093 0.08410494029521942 0.10132838785648346 0.06688664853572845 0.0020963847637176514 -0.015741780400276184 -0.0835774838924408 0.005092442035675049 -0.0523315966129303 -0.11964568495750427 -0.025408700108528137 0.01788240671157837 -0.006283774971961975 -0.04460892081260681 0.06820078194141388 -0.07042774558067322 0.0868646651506424 0.06994681060314178 -0.00996367633342743 0.07701966166496277 -0.03727559745311737 -0.0346556156873703
-0.0788917988538742 -0.02883896231651306 -0.03629450500011444 0.03140641748905182 -0.03895720839500427 -0.10684217512607574 -0.10330677032470703 -0.08548231422901154 0.04117368161678314 -0.11102737486362457 -0.0647127777338028 -0.09121640026569366 -0.06807009875774384 0.004382267594337463 -0.00953131914138794 0.013465046882629395 -0.09775234758853912 -0.07944333553314209 0.11088959872722626 -0.07164081931114197 -0.025926828384399414 0.026605606079101562 -0.09281167387962341 -0.02926523983478546 -0.04533234238624573 -0.043196216225624084 -0.01927073299884796 0.011692613363265991 0.008668571710586548 0.1159549206495285 0.11648029088973999 0.03591601550579071 -0.0016595721244812012 0.0818042904138565 0.002800300717353821 0.018367379903793335 0.021222636103630066 0.05708490312099457 0.035485491156578064 -0.11903257668018341 -0.09968380630016327 0.029615744948387146 0.03877440094947815 -0.07608544826507568 0.050605595111846924 -0.0918215960264206 -0.11672571301460266 -0.06927016377449036 0.12325488030910492 -0.04409146308898926 0.10559244453907013 0.050935059785842896 -0.006004899740219116 -0.10448139905929565 -0.008193209767341614 0.08218534290790558 0.11916100978851318 0.05086752772331238 -0.11610749363899231 -0.11136490106582642 0.06689633429050446 -0.0832376629114151 0.11592923104763031 0.07177132368087769
-0.10096955299377441 -0.02680298686027527 -0.06281237304210663 0.11736468970775604 0.08929534256458282 0.1082061231136322 -0.09876595437526703 -0.006471380591392517 0.10304273664951324 0.03737364709377289 0.06770521402359009 -0.09890410304069519 0.04720170795917511 -0.05391120910644531 -0.0627840906381607 0.0872945487499237 0.08111774921417236 -0.00035099685192108154 -0.11720596253871918 -0.01519690454006195 -0.05028827488422394 0.04032662510871887 -0.11362878978252411 0.12301042675971985 0.0760803073644638 -0.10293948650360107 0.008380040526390076 0.09581290185451508 -0.1011422723531723 -0.09160701930522919 0.09456275403499603 0.07079565525054932 -0.12314063310623169 0.04777988791465759 -0.026621520519256592 0.045813411474227905 -0.0591968297958374 -0.053207844495773315 0.1171565055847168 -0.10282161831855774 -0.12219497561454773 0.07773734629154205 0.1059274822473526 -0.12053301930427551 -0.06058332324028015 0.11735667288303375 0.10023240745067596 -0.11460791528224945 0.043885737657547 0.04371362924575806 -0.03393830358982086 0.02842271327972412 0.07173028588294983 0.12367911636829376 -0.028156131505966187 0.07810176908969879 0.06404991447925568 0.0016490966081619263 0.0535050630569458 0.02902679145336151 0.03155149519443512 -0.06627097725868225 0.01440499722957611 -0.10081517696380615
0.11207328736782074 0.09637781977653503 -0.02134820818901062 -0.06483970582485199 0.026832982897758484 0.1230781078338623 0.09946645796298981 -0.053327783942222595 -0.10317136347293854 -0.123891681432724 0.06992541253566742 -0.02080284059047699 -0.05130745470523834 0.0224287211894989 0.044488176703453064 0.013330653309822083 -0.09557962417602539 -0.07265155017375946 -0.014353454113006592 0.006203904747962952 -0.12214435636997223 -0.0898447334766388 -0.11406601965427399 0.10307614505290985 0.09823042154312134 -0.10617029666900635 -0.014680877327919006 0.044145986437797546 0.0020218491554260254 0.10101217031478882 0.0994713306427002 0.010990992188453674 0.09793221950531006 -0.020092293620109558 -0.028140291571617126 0.04506520926952362 0.06020539999008179 0.12253803014755249 0.023550480604171753 -0.058356478810310364 -0.040408775210380554 -0.01864856481552124 -0.06814776360988617 0.03503309190273285 0.04881909489631653 0.08030083775520325 0.0036271512508392334 -0.01724483072757721 -0.11272400617599487 -0.10421550273895264 0.12389664351940155 -0.09579570591449738 -0.056667909026145935 -0.10829296708106995 -0.07687179744243622 0.08863864839076996 0.062258318066596985 -0.04266558587551117 -0.0932847410440445 0.07958683371543884 0.03887741267681122 -0.03131701052188873 0.01082475483417511 0.022817566990852356
0.015650078654289246 0.10432654619216919 0.11616207659244537 -0.08668145537376404 -0.08245790004730225 0.10238316655158997 -0.050138965249061584 -0.11448487639427185 -0.0775110125541687 -0.1139252632856369 0.012616857886314392 -0.06828665733337402 0.09202003479003906 -0.06738632917404175 0.12283456325531006 -0.10021606087684631 0.05693574249744415 -0.03037409484386444 -0.12107416987419128 0.08884796500205994 0.01907116174697876 0.056880414485931396 -0.01918727159500122 0.07484221458435059 -0.018001273274421692 0.021513715386390686 -0.09512463212013245 -0.06668099761009216 -0.09141232073307037 0.030876800417900085 0.0677361935377121 0.03582228720188141 -0.04183031618595123 0.05517074465751648 0.021661624312400818 -0.09576575458049774 -0.09107866883277893 0.05947504937648773 -0.040882572531700134 0.04033127427101135 0.11080071330070496 -0.07485800981521606 0.018258333206176758 0.028384074568748474 -0.10770584642887115 0.03879520297050476 0.010516151785850525 -0.114841029047966 0.11251258850097656 -0.07931560277938843 -0.0225067138671875 -0.11904892325401306 0.04026944935321808 0.0009483546018600464 -0.08552229404449463 0.12418350577354431 -0.043930038809776306 -0.08570879697799683 0.12446624040603638 0.09166604280471802 0.011827364563941956 0.0027534663677215576 -0.09627151489257812 0.09881648421287537
0.04772752523422241 -0.05471518635749817 0.1127917617559433 0.0734938234090805 -0.04374225437641144 -0.06429682672023773 -0.00674852728843689 -0.10666356980800629 0.02180279791355133 -0.02927766740322113 0.039035335183143616 -0.11755360662937164 0.03217536211013794 -0.08799080550670624 0.029706478118896484 0.04931509494781494 0.11082319915294647 0.0905846357345581 -0.08286342024803162 0.12344737350940704 0.12194062769412994 0.0929744690656662 0.0963483452796936 -0.09238678216934204 -0.0659598857164383 -0.07017728686332703 -0.009426981210708618 -0.06568102538585663 0.12121890485286713 -0.0794782042503357 0.12397690117359161 0.10832183063030243 0.055735066533088684 0.00033023953437805176 -0.035970136523246765 -0.12421360611915588 -0.09979499876499176 0.01573522388935089 0.040620356798172 -0.09540414810180664 0.1040872186422348 -0.0635094940662384 -0.056166961789131165 -0.10746428370475769 -0.036684975028038025 -0.0976509302854538 0.05180083215236664 0.07518799602985382 -0.01698121428489685 -0.06317618489265442 -0.12365931272506714 -0.09978173673152924 0.040359482169151306 -0.05582010746002197 -0.024380415678024292 -0.09079910814762115 -0.09604038298130035 -0.04215210676193237 -0.01139029860496521 -0.06879763305187225 0.05377352237701416 0.007112547755241394 0.1216547042131424 -0.08579568564891815
0.09270668029785156 -0.03074486553668976 -0.059621661901474 -0.015608340501785278 -0.00018414855003356934 -0.04705794155597687 0.1125468760728836 0.00017660856246948242 -0.0183103084564209 -0.05517968535423279 0.013253822922706604 0.03961808979511261 0.06381601095199585 -0.09800781309604645 -0.011223644018173218 -0.04914209246635437 -0.06121823191642761 0.08356305956840515 0.021128922700881958 -0.0801023542881012 -0.009132981300354004 -0.04366305470466614 0.11094468832015991 0.10996320843696594 -0.11192108690738678 0.035441264510154724 -0.02734215557575226 -0.1048661321401596 -0.12468104064464569 0.05027340352535248 -0.07917600870132446 0.03521201014518738 0.11539570987224579 0.021010026335716248 -0.06774725019931793 0.03461506962776184 -0.0801590085029602 0.09448215365409851 0.007248863577842712 -0.06508244574069977 0.08661800622940063 -0.09804916381835938 -0.08240285515785217 0.03177620470523834 -0.10144321620464325 0.09331408143043518 0.03740490972995758 0.06958696246147156 -0.005777761340141296 0.09571012854576111 0.12092036008834839 -0.010006308555603027 0.021041929721832275 -0.08976346254348755 0.002780720591545105 -0.09519477188587189 -0.10322277247905731 -0.10567395389080048 0.06317619979381561 0.007048606872558594 0.12354433536529541 -0.11993029713630676 0.06934696435928345 0.08471502363681793
-0.061142534017562866 -0.0506410151720047 -0.02808794379234314 -0.08709399402141571 0.015070796012878418 -0.060397058725357056 0.06712591648101807 0.0730176717042923 0.048385605216026306 0.11565603315830231 0.041907474398612976 0.028254374861717224 0.015401914715766907 0.09998507797718048 0.00570911169052124 -0.09431803226470947 -0.030650481581687927 0.06672514975070953 0.07968313992023468 -0.057543471455574036 0.07982219755649567 -0.09787355363368988 0.0975465178489685 -0.05883242189884186 -0.062212154269218445 0.027306243777275085 0.08661675453186035 0.06220942735671997 0.04842670261859894 0.038069531321525574 0.12293997406959534 0.11166180670261383 0.08568163216114044 0.06214362382888794 0.116084024310112 -0.07730777561664581 0.0975072830915451 -0.07487161457538605 0.018519312143325806 0.06944027543067932 -0.0947934091091156 0.005431756377220154 0.06219930946826935 -0.06551863253116608 -0.05033425986766815 -0.02747921645641327 -0.04360856115818024 -0.023811563849449158 0.09150233864784241 0.10614556074142456 0.10003146529197693 0.11862675845623016 -0.057353779673576355 0.10522939264774323 0.09737342596054077 -0.012840688228607178 0.035308822989463806 0.08431404829025269 0.030351966619491577 -0.08129124343395233 0.046193927526474 0.09661757946014404 0.026672005653381348 0.052784428000450134
-0.02971358597278595 -0.12027162313461304 -0.01758657395839691 -0.06837782263755798 -0.06707921624183655 -0.04633930325508118 -0.05642671883106232 -0.11402693390846252 -0.01684221625328064 0.012613728642463684 0.10785393416881561 -0.04214334487915039 -0.08441010117530823 0.08334337174892426 -0.10978855192661285 0.02878129482269287 -0.07047143578529358 0.08746989071369171 0.09916894137859344 -0.07766313850879669 -0.057927727699279785 -0.03184498846530914 -0.08487190306186676 -0.043339803814888 -0.08273780345916748 -0.041519686579704285 -0.05605807900428772 0.09171687066555023 -0.12483955919742584 0.016587018966674805 0.05305136740207672 -0.036204248666763306 0.0060194432735443115 -0.0401490181684494 -0.10843747854232788 -0.11133061349391937 0.09281973540782928 0.02634146809577942 0.036716967821121216 0.037439897656440735 -0.11948257684707642 -0.05358968675136566 0.061750590801239014 0.10547927021980286 -0.05496867001056671 0.026180505752563477 0.04377691447734833 -0.07801827788352966 0.09177999198436737 -0.06379945576190948 0.052611351013183594 -0.018460378050804138 0.03128558397293091 -0.07814666628837585 -0.04500998556613922 -0.06212611496448517 -0.024852171540260315 -0.06427687406539917 -0.03828594088554382 -0.0656382143497467 0.020446792244911194 -0.112586110830307 -0.011689931154251099 0.07095298171043396
0.10078181326389313 0.027997896075248718 -0.10735896229743958 0.06713050603866577 -0.06597153842449188 -0.04200237989425659 0.12359181046485901 -0.023825302720069885 0.11067305505275726 0.016581490635871887 -0.09161947667598724 0.04471053183078766 -0.08684824407100677 -0.06684401631355286 -0.016359463334083557 0.015311941504478455 -0.018014073371887207 -0.12120197713375092 0.0864463597536087 -0.09304295480251312 0.0012153387069702148 0.03881025314331055 0.10300646722316742 0.007916957139968872 -0.09792692959308624 0.08817912638187408 -0.04391540586948395 0.09050709009170532 0.0676533579826355 0.04729585349559784 0.10654105246067047 0.008418038487434387 -0.0735684335231781 -0.10898208618164062 -0.0976654440164566 0.0949217826128006 0.05709467828273773 -0.00670953094959259 -0.06123653054237366 -0.06330114603042603 0.03814131021499634 0.09681487083435059 -0.014164581894874573 -0.08716636896133423 -0.032038405537605286 0.03441847860813141 -0.03612895309925079 0.0772603452205658 -0.05651889741420746 0.10687470436096191 -0.05318461358547211 0.10600894689559937 -0.03660893440246582 -0.07033272087574005 0.042475417256355286 0.03328430652618408 0.05803687870502472 0.04516512155532837 0.08858160674571991 0.011958971619606018 -0.03700330853462219 0.0929001122713089 -0.056392863392829895 0.06963899731636047
-0.10258838534355164 0.012235522270202637 -0.07464225590229034 -0.027009084820747375 -0.037860170006752014 -0.01400485634803772 -0.03884880244731903 0.04104773700237274 0.11845043301582336 0.08191603422164917 0.055878594517707825 -0.04621616005897522 0.10847312211990356 0.12018479406833649 0.11631689965724945 0.061234429478645325 -0.02653174102306366 -0.047941580414772034 -0.07355619966983795 0.045055851340293884 -0.04396486282348633 0.027602314949035645 -0.0016369521617889404 0.0673564225435257 0.01305590569972992 -0.040811687707901 0.05330464243888855 -0.04845109581947327 -0.12357915937900543 0.07105812430381775 -0.08453753590583801 0.07189686596393585 -0.0008749514818191528 -0.014221981167793274 -0.10958106815814972 0.06219446659088135 -0.0865391343832016 0.11173377931118011 0.10428108274936676 0.09432812035083771 -0.06749971210956573 0.08725015819072723 -0.03632305562496185 -0.06886015832424164 -0.07810977101325989 -0.00016674399375915527 0.1044301837682724 0.0710512101650238 -0.07945086061954498 0.07127347588539124 0.11197754740715027 0.07812458276748657 -0.12355779111385345 0.06396655738353729 0.09281434118747711 -0.08810535073280334 -0.07458768784999847 -0.034162476658821106 -0.07315477728843689 -0.0737188458442688 0.11283119022846222 0.11678509414196014 -0.06571090221405029 -0.12127155065536499
-0.040892258286476135 -0.007424831390380859 -0.10727164149284363 0.08521594107151031 0.009192138910293579 -0.0928894430398941 -0.01340658962726593 0.022904738783836365 0.08301803469657898 0.028644442558288574 -0.08003504574298859 0.08666156232357025 0.03499270975589752 0.08750887215137482 0.022296488285064697 -0.1238749772310257 -0.12408939003944397 -0.09321105480194092 -0.026720285415649414 -0.04513068497180939 0.04117238521575928 0.08498801290988922 -0.09998150169849396 -0.11695656180381775 -0.08864684402942657 0.06854480504989624 0.07891795039176941 0.10783016681671143 -0.025486379861831665 -0.09417735040187836 0.04075928032398224 0.07380858063697815 0.08500835299491882 -0.06256528198719025 -0.07504604756832123 0.07211306691169739 0.0622512549161911 -0.09880337119102478 -0.023581191897392273 0.016481012105941772 -0.053553223609924316 -0.047354236245155334 -0.046350494027137756 0.027835160493850708 0.012287721037864685 -0.02452842891216278 0.11185429990291595 0.10097752511501312 0.014287546277046204 -0.0353221595287323 0.10945089161396027 -0.10700425505638123 0.007534325122833252 -0.1094837486743927 -0.00039471685886383057 0.07970018684864044 0.08341243863105774 -0.043759435415267944 -0.05705004930496216 -0.051280677318573 -0.106891930103302 0.09846286475658417 -0.10809493064880371 0.11251932382583618
-0.02860802412033081 0.03349973261356354 -0.03759640455245972 -0.08033846318721771 -0.0992952287197113 0.12086731195449829 -0.023153692483901978 -0.0694776177406311 0.05411824584007263 0.11461897194385529 -0.07785703241825104 -0.014694839715957642 -0.026395127177238464 0.06215474009513855 0.11111404001712799 -0.0016719847917556763 0.06135493516921997 -0.06791852414608002 -0.04136604070663452 0.11675995588302612 -0.10577772557735443 -0.05021582543849945 -0.12341168522834778 -0.05393245816230774 0.0451311320066452 -0.013965338468551636 0.018066421151161194 0.006044596433639526 -0.08476635813713074 -0.00427033007144928 0.09402783215045929 0.08868774771690369 0.048345595598220825 0.11254426836967468 -0.037723109126091 -0.07595477998256683 -0.12317804992198944 0.09941878914833069 0.10862581431865692 0.08977535367012024 0.038260430097579956 0.05152502655982971 0.004011228680610657 -0.08265016973018646 0.03372688591480255 -0.004244446754455566 -0.045907244086265564 -0.11313965916633606 0.051183804869651794 -0.008209526538848877 -0.02581097185611725 0.057165056467056274 0.046918436884880066 0.019804686307907104 -0.0276934951543808 -0.05898815393447876 -0.053943291306495667 -0.060451045632362366 -0.01267234981060028 -0.09676437079906464 -0.03450113534927368 -0.06898656487464905 -0.03456363081932068 0.004758924245834351
0.05936616659164429 0.08013002574443817 -0.015514105558395386 -0.0363214910030365 0.08895301818847656 -0.09092733263969421 0.013736352324485779 -0.05564966797828674 -0.039480119943618774 -0.063796266913414 0.11723273992538452 -0.054158151149749756 0.053012579679489136 0.03503976762294769 -0.06959106028079987 -0.06937094032764435 -0.05616304278373718 0.09093998372554779 0.0014688968658447266 -0.02478015422821045 0.07640790939331055 0.0017107576131820679 0.04229910671710968 -0.048541128635406494 -0.040330588817596436 0.07668790221214294 0.037619203329086304 -0.1101469099521637 -0.12481111288070679 0.07976941764354706 0.06007525324821472 0.004774019122123718 -0.018963828682899475 0.05894927680492401 0.0889902412891388 -0.07384303212165833 0.07998882234096527 -0.1063014417886734 -0.11053001880645752 -0.028024956583976746 0.10065716505050659 0.007101729512214661 -0.10070934891700745 0.07350346446037292 0.08554732799530029 0.02910839021205902 -0.08508948981761932 0.08570730686187744 -0.010371014475822449 -0.11191941797733307 -0.04241622984409332 -0.0713193267583847 -0.06384004652500153 -0.0763634443283081 0.04437069594860077 -0.03459884226322174 -0.04745861887931824 -0.12362153828144073 0.0579950213432312 -0.11194902658462524 -0.06318853795528412 0.019037306308746338 0.11830630898475647 -0.11748400330543518
-0.045212000608444214 -0.02673499286174774 0.011111915111541748 0.030127450823783875 -0.03670179843902588 0.09513595700263977 0.03284379839897156 0.058490902185440063 -0.08410736918449402 0.09935131669044495 -0.04643304646015167 0.09428998827934265 -0.11961778998374939 0.0719338208436966 0.07762235403060913 -0.024807602167129517 -0.07422219216823578 -0.06047980487346649 0.021001115441322327 -0.026376813650131226 0.03789670765399933 -0.018958523869514465 0.018283873796463013 0.05276566743850708 0.08378337323665619 0.050095438957214355 0.11215212941169739 -0.024533510208129883 -0.04463037848472595 -0.032108813524246216 0.06691454350948334 0.01307445764541626 0.04345385730266571 -0.037673160433769226 -0.05557452142238617 -0.019578948616981506 0.0919235348701477 -0.05505289137363434 -0.07741254568099976 -0.08587311208248138 0.11890122294425964 -0.04654361307621002 0.05318056046962738 -0.05181054770946503 -0.10205201804637909 0.07970748841762543 -0.02057783305644989 0.07778957486152649 0.0402279794216156 -0.0829286277294159 0.09372040629386902 -0.015613123774528503 0.11211691796779633 -0.0184096097946167 0.09972907602787018 0.08978228271007538 -0.062098681926727295 0.07040552794933319 0.09648303687572479 -0.02384895086288452 0.06856320798397064 0.08254283666610718 -0.07427090406417847 0.12464818358421326
-0.07095198333263397 0.0022766441106796265 0.10043597221374512 0.0740952342748642 0.07676583528518677 0.08513960242271423 0.0875302106142044 -0.09424525499343872 -0.11346936225891113 -0.07117025554180145 -0.0006633251905441284 0.02198931574821472 -0.06443051993846893 0.115515798330307 -0.02387136220932007 0.01917576789855957 -0.03406436741352081 0.029815256595611572 -0.11350622773170471 0.04850928485393524 -0.12312334775924683 -0.10037919878959656 0.07378801703453064 0.06635026633739471 0.0344889760017395 -0.08860580623149872 0.03924560546875 -0.10673283040523529 -0.075446218252182 0.09886671602725983 -0.05123069882392883 0.046868130564689636 0.0885741263628006 0.06112052500247955 -0.11186371743679047 0.0033708512783050537 -0.11836712062358856 -0.06816373765468597 0.0911540687084198 0.002575218677520752 -0.040705591440200806 0.014266327023506165 0.12274046242237091 0.12455400824546814 -0.01685294508934021 0.03908967971801758 -0.08392152190208435 0.07131844758987427 0.06403100490570068 -0.11593635380268097 0.004380404949188232 -0.09917666018009186 -0.09000976383686066 -0.11107179522514343 -0.12040606141090393 0.0852702409029007 -0.07903021574020386 0.046247243881225586 0.11952894926071167 -0.05431918799877167 -0.015470117330551147 0.10146413743495941 -0.11992467939853668 -0.017961114645004272
-0.02599494159221649 -0.02380301058292389 -0.04177899658679962 -0.10503721237182617 0.008485868573188782 0.03561989963054657 0.05151662230491638 -0.06848245859146118 -0.04636943340301514 -0.10610871016979218 0.06894366443157196 0.0600876659154892 -0.07151016592979431 0.0893864631652832 0.01984246075153351 0.04345734417438507 0.0750999003648758 0.06443847715854645 -0.11946116387844086 -0.017183855175971985 -0.02248096466064453 -0.012340947985649109 0.05079646408557892 0.021230369806289673 -0.039978206157684326 0.11389760673046112 -0.11482127010822296 0.003078654408454895 0.020216643810272217 0.0061533451080322266 0.03884299099445343 -0.11755575239658356 0.02983810007572174 -0.0518195778131485 0.032244518399238586 -0.0018215775489807129 0.06887228786945343 0.08518913388252258 0.08908893167972565 -0.06220236420631409 0.03394560515880585 -0.10970033705234528 0.043813884258270264 -0.013225838541984558 -0.0011502653360366821 -0.07368366420269012 -0.1005638986825943 -0.05791248381137848 0.02966393530368805 0.0946883112192154 -0.07692733407020569 -0.04690031707286835 0.027929022908210754 0.09919650852680206 0.11253665387630463 -0.03649216890335083 0.09340611100196838 0.08218660950660706 0.04075819253921509 0.08823925256729126 0.001257866621017456 -0.0404231995344162 -0.05470617115497589 -0.07204411923885345
0.032946035265922546 0.11016088724136353 0.0841200053691864 0.003008037805557251 -0.055233433842659 -0.06412005424499512 0.09901756048202515 -0.03972606360912323 0.08050024509429932 -0.07961449027061462 -0.007089763879776001 0.033597469329833984 0.060378655791282654 -0.010432735085487366 0.050007373094558716 0.060153111815452576 -0.06633231043815613 0.018279552459716797 0.018361598253250122 0.07361957430839539 -0.02965952455997467 -0.03075234591960907 -0.09082162380218506 -0.08147649466991425 -0.11751438677310944 0.05222530663013458 -0.03375855088233948 -0.11322574317455292 0.06064008176326752 0.06562784314155579 -0.1239146888256073 0.09267960488796234 -0.08351562917232513 -0.04435053467750549 0.0800161361694336 0.07386712729930878 0.10248425602912903 -0.0018919408321380615 -0.12077796459197998 0.11633956432342529 0.005912885069847107 0.11761236190795898 -0.008530452847480774 -0.014368623495101929 0.020042985677719116 0.08695779740810394 -0.00013184547424316406 0.12054002285003662 0.12211661040782928 0.06013120710849762 -0.040066227316856384 0.03891982138156891 0.053022220730781555 -0.04367625713348389 -0.03100357949733734 0.025594159960746765 -0.007398366928100586 -0.03478759527206421 0.003018423914909363 0.08816519379615784 -0.11371101438999176 -0.04889848828315735 0.12008430063724518 -0.07813656330108643
-0.019269078969955444 0.12493707239627838 0.10196283459663391 -0.07200370728969574 0.06975345313549042 -0.04559238255023956 0.008935213088989258 0.013756871223449707 -0.020766481757164 -0.03848676383495331 -0.01513315737247467 0.013126567006111145 0.044037967920303345 0.10970348119735718 -0.027529969811439514 -0.12164826691150665 0.06720420718193054 0.08844675123691559 -0.0653814822435379 -0.02525964379310608 0.10995934903621674 -0.04933740198612213 0.02918638288974762 0.08848491311073303 0.021366044878959656 -0.019638732075691223 0.011539623141288757 0.015963613986968994 -0.007483184337615967 0.020683273673057556 0.05727493762969971 -0.07388579845428467 -0.04217115044593811 0.09360718727111816 -0.08124002814292908 0.08598887920379639 -0.074600949883461 -0.11947643756866455 -0.10391806066036224 0.01851600408554077 0.04862825572490692 0.07710269093513489 0.046264827251434326 0.06512141227722168 -0.08524765074253082 0.06115026772022247 -0.01596006751060486 0.07022814452648163 -0.07871153950691223 -0.10101404786109924 -0.016155004501342773 0.04410591721534729 0.0011631548404693604 0.11706750094890594 -0.035762935876846313 0.026215165853500366 -0.03827942907810211 0.12007710337638855 -0.030034035444259644 -0.08873093128204346 0.009111866354942322 -0.08703963458538055 -0.03559070825576782 0.08957517147064209
0.07690875232219696 -0.048538461327552795 0.050301969051361084 0.02936410903930664 -0.05190061032772064 -0.00298173725605011 -0.036257848143577576 0.031171023845672607 -0.10945215821266174 0.04383043944835663 -0.06344182789325714 -0.07654403150081635 0.034953609108924866 0.0827011913061142 -0.009043291211128235 -0.0762263834476471 0.0032879114151000977 -0.10539168119430542 -0.08924715220928192 -0.07686291635036469 0.059781089425086975 0.10354872047901154 -0.035457998514175415 -0.0010673552751541138 -0.031202256679534912 0.12124724686145782 -0.02464398741722107 0.02935628592967987 -0.0025836676359176636 0.11784324049949646 0.012479037046432495 0.11973161995410919 -0.05777926743030548 0.0877421647310257 0.11637076735496521 0.061267271637916565 -0.07503502070903778 -0.014117106795310974 -0.057307660579681396 0.04774700105190277 0.06053332984447479 -0.05923902988433838 0.04536814987659454 0.07200625538825989 -0.06387867033481598 -0.11954817175865173 -0.10324066877365112 -0.0440446138381958 0.08768768608570099 0.07114256918430328 0.07517379522323608 -0.021870598196983337 0.05139362812042236 0.09416389465332031 -0.11056837439537048 0.051857009530067444 0.030271083116531372 0.042251020669937134 -0.03140293061733246 0.11093631386756897 -0.007862672209739685 0.015986338257789612 -0.08043375611305237 0.00028565526008605957
-0.09562283754348755 -0.013341546058654785 0.10109646618366241 -0.10428309440612793 -0.023169144988059998 -0.08493266999721527 0.057187408208847046 -0.0905313789844513 -0.08973361551761627 -0.027592435479164124 -0.025032803416252136 -0.05192025005817413 -0.046378105878829956 0.04432472586631775 0.08389602601528168 -0.003690585494041443 0.08278034627437592 0.012779101729393005 0.0804455429315567 0.049194738268852234 0.0797877311706543 0.03144209086894989 -0.12211674451828003 0.037599220871925354 0.049173444509506226 0.027995198965072632 -0.06704212725162506 -0.0762101411819458 -0.02220979332923889 0.11508823931217194 0.045505911111831665 -0.06300587952136993 -0.1123591810464859 0.0828380286693573 -0.0658193826675415 0.03842952847480774 -0.002287641167640686 -0.054119378328323364 0.11592400074005127 -0.031489744782447815 0.03699439764022827 0.056117311120033264 -0.008320733904838562 0.009768173098564148 0.0005397498607635498 -0.10355165600776672 0.0262870192527771 0.08278077840805054 -0.08196988701820374 0.08256436884403229 0.0865492969751358 -0.0025315433740615845 0.06482532620429993 -0.05350223183631897 -0.01664164662361145 -0.007304951548576355 0.06896963715553284 -0.10937829315662384 0.08142624795436859 -0.04844675958156586 -0.08823436498641968 0.014145642518997192 -0.014239102602005005 -0.014206305146217346
0.06364277005195618 0.0030973851680755615 -0.0847766250371933 0.050059765577316284 0.05673661828041077 0.09587273001670837 0.10178646445274353 0.0569336861371994 -0.06405097246170044 0.0035346299409866333 0.07996799051761627 -0.009648129343986511 -0.07295696437358856 0.1042022556066513 -0.08292053639888763 0.061507344245910645 0.09613046050071716 -0.05563247203826904 0.040922462940216064 0.003754347562789917 0.027492254972457886 0.07402051985263824 -0.0937892496585846 0.11635841429233551 0.10735322535037994 -0.07802689075469971 -0.045602038502693176 -0.07750450074672699 0.07598839700222015 0.013978138566017151 -0.037821829319000244 -0.08790351450443268 -0.039691418409347534 -0.0890718400478363 0.06402581930160522 0.01611851155757904 -0.05957899987697601 -0.05868500471115112 0.06783747673034668 0.11840924620628357 -0.10537451505661011 -0.10284505784511566 0.1101730465888977 -0.04058833420276642 0.07869544625282288 0.09898996353149414 0.11989420652389526 0.05415406823158264 -0.08258584141731262 -0.06966613233089447 0.11508314311504364 0.06355202198028564 0.123568594455719 -0.06877152621746063 -0.084284707903862 -0.0479770302772522 -0.09197360277175903 -0.05889691412448883 -0.10872940719127655 0.005005061626434326 -0.07784347236156464 -0.0586571991443634 0.040854766964912415 0.08294360339641571
-0.047495752573013306 -0.07658202946186066 -0.03500385582447052 0.07223835587501526 0.03302040696144104 -0.04222986102104187 0.11834070086479187 0.08881397545337677 0.1058851033449173 0.09159041941165924 -0.12222982943058014 -0.06972712278366089 0.11444622278213501 -0.006214052438735962 -0.0958036333322525 -0.08254623413085938 -0.09673850238323212 -0.08113542199134827 -0.00042344629764556885 -0.12446887791156769 0.04063120484352112 0.031983181834220886 -0.0040092915296554565 -0.10136821866035461 -0.02615813910961151 0.01573929190635681 0.12447729706764221 0.04978106915950775 0.011433720588684082 -0.0024261772632598877 -0.06592297554016113 0.011168628931045532 0.040158480405807495 0.006099224090576172 0.042824000120162964 -0.029046326875686646 -0.04868254065513611 0.008184760808944702 0.020297110080718994 -0.00999218225479126 0.004798442125320435 -0.008702784776687622 -0.04334840178489685 0.0799914002418518 0.011297449469566345 -0.0855637788772583 0.02407228946685791 -0.09776106476783752 -0.04033219814300537 0.005730628967285156 0.035134732723236084 -0.10576213896274567 -0.04012942314147949 -0.020796000957489014 0.11509804427623749 -0.0007779449224472046 0.013224154710769653 -0.03169026970863342 -0.09923779964447021 -0.006666138768196106 -0.015053972601890564 0.0795348584651947 0.05550046265125275 -0.08169436454772949
-0.09728796780109406 -0.0023960620164871216 0.07017913460731506 0.08613830804824829 -0.05059821903705597 0.09334330260753632 0.12432609498500824 0.05269356071949005 -0.082423135638237 -0.014799490571022034 -0.12127017974853516 0.026530519127845764 -0.05526871979236603 0.10278315842151642 -0.049030572175979614 -0.06440955400466919 0.08903351426124573 0.07683217525482178 -0.08454909920692444 0.08693641424179077 -0.08864887058734894 -0.06994311511516571 0.09128603339195251 -0.047325775027275085 -0.08683827519416809 -0.09660686552524567 -0.04069820046424866 0.0877036452293396 -0.03726819157600403 -0.0930277556180954 0.012696191668510437 -0.04368031024932861 -0.08953805267810822 0.10713277757167816 0.0018125325441360474 -0.07723495364189148 0.09555336833000183 0.0065648555755615234 -0.12032614648342133 -0.01930008828639984 0.11947907507419586 0.033820271492004395 0.10408858954906464 -0.03847159445285797 0.00010071694850921631 -0.12454403936862946 -0.08631667494773865 0.026813074946403503 0.027303993701934814 -0.053412094712257385 -0.07399289309978485 0.02437131106853485 0.0003877878189086914 -0.037210941314697266 0.08452486991882324 -0.04406861960887909 0.06195551156997681 -0.00942791998386383 -0.07652105391025543 -0.026164785027503967 -0.10883249342441559 0.029133334755897522 -0.01752375066280365 -0.007371649146080017
0.1247570663690567 0.11273275315761566 0.08539402484893799 -0.05369268357753754 0.079446941614151 -0.09702344238758087 0.07848314940929413 -0.011130914092063904 -0.08203427493572235 -0.039817482233047485 0.10467325150966644 0.10316681861877441 0.04044997692108154 0.079621821641922 -0.06454460322856903 -0.010830357670783997 -0.01857602596282959 0.008804023265838623 -0.033611223101615906 0.0063765645027160645 -0.07992106676101685 0.07761062681674957 -0.06730659306049347 0.017072424292564392 -0.09847058355808258 -0.029633760452270508 -0.08095529675483704 -0.016438424587249756 -0.12232887744903564 -0.10298299789428711 0.05299660563468933 0.09954564273357391 0.03296084702014923 0.06123436987400055 0.12396354973316193 -0.01745980978012085 -0.021805211901664734 0.07222813367843628 0.1132555603981018 -0.08721509575843811 -0.0855148434638977 -0.006816044449806213 -0.09245297312736511 -0.06476864218711853 0.08762870728969574 -0.04837164282798767 -0.07263468205928802 -0.10406142473220825 -0.03046068549156189 0.10694117844104767 -0.005812898278236389 0.09543722867965698 0.10255329310894012 0.0356966108083725 0.08970504999160767 -0.00735415518283844 0.1038721352815628 -0.06249523162841797 -0.03908507525920868 0.03819911181926727 0.006897568702697754 0.09329602122306824 0.09989795088768005 0.06996098160743713
-0.07952724397182465 0.0991823822259903 -0.10557901859283447 -0.008434399962425232 -0.1221003532409668 -0.10659904778003693 0.012424945831298828 0.006278365850448608 0.08357998728752136 0.12362673878669739 0.09851017594337463 -0.047067880630493164 -0.0531281977891922 0.10934311151504517 0.039177313446998596 0.06405310332775116 0.10300976037979126 0.03914196789264679 -0.11704184114933014 0.004725426435470581 -0.045753464102745056 0.0145341157913208 -0.0885051041841507 -0.08251726627349854 -0.09782829880714417 -0.1025908887386322 -0.1239987164735794 -0.06706757843494415 0.09926621615886688 0.03748609125614166 -0.0634530782699585 0.07102070748806 -0.004445374011993408 -0.04406075179576874 -0.01169922947883606 -0.12219029664993286 0.0028831809759140015 -0.12254360318183899 -0.09394803643226624 -0.0031858235597610474 0.10401858389377594 0.06989075243473053 -0.0974017083644867 0.01027330756187439 -0.03414908051490784 -0.04595218598842621 -0.09992663562297821 -0.05324071645736694 -0.08086144924163818 -0.0075444430112838745 -0.07071882486343384 -0.1074942797422409 0.02004636824131012 0.11487686634063721 -0.044846683740615845 0.008869484066963196 0.0009257495403289795 -0.001031622290611267 0.07907921075820923 0.049767762422561646 0.05999372899532318 0.04027925431728363 0.05041909217834473 0.055765300989151
-0.10266493260860443 0.039558544754981995 -0.10539416968822479 -0.05778764188289642 -0.07996894419193268 0.09416623413562775 -0.03558720648288727 0.09407937526702881 -0.07156027853488922 -0.06610532104969025 0.0385112464427948 0.08147183060646057 0.000233575701713562 0.025947794318199158 -0.11191833019256592 -0.07795651257038116 0.060123831033706665 0.06522883474826813 0.09485483169555664 0.01119452714920044 0.06153912842273712 -0.09234251081943512 -0.018908455967903137 0.08567126095294952 -0.015838056802749634 0.09121684730052948 0.0855204164981842 0.04973877966403961 0.06487220525741577 -0.06390665471553802 -0.06993365287780762 -0.0008346438407897949 0.03777030110359192 0.07388432323932648 0.09877651929855347 -0.07844527065753937 -0.11731657385826111 0.12464410066604614 -0.0734763890504837 0.01831236481666565 -0.032304227352142334 -0.05187682807445526 -0.08483347296714783 -0.06413151323795319 -0.002421736717224121 0.10181616246700287 -0.10842388868331909 0.09524135291576385 -0.0674176812171936 0.08306211233139038 -0.11142890155315399 0.0201723575592041 0.0033442527055740356 0.08875119686126709 -0.059126392006874084 0.06895023584365845 -0.1023283302783966 0.1186176985502243 -0.06566314399242401 0.11297772824764252 0.12298795580863953 -0.0031181126832962036 0.05728234350681305 0.10794694721698761
-0.012932732701301575 0.025996506214141846 -0.09768909215927124 0.06881488859653473 -0.01857946813106537 -0.11771111190319061 -0.03113037347793579 -0.07698468863964081 -0.058550119400024414 0.0017925649881362915 0.016839995980262756 0.02267506718635559 -0.08718059957027435 -0.11935615539550781 -0.09718193113803864 -0.007148668169975281 0.08842732012271881 0.11757169663906097 -0.022228151559829712 -0.01977914571762085 -0.04579837620258331 0.013674244284629822 0.06254957616329193 0.010232344269752502 0.10090793669223785 -0.11712771654129028 0.00300636887550354 -0.06507007777690887 0.036434561014175415 -0.013141259551048279 0.07417140901088715 -0.022421255707740784 0.013376697897911072 -0.05433723330497742 -0.09403347969055176 0.05534476041793823 -0.0390072762966156 0.08327209949493408 -0.10610006749629974 -0.06416001915931702 -0.020131856203079224 -0.051239192485809326 0.047685831785202026 -0.08275796473026276 0.11250674724578857 -0.061078280210494995 0.05464731156826019 -0.0694979876279831 0.11610503494739532 -0.04862278699874878 0.11589361727237701 0.10076968371868134 -0.04756160080432892 -0.005133211612701416 -0.11905229091644287 -0.02011096477508545 -0.08875826001167297 0.0867794007062912 0.006547883152961731 0.10974699258804321 -0.12127888202667236 0.09218406677246094 0.04819123446941376 -0.1113855242729187
0.006818696856498718 -0.0979437381029129 0.05226266384124756 0.023385897278785706 0.022437751293182373 0.12036173045635223 0.04325404763221741 -0.0510762482881546 -0.04267527163028717 -0.09739239513874054 0.10477966070175171 0.07621932029724121 0.06788475811481476 -0.06783679127693176 0.05566978454589844 0.005902886390686035 0.10868918895721436 0.05045485496520996 -0.08626964688301086 -0.12187881767749786 0.07472848892211914 -0.045298948884010315 -0.06729437410831451 0.11850185692310333 0.10113547742366791 -0.022580355405807495 -0.07955367863178253 0.1079280823469162 0.12404319643974304 -0.01716656982898712 -0.12443859875202179 -0.08810576796531677 -0.06069813668727875 -0.10780957341194153 0.014806985855102539 0.045077502727508545 -0.03578512370586395 0.02977292239665985 0.030912071466445923 0.01041141152381897 0.10144683718681335 -0.03322911262512207 -0.11449317634105682 -0.10349297523498535 -0.046206846833229065 0.012460887432098389 -0.06134217977523804 -0.0830308347940445 -0.0600658655166626 0.06266096234321594 -0.062165603041648865 -0.08161419630050659 0.04443153738975525 0.0665075033903122 -0.09232279658317566 0.11513915657997131 -0.04778258502483368 -0.11956487596035004 -0.10768602788448334 0.11494183540344238 0.0479721873998642 0.07930725812911987 0.11761389672756195 -0.09196008741855621
3.361701965332031e-05 0.01724904775619507 0.1066933274269104 -0.04048037528991699 -0.013127833604812622 0.06802478432655334 0.006795808672904968 0.018020331859588623 -0.08259660005569458 -0.008938834071159363 0.012614205479621887 -0.1055336743593216 -0.07573734223842621 -0.03228585422039032 -0.0684935599565506 -0.11603793501853943 -0.003985002636909485 0.052769944071769714 0.12049226462841034 0.04555243253707886 0.0801650881767273 -0.11950202286243439 0.03905518352985382 -0.03809981048107147 -0.011669933795928955 0.10374622046947479 -0.027106299996376038 -0.12310788035392761 -0.06626194715499878 -0.01564784348011017 -0.11779451370239258 -0.07227134704589844 0.03632403910160065 -0.110801100730896 -0.05116565525531769 -0.03886447846889496 0.06922838091850281 -0.08139565587043762 -0.09445641934871674 0.10981574654579163 0.01926650106906891 -0.0814555287361145 -0.04673472046852112 0.05310113728046417 -0.061352938413619995 0.047522976994514465 -0.0593576580286026 -0.016415521502494812 0.04426206648349762 0.11156904697418213 -0.08015623688697815 0.06443363428115845 0.011974260210990906 0.013592928647994995 -0.023133784532546997 -0.05480097234249115 -0.017793908715248108 0.07123374938964844 0.11063112318515778 0.03189226984977722 0.012658253312110901 0.08840538561344147 -0.05870082974433899 -0.054885849356651306
0.0809253603219986 -0.02100434899330139 0.08909329771995544 -0.05611954629421234 0.1167932003736496 -0.027911558747291565 -0.012351199984550476 0.014582112431526184 0.03529350459575653 0.012632310390472412 0.0340925008058548 -0.02672235667705536 0.030050143599510193 0.0629349946975708 0.030650019645690918 0.08144021034240723 -0.03888764977455139 -0.019068583846092224 0.08201853930950165 -0.06291824579238892 0.06639835238456726 0.09806150197982788 0.016284942626953125 -0.0012625455856323242 0.08274669945240021 -0.01688253879547119 0.042747899889945984 -0.07850471138954163 0.01725083589553833 0.023801326751708984 0.035197123885154724 0.1138477623462677 0.02183559536933899 0.017504096031188965 -0.025781899690628052 0.09974715113639832 0.059825167059898376 -0.10108043253421783 -0.09221720695495605 -0.02929428219795227 0.002899348735809326 0.06790393590927124 -0.027538225054740906 0.08590224385261536 -0.04185585677623749 0.10396717488765717 0.09722617268562317 -0.09997335076332092 -0.10487022995948792 0.11861911416053772 0.10207535326480865 -0.11818689107894897 0.08571651577949524 0.01144196093082428 -0.08163401484489441 0.012124970555305481 -0.03998526930809021 0.023449093103408813 0.005103379487991333 -0.06032972037792206 0.06643958389759064 -0.05807831883430481 -0.10452286899089813 0.022037506103515625
-0.02858269214630127 -0.046602994203567505 0.08743304014205933 -0.02000376582145691 0.1078474372625351 -0.07214733958244324 0.10501997172832489 -0.020616844296455383 0.08373920619487762 -0.005264163017272949 0.03822043538093567 0.05713057518005371 0.1126614511013031 -0.003622889518737793 -0.05771090090274811 0.00014862418174743652 0.01836642622947693 -0.04876019060611725 0.040211036801338196 -0.05664245784282684 0.12050178647041321 0.0014816075563430786 0.054450079798698425 -0.04386097192764282 0.07908082008361816 -0.058390676975250244 -0.06938794255256653 0.013642102479934692 -0.07984873652458191 0.023568779230117798 -0.055265381932258606 0.030072152614593506 0.026100262999534607 -0.08060804009437561 0.11609743535518646 0.03366097807884216 0.09823668003082275 -0.04462185502052307 -0.058486416935920715 0.06175500154495239 -0.12495125830173492 0.007613018155097961 0.031425103545188904 0.10308994352817535 0.0893290638923645 -0.02836368978023529 0.10288795828819275 0.07085402309894562 -0.024350851774215698 -0.07992471754550934 0.06752260029315948 0.11108550429344177 -0.014973834156990051 0.12003672122955322 0.04465454816818237 0.06451614201068878 -0.0336708128452301 0.06733104586601257 -0.07480570673942566 0.0010203421115875244 -0.062416255474090576 -0.10932391881942749 0.034348562359809875 0.041852399706840515
-0.05201272666454315 -0.12445136904716492 0.09564623236656189 -0.08901451528072357 -0.07588693499565125 -0.05535802245140076 -0.09169013798236847 0.0637364387512207 -0.10959221422672272 -0.035818204283714294 -0.11368043720722198 0.10702347755432129 -0.03014923632144928 -0.021591991186141968 0.11881731450557709 -0.11974716186523438 -0.005569577217102051 0.04689793288707733 0.11597864329814911 0.09847933053970337 -0.10839468240737915 0.0525786429643631 0.02472090721130371 -0.0632607489824295 -0.1246621310710907 -0.045126304030418396 -0.09042586386203766 -0.12125611305236816 -0.02103707194328308 -0.06551484763622284 -0.04110883176326752 -0.08670276403427124 0.05639466643333435 -0.11584126949310303 -0.04097171127796173 -0.08043217658996582 0.08056285977363586 -0.0025869905948638916 0.06202512979507446 -0.0738532692193985 0.07016567885875702 0.09460432827472687 0.050348907709121704 0.041248708963394165 -0.02769184112548828 0.061279892921447754 -0.026898831129074097 -0.07719030976295471 -0.04767681658267975 -0.11302800476551056 0.024610862135887146 -0.03169479966163635 -0.05765716731548309 -0.06933215260505676 -0.009435981512069702 0.05145290493965149 0.12338079512119293 -0.06848819553852081 -0.017685383558273315 -0.11531957983970642 -0.05515725910663605 0.11143751442432404 0.12381762266159058 -0.036347463726997375
-0.007198527455329895 0.04043859243392944 0.05131763219833374 0.12073682248592377 0.08289174735546112 0.044390469789505005 0.028151437640190125 -0.12274998426437378 -0.0974174439907074 -0.0036660432815551758 -0.061397403478622437 0.024305671453475952 -0.10309736430644989 -0.11776557564735413 0.024545922875404358 -0.11410443484783173 -0.031914710998535156 -0.08536852896213531 0.023401692509651184 0.00904431939125061 -0.10660527646541595 0.05879007279872894 0.052613139152526855 -0.09383313357830048 0.11395454406738281 0.022756174206733704 -0.06034348905086517 -0.009213298559188843 -0.08976863324642181 -0.06708867847919464 0.08216191828250885 0.051970452070236206 -0.04972711205482483 -0.023692205548286438 -0.11783292889595032 0.022533968091011047 0.029445067048072815 -0.07499316334724426 -0.051082998514175415 -0.03862003982067108 -0.06608061492443085 0.056771084666252136 -0.012580737471580505 0.08035658299922943 0.04581686854362488 -0.04880198836326599 -0.11290715634822845 -0.11735321581363678 -0.019340291619300842 -0.05883096158504486 0.004005447030067444 -0.05437129735946655 0.07364442944526672 -0.04985131323337555 0.028250068426132202 -0.07677631080150604 -0.09387202560901642 -0.056544020771980286 0.10168588161468506 0.12091121077537537 0.10297659039497375 0.10414086282253265 -0.03842133283615112 0.09220205247402191
-0.07576698064804077 0.0923457145690918 0.020576611161231995 0.11498475074768066 -0.07258479297161102 -0.033739179372787476 0.07354964315891266 -0.10856670141220093 -0.10207508504390717 0.04850862920284271 -0.12420950829982758 -0.10389630496501923 -0.030807286500930786 -0.03768046200275421 0.0947636067867279 0.033786922693252563 -0.056815773248672485 -0.04945288598537445 0.10000346601009369 -0.005194023251533508 0.0790083259344101 0.0006413161754608154 0.08682817220687866 0.03217381238937378 -0.08647564053535461 -0.014324769377708435 -0.11096015572547913 0.0034961551427841187 -0.11592695116996765 0.05340373516082764 0.09322057664394379 -0.12288443744182587 0.07479986548423767 -0.09355293214321136 0.08257012069225311 0.05875562131404877 -0.057802602648735046 0.08575461804866791 0.09549325704574585 0.10179246962070465 -0.11929966509342194 0.09140060842037201 0.10598328709602356 0.035136863589286804 -0.06961552798748016 -0.08271148800849915 -0.06583480536937714 -0.09008345007896423 0.03000551462173462 0.06491565704345703 -0.08532264828681946 0.042589545249938965 -0.08556298911571503 0.0007341951131820679 0.09987257421016693 -0.04300789535045624 -0.026895835995674133 0.01005488634109497 0.009133130311965942 -0.01571515202522278 0.07337082922458649 -0.07878334820270538 0.06138846278190613 0.005731686949729919
0.006652757525444031 -0.05681997537612915 -0.08006539940834045 -0.09655934572219849 0.04683604836463928 0.05081793665885925 -0.05631686747074127 0.12371860444545746 0.04663477838039398 0.018256351351737976 0.05862872302532196 0.009242847561836243 -0.05786536633968353 -0.04005514085292816 -0.09438861906528473 0.044424429535865784 -0.050412312150001526 -0.06920953094959259 0.0652926117181778 -0.03817887604236603 0.07659995555877686 0.07347165048122406 0.11847947537899017 -0.05495287477970123 0.0014351308345794678 -0.11395332217216492 0.06215871870517731 0.06319999694824219 -0.05320139229297638 0.10743410885334015 0.10071612894535065 0.042335838079452515 -0.04712022840976715 0.026368051767349243 0.03884197771549225 -0.07398013770580292 -0.04767043888568878 0.0440496951341629 0.05401226878166199 -0.06893552839756012 -0.10265111923217773 -0.029743045568466187 -0.05992284417152405 0.07877959311008453 -0.10860912501811981 0.11666956543922424 -0.07772700488567352 0.08113051950931549 -0.031134843826293945 -0.017445221543312073 0.008524090051651001 -0.002002805471420288 -0.024787232279777527 -0.012978151440620422 0.006527602672576904 -0.008119210600852966 0.02832496166229248 -0.07048630714416504 -0.08392179012298584 -0.06846344470977783 0.028004854917526245 0.1193675547838211 -0.05385039746761322 -0.11342239379882812
0.11522738635540009 0.01691073179244995 0.02356518805027008 0.06242118775844574 -0.006780117750167847 0.09569184482097626 0.10547065734863281 0.11182457208633423 0.04625619947910309 0.018912792205810547 0.09944283962249756 0.015386685729026794 -0.1141042560338974 0.08304865658283234 0.08600369095802307 0.08515335619449615 0.02377203106880188 -0.08187456429004669 0.014932289719581604 0.009138137102127075 0.02965705096721649 -0.058543041348457336 -0.027642637491226196 0.031341731548309326 0.08456902205944061 0.10415215790271759 0.058375611901283264 0.01801443099975586 -0.009208530187606812 -0.009328290820121765 0.050020232796669006 -0.1240142285823822 -0.07900013029575348 -0.08317191898822784 -0.09602856636047363 -0.12497122585773468 -0.1196441650390625 0.11298899352550507 -0.09376531839370728 -0.06715600192546844 -0.024544566869735718 0.08308364450931549 0.0392589271068573 0.09508782625198364 0.08449877798557281 -0.0013636499643325806 0.03827618062496185 0.07270236313343048 0.019979164004325867 0.10622067749500275 -0.03712648153305054 0.04753778874874115 0.06102699041366577 0.04382301867008209 0.021513760089874268 -0.0652884989976883 -0.05127944052219391 0.07199329137802124 -0.10648161172866821 -0.04725179076194763 -0.09135530889034271 0.12483547627925873 -0.06352107226848602 -0.12293870747089386
0.12253019213676453 0.11156438291072845 0.1194864958524704 0.03225688636302948 -0.12283436954021454 0.060940369963645935 0.050752997398376465 0.06408128142356873 0.12335386872291565 -0.035348087549209595 -0.08926953375339508 0.05203317105770111 -0.08611489832401276 -0.06295907497406006 0.10787545144557953 -0.057173341512680054 0.10708944499492645 0.10256233811378479 -0.10542173683643341 0.06568220257759094 -0.11336773633956909 0.006475016474723816 0.07915756106376648 -0.03563648462295532 -0.08046095073223114 -0.08470959961414337 -0.10755015909671783 0.09865425527095795 -0.09261342883110046 0.07028910517692566 -0.1091458797454834 0.06040641665458679 0.045575931668281555 -0.09645375609397888 0.09754396975040436 0.01130107045173645 0.0583266019821167 0.025373801589012146 0.02160598337650299 0.06850066781044006 0.04132135212421417 -0.11431339383125305 0.06729669868946075 0.024001091718673706 -0.11092039942741394 0.05927389860153198 -0.003768622875213623 -0.026310890913009644 0.11957395076751709 -0.08291353285312653 0.09021799266338348 0.055757105350494385 0.029515117406845093 0.05665743350982666 0.11592383682727814 0.04387541115283966 -0.11508508026599884 0.07984071969985962 0.047057151794433594 -0.034355610609054565 -0.04133366048336029 0.02732616662979126 -0.0029085129499435425 0.034322500228881836
0.0993148535490036 0.005418568849563599 -0.023544475436210632 0.06571657955646515 -0.047911956906318665 -0.043831080198287964 0.05340462923049927 0.08626498281955719 -0.04530581831932068 -0.05554002523422241 0.05957210063934326 0.10006330907344818 -0.030078336596488953 0.029837295413017273 -0.05208466947078705 0.05488039553165436 -0.0021664202213287354 -0.08847257494926453 0.04930335283279419 -0.008477583527565002 -0.0878608375787735 -0.02511604130268097 -0.03575144708156586 0.004459574818611145 -0.010342702269554138 -0.07574872672557831 -0.023421287536621094 0.05478723347187042 0.03845036029815674 -0.11592553555965424 0.11175796389579773 -0.0601658970117569 0.0243665874004364 0.007123544812202454 0.08279699087142944 0.06518717110157013 0.11339479684829712 0.10806111991405487 -0.06943562626838684 -0.040401965379714966 -0.08924201130867004 -0.0022842437028884888 0.05194072425365448 -0.06559963524341583 0.09547069668769836 0.09759010374546051 0.10496561229228973 -0.06767526268959045 -0.0958566963672638 -0.0814942717552185 -0.07090525329113007 0.05526307225227356 -0.06833471357822418 0.09411139786243439 -0.07965345680713654 0.05563029646873474 -0.015142068266868591 -0.015344113111495972 -0.06546486914157867 0.026444941759109497 -0.013787448406219482 0.03502191603183746 -0.005784481763839722 0.10064354538917542
-0.02584265172481537 -0.11095231771469116 -0.06501388549804688 -0.06509450078010559 0.07417701184749603 -0.004793763160705566 0.08556117117404938 -0.0029841959476470947 0.09143608808517456 0.08174653351306915 0.06426966190338135 0.09857775270938873 -0.03102150559425354 0.09858474135398865 -0.011072173714637756 0.09351341426372528 0.031125009059906006 -0.08827823400497437 -0.11173105239868164 -0.0042362213134765625 0.08864392340183258 0.07008068263530731 -0.036386847496032715 0.01360940933227539 0.04718996584415436 -0.01040959358215332 -0.07369928061962128 0.11680488288402557 -0.027771517634391785 -0.02282024919986725 0.06362022459506989 -0.08560249209403992 0.05280786752700806 -0.03638896346092224 0.06436564028263092 0.00028495490550994873 -0.003108486533164978 -0.11993128061294556 0.023870795965194702 -0.052014052867889404 0.10751998424530029 0.04287593066692352 -0.03664880990982056 -0.09037114679813385 -0.09902083873748779 0.037816017866134644 0.017702698707580566 -0.03263743221759796 -0.0345379114151001 -0.10506832599639893 0.06601132452487946 0.02472764253616333 0.09661482274532318 -0.11279062926769257 -0.07949881255626678 0.02881591022014618 0.10657474398612976 -0.0999932587146759 0.018327102065086365 -0.09403477609157562 -0.10451367497444153 -0.11604329943656921 0.11426976323127747 0.06772445142269135
0.021553337574005127 0.06223268806934357 0.11473308503627777 -0.08159469068050385 0.10521568357944489 -0.043841004371643066 0.11766049265861511 0.08289958536624908 0.0325922816991806 -0.01946890354156494 -0.11880187690258026 -0.10181249678134918 -0.03325878083705902 -0.10077732801437378 -0.017463088035583496 0.12248708307743073 0.04383808374404907 -0.030527278780937195 -0.04729977250099182 0.08866798877716064 -0.024709895253181458 0.09324611723423004 -0.010889694094657898 0.1135329008102417 0.06772704422473907 -0.06966279447078705 0.03720270097255707 0.1050814837217331 0.05240751802921295 -0.08344259858131409 0.10093677043914795 -0.02324816584587097 -0.08762951195240021 0.03809688985347748 0.05438084900379181 0.07826755940914154 0.11284884810447693 0.0999230146408081 0.056641966104507446 -0.05986592173576355 0.12025594711303711 -0.08645004034042358 -0.04467885196208954 0.03631272912025452 0.04937617480754852 -0.10675355792045593 -0.020753338932991028 -0.10630448162555695 0.06397858262062073 -0.014546096324920654 0.07341879606246948 -0.06256119906902313 -0.10620351135730743 -0.037267446517944336 0.12277239561080933 0.05516098439693451 0.07130506634712219 0.06780277192592621 0.07425020635128021 0.03107638657093048 -0.030854791402816772 0.12355415523052216 -0.00237138569355011 0.03341607749462128
0.11169606447219849 0.027335360646247864 0.017880186438560486 -0.0333496630191803 0.0637718141078949 -0.016833603382110596 0.017837047576904297 0.08866003155708313 0.024208083748817444 0.05291272699832916 0.009093165397644043 0.05758184194564819 0.08030210435390472 -0.12186114490032196 0.035477474331855774 0.11062164604663849 -0.08876508474349976 -0.036461517214775085 0.11009825766086578 0.027171626687049866 0.08243586122989655 -0.08832661807537079 -0.07763083279132843 -0.00087718665599823 0.07480381429195404 0.1150306761264801 -0.08167356252670288 -0.10971994698047638 -0.020048633217811584 -0.03908921778202057 -0.060755640268325806 0.034729719161987305 0.02744653820991516 0.03369545936584473 -0.08040669560432434 0.022393226623535156 -0.09329186379909515 0.0725988894701004 0.0617983341217041 -0.034989967942237854 -0.05306360125541687 -0.037509188055992126 -0.053451165556907654 -0.016274243593215942 0.11457431316375732 0.07834190130233765 -0.12449707090854645 -0.09496146440505981 0.12005560100078583 0.09045568108558655 0.018007978796958923 -0.11373347043991089 0.08904720842838287 0.12215754389762878 -0.07446005940437317 -0.0632113516330719 0.030547544360160828 -0.030644491314888 0.05512557923793793 -0.0712021142244339 0.04419486224651337 0.0033586472272872925 -0.11470161378383636 -0.004772961139678955
0.05492320656776428 0.11929558217525482 0.028682559728622437 -0.10504649579524994 0.117601677775383 -0.057523444294929504 -0.021067485213279724 0.015165239572525024 0.11620715260505676 -0.021358057856559753 0.10479845106601715 -0.1096717119216919 0.04097352921962738 -0.11379684507846832 -0.10584630072116852 0.04932968318462372 -0.10876689851284027 -0.07287921011447906 0.1148688942193985 0.02116607129573822 0.06047840416431427 -0.10996128618717194 -0.041560396552085876 0.029116734862327576 -0.11390303075313568 0.02241036295890808 0.08158785104751587 -0.016058653593063354 0.12326052784919739 -0.05187501013278961 0.09035061299800873 -0.0013091564178466797 -0.10947629809379578 0.03181999921798706 0.10279715061187744 0.11785238981246948 -0.11395329236984253 -0.006481975317001343 0.00543937087059021 0.06663748621940613 0.10871955752372742 -0.0009281784296035767 -0.06219033896923065 -0.07466275990009308 0.053468406200408936 0.10217897593975067 -0.03038063645362854 0.08518357574939728 -0.007268860936164856 -0.08316731452941895 -0.07618044316768646 0.026393041014671326 -0.05558609962463379 -0.02811199426651001 0.07074235379695892 -0.051253512501716614 0.059669479727745056 -0.06613737344741821 -0.03663820028305054 0.03424699604511261 0.04344111680984497 -0.07867836952209473 0.010406464338302612 -0.06696224212646484
-0.04692244529724121 0.034562647342681885 -0.0033230334520339966 -0.11928065121173859 0.020854175090789795 0.027248919010162354 -0.03487318754196167 0.03730583190917969 0.0846630334854126 -0.065500408411026 0.03422516584396362 0.0648944228887558 0.043837204575538635 0.0417507141828537 0.05710066854953766 -0.0774296373128891 0.0869082361459732 -0.04758332669734955 0.0005439072847366333 0.11847935616970062 0.08233487606048584 -0.012334123253822327 0.09454521536827087 -0.07297453284263611 -0.011103913187980652 0.031202584505081177 -0.11049684882164001 0.03837212920188904 0.001416042447090149 0.06304183602333069 -0.015065968036651611 -0.11512669920921326 0.03811478614807129 0.016462355852127075 -0.09996876120567322 -0.04836399853229523 -0.12391708791255951 -0.09633414447307587 0.03457300364971161 -0.03389826416969299 0.00014705955982208252 0.10319283604621887 -0.08088751137256622 -0.0023410916328430176 -0.076407790184021 0.09168510138988495 -0.020956873893737793 0.07148624956607819 -0.08881770074367523 0.03695172071456909 -0.07144252955913544 0.017581090331077576 0.114417165517807 0.1039213240146637 -0.0008598566055297852 -0.011591836810112 -0.019099161028862 0.09470480680465698 -0.0025165826082229614 -0.06253908574581146 0.05367310345172882 -0.07855817675590515 -0.0302962064743042 0.07970479130744934
-0.013888657093048096 -0.0066828131675720215 -0.031166166067123413 -0.11924435198307037 -0.12258706986904144 0.03285117447376251 -0.07667629420757294 -0.08269067108631134 0.08572801947593689 0.048864394426345825 -0.0037545859813690186 -0.037427663803100586 0.1063426285982132 0.021008551120758057 -0.1161096841096878 0.10973596572875977 0.01635316014289856 -0.06245239078998566 0.11636093258857727 -0.024549826979637146 -0.026837646961212158 -0.08643490076065063 -0.07804718613624573 -0.0364471971988678 -0.09632174670696259 -0.07052156329154968 -0.08956074714660645 0.042025431990623474 0.06413990259170532 -0.0680522471666336 -0.037493884563446045 -0.016243815422058105 0.019670724868774414 0.07127290964126587 -0.09223970770835876 0.022465676069259644 0.05150194466114044 -0.12492883205413818 0.08246374130249023 0.04770055413246155 -0.028290316462516785 0.09903949499130249 0.0973275750875473 0.05526454746723175 -0.07629179954528809 0.1071479320526123 -0.0970170646905899 0.0653441995382309 0.008481517434120178 0.03552334010601044 0.036745503544807434 0.12448756396770477 0.11859007179737091 0.057589709758758545 0.11417695879936218 0.020572155714035034 -0.07793882489204407 0.06250089406967163 0.08900651335716248 0.12401537597179413 -0.02189798653125763 -0.11136573553085327 -0.0629967749118805 -0.019301235675811768
-0.046561598777770996 -0.09641635417938232 -0.09095701575279236 -0.12388491630554199 0.12271887063980103 0.08303177356719971 -0.01013973355293274 -0.09363849461078644 -0.04321260750293732 -0.11537674069404602 -0.09332537651062012 0.09124265611171722 0.0857432633638382 -0.0923852026462555 0.00039008259773254395 0.06620894372463226 -0.06331920623779297 -0.016375064849853516 0.06137901544570923 0.10660472512245178 -0.0027223676443099976 -0.09352393448352814 0.04200172424316406 -0.053479090332984924 0.060988157987594604 0.06599141657352448 -0.060882002115249634 -0.092837855219841 -0.05503952503204346 -0.0800199806690216 -0.0408937931060791 -0.11436893045902252 -0.07084095478057861 0.11277976632118225 -0.014619514346122742 0.056216612458229065 0.028911292552947998 0.0650012195110321 -0.07161100208759308 -0.029315561056137085 0.08400678634643555 -0.1197776347398758 -0.05321751534938812 0.02258501946926117 -0.002601251006126404 -0.10420836508274078 0.0914493203163147 0.04314036667346954 -0.0036279112100601196 0.046066492795944214 -0.057802870869636536 -0.0903521329164505 0.058654144406318665 0.08554702997207642 -0.014846891164779663 0.04668499529361725 0.11725987493991852 0.05226840078830719 0.07925471663475037 0.10827387869358063 0.1234775185585022 -0.09853921830654144 0.032213836908340454 0.02868485450744629
