0.06682556122541428 -0.003549546003341675 -0.08615408837795258 -0.022068314254283905 -0.0042060986161231995 -0.0629764124751091 0.012497782707214355 0.013931356370449066 0.05252397805452347 -0.046704187989234924 -0.05097523331642151 0.03360424190759659 0.07759801298379898 0.05792997032403946 -0.04291023313999176 0.05529706925153732 -0.06388646364212036 0.0326477512717247 -0.0648859366774559 0.07941342145204544 0.08783789724111557 -0.06021352857351303 0.0627271756529808 -0.03478902950882912 0.05156249552965164 0.04480021446943283 0.07798216491937637 -0.00972720980644226 -0.03204569220542908 0.049696870148181915 0.05815359205007553 0.05454721301794052 0.08431484550237656 -0.08731243014335632 0.03504838049411774 -0.027014147490262985 -0.03023374453186989 -0.035053301602602005 -0.029795851558446884 0.04082993417978287 -0.05662623047828674 -0.01644138991832733 0.022933997213840485 0.05693807452917099 0.04307355731725693 -0.06279196590185165 -0.06501264125108719 0.016712330281734467 -0.06206763908267021 0.027780137956142426 0.014449045062065125 -0.050608597695827484 -0.04321227967739105 -0.06763909757137299 0.0454016849398613 0.05273430794477463 0.03318528085947037 -0.03188905492424965 -0.07113330811262131 0.05606340616941452 0.07503803819417953 -0.05182775855064392 -0.014989055693149567 0.08582376688718796 0.07421722263097763 0.07514063268899918 -0.0535624697804451 -0.062042731791734695 -0.023718468844890594 0.07601242512464523 -0.0033506080508232117 -0.016480937600135803 0.07811053842306137 0.049136169254779816 0.005818501114845276 0.050626374781131744 -0.03394821286201477 -0.08758845180273056 0.03332889825105667 -0.05658420920372009 -0.031407829374074936 -0.04311998561024666 0.03643172234296799 -0.006050914525985718 -0.024418406188488007 -0.06764543056488037 0.062180422246456146 -0.02771585062146187 -0.011246815323829651 0.06731035560369492 -0.08275248110294342 -0.06834277510643005 0.08320695906877518 0.07342534512281418 -0.034401312470436096 -0.08602063357830048 -0.004780381917953491 -0.00330236554145813 -0.017228156328201294 0.07649613171815872 0.08226384967565536 -0.04611971601843834 -0.012052007019519806 0.051210932433605194 -0.07510519027709961 -0.04918857291340828 -0.015921294689178467 0.026815123856067657 -0.08176453411579132 0.022293366491794586 0.0721483901143074 -0.00687834620475769 0.007910415530204773 0.05611158162355423 -0.07654307037591934 0.019598811864852905 -0.04640980064868927 -0.04596100002527237 -0.06956040859222412 0.05615764111280441 -0.03750376030802727 -0.04501522704958916 0.0823591873049736 -0.08240626752376556 -0.04365573823451996 -0.07904946058988571 0.034616343677043915 -0.011198952794075012
-0.0011415928602218628 -0.08244054019451141 -0.08310500532388687 0.06307066231966019 -0.009382382035255432 -0.013907693326473236 0.04035348445177078 -0.06032032519578934 0.04666882008314133 0.06207069009542465 0.05515696853399277 -0.005919702351093292 0.0574759766459465 0.018351778388023376 0.036056049168109894 -0.06953015923500061 -0.04127480834722519 -0.039071645587682724 -0.025720924139022827 -0.08023522049188614 0.0539923831820488 0.06531526893377304 0.08315172046422958 0.02807563543319702 0.03985892981290817 -0.07013535499572754 0.028346844017505646 -0.06275396049022675 0.00688539445400238 0.08468285948038101 0.029810242354869843 -0.03528137877583504 -0.013474062085151672 -0.0014078915119171143 -0.08451059460639954 -0.046076588332653046 0.08370497077703476 0.08007629960775375 0.026761643588542938 -0.07851339131593704 0.08231579512357712 0.05809914320707321 0.07702455669641495 0.054255999624729156 -0.027780167758464813 0.0584489181637764 0.07142821699380875 0.038050539791584015 0.03448694199323654 0.0753900483250618 0.05337066203355789 -0.05093688890337944 -0.03125295042991638 0.034228742122650146 -0.04118901863694191 0.06956969946622849 -0.004212923347949982 -0.07424893230199814 -0.016322381794452667 0.07970120757818222 0.00018139183521270752 -0.05257510393857956 -0.05159112438559532 -0.01900888979434967 -0.01640751212835312 -0.06395771354436874 0.06747762113809586 0.005272887647151947 -0.027437925338745117 -0.05399079620838165 -0.07194693386554718 -0.0033231526613235474 0.012254387140274048 -0.009718291461467743 0.08246355503797531 0.0677092894911766 -0.017556793987751007 0.04995501786470413 -0.009125277400016785 -0.04771097004413605 0.08189260214567184 -0.07851763814687729 -0.03915164992213249 0.014896824955940247 -0.006721779704093933 0.02258787304162979 -0.03565989062190056 -0.020791493356227875 0.05204907804727554 -0.0489070750772953 -0.01112569123506546 -0.03939647227525711 0.05323813110589981 -0.0343233086168766 0.05789721757173538 -0.04546322673559189 0.057035498321056366 0.08508450537919998 -0.05994492396712303 -0.004194088280200958 0.07527364045381546 0.062206022441387177 -0.004712119698524475 0.02679968625307083 -0.06054217740893364 0.04093513637781143 -0.04588613659143448 -0.0816689133644104 0.05027181655168533 0.008216612040996552 -0.08212604373693466 0.03748837858438492 0.012525990605354309 0.05339214950799942 -0.0685545951128006 0.034272439777851105 0.019886940717697144 0.08763027936220169 0.04735764116048813 0.08105223625898361 -0.046369098126888275 -0.050324760377407074 -0.08587432652711868 0.052091084420681 0.07561557739973068 -0.07225930690765381 -0.021141551434993744 -0.011933162808418274
-0.06073155254125595 -0.07586739212274551 0.0620369091629982 0.07712972909212112 0.02796800434589386 0.036749906837940216 0.005940079689025879 -0.013710208237171173 -0.0041697025299072266 -0.057559527456760406 0.0269215926527977 0.08434104174375534 0.007141426205635071 0.014019988477230072 -0.0037405118346214294 -0.05882732570171356 0.07835131138563156 0.014757916331291199 -0.08689960092306137 -0.0542006678879261 0.010491706430912018 -0.010043300688266754 0.020599238574504852 -0.031618986278772354 0.037319399416446686 -0.06916286051273346 0.04249400645494461 -0.0018616914749145508 0.06647974997758865 -0.0794118270277977 0.05349596589803696 0.07743119448423386 -0.027304846793413162 -0.03851931169629097 -0.033554770052433014 -0.06563448905944824 0.044536568224430084 0.010151155292987823 0.00018319487571716309 0.010421685874462128 -0.0678163468837738 -0.0476120188832283 -0.03078436478972435 0.0736401155591011 0.06253422051668167 0.0020028725266456604 0.031325191259384155 -0.027468711137771606 0.0799880102276802 -0.04682888835668564 -0.027839362621307373 -0.007414408028125763 -0.019334085285663605 -0.033360693603754044 0.020836293697357178 -0.04968499019742012 0.0013945624232292175 -0.06146024167537689 -0.07181024551391602 -0.06416373699903488 -0.003964617848396301 0.08316835016012192 0.07107273489236832 0.06208231300115585 0.037151746451854706 0.03422648459672928 -0.01861192286014557 0.08825596421957016 0.0010883882641792297 -0.03452100604772568 0.03300812840461731 -0.014222823083400726 -0.06808090209960938 0.038862623274326324 -0.03387169539928436 -0.05170772224664688 -0.043889693915843964 0.037978075444698334 -0.0489802323281765 0.06365413218736649 0.049100302159786224 0.006303891539573669 0.04528573900461197 0.05977954715490341 0.029790811240673065 0.03825642913579941 0.05770912021398544 -0.018705055117607117 0.051834218204021454 -0.03642186149954796 0.04091184586286545 0.0323319211602211 0.02468780428171158 0.08182782679796219 0.055635757744312286 -0.08811014890670776 0.0011085867881774902 -0.03596413880586624 -0.007989481091499329 -0.07074422389268875 -0.05679523944854736 -0.018036775290966034 -0.06804532557725906 -0.08079881966114044 -0.07710137963294983 0.03120623528957367 0.06231171637773514 0.025575794279575348 0.0870000496506691 -0.042846307158470154 0.06375951319932938 0.011846445500850677 0.020997367799282074 0.006094790995121002 -0.04824336990714073 0.01726667582988739 0.03279987722635269 0.01690760999917984 0.04386039823293686 0.0024352669715881348 -0.08026586472988129 0.02096497267484665 -0.06663660705089569 -0.05778013542294502 0.07700923830270767 -0.03691786900162697 0.0875304713845253 -0.0800715833902359
-0.032855089753866196 0.04524887353181839 0.01012488454580307 0.008809126913547516 0.06267612427473068 0.08072555810213089 -0.07922414690256119 -0.059438496828079224 -0.0021421685814857483 0.013963595032691956 0.04144606739282608 -0.04103492945432663 -0.07739415019750595 0.053076304495334625 -0.05329025164246559 -0.05852578580379486 -0.08035318553447723 0.021284453570842743 -0.07913260161876678 -0.055495113134384155 0.08549205213785172 0.03767009824514389 -0.06873338669538498 -0.020535431802272797 0.07140860706567764 0.06583737581968307 0.05148131400346756 -0.07069118320941925 0.029069356620311737 -0.05887552350759506 -0.005835242569446564 0.013399533927440643 0.07037407904863358 -0.0529540590941906 -0.08658182621002197 -0.07954105734825134 -0.036623820662498474 0.02244877815246582 -0.046765487641096115 -0.03139996901154518 0.05616544932126999 -0.04700504243373871 -0.01670568436384201 -0.06247681379318237 -0.02376469224691391 0.056993596255779266 0.03367597609758377 0.06100069731473923 -0.05034361034631729 -0.056247275322675705 -0.08278094232082367 -0.02309899777173996 0.050966374576091766 0.08622338622808456 -0.04410906881093979 0.04894006997346878 -0.07399170845746994 -0.014498524367809296 0.0024519339203834534 0.05042525380849838 -0.020537473261356354 0.08330579847097397 -0.02141977846622467 0.061007313430309296 0.04724399000406265 -0.011868804693222046 0.003136150538921356 0.011434398591518402 0.07693817466497421 0.07949287444353104 0.01925329864025116 -0.010810889303684235 0.0016118288040161133 0.04883945733308792 -0.08000852167606354 -0.044047608971595764 -0.016011789441108704 -0.03201642259955406 -0.010965660214424133 0.05905432254076004 0.03344704210758209 0.06004219502210617 -0.059017736464738846 -0.0671142190694809 0.018729008734226227 -0.05457417294383049 0.014522284269332886 0.07515808194875717 0.0021000728011131287 0.007033489644527435 -0.05025867372751236 0.019484825432300568 -0.04056388512253761 -0.043784938752651215 0.07633087784051895 0.021246880292892456 -0.04345942661166191 -0.01164458692073822 -0.05473286658525467 0.024118386209011078 -0.01124013215303421 0.04058306664228439 -0.08509467542171478 0.06084258109331131 0.015048392117023468 -0.07233522087335587 -0.005222909152507782 0.08673413842916489 -0.02305348962545395 -0.007088012993335724 0.06400410085916519 0.027400121092796326 -0.02082127332687378 -0.06009756773710251 0.04199341684579849 0.08621919900178909 0.004963189363479614 0.021162450313568115 0.01813315600156784 0.022120513021945953 -0.011669620871543884 0.04649146646261215 0.08502548187971115 0.002041928470134735 -0.03140193969011307 -0.030687402933835983 6.43506646156311e-05 0.0812382623553276
0.06344614177942276 0.0037820041179656982 0.08375131338834763 0.049838148057460785 0.07261046022176743 -0.07857047021389008 -0.023136146366596222 0.022488296031951904 -0.0807078555226326 -0.061754971742630005 -0.03604951500892639 0.06004250794649124 0.05992523580789566 0.06600374728441238 0.06238692253828049 -0.040595654398202896 0.05461827665567398 -0.02236337959766388 0.02106606960296631 -0.07724915444850922 0.00988692045211792 -0.007517784833908081 -0.08639742434024811 -0.07233674824237823 0.03462572395801544 0.03092925250530243 0.024485327303409576 0.02249470353126526 -0.0007395744323730469 -0.004818767309188843 0.030800729990005493 -0.0034244507551193237 0.01342935860157013 0.04543421417474747 -0.08014635741710663 0.0009702816605567932 -0.020542219281196594 0.0780264213681221 -0.08461794257164001 -0.03784133493900299 -0.017475076019763947 0.00048563629388809204 -0.060387708246707916 -0.008659102022647858 0.08372769504785538 -0.046149417757987976 0.019080214202404022 -0.022384464740753174 0.05494718998670578 0.051176927983760834 -0.019847095012664795 -0.02419838309288025 -0.028124075382947922 -0.04701710492372513 0.015640735626220703 -0.07980107516050339 0.08002320677042007 0.07020656019449234 0.055606015026569366 0.0709698274731636 0.0682532861828804 -0.03835127130150795 0.04794248193502426 -0.01659691333770752 0.08137456327676773 0.08047930151224136 0.03423912823200226 -0.0183512344956398 0.06915176659822464 0.04419296234846115 -0.08290345221757889 0.021552272140979767 -0.08778116106987 -0.014429353177547455 0.06437743455171585 0.055161260068416595 0.04288589209318161 0.0434015616774559 0.0503731295466423 -0.08431354910135269 -0.07383163273334503 0.05212254077196121 -0.03890317305922508 0.07049005478620529 0.07854864746332169 -0.02554228901863098 0.08761719614267349 -0.049042124301195145 -0.03371385484933853 -0.08129459619522095 0.07305655628442764 -0.021091945469379425 0.03260370343923569 -0.006323330104351044 -0.0696084201335907 -0.029481086879968643 -0.04316859319806099 0.06939525157213211 0.0690946951508522 -0.07972359657287598 -0.07920269668102264 0.0030128583312034607 0.031202800571918488 0.018356047570705414 0.07417955249547958 -0.059096306562423706 0.06798192113637924 0.008969143033027649 -0.07018192112445831 0.08177170902490616 -0.05260640010237694 -0.010059334337711334 0.05967674404382706 -0.07594968378543854 -0.002056300640106201 -0.08365330845117569 0.019950754940509796 -0.05817970633506775 0.05396097153425217 -0.08518975973129272 -0.009404197335243225 -0.037010736763477325 -0.048311907798051834 0.08151236921548843 0.0024159178137779236 -0.07974787056446075 -0.07184421271085739 -0.0202375128865242
-0.08006095141172409 -0.07064293324947357 -0.012628324329853058 -0.08732181042432785 -0.08007929474115372 0.07637753337621689 0.03536885231733322 0.06442075222730637 -0.005439102649688721 -0.016815446317195892 0.0022243112325668335 -0.07169272750616074 0.070754773914814 -0.04546387866139412 -0.061552077531814575 0.03127944469451904 -0.07229866087436676 -0.08592743426561356 0.019196301698684692 0.006221495568752289 -0.0683441162109375 -0.02666950225830078 -0.027752436697483063 0.007612697780132294 0.023970790207386017 -0.07991783320903778 0.034321241080760956 -0.03429282456636429 0.06921175867319107 0.021924875676631927 -0.016338668763637543 0.0766586884856224 -0.03748856857419014 -0.06917274743318558 0.02709972858428955 0.07057148963212967 0.06154593080282211 -4.026293754577637e-05 -0.06704958528280258 0.06634005159139633 0.06428895145654678 0.010357417166233063 -0.07705707848072052 0.035558559000492096 -0.018870510160923004 0.05394608527421951 -0.03610539063811302 -0.046959489583969116 -0.029842253774404526 0.038971953094005585 0.049977026879787445 -0.023424342274665833 0.0720977708697319 0.020302534103393555 -0.031210940331220627 -0.030526310205459595 -0.04594289883971214 0.017770133912563324 -0.03144366666674614 0.03827828913927078 0.06813996285200119 0.05667450278997421 -0.005592212080955505 -0.028417784720659256 0.023804478347301483 -0.0035039857029914856 -0.005385778844356537 0.042122386395931244 0.031147606670856476 -0.07537484169006348 0.0054559484124183655 -0.008960969746112823 0.02262197434902191 -0.06639942526817322 0.07601293176412582 0.07049176841974258 -0.04795992001891136 -0.05955835431814194 0.01703961193561554 0.03355148434638977 -0.045147545635700226 -0.038336846977472305 -0.00607077032327652 -0.03550490364432335 -0.08018866926431656 0.06257445365190506 -0.06406667828559875 -0.043236397206783295 0.0881844237446785 -0.042493704706430435 0.010553203523159027 0.024764157831668854 0.026190191507339478 0.031604327261447906 0.059921957552433014 0.08286838978528976 0.04103647917509079 0.08376569300889969 0.022977136075496674 -0.005035378038883209 -0.033489011228084564 -0.07873614132404327 -0.052725400775671005 -0.0038155466318130493 0.06019578129053116 -0.04078304022550583 0.05459979921579361 0.021815769374370575 0.006347388029098511 0.021271154284477234 -0.0774938315153122 -0.06703734397888184 -0.047700926661491394 -0.08459438383579254 0.07594161480665207 0.06140116602182388 -0.08405303955078125 0.0858064666390419 -0.08209848403930664 -0.06924403458833694 -0.04480857029557228 0.08169720321893692 -0.00910775363445282 0.0273091122508049 -0.016102217137813568 -0.030713293701410294 -0.002751387655735016 0.03506191819906235
0.05459543317556381 -0.04873140901327133 -0.026570510119199753 -0.048665743321180344 -0.011524051427841187 0.013659656047821045 -0.007400199770927429 -0.05742141604423523 -0.014423146843910217 -0.06962176412343979 -0.012096568942070007 -0.05079527571797371 0.0730476900935173 0.06148121505975723 0.022553592920303345 -0.03245432674884796 0.00017883628606796265 0.057951919734478 0.0535455122590065 -0.07646679133176804 -0.017925389111042023 0.01803189516067505 0.07486172765493393 0.026826605200767517 0.06320153921842575 -0.06562233716249466 0.06704636663198471 0.072393499314785 -0.060090333223342896 -0.04377249255776405 0.0853276476264 0.06165603548288345 -0.035588767379522324 -0.0856119766831398 -0.06101849675178528 -0.06910085678100586 0.06831390410661697 0.019146576523780823 0.037871845066547394 -0.015873365104198456 -0.03420683369040489 0.06332025676965714 -0.016566872596740723 0.02221766859292984 0.08494196087121964 -0.07870104163885117 0.04714135080575943 0.05633287876844406 0.00020581483840942383 0.040055327117443085 -0.06993244588375092 0.07313840836286545 0.03699568659067154 -0.03930308297276497 0.005645684897899628 0.05376679450273514 0.06719345599412918 0.0008206591010093689 -0.028264865279197693 -0.044865962117910385 -0.06036512553691864 0.014955438673496246 0.04499546438455582 0.07376425713300705 -0.07165171951055527 0.044472940266132355 0.07837133854627609 -0.013802364468574524 0.06051262468099594 0.032677359879016876 -0.07088551670312881 -0.045075368136167526 0.06811953336000443 -0.049887318164110184 0.0007223635911941528 -0.0017193406820297241 0.005293369293212891 0.017056144773960114 -0.07472199201583862 0.001326151192188263 -0.037215255200862885 -0.0697476789355278 0.0863775834441185 -0.0015698447823524475 -0.08236318826675415 -0.01356988400220871 -0.07716851681470871 -0.017369277775287628 -0.06983670592308044 -0.029798023402690887 -0.027970492839813232 -0.08192387223243713 -0.020468920469284058 -0.030097443610429764 -0.020631253719329834 0.014703646302223206 -0.056811220943927765 0.0020633116364479065 -0.07603400945663452 -0.011941373348236084 0.058509595692157745 0.013777531683444977 0.07789251953363419 -0.051735538989305496 0.07572288066148758 -0.052423976361751556 -0.08086888492107391 -0.023900188505649567 -0.05764971300959587 0.06683569401502609 -0.006971783936023712 0.08114372938871384 0.02834763377904892 -0.03805087134242058 0.07453455775976181 0.05192398279905319 -0.04358488693833351 -0.022877201437950134 -0.04678666964173317 -0.015003286302089691 0.025502867996692657 -0.05092646926641464 0.016688130795955658 -0.0010256096720695496 -0.002317294478416443 0.012228220701217651 0.07989149540662766 -0.02550337463617325
-0.0853789672255516 -0.06869819015264511 0.06429574638605118 0.045861996710300446 0.018372483551502228 -0.05383067950606346 -0.019548192620277405 -0.05969832092523575 0.05288485437631607 -0.07976923882961273 0.07581696659326553 0.03652529418468475 0.058600835502147675 0.0633481815457344 -0.01924137771129608 0.06432191282510757 0.013267755508422852 0.04681966453790665 0.002153359353542328 -0.047325294464826584 -0.05285585671663284 -0.03304854407906532 0.020518086850643158 0.0004274100065231323 -0.030720774084329605 -0.07627943158149719 -0.0026794523000717163 0.047987423837184906 -0.008441410958766937 0.047023750841617584 -0.048768769949674606 -0.031852491199970245 0.04013540595769882 -0.06613961607217789 0.010796800255775452 -0.016873836517333984 0.020413920283317566 0.02684684842824936 0.0005120411515235901 0.056528039276599884 -0.008857272565364838 -0.05110735073685646 -0.08364151418209076 0.07897273451089859 0.027585797011852264 0.02543392777442932 0.07706794887781143 0.03335312008857727 0.07683081179857254 -0.07680589705705643 -0.05837244540452957 0.0142645463347435 -0.08553773164749146 -0.04835083335638046 0.033416569232940674 -0.002480901777744293 -0.05280258134007454 0.06568614393472672 -0.015246741473674774 0.08587495237588882 0.04493153840303421 0.05089346319437027 -0.05597381666302681 0.0037027448415756226 -0.043991025537252426 -0.048718564212322235 0.028292112052440643 0.08145499974489212 -0.03556012734770775 -0.04236788675189018 0.05669073015451431 -0.0043714940547943115 -0.028933346271514893 -0.0029256418347358704 0.0014915838837623596 0.08109273761510849 0.03160427510738373 0.07378806918859482 -0.009346924722194672 0.06550458818674088 -0.06853479146957397 0.022126756608486176 0.019923903048038483 -0.022159144282341003 -0.07381898164749146 -0.07294129580259323 -0.01315685361623764 0.030494779348373413 0.0435359850525856 -0.0814344733953476 0.005757763981819153 -0.039068493992090225 -0.006239168345928192 -0.004258729517459869 0.0061943307518959045 -0.055229607969522476 0.04007758945226669 0.07458897680044174 0.00023717433214187622 -0.05765809863805771 0.07264132052659988 -0.07541798055171967 -0.06185039132833481 0.07831799238920212 0.06781495362520218 0.03715737909078598 -0.0637039840221405 -0.005190856754779816 -0.05434538796544075 -0.07253831624984741 0.07742268592119217 0.028728775680065155 0.07021022588014603 -0.04151804745197296 0.08492656797170639 -0.08208901435136795 -0.04619206115603447 -0.06799796223640442 -0.045825667679309845 -0.02038232982158661 0.07140883058309555 -0.07936123758554459 0.028389133512973785 0.07164935022592545 0.07663402706384659 -0.041761498898267746 0.03690654784440994 -0.08366666734218597
-0.015265390276908875 0.03476521372795105 -0.01633157581090927 0.026758261024951935 -0.016230180859565735 0.02140713483095169 0.07361909002065659 -0.05268615111708641 -0.08390586078166962 0.03655475378036499 -0.05640698969364166 0.06981071084737778 -0.05014840513467789 -0.053959861397743225 -0.007144473493099213 0.03279288858175278 -0.06250643730163574 -0.08361026644706726 -0.017587415874004364 0.01892535388469696 -0.05665590986609459 -0.06693276762962341 0.014994986355304718 0.07917261868715286 -0.03689686954021454 0.06667608767747879 -0.048113491386175156 -0.008488498628139496 0.015580564737319946 -0.06953112781047821 -0.0723511353135109 -0.06669370085000992 0.07724156230688095 0.07644724100828171 0.013133354485034943 -0.07286050170660019 -0.02592281997203827 -0.0011439695954322815 -0.047886479645967484 -0.0833783745765686 -0.053877294063568115 0.05149649828672409 0.009672194719314575 0.04857439547777176 -0.035482197999954224 -0.07967399060726166 0.05146098881959915 -0.06828124821186066 -0.009760074317455292 0.08709234744310379 0.06734029203653336 0.03289997577667236 -0.021234869956970215 0.022031590342521667 0.017599083483219147 0.07537735253572464 0.07098952680826187 0.01242481917142868 0.038547299802303314 0.05503296107053757 0.058358870446681976 -0.04838407412171364 -0.029494334012269974 -0.042958226054906845 -0.06957463920116425 -0.0383516401052475 0.07803642004728317 0.030686594545841217 -0.07595627009868622 0.047283269464969635 -0.023523271083831787 -0.043140217661857605 0.08375612646341324 -0.03749192878603935 0.025184698402881622 0.07135281711816788 -0.012961074709892273 -0.001021057367324829 -0.08698425441980362 -0.06708575040102005 0.007885560393333435 0.08812088519334793 0.07363062351942062 0.08622776716947556 -0.07652831822633743 0.0020637735724449158 0.04192645102739334 0.08233828097581863 -0.057497844099998474 -0.017590999603271484 0.08186764270067215 -0.07199341058731079 -0.032620783895254135 -0.015334315598011017 0.05043261498212814 -0.05778823047876358 -0.039531540125608444 0.002532094717025757 0.007369913160800934 -0.04467969387769699 0.034876249730587006 -0.07598293572664261 -0.02422092854976654 0.08384766429662704 -0.04939074069261551 0.03399931639432907 -0.005914375185966492 0.002773664891719818 0.027445659041404724 -0.0028530657291412354 -0.029236067086458206 -0.026766736060380936 -0.08087392896413803 0.07112322002649307 0.06570255011320114 -0.07255260646343231 0.06005168706178665 0.019970685243606567 -0.010217837989330292 -0.05938819795846939 -0.08325231075286865 -0.08450038731098175 -0.07822395861148834 0.020891495048999786 0.01200159639120102 -0.0779891312122345 -0.07879083603620529 0.086701400578022
0.048225514590740204 -0.035682205110788345 -0.05982392281293869 -0.03104693815112114 -0.026325080543756485 -0.034208424389362335 0.07840877026319504 -0.073826365172863 -0.04955913871526718 0.013120368123054504 0.02899634838104248 -0.012795485556125641 0.05012211948633194 -0.006817683577537537 0.05537060648202896 0.016918964684009552 0.08701229840517044 -0.045575421303510666 -0.06635215878486633 -0.0780785083770752 -0.036447834223508835 0.07462593168020248 -0.014583714306354523 -0.023036129772663116 -0.045534126460552216 0.0795433297753334 -0.01515825092792511 0.08303729444742203 -0.003459542989730835 0.0794198289513588 -0.013844035565853119 -0.04087405651807785 0.010183818638324738 0.06413332372903824 -0.048952922224998474 0.048749856650829315 0.024086974561214447 0.08455296605825424 0.04692014306783676 -0.05246194079518318 -0.014014504849910736 0.017605267465114594 0.007591851055622101 0.025236576795578003 0.0263974666595459 -0.045930515974760056 0.06307687610387802 -0.003320567309856415 -0.018824048340320587 0.02144835889339447 -0.026420678943395615 0.04747476428747177 0.00537785142660141 0.08547031134366989 0.016276657581329346 0.07278952747583389 0.07492638379335403 -0.06614472717046738 -0.05200892686843872 -0.0635848343372345 0.04285643249750137 0.04615696519613266 -0.011839859187602997 -0.07250873744487762 -0.03647022694349289 0.03746630996465683 -0.03887597844004631 -0.08193289488554001 0.0400962308049202 -0.06425812840461731 -0.06242161989212036 -0.048686396330595016 -0.026531882584095 -0.05253512039780617 -0.05500398576259613 0.08148356527090073 -0.05008427053689957 -0.01251211017370224 -0.013451062142848969 0.06994897872209549 0.07747999578714371 -0.00611162930727005 0.005437679588794708 -0.059928812086582184 0.04429832845926285 -0.0021667256951332092 -0.06944741308689117 0.02536998689174652 0.020461924374103546 0.006852686405181885 -0.013197697699069977 -0.047400400042533875 -0.017582818865776062 0.051283203065395355 0.003062717616558075 0.0022637248039245605 0.040158577263355255 -0.010904505848884583 -0.07586553692817688 -0.00563957542181015 0.07642009109258652 0.02397923916578293 -0.0279194638133049 0.029205963015556335 0.0715232565999031 -0.06573446094989777 0.027628540992736816 -0.04896101355552673 -0.060390740633010864 0.06913069635629654 -0.021208666265010834 0.014715760946273804 0.025322191417217255 0.01824626326560974 -0.07418377697467804 -0.03456948697566986 0.045741744339466095 -0.008934587240219116 0.012204296886920929 0.03519723564386368 -0.057921551167964935 0.07496684044599533 0.04660259932279587 0.02791804075241089 0.008816972374916077 -0.007396116852760315 -0.04690235108137131 -0.04913893714547157
-0.05924756079912186 -0.07752718031406403 0.08271833509206772 -0.01901349425315857 -0.08352701365947723 -0.07319734990596771 0.029949411749839783 -0.0007641315460205078 0.018227308988571167 0.08008017390966415 0.08600268512964249 -0.0383012518286705 -0.00307454913854599 0.025626294314861298 -0.07000546902418137 0.0211915522813797 -0.032954927533864975 -0.021007739007472992 0.04514449089765549 0.022901587188243866 0.05028659850358963 -0.038202766329050064 0.013403020799160004 -0.02287956327199936 -0.08775671571493149 0.030052974820137024 -0.03720955550670624 -0.07462485879659653 -0.06756970286369324 0.06534726172685623 0.05030743032693863 -0.061441145837306976 -0.014837563037872314 0.07015108317136765 0.06627412885427475 -0.01999294012784958 -0.05336082726716995 0.016669049859046936 0.05834881216287613 -0.0856219083070755 -0.01785554736852646 0.02293025702238083 0.004859238862991333 0.033969566226005554 0.06396927684545517 -0.0708099752664566 0.00247405469417572 -0.026147261261940002 0.07801657170057297 0.05717024952173233 -0.005174122750759125 -0.0031218379735946655 -0.06435833871364594 -0.06218856945633888 0.08386444300413132 -0.07455329596996307 -0.06124173104763031 0.041642628610134125 0.05870407074689865 0.04001829773187637 -0.017843246459960938 -0.08337665349245071 0.012117072939872742 0.05935340374708176 0.00965677946805954 0.026854000985622406 -0.06770657002925873 0.03352908045053482 0.03784724324941635 0.061885662376880646 0.06619507819414139 0.08379275351762772 -0.06557579338550568 0.07303839176893234 0.07360918074846268 0.06336196511983871 -0.0523698516190052 -0.015913553535938263 -0.02447708696126938 0.08640391379594803 0.07572972029447556 0.08472516387701035 -0.029605232179164886 -0.0754217654466629 -0.029649149626493454 0.0515492781996727 0.08230804651975632 -0.06439901143312454 0.06525606662034988 0.01782582700252533 0.0071036964654922485 -0.03493490070104599 0.0808814987540245 -0.07179143279790878 0.04431503266096115 0.003327585756778717 -0.01203414797782898 0.07438866049051285 -0.06674445420503616 0.07935333997011185 0.02279084175825119 0.026322193443775177 0.08573851734399796 0.056089453399181366 0.03326813876628876 -0.012717872858047485 -0.06749692559242249 -0.08343467861413956 0.009078927338123322 -0.01641038805246353 -0.05107647925615311 -0.030940212309360504 -0.0823507159948349 -0.04897236078977585 -0.019311539828777313 0.08638959378004074 -0.08088022470474243 -0.011110395193099976 -0.04287763312458992 0.026735328137874603 0.054876573383808136 0.015078164637088776 -0.07810510694980621 -0.07569870352745056 -0.014771461486816406 0.043741561472415924 -0.03296973928809166 -0.06326819211244583
0.01635216921567917 -0.034762751311063766 -0.05269644781947136 -0.05500553548336029 0.06192006915807724 -0.040070515125989914 0.012971490621566772 -0.0022564679384231567 -0.02035040408372879 -0.07099512964487076 -0.08097269386053085 0.08702334016561508 0.018288694322109222 0.0067117586731910706 0.0363430455327034 0.025191478431224823 0.07424340397119522 0.01481655240058899 -0.07748762518167496 0.022271744906902313 0.07626981288194656 -0.08333753049373627 -0.035091497004032135 -0.012402892112731934 -0.011689156293869019 0.05718740075826645 0.009878560900688171 -0.04346089065074921 0.02112257480621338 0.03082190454006195 0.04382891207933426 0.08662144094705582 -0.08419278264045715 1.074373722076416e-05 -0.024040624499320984 0.05065760761499405 -0.03442974016070366 -0.07978177815675735 -0.03942561522126198 0.0532306507229805 0.03508201241493225 -0.016794830560684204 -0.0707472562789917 0.058034397661685944 -0.019755788147449493 -0.016064278781414032 -0.08045009523630142 0.020858190953731537 -0.05913331359624863 0.056160397827625275 -0.08445702493190765 0.04304409772157669 0.017646685242652893 -0.031678710132837296 -0.030780885368585587 -0.027174483984708786 -0.04246499389410019 -0.00376284122467041 0.05622529238462448 -0.049058444797992706 -0.00566285103559494 -0.05739688128232956 0.07771825045347214 0.0837952271103859 -0.08198232203722 0.0584024116396904 0.05082274228334427 -0.009512551128864288 0.024343647062778473 0.03627510368824005 0.04316142946481705 -0.035374533385038376 0.008753761649131775 0.04460807889699936 -0.04941130056977272 0.030755288898944855 -0.06555275619029999 0.012427829205989838 -0.01919495314359665 -0.054139912128448486 -0.08401258289813995 0.07646804302930832 -0.001055389642715454 -0.017833679914474487 -0.08829424530267715 0.048597849905490875 -0.039663683623075485 0.07399987429380417 0.07384569197893143 0.0457376167178154 0.024411074817180634 -0.007033340632915497 -0.029340971261262894 0.043076179921627045 0.08416803926229477 0.029210276901721954 -0.027556758373975754 0.011861428618431091 -0.011151030659675598 0.026346668601036072 -0.07174494862556458 0.013863235712051392 -0.027695421129465103 0.02039855718612671 -0.02847883477807045 0.026392385363578796 -0.011372916400432587 -0.05847175419330597 -0.035165052860975266 -0.08229384571313858 0.08007089048624039 0.05777742713689804 -0.0575021356344223 -0.07625578343868256 0.027092531323432922 0.045758284628391266 -0.05360139161348343 -0.07540831714868546 -0.07518467307090759 0.057034604251384735 -0.030398983508348465 0.08262909203767776 -0.015850089490413666 -0.06359115242958069 0.04260028153657913 -0.01686462014913559 -0.053803253918886185 -0.03810826316475868
0.07861896604299545 -0.03319110721349716 -0.0023117437958717346 -0.0055729299783706665 0.005401834845542908 -0.08339904248714447 0.028679415583610535 0.0464232936501503 0.03647129237651825 -0.02337200939655304 -0.06683935970067978 0.07933413237333298 -0.018625110387802124 -0.07807020843029022 0.08144959062337875 0.0632910504937172 0.0034886300563812256 -0.05885462835431099 -0.06971532106399536 -0.028242476284503937 -0.037680260837078094 -0.05539950355887413 -0.07944005727767944 0.03969373553991318 0.03847665339708328 0.06795116513967514 -0.08111154288053513 0.07118473201990128 0.01603681594133377 0.019539669156074524 0.07840544730424881 -0.0818777084350586 0.08337516337633133 0.04575949162244797 -0.006391391158103943 0.013371691107749939 -0.08505602926015854 -0.0645287036895752 0.037310890853405 -0.05943889915943146 0.03085995465517044 -0.0721287652850151 0.0004281476140022278 0.06985839456319809 0.05786838382482529 0.06254632025957108 0.07481976598501205 -0.06507742404937744 -0.04119480401277542 -0.05023811385035515 0.07874289900064468 0.0016132369637489319 0.004721850156784058 0.06814893335103989 -0.08561012148857117 -0.0028411224484443665 -0.01657617837190628 0.03694736212491989 -0.036466315388679504 0.07698080688714981 0.05779052525758743 0.04884909838438034 0.06603183597326279 0.045696429908275604 0.07712753862142563 -0.08837109059095383 0.015724733471870422 -0.0011491775512695312 -0.06434832513332367 0.05280990153551102 0.02420628070831299 0.0809287503361702 -0.07449254393577576 -0.004182800650596619 0.013057559728622437 -0.08445590734481812 -0.08800791949033737 -0.062422461807727814 -0.0751546248793602 -0.034341853111982346 0.04146481305360794 0.0724172368645668 0.0025837942957878113 -0.061545230448246 -0.08113130182027817 0.0023352503776550293 0.04111946374177933 -0.006929166615009308 -0.054688822478055954 0.08186066895723343 -0.07469895482063293 0.023062437772750854 0.0789850726723671 0.022442109882831573 -0.07039030641317368 -0.030754584819078445 0.009485043585300446 0.009314306080341339 0.0015900135040283203 0.05154762417078018 -0.04107204079627991 -0.019418999552726746 0.01487269252538681 0.0070808157324790955 -0.06568033993244171 -0.04307377338409424 0.016813896596431732 0.02216757833957672 -0.05950680747628212 0.0002657696604728699 -0.004111014306545258 0.03634405881166458 -0.033598750829696655 -0.05928667634725571 0.004483267664909363 0.044860608875751495 0.0653257742524147 -0.07807789742946625 -0.027165193110704422 0.07136259227991104 -0.07737712562084198 0.06691896170377731 -0.029649950563907623 -0.05258377641439438 -0.054127857089042664 -0.056693464517593384 -0.06263290345668793 0.0707687959074974
0.0643429234623909 -0.07781293243169785 -0.06819520890712738 0.03146360069513321 0.08672023564577103 -0.022161327302455902 -0.034111909568309784 -0.05283954367041588 -0.07768219709396362 0.01597142219543457 0.06550281494855881 -0.006851993501186371 4.5105814933776855e-05 0.009019643068313599 0.047067202627658844 -0.0016230344772338867 -0.053529784083366394 0.031127460300922394 -0.016451358795166016 0.04128899425268173 -0.00027235597372055054 -0.006898708641529083 -0.011699073016643524 0.045285917818546295 0.04811171442270279 0.08578390628099442 0.08633727580308914 -0.08030299097299576 -0.009525924921035767 -0.07042182981967926 0.03126900643110275 0.05201113969087601 -0.06843414157629013 0.01381131261587143 -0.048153121024370193 -0.00634390115737915 0.048568762838840485 -0.04893871769309044 0.005359940230846405 -0.04768211022019386 -0.0022641941905021667 0.08662360161542892 0.0715894028544426 0.015545107424259186 0.013422854244709015 -0.0331396646797657 0.04691573232412338 0.016881458461284637 -0.00773283839225769 0.07312405854463577 0.05487143248319626 0.07289669662714005 -0.005230940878391266 -0.0023950710892677307 0.03765653818845749 -0.06539025902748108 0.004352860152721405 0.04651997238397598 0.056286655366420746 0.0027199983596801758 -0.00490386039018631 -0.08676400780677795 0.08513053506612778 0.06288712471723557 0.02146381139755249 0.024945825338363647 0.025979921221733093 -0.06940503418445587 0.05637655407190323 -0.07125061750411987 0.03403554856777191 -0.06731022894382477 0.02310819923877716 0.03455376625061035 -0.04161929711699486 0.007230721414089203 0.05359230190515518 0.021432459354400635 0.034328825771808624 -0.012346163392066956 0.07792375236749649 -0.08798493444919586 0.035195380449295044 -0.05798180773854256 -0.03773871809244156 -0.05784525349736214 0.05897454172372818 0.056839875876903534 0.05773543566465378 -0.08439505845308304 0.07871132344007492 0.02581752836704254 -0.021488778293132782 -0.0849732831120491 -0.0366358645260334 0.054032035171985626 0.04209648817777634 -0.06143306568264961 -0.06474707275629044 0.05098389834165573 -0.04840349406003952 -0.08721301704645157 0.010141715407371521 -0.012569814920425415 0.016802623867988586 0.08790282160043716 -0.08395042270421982 -0.08763817697763443 0.06826936453580856 0.06770520657300949 -0.0754503458738327 0.017776980996131897 0.013957194983959198 0.07045421749353409 0.027173727750778198 -0.04383736848831177 0.01177757978439331 0.02537761628627777 -0.07329457998275757 0.08087115734815598 -0.012528389692306519 0.06823769956827164 -0.0022620856761932373 -0.003377355635166168 0.018975690007209778 0.016401171684265137 0.06273535639047623 -0.04985809698700905
0.027039922773838043 0.026281602680683136 0.08346536010503769 0.0227980837225914 0.054209716618061066 -0.026072513312101364 -0.048599973320961 -0.07167741656303406 0.06324542313814163 -0.05711016058921814 0.004550725221633911 0.04713911563158035 -0.02523116022348404 0.03074667602777481 0.07077255100011826 -0.023573435842990875 0.01441103219985962 0.003477819263935089 -0.05438324809074402 -0.05371126905083656 0.06108177453279495 -0.01697821170091629 -0.08502460271120071 -0.04076265171170235 -0.044603291898965836 0.08368029445409775 -0.08226051181554794 0.022385530173778534 0.018182501196861267 -0.05287700146436691 0.02073708176612854 -0.009601876139640808 -0.03176456317305565 -0.08154449611902237 0.004830576479434967 0.01641792804002762 0.012593962252140045 0.08371084183454514 0.024572551250457764 0.07998096197843552 0.03149223327636719 0.04529312998056412 0.075491763651371 0.026406139135360718 0.028348341584205627 -0.06928686797618866 0.06056714802980423 0.005074776709079742 -0.025268860161304474 -0.0035365819931030273 -0.034762416034936905 0.04519201070070267 -0.010201483964920044 0.03602949529886246 -0.0246746689081192 0.00017626583576202393 0.017710380256175995 0.012782499194145203 0.008942730724811554 0.020510129630565643 -0.03606729209423065 0.04018058627843857 0.07412930577993393 0.004701279103755951 0.028403058648109436 0.00036037713289260864 -0.08111447095870972 -0.015598461031913757 0.04879585653543472 0.053686149418354034 0.05438115447759628 -0.04007008299231529 0.04078715294599533 -0.0071196481585502625 -0.032094813883304596 0.04281435161828995 -0.010256044566631317 0.00760197639465332 0.005501404404640198 -0.07508396357297897 -0.026459399610757828 0.08051566034555435 0.0015206187963485718 -0.00988095998764038 0.06651800125837326 -0.04810641333460808 -0.0073632895946502686 0.0015366226434707642 -0.04808036610484123 -0.07110101729631424 -0.07470401376485825 -0.03552674874663353 0.0407644584774971 -0.01330864429473877 -0.05542943626642227 0.03443441540002823 -0.04476325213909149 0.08103746920824051 0.05293408781290054 0.06209073215723038 -0.046564165502786636 -0.0227830708026886 -0.06808245182037354 0.05234754830598831 0.013426080346107483 0.07061951607465744 -0.07744128257036209 -0.01128455251455307 0.08571445196866989 -0.08713369071483612 0.08158326894044876 -0.06986643373966217 -0.006106838583946228 -0.07255787402391434 -0.02797887846827507 0.0624643936753273 0.042386867105960846 0.01949695497751236 -0.04499180242419243 -0.08183333277702332 0.05245954543352127 0.005485668778419495 -0.026301246136426926 -0.009824484586715698 -0.07502374053001404 -0.019920989871025085 0.04579939693212509 -0.08386113494634628
-0.038130149245262146 0.03271842002868652 0.004158638417720795 -0.03963678330183029 0.016093038022518158 -0.051156654953956604 0.08073373883962631 0.012390173971652985 0.03252779692411423 0.07025869935750961 -0.08430540561676025 -0.05245356261730194 -0.04377107322216034 0.030134111642837524 0.08064643293619156 -0.08741333335638046 -0.04794549569487572 -0.053693726658821106 -0.0675438642501831 0.025245264172554016 0.05540449172258377 -0.06536984443664551 0.06650356203317642 0.0716996118426323 0.012299492955207825 0.08269719034433365 0.0770200714468956 0.03597582131624222 -0.036444041877985 -0.008485876023769379 -0.03547307476401329 -0.026670388877391815 0.007892616093158722 0.05867099016904831 -0.02263680100440979 0.07956665009260178 0.0755874291062355 -0.07085450738668442 0.0038466081023216248 0.04446113854646683 -0.02086254209280014 0.060411237180233 -0.039599448442459106 0.010474629700183868 -0.055237364023923874 -0.027573298662900925 -0.05628355219960213 -0.008877851068973541 -0.021520234644412994 0.00619632750749588 -0.054596561938524246 -0.052762195467948914 0.006013534963130951 -0.04666581004858017 0.034568823873996735 0.035533785820007324 0.0312923789024353 0.0464957132935524 0.009791165590286255 -0.0029426366090774536 -0.02607664465904236 0.06987547129392624 0.00370103120803833 0.053985364735126495 -0.05651275813579559 0.004369877278804779 0.03300992399454117 -0.03441040217876434 -0.04762542247772217 0.08022692054510117 -0.06680919229984283 0.0442991629242897 -0.023906394839286804 0.014152683317661285 0.05882102996110916 -0.022349998354911804 -0.02129543572664261 -0.08377625048160553 0.050423286855220795 0.03415994346141815 -0.0721842423081398 -0.02428031712770462 0.0762941911816597 -0.07374900579452515 0.03348175436258316 -0.028946802020072937 -0.0753806084394455 0.022413112223148346 0.03570106625556946 -0.0808861032128334 -0.05971938371658325 0.04415550082921982 -0.0016068890690803528 -0.07811500132083893 -0.020365886390209198 0.06290241330862045 -0.025190509855747223 0.03697856515645981 0.08537837117910385 -0.009721897542476654 0.00247751921415329 0.08765599876642227 -0.07404980063438416 0.0035544931888580322 0.035132355988025665 -0.003439582884311676 0.05428675562143326 -0.045223746448755264 0.018800795078277588 -0.06848422437906265 -0.03217092156410217 -0.01636558771133423 -0.031065810471773148 0.07693358510732651 0.034542016685009 0.05754400044679642 -0.051020298153162 -0.043978411704301834 -0.08716961741447449 0.027212083339691162 -0.07285722345113754 -0.03697784245014191 0.06895937770605087 0.01734357327222824 0.053212784230709076 0.024409011006355286 -0.026761025190353394 0.0022262930870056152
0.050231464207172394 -0.08686472475528717 0.03286333382129669 0.009074077010154724 -0.014142878353595734 0.05621518939733505 -0.03396670147776604 -0.08039456605911255 -0.013153143227100372 0.004519835114479065 -0.01327747106552124 0.010980911552906036 0.06595202535390854 0.000912889838218689 -0.04067835584282875 0.02352018654346466 -0.03632618859410286 0.04955104738473892 0.019916459918022156 0.08421768993139267 -0.07795201987028122 0.037001557648181915 0.03330957889556885 -0.008135028183460236 0.03898885101079941 0.0784677192568779 0.07874419540166855 -0.04756828024983406 0.00968015193939209 0.009474419057369232 0.0021570250391960144 -0.031445540487766266 0.0350622683763504 0.016803555190563202 -0.003521829843521118 0.03604936599731445 -0.07046721130609512 -0.08218377083539963 -0.04271553456783295 -0.04789087176322937 -0.00024662166833877563 -0.04993196949362755 0.04835983365774155 -0.0496659092605114 0.014607876539230347 0.015172779560089111 -0.08481340855360031 0.039533115923404694 0.03625074774026871 -0.0675201416015625 0.05271730571985245 -0.046262338757514954 -0.0022769197821617126 -0.017736710608005524 -0.03364023193717003 -0.07841501384973526 0.033329762518405914 0.08661160618066788 -0.03552154079079628 0.03138832002878189 -0.04447786509990692 -0.003379449248313904 -0.07170433551073074 0.051635079085826874 -0.019477829337120056 -0.02259472757577896 -0.051587678492069244 -0.01849774271249771 -0.07313123345375061 0.069696806371212 0.0875171348452568 0.08296713978052139 -0.02098720520734787 0.05630207806825638 0.0794060155749321 -0.03755444288253784 0.05924781411886215 0.05961819738149643 -0.07620306313037872 -0.04320276156067848 0.06831074506044388 0.043954990804195404 0.07583809643983841 0.07204436510801315 0.07800806313753128 -0.05773868411779404 0.023055389523506165 0.043095238506793976 -0.04601287096738815 -0.04992322623729706 -0.03236660733819008 -0.05175555869936943 0.027269713580608368 0.05490564554929733 -0.06851228326559067 0.010767057538032532 0.077910415828228 -0.009418785572052002 -0.0022075995802879333 -0.020678579807281494 -0.013514868915081024 -0.0412260964512825 -0.05215044319629669 0.07984483987092972 0.02681335061788559 -0.024130821228027344 0.00933951884508133 -0.06864707171916962 -0.07449659705162048 0.05848103016614914 0.00793331116437912 -0.05856655538082123 0.07255233079195023 -0.05223218724131584 0.05456524342298508 -0.013645097613334656 0.003534466028213501 0.009101614356040955 -0.049513254314661026 -0.03415525704622269 -0.06275734305381775 -0.0016037076711654663 -0.02226404845714569 0.017177537083625793 0.030934534966945648 0.0004932209849357605 0.02891569584608078 -0.04517173767089844
-0.030177954584360123 0.05947913974523544 -0.006032444536685944 0.01763557642698288 -0.07514698803424835 0.04184248298406601 -0.009280219674110413 0.02023373544216156 0.010016702115535736 -0.05519461631774902 -0.07493125647306442 -0.004539057612419128 -0.0034487172961235046 -0.07773260772228241 0.054644085466861725 0.07665611058473587 0.0485101118683815 -0.048054687678813934 0.02091120183467865 -0.08246839791536331 -0.010496474802494049 -0.054068200290203094 0.06633279472589493 -0.03527127578854561 0.003400556743144989 0.030559711158275604 -0.031796518713235855 0.05780964344739914 -0.06099653244018555 -0.07442222535610199 -0.017504103481769562 -0.04993853718042374 -0.015507206320762634 0.014172352850437164 -0.002256356179714203 -0.03734232857823372 -0.0019065216183662415 -0.016053281724452972 -0.08234281092882156 0.0033034905791282654 0.005671292543411255 -0.07041209191083908 -0.008013956248760223 0.08548606187105179 0.023414231836795807 0.003012940287590027 -0.019034646451473236 -0.08567358553409576 -0.03319431096315384 -0.0864144116640091 0.07217871397733688 -0.0866238996386528 0.0318339467048645 0.01386367529630661 0.013952977955341339 -0.0038349106907844543 0.06880376487970352 0.06210913509130478 0.027705438435077667 -0.0526428148150444 0.03086308389902115 0.06802893429994583 -0.0513368621468544 0.00802089273929596 -0.011690609157085419 -0.02307446300983429 -0.003489568829536438 0.08357381075620651 -0.06003512814640999 0.04389306157827377 0.019295111298561096 -0.06854206323623657 -0.022605232894420624 -0.0760781392455101 -0.04976386949419975 -0.05473276227712631 0.018870681524276733 -0.023686349391937256 0.01870065927505493 -0.03495900705456734 0.0510709211230278 -0.020130135118961334 -0.000999152660369873 0.034576334059238434 -0.08450550585985184 -0.0016583651304244995 0.022742152214050293 0.03643389791250229 -0.041418686509132385 -0.05283369868993759 0.011699669063091278 -0.06916669011116028 -0.003253526985645294 0.07780637592077255 0.014559082686901093 0.027484484016895294 0.020733796060085297 -0.017760291695594788 -0.018842749297618866 0.0021288394927978516 0.003961794078350067 0.06383434683084488 0.04586806148290634 -0.03986915946006775 0.03468070179224014 0.012992247939109802 -0.030072849243879318 -0.07464423030614853 -0.06597574800252914 -0.024791061878204346 0.04202517122030258 0.022187121212482452 0.054838694632053375 -0.04164589196443558 0.040269725024700165 0.04399094730615616 0.04692297428846359 -0.04638287052512169 0.06068437546491623 -0.042107462882995605 0.08402275294065475 -0.009791351854801178 -0.08768956363201141 -0.024708397686481476 0.07717310637235641 0.03635834902524948 0.05213620513677597 0.04173647612333298
0.06645721942186356 -0.08436031639575958 -0.025837577879428864 0.06606555730104446 -0.07835888117551804 -0.07844230532646179 -0.0054810792207717896 -0.07900069653987885 0.04894431680440903 -0.03636474162340164 -0.048143647611141205 0.029019251465797424 0.03670967370271683 -0.017158791422843933 -0.017415255308151245 -0.06883420050144196 0.0761529728770256 -0.08303134143352509 0.014006763696670532 0.05434056371450424 0.04432257264852524 -0.04603232443332672 -0.02780035510659218 0.06363231688737869 0.015034295618534088 0.08095411211252213 0.07440947741270065 0.0475468710064888 0.03380914032459259 -0.04541759938001633 0.025292932987213135 -0.08502325415611267 -0.048069532960653305 -0.027840543538331985 -0.07433373481035233 -0.01803252100944519 -0.07251419126987457 0.06954807788133621 -0.0763247087597847 -0.046304360032081604 0.008460938930511475 -0.07880271226167679 0.013596728444099426 -0.0808541551232338 -0.032422251999378204 0.040610961616039276 0.019676432013511658 -0.0587693452835083 0.08426014333963394 0.05007445067167282 -0.022050976753234863 -0.08215665817260742 0.03421483933925629 -0.019375264644622803 0.015720069408416748 -0.07446405291557312 -0.012375503778457642 0.012400396168231964 -0.07253141701221466 0.06388669461011887 -0.0018396973609924316 -0.052690114825963974 0.06655030697584152 -0.020360015332698822 0.03530687093734741 -0.04586363211274147 -0.0854952409863472 0.06440799683332443 -0.00988113135099411 0.01786690205335617 -0.08067025989294052 -0.038832198828458786 0.045662976801395416 0.012026697397232056 0.03169231861829758 -0.06925314664840698 0.006831005215644836 0.027069486677646637 -0.038850363343954086 -0.08568859845399857 0.04627016931772232 0.04286111146211624 -0.0809091329574585 0.028799593448638916 -0.035106007009744644 -0.006800659000873566 0.05544041842222214 0.063737653195858 -0.07215943932533264 -0.014353454113006592 0.07807540148496628 -0.06580673903226852 0.03528508543968201 0.08015158027410507 0.07684022933244705 0.05629313737154007 0.03977719694375992 0.08208069950342178 0.061874665319919586 -0.029927611351013184 -0.025713898241519928 -0.03477687016129494 -0.005916953086853027 -0.03051671013236046 0.07570938020944595 0.06925100833177567 -0.011992119252681732 0.02081623673439026 -0.07353713363409042 0.082465760409832 0.02377818524837494 0.08215727657079697 0.05368164926767349 0.042955778539180756 0.021769195795059204 -0.07371078431606293 -0.07851669192314148 -0.04469478130340576 -0.029354196041822433 0.02075481414794922 0.05749479681253433 0.04123752564191818 0.015418179333209991 0.05427823215723038 -0.05606953054666519 0.07425934821367264 -0.05734996497631073 -0.020166635513305664
0.005030520260334015 0.04617349058389664 0.032944418489933014 0.043503232300281525 -0.08396757394075394 -0.024490877985954285 -0.003880016505718231 -0.05762947350740433 0.08350307494401932 0.013204269111156464 -0.07186993211507797 0.03624255210161209 -0.047670770436525345 -0.0873713418841362 0.031981535255908966 -0.07043041288852692 0.08126852661371231 0.02735893428325653 -0.0028552040457725525 0.06721531599760056 0.04741782695055008 0.018629498779773712 -0.06686973571777344 -0.010654069483280182 0.010410986840724945 0.03636333346366882 0.0027766153216362 -0.05481824651360512 0.05976998060941696 -0.07638690620660782 -0.020329028367996216 0.012386620044708252 0.004241921007633209 0.08299782127141953 0.07068232446908951 -0.0856560692191124 0.03862663358449936 0.06924965232610703 -0.04475806653499603 -0.023924827575683594 0.03556863218545914 -0.06914373487234116 0.010734893381595612 -0.08168855309486389 -0.040928710252046585 0.05722200125455856 -0.028010498732328415 -0.0600118413567543 0.07871352881193161 0.08153071254491806 0.017887108027935028 0.018361084163188934 -0.025056950747966766 0.05950123816728592 0.05758855491876602 -0.06240200996398926 0.06307109445333481 -0.08062274008989334 0.07200906425714493 -0.0020082518458366394 -0.022971421480178833 -0.08691536635160446 -0.05919971317052841 0.03007979691028595 -0.05666019767522812 -0.035495348274707794 0.07047881931066513 0.003125302493572235 0.016847074031829834 0.025600269436836243 -0.05935263633728027 0.07600677758455276 0.00898878276348114 -0.01606719195842743 -0.06501608341932297 -0.024226799607276917 -0.048164837062358856 0.07386390119791031 -0.08277533203363419 -0.08446475863456726 0.014465168118476868 0.04097690433263779 0.06548198312520981 -0.08677568286657333 -0.06567361950874329 -0.03911001980304718 0.08777423948049545 -0.03764253109693527 0.027606859803199768 -0.08306827396154404 -0.07554700970649719 0.02178303897380829 -0.05181033909320831 0.01056409627199173 -0.02803068980574608 -0.04573941230773926 0.0804758295416832 0.04424550384283066 -0.0074830129742622375 -0.01836652308702469 0.04678713530302048 0.034632548689842224 -0.06315770745277405 -0.0365976057946682 -0.03194873407483101 -0.0051736608147621155 -0.005584634840488434 0.08719810098409653 0.07456330209970474 -0.06866961717605591 0.03751259297132492 0.0033074617385864258 -0.08689793944358826 0.009852752089500427 0.04402301460504532 0.05864191800355911 0.012438610196113586 0.010529875755310059 0.016084499657154083 0.08463654667139053 -0.06308071315288544 -0.004861198365688324 0.0707784965634346 0.05370066314935684 0.05817814916372299 0.015219055116176605 0.0023867934942245483 -0.03233429417014122
0.019076913595199585 0.07772801071405411 0.04172592610120773 -0.013120584189891815 0.06698780506849289 -0.013017065823078156 0.06703750044107437 -0.060167744755744934 -0.03849928081035614 0.00209856778383255 0.024648800492286682 0.08174855262041092 0.0003082007169723511 0.012977741658687592 0.08806022256612778 -0.08064780384302139 -0.0225447416305542 0.040754057466983795 -0.06132957339286804 -0.013376452028751373 -0.008282147347927094 -0.018410027027130127 -0.021070092916488647 0.04706459492444992 0.042496196925640106 -0.08240079879760742 -0.08525747060775757 0.04975955933332443 -0.023111701011657715 0.008129045367240906 0.058929748833179474 -0.08096059411764145 -0.0022064372897148132 -0.044185396283864975 -0.04141559824347496 0.07541736215353012 -0.0545201301574707 0.0034118518233299255 -0.028770767152309418 -0.053014084696769714 0.03952883929014206 -0.01663517951965332 -0.05679773539304733 0.0648982897400856 -0.0009912550449371338 -0.05314306542277336 0.07737309485673904 -0.010108597576618195 -0.00802939385175705 0.06501322239637375 -0.023522838950157166 0.0011199042201042175 0.05768532305955887 0.07657084614038467 -0.03940567001700401 0.04003060609102249 0.061400480568408966 -0.050184641033411026 0.03005414456129074 0.07553129643201828 0.07369329780340195 0.005007036030292511 0.05066228657960892 -0.01608666032552719 0.05919038504362106 0.08367494493722916 0.07552170008420944 0.04963759332895279 0.033416129648685455 0.05190940946340561 -0.07496818155050278 0.07217185944318771 0.07559361308813095 -0.0578041672706604 -0.08798708766698837 -0.08175859600305557 -0.08041991293430328 0.031144194304943085 -0.06859340518712997 -0.04536831006407738 0.06694870442152023 0.05688204616308212 -0.05334469676017761 0.018881432712078094 -0.06748466193675995 0.06426841765642166 -0.034739043563604355 -0.015191912651062012 0.04121129959821701 0.048114992678165436 0.01340978592634201 -0.024811208248138428 -0.0805024579167366 0.04560130089521408 0.07918646186590195 -0.05308057367801666 0.007899753749370575 0.03709644824266434 -0.03814013674855232 -0.04254964366555214 -0.026261944323778152 -0.05625583231449127 -0.03426353260874748 0.023494720458984375 0.056758396327495575 0.03237190842628479 0.07477649301290512 -0.08148452639579773 0.05194438248872757 0.003945052623748779 0.056521542370319366 0.026757925748825073 0.034446798264980316 -0.07041409611701965 -0.02981363609433174 -0.07718027383089066 -0.07082794606685638 0.06404047459363937 0.02370212972164154 -0.055124685168266296 -0.028780881315469742 0.07854994386434555 0.0485287681221962 -0.0712982639670372 -0.07114015519618988 -0.045927200466394424 0.08755872398614883 -0.0712612047791481
-0.017007261514663696 -0.0004462599754333496 0.0841064527630806 0.050866685807704926 -0.07051850855350494 -0.04474039748311043 -0.002893120050430298 0.07012806087732315 -0.04376792162656784 0.0866967961192131 0.013952672481536865 -0.04237964749336243 0.0453779473900795 -0.05269104242324829 0.021329015493392944 -0.05930538848042488 0.03482509404420853 0.003883577883243561 -0.058883655816316605 -0.05312329903244972 0.020345643162727356 -0.07728608697652817 -0.0032890960574150085 -0.038255251944065094 0.009974829852581024 0.07877669483423233 0.01344926655292511 -0.027257494628429413 0.05866525322198868 0.07213243097066879 -0.03582199662923813 -0.037736717611551285 -0.07629144191741943 -0.03899289295077324 0.0350402370095253 0.04102896898984909 0.028720051050186157 0.07021000236272812 0.058829717338085175 -0.05453178286552429 -0.04599837586283684 -0.07956404983997345 -0.008619211614131927 0.0783543512225151 -0.0474860742688179 0.0590098574757576 -0.030778326094150543 0.0223471000790596 0.0868963971734047 -0.03270607069134712 0.029880113899707794 -0.06898675858974457 0.0833742693066597 -0.03837273269891739 0.006730534136295319 -0.01573696732521057 -0.07158848643302917 -0.054452430456876755 0.03048967570066452 0.045180805027484894 -0.006218470633029938 0.040204353630542755 0.06403664499521255 -0.05336043983697891 -0.08754928410053253 -0.06291577965021133 0.06256560236215591 -0.03217999264597893 0.010433606803417206 0.014157220721244812 0.054564230144023895 0.05214480310678482 0.03838620334863663 0.06610354036092758 0.055730678141117096 0.07202071696519852 0.02978217601776123 0.06847275048494339 -0.040550727397203445 0.06844811886548996 -0.019715897738933563 0.0788230374455452 0.009934812784194946 0.006960839033126831 -0.063571035861969 0.03483439236879349 -0.08407153934240341 -0.06032870337367058 -0.08385879546403885 -0.009790830314159393 -0.009387262165546417 -0.021297305822372437 -0.04832535609602928 0.05139238387346268 -0.005484871566295624 -0.05143490806221962 0.060478575527668 0.02288319170475006 0.06315948814153671 -0.08227735757827759 0.049590371549129486 -0.04606960341334343 -0.05322318524122238 -0.045068394392728806 0.04723987728357315 -0.003980204463005066 -0.04526825249195099 0.06379739195108414 -0.05583267658948898 -0.06390736252069473 -0.026953119784593582 -0.028409872204065323 -0.059269435703754425 0.03925860673189163 -0.023365013301372528 -0.0400267131626606 0.07459840923547745 -0.055683623999357224 -0.02867068722844124 0.05344513803720474 -0.03545551002025604 -0.0675378292798996 0.07560358196496964 -0.04986550658941269 -0.035167329013347626 -0.01750825345516205 -0.004432380199432373 0.012277081608772278
-0.00314486026763916 -0.0030504539608955383 0.06807944923639297 0.009915433824062347 -0.000622183084487915 0.0852208361029625 0.06615329533815384 0.04419230669736862 -0.060970209538936615 0.013062596321105957 0.02221224457025528 -0.00429854542016983 0.07418208569288254 -0.033412251621484756 -0.033633846789598465 -0.06439919024705887 0.07124211639165878 0.07967398315668106 0.06907033175230026 0.05806351453065872 0.045616261661052704 -0.014447040855884552 0.03895717114210129 0.04816573113203049 -0.018458299338817596 0.06190446764230728 -0.007614210247993469 -0.06402285397052765 0.010152004659175873 -0.08652837574481964 0.055907927453517914 0.020893141627311707 -0.02873152866959572 -0.02917766198515892 -0.008139684796333313 -0.015619821846485138 0.06312809139490128 0.014052338898181915 0.08272583037614822 0.08793910592794418 0.019825279712677002 0.03622184693813324 -0.08580320328474045 -0.016835853457450867 -0.02643260732293129 -0.0022389739751815796 -0.08809182047843933 -0.03595035523176193 -0.04216625541448593 -0.07005936652421951 -0.011555381119251251 0.0829809233546257 -0.08175089210271835 -0.02060108631849289 -0.0052442774176597595 -0.05397295951843262 0.05778176337480545 0.07113105803728104 0.0030083060264587402 0.07930708676576614 0.014960624277591705 -0.015248045325279236 -0.03922499716281891 0.06815435737371445 0.07732493430376053 -0.007196001708507538 0.001413688063621521 -0.040253885090351105 -0.0774729996919632 0.014054432511329651 0.01273888349533081 0.03984478861093521 -0.042033903300762177 -0.08007530122995377 0.05977461487054825 -0.060553617775440216 0.04434380680322647 0.025672204792499542 -0.049469176679849625 -0.0482434406876564 -0.07490471750497818 0.0799357071518898 0.06845080107450485 0.039868272840976715 0.034105315804481506 0.08329623192548752 -0.023389354348182678 -0.03507276251912117 0.06327196210622787 -0.040464188903570175 -0.03639736399054527 -0.016494370996952057 -0.08528701961040497 -0.038508541882038116 0.05473724752664566 0.0035464391112327576 0.029917821288108826 -0.01336342841386795 0.004190124571323395 -0.0855286493897438 -0.03827499598264694 -0.05888249725103378 0.016751162707805634 -0.0188380628824234 -0.03764502704143524 -0.075824074447155 -0.018872104585170746 0.0036035850644111633 0.05744133144617081 -0.08250818401575089 -0.03799276053905487 -0.0419137217104435 -0.060982272028923035 0.05002982169389725 0.042701996862888336 0.024226978421211243 0.03572922199964523 -0.08016210049390793 0.040180958807468414 0.01261179894208908 -0.05299602448940277 0.07968156784772873 -0.028083328157663345 0.010999999940395355 0.005284562706947327 0.06561804562807083 0.0549689456820488 0.042720578610897064
-0.03628402203321457 0.05067405849695206 0.05451274663209915 0.0356837660074234 -0.07524976134300232 0.007393538951873779 0.01092594861984253 -0.025980506092309952 -0.04521549493074417 0.021837301552295685 -0.02973746880888939 0.026208318769931793 -0.041935648769140244 0.07286051660776138 0.06159054487943649 0.08161122351884842 0.041960664093494415 -0.06151854246854782 -0.051602620631456375 -0.04241466894745827 -0.059236425906419754 0.060069940984249115 0.007463760673999786 0.07845430821180344 -0.0796145647764206 0.040242768824100494 -0.01214185357093811 -0.07260195910930634 0.08356627076864243 0.024147532880306244 0.026821181178092957 0.01625996083021164 -0.012176938354969025 0.05856090039014816 -0.04550524428486824 -0.05882084742188454 0.053699739277362823 -0.07203196734189987 0.00200498104095459 -0.07133066654205322 0.02403274178504944 -0.08508029580116272 0.06389550119638443 0.056838832795619965 0.017531633377075195 -0.05433623120188713 0.028399758040905 -0.08700496703386307 0.04669525474309921 0.0355679914355278 0.012038096785545349 -0.061692237854003906 -0.003922104835510254 -0.044664204120635986 -0.06563550978899002 -0.049418676644563675 -0.02329302579164505 -0.06389136612415314 0.00016905367374420166 0.00807187706232071 -0.05672566220164299 -0.042847391217947006 -0.07753650099039078 0.06239870935678482 0.05465742200613022 -0.07914361357688904 0.06464020162820816 0.022285543382167816 0.06386283785104752 -0.014056339859962463 -0.042391836643218994 0.08334692567586899 -0.08283895254135132 0.05507480353116989 -0.059927769005298615 0.006340824067592621 0.0728619322180748 0.04562953859567642 -0.0777474045753479 -0.04782458767294884 -0.014895357191562653 -0.023715220391750336 0.02639491856098175 -0.04899466782808304 0.060605429112911224 0.0675695464015007 -0.007241606712341309 -0.061007142066955566 0.030948922038078308 0.039370737969875336 -0.06233413517475128 -0.029380589723587036 -0.005681872367858887 -0.03841173276305199 -0.027416914701461792 0.05625177174806595 0.05658935755491257 0.04879903048276901 -0.06659290194511414 -0.03857438638806343 0.010675154626369476 -0.05127263069152832 0.06642600148916245 -0.08165829628705978 -0.07334456592798233 -0.039860814809799194 0.042460836470127106 0.01586606353521347 0.04710935801267624 0.04837658256292343 0.04801667481660843 -0.07324907183647156 -0.04913267865777016 -0.03492278233170509 -0.0018205195665359497 -0.06027132272720337 -0.03082960844039917 0.06052831560373306 0.06043931096792221 0.049431003630161285 -0.07335878163576126 0.03697403520345688 0.0025843530893325806 -0.05188165232539177 -0.01738591492176056 0.07025033980607986 -0.01712978631258011 -0.026374518871307373
-0.06891141086816788 0.0478849783539772 0.014388568699359894 0.034445203840732574 -0.022119969129562378 -0.0381120890378952 0.040993787348270416 -0.02621772140264511 -0.015367701649665833 -0.02709212154150009 -0.0009340867400169373 -0.06260481476783752 -0.06700579822063446 0.0036431103944778442 0.02214621752500534 0.021117523312568665 0.007421150803565979 -0.0012165382504463196 0.014159642159938812 -0.06281402707099915 0.021080031991004944 0.05671720951795578 0.03609207272529602 -0.06652583926916122 0.06967445462942123 -0.0026305541396141052 0.0799330398440361 -0.039863795042037964 0.05536387115716934 0.015065506100654602 0.017352931201457977 0.032173335552215576 -0.0541413240134716 -0.0622333399951458 0.0304294154047966 -0.039442241191864014 0.04002726823091507 0.006488889455795288 -0.0695154070854187 -0.042010143399238586 -0.012878075242042542 0.08474712818861008 -0.013117574155330658 0.014012470841407776 -0.025316812098026276 0.013758525252342224 0.03717111796140671 0.004740476608276367 0.0652075782418251 0.08525393158197403 -0.04974213242530823 -0.07321475446224213 0.07360059767961502 -0.030969925224781036 -0.002885386347770691 0.0021506473422050476 0.08628035336732864 -0.052594754844903946 -0.04517253860831261 0.055592574179172516 0.026425346732139587 0.08574963361024857 0.06216215342283249 0.009312748908996582 -0.02784254401922226 -0.08737942576408386 -0.06409958004951477 -0.016063377261161804 0.01349029690027237 0.0801033303141594 0.06857631355524063 0.0022154152393341064 0.01073434203863144 -0.03487178683280945 -0.06513015925884247 0.04162242263555527 0.08760599046945572 -0.018113158643245697 0.029437869787216187 -0.08509622514247894 0.022423557937145233 -0.07195088267326355 -0.04641348868608475 0.06623288244009018 0.07138817757368088 0.04703492671251297 -0.06811080127954483 0.011099301278591156 0.028515219688415527 0.06383291631937027 -0.010548576712608337 0.03045206516981125 0.0849306508898735 -0.07186061888933182 -0.07766007632017136 0.03527625650167465 0.07490549236536026 0.07170375436544418 0.01940540224313736 -0.030676953494548798 0.024913489818572998 0.022072985768318176 0.053619809448719025 -0.06733566522598267 -0.07703849673271179 0.009145833551883698 0.019840523600578308 -0.046415869146585464 -0.006936267018318176 -0.024258479475975037 -0.06463361531496048 -0.0809677392244339 0.04393476992845535 0.07650049775838852 -0.03084096685051918 -0.05260380730032921 -0.07825671136379242 0.0295485258102417 -0.08194464445114136 0.06648098677396774 0.07170893996953964 -0.07053123414516449 -0.03621016815304756 0.006216719746589661 0.06450603157281876 0.04060841351747513 0.013130955398082733 0.08546297997236252
0.07007331401109695 -0.00808514654636383 0.03998150676488876 0.06180695444345474 0.0655115470290184 0.04035722464323044 0.062228329479694366 0.04886408895254135 0.04533373564481735 -0.08432448655366898 0.05538765341043472 0.0355239063501358 0.01199805736541748 -0.029957778751850128 0.00686202198266983 0.03842673450708389 0.00908593088388443 -0.06559240818023682 -0.0466669499874115 0.04256755858659744 0.015806742012500763 -0.020037062466144562 -0.02110292762517929 -0.08755840361118317 -0.08229106664657593 0.040016405284404755 -0.03632309287786484 -0.0738072544336319 0.07938700169324875 -0.07767846435308456 0.045084647834300995 0.04239901155233383 -0.07178561389446259 0.033495090901851654 -0.03017241135239601 0.07977340370416641 -0.084638811647892 -0.05866730585694313 0.014612048864364624 -0.06309154629707336 0.004589416086673737 -0.06338698416948318 -0.06632117182016373 -0.07030773907899857 0.06172163039445877 0.009706102311611176 0.03808633238077164 -0.02645658701658249 -0.011768124997615814 -0.03579046204686165 -0.05225497856736183 -0.06419334560632706 -0.019471488893032074 0.05874217301607132 0.0769151970744133 0.07858789712190628 -0.02538061887025833 0.015131548047065735 0.07615768164396286 -0.050949227064847946 -0.01671222597360611 0.055837132036685944 0.0842338427901268 -0.016640014946460724 -0.02985011413693428 0.004559949040412903 0.0004683062434196472 -0.023175403475761414 0.008702635765075684 0.03072279691696167 0.023057177662849426 -0.0030165761709213257 -0.07188789546489716 0.009122639894485474 0.06351425498723984 0.0711187943816185 0.001009523868560791 0.028310462832450867 -0.06462260335683823 0.08725408464670181 0.08500494807958603 -0.004568040370941162 0.030065171420574188 -0.025665245950222015 0.02042745053768158 0.022150054574012756 0.06020814925432205 -0.051613934338092804 0.0459599569439888 0.036836184561252594 0.0034920424222946167 0.07271002978086472 0.02383945882320404 -0.034586768597364426 0.0044945478439331055 0.0061238110065460205 0.03502315282821655 -0.08253781497478485 0.04696578532457352 0.07987109571695328 0.00525355339050293 0.06232666224241257 -0.007282078266143799 0.008104100823402405 0.08098343759775162 0.08211470395326614 0.043133147060871124 -0.06546706706285477 -0.04835895448923111 0.08658070117235184 0.0514446422457695 0.007521376013755798 0.03950563818216324 -0.08381041139364243 0.08102930337190628 -0.008833862841129303 0.006113030016422272 0.04453771561384201 0.06524268537759781 0.04715733975172043 0.011622056365013123 -0.013474158942699432 -0.00867270678281784 -0.020813442766666412 0.03498592972755432 -0.0346824936568737 -0.034922730177640915 0.016657434403896332
-0.028215259313583374 -0.03095236048102379 -0.011387646198272705 -0.059185341000556946 0.06962462514638901 0.04586867243051529 0.028259649872779846 -0.0424155667424202 0.0199744775891304 -0.005062170326709747 -0.06532071530818939 -0.08781451731920242 -0.009570188820362091 -0.057844240218400955 -0.04177417606115341 0.0588521733880043 0.0525512620806694 0.01664489507675171 0.06756209582090378 0.08051251620054245 0.005610421299934387 -0.0157209113240242 -0.08805035054683685 -0.02723507210612297 -0.05730435252189636 0.040065787732601166 0.006788983941078186 0.06501033157110214 0.05210532993078232 0.015083365142345428 0.04104980081319809 -0.04747260734438896 -0.004456512629985809 -0.0622367225587368 0.079155333340168 0.07327594608068466 -0.07808834314346313 0.05970615893602371 0.05340973287820816 0.06233910471200943 -0.07441837340593338 0.07736506313085556 -0.00890042632818222 -0.05897742137312889 -0.025258734822273254 -0.039862025529146194 -0.055513910949230194 -0.023638352751731873 0.015159010887145996 0.019208163022994995 0.030531905591487885 -0.024380043148994446 0.04615291208028793 -0.027560267597436905 -0.0019214749336242676 -0.035658445209264755 0.06547778099775314 0.01345689594745636 -0.03568773716688156 0.08801106363534927 -0.04630191624164581 -0.06070738285779953 -0.041897550225257874 -0.07446447014808655 -0.039809614419937134 -0.07582027465105057 -0.03174903243780136 0.00593915581703186 0.05270189791917801 0.009589895606040955 -0.08489131927490234 -0.010352723300457 -0.057430729269981384 0.037511877715587616 -0.06974592804908752 -0.007621236145496368 0.000790134072303772 0.007975287735462189 0.005071856081485748 0.013912856578826904 -0.0006882026791572571 0.0496673658490181 -0.054428428411483765 0.04744411259889603 -0.02701539173722267 0.01142922043800354 0.01179879903793335 -0.02571217715740204 -0.058150723576545715 -0.06919921189546585 0.0637623742222786 0.016568176448345184 0.06003495305776596 -0.06772589683532715 -0.08709190040826797 -0.021228954195976257 -0.04953848943114281 -0.05719193443655968 0.03581664711236954 0.06953472644090652 0.08543805032968521 0.036914579570293427 0.008220687508583069 0.07388722151517868 -0.01873079687356949 0.03889114409685135 0.01822168380022049 0.03234328329563141 -0.07330883294343948 0.05262952297925949 0.06659037619829178 -0.03638624772429466 -0.085120290517807 -0.07148014008998871 -0.05221029371023178 -0.06283573806285858 0.02790691703557968 0.0492238774895668 -0.01645820587873459 -0.054851774126291275 0.049184881150722504 -0.07376236468553543 0.05337727814912796 0.027972333133220673 -0.04038887098431587 0.027206256985664368 0.000238761305809021 -0.016035839915275574
-0.035024527460336685 -0.015355579555034637 0.03251642733812332 0.08128953725099564 -0.0374624989926815 0.08205273002386093 -0.04276304692029953 0.019433878362178802 0.08365532010793686 0.010701306164264679 0.08678501099348068 0.02880760282278061 -0.042364925146102905 0.0829147920012474 0.08421795815229416 -0.04556126892566681 -0.08579177409410477 0.03403469920158386 0.027884766459465027 0.06146400421857834 0.0719711109995842 0.08219920843839645 -0.07393963634967804 -0.04975883290171623 0.0057923272252082825 -0.052003636956214905 0.07944957166910172 0.01514241099357605 0.0034572631120681763 -0.04486074671149254 -0.0659075528383255 -0.06345048546791077 -0.04395723342895508 0.05410977452993393 -0.01850743591785431 -0.0840463787317276 0.04193287342786789 -0.010671831667423248 0.0712551698088646 0.046346016228199005 -0.07413690537214279 0.0267641544342041 -0.006674535572528839 -0.012606620788574219 0.07700196653604507 -0.059970393776893616 0.018898338079452515 -0.07150956988334656 0.0537472739815712 0.07683254033327103 0.03595951199531555 0.08560732752084732 -0.03134547546505928 -0.030294004827737808 -0.02687165141105652 0.06994181126356125 0.054128117859363556 -0.0146636962890625 -0.07001602649688721 -0.053423069417476654 -0.003305189311504364 0.08116167038679123 -0.019878298044204712 -0.04423229396343231 0.03951527923345566 -0.06581702083349228 0.026350148022174835 0.07659735530614853 0.0688834860920906 -0.07908961176872253 0.04970429092645645 -0.04060295596718788 0.01491335779428482 -0.02895553782582283 -0.011741898953914642 0.016612686216831207 0.06127168983221054 -0.07689040899276733 -0.08544182032346725 -0.0710647776722908 -0.004396498203277588 0.03310990333557129 -0.03830871358513832 -0.08302920311689377 -0.04722318425774574 0.0018622726202011108 -0.08685352653265 -0.08044286072254181 -0.024221554398536682 0.02252383530139923 -0.018532991409301758 0.010065354406833649 -0.07053815573453903 -0.08753298968076706 0.07370800524950027 0.0256393700838089 -0.024574123322963715 -0.07050785422325134 -0.04087045043706894 -0.03959032520651817 -0.020063430070877075 0.0831797793507576 -0.060496121644973755 0.06876947730779648 -0.06718422472476959 -0.06731034815311432 -0.015897929668426514 0.03357000648975372 0.04629025608301163 -0.04364003613591194 -0.04189293459057808 0.07312240451574326 0.0704132542014122 0.01460806280374527 -0.06144781783223152 -0.04708139970898628 0.023598775267601013 -0.004920780658721924 -0.029024817049503326 0.023029565811157227 0.059606753289699554 0.036771707236766815 0.07253099232912064 0.004487447440624237 0.04216235131025314 -0.07473882287740707 0.03322049230337143 -0.06090596690773964
0.029973149299621582 -0.07333020865917206 -0.004489198327064514 -0.055172741413116455 -0.06149039417505264 -0.08365780115127563 -0.05611749365925789 -0.06514046341180801 0.03762020915746689 0.08791495114564896 -0.06324303150177002 0.07463852316141129 0.037760935723781586 0.08043444901704788 -0.02526082843542099 0.028400935232639313 0.010917037725448608 -0.0774102732539177 0.02748270332813263 0.08611858636140823 -0.010302983224391937 0.0577496662735939 0.02460525929927826 -0.02350083738565445 -0.06469767540693283 0.016246862709522247 0.030471324920654297 -0.05941104143857956 -0.03027457743883133 -0.08375661820173264 -0.06602224707603455 0.05163302272558212 0.06028985232114792 -0.04087146371603012 0.02206747978925705 0.005388222634792328 0.037438683211803436 0.020845748484134674 0.016712278127670288 0.07626082748174667 0.028531163930892944 -0.035779912024736404 -0.04072768986225128 0.009911671280860901 -0.03115018829703331 0.05372767895460129 -0.02196432650089264 0.019552677869796753 -0.06882868707180023 -0.07389004528522491 0.02975994348526001 -0.005696386098861694 0.0225299671292305 -0.08640649914741516 0.06084766238927841 0.029575146734714508 0.004670083522796631 -0.08344129472970963 -0.00140361487865448 -0.037052493542432785 -0.003186553716659546 0.016976021230220795 0.0053183212876319885 0.015189215540885925 0.053011588752269745 0.0021028444170951843 0.06824208050966263 -0.060162052512168884 0.046229131519794464 -0.004660271108150482 0.05042349547147751 0.017050884664058685 -0.013464309275150299 0.009550951421260834 -0.0499047115445137 -0.08575521409511566 -0.06578827649354935 0.019757919013500214 -0.02492421120405197 -0.04380882531404495 -0.00702010840177536 0.03291098028421402 0.03219226747751236 -0.02252832055091858 -0.016511984169483185 0.08657299727201462 0.06455475836992264 0.018583737313747406 0.009141840040683746 -0.061601053923368454 -0.03887155279517174 -0.056299611926078796 0.05119975656270981 -0.08049575984477997 0.005701817572116852 0.006185084581375122 0.07022155076265335 -0.010037146508693695 0.08508903533220291 0.06944889575242996 -0.07046061754226685 0.007574431598186493 -0.0689411461353302 0.06237573176622391 0.0822882279753685 -0.015814602375030518 0.08327371627092361 -0.02050440013408661 0.046518631279468536 -0.03086569532752037 0.05146536976099014 -0.04038085415959358 -0.08607660979032516 0.012662462890148163 0.006914705038070679 0.07898025959730148 -0.020447954535484314 -0.0629226416349411 0.0620524063706398 0.028976313769817352 -0.0782039612531662 -0.003091484308242798 0.06271017342805862 0.042773760855197906 0.02620556950569153 0.06323925405740738 -0.044361717998981476 -0.02318534255027771
0.03337879478931427 0.013297751545906067 -0.017097890377044678 0.02920682728290558 -0.007010698318481445 0.03103575110435486 0.06667173653841019 0.04252093285322189 -0.0841953381896019 0.0578848198056221 0.04622180014848709 -0.05217938870191574 0.011918283998966217 0.024322830140590668 0.04236849397420883 0.06484555453062057 -0.02639004960656166 -0.009812399744987488 -0.08017480373382568 -0.050137098878622055 -0.04093938320875168 0.05181000381708145 0.0059107765555381775 0.06563123315572739 0.08820690959692001 0.04333470016717911 0.053204528987407684 -0.07308951765298843 0.08672008663415909 0.05109315365552902 0.07679728418588638 0.08200187236070633 0.07733627408742905 0.05128639191389084 -0.04475795105099678 0.08183380216360092 0.01644352823495865 -0.0772680938243866 -0.03008585423231125 -0.08084972202777863 0.03936339169740677 0.059536777436733246 -0.07529684901237488 -0.08345919847488403 0.05887236446142197 -0.06827141344547272 -0.0013214945793151855 -0.0027527809143066406 -0.04564204439520836 0.035488635301589966 -0.008542627096176147 0.04480733722448349 0.06385795027017593 0.05878319591283798 -0.03460109606385231 -0.0833720713853836 0.08580755442380905 0.009356565773487091 0.03204409033060074 0.0687207356095314 -0.08214444667100906 -0.08514072000980377 0.07540320605039597 0.08174175769090652 0.045678846538066864 0.014683201909065247 -0.009710699319839478 0.08451259881258011 0.04889731854200363 0.05575897544622421 0.017642788589000702 -0.015470579266548157 -0.025504477322101593 0.07661741226911545 -0.01739184558391571 -0.01564037799835205 -0.08037884533405304 0.03206971287727356 0.010753735899925232 0.0819818302989006 0.04195580631494522 0.02862449735403061 0.08305975049734116 0.05706266313791275 -0.06790931522846222 0.002506271004676819 0.0020851194858551025 0.01213834434747696 0.07943270355463028 0.028878428041934967 0.007095023989677429 0.08578526228666306 -0.07398837059736252 0.07899827510118484 -0.05906031280755997 0.03634103387594223 0.011999979615211487 0.04994822293519974 -0.07650570571422577 -0.030930843204259872 -0.04585512727499008 -0.06577468663454056 0.014486104249954224 0.0675547644495964 0.05851279944181442 -0.023404091596603394 0.07197866588830948 0.0645718201994896 -0.017550498247146606 0.007823139429092407 0.04663402587175369 0.08337368816137314 -0.024515174329280853 0.03606327623128891 -0.05090142413973808 0.0356210321187973 0.03008098155260086 -0.03313830494880676 -0.05322637781500816 0.06681186705827713 -0.0799759104847908 0.08539097756147385 -0.048933837562799454 0.023159459233283997 -0.013420693576335907 -0.05197954922914505 -0.0712934359908104 -0.0036157071590423584
0.019731439650058746 0.013651467859745026 0.06171280890703201 0.05674130469560623 0.04499947279691696 0.01286296546459198 -0.0028593987226486206 -0.08613882213830948 -0.07876517623662949 0.033638790249824524 0.06265515834093094 -0.020413614809513092 -0.003982432186603546 0.06957534700632095 0.03389153629541397 0.08470916002988815 0.05686362832784653 -0.02411983162164688 -0.01633165031671524 -0.02919568121433258 -0.021090619266033173 -0.08699531853199005 -0.030156154185533524 -0.020332515239715576 0.048929356038570404 -0.05599626898765564 -0.06693820655345917 -0.031194671988487244 0.059669964015483856 0.08536431938409805 -0.07147431373596191 -0.0012418851256370544 -0.007211253046989441 -0.02659551426768303 0.02095632255077362 -0.04895748198032379 -0.014803394675254822 0.0013601407408714294 -0.00557621568441391 -0.08106052875518799 0.07478509098291397 -0.03874655440449715 0.05495362728834152 -0.02247774600982666 -0.06658666580915451 -0.06219214200973511 0.08207979053258896 -0.08090806007385254 0.05139490216970444 0.0020973235368728638 -0.07584185898303986 -0.07536974549293518 -0.03751024231314659 -0.06578455865383148 -0.0852578654885292 0.05103529244661331 -0.01612279564142227 0.05331023782491684 -0.06914068013429642 0.040176309645175934 0.022988691926002502 0.002420283854007721 -0.018683984875679016 0.025163188576698303 0.049277983605861664 -0.08492232859134674 -0.0872654989361763 0.07830148190259933 0.07651136070489883 0.05819680541753769 -0.051447730511426926 0.07804135233163834 -0.006062783300876617 0.08646021038293839 0.04996953159570694 0.04591784626245499 0.055163927376270294 0.04157084971666336 0.06026739627122879 -0.07564084976911545 -0.04961428791284561 -0.037909045815467834 0.08510611206293106 -0.06979955732822418 0.053282760083675385 -0.05877339094877243 -0.0495401956140995 0.006230086088180542 0.06158774346113205 0.003331214189529419 -0.07882353663444519 -0.03234397619962692 0.034444235265254974 -0.07897660881280899 -0.009039729833602905 -0.06567300856113434 0.002013362944126129 -0.030843399465084076 -0.073710136115551 0.025641538202762604 0.06487264484167099 0.08731081336736679 0.021629266440868378 -0.037364665418863297 0.0022098571062088013 0.004192054271697998 -0.04322971776127815 -0.019340164959430695 0.07070448249578476 0.0630197748541832 -0.002965971827507019 -0.01914875954389572 0.06340128928422928 -0.04195445775985718 -0.0881381705403328 -0.05620543286204338 0.01426522433757782 -0.016904912889003754 -0.07882215082645416 -0.07654406875371933 0.01945587247610092 0.08605607599020004 -0.040097519755363464 -0.010876066982746124 -0.08341509103775024 0.06813109666109085 -0.015234507620334625 -0.02803768590092659
0.06670496612787247 -0.01794774830341339 0.0851951614022255 0.07726655155420303 -0.024222880601882935 -0.030289728194475174 -0.08479364216327667 -0.06668832898139954 -0.024343639612197876 0.05539528280496597 -0.057115256786346436 -0.03681936115026474 -0.04298287257552147 0.047259487211704254 0.08119412511587143 -0.05893848091363907 -0.07154415547847748 -0.05806255340576172 -0.06809000670909882 -0.07742024213075638 -0.02687247097492218 0.006638526916503906 -0.02756691351532936 0.008519656956195831 0.018419258296489716 -0.07610350847244263 -0.03615715727210045 0.010900840163230896 -0.058084823191165924 -0.06960202753543854 0.03371904790401459 -0.040245454758405685 0.04459347575902939 0.06457974761724472 0.03035527467727661 -0.07552184164524078 0.017000459134578705 -0.051441144198179245 -0.019983351230621338 -0.032817989587783813 0.01223745197057724 0.016818299889564514 0.08502883464097977 0.08805356174707413 0.007846154272556305 0.06099841743707657 0.02034590393304825 -0.007320120930671692 0.015668660402297974 -0.025142669677734375 0.041411928832530975 0.038830675184726715 0.04237889498472214 0.02126404643058777 0.018025554716587067 -0.02227143943309784 -0.0426945686340332 0.017006903886795044 0.029393643140792847 -0.07548239082098007 -0.067465640604496 -0.058930639177560806 -0.07695905864238739 0.06296918541193008 0.030561082065105438 -0.052295323461294174 -0.0297703854739666 -0.054328542202711105 0.026722103357315063 -0.0066375285387039185 0.0362885445356369 -0.0352594293653965 0.07032421976327896 0.01930597424507141 0.006314337253570557 -0.04993360489606857 0.027152210474014282 -0.018521010875701904 0.03427005559206009 -0.021084971725940704 0.043727003037929535 -0.055766813457012177 -0.06030677631497383 0.025146782398223877 0.053778864443302155 0.05659420043230057 -0.07337755709886551 0.046627067029476166 -0.03999458625912666 0.04091412574052811 0.07954322546720505 0.033968158066272736 -0.015058532357215881 0.07863173633813858 0.05567034333944321 -0.0831923857331276 -0.05844392627477646 0.02431962639093399 0.036517269909381866 0.022251851856708527 0.020050622522830963 0.028825439512729645 -0.05691959336400032 -0.003599308431148529 -0.07965176552534103 -0.044435855001211166 0.05930650979280472 0.0681590810418129 -0.019057847559452057 0.039740659296512604 -0.009816624224185944 -0.04651264846324921 0.07290669530630112 -0.08550137281417847 -0.008344903588294983 0.0845898911356926 0.0455114021897316 -0.06187203526496887 -0.03979148343205452 0.038813985884189606 0.03216367959976196 -0.03755557909607887 0.03930484503507614 0.022456727921962738 0.036596573889255524 -0.06097251921892166 0.07575500756502151 -0.06252884864807129
-0.031773149967193604 -0.031088221818208694 -0.07808718085289001 0.0763251855969429 0.008901812136173248 -0.06256920844316483 0.0627715066075325 0.061734654009342194 -0.07663918286561966 0.044286198914051056 0.02647802233695984 -0.053918346762657166 0.06973079591989517 -0.027500353753566742 -0.058275919407606125 0.06858380883932114 0.012349046766757965 0.05363760143518448 0.02783714234828949 -0.04290911555290222 -0.07435085624456406 -0.060456302016973495 -0.02585127204656601 -0.08560361713171005 -0.08216320723295212 0.03955613821744919 -0.050442084670066833 -0.013127192854881287 -0.023681864142417908 0.058734722435474396 -0.04707994684576988 0.03710029274225235 0.03209172934293747 -0.026715178042650223 0.026866242289543152 -0.07976710051298141 -0.06555851548910141 0.05108346790075302 -0.06250197440385818 0.060576267540454865 -0.027031175792217255 -0.0408698208630085 0.06805149465799332 -0.054427795112133026 -0.036958012729883194 -0.015359051525592804 0.05820412188768387 0.08698717504739761 -0.05382496863603592 -0.006943084299564362 -0.0463935025036335 -0.08675701916217804 -0.06402470916509628 0.01420503854751587 0.03215065598487854 0.04502355307340622 -0.03790722414851189 -0.043070822954177856 -0.08536019921302795 -0.08535708487033844 -0.002467431128025055 -0.06831039488315582 -0.012791082262992859 0.08035207539796829 -0.04993622750043869 -0.03209824860095978 -0.05307210981845856 0.08457718044519424 0.028479427099227905 0.03204627335071564 0.06784985214471817 -0.027439240366220474 -0.06414125859737396 -0.03273047134280205 -0.02417653799057007 -0.07205560058355331 0.07381575554609299 -0.04469011351466179 -0.07527313381433487 -0.017589397728443146 0.08054842799901962 0.020825408399105072 -0.048293258994817734 -0.08296101540327072 -0.06607124209403992 0.03445228934288025 -0.07435524463653564 -0.04252341017127037 -0.03700229898095131 -0.058279555290937424 -0.02271699160337448 0.001666434109210968 -0.04845215380191803 -0.060915447771549225 -0.05691505968570709 0.008136607706546783 0.008028082549571991 -0.019491009414196014 -0.05269091576337814 0.010789118707180023 -0.0378684476017952 -0.07916168868541718 -0.0064630284905433655 -0.027610357850790024 0.00145673006772995 -0.023879848420619965 0.0006978288292884827 -0.052212294191122055 0.05016026645898819 0.08553389459848404 -0.06429681181907654 -0.01956705003976822 0.06764215975999832 0.0787363275885582 0.007186524569988251 0.0019454136490821838 -0.026054613292217255 0.013560473918914795 -0.0005228817462921143 -0.03497518226504326 -0.04749539867043495 -0.006850294768810272 0.04905202239751816 -0.030410796403884888 -0.05534211918711662 0.013948172330856323 0.05857355147600174 -0.026786766946315765
0.05316806584596634 0.0515192374587059 -0.07829824090003967 0.030139446258544922 0.03306000679731369 0.052697159349918365 -0.07862714678049088 0.015507005155086517 0.07776337116956711 0.06856586784124374 0.016198068857192993 0.00473591685295105 -0.0578642413020134 -0.05728255957365036 0.03956686705350876 -0.01162160187959671 0.042769573628902435 -0.018594376742839813 0.009287692606449127 0.05371304601430893 -0.004342518746852875 -0.056389302015304565 0.08027469366788864 -0.028709042817354202 -0.08126454800367355 0.07984112948179245 0.054592691361904144 -0.029357142746448517 -0.08483357727527618 0.017132073640823364 0.0193021297454834 0.02222330868244171 0.03935091942548752 -0.07587991654872894 -0.030675847083330154 0.0016344934701919556 0.0708833858370781 0.07038640230894089 -0.037041567265987396 -0.036899417638778687 0.034842461347579956 -0.03753361105918884 0.05012165755033493 -0.08335093408823013 -0.025818191468715668 0.03063676506280899 -0.025926075875759125 -0.07751978188753128 -0.04724715277552605 0.07235952466726303 -0.08534359186887741 0.012652240693569183 -0.0665210485458374 -0.010921396315097809 -0.08537166565656662 -0.08275535702705383 -0.0030592158436775208 0.05183423310518265 0.06713435798883438 0.08447930961847305 -0.02584856003522873 -0.04666033387184143 -0.07341668009757996 0.06015991419553757 -0.08735132217407227 -0.041776787489652634 0.04768901318311691 0.06613487750291824 0.04359202831983566 -0.03792492300271988 0.013619735836982727 0.07988961786031723 0.0683053657412529 -0.04056622460484505 0.058413781225681305 -0.009612202644348145 -0.034785110503435135 0.04414210468530655 0.014607548713684082 0.03645528107881546 -0.05210721120238304 -0.05341558903455734 -0.062310755252838135 0.05894065648317337 -0.05913451313972473 -0.06733398139476776 0.0717930868268013 -0.0744650587439537 -0.06733257323503494 0.03832722455263138 -0.05140542611479759 0.07307227700948715 -0.04390173777937889 -0.008412197232246399 -0.08191514015197754 0.052206896245479584 0.004400007426738739 -0.00655684620141983 -0.08071234822273254 0.052016980946063995 -0.08293278515338898 0.06448846310377121 0.01365574449300766 0.030385419726371765 -0.06709832698106766 -0.030206117779016495 0.015659868717193604 0.08542831987142563 0.0017585381865501404 -0.088022880256176 0.018631912767887115 0.0413992777466774 -0.04518113657832146 -0.015667617321014404 0.012979984283447266 0.004096589982509613 0.038110069930553436 -0.05040591210126877 0.011485740542411804 0.06245789676904678 -0.03225849196314812 -0.008254088461399078 -0.08354800939559937 -0.037978630512952805 -0.008352555334568024 -0.044341687113046646 0.020118221640586853 -0.014847829937934875
0.023228362202644348 0.056200794875621796 0.055856116116046906 0.02547350525856018 0.0012352168560028076 -0.004984326660633087 0.07035594433546066 0.01867307722568512 0.0018248632550239563 -0.02037990838289261 0.04309502989053726 0.054229117929935455 -0.02029382437467575 -0.011987350881099701 -2.2351741790771484e-05 0.05499861389398575 -0.015899404883384705 0.07722168415784836 -0.07368138432502747 0.033836282789707184 0.015254400670528412 0.022030413150787354 -0.06348853558301926 -0.06137806549668312 -0.04531463608145714 0.03769334405660629 0.02766861766576767 0.030479535460472107 0.08635326474905014 0.0031602010130882263 -0.032365743070840836 0.003207266330718994 -0.04460574686527252 -0.06522779166698456 0.04168928414583206 -0.05603935569524765 0.02261197566986084 -0.050769418478012085 -0.0380181223154068 -0.01945526897907257 0.016639187932014465 -0.012884899973869324 -0.04743679240345955 -0.007181473076343536 -0.027919862419366837 -0.018541894853115082 -0.016943737864494324 -0.06655262410640717 -0.02967819944024086 -0.014251016080379486 -0.0495108924806118 0.06845147162675858 -0.015122339129447937 0.05379488319158554 -0.021627098321914673 -0.03512977808713913 -0.056159745901823044 0.041409336030483246 -0.002432107925415039 -0.05815069004893303 -0.0860309973359108 -0.03322317823767662 0.029351413249969482 -0.08147601783275604 -0.04422386735677719 0.07967675477266312 0.06268420070409775 -0.03246835991740227 -0.07961449772119522 -0.06610864400863647 -0.0019289851188659668 -0.03543417155742645 0.028769224882125854 0.00018365681171417236 0.034457944333553314 -0.05592861399054527 0.02393452823162079 0.03230918198823929 -0.009301222860813141 -0.07004072517156601 0.03676875680685043 -0.046139683574438095 0.05664157122373581 0.04197815805673599 -0.062352363020181656 -0.04986417666077614 0.030068427324295044 0.0007510781288146973 0.047448523342609406 0.0063560158014297485 0.031675465404987335 0.022618696093559265 -0.04157175496220589 -0.05961772799491882 -0.03993392735719681 -0.032885026186704636 -0.07469209283590317 0.04459556192159653 0.055454932153224945 -0.08345930278301239 0.027267247438430786 0.0726509764790535 -0.04029844328761101 -0.022336445748806 -0.07952940464019775 0.07293040305376053 0.04373622685670853 0.004025496542453766 0.0006579309701919556 0.029743127524852753 0.031443215906620026 0.036118268966674805 0.04311423748731613 0.008410930633544922 -0.04912026599049568 -0.03874892741441727 -0.0793394073843956 -0.035696420818567276 0.008812502026557922 0.05995023995637894 0.05509539693593979 0.042001061141490936 0.06749162822961807 0.00981210172176361 0.03340974450111389 0.08278683573007584 -0.059390757232904434 0.014424249529838562
-0.020800575613975525 0.08393009752035141 -0.03974384441971779 0.015325076878070831 0.05925331264734268 0.07278615981340408 -0.06511132419109344 -0.004739969968795776 0.0697903111577034 -0.08503802120685577 -0.04825002700090408 -0.04798496514558792 -0.02418244630098343 -0.07322180271148682 0.07944778352975845 0.021965600550174713 -0.06410330533981323 0.0046441927552223206 -0.02253446727991104 0.08197442442178726 0.08472812920808792 0.06067430227994919 -0.006154440343379974 0.04657866805791855 0.08646487444639206 -0.051511120051145554 -0.01066674292087555 -0.06222967058420181 0.05090043693780899 0.05930308252573013 -0.024956971406936646 -0.07853477448225021 0.05003262311220169 0.02960982173681259 -0.05448433756828308 0.008649565279483795 -0.03694843500852585 0.035915784537792206 0.05425523966550827 0.005444079637527466 0.026098385453224182 -0.01785987615585327 0.007502421736717224 0.08308904618024826 -0.0495636910200119 -0.029138687998056412 0.03194837272167206 -0.06986618787050247 0.05996038764715195 -0.04737461730837822 0.07898106426000595 0.04609689861536026 -0.08253847062587738 -0.04673618823289871 0.017978191375732422 0.02646516263484955 -0.06335093826055527 -0.044759247452020645 0.06785128265619278 -0.029099583625793457 -0.03292939439415932 0.036357901990413666 -0.009464412927627563 -0.04946087300777435 0.05015198141336441 -0.08428788185119629 -0.0721249207854271 -0.05111819505691528 0.02429042011499405 0.05620685964822769 0.03709723800420761 -0.020055674016475677 -0.05853668227791786 0.04522455483675003 -0.03333044424653053 0.008387990295886993 0.011959955096244812 -0.07834938913583755 -0.0364975668489933 0.06319568306207657 0.030307836830615997 0.052419014275074005 -0.07032787799835205 0.0388466939330101 0.06708880513906479 -0.07339324802160263 -0.0846065953373909 0.06964664906263351 0.053111545741558075 0.02798006683588028 -0.004181787371635437 0.07744864374399185 -0.04757891222834587 0.013144485652446747 -0.05386639013886452 0.07871992141008377 0.0541207417845726 0.07195346802473068 -0.057465195655822754 0.0017424970865249634 -0.07282668352127075 -0.08622563630342484 -0.06276650726795197 0.030166655778884888 -0.022859565913677216 0.0012974813580513 -0.053553175181150436 0.029562391340732574 0.03891868144273758 0.02222171425819397 0.054902635514736176 -0.07829752564430237 0.02035607397556305 0.034059397876262665 0.06776701658964157 -0.07309428602457047 -0.0722271203994751 -0.0787246972322464 -0.03101402148604393 0.06183002144098282 0.03755239397287369 -0.013689085841178894 -0.012872576713562012 0.0022205784916877747 0.024595141410827637 -0.011306166648864746 -0.01897631585597992 0.08717725425958633
-0.00984065979719162 0.0007311031222343445 -0.07734423875808716 -0.08205395936965942 -0.011335454881191254 -0.045286599546670914 0.042079441249370575 0.07580701261758804 0.001764826476573944 -0.014250293374061584 0.002284221351146698 0.008281931281089783 0.05381528288125992 0.06828662008047104 0.016907304525375366 -0.06379187852144241 0.02896050363779068 0.039273716509342194 -0.06193190813064575 -0.08683673292398453 0.05850829929113388 -0.0348735973238945 0.025297045707702637 -0.03180833160877228 -0.08462167531251907 0.012767069041728973 -0.08270937204360962 0.022957876324653625 -0.047071874141693115 -0.07300003618001938 0.07588864117860794 0.0001712217926979065 -0.028116077184677124 0.07066980749368668 0.08611234277486801 -0.03644666448235512 0.011397764086723328 0.03671238571405411 -0.06131037697196007 0.04987721890211105 0.062048591673374176 -0.0015536248683929443 -0.03351833298802376 -0.012681335210800171 -0.029636293649673462 0.07489440590143204 0.04829872399568558 0.07605033367872238 -0.019982971251010895 0.06315762549638748 -0.04750723019242287 -0.06704474240541458 0.008850328624248505 0.06391402333974838 -0.07526861131191254 0.06285832077264786 0.06961468607187271 -0.04296918585896492 0.02109716087579727 -0.010223031044006348 -0.053817637264728546 0.03877044469118118 -0.08117219805717468 0.012416385114192963 -0.007759563624858856 0.007594071328639984 -0.041476111859083176 0.07021089643239975 -0.05032791942358017 0.004185423254966736 0.07507684081792831 -0.018785744905471802 0.017027802765369415 -0.023463085293769836 -0.017147570848464966 0.03318334370851517 -0.08047707378864288 -0.012529827654361725 -0.08150404691696167 0.057483650743961334 0.07765717059373856 -0.06353873014450073 0.06518452614545822 -0.04407641291618347 -0.04065597802400589 0.017593495547771454 0.04560595005750656 -0.027842577546834946 -0.01785428076982498 -0.03372481092810631 -0.0763794481754303 0.020607851445674896 -0.07309997081756592 0.08371459692716599 -0.05346308648586273 0.05268897861242294 0.04979292303323746 0.011782206594944 -0.03701742738485336 -0.003915756940841675 0.04585539549589157 -0.06455989927053452 0.052936308085918427 0.0058611854910850525 -0.06868236511945724 0.016693323850631714 0.04314602166414261 0.008668012917041779 -0.01905151456594467 -0.061702266335487366 -0.05334000661969185 -0.011689089238643646 -0.05625809729099274 -0.044809263199567795 -0.00600607693195343 0.08010923117399216 -0.0023308172821998596 -0.010621480643749237 0.0868629738688469 -0.013540707528591156 0.08047885447740555 -0.03011632338166237 -0.07814320921897888 0.06166233867406845 0.0804700031876564 -0.014727123081684113 -0.04038132727146149 0.07756029814481735
