0.10959658026695251 0.007099255919456482 0.11440278589725494 -0.09069997072219849 -0.1184878945350647 0.010737091302871704 0.01851820945739746 0.022439703345298767 -0.04776594042778015 -0.08719387650489807 -0.1173693984746933 0.02645955979824066 0.017847135663032532 -0.025967136025428772 0.0654999315738678 0.005434513092041016 -0.08533975481987 -0.08366547524929047 0.11612972617149353 0.044470444321632385 -0.022240236401557922 0.023148566484451294 0.08935511112213135 0.034379586577415466 0.11663912236690521 -0.05351904034614563 0.10367250442504883 0.0452021062374115 -0.07512293756008148 0.04286336898803711 -0.03842540085315704 0.022298529744148254 -0.01019221544265747 0.04468381404876709 -0.08363081514835358 -0.11343182623386383 0.06633773446083069 -0.03590303659439087 -0.08004969358444214 -0.07893544435501099 -0.016585439443588257 -0.08549095690250397 0.09658481180667877 -0.012920409440994263 0.09230715036392212 0.09129589796066284 0.014612898230552673 0.05850040912628174 -0.0685659646987915 0.11576145887374878 -0.09534631669521332 0.07586817443370819 0.10056398808956146 -0.045262232422828674 0.04029738903045654 -0.12023130059242249 -0.10918141901493073 0.10125504434108734 -0.050381094217300415 0.10955764353275299 -0.033551186323165894 0.09646874666213989 -0.0615849494934082 0.11086872220039368
0.11216211318969727 -0.08078940212726593 -0.04552820324897766 -0.10637852549552917 0.0939064472913742 0.1069943904876709 0.02733534574508667 -0.019236162304878235 0.12321139872074127 0.09591019153594971 0.051355838775634766 0.11415936052799225 0.08510647714138031 0.10005636513233185 0.08736629784107208 0.10940201580524445 0.08176293969154358 -0.0056020766496658325 -0.03440923988819122 0.11879153549671173 0.10783997178077698 0.0548623651266098 -0.025517255067825317 0.01325051486492157 -0.09724132716655731 0.023971885442733765 0.12308776378631592 -0.10521461069583893 0.06188400089740753 0.0735991895198822 0.000295981764793396 0.07168726623058319 -0.06997276842594147 -0.010011866688728333 -0.062323376536369324 0.07384124398231506 0.07911248505115509 -0.09117762744426727 -0.019710853695869446 0.09272149205207825 -0.006857052445411682 -0.08238247036933899 0.033806607127189636 -0.08786869049072266 -0.11705741286277771 -0.01153285801410675 0.002168715000152588 -0.02110503613948822 0.08529527485370636 0.022648140788078308 0.02070830762386322 0.1083829402923584 -0.1079147607088089 0.11475899815559387 0.04357239603996277 -0.04832856357097626 0.11601585149765015 0.11140090227127075 0.07072865962982178 -0.028056591749191284 -0.058574289083480835 0.0251663476228714 0.06186550855636597 0.03345881402492523
0.03591832518577576 -0.07310701906681061 -0.010269388556480408 -0.0965825617313385 -0.06396964192390442 0.03502380847930908 0.004778847098350525 0.11738507449626923 -0.11244204640388489 0.016485005617141724 -0.1108258068561554 0.11733479797840118 0.06145797669887543 -0.02420128881931305 0.11260206997394562 -0.088833749294281 -0.03221255540847778 -0.07143256068229675 -0.05642716586589813 -0.04182066023349762 -0.06354513764381409 0.08884701132774353 0.10187108814716339 -0.017222046852111816 0.11883403360843658 0.03172822296619415 0.04110920429229736 0.032614171504974365 -0.08988048136234283 -0.10165618360042572 -0.04780840873718262 -0.013669595122337341 0.004253819584846497 0.11761659383773804 -0.03413918614387512 -0.06682254374027252 -0.06744085252285004 -0.09642665088176727 0.00281466543674469 -0.06121997535228729 0.036289602518081665 0.10465109348297119 0.04174591600894928 0.03640866279602051 0.07668028771877289 -0.019821643829345703 0.06382852792739868 0.11349304020404816 0.0698201060295105 0.11323964595794678 -0.08644650876522064 -0.06999149918556213 0.04516281187534332 0.10546040534973145 -0.1007501631975174 -0.11122936010360718 -0.10067813098430634 0.044989243149757385 0.07019662857055664 -0.07703109085559845 0.015250176191329956 -0.0012796968221664429 0.013860329985618591 -0.014192253351211548
-0.12097753584384918 -0.05135883390903473 0.061689361929893494 0.0167120099067688 -0.05205017328262329 0.09972365200519562 -0.048028767108917236 -0.04067637026309967 -0.07555940747261047 0.08763940632343292 -0.09426626563072205 -0.03654275834560394 0.11178386211395264 0.1087675392627716 -0.07754522562026978 -0.06290824711322784 -0.03357867896556854 0.0713450163602829 0.07768136262893677 -0.11686590313911438 -0.10538436472415924 0.020674094557762146 -0.04283183813095093 0.10489866137504578 -0.11154003441333771 -0.027983754873275757 -0.019805461168289185 -0.030918970704078674 0.053269729018211365 -0.10269033908843994 0.0273989737033844 0.08531136810779572 -0.03867630660533905 0.026370659470558167 -0.10215874016284943 0.06015045940876007 -0.1199626624584198 0.07641467452049255 -0.0708826333284378 0.10835030674934387 -0.04263302683830261 -0.12284469604492188 0.01696762442588806 -0.08513423800468445 0.05188925564289093 0.06954304873943329 0.05158282816410065 0.09711885452270508 -0.04699400067329407 -0.05624793469905853 0.07912057638168335 -0.0895421952009201 0.0014791935682296753 -0.11564430594444275 -0.05348984897136688 -0.06955747306346893 0.11403694748878479 0.0620105117559433 -0.05779670178890228 0.043238937854766846 0.09862379729747772 -0.0872027724981308 0.0741836279630661 -0.028151586651802063
0.10184177756309509 -0.12379388511180878 0.04063194990158081 -0.07373571395874023 0.0943065732717514 0.1110289990901947 -0.1055222749710083 0.10101240873336792 0.10841232538223267 0.029939427971839905 0.0674654096364975 0.026271700859069824 -0.11215963959693909 -0.08320143818855286 0.07693852484226227 0.027813732624053955 -0.04728592932224274 -0.0448070764541626 -0.10376103222370148 0.05076727271080017 0.057098329067230225 -1.8030405044555664e-06 -0.014044299721717834 -0.010644659399986267 -0.05711217224597931 0.07185898721218109 -0.1228940486907959 -0.10590620338916779 0.013702481985092163 -0.02367289364337921 0.08656661212444305 0.07634170353412628 -0.04874256253242493 -0.06818580627441406 -0.11215125024318695 0.006681516766548157 0.11227649450302124 -0.03609149158000946 0.014405697584152222 0.006756484508514404 0.10740689933300018 0.07424581050872803 0.08896918594837189 0.08229687809944153 -0.05902305245399475 -0.0856027901172638 0.007909238338470459 -0.06283694505691528 -0.08218847215175629 0.08773742616176605 0.10122759640216827 0.08969807624816895 0.08895811438560486 -0.0498223751783371 -0.03661413490772247 -0.07982300221920013 0.10954515635967255 0.06901727616786957 0.019777417182922363 0.055196717381477356 0.10732020437717438 0.06689175963401794 0.005671501159667969 -0.02950426936149597
-0.07352495193481445 0.11949756741523743 0.0034730136394500732 -0.07349886000156403 -0.024384766817092896 -0.022360682487487793 0.08802695572376251 0.057556867599487305 -0.09268654882907867 0.12323446571826935 -0.03715609014034271 -0.011761695146560669 0.0517268031835556 -0.06455130875110626 -0.0357547402381897 0.03999106585979462 0.06216318905353546 -0.10588639974594116 0.01828312873840332 0.09295283257961273 -0.07840283215045929 0.061552733182907104 0.0758088231086731 0.0503157377243042 0.006568476557731628 0.09978936612606049 0.0007004737854003906 0.06877905130386353 -0.0682997852563858 -0.11103519797325134 0.08079575002193451 -0.12486474215984344 -0.0959189236164093 -0.007005348801612854 -0.11726053059101105 0.06753113865852356 -0.020610585808753967 0.09272421896457672 0.02051222324371338 -0.042199552059173584 -0.03870530426502228 -0.07266417145729065 0.09412936866283417 0.03466981649398804 -0.024181976914405823 -0.10150875151157379 0.0814339816570282 -0.06823398172855377 -0.11993655562400818 -0.12162426114082336 -0.01114131510257721 -0.08872251212596893 -0.04368685185909271 0.08678218722343445 0.0429845005273819 0.015548557043075562 0.022078365087509155 0.10593357682228088 0.0734153538942337 -0.04435168206691742 -0.019355803728103638 0.027792975306510925 -0.10543420910835266 -0.05692222714424133
0.09052655100822449 0.04504184424877167 0.019279062747955322 -0.03498144447803497 -0.07398033142089844 0.02624918520450592 -0.07093413174152374 0.023538753390312195 -0.018376529216766357 0.006612688302993774 -0.014232590794563293 -0.12418574094772339 0.10560837388038635 0.00261552631855011 0.030233532190322876 -0.1204741895198822 -0.07513880729675293 0.05790475010871887 -0.0845862478017807 -0.10274684429168701 0.05732503533363342 -0.05391308665275574 -0.06578941643238068 0.009526580572128296 -0.059444501996040344 -0.013888657093048096 -0.08849591016769409 0.0958499014377594 0.10949692130088806 0.07698409259319305 0.02242860198020935 -0.07836611568927765 -0.0903543084859848 0.10304766893386841 -0.054787129163742065 -0.12452669441699982 -0.059640854597091675 -0.0834430605173111 -0.05616094172000885 -0.022207021713256836 0.06644058227539062 0.10192812979221344 0.10370336472988129 0.09322769939899445 -0.12073174118995667 0.01052740216255188 0.003946393728256226 0.013536632061004639 0.09212148189544678 -0.11815336346626282 -0.08208876848220825 0.1171451210975647 0.014014869928359985 -0.11003875732421875 -0.06052994728088379 0.09803743660449982 -0.08910523355007172 0.002721264958381653 0.07451829314231873 -0.0776258260011673 0.09957325458526611 0.029819846153259277 -0.060228124260902405 0.10540333390235901
0.035709962248802185 -0.05616001784801483 -0.013582736253738403 0.11652675271034241 0.008695065975189209 0.03418800234794617 0.08166384696960449 -0.042521506547927856 0.008287385106086731 0.0366479754447937 0.10403738915920258 -0.00813642144203186 0.07397972047328949 -0.007602274417877197 0.043124258518218994 -0.049725502729415894 0.1236879974603653 0.04686141014099121 0.009314849972724915 0.08425162732601166 -0.06918302178382874 0.06431977450847626 0.11349770426750183 -0.00194588303565979 0.011341124773025513 -0.06286773085594177 -0.0618274062871933 -0.0116138756275177 0.09307770431041718 -0.12241169810295105 -0.11287160217761993 -0.07436050474643707 -0.08637291193008423 -0.0691191703081131 0.016323193907737732 -0.00760398805141449 -0.05471241474151611 -0.0161924809217453 0.04399719834327698 -0.05765606462955475 -0.11363129317760468 0.0803631991147995 -0.06711828708648682 0.04452955722808838 0.0926705151796341 -0.028317004442214966 0.09435541927814484 0.10542137920856476 0.0665673315525055 -0.057488709688186646 -0.022239044308662415 -0.06820090115070343 0.004994779825210571 0.0947512537240982 0.029369324445724487 -0.08112476766109467 0.04071508347988129 -0.0028523653745651245 -0.07666586339473724 -0.05763755738735199 0.07929028570652008 0.10254000127315521 0.07888515293598175 0.011222273111343384
0.10476848483085632 -0.08405639231204987 0.07722713053226471 0.027061358094215393 0.021233320236206055 0.05517406761646271 -0.04537856578826904 0.01046079397201538 -0.0520806759595871 -0.09253746271133423 0.11583615839481354 -0.03244107961654663 -0.019434243440628052 -0.12229311466217041 0.10022830963134766 0.0900324285030365 0.11589953303337097 0.11783000826835632 -0.029558777809143066 0.03937925398349762 0.03635403513908386 0.06624001264572144 0.03350438177585602 0.07452739775180817 0.07853175699710846 -0.005318000912666321 -0.015458464622497559 -0.11650581657886505 0.049623966217041016 -0.07140068709850311 -0.001222655177116394 0.021136805415153503 -0.00908052921295166 0.08449237048625946 -0.08379240334033966 -0.09583663940429688 0.10608243942260742 0.04745522141456604 -0.03643122315406799 0.07824479043483734 0.08560463786125183 -0.02705860137939453 -0.03446964919567108 -0.02055741846561432 -0.020401939749717712 -0.10939860343933105 -0.11994059383869171 0.12203888595104218 0.04529975354671478 0.031444355845451355 -0.018142446875572205 0.035553380846977234 -0.014875173568725586 0.021165117621421814 -0.05788852274417877 0.028864651918411255 -0.003965318202972412 -0.07092845439910889 0.08126825094223022 -0.07434357702732086 -0.05192001163959503 0.10598123073577881 -0.04323264956474304 0.06922440230846405
0.036293789744377136 0.0377899706363678 0.04622727632522583 -0.08217266201972961 0.018361181020736694 0.12189304828643799 0.1093587726354599 -0.01416391134262085 -0.12035547196865082 -0.022948578000068665 0.05185236036777496 -0.07544450461864471 0.10450778901576996 -0.08056943118572235 0.03549313545227051 0.07786436378955841 0.11528635025024414 -0.0030472129583358765 0.06764383614063263 0.041473716497421265 -0.06582088768482208 -0.10761220753192902 0.003916442394256592 0.023625880479812622 -0.04850757122039795 -0.02345031499862671 0.0743466466665268 0.0232684463262558 0.05641484260559082 -0.00799819827079773 0.07310998439788818 0.019727259874343872 0.04760652780532837 0.04844726622104645 -0.04381975531578064 0.014461740851402283 0.07132101058959961 0.03993119299411774 -0.114752396941185 0.00224478542804718 -0.06046590209007263 -0.05956660211086273 -0.011896103620529175 0.11557845771312714 0.11828485131263733 -0.11629064381122589 0.08293315768241882 0.09181980788707733 0.005653351545333862 -0.028229549527168274 0.037367820739746094 -0.09903769195079803 -0.0036159902811050415 0.11214369535446167 -0.0702374130487442 0.016192808747291565 -0.11783196032047272 0.035940468311309814 -0.010232806205749512 -0.1247306615114212 -0.10934318602085114 -0.08063623309135437 0.039734482765197754 0.0913916826248169
0.04645100235939026 -0.10155664384365082 -0.10043610632419586 -0.07241898775100708 0.08708779513835907 0.11462260782718658 -0.08850020170211792 -0.0012339800596237183 0.057804301381111145 0.06941917538642883 -0.06906494498252869 0.09906856715679169 -0.028970852494239807 0.10026298463344574 0.021597906947135925 0.03038908541202545 -0.103754922747612 -0.07248280942440033 0.012556180357933044 0.08226034045219421 -0.047489166259765625 0.07435040175914764 0.020191997289657593 0.013703152537345886 -0.11167271435260773 0.002883508801460266 0.020557880401611328 0.013425976037979126 0.015408426523208618 -0.117171511054039 -0.11531044542789459 0.017104491591453552 -0.0096406489610672 -0.09737397730350494 -0.06348684430122375 -0.11379662156105042 -0.10666559636592865 -0.053738221526145935 -0.09326428174972534 0.10600697994232178 0.03343307971954346 -0.007023811340332031 -0.06902201473712921 0.019495263695716858 0.11957675218582153 0.10278639197349548 0.1189839094877243 -0.09152683615684509 0.08705325424671173 0.08877116441726685 0.015737995505332947 -0.0302933007478714 0.026523947715759277 0.027270033955574036 0.10920536518096924 0.037977561354637146 -0.08271455764770508 -0.09652373194694519 0.005060166120529175 -0.08783864974975586 -0.0356362909078598 -0.002354949712753296 0.027372121810913086 0.11570857465267181
0.034350231289863586 -0.08262336254119873 0.0538853257894516 -0.0009524375200271606 -0.02449868619441986 0.08065731823444366 -0.1220158040523529 -0.10743790864944458 0.05184344947338104 0.03594997525215149 0.014759913086891174 0.053136929869651794 0.04394182562828064 0.027152568101882935 -0.03826349973678589 -0.034098923206329346 -0.07900400459766388 -0.01584303379058838 0.06048043072223663 -0.09862446784973145 -0.009098932147026062 0.06513966619968414 0.09950350224971771 -0.06366907060146332 -0.013661295175552368 -0.12158459424972534 0.036759957671165466 0.026867732405662537 0.05309396982192993 -0.03269575536251068 0.04870845377445221 0.03004363179206848 -0.005380973219871521 -0.04465079307556152 0.01999986171722412 -0.11777599155902863 0.05848832428455353 -0.07456259429454803 0.09360019862651825 -0.022004753351211548 0.08493439853191376 0.0915970504283905 -0.032108962535858154 -0.12217983603477478 -0.07653211057186127 0.07498179376125336 0.06718333065509796 -0.041757240891456604 0.1168942004442215 0.10233348608016968 0.11602312326431274 -0.01335790753364563 0.024701684713363647 -0.026837021112442017 0.11269910633563995 -0.10007801651954651 -0.0498923659324646 -0.11356669664382935 -0.03664688766002655 -0.07950671017169952 0.03306429088115692 0.009538441896438599 -0.0669780820608139 0.11278076469898224
-0.04360350966453552 -0.05166609585285187 -0.010475009679794312 0.11107631027698517 -0.11543422937393188 -0.08464628458023071 0.0754355788230896 0.06510277092456818 -0.005750253796577454 0.08016246557235718 -0.06835058331489563 0.014544636011123657 0.08845169842243195 -0.090694859623909 0.11792983114719391 0.05102074146270752 0.05891066789627075 -0.07963210344314575 -0.05975274741649628 -0.04920201003551483 -0.005359470844268799 -0.07777461409568787 0.00962778925895691 0.07651528716087341 0.019766420125961304 -0.062379926443099976 -0.004681244492530823 -0.10514479875564575 -0.05919979512691498 0.043754950165748596 0.115030437707901 -0.12145021557807922 0.001689314842224121 0.10776306688785553 0.08535471558570862 -0.06834094226360321 -0.09245017170906067 -0.0998900830745697 0.08634769916534424 -0.026258066296577454 -0.04539152979850769 -0.08582773804664612 -0.11658863723278046 -0.029692307114601135 0.04408252239227295 -0.06104913353919983 0.08608797192573547 0.03544996678829193 -0.09765550494194031 -0.0467265248298645 -0.1028347909450531 -0.08034670352935791 -0.0638812929391861 -0.10689738392829895 -0.01841220259666443 0.06806391477584839 -0.08726230263710022 -0.07880507409572601 0.08355985581874847 -0.09542801976203918 -0.07983621954917908 -0.03163883090019226 0.010722562670707703 -0.05911631882190704
0.05965918302536011 0.11322730779647827 -0.10459642112255096 -0.0010000169277191162 -0.11229516565799713 -0.03211472928524017 0.11871148645877838 0.10747992992401123 -0.051430463790893555 0.05769297480583191 0.12418372929096222 0.10212904214859009 -0.06194832921028137 0.05381232500076294 -0.1070038229227066 -0.10407394170761108 0.021881505846977234 -0.07769566774368286 -0.04043060541152954 -0.024064436554908752 -0.06378604471683502 0.11078213155269623 0.10790212452411652 0.05152665078639984 -0.017552345991134644 -0.10280780494213104 0.010713860392570496 0.10543239116668701 0.0011777877807617188 0.030182182788848877 0.11960792541503906 0.03995548188686371 -0.0973227322101593 -0.015157312154769897 -0.05173817276954651 -0.07532207667827606 -0.09814494848251343 -0.014235392212867737 -0.032766133546829224 0.10737413167953491 0.008462399244308472 -0.0729532241821289 -0.013308286666870117 -0.11227874457836151 0.1073417216539383 0.07284179329872131 -0.06388813257217407 0.013002067804336548 0.12230120599269867 -0.08230425417423248 0.01943083107471466 0.004926785826683044 -0.09665468335151672 0.03087407350540161 0.024269208312034607 -0.0523308664560318 0.12076348066329956 0.029970496892929077 0.06100726127624512 -0.09139582514762878 -0.07102210819721222 0.021125972270965576 -0.11180587112903595 0.015030622482299805
-0.08381225168704987 0.08598345518112183 -0.11877132952213287 -0.03851354122161865 0.048971906304359436 -0.02734731137752533 -0.09629613161087036 0.09790857136249542 0.012268230319023132 0.044364914298057556 0.007406711578369141 -0.0449836403131485 0.02611243724822998 0.07792975008487701 0.009487807750701904 0.06254392862319946 0.05963093042373657 -0.1160787045955658 -0.028945326805114746 0.06038565933704376 -0.11653459072113037 -0.060288116335868835 0.0008028298616409302 0.08553837239742279 0.010000541806221008 -0.04728966951370239 -0.07454071938991547 0.06837369501590729 -0.06677305698394775 -0.08248753845691681 0.0978771448135376 0.03518281877040863 0.043629273772239685 -0.03790786862373352 0.08871303498744965 0.09672683477401733 -0.04524099826812744 0.034584760665893555 -0.0803118497133255 0.12288671731948853 -0.04419770836830139 0.08563852310180664 0.03749372065067291 -0.09550808370113373 -0.07642966508865356 -0.05443976819515228 0.09909211099147797 -0.1090497076511383 0.11502479016780853 -0.06019990146160126 0.01696828007698059 0.11326883733272552 -0.11669157445430756 0.028729692101478577 0.020218685269355774 0.06005072593688965 0.10767152905464172 -0.06868299841880798 0.10228163003921509 0.09028607606887817 0.04795776307582855 0.07002811133861542 -0.06053197383880615 0.00562150776386261
-0.057551756501197815 0.1093108057975769 -0.008762836456298828 -0.008194535970687866 -0.11490990221500397 0.048751384019851685 -0.004328042268753052 -0.06324118375778198 -0.08563576638698578 -0.11151625216007233 -0.06514368951320648 0.11141018569469452 -0.0461031049489975 0.0816299170255661 2.421438694000244e-05 0.0007839202880859375 -0.045926034450531006 0.02033241093158722 0.06650190055370331 0.09161658585071564 -0.011137306690216064 -0.0675736665725708 0.06846754252910614 0.0020398199558258057 -0.12079603970050812 0.09851139783859253 -0.031831786036491394 0.02702520787715912 -0.09967184066772461 -0.03942699730396271 0.03111957013607025 0.12226535379886627 -0.020184561610221863 0.08737516403198242 -0.047484979033470154 -0.03893096745014191 -0.06372518837451935 0.10467159748077393 -0.09033341705799103 0.059540629386901855 -0.018396899104118347 0.08815900981426239 -0.055645182728767395 -0.033876895904541016 -0.11217032372951508 0.06793494522571564 -0.05762031674385071 0.053359657526016235 0.09350432455539703 0.012471869587898254 -0.10034893453121185 0.0396403968334198 -0.10745643079280853 0.029157400131225586 -0.10671621561050415 -0.06753775477409363 0.02869361639022827 -0.011376172304153442 -0.05360035598278046 -0.04147697985172272 -0.07832655310630798 0.030640482902526855 -0.013828620314598083 -0.01551327109336853
-0.047295838594436646 0.008758142590522766 -0.06408193707466125 -0.010151758790016174 -0.04871390759944916 -0.051034778356552124 -0.040863558650016785 -0.04625906050205231 -0.09444732964038849 0.07609228789806366 -0.051227688789367676 -0.019967898726463318 0.1182074248790741 0.0509125292301178 -0.043152064085006714 -0.10049563646316528 0.07325664162635803 -0.06995067000389099 -0.02886618673801422 -0.014323234558105469 -0.02736140787601471 -0.042348429560661316 0.09846553206443787 0.10851290822029114 -0.10488298535346985 -0.0793570727109909 0.09334686398506165 -0.015626564621925354 0.08422587811946869 0.0870344340801239 0.01985791325569153 0.04905262589454651 -0.10661531984806061 -0.06060047447681427 0.02793729305267334 0.11764372885227203 0.025313585996627808 -0.06258596479892731 0.040654733777046204 0.0344046950340271 0.010913282632827759 -0.06542153656482697 -0.08703935146331787 0.0386536568403244 0.022099539637565613 0.02685527503490448 -0.06779800355434418 0.06438006460666656 0.018398791551589966 0.10297882556915283 0.042943716049194336 0.020926058292388916 -0.06518356502056122 -0.09761840105056763 -0.0712675154209137 0.015619218349456787 0.016268089413642883 -0.09718169271945953 0.09647271037101746 -0.08329008519649506 -0.02258940041065216 -0.1173480898141861 -0.04569390416145325 0.05759739875793457
0.03810153901576996 -0.05281652510166168 0.04907996952533722 0.042431920766830444 -0.04370918869972229 0.09477587044239044 -0.09029154479503632 -0.020344242453575134 -0.009698793292045593 0.08959302306175232 0.02561749517917633 0.06453832983970642 0.0899457186460495 -0.01392732560634613 -0.013182178139686584 -0.004498690366744995 -0.01698392629623413 -0.07167889177799225 -0.013850107789039612 -0.037612155079841614 -0.03057040274143219 -0.05572687089443207 0.08616922795772552 0.08351568877696991 0.013362273573875427 0.12487596273422241 -0.06133870780467987 -0.008401885628700256 0.11901338398456573 0.11668163537979126 0.03460878133773804 -0.08318209648132324 0.11685803532600403 -0.08857510983943939 0.02799414098262787 0.016970708966255188 0.044196486473083496 0.10658015310764313 -0.1083630621433258 -0.04494704306125641 -0.07329559326171875 -0.0655183494091034 -0.0074720680713653564 -0.010293200612068176 0.11984217166900635 -0.040827199816703796 0.04687173664569855 0.10976564884185791 0.08973775804042816 0.05251459777355194 -0.0537632554769516 -0.06196330487728119 -0.08084604144096375 0.06477509438991547 0.04909026622772217 0.07156786322593689 0.06464990973472595 -0.01696324348449707 0.008892655372619629 -0.11039246618747711 0.11197064816951752 0.07684174180030823 0.002169370651245117 0.05535043776035309
-0.03320123255252838 0.07921761274337769 -0.12458540499210358 0.03236602246761322 0.015242412686347961 0.054435789585113525 0.09487415850162506 0.051541492342948914 -0.06381791830062866 -0.11767765879631042 -0.037094175815582275 -0.10417163372039795 0.09280185401439667 0.11244304478168488 0.02584424614906311 0.009518623352050781 -0.037400439381599426 -0.03511659801006317 0.07779243588447571 0.11686375737190247 0.10410995781421661 -0.11758413910865784 -0.03694169223308563 -0.06552791595458984 0.061036527156829834 0.08664540946483612 0.026611968874931335 0.00734575092792511 0.09614546597003937 0.05444382131099701 0.008502811193466187 -0.03822389245033264 -0.004338964819908142 0.020084261894226074 0.048353925347328186 -0.029462799429893494 0.09655360877513885 -0.11309586465358734 -0.11907845735549927 -0.035114794969558716 0.014555543661117554 0.023676663637161255 -0.057838693261146545 0.043996989727020264 -0.11370421946048737 -0.02922910451889038 -0.04190225899219513 0.08173556625843048 0.08329537510871887 0.016563206911087036 -0.08979280292987823 0.07619564235210419 -0.0932818353176117 0.02075117826461792 0.12024390697479248 -0.011154532432556152 -0.07867604494094849 -0.07833977043628693 -0.09246346354484558 -0.03032439947128296 -0.08686013519763947 0.010997116565704346 0.04021495580673218 0.1038006991147995
-0.08543212711811066 0.11682537198066711 0.039845988154411316 0.11715860664844513 -0.12016499042510986 -0.07660423219203949 -0.08646765351295471 0.10155260562896729 0.12277106940746307 0.06456710398197174 -0.07305480539798737 0.12392482161521912 -0.11668574810028076 0.11708836257457733 -0.0450814813375473 0.08088283240795135 -0.09752307832241058 -0.0915302038192749 0.07121185958385468 0.08876645565032959 -0.09051886200904846 0.09395864605903625 -0.004755839705467224 -0.023983240127563477 -0.0762728750705719 -0.004074573516845703 0.018402323126792908 -0.012215077877044678 0.11875879764556885 0.08092783391475677 -0.0934886783361435 0.03665420413017273 -0.03409469127655029 0.02636300027370453 -0.08896549046039581 0.09724952280521393 -0.009892910718917847 -0.08024902641773224 0.04440316557884216 0.028107672929763794 0.042213037610054016 -0.05854138731956482 0.04360063374042511 -0.04229496419429779 -0.033847883343696594 -0.03888481855392456 0.11760786175727844 -0.10093548893928528 0.11591464281082153 0.09619985520839691 -0.10553625226020813 0.04955306649208069 0.0706343799829483 -8.58604907989502e-05 -0.06471695005893707 0.10587663948535919 0.07108166813850403 -0.043676719069480896 -0.009915277361869812 -0.014209136366844177 -0.12035715579986572 -0.015809819102287292 -0.051844894886016846 -0.05173967778682709
-0.028109923005104065 -0.04589317739009857 0.03503766655921936 0.0846833884716034 0.04053570330142975 -0.1177377998828888 0.05794478952884674 0.005027249455451965 0.11179088056087494 0.1073593944311142 -0.018001630902290344 -0.038440197706222534 0.08338499069213867 -0.07475598156452179 -0.08297763764858246 -0.020802214741706848 0.05006702244281769 -0.09926116466522217 0.1118905246257782 0.05545487999916077 -0.08082491159439087 -0.07513926923274994 -0.09264957904815674 0.09223289787769318 -0.007030680775642395 0.015039011836051941 0.10265396535396576 -0.11154831945896149 -0.02514973282814026 -0.08698016405105591 0.12345880270004272 -0.012120828032493591 0.005004391074180603 0.07762151956558228 -0.04233500361442566 0.0002442598342895508 0.10785619914531708 -0.06638780236244202 -0.11205220222473145 0.0030090510845184326 -0.04804962873458862 0.04257620871067047 0.08621729910373688 -0.11612969636917114 -0.03891521692276001 -0.09516820311546326 0.1084185242652893 0.05214652419090271 -0.09787662327289581 -0.03974349796772003 0.08023391664028168 -0.0544123649597168 -0.01597486436367035 -0.08832266926765442 -0.011630222201347351 -0.04970832169055939 0.07117782533168793 -0.02156689763069153 0.10639417171478271 -0.048202142119407654 0.05588315427303314 -0.08847515285015106 -0.10117697715759277 -0.03875158727169037
0.018175065517425537 -0.1053561419248581 -0.00012458860874176025 -0.028329208493232727 -0.04847504198551178 0.04610133171081543 -0.000963255763053894 0.08811390399932861 0.09804141521453857 0.033879950642585754 0.033589646220207214 0.09364816546440125 0.07692797482013702 -0.07635149359703064 -0.06351909041404724 0.030696913599967957 -0.03317730128765106 -0.04977735877037048 0.04659464955329895 -0.023175686597824097 0.02586221694946289 0.009608596563339233 0.06338545680046082 -0.06906783580780029 0.06148022413253784 -0.056654393672943115 -0.08038945496082306 -0.025644049048423767 -0.06252577900886536 -0.008225977420806885 0.06415361166000366 -0.10820569097995758 0.09993234276771545 0.07102428376674652 -0.03921087086200714 -0.08057340979576111 -0.07267101109027863 0.07784247398376465 -0.11151856184005737 0.0673643946647644 -0.0356525182723999 -0.10744212567806244 0.05640995502471924 0.03881147503852844 -0.03862637281417847 -0.08663128316402435 -0.030498310923576355 0.055058062076568604 0.11790721118450165 0.064634770154953 -0.05326676368713379 -0.08554410934448242 -0.07816311717033386 0.10728198289871216 -0.12106214463710785 -0.011201262474060059 0.11039933562278748 -0.03037235140800476 -0.0019019097089767456 -0.09005865454673767 0.032370924949645996 0.05101566016674042 0.08887924253940582 0.06261491775512695
-0.009493991732597351 -0.11236272752285004 -0.08667662739753723 -0.06535053253173828 -0.05832985043525696 -0.02367420494556427 0.029415324330329895 -0.012752681970596313 -0.004333138465881348 -0.0901012271642685 -0.0527743399143219 0.05350865423679352 -0.1248200386762619 0.08151127398014069 0.0861496776342392 0.11978945136070251 -0.002610117197036743 -0.021193236112594604 -0.07116508483886719 0.01304444670677185 -0.10693006217479706 0.010336488485336304 0.012648254632949829 0.06270384788513184 0.0003468841314315796 -0.12496338784694672 0.05210445821285248 0.02889026701450348 0.07205533981323242 0.12146364152431488 0.11143925786018372 -0.0902697890996933 0.05529804527759552 0.0833553671836853 -0.08850562572479248 0.023186206817626953 -0.11034214496612549 -0.10567134618759155 0.007373899221420288 -0.047416746616363525 0.06252211332321167 -0.07594330608844757 0.09054389595985413 0.08538627624511719 -0.05325734615325928 -0.019274398684501648 -0.07351988554000854 -0.06430548429489136 0.03273652493953705 -0.00945715606212616 0.09698992967605591 -0.12293826043605804 0.08126398921012878 0.07149738073348999 -0.044829100370407104 0.12055003643035889 0.035340577363967896 0.09304648637771606 0.07619626820087433 0.11203695833683014 0.012167945504188538 0.10108081996440887 0.11318188905715942 -0.013593733310699463
0.10222698748111725 -0.07954050600528717 -0.03462544083595276 0.10759657621383667 0.005713343620300293 -0.1203051209449768 -0.060993969440460205 0.11042699217796326 0.05151583254337311 0.10340508818626404 -0.10598564147949219 -0.019643709063529968 0.11805684864521027 -0.11054107546806335 0.04885600507259369 0.07474663853645325 -0.06710602343082428 -0.01070353388786316 0.0530928373336792 0.012298375368118286 -0.11337219178676605 -0.0695117712020874 -0.06949040293693542 0.02639882266521454 0.08217933773994446 0.05487145483493805 -0.07180134952068329 -0.038244545459747314 0.062290772795677185 0.05021601915359497 -0.06457856297492981 -0.03539285063743591 -0.024725139141082764 -0.10622456669807434 0.11214488744735718 0.07608664035797119 0.09464889764785767 0.07846949994564056 -0.03801587224006653 0.007857084274291992 0.06672987341880798 0.01695924997329712 0.08764490485191345 -0.11854539811611176 -0.07521454989910126 0.07334449887275696 -0.05027998983860016 0.10662084817886353 -0.12018749117851257 0.11823740601539612 0.0587313175201416 0.12232005596160889 0.04324543476104736 0.03468546271324158 -0.03355221450328827 -0.0067062824964523315 0.09885083138942719 0.06766283512115479 0.0522339791059494 0.10447061061859131 -0.06538070738315582 -0.04551316797733307 -0.028529077768325806 0.09640982747077942
-0.09174643456935883 -0.001049324870109558 -0.04554140567779541 0.07677246630191803 0.11971715092658997 -0.06660051643848419 0.009761318564414978 -0.03546231985092163 0.09061528742313385 0.03479696810245514 -0.011880353093147278 -0.07190416753292084 -0.11310666799545288 0.06060469150543213 -0.08941686153411865 0.046064481139183044 0.04093077778816223 -0.0625370591878891 0.0777842104434967 0.06213565170764923 -0.06495517492294312 0.08535633981227875 -0.04752986133098602 -0.08927211165428162 -0.06130771338939667 0.023971840739250183 0.022197946906089783 0.07245694100856781 0.023682981729507446 0.08280682563781738 0.05605810880661011 0.015253946185112 0.03414247930049896 -0.06672151386737823 -0.025166422128677368 0.11864015460014343 0.015210986137390137 -0.08230671286582947 -0.024524986743927002 -0.08106812834739685 0.031939998269081116 -0.013919711112976074 0.0894927978515625 -0.0462263822555542 0.061394721269607544 -0.11991873383522034 -0.10316422581672668 0.06114618480205536 -0.08266152441501617 0.01576732099056244 0.08364799618721008 -0.03889605402946472 -0.040215328335762024 -0.06635716557502747 -0.0843513160943985 0.11166934669017792 0.004162833094596863 0.0359547883272171 0.020687997341156006 0.013333410024642944 -0.008966952562332153 -0.02499336004257202 -0.0680399090051651 -0.09799815714359283
0.023555725812911987 0.06864936649799347 -0.07077296078205109 0.10190989077091217 -0.10677680373191833 0.11599835753440857 0.03931435942649841 0.11934667825698853 -0.06324364244937897 -0.015392810106277466 0.00512385368347168 0.027841240167617798 0.06731268763542175 -0.03518514335155487 0.05628232657909393 -0.08897602558135986 -0.08735546469688416 -0.06783260405063629 0.005024388432502747 0.10647787153720856 0.0740247517824173 0.02593161165714264 -0.11254771053791046 -0.04460051655769348 -0.06651081144809723 0.07233956456184387 -0.09448800981044769 -0.07436354458332062 -0.0984562337398529 -0.08921794593334198 -0.07647161185741425 0.046929389238357544 -0.08893309533596039 0.012354597449302673 -0.11408102512359619 -0.0015520453453063965 -0.08094534277915955 -0.0776599794626236 0.03450514376163483 -0.03778462111949921 -0.11288391053676605 -0.027498647570610046 -0.11308139562606812 0.1135813444852829 -0.08268481492996216 -0.00437222421169281 -0.05310992896556854 -0.08499012887477875 0.09524713456630707 0.11623793840408325 -0.11547353863716125 0.033585548400878906 0.08977678418159485 -0.06843593716621399 0.07082103192806244 0.04654289782047272 -0.03672131896018982 -0.014316082000732422 -0.10530130565166473 -0.0455765426158905 -0.07954370975494385 0.06263625621795654 0.07491399347782135 0.04104858636856079
0.07715536653995514 0.05870124697685242 -0.09016767144203186 -0.05488884449005127 -0.024042785167694092 0.03875991702079773 0.0819898247718811 0.07874970138072968 -0.060257941484451294 -0.020216718316078186 -0.0061870962381362915 -0.06002819538116455 -0.05735774338245392 -0.05432073771953583 0.08468416333198547 -0.11941994726657867 -0.0770784318447113 -0.06277023255825043 0.030204862356185913 0.06328645348548889 0.09142987430095673 -0.04982483386993408 0.110694020986557 0.03183409571647644 0.11820386350154877 -0.04987221956253052 -0.028191417455673218 -0.07385532557964325 -0.12472200393676758 0.01544259488582611 -0.12462244927883148 0.01405385136604309 0.06774631142616272 -0.0021731406450271606 0.04598715901374817 -0.09754310548305511 0.09102223813533783 0.0008255988359451294 0.08918724954128265 0.08217664062976837 -0.06503041088581085 0.11878444254398346 0.02937018871307373 -0.10671812295913696 0.006374940276145935 -0.05123491585254669 0.08446592092514038 -0.04262135922908783 -0.11391590535640717 -0.030049577355384827 -0.06832347810268402 0.08281345665454865 -0.11197377741336823 0.05393974483013153 -0.014756783843040466 0.004716008901596069 0.07163971662521362 0.016121014952659607 0.0030264556407928467 0.05589984357357025 0.025400429964065552 -0.0008644163608551025 -0.05846647918224335 -0.023074805736541748
0.10917536914348602 0.12198653817176819 -0.001624569296836853 0.02490311861038208 0.027039900422096252 0.03241784870624542 -0.01342993974685669 0.048333317041397095 0.08797796070575714 -0.040381863713264465 0.06845037639141083 -0.042148128151893616 -0.0044298917055130005 0.04636479914188385 0.07047554850578308 -0.10580356419086456 0.10388563573360443 -0.0748157948255539 -0.07826846837997437 0.0017357319593429565 -0.02904742956161499 0.06927083432674408 0.035283058881759644 -0.08657151460647583 -0.12188981473445892 0.07198679447174072 0.024215489625930786 -0.0496925413608551 0.11509259045124054 0.006285920739173889 -0.1115163117647171 0.08497148752212524 -0.06165271997451782 -0.11977727711200714 0.0830601155757904 0.012924298644065857 0.10250239074230194 -0.06746290624141693 -0.11410734057426453 0.07527048885822296 -0.029936417937278748 -0.09092532098293304 0.07238166034221649 0.06663952767848969 0.08141350746154785 0.05358448624610901 -0.10806186497211456 -0.07326997816562653 0.08648724853992462 0.09092189371585846 0.022459417581558228 -0.06885270774364471 0.11099062860012054 -0.10440552234649658 -0.09702101349830627 0.08611524105072021 -0.10272374749183655 -0.11759765446186066 0.010313957929611206 0.02325955033302307 0.11445838212966919 -0.052217036485672 0.10802696645259857 -0.10114525258541107
-0.11040975153446198 -0.01681886613368988 -0.1045113354921341 -0.10071024298667908 -0.05931416153907776 -0.10630878806114197 0.025334715843200684 -0.07510747015476227 -0.05807490646839142 0.025557830929756165 0.06841185688972473 0.0867546945810318 0.1056278645992279 0.05753687024116516 -0.0298946350812912 0.0625399649143219 -0.03153766691684723 0.08409465849399567 0.00563502311706543 0.008223682641983032 -0.05496123433113098 0.1037319004535675 0.09985937178134918 -0.0786767303943634 -0.03040251135826111 -0.04368199408054352 0.08637242019176483 -0.09036807715892792 -0.09311923384666443 0.09507481753826141 0.08249980211257935 0.09692263603210449 -0.035849571228027344 0.07390646636486053 -0.0498068630695343 -0.025125622749328613 0.04821021854877472 0.0014367848634719849 0.06324779987335205 -0.011270999908447266 0.11190536618232727 -0.010437533259391785 -0.002710893750190735 -0.05921822786331177 -0.01026277244091034 0.050141558051109314 0.09541638195514679 0.10049697756767273 -0.03793486952781677 -0.010138928890228271 0.10263971984386444 0.044138386845588684 -0.07134558260440826 -0.02386900782585144 0.02856045961380005 -0.11342200636863708 -0.05426543951034546 0.12295709550380707 -0.08705082535743713 -0.03912721574306488 -0.01121780276298523 -0.11006268858909607 0.0015497803688049316 0.0821826159954071
-0.11496831476688385 -0.04092542827129364 -0.10543066263198853 0.1109175980091095 -0.10794824361801147 0.11562402546405792 -0.02105766534805298 0.11677731573581696 0.08343803882598877 -0.09582898020744324 0.07489925622940063 0.05496940016746521 -0.008359253406524658 0.04299604892730713 0.11159992218017578 0.09665514528751373 0.05802297592163086 0.039019808173179626 0.0849858820438385 0.02525375783443451 -0.06226092576980591 0.06421427428722382 -0.030663326382637024 -0.013015419244766235 -0.027288362383842468 -0.046774283051490784 0.05412107706069946 0.1092090755701065 0.02270209789276123 -0.05361098051071167 -0.019040465354919434 -0.03919956088066101 -0.005608305335044861 0.040005505084991455 -0.1097804456949234 0.112211674451828 -0.10785119235515594 0.061420738697052 0.12024672329425812 -0.0732353925704956 0.02223809063434601 0.10647688806056976 -0.014927983283996582 -0.012115135788917542 0.017124086618423462 0.012172162532806396 0.027960047125816345 0.032885149121284485 0.09376329183578491 -0.04621179401874542 0.02238139510154724 -0.09185667335987091 -0.061454638838768005 3.4421682357788086e-05 -0.10655246675014496 0.09462590515613556 0.028045043349266052 0.11723561584949493 0.03489023447036743 -0.06889349222183228 -0.121119424700737 0.01118624210357666 0.055730849504470825 0.08947327733039856
0.08154676854610443 -0.08093459904193878 -0.008914604783058167 -0.09074638783931732 -0.05358457565307617 0.01958508789539337 -0.10221019387245178 0.11162117123603821 -0.05175939202308655 -0.09065434336662292 0.07432770729064941 0.1217162162065506 0.0998191386461258 -0.11851850152015686 0.015462636947631836 -0.12354908883571625 0.0768423080444336 -0.08693572878837585 -0.11322088539600372 -0.025200217962265015 0.1025858074426651 0.07109421491622925 0.08216896653175354 0.11818410456180573 0.04983392357826233 0.10907138884067535 -0.034247905015945435 0.04610323905944824 -0.10993637144565582 0.040720149874687195 0.04069206118583679 0.055581629276275635 0.007668241858482361 0.0810093879699707 -0.08562426269054413 -0.08227309584617615 0.04201418161392212 0.11345373094081879 -0.07675901055335999 0.09257307648658752 0.0010076463222503662 -0.041013896465301514 0.12146085500717163 -0.1049448549747467 -0.05419762432575226 0.05530032515525818 0.03158998489379883 -0.08171603083610535 0.002607867121696472 -0.00023569166660308838 0.11413328349590302 0.08789773285388947 0.03838533163070679 0.11484923958778381 -0.06423243880271912 0.04119428992271423 -0.09493930637836456 -0.11609780788421631 -0.059435367584228516 0.022880420088768005 -0.07250528037548065 -0.06507933139801025 -0.10588069260120392 -0.11608824133872986
0.03255148231983185 0.0939226746559143 0.06937354803085327 0.09078395366668701 -0.05570720136165619 -0.011455878615379333 0.09107436239719391 -0.054254963994026184 0.03189307451248169 0.015495404601097107 -0.01590166985988617 0.08669160306453705 0.02660118043422699 -0.12322475016117096 -0.06905341148376465 -0.03302678465843201 0.09742875397205353 0.08217006921768188 0.03940534591674805 -0.1166592389345169 -0.05994834005832672 -0.03830845654010773 0.12335184216499329 -0.11417856812477112 0.05728878080844879 0.010891199111938477 0.07019594311714172 0.10210192203521729 0.011834338307380676 0.04729489982128143 -0.11909028887748718 -0.09227129817008972 -0.04763410985469818 -0.10150547325611115 0.12099368870258331 0.027864307165145874 0.0926460474729538 -0.1216547042131424 -0.07783766090869904 0.08835631608963013 -0.04579402506351471 -0.04414530098438263 0.11446020007133484 0.015765875577926636 -0.11217118799686432 0.07947541773319244 0.05368390679359436 -0.0009554922580718994 0.07924896478652954 -0.08815516531467438 0.015907764434814453 0.047520920634269714 0.03115817904472351 -0.08841937780380249 0.06546421349048615 -0.1083458662033081 0.09976762533187866 0.12278945744037628 -0.004495605826377869 -0.004024595022201538 -0.12346099317073822 -0.07620853185653687 -0.021743744611740112 0.03151783347129822
-0.011657565832138062 0.09061121940612793 0.0011380165815353394 0.08818274736404419 0.00016108155250549316 -0.09864236414432526 0.04250100255012512 0.03863164782524109 -0.10219508409500122 -0.04308277368545532 -0.021726608276367188 0.08044891059398651 -0.12018090486526489 -0.02678258717060089 -0.026658877730369568 0.07668344676494598 0.08782769739627838 0.08462931215763092 -0.07664608955383301 -0.06747676432132721 -0.05066308379173279 0.12342065572738647 -0.04094414412975311 0.08774867653846741 -0.12286852300167084 0.08202481269836426 0.11030326783657074 -0.08644326031208038 -0.09122742712497711 -0.10223342478275299 -0.06901541352272034 0.0851825624704361 -0.08757233619689941 -0.057767242193222046 -0.014639928936958313 0.058819979429244995 -0.02714790403842926 0.12323816120624542 -0.03210577368736267 0.008552879095077515 -0.0016641765832901 0.09329013526439667 -0.06280998885631561 0.1062149703502655 0.017405644059181213 -0.0853278636932373 -0.0813508927822113 -0.04212653636932373 -0.09947504103183746 -0.05490213632583618 0.07124996185302734 0.10972534120082855 0.044271379709243774 0.09657348692417145 0.008484110236167908 0.028565004467964172 -0.11483980715274811 0.08593292534351349 -0.06270118057727814 0.08937284350395203 -0.051479682326316833 0.03288163244724274 0.03137807548046112 -0.10410331189632416
0.001379251480102539 0.022498443722724915 0.021484047174453735 -0.12484712898731232 -0.057125627994537354 0.03397455811500549 -0.08956579864025116 0.05390414595603943 -0.06448318064212799 0.10331779718399048 0.06329919397830963 -0.0189608633518219 0.03194916248321533 -0.03355857729911804 0.09304061532020569 0.013980895280838013 -0.011737614870071411 -0.015292927622795105 -0.1202019453048706 0.02877207100391388 0.06887869536876678 0.010193899273872375 0.01950010657310486 -0.021084070205688477 0.11653903126716614 0.07218846678733826 -0.03276969492435455 -0.08230295777320862 -0.07015436887741089 -0.09099963307380676 0.025965377688407898 0.10905776917934418 0.12159048020839691 0.002120301127433777 -0.026888638734817505 -0.05474694073200226 -0.06427322328090668 0.0081758052110672 0.08030851185321808 -0.010963916778564453 -0.01306760311126709 0.005195200443267822 0.0695163905620575 -0.05665278434753418 -0.05873323976993561 0.055092841386795044 0.09755025804042816 -0.022290140390396118 0.0804174393415451 0.01925218105316162 0.03480423986911774 0.03776437044143677 0.05847862362861633 0.10135446488857269 0.030854180455207825 -0.05236741900444031 -0.1242121011018753 -0.10406166315078735 -0.034635916352272034 0.10743376612663269 0.10527627170085907 -0.0378207266330719 -0.05903010070323944 0.07959061861038208
0.12235112488269806 0.07033482193946838 0.0437631756067276 -0.003116890788078308 -0.02416318655014038 0.07136224210262299 0.07020819187164307 0.02993975579738617 -0.11770747601985931 0.007385358214378357 0.05765581130981445 0.11685055494308472 -0.0867820680141449 -0.03203994035720825 0.10421961545944214 0.07931207120418549 -0.06468099355697632 0.08980977535247803 -0.030001163482666016 -0.0751471221446991 0.10698166489601135 -0.04938545823097229 -0.04921422898769379 0.09647417068481445 -0.0291241854429245 0.05924274027347565 -0.12247951328754425 0.06771019101142883 -0.04938383400440216 0.005967557430267334 0.08526940643787384 -0.08281069993972778 -0.10444106161594391 0.04918372631072998 -0.07062307000160217 0.07719601690769196 -0.04470014572143555 0.08860577642917633 0.09242914617061615 -0.06145322322845459 0.05921429395675659 0.027498900890350342 -0.06450062990188599 -0.03497739136219025 -0.12114247679710388 0.09493891894817352 0.12373070418834686 -0.01089082658290863 0.07012826204299927 -0.01908232271671295 -0.00017526745796203613 -0.09958450496196747 -0.014362573623657227 -0.03999553620815277 0.027516037225723267 -0.05379992723464966 -0.11230102181434631 0.06170468032360077 -0.045253291726112366 0.003641843795776367 0.11008767783641815 0.011386245489120483 -0.012651458382606506 -0.026181846857070923
0.026637867093086243 -0.017492786049842834 0.012441053986549377 0.10186019539833069 -0.07055839896202087 -0.056850701570510864 -0.00542469322681427 0.09320436418056488 -0.031072095036506653 0.11599595844745636 -0.10651247203350067 -0.06205672025680542 0.10312031209468842 0.08584484457969666 0.05020071566104889 0.05357646942138672 0.04249167442321777 0.07862983644008636 0.042730435729026794 0.11181195080280304 0.1169186532497406 -0.047016456723213196 0.09026236832141876 0.06416672468185425 0.029713109135627747 -0.0687941163778305 -0.08423179388046265 -0.11226469278335571 -0.11384446918964386 0.012875467538833618 -0.10522507131099701 0.038748592138290405 0.08790221810340881 -0.052763864398002625 0.12170737981796265 -0.0912499874830246 -0.02559317648410797 0.10377584397792816 -0.02939094603061676 0.01710750162601471 -0.09869754314422607 -0.06631091237068176 -0.02912849187850952 -0.027515634894371033 -0.08164241909980774 -0.04868946969509125 -0.03553296625614166 0.026544004678726196 -0.09287723898887634 -0.06265412271022797 -0.04632280766963959 0.0751139372587204 -0.050666987895965576 0.0824279934167862 -0.0861019641160965 0.003928646445274353 -0.03000509738922119 0.08061110973358154 0.08059161901473999 -0.05018003284931183 -0.12433101236820221 0.08667799830436707 0.07956880331039429 0.06764490902423859
-0.02149219810962677 -0.05283065140247345 -0.016672328114509583 -0.0056536197662353516 0.05520963668823242 0.11720342934131622 0.020427554845809937 -0.06383930146694183 -0.11792534589767456 0.03219503164291382 0.04424217343330383 -0.0250767320394516 0.04049980640411377 0.04344815015792847 -0.11897449195384979 -0.09105084836483002 0.0363357812166214 -0.029867693781852722 0.006050616502761841 -0.016438737511634827 0.035914450883865356 0.04023289680480957 -0.11917795240879059 0.06173618137836456 -0.05781927704811096 0.0339447557926178 -0.11493974924087524 0.03133973479270935 -0.00743141770362854 0.12043331563472748 0.09628298878669739 0.01693783700466156 -0.03741995990276337 -0.025338873267173767 0.11268025636672974 0.03215417265892029 0.027534320950508118 0.0046288371086120605 0.059506505727767944 -0.05050872266292572 -0.10060255229473114 0.007255122065544128 -0.027254417538642883 -0.031017854809761047 -0.007397711277008057 0.1214151531457901 0.05642062425613403 0.07691124081611633 -0.09257224202156067 -0.11213444173336029 0.057827696204185486 0.10812853276729584 0.019873544573783875 -0.07977600395679474 -0.12369370460510254 -0.03864377737045288 -0.02191711962223053 -0.11637108027935028 0.03876708447933197 0.091844841837883 0.09551501274108887 0.010910212993621826 -0.054035067558288574 -0.0016797930002212524
0.01494474709033966 0.08213208615779877 -0.04977110028266907 -0.0028963088989257812 0.04864014685153961 0.12195268273353577 -0.014934346079826355 0.005963414907455444 -0.08879777789115906 -0.06390099227428436 0.08060064911842346 -0.12491989135742188 0.09421022236347198 -0.04057516157627106 -0.07850368320941925 0.06747151911258698 -0.01704081892967224 0.06721624732017517 -0.12375105917453766 -0.06990616023540497 -0.015445500612258911 -0.10152460634708405 0.05594897270202637 -0.10281538963317871 -0.057421475648880005 0.07176132500171661 0.07093358039855957 -0.013662740588188171 -0.06562656164169312 0.03265915811061859 -0.10377329587936401 -0.007926568388938904 -0.006924554705619812 0.08392201364040375 0.03969410061836243 0.0977933257818222 0.1196150928735733 0.05401298403739929 0.07656143605709076 0.03668242692947388 -0.11595995724201202 -0.12465479969978333 0.021360203623771667 0.11762265861034393 0.0015749931335449219 -0.016196146607398987 0.02268192172050476 -0.11647501587867737 0.029753997921943665 -0.1168946921825409 0.09223213791847229 0.09256955981254578 -0.07357244193553925 -0.05741788446903229 0.08496557176113129 0.03299713134765625 -0.0408392995595932 0.07081343233585358 0.11932575702667236 -0.11218702793121338 0.09063611924648285 0.06159159541130066 -0.01627354323863983 0.07107999920845032
0.06801669299602509 0.05069369077682495 0.11631225049495697 -0.02309456467628479 -0.03851534426212311 -0.010661736130714417 0.09930218756198883 0.045073121786117554 0.012913778424263 -0.11146281659603119 -0.0486598014831543 -0.061900705099105835 -0.09889000654220581 0.08556899428367615 0.021405532956123352 -0.0516485720872879 0.002552434802055359 -0.055118754506111145 -0.010202988982200623 0.0005658864974975586 0.02887798845767975 0.05089820921421051 -0.08885782957077026 0.10455085337162018 -0.03862805664539337 -0.06604515016078949 0.08779452741146088 0.03311975300312042 -0.09505710005760193 -0.08397020399570465 -0.1248762309551239 0.06511759757995605 0.02427731454372406 0.0509134978055954 0.10451756417751312 0.08547398447990417 -0.07393459975719452 0.02737027406692505 -0.01980915665626526 -0.05807666480541229 -0.0970565527677536 0.009961485862731934 0.11126449704170227 0.061376482248306274 -0.05732505023479462 -0.024792149662971497 -0.04537075757980347 0.10539008677005768 0.10884441435337067 0.008437305688858032 -0.118306964635849 0.02011522650718689 0.05252125859260559 -0.03873370587825775 0.016538843512535095 0.0620451420545578 -0.049233436584472656 -0.010555803775787354 0.03355301916599274 0.05873018503189087 -0.10725720226764679 0.10192589461803436 0.07220149040222168 -0.10950426757335663
0.046392932534217834 -0.0708007961511612 -0.020642995834350586 -0.01065303385257721 0.12440253794193268 0.0303383469581604 0.08410662412643433 -0.02873551845550537 -0.12133602797985077 0.0022391527891159058 -0.08386680483818054 0.10345582664012909 -0.04330173134803772 0.031644538044929504 0.032336264848709106 0.10388362407684326 0.09095695614814758 0.06578926742076874 -0.11154831945896149 -0.07662154734134674 0.014608979225158691 0.08844922482967377 0.11635695397853851 -0.10467453300952911 -0.1226787120103836 -0.10614745318889618 -0.05703958868980408 0.08720517158508301 -0.05647309124469757 0.03258509933948517 0.02059285342693329 -0.060983940958976746 -0.12352396547794342 -0.05227716267108917 0.04537741839885712 0.10063070058822632 -0.04186633229255676 0.06729672849178314 -0.071632981300354 -0.036133766174316406 -0.060582712292671204 0.06623595952987671 -0.04520651698112488 -0.09401774406433105 -0.09891846776008606 0.09317280352115631 -0.10298873484134674 -0.06950365006923676 0.017061978578567505 0.1145065426826477 0.006798341870307922 0.12271776795387268 -0.10425716638565063 0.07385742664337158 -0.057314127683639526 0.0008760839700698853 -0.007111057639122009 0.04510028660297394 0.028352797031402588 -0.1060706377029419 -0.018765181303024292 -0.06396745145320892 -0.0873606950044632 -0.05772458016872406
0.006032183766365051 0.0696040689945221 0.07988940179347992 -0.006547451019287109 -0.01066407561302185 -0.013393834233283997 -0.12357066571712494 0.0421922504901886 -0.11642910540103912 0.049743667244911194 -0.0002753734588623047 -0.07811586558818817 -0.029666274785995483 -0.08225354552268982 -0.050488635897636414 -0.006981447339057922 0.01568007469177246 0.09627069532871246 -0.004968196153640747 -0.08567807078361511 0.05215230584144592 0.08640317618846893 0.006902843713760376 0.04645523428916931 0.02076597511768341 -0.08344528079032898 0.011611223220825195 0.11128886044025421 0.07694172859191895 -0.013565197587013245 -0.007575780153274536 -0.00254155695438385 0.040069952607154846 -0.02504788339138031 0.09235315024852753 0.12112262845039368 0.08943353593349457 -0.008586734533309937 -0.08105167746543884 -0.09569685161113739 -0.094012051820755 0.06538558006286621 0.01714816689491272 0.03158584237098694 0.11213749647140503 0.03931151330471039 0.016992464661598206 -0.08003191649913788 -0.10617029666900635 0.07122273743152618 -0.01561005413532257 -0.039057523012161255 -0.043316230177879333 0.03264738619327545 0.01577363908290863 0.0618925541639328 -0.061317890882492065 0.11855733394622803 -0.026674270629882812 -0.0947427749633789 -0.11591203510761261 0.027849718928337097 0.07981565594673157 0.06592273712158203
-0.018313944339752197 -0.10006973147392273 -0.00796644389629364 0.03591455519199371 -0.04247294366359711 -0.05128614604473114 -0.03651091456413269 -0.052850618958473206 -0.12015588581562042 0.1171715259552002 0.005677059292793274 -0.09218741953372955 0.010635524988174438 -0.05393557250499725 0.0005801916122436523 0.10156373679637909 -0.04339654743671417 -0.08451907336711884 -0.05985838174819946 0.11748018860816956 -0.009861886501312256 -0.07509353756904602 0.10323312878608704 -0.019936710596084595 0.04183933138847351 -0.005938932299613953 -0.08439768850803375 -0.013585463166236877 -0.06958869099617004 -0.05226887762546539 0.05767369270324707 -0.06828060746192932 0.079371377825737 0.025150462985038757 -0.062295347452163696 -0.0855066180229187 -0.0914945900440216 0.04325410723686218 0.08947771787643433 -0.0676061362028122 -0.03162670135498047 0.020733028650283813 0.018466874957084656 -0.07965904474258423 -0.08068351447582245 -0.012585490942001343 -0.00032958388328552246 0.11517149209976196 0.06756889820098877 -0.09483994543552399 0.12128303945064545 0.032656535506248474 -0.026669874787330627 -0.07582169771194458 0.02586527168750763 0.05044327676296234 0.03872312605381012 0.11150939762592316 0.09845125675201416 0.10603095591068268 -0.0061528682708740234 0.10389664769172668 0.09817028045654297 0.047531649470329285
0.10385926067829132 0.02539066970348358 0.10594978928565979 -0.11592486500740051 -0.0892123132944107 -0.05238492786884308 0.035049259662628174 0.04939492046833038 -0.010986387729644775 0.11318810284137726 0.015002459287643433 0.11617624759674072 -0.041288822889328 -0.03638856112957001 -0.040618568658828735 0.12492343783378601 -0.0850851982831955 -0.0938892811536789 -0.09578782320022583 -0.1136331856250763 -0.06853993237018585 0.040825217962265015 -0.03928428888320923 0.012929752469062805 -0.0748300552368164 0.09709993004798889 -0.0553993284702301 0.04535648226737976 -0.08302284777164459 -0.0779377669095993 -0.09681303799152374 0.02803124487400055 -0.04961936175823212 0.12154169380664825 -0.06292003393173218 0.11631534993648529 0.1247374415397644 -0.09579522907733917 0.1231125146150589 -0.026492714881896973 -0.018097206950187683 -0.0597846657037735 -0.09276098012924194 0.09588706493377686 0.10626852512359619 -0.08196714520454407 -0.0375097393989563 0.059761837124824524 0.08349668979644775 -0.06770940124988556 0.027250349521636963 -0.035894930362701416 0.06429485976696014 -0.09468936920166016 0.0023144185543060303 0.011472821235656738 -0.02006465196609497 0.02018997073173523 -0.11498422920703888 -0.06240887939929962 -0.06370264291763306 -0.07906702160835266 -0.06647752225399017 0.05828423798084259
-0.07882705330848694 0.018282994627952576 -0.014933869242668152 -0.08278791606426239 -0.027383163571357727 -0.09228156507015228 -0.07854816317558289 0.1232476532459259 0.0026299506425857544 -0.10340361297130585 0.08992205560207367 -0.06438803672790527 0.008233964443206787 6.951391696929932e-05 -0.040369078516960144 0.089114710688591 -0.062271371483802795 0.07636372745037079 -0.025956109166145325 0.08080852031707764 -0.05070798099040985 0.07219025492668152 0.06748156249523163 -0.08886857330799103 -0.11500367522239685 -0.034703224897384644 0.03114090859889984 0.051229193806648254 0.08703967928886414 0.01563657820224762 -0.1101294755935669 0.12378723919391632 -0.05557072162628174 -0.03431433439254761 0.03989475965499878 -0.0248459130525589 0.10158513486385345 -0.06248500943183899 -0.021712347865104675 0.010363712906837463 -0.057936638593673706 -0.08701930940151215 0.06760160624980927 -0.0379757434129715 -0.08599130809307098 -0.05376693606376648 0.06324376165866852 0.1042025089263916 -0.046468839049339294 0.07573474943637848 -0.0943133533000946 -0.08715267479419708 0.059513941407203674 0.059891268610954285 0.06958450376987457 -0.08317439258098602 -0.054027020931243896 0.032843172550201416 0.12271551787853241 0.09649790823459625 -0.0012104064226150513 0.05274792015552521 -0.0008507519960403442 0.046771109104156494
-0.014358863234519958 0.07351718842983246 0.03118443489074707 -0.013364940881729126 0.1039058119058609 -0.11361977458000183 -0.11598630249500275 -0.04678508639335632 0.10894730687141418 -0.04703608155250549 0.05168101191520691 0.03456641733646393 -0.08150403201580048 0.07785844802856445 0.12186595797538757 -0.08049245178699493 0.0844447910785675 0.06913091242313385 -0.08193133771419525 -0.11016599833965302 -0.012296721339225769 0.014898538589477539 -0.0014019757509231567 -0.00811813771724701 0.05991391837596893 0.06545083224773407 0.011656239628791809 0.014203250408172607 -0.023647934198379517 -0.06583297252655029 0.013951882719993591 0.11107407510280609 0.018001839518547058 0.10953834652900696 -0.07510632276535034 -0.04365807771682739 -0.11023031175136566 0.024165987968444824 0.12477302551269531 -0.00868399441242218 0.02110391855239868 0.044435784220695496 0.035529911518096924 0.05421018600463867 0.0026368796825408936 0.08419108390808105 -0.01765868067741394 0.045784518122673035 -0.05585533380508423 -0.0630759745836258 -0.09402181208133698 -0.08709222078323364 -0.004662171006202698 0.10496915876865387 0.023703739047050476 0.012190550565719604 0.12324930727481842 0.08531290292739868 0.09632548689842224 0.08347992599010468 0.11939150094985962 0.1242491602897644 -0.09400840103626251 -0.08698515594005585
0.11508965492248535 -0.0003119856119155884 0.09263136982917786 -0.018566951155662537 0.03878761827945709 -0.0486149787902832 -0.023712024092674255 -0.0692404955625534 0.10590440034866333 -0.09749969840049744 0.10479685664176941 0.06400731205940247 -0.04656127095222473 0.0608317106962204 -0.08083781599998474 -0.022872760891914368 0.057297512888908386 -0.05904144048690796 0.11359558999538422 -0.11630100011825562 0.12405896186828613 0.04691699147224426 0.06946666538715363 -0.07117561995983124 0.046731382608413696 0.0563066303730011 0.03326116502285004 -0.1163027286529541 0.030703946948051453 -0.018692150712013245 -0.07656286656856537 -0.07183440029621124 0.04969833791255951 0.11885614693164825 0.12209923565387726 0.008370742201805115 0.06304892897605896 0.0075410157442092896 0.0138397216796875 0.0272073894739151 -0.06790302693843842 -0.04420715570449829 -0.12025505304336548 0.04298180341720581 -0.07019910216331482 -0.05494034290313721 -0.09866869449615479 0.063555046916008 0.09416608512401581 0.06920598447322845 0.02735912799835205 -0.0679105669260025 -0.10121017694473267 0.029457271099090576 -0.023309290409088135 0.043953001499176025 -0.0502728670835495 0.02600136399269104 0.0390661358833313 -0.11141207814216614 0.09727859497070312 0.09642553329467773 -0.10820846259593964 -0.01037183403968811
-0.1153012365102768 0.013505667448043823 -0.09525103867053986 -0.03061959147453308 0.1062043309211731 0.1091165840625763 0.10214824974536896 0.0027998685836791992 0.03223603963851929 -0.12328439950942993 -0.047358438372612 0.07755126059055328 0.0337502658367157 -0.06418421864509583 -0.030392751097679138 0.04728218913078308 -0.07896360754966736 -0.06833243370056152 -0.07440364360809326 0.10709308087825775 -0.013906136155128479 -0.054306790232658386 -0.0753197968006134 -0.1038149744272232 0.024669304490089417 0.09737297892570496 0.06680803000926971 0.06161463260650635 -0.07244740426540375 -0.07103431224822998 0.014948368072509766 0.06722283363342285 -0.029708683490753174 -0.035610198974609375 0.0914064347743988 0.036693841218948364 -0.12060989439487457 0.06598258018493652 0.07486814260482788 0.07814760506153107 0.08140669763088226 0.049554094672203064 -0.11741103231906891 0.06282700598239899 0.0598689466714859 -0.09560927748680115 -0.1221064031124115 -0.06886866688728333 0.029548928141593933 0.10662408173084259 0.02261623740196228 -0.09178131818771362 0.04957471787929535 -0.0030779242515563965 -0.007208332419395447 0.057317569851875305 -0.09628494083881378 0.11428415775299072 0.048307642340660095 -0.020702287554740906 -0.07731102406978607 0.05628393590450287 0.11658543348312378 -0.026951298117637634
-0.09838783740997314 0.12381874024868011 -0.08519355952739716 0.0029616355895996094 -0.05199615657329559 -0.09241054952144623 -0.036182671785354614 -0.12280388176441193 -0.0352255254983902 -0.013427212834358215 0.029001474380493164 0.044055044651031494 -0.09897840023040771 0.08440324664115906 0.08006386458873749 0.11682361364364624 -0.03502228856086731 -0.09462697803974152 0.10949927568435669 -0.009997040033340454 -0.025166481733322144 0.06720869243144989 -0.05166640877723694 0.00790715217590332 0.11484681069850922 -0.02610059082508087 0.10946935415267944 0.03140971064567566 -0.06730204820632935 -0.019327610731124878 -0.002401411533355713 0.10715934634208679 -0.11140426993370056 0.04213273525238037 -0.006718575954437256 0.11829321086406708 0.03383198380470276 -0.10006867349147797 0.051995664834976196 0.09939892590045929 0.05498060584068298 0.009182333946228027 0.04611600935459137 -0.09751762449741364 -0.10580301284790039 -6.499886512756348e-05 0.07716742157936096 -0.07268966734409332 -0.08003795146942139 -0.042185962200164795 -0.10610683262348175 -0.003773629665374756 0.034779369831085205 -0.04820142686367035 -0.018954485654830933 -0.022048458456993103 0.11476360261440277 0.03351491689682007 -0.07263582944869995 0.12095645070075989 0.08297739923000336 -0.044345468282699585 0.00503811240196228 0.07529079914093018
0.08056990802288055 0.04733137786388397 -0.08633878827095032 -0.07618975639343262 0.03447633981704712 0.00484524667263031 -0.06166259944438934 0.01965220272541046 -0.015399575233459473 -0.1119227409362793 0.004678025841712952 0.023418575525283813 -0.08624579012393951 0.0700177550315857 0.12167766690254211 -0.04050476849079132 0.07875292003154755 -0.09122863411903381 -0.10988357663154602 0.11989371478557587 -0.11669424176216125 -0.1123007982969284 0.00420050323009491 -0.07175463438034058 -0.04667052626609802 0.058706700801849365 0.12144839763641357 -0.03709430992603302 0.05507281422615051 0.11490979790687561 0.06711497902870178 0.12156446278095245 -0.10628314316272736 0.07942146062850952 -0.1177171915769577 -0.050531014800071716 0.0321681946516037 0.08900927007198334 -0.11727839708328247 -0.010661900043487549 -0.006528317928314209 0.036275267601013184 -0.07278271019458771 0.02537427842617035 0.07378879189491272 -0.036996930837631226 0.028146550059318542 0.1092866063117981 -0.02719859778881073 0.11708259582519531 0.03346431255340576 0.01762375235557556 -0.05904775857925415 -0.1030171811580658 0.047328874468803406 0.0742594450712204 0.0619165301322937 -0.05083127319812775 0.1157081127166748 0.09215055406093597 -0.057189375162124634 0.0008193552494049072 0.057087242603302 0.10219651460647583
-0.06117384135723114 -0.11878421902656555 -0.057484760880470276 0.05501772463321686 -0.06494389474391937 -0.013030841946601868 0.07601876556873322 0.01147492229938507 0.029137879610061646 0.08657610416412354 0.0038752108812332153 0.09878508746623993 -0.11182926595211029 0.018532857298851013 0.029705867171287537 0.09787921607494354 -0.03811366856098175 0.11916793882846832 -0.09981288015842438 0.02591407299041748 -0.0036567598581314087 0.03687722980976105 0.07019558548927307 0.07882516086101532 0.10458347201347351 -0.07856765389442444 0.10142846405506134 0.07228566706180573 -0.1232544481754303 -0.044178277254104614 0.08329585194587708 0.0874297022819519 -0.11917847394943237 0.06730394065380096 0.0007897764444351196 -0.0868091881275177 0.04062490165233612 -0.04391753673553467 0.055223703384399414 -0.12275563180446625 0.11899018287658691 0.09551893174648285 -0.1032828837633133 0.03414703905582428 -0.03312472999095917 -0.09816873073577881 0.10662062466144562 0.0696946382522583 -0.12096589803695679 -0.02703617513179779 -0.035389021039009094 0.1049666553735733 -0.003652125597000122 0.0520489364862442 -0.11092431843280792 -0.006548494100570679 -0.08600412309169769 0.09534603357315063 0.022983357310295105 -0.05502451956272125 -0.031710147857666016 -0.08930324018001556 -0.1012706309556961 -0.014914005994796753
-0.02391652762889862 -0.11708448827266693 0.0912570208311081 0.11737789213657379 -0.07154737412929535 -0.009589776396751404 0.07891428470611572 -0.040521517395973206 0.10876509547233582 -0.04404623806476593 0.057407185435295105 0.12090857326984406 0.08172228932380676 -0.08559398353099823 -0.04039698839187622 -0.11938431859016418 0.06194046139717102 -0.010744020342826843 0.11881281435489655 0.11105358600616455 -0.1137392669916153 -0.09210260212421417 0.08534038066864014 0.018450051546096802 0.05664771795272827 0.07486036419868469 -0.07554855942726135 0.0780780017375946 -0.06273023784160614 0.11617636680603027 -0.06968507170677185 0.04306042194366455 -0.08454696834087372 0.06020134687423706 0.103399857878685 -0.09329985082149506 -0.10977032780647278 0.004437074065208435 -0.021080896258354187 -0.08177320659160614 0.040472403168678284 -0.004751160740852356 0.07220952212810516 -0.05809561908245087 0.028782755136489868 0.02188993990421295 -0.05745340883731842 -0.0026991069316864014 -0.00045421719551086426 -0.017127275466918945 0.021483242511749268 0.07100683450698853 0.07614117860794067 -0.06224915385246277 -0.035357505083084106 0.00562712550163269 0.05642788112163544 0.01428385078907013 -0.016071289777755737 -0.11631757020950317 0.015262946486473083 0.019876375794410706 -0.0017614811658859253 0.06650777161121368
-0.08374039828777313 0.1038103997707367 -0.08082835376262665 -0.10628460347652435 -0.06170673668384552 -0.07857434451580048 -0.06234058737754822 0.08118505775928497 0.10810637474060059 0.03193296492099762 0.02838180959224701 0.021105468273162842 0.040243059396743774 0.04129311442375183 0.0011764168739318848 -0.07591558992862701 -0.10121260583400726 0.0076126158237457275 -0.030203521251678467 0.11677759885787964 0.009666696190834045 -0.09122738242149353 -0.09904800355434418 -0.018999025225639343 0.06494313478469849 0.11004629731178284 0.022111356258392334 -0.11716969311237335 -0.024713903665542603 0.020088061690330505 0.0024525076150894165 -0.10934862494468689 0.08568613231182098 -0.014194563031196594 -0.030337154865264893 0.017836764454841614 0.022441908717155457 -0.08512675762176514 0.052427247166633606 -0.02080574631690979 -0.0036185383796691895 -0.09507665038108826 0.01735091209411621 0.029179632663726807 -0.03492081165313721 -0.03203269839286804 -0.07348720729351044 -0.11882124841213226 0.06088055670261383 -0.07719682157039642 -0.03637315332889557 -0.07221442461013794 0.007698461413383484 -0.0017925947904586792 0.05693885684013367 0.022625207901000977 -0.012676134705543518 -0.01613035798072815 0.11444292962551117 0.025700002908706665 -0.05608758330345154 0.002446874976158142 0.050403133034706116 0.0775114893913269
0.04059423506259918 -0.09333911538124084 -0.04239152371883392 -0.08118298649787903 -0.06936991214752197 0.024770960211753845 0.07782724499702454 -0.1073380559682846 -0.035786643624305725 -0.04384848475456238 -0.0658828467130661 0.06964506208896637 -0.09078185260295868 0.04463806748390198 -0.08643105626106262 0.0375082790851593 -0.02351967990398407 0.0845007449388504 0.07401616871356964 -0.06220906972885132 -0.009570389986038208 -0.06980535387992859 -0.08638927340507507 -0.11172299087047577 -0.0442010760307312 -0.06596101820468903 -0.0633322149515152 -0.09433536231517792 -0.0029962658882141113 0.032312408089637756 0.11604857444763184 0.014998719096183777 -0.10492192208766937 0.015170693397521973 0.018396466970443726 0.10367344319820404 -0.04402744770050049 -0.04544888436794281 -0.09611634910106659 -0.01776137948036194 -0.006858646869659424 -0.002987012267112732 -0.008086398243904114 -0.0404883474111557 0.07224904000759125 0.10602045059204102 -0.02218496799468994 0.028860017657279968 -0.07395854592323303 0.0314183235168457 -0.0709591954946518 0.041610583662986755 -0.06111261248588562 -0.09404034912586212 -0.026240825653076172 -0.1110716313123703 -0.11976134777069092 -0.09613293409347534 0.03401744365692139 0.11954887211322784 -0.013961121439933777 0.07148139178752899 -0.06301499903202057 -0.043664634227752686
-0.07454618811607361 -0.1210995614528656 0.027218729257583618 -0.022914469242095947 0.0513005256652832 -0.09531725943088531 -0.04974101483821869 -0.11799173057079315 -0.05240100622177124 0.10218878090381622 0.06253303587436676 0.018895715475082397 0.02075226604938507 0.06993928551673889 0.008063897490501404 -0.03941495716571808 -0.05381673574447632 -0.03357000648975372 0.015567690134048462 0.1099342405796051 0.043871477246284485 -0.09222842752933502 -0.04292304813861847 -0.07078534364700317 0.0038266927003860474 -0.1160058081150055 0.10867518186569214 -0.06324730813503265 0.07610057294368744 0.0936623364686966 -0.04616321623325348 0.07488849759101868 -0.07653069496154785 0.012771204113960266 0.047327131032943726 -0.05803993344306946 0.11481797695159912 0.01810556650161743 0.002303004264831543 -0.03684663772583008 0.007680937647819519 0.02807849645614624 -0.07229973375797272 -0.045629873871803284 -0.07989196479320526 0.05890989303588867 -0.04745222628116608 0.10790906846523285 -0.04584395885467529 -0.009749427437782288 -0.012438789010047913 -0.09211389720439911 -0.050242871046066284 0.10844570398330688 -0.10691232979297638 0.10927800834178925 -0.10053493082523346 -0.05025985836982727 0.10021260380744934 0.120592400431633 -0.007104888558387756 -0.03635948896408081 -0.05173929035663605 -0.12498331069946289
-0.08213044703006744 -0.0007653385400772095 -0.04974445700645447 -0.06308089196681976 0.013828650116920471 -0.05517199635505676 -0.11825624108314514 0.08779138326644897 0.04832015931606293 -0.053896158933639526 -0.10905365645885468 -0.017098814249038696 0.0038903802633285522 -0.08024096488952637 -0.041080161929130554 0.026754379272460938 -0.0944637656211853 -0.0006970763206481934 0.07287196815013885 -0.08020368218421936 0.06938393414020538 -0.10681100189685822 -0.0840325653553009 0.03193172812461853 0.03826209902763367 -0.11083881556987762 -0.032081395387649536 -0.10379649698734283 0.07697151601314545 0.06972676515579224 -0.01598857343196869 0.03351001441478729 -0.11797353625297546 0.06266556680202484 0.07642407715320587 0.017721503973007202 0.07632111012935638 -0.029278039932250977 0.09198552370071411 -0.022387877106666565 0.11937892436981201 0.09813755750656128 0.0906871110200882 0.10367114841938019 0.05590972304344177 -0.07972347736358643 -0.06649617850780487 -0.04187449812889099 0.013540312647819519 -0.04035565257072449 0.11170133948326111 -0.03329223394393921 0.11377666890621185 0.1141909509897232 -0.06908473372459412 -0.11232151091098785 0.015837326645851135 -0.048610955476760864 -0.04681392014026642 -0.08879350125789642 0.05354608595371246 -0.0684143602848053 -0.06829382479190826 0.061213940382003784
0.0395222008228302 -0.10487841069698334 0.09905534982681274 -0.05134756863117218 0.0802798867225647 -0.10779614746570587 -0.08359119296073914 0.11198775470256805 0.06703883409500122 0.05068616569042206 0.02628903090953827 -0.07507312297821045 0.00590185821056366 -0.11700558662414551 -0.015165969729423523 0.07496613264083862 0.09932120144367218 -0.1249871701002121 -0.03621678054332733 0.04358290135860443 -0.0509834885597229 0.07002653181552887 0.024133503437042236 -0.0019174367189407349 0.10230918228626251 -0.0696786493062973 -0.0858202576637268 0.09573115408420563 0.10258141160011292 -0.09129208326339722 -0.11989633738994598 -0.05004243552684784 -0.10284082591533661 -0.06703047454357147 -0.00046543776988983154 0.08429935574531555 -0.0651969313621521 -0.11285524070262909 -0.11053216457366943 0.1056806892156601 -0.006834372878074646 -0.03251515328884125 0.05810756981372833 -0.12033814191818237 0.04278792440891266 -0.07457073032855988 -0.09350019693374634 -0.017413824796676636 0.06250821053981781 0.022424116730690002 -0.0600990355014801 -0.031926557421684265 0.008732780814170837 0.10681769251823425 -0.0728403776884079 0.011724278330802917 -0.10078124701976776 0.08330829441547394 0.009956493973731995 0.12403042614459991 -0.12236963212490082 -0.0675051361322403 -0.0849073976278305 0.0656764954328537
0.1183546781539917 -0.02715173363685608 0.10624100267887115 -0.02743375301361084 0.112473264336586 -0.046697765588760376 -0.09636339545249939 -0.024347037076950073 0.11095312237739563 0.010139226913452148 0.07709532976150513 -0.007022634148597717 -0.013775572180747986 0.10150431096553802 0.050225630402565 0.09774264693260193 -0.08002908527851105 -0.08753713965415955 0.011103197932243347 -0.02791011333465576 -0.00938946008682251 -0.08558379113674164 -0.0063919126987457275 0.10609006881713867 -0.06559571623802185 -0.10184885561466217 -0.01717422902584076 -0.1024872362613678 -0.06264135241508484 -0.021743550896644592 0.11189745366573334 0.05284284055233002 -0.05598314106464386 0.0052459388971328735 0.11459998786449432 -0.07128992676734924 0.11533860862255096 -0.030640199780464172 0.10577858984470367 -0.06768721342086792 -0.051175713539123535 0.09930673241615295 -0.007318675518035889 -0.03223612904548645 -0.11486582458019257 -0.11138412356376648 -0.08326153457164764 -0.057119399309158325 0.0026700347661972046 -0.0006723850965499878 0.02184121310710907 -0.09633131325244904 -0.010363385081291199 -0.12382107973098755 0.0390375554561615 -0.09845387935638428 -0.05439825356006622 -0.0077295005321502686 -0.10379180312156677 -0.06241782009601593 0.03756451606750488 0.0866955816745758 -0.0029851049184799194 0.09995901584625244
0.10878907144069672 -0.07114620506763458 -0.08174444735050201 -0.02675187587738037 -0.07899343967437744 -0.08889840543270111 0.11619608104228973 0.12194296717643738 -0.009468555450439453 0.10717979073524475 -0.04743340611457825 0.07771314680576324 0.01683059334754944 0.08262179791927338 -0.08539123833179474 0.03646138310432434 0.022952839732170105 -0.10948345065116882 0.021580487489700317 0.11902311444282532 -0.07035684585571289 0.07927758991718292 -0.010032907128334045 0.012218683958053589 -0.02112172544002533 0.005342110991477966 0.0646289736032486 0.02186642587184906 0.09489227831363678 -0.06378231942653656 -0.10116077959537506 0.03939776122570038 0.12413173913955688 -0.06268607079982758 0.09578068554401398 -0.0068953633308410645 -0.11306264996528625 -0.05937342345714569 0.09375134110450745 -0.10264572501182556 -0.09560520946979523 0.02384348213672638 0.05920484662055969 0.03044135868549347 0.04415757954120636 0.01579330861568451 -0.03466428816318512 -0.08811448514461517 0.01255844533443451 -0.09864836931228638 0.061288461089134216 -0.03153464198112488 -0.037387266755104065 0.09379234910011292 0.10524199903011322 -0.029695644974708557 0.1059081107378006 -0.06043784320354462 -0.11686880886554718 -0.05452181398868561 0.12101398408412933 -0.11155550181865692 -0.019834056496620178 -0.015315324068069458
0.028036415576934814 0.11601221561431885 -0.0411556214094162 0.015744462609291077 -0.06455428898334503 0.09987863898277283 0.005172953009605408 0.047519415616989136 -0.0082196444272995 0.06909358501434326 -0.013025850057601929 0.012994572520256042 -0.05833187699317932 -0.05962492525577545 0.10957500338554382 -0.0016890019178390503 0.07164853811264038 0.014562532305717468 0.02661532163619995 0.02735285460948944 0.05347667634487152 -0.05544370412826538 -0.04230774939060211 0.02972257137298584 -0.12299591302871704 0.11598953604698181 0.07178555428981781 -0.043393537402153015 0.070268914103508 -0.12019316852092743 -0.07455535233020782 -0.08177691698074341 -0.06178714334964752 0.07540121674537659 -0.07989606261253357 -0.10846099257469177 -0.05136764049530029 0.10133370757102966 0.024611756205558777 0.10182550549507141 -0.10136424005031586 0.06788358092308044 0.025851130485534668 -0.07171258330345154 0.021547406911849976 0.019109666347503662 -0.10326090455055237 -0.11288902163505554 0.1117018610239029 0.034821778535842896 -0.06029759347438812 -0.08746317028999329 0.09739409387111664 0.08079291880130768 -0.09794855117797852 0.05441927909851074 -0.0454462468624115 -0.00937865674495697 0.11784915626049042 -0.12070859968662262 -0.08436781167984009 0.10816353559494019 0.12293556332588196 -0.04073520004749298
0.044135406613349915 -0.08214858174324036 0.06590521335601807 -0.12056402862071991 -0.02863292396068573 -0.0294283926486969 -0.059105753898620605 -0.04471498727798462 0.02996908128261566 -0.03516474366188049 -0.03400096297264099 0.03449387848377228 0.001655861735343933 0.050469353795051575 -0.10594098269939423 -0.09217369556427002 0.01722624897956848 0.09936070442199707 -0.09092959761619568 -0.0833430141210556 -0.08023476600646973 -0.004486218094825745 -0.04924100637435913 0.0182715505361557 0.10256935656070709 -0.038418710231781006 0.10831281542778015 0.07388573884963989 0.0506998747587204 -0.10928629338741302 0.00535246729850769 0.019169077277183533 -0.10275089740753174 0.04705214500427246 -0.012997835874557495 0.08062975108623505 -0.10786549746990204 0.11712543666362762 -0.027697041630744934 -0.03843267261981964 0.05225183069705963 -0.0797376036643982 -0.08223733305931091 -0.10027904808521271 -0.09212853014469147 -0.017130985856056213 0.046633318066596985 -0.05989769101142883 -0.07635815441608429 -0.036020100116729736 -0.038405731320381165 0.027437523007392883 -0.08157047629356384 -0.04291972517967224 0.009336739778518677 -0.06766705214977264 0.10562621057033539 -0.08118027448654175 -0.0401591956615448 0.029134273529052734 -0.016349390149116516 -0.051609694957733154 -0.05400922894477844 -0.012921005487442017
0.09935569763183594 -0.028720781207084656 0.12115690112113953 0.10970592498779297 0.08002109825611115 0.04722805321216583 -0.0775642991065979 -0.016464054584503174 0.05370637774467468 0.028568029403686523 0.11747947335243225 0.011448204517364502 0.005401432514190674 0.12061521410942078 0.07755473256111145 -0.03364922106266022 -0.09249413013458252 -0.03425492346286774 -0.05240035057067871 -0.076067253947258 -0.06072103977203369 0.120809406042099 0.11517892777919769 0.0626218318939209 -0.09774726629257202 -0.016153931617736816 0.03167301416397095 -0.066862091422081 0.019642874598503113 0.06469130516052246 0.11175096035003662 0.05472239851951599 0.04887574911117554 -0.11957445740699768 0.10688377916812897 -0.055410757660865784 -0.04200966656208038 0.027351349592208862 0.12016844749450684 0.10811617970466614 -0.11444143950939178 0.07732094824314117 -0.10536608099937439 -0.1045818030834198 0.057541623711586 0.03870433568954468 0.0013137608766555786 0.10285298526287079 0.061162158846855164 -0.02454891800880432 0.013543516397476196 -0.015223711729049683 0.09426926076412201 0.09956517815589905 -0.10787896811962128 0.047743380069732666 -0.0748932808637619 0.024147048592567444 -0.04836234450340271 -0.12433858215808868 0.12403230369091034 -0.06844751536846161 -0.020845890045166016 0.04140275716781616
-0.11860843002796173 -0.06419263780117035 -0.015909045934677124 0.11936219036579132 -0.04785865545272827 -0.07970641553401947 0.050860777497291565 0.09527775645256042 0.07837000489234924 -0.10429055988788605 -0.06767909228801727 0.08634908497333527 0.011850371956825256 -0.047116607427597046 -0.03318163752555847 0.054857224225997925 0.07627418637275696 -0.05654069781303406 -0.03425176441669464 -0.08262521028518677 -0.04982578754425049 0.08357137441635132 0.07595527172088623 0.004336833953857422 -0.021265417337417603 -0.10304173827171326 0.09660695493221283 0.026533707976341248 0.08152857422828674 -0.12478189170360565 -0.01831492781639099 0.06624820828437805 -0.11665615439414978 0.08271795511245728 -0.018835783004760742 0.06112492084503174 -0.07644897699356079 0.05391734838485718 0.09696146845817566 0.096132293343544 0.08281213045120239 0.0037053078413009644 0.09427076578140259 -0.09503921866416931 0.11417274177074432 0.023608297109603882 -0.12477698922157288 0.09666630625724792 0.05259294807910919 -0.032296448945999146 -0.04418580234050751 -0.10734985768795013 0.10902449488639832 0.10471047461032867 -0.10175386071205139 0.04040771722793579 0.040786802768707275 -0.0749572217464447 -0.058303430676460266 -0.06359104812145233 0.04339492321014404 0.020950719714164734 0.08920077979564667 0.08060802519321442
0.11706013977527618 -0.08728259801864624 -0.0926608294248581 4.814565181732178e-05 0.1135646402835846 -0.051249295473098755 0.09070728719234467 0.11920768022537231 0.07269561290740967 0.04423324763774872 0.023833781480789185 0.09329235553741455 0.014660835266113281 0.10115253925323486 -0.026167064905166626 0.03595753014087677 -0.09761437773704529 -0.08682353794574738 -0.047231778502464294 0.09398429095745087 -0.08795791864395142 -0.0951276570558548 0.029670223593711853 -0.09191468358039856 0.030891433358192444 0.07361797988414764 -0.10932102799415588 0.02425411343574524 0.12120625376701355 -0.06879265606403351 -0.00583292543888092 0.10162675380706787 0.0422518253326416 -0.016835615038871765 0.027059420943260193 -0.039434999227523804 0.05379645526409149 0.11730889976024628 -0.051348328590393066 -6.283819675445557e-05 -0.07134218513965607 -0.0667039304971695 -0.020267263054847717 -0.0645463764667511 -0.1005469262599945 0.08469295501708984 0.03385062515735626 -0.040335237979888916 0.06871028244495392 0.11601035296916962 -0.05001211166381836 -0.02597832679748535 0.11970387399196625 0.0818757712841034 -0.10707531869411469 -0.017673566937446594 -0.013588935136795044 -0.09529320895671844 0.030112922191619873 -0.10125213861465454 0.08876228332519531 0.019318386912345886 -0.07685928046703339 0.0943482518196106
-0.1167638897895813 0.07366049289703369 0.0383986234664917 0.035587698221206665 -0.05225497484207153 -0.06602288782596588 0.12043739855289459 0.0638914555311203 -0.062272727489471436 0.0747460424900055 -0.12265244126319885 0.08434353768825531 -0.08386103808879852 -0.017451241612434387 -0.030531585216522217 0.05835482478141785 -0.05645193159580231 0.04661822319030762 0.038775086402893066 -0.01568259298801422 0.021165460348129272 -0.08369085192680359 0.12095925211906433 0.04720337688922882 0.11333678662776947 0.06735099852085114 0.09223408997058868 0.048955246806144714 0.011620432138442993 0.0644524097442627 0.09812714159488678 0.1009649932384491 5.231797695159912e-05 0.030056998133659363 -0.001073688268661499 0.06798672676086426 0.0704355239868164 -0.08833655714988708 0.02560625970363617 -0.032608821988105774 0.024836912751197815 -0.10909676551818848 0.033194199204444885 0.02088688313961029 -0.05267232656478882 -0.05705736577510834 -0.09557139873504639 -0.08320027589797974 0.09546615183353424 -0.009952068328857422 0.05538278818130493 -0.10932432115077972 -0.07413467764854431 0.009564906358718872 0.04364417493343353 0.08522176742553711 0.10965032875537872 -0.05276721715927124 0.10933655500411987 0.007273554801940918 0.010222509503364563 0.0227203369140625 -0.08648698031902313 0.08000092208385468
