0.01791723072528839 0.10012991726398468 -0.08182209730148315 0.12156009674072266 0.07665582001209259 -0.1204204112291336 0.04637613892555237 -0.10864515602588654 -0.028693467378616333 0.07100358605384827 -0.07608112692832947 -0.06568852066993713 0.0484517365694046 -0.02695085108280182 0.036231234669685364 -0.09092293679714203 0.0064590126276016235 0.026040688157081604 -0.06628325581550598 -0.048726946115493774 0.09906157851219177 0.030832022428512573 0.05592453479766846 -0.024578988552093506 0.01287899911403656 -0.04656010866165161 0.08775965869426727 0.08003586530685425 0.05065813660621643 0.12322279810905457 0.11909753084182739 0.04066765308380127 0.07601712644100189 0.057231172919273376 0.12072552740573883 0.0024838000535964966 0.05154882371425629 0.11753371357917786 0.08908119797706604 -0.0122927725315094 0.12244211137294769 -0.1214287281036377 0.08475211262702942 0.10945658385753632 -0.06388209760189056 -0.10761424899101257 -0.002608746290206909 -0.06402060389518738 -0.11620558798313141 0.030409768223762512 0.1165296882390976 0.06562456488609314 -0.04347127676010132 -0.026383981108665466 -0.024756863713264465 0.004023000597953796 0.016242563724517822 0.011697530746459961 0.004510641098022461 -2.6673078536987305e-05 0.04635836184024811 0.08810943365097046 0.07203531265258789 -0.0815441906452179
0.028282105922698975 0.11454913020133972 0.016772806644439697 -0.1190473735332489 -0.023215115070343018 -0.06491440534591675 0.020811423659324646 -0.06810812652111053 -0.11277775466442108 0.04524026811122894 0.12311694025993347 -0.09178927540779114 -0.036536142230033875 0.11570610105991364 -0.07520325481891632 0.056007757782936096 0.10996781289577484 0.08966310322284698 0.06490035355091095 0.11600232124328613 0.08184882998466492 0.035864055156707764 -0.0843992829322815 0.11382585763931274 0.10202832520008087 0.08297601342201233 0.004630342125892639 0.03853002190589905 -0.0063996464014053345 0.02293291687965393 -0.12466451525688171 0.08593089878559113 0.02804987132549286 -0.09127363562583923 -0.010882958769798279 -0.10562115907669067 -0.03504538536071777 -0.07897515594959259 0.12294009327888489 0.07872842252254486 -0.06943127512931824 0.11563143134117126 0.042183518409729004 0.0013714879751205444 -0.07068029046058655 0.12277030944824219 0.10550925135612488 -0.04229862987995148 0.11445802450180054 0.06823034584522247 -0.04287809133529663 -0.055622100830078125 -0.06786811351776123 -0.07268205285072327 -0.10088114440441132 0.10157209634780884 0.03644414246082306 -0.12478628754615784 -0.029208004474639893 0.07008057832717896 -0.005817204713821411 -0.11728256940841675 0.042151421308517456 -0.061396434903144836
0.11181128025054932 0.02001260221004486 -0.07367978990077972 0.026571184396743774 -0.07363669574260712 -0.11855418980121613 -0.08495542407035828 -0.08578947186470032 0.10153524577617645 -0.05722048878669739 -0.037193313241004944 0.012461915612220764 -0.09408238530158997 0.02785073220729828 0.08637453615665436 0.02334560453891754 -0.09201951324939728 -0.022127047181129456 0.04854573309421539 0.07072123885154724 -0.06687287986278534 -0.046943485736846924 -0.05466897785663605 -0.0808071494102478 -0.0914105772972107 0.04505424201488495 -0.008869901299476624 0.12298856675624847 -0.1205829530954361 -0.06298594176769257 -0.06445525586605072 0.08066754043102264 -0.038133472204208374 0.02562999725341797 -0.020994827151298523 -0.0781928151845932 -0.059169963002204895 0.006789907813072205 -0.04675838351249695 0.014389961957931519 0.09864248335361481 -0.09358543157577515 0.037604108452796936 -0.004442766308784485 0.09434209764003754 0.03983376920223236 0.00546090304851532 0.12290486693382263 -0.02122676372528076 0.011983692646026611 -0.11389540135860443 0.07394687831401825 0.10801483690738678 0.1169169545173645 0.027519628405570984 -0.059870943427085876 -0.006852254271507263 0.09121008217334747 -0.05472724139690399 0.07980182766914368 0.02527773380279541 -0.06748378276824951 0.09723439812660217 0.09914425015449524
-0.0012091994285583496 0.0074410587549209595 -0.10319432616233826 -0.0569879412651062 -0.04777871072292328 -0.03609791398048401 -0.021951735019683838 0.12024615705013275 0.002427145838737488 0.03700992465019226 0.10474926233291626 -0.07670554518699646 0.110875204205513 0.079660564661026 -0.118385449051857 0.06650809943675995 0.06681862473487854 0.0010623931884765625 0.0921582281589508 -0.0702289491891861 -0.07106932997703552 0.009699955582618713 -0.10847777128219604 0.1142154186964035 -0.026756495237350464 -0.00903540849685669 -0.10150489211082458 0.09221267700195312 0.03294186294078827 -0.03180058300495148 0.066030353307724 0.11907228827476501 -0.03887878358364105 -0.03654882311820984 0.007797345519065857 -0.11379179358482361 -0.06403572857379913 0.05747285485267639 -0.1047423928976059 -0.06469869613647461 0.0868019163608551 -0.10176026821136475 -0.014803901314735413 0.0884016752243042 0.02000066637992859 0.08346033096313477 -0.12476485967636108 0.02775995433330536 -0.024872735142707825 -0.016393989324569702 -0.0638982504606247 -0.030450910329818726 -0.05463886260986328 0.06134442985057831 -0.1110156923532486 -0.009114667773246765 0.09014840424060822 -0.03560250997543335 -0.012809738516807556 -0.00957411527633667 0.08930963277816772 0.04000942409038544 0.017152339220046997 -0.02259686589241028
-0.037244781851768494 0.012391284108161926 0.08517515659332275 -0.044379353523254395 0.11349903047084808 0.035656943917274475 -0.039701566100120544 0.04726743698120117 -0.03454579412937164 0.0005701333284378052 0.010283753275871277 0.019377365708351135 -0.028572306036949158 -0.09320123493671417 -0.01171693205833435 0.044920071959495544 -0.01258733868598938 0.09885498881340027 -0.018974319100379944 -0.033722326159477234 -0.06225399672985077 0.12454292178153992 -0.00038808584213256836 0.05192458629608154 -0.03121502697467804 -0.07648460566997528 -0.029971331357955933 -0.0032790303230285645 -0.036123380064964294 0.09599080681800842 0.030199766159057617 0.020505130290985107 0.047003164887428284 0.04254545271396637 0.11260019242763519 -0.06829942762851715 -0.06680017709732056 -0.041952863335609436 -0.08404003083705902 0.09235039353370667 -0.12497547268867493 -0.11428013443946838 -0.10575419664382935 -0.022032544016838074 0.07557983696460724 0.10415990650653839 0.0938006341457367 0.05376651883125305 -0.02271580696105957 0.03560672700405121 0.0410752147436142 -0.08246222138404846 -0.0004567354917526245 0.0002329796552658081 0.07967251539230347 -0.06445050239562988 0.12454800307750702 0.11452478170394897 -0.00714564323425293 -0.11457636952400208 0.023389697074890137 -0.07961845397949219 -0.032085880637168884 -0.08888775110244751
0.04268600046634674 0.06313782930374146 0.038956254720687866 0.07234391570091248 -0.08807004988193512 0.10817494988441467 0.11545929312705994 -0.01797962188720703 0.10709996521472931 0.008663758635520935 0.08984890580177307 0.0897177904844284 -0.018350839614868164 -0.042703017592430115 -0.015558063983917236 0.11936311423778534 -0.04327341914176941 0.07573521137237549 -0.04576243460178375 0.09772832691669464 0.030468717217445374 0.00445963442325592 -0.04033742845058441 0.08036957681179047 0.04979674518108368 -0.05558791756629944 -0.10907460749149323 -0.07462760806083679 0.05776609480381012 -0.030222102999687195 -0.06847415864467621 0.07111063599586487 0.0673227459192276 0.0117330402135849 -0.05366961658000946 -0.05917099118232727 0.07205051183700562 0.010242775082588196 0.03392893075942993 -0.02375170588493347 0.07946693897247314 0.11143709719181061 -0.10800237953662872 0.061013683676719666 0.11485674977302551 0.10342845320701599 -0.005946412682533264 -0.0043867528438568115 0.10258762538433075 -0.11482894420623779 0.06186620891094208 -0.027551904320716858 -0.09182418882846832 0.02625545859336853 -0.08999951183795929 0.08577375113964081 -0.11923982203006744 -0.06912165880203247 0.08162020146846771 -0.10147832334041595 -0.11659544706344604 0.09149584174156189 0.0025435984134674072 0.08925311267375946
0.1135118305683136 0.08206978440284729 -0.09908448159694672 -0.12274008989334106 0.07135157287120819 -0.02997574210166931 0.013289928436279297 -0.00758613646030426 0.04690438508987427 0.01578180491924286 0.10958211123943329 -0.11767251789569855 -0.0013774484395980835 0.12107634544372559 0.11827628314495087 -0.051851093769073486 -0.07557412981987 -0.009910717606544495 0.10529565811157227 0.08125133812427521 0.07574163377285004 -0.12388603389263153 -0.042535826563835144 0.09496597945690155 -0.05681587755680084 0.0860525518655777 -0.04790426790714264 -0.0714438408613205 -0.06494511663913727 -0.06889046728610992 0.12294508516788483 0.07816417515277863 -0.05782085657119751 0.09390366077423096 -0.011639490723609924 -0.024041280150413513 -0.11857041716575623 0.09322808682918549 0.09457126259803772 -0.07757823169231415 -0.030899226665496826 0.0475626140832901 -0.11072267591953278 -0.09684272110462189 0.008159682154655457 0.07338769733905792 -0.017593801021575928 0.07752971351146698 0.10481461882591248 0.019474446773529053 -0.09053061902523041 -0.025528714060783386 -0.11498625576496124 0.03682786226272583 0.02822151780128479 -0.017200469970703125 0.10383963584899902 0.001475408673286438 0.0037341266870498657 -0.09851384162902832 -0.09717905521392822 0.08949917554855347 0.05043214559555054 -0.09848369657993317
0.04453134536743164 0.07313056290149689 -0.04872341454029083 -0.11900526285171509 -0.11225380003452301 -0.08265726268291473 -0.07284359633922577 -0.09653207659721375 -0.038873061537742615 -0.056370943784713745 -0.09502848982810974 0.07865002751350403 0.048485979437828064 -0.04016652703285217 0.05771981179714203 0.005256384611129761 0.01061314344406128 0.11786438524723053 -0.10996480286121368 -0.011872947216033936 -0.03744286298751831 0.06057937443256378 0.06151479482650757 0.09145446121692657 0.10133817791938782 -0.012429699301719666 -0.05113103985786438 -0.11973214149475098 -0.09516923129558563 -0.06649622321128845 0.06204017996788025 0.017195925116539 -0.11959812045097351 -0.04765510559082031 0.11253340542316437 0.07545304298400879 0.09465208649635315 -0.014612480998039246 -0.07129275798797607 -0.09938254952430725 0.08127503097057343 -0.052008241415023804 0.06669706106185913 -0.04573734104633331 0.11133792996406555 -0.099297434091568 0.026320934295654297 0.023790523409843445 -0.059745341539382935 -0.027011096477508545 -4.4852495193481445e-06 -0.04897218942642212 0.0427379310131073 -0.06830120086669922 -0.013504967093467712 -0.10812969505786896 -0.06678366661071777 -0.1051272600889206 0.11003492772579193 0.095457062125206 0.08878746628761292 -0.08563140034675598 -0.030932053923606873 0.11668209731578827
-0.05456417798995972 -0.03899870812892914 0.09395380318164825 -0.05432216823101044 0.11309340596199036 0.04518735408782959 0.12028226256370544 -0.07870306074619293 0.0012739896774291992 -0.021340474486351013 0.11544795334339142 -0.015347868204116821 0.014424636960029602 0.03773266077041626 -0.05296473205089569 -0.07878702878952026 -0.06767240166664124 0.009771645069122314 0.06956951320171356 -0.03548571467399597 -0.03555554151535034 0.09400008618831635 0.10116903483867645 -0.03816510736942291 0.004103556275367737 -0.05887089669704437 0.0857475996017456 -0.02199651300907135 -0.07761147618293762 -0.054724887013435364 -0.03604769706726074 0.05604809522628784 -0.06249052286148071 -0.03669379651546478 -0.09415824711322784 -0.01626327633857727 0.071357861161232 -0.035607293248176575 0.12060661613941193 -0.091356560587883 0.005452737212181091 -0.09748698770999908 0.08330774307250977 0.013206005096435547 -0.004388868808746338 -0.061122819781303406 -0.03143376111984253 0.11601367592811584 -0.118079274892807 -0.10244393348693848 -0.09123209118843079 -0.005214005708694458 0.023011282086372375 0.09110790491104126 0.04942622780799866 0.11416751146316528 0.12339779734611511 0.009462222456932068 -0.05300214886665344 -0.019324421882629395 0.009592846035957336 0.03862009942531586 0.006209447979927063 0.10258176922798157
0.0657052993774414 0.11885875463485718 0.11449787020683289 0.04127413034439087 0.06981833279132843 -0.03255265951156616 -0.02421298623085022 0.12499891221523285 -0.017814740538597107 0.06367163360118866 -0.12160266935825348 0.020821675658226013 0.0756334513425827 -0.10227183997631073 0.1192229688167572 -0.06786055862903595 -0.013523608446121216 0.03510633111000061 0.05680948495864868 0.056761205196380615 0.07537277042865753 0.0640234649181366 -0.0343509167432785 -0.003586888313293457 0.05998089909553528 -0.10947416722774506 0.0006645917892456055 -0.07428286969661713 -0.006273329257965088 -0.01378360390663147 0.0567922443151474 0.07394745945930481 0.02977629005908966 -0.031600430607795715 0.0038799792528152466 -0.04342344403266907 0.004867851734161377 -0.10124598443508148 0.05076803267002106 -0.018055230379104614 -0.011937111616134644 -0.10733525454998016 0.08814534544944763 0.10558052361011505 0.072501540184021 0.03771349787712097 -0.01790006458759308 -0.07242496311664581 -0.10773497819900513 -0.07811513543128967 0.11110873520374298 0.051721155643463135 0.047348231077194214 0.02133461833000183 0.011248961091041565 -0.07419688999652863 0.06563033163547516 0.05314788222312927 0.10408490896224976 -0.08259809017181396 -0.12172108888626099 -0.07525093853473663 0.019553720951080322 -0.030844807624816895
0.03188489377498627 -0.030848875641822815 0.07818768918514252 0.06384351849555969 -0.10375474393367767 0.09197269380092621 -0.03233599662780762 -0.012588903307914734 0.07679769396781921 -0.10606634616851807 -0.04270029067993164 0.12394273281097412 0.10968601703643799 0.046541497111320496 0.015513882040977478 0.08755291998386383 -0.06841373443603516 -0.048037439584732056 -0.11414581537246704 0.067779541015625 0.09867796301841736 0.11672046780586243 -0.07804696261882782 -0.03433904051780701 0.02147926390171051 -0.06511735916137695 -0.006624549627304077 -0.0629694014787674 0.07632966339588165 0.046929165720939636 -0.0729697197675705 -0.10318754613399506 -0.05700518190860748 0.021545588970184326 -0.11355924606323242 -0.1074146181344986 -0.01812128722667694 0.03246815502643585 0.0003361701965332031 0.07288859784603119 0.03988903760910034 0.10011446475982666 0.01794227957725525 0.12109643220901489 -0.03003433346748352 -0.12104670703411102 -0.028902694582939148 0.060736775398254395 0.08416710793972015 -0.053003862500190735 0.10378235578536987 0.0843132883310318 -0.10911217331886292 0.017156556248664856 -0.08517725765705109 0.028633400797843933 -0.011643990874290466 0.12312443554401398 -0.0972142368555069 -0.10015849769115448 -0.08840325474739075 -0.0688018649816513 0.048177942633628845 0.025927916169166565
-0.08600263297557831 0.08589282631874084 0.08415652811527252 -0.0991584062576294 -0.06665173172950745 0.0444033145904541 -0.0691206306219101 0.09170588850975037 -0.05822111666202545 -0.057170793414115906 0.056625351309776306 -0.015836060047149658 -0.05623164772987366 0.01564335823059082 -0.09039750695228577 -0.08267459273338318 -0.02033074200153351 -0.06610104441642761 -0.11120028793811798 -0.11737328767776489 0.12068377435207367 0.029784515500068665 0.06655731797218323 -0.11041949689388275 0.05796988308429718 -0.016043081879615784 0.060053855180740356 -0.03287166357040405 -0.12300220131874084 0.05482420325279236 -0.09488774836063385 -0.08805447816848755 0.0802537053823471 -0.058622121810913086 -0.01658719778060913 -0.1057208776473999 -0.11071394383907318 -0.09932330250740051 0.06357705593109131 -0.10589347779750824 -0.03388489782810211 0.07873795926570892 -0.015377357602119446 0.038758039474487305 -0.05589163303375244 -0.07517172396183014 0.03460487723350525 -0.010651469230651855 0.051427438855171204 0.10079903900623322 -0.03321877121925354 -0.06356008350849152 -0.02605268359184265 -0.03139208257198334 -0.030032530426979065 0.10183443129062653 0.04326346516609192 0.08714056015014648 0.10433974862098694 -0.09955556690692902 -0.12261009216308594 0.07107895612716675 -0.09197933971881866 0.06480060517787933
-0.027636095881462097 0.01885320246219635 -0.007500797510147095 0.03903418779373169 -0.11225840449333191 -0.07186228036880493 0.03814080357551575 -0.0166180282831192 -0.07552735507488251 0.05365787446498871 -0.02446568012237549 0.0903339684009552 -0.033204466104507446 -0.06371299922466278 -0.10753113031387329 0.07728132605552673 0.12422026693820953 0.03294771909713745 -0.09666572511196136 0.08269689977169037 -0.08093748986721039 -0.01216183602809906 -0.10238000750541687 -0.02816009521484375 -0.04529726505279541 0.10400332510471344 0.08374868333339691 -0.05746759474277496 0.09705457091331482 -0.05790160596370697 -0.12044957280158997 0.06741484999656677 0.0012895464897155762 0.12066547572612762 0.026423022150993347 -0.027315914630889893 -0.10396155714988708 -0.0644364058971405 -0.1240101158618927 0.05229787528514862 0.090156689286232 -0.05711895227432251 0.10312855243682861 -0.008163675665855408 0.010628625750541687 0.027959242463111877 0.002276390790939331 -0.10342550277709961 -0.043610259890556335 0.012069523334503174 -0.06583176553249359 0.001995295286178589 0.00829160213470459 -0.007716923952102661 0.0894436240196228 0.07641059160232544 0.10938049852848053 0.11567914485931396 -0.08956700563430786 -0.026984676718711853 -0.12479834258556366 -0.03804069757461548 -0.11874836683273315 0.09546254575252533
0.030180275440216064 0.0823993980884552 -0.008027657866477966 0.12229715287685394 -0.04039387404918671 -0.10116228461265564 0.08452367782592773 -0.055766329169273376 0.0029213130474090576 0.0006849020719528198 0.08814026415348053 0.07517029345035553 0.03401385247707367 -0.0008072108030319214 0.024313032627105713 0.05800192058086395 -0.0927913635969162 -0.026067107915878296 -0.10719481110572815 -0.09376434981822968 -0.03475882112979889 -0.05538584291934967 -0.001112818717956543 -0.034177735447883606 0.03201931715011597 0.06859472393989563 0.03873182833194733 0.06578844785690308 -0.02738390862941742 0.08788922429084778 0.08570671081542969 -0.040635764598846436 -0.08289067447185516 0.11979405581951141 0.01586754620075226 -0.03203225135803223 -0.06986881792545319 -0.011531054973602295 0.10773380100727081 -0.07412998378276825 -0.11717888712882996 -0.0399576872587204 -0.02908007800579071 0.11827382445335388 0.07696601748466492 0.12281908094882965 -0.0063219815492630005 0.0035986751317977905 -0.0677933543920517 -0.03264504671096802 -0.029661163687705994 0.050347670912742615 0.0268385112285614 0.04535546898841858 -0.08993402123451233 0.11767935752868652 -0.06757767498493195 0.10609941184520721 0.0605812668800354 -0.09678079187870026 0.08118847012519836 -0.06467007100582123 0.07573914527893066 -0.10323365032672882
0.032783329486846924 0.015619158744812012 -0.004780620336532593 -0.026545271277427673 0.11163455247879028 -0.06209374964237213 -0.05272743105888367 0.020505711436271667 0.021675899624824524 0.12413029372692108 -0.10449111461639404 0.08995112776756287 0.09974205493927002 0.021441295742988586 -0.11550825834274292 -0.11530674993991852 0.06103233993053436 -0.003518134355545044 -0.11804303526878357 -0.07581833004951477 -0.12233810126781464 0.05027821660041809 0.0212763249874115 0.10483287274837494 -0.09379178285598755 0.028252050280570984 0.06561288237571716 -0.05679640173912048 -0.01998630166053772 -0.07147689163684845 -0.12465529143810272 -0.05353045463562012 -0.09036944806575775 -0.03419865667819977 -0.09717372059822083 0.07447996735572815 0.09023463726043701 0.012816697359085083 -0.010043308138847351 0.0750386118888855 -0.007339298725128174 -0.02525518834590912 0.09387347102165222 0.059601157903671265 -0.08364017307758331 0.1048276424407959 -0.04755009710788727 0.08163437247276306 -0.003181934356689453 -0.06635428965091705 0.11261066794395447 -0.12030769884586334 0.12004163861274719 -0.07753324508666992 0.06773735582828522 0.07218243181705475 -0.006348401308059692 -0.11616231501102448 0.08591759204864502 0.09149779379367828 -0.036384761333465576 -0.08925001323223114 0.046618565917015076 -0.05010464787483215
0.02439694106578827 -0.021121099591255188 0.10419060289859772 -0.028335094451904297 0.05495642125606537 0.12400399148464203 0.05355513095855713 -0.09276819229125977 0.0808563083410263 0.05969277024269104 -0.04191984236240387 0.08178316056728363 -0.006732657551765442 -0.10981358587741852 0.11911444365978241 0.026168689131736755 -0.007534220814704895 0.06591182947158813 -0.07622566819190979 -0.10806472599506378 -0.03213822841644287 -0.10182616114616394 0.10643617808818817 0.0071534663438797 -0.07039766013622284 0.05806712806224823 0.061350539326667786 -0.07201501727104187 0.015113145112991333 -0.054668039083480835 -0.10418947041034698 0.11252672970294952 0.04931589961051941 0.08707593381404877 -0.10302220284938812 -0.06655292212963104 -0.05669276416301727 -0.07653681933879852 0.061689868569374084 0.09113359451293945 -0.038572460412979126 -0.0639333575963974 0.03135916590690613 -0.056450456380844116 -0.05489751696586609 -0.036743953824043274 -0.08405077457427979 -0.03765617311000824 0.013257473707199097 0.08754397928714752 -0.06003889441490173 0.03147910535335541 -0.0443117618560791 -0.10549242794513702 0.09311938285827637 0.09261226654052734 -0.026576951146125793 -0.0683278739452362 0.034375011920928955 -0.11524073779582977 -0.00648517906665802 0.027132615447044373 -0.08073040843009949 0.047378599643707275
-0.11296907067298889 -0.1065993458032608 -0.09446565806865692 0.07498593628406525 -0.02317337691783905 -0.10797087848186493 -0.03383985161781311 0.11944600939750671 0.014958873391151428 0.016840040683746338 -0.08899296820163727 0.07742547988891602 -0.010910555720329285 -0.040694475173950195 -0.07662642002105713 0.05075244605541229 0.1165335476398468 0.07987567782402039 0.023684412240982056 -0.07994522154331207 -0.04692733287811279 -0.12411810457706451 0.0035554617643356323 0.0124112069606781 0.040180861949920654 0.07398369908332825 0.11051739752292633 0.05301642417907715 0.07671542465686798 -0.021169528365135193 0.0253886878490448 -0.0009686201810836792 -0.06932996213436127 0.05316038429737091 -0.03315052390098572 0.034899696707725525 -0.12120305001735687 0.0356781929731369 0.01948988437652588 -0.006186679005622864 0.07442432641983032 0.007171452045440674 -0.0920315682888031 0.07404451072216034 -0.0812186598777771 0.03906020522117615 0.10993669927120209 -0.11128507554531097 0.11272241175174713 0.06038327515125275 -0.0966528058052063 -0.12031067907810211 -0.10528457164764404 0.008935227990150452 -0.09210298955440521 -0.09464597702026367 -0.09531104564666748 0.11379915475845337 -0.04725591838359833 0.04707469046115875 -0.11214731633663177 -0.036641925573349 0.07295192778110504 -0.015310481190681458
-0.03466600179672241 0.11932985484600067 -0.04134774208068848 -0.018048688769340515 -0.06047879159450531 0.026813477277755737 0.11343511939048767 -0.12090188264846802 -0.061779871582984924 0.07326571643352509 -0.08093520998954773 -0.04559879004955292 -0.011721402406692505 -0.0685594230890274 0.0663871318101883 -0.06835374236106873 0.006220787763595581 -0.10925333201885223 -0.09472547471523285 -0.10229918360710144 -0.01340581476688385 0.12340374290943146 0.008611693978309631 -0.11672604084014893 -0.11051823198795319 -0.06193339824676514 -0.10455004870891571 -0.11645102500915527 0.066184401512146 0.03684103488922119 -0.03519642353057861 0.05776761472225189 -0.10599581897258759 -0.06121031939983368 0.123091921210289 0.07132107019424438 0.09542614221572876 -0.039651647210121155 0.03452865779399872 0.030645504593849182 -0.0020538419485092163 0.10720090568065643 -0.1162729561328888 -0.03353989124298096 -0.037496671080589294 -0.06978592276573181 -0.03185868263244629 0.0011222660541534424 -0.0024974197149276733 0.10615454614162445 0.1143745481967926 0.044361844658851624 -0.01511506736278534 -0.036102890968322754 -0.12228590250015259 -0.051008790731430054 -0.05116790533065796 -0.014320284128189087 -0.06308068335056305 -0.11513049900531769 -0.02222953736782074 0.006440401077270508 0.008749231696128845 0.09467160701751709
0.03422003984451294 -0.09197545051574707 0.1058599054813385 -0.006678357720375061 0.11361406743526459 0.06216965615749359 0.06280680000782013 -0.08572803437709808 0.057940274477005005 0.03394864499568939 -0.026695773005485535 -0.06406182050704956 -0.11952054500579834 -0.10605943202972412 -0.09560695290565491 -0.07498057186603546 -0.11787617206573486 0.07250286638736725 -0.03606107831001282 0.1231507807970047 0.05594153702259064 0.10101418197154999 0.05613891780376434 -0.057747021317481995 -0.11664101481437683 0.0340447723865509 0.10220791399478912 0.03759968280792236 0.04808738827705383 -0.06274041533470154 -0.05126942694187164 0.015017926692962646 -0.0779639184474945 -0.06015840172767639 0.11759474873542786 0.11255373060703278 0.09123501181602478 -0.010525524616241455 -0.12213689088821411 0.08856603503227234 -0.10858537256717682 0.02633148431777954 0.07717862725257874 -0.05134221911430359 0.01793883740901947 0.006904378533363342 -0.11453229188919067 0.059383779764175415 0.0610530823469162 -0.03183265030384064 0.04810909926891327 0.0007550567388534546 0.02386896312236786 0.1217447966337204 0.09043616056442261 0.03318414092063904 0.04205375909805298 0.03324274718761444 0.056955963373184204 0.1103736162185669 -0.0653858333826065 0.10764557123184204 0.05421967804431915 0.11357994377613068
-0.03562690317630768 0.03881613910198212 0.10382571816444397 0.019298747181892395 0.10244590044021606 0.06541265547275543 0.11580677330493927 -0.08353126049041748 -0.0038627535104751587 -0.05580386519432068 -0.0017700344324111938 -0.09206223487854004 -0.05624660849571228 0.07475858926773071 0.054535120725631714 0.07535260915756226 -0.04428310692310333 -0.055444762110710144 -0.06892935931682587 0.07752223312854767 -0.09876230359077454 -0.09386196732521057 -0.06433160603046417 0.0453486442565918 0.042392075061798096 0.021644502878189087 0.1091993898153305 -0.05901004374027252 0.043176114559173584 -0.10913251340389252 -0.05285276472568512 0.06688262522220612 -0.04727841913700104 0.12257561087608337 -0.02405601739883423 -0.09000341594219208 0.004148826003074646 0.055823683738708496 0.03296037018299103 -0.0900932103395462 -0.10374748706817627 0.09258025884628296 0.05454462766647339 -0.10204790532588959 -0.05008159577846527 -0.010874941945075989 -0.05996665358543396 0.10951647162437439 0.06132549047470093 -0.06278148293495178 -0.10484859347343445 -0.033823564648628235 0.02660234272480011 -0.013678401708602905 -0.09521797299385071 -0.06797119975090027 -0.1233605146408081 -0.121834397315979 0.05218389630317688 0.09536094963550568 0.05511859059333801 0.043353453278541565 -0.08219599723815918 0.024673685431480408
-0.05469749867916107 -0.038033947348594666 -0.09993141889572144 0.00720977783203125 0.05943143367767334 -0.021097257733345032 -0.12173259258270264 0.09921906888484955 -0.006451800465583801 0.06050467491149902 -0.05158279836177826 -0.05507528781890869 -0.11701691150665283 0.04219067096710205 0.1156381219625473 -0.047901004552841187 0.08726364374160767 -0.11660490930080414 -0.06166979670524597 -0.12173856794834137 0.11953523755073547 -0.02082836627960205 0.11264868080615997 0.030141353607177734 0.11359032988548279 0.059153780341148376 -0.11390352249145508 0.08952334523200989 0.07190276682376862 -0.007918640971183777 -0.0843300074338913 -0.09342189133167267 0.11378820240497589 0.06962025165557861 0.056780919432640076 -0.06359605491161346 -0.07143157720565796 0.08740644156932831 0.04250441491603851 -0.03462998569011688 -0.11566248536109924 0.10782140493392944 -0.03992956876754761 0.0005644112825393677 -0.12189067900180817 -0.0837605744600296 0.08737683296203613 -0.028247475624084473 -0.08338741958141327 -0.0760330855846405 -0.04685641825199127 0.05038653314113617 0.028359681367874146 0.1125059723854065 -0.06229844689369202 0.05992679297924042 0.1110106110572815 0.08393321931362152 0.06961716711521149 0.07326322793960571 0.005599543452262878 0.1246725469827652 0.020300716161727905 0.09577572345733643
0.022864505648612976 -0.012475088238716125 -0.09775970876216888 0.11433161795139313 0.09411722421646118 -0.027827441692352295 0.02124933898448944 0.06273223459720612 0.09415324032306671 0.11618077754974365 -0.056417375802993774 -0.11369992792606354 -0.06453235447406769 0.009374648332595825 -0.05105939507484436 0.09843657910823822 -0.11247327923774719 0.017696455121040344 -0.1056218147277832 0.01798693835735321 0.08832453191280365 -0.10181728005409241 0.02306760847568512 -0.01365940272808075 0.08882421255111694 -0.038977742195129395 0.050511375069618225 -0.05413675308227539 0.028731420636177063 -0.12315072119235992 0.031124413013458252 0.0323786586523056 -0.05053591728210449 0.009786471724510193 -0.026242822408676147 0.097397580742836 -0.03247623145580292 -0.12343767285346985 0.11243802309036255 0.039274632930755615 0.019731611013412476 -0.11406125128269196 -0.096004918217659 -0.07078564167022705 0.011527210474014282 -0.06871911883354187 -0.10314778983592987 -0.08322799205780029 -0.00947842001914978 -0.10160623490810394 -0.0449027419090271 0.0270373672246933 -0.026015251874923706 -0.04414258897304535 0.07469193637371063 -0.09541833400726318 0.11962021887302399 0.04147122800350189 -0.09375865757465363 0.031056255102157593 0.08604121208190918 0.10745090246200562 -0.038611337542533875 -0.10894203186035156
0.08984315395355225 -0.08987946808338165 -0.06534211337566376 0.11624757945537567 -0.007045358419418335 -0.11392384767532349 -0.0499022901058197 -0.05954602360725403 0.09142491221427917 -0.11743871867656708 -0.11583219468593597 0.004231050610542297 -0.09884041547775269 -0.10383614897727966 -0.0032812952995300293 0.09802122414112091 -0.03283339738845825 -0.025021716952323914 0.014156654477119446 0.09835915267467499 -0.043741852045059204 -0.036058202385902405 0.05397506058216095 -0.06579631567001343 -0.013162508606910706 0.08156393468379974 -0.10289973020553589 -0.041288405656814575 0.05783310532569885 0.058300673961639404 -0.01074478030204773 -0.1162000447511673 0.06318064033985138 -0.02796873450279236 0.11359301209449768 0.09794765710830688 0.008161559700965881 0.10945630073547363 -0.12259264290332794 0.03737175464630127 -0.09424583613872528 0.08368216454982758 -0.07405729591846466 0.1236872673034668 0.025600075721740723 -0.013488918542861938 0.006136208772659302 0.10857190191745758 -0.01967492699623108 -0.08318421244621277 -0.1136244386434555 0.11376582086086273 0.07022431492805481 -0.05395349860191345 0.11107699573040009 -0.0911957174539566 -0.06990785896778107 0.0312952846288681 -0.08602365851402283 -0.11233992874622345 0.09165365993976593 -0.04850377142429352 -0.12016968429088593 -0.06954357028007507
0.10051281750202179 0.008499234914779663 -0.10920286178588867 -0.0288534015417099 0.028226256370544434 0.03203938901424408 -0.07787258923053741 -0.03962896764278412 -0.07016192376613617 -0.040922701358795166 0.10074788331985474 -0.10743999481201172 0.061929911375045776 -0.05157409608364105 -0.08476628363132477 -0.09772714972496033 -0.11081232130527496 -0.1158372014760971 -0.09241020679473877 0.018400058150291443 -0.08593887090682983 0.014170810580253601 0.11429484188556671 0.030538618564605713 0.07572335004806519 -0.0821273922920227 -0.03387048840522766 0.0740402340888977 0.044206634163856506 -0.1220725029706955 -0.03220324218273163 0.09186285734176636 0.06742402911186218 0.028392091393470764 0.004553154110908508 -0.09356290102005005 -0.1074419915676117 -0.047780781984329224 0.005583971738815308 0.03054969012737274 0.011836379766464233 0.04074808955192566 0.10704351961612701 0.12124502658843994 0.12294813990592957 -0.05445633828639984 0.008162334561347961 -0.0547284334897995 0.010317042469978333 0.07921214401721954 -0.05578261613845825 0.046783506870269775 -0.05645197629928589 -0.062310054898262024 -0.09207062423229218 0.05985085666179657 0.025572210550308228 0.11655859649181366 -0.03245270252227783 -0.07370127737522125 0.11721262335777283 0.06760789453983307 0.07629688084125519 -0.07233750820159912
0.07207277417182922 0.11336348950862885 0.11387941241264343 -0.029969945549964905 -0.04692868888378143 0.055926427245140076 0.08179004490375519 0.12171927094459534 0.0049493759870529175 -0.0834299772977829 0.03919394314289093 -0.12245137989521027 0.004279628396034241 -0.04674394428730011 0.08205129206180573 0.001244574785232544 0.028988942503929138 0.11606428027153015 -0.0634511262178421 0.023606285452842712 -0.0005574226379394531 -0.05409984290599823 -0.10228621959686279 -0.057135388255119324 0.1213785856962204 0.06359823048114777 0.10195474326610565 0.12428030371665955 0.10935766994953156 -0.028824999928474426 0.09089340269565582 -0.05572587251663208 0.06456099450588226 0.05380861461162567 -0.06391356885433197 -0.0011515915393829346 -0.007354035973548889 0.10483784973621368 -0.051108017563819885 -0.051968008279800415 -0.05228471755981445 0.10289052128791809 -0.008009985089302063 0.020782366394996643 -0.049078941345214844 0.010601088404655457 0.04999825358390808 -0.022769033908843994 -0.08479185402393341 0.08111757040023804 -0.0015044808387756348 0.11821964383125305 -0.043710336089134216 0.08763813972473145 -0.07725109159946442 -0.0439225435256958 0.11086314916610718 -0.008537769317626953 0.07451680302619934 0.09628148376941681 -0.0014330893754959106 -0.02105008065700531 -0.09992986917495728 -0.07237029075622559
-0.049343615770339966 0.06771646440029144 -0.004670634865760803 0.034426167607307434 -0.024098068475723267 0.04009951651096344 -0.0652235746383667 0.06959335505962372 -0.0029985010623931885 -0.0531446635723114 0.0684593915939331 0.10924053192138672 0.04784446954727173 -0.06033380329608917 -0.03295603394508362 -0.06544354557991028 0.06389045715332031 -0.12270870804786682 0.10883891582489014 -0.03361460566520691 0.04359343647956848 -0.028295427560806274 0.03675463795661926 0.07512404024600983 0.0434887558221817 -0.037781402468681335 0.06519059836864471 0.011532604694366455 -0.07794035971164703 -0.0006602704524993896 0.1049932986497879 -0.06632331013679504 0.10378073155879974 0.036572083830833435 -0.08479742705821991 -0.03741726279258728 0.063809335231781 0.05083842575550079 0.11461734771728516 -0.09824123978614807 -0.10232047736644745 -0.07044430077075958 0.026085421442985535 0.08827508985996246 -0.05516916513442993 8.162856101989746e-05 -0.04866166412830353 0.040647298097610474 -0.04160812497138977 0.05349251627922058 0.10614897310733795 0.004691123962402344 0.12235286831855774 -0.11777308583259583 -0.1175665408372879 0.07513833045959473 -0.11905525624752045 -0.03497457504272461 0.047736749053001404 -0.005228444933891296 0.09220372140407562 -0.12027187645435333 0.0871293842792511 0.045094504952430725
0.05555307865142822 0.036978840827941895 0.05167178809642792 -0.0692615807056427 -0.0958450585603714 -0.04719637334346771 0.04230935871601105 0.049186304211616516 0.06098416447639465 0.11550433933734894 -0.005754217505455017 -0.09267596900463104 0.05577796697616577 -0.02815718948841095 -0.07694116234779358 0.1230681985616684 0.03021293878555298 -0.11885124444961548 0.09986485540866852 0.11555619537830353 -0.10453915596008301 -0.02489905059337616 0.11132645606994629 0.0814414769411087 -0.09013338387012482 0.05737842619419098 0.08314362168312073 -0.038365766406059265 0.012802034616470337 -0.07840095460414886 0.10558591783046722 -0.07363617420196533 -0.01861634850502014 -0.007845684885978699 0.09183789789676666 0.07834659516811371 -0.06489045917987823 0.008776694536209106 0.034502193331718445 0.12428638339042664 -0.024815529584884644 -0.01483917236328125 -0.10907873511314392 -0.04999630153179169 -0.032724618911743164 -0.05826209485530853 0.06980912387371063 0.11792181432247162 0.049526870250701904 0.05753113329410553 0.09362335503101349 -0.11163635551929474 -0.008485749363899231 0.0033121854066848755 0.04303060472011566 0.09102427959442139 0.1164950281381607 -0.009790048003196716 0.0015661567449569702 0.009930431842803955 -0.12408758699893951 -0.06810486316680908 0.11328995227813721 0.051671043038368225
0.04159103333950043 -0.07192836701869965 0.05154998600482941 0.05866767466068268 -0.07381388545036316 0.054004207253456116 0.06452716886997223 0.049242451786994934 -0.042139336466789246 0.019991084933280945 0.07097098231315613 -0.03134313225746155 0.08290255069732666 0.009197697043418884 0.009624317288398743 -0.013586685061454773 -0.003490462899208069 0.09838627278804779 -0.019153058528900146 -0.06181490421295166 -0.0948295146226883 0.12388041615486145 0.022192299365997314 -0.12148991227149963 -0.07135292887687683 -0.09120412170886993 0.09621255099773407 0.10190904140472412 -0.025439083576202393 -0.08008912205696106 0.04450608789920807 0.05679333209991455 -0.06654058396816254 0.10721251368522644 -0.06307543814182281 -0.007962629199028015 -0.06528778374195099 0.06323094666004181 -0.04567554593086243 -0.09090942144393921 -0.03144903481006622 0.120973140001297 0.08352583646774292 0.11739867925643921 -0.02564099431037903 -0.010647952556610107 -0.03403012454509735 0.10414129495620728 0.07689189910888672 0.05073226988315582 -0.08410215377807617 -0.09960868954658508 -0.11597983539104462 -0.054928988218307495 -0.019431784749031067 0.01572507619857788 -0.05391576886177063 0.032742708921432495 -0.06655564904212952 -0.008970782160758972 -0.058121755719184875 0.1184069961309433 -0.10957895219326019 -0.056751102209091187
-0.026103690266609192 0.10473920404911041 0.06439274549484253 0.07545143365859985 0.05178903043270111 0.11033011972904205 0.04668034613132477 -0.017325252294540405 0.07239794731140137 0.11510320007801056 0.017515182495117188 -0.060369670391082764 -0.03738516569137573 0.0832294374704361 -0.0860808789730072 -0.10880738496780396 -0.0317421555519104 0.08616200089454651 0.001744583249092102 -0.036742597818374634 -0.04710455238819122 -0.011715054512023926 0.00034689903259277344 0.03976468741893768 -0.03260636329650879 0.06553851068019867 0.10638962686061859 0.07087098062038422 -0.06962211430072784 -0.08565956354141235 0.03301273286342621 0.03425316512584686 -0.03050588071346283 -0.07772396504878998 -0.10262395441532135 -0.0920850932598114 0.019720688462257385 -0.02984088659286499 -0.08866831660270691 0.09026274085044861 -0.07069894671440125 -0.026812240481376648 -0.08868050575256348 0.08234316110610962 -0.02745307981967926 -0.0817687064409256 0.021805986762046814 0.03645236790180206 0.06634083390235901 -0.09300172328948975 -0.03187867999076843 0.10336953401565552 -0.044212713837623596 -0.12470205128192902 0.04189392924308777 0.0012134909629821777 -0.0723438411951065 0.06157393753528595 -0.0258195698261261 0.11099736392498016 0.09941637516021729 -0.04233244061470032 -0.06620410084724426 -0.05517101287841797
0.09341698884963989 -0.11406886577606201 0.03822264075279236 -0.03958863019943237 -0.10431405901908875 0.020100370049476624 0.1045929491519928 0.11293195188045502 -0.07270582020282745 0.011698141694068909 0.11889542639255524 -0.12146148085594177 -0.10655999183654785 -0.1020638644695282 0.0015940368175506592 0.11072741448879242 0.06928853690624237 0.10283757746219635 0.059377312660217285 0.07789650559425354 -0.07901854813098907 0.05147582292556763 -0.020297259092330933 -0.04968009889125824 0.008057236671447754 -0.04513384401798248 0.06437861919403076 -0.029621422290802002 -0.09649313986301422 0.06422469019889832 0.08317306637763977 -0.04152637720108032 0.044285848736763 0.035571664571762085 0.03301769495010376 0.04940274357795715 0.07575345039367676 -0.11375224590301514 -0.11034123599529266 0.05969010293483734 -0.017918884754180908 0.01697559654712677 -0.02145528793334961 0.08273707330226898 0.06837344169616699 -0.09810441732406616 0.1014319658279419 0.048278555274009705 -0.08526405692100525 -0.0015129297971725464 0.05445273220539093 0.021190598607063293 -0.07942701876163483 -0.021072521805763245 -0.009520545601844788 0.05921848118305206 -0.026155680418014526 0.049212828278541565 0.11198391020298004 -0.03743433952331543 0.05750824511051178 -0.011333361268043518 -0.029373064637184143 0.013596341013908386
-0.0056999921798706055 -0.08595053851604462 -0.005609750747680664 -0.09424059092998505 0.0317927747964859 0.05319824814796448 0.06859041750431061 -0.08191521465778351 0.09673596918582916 0.10460616648197174 -0.11735042929649353 0.09761910140514374 0.077506884932518 -0.00047007203102111816 0.03581753373146057 -0.0780257135629654 -0.08203569054603577 0.007921397686004639 -0.09411682188510895 0.011468261480331421 0.0832899808883667 -0.11424520611763 0.0720398873090744 0.07719334959983826 0.026209965348243713 -0.08822815120220184 0.015650764107704163 0.013699129223823547 0.11223948001861572 0.017309442162513733 0.04870167374610901 -0.0006541907787322998 0.06828726828098297 -0.12088511884212494 0.0025627613067626953 0.09058894217014313 0.1075679361820221 0.10969492793083191 0.08625505864620209 0.0752645879983902 -0.06791266798973083 -0.07450555264949799 -0.06337052583694458 0.09736788272857666 0.0248052179813385 0.10602805018424988 0.026307091116905212 0.06871883571147919 0.06884321570396423 -0.04186461865901947 -0.08936841785907745 -0.07367047667503357 0.1051969975233078 0.07241402566432953 0.02641032636165619 -0.03358237445354462 -0.12184610962867737 -0.03661853075027466 -0.07693547010421753 -0.07861760258674622 -0.029715389013290405 0.09778368473052979 0.06536054611206055 -0.04175354540348053
0.07518944144248962 0.008539006114006042 -0.11500115692615509 0.11057981848716736 -0.10894215106964111 -0.041333988308906555 -0.02246883511543274 0.01568646728992462 0.00017718970775604248 0.05058908462524414 0.11451293528079987 0.06390531361103058 -0.10907895863056183 -0.02934621274471283 -0.04886087775230408 0.021935611963272095 -0.09646075963973999 0.013603687286376953 -0.071473628282547 0.052481457591056824 0.08025059103965759 0.12266194820404053 0.00329570472240448 -0.071531742811203 -0.05770121514797211 0.09193044900894165 -0.106217160820961 -0.10651914775371552 -0.11146947741508484 0.039662450551986694 0.019064977765083313 0.02901194989681244 -0.033163413405418396 -0.09910339117050171 -0.07602043449878693 0.014155581593513489 0.10059851408004761 0.02953168749809265 0.04543164372444153 0.04587511718273163 0.020264536142349243 0.046168431639671326 -0.10944852232933044 -0.006947189569473267 -0.043417349457740784 0.11902789771556854 0.09481808543205261 -0.04741707444190979 0.05804106593132019 -0.022742554545402527 -0.09364242851734161 -0.038807883858680725 0.01667889952659607 -0.11374600231647491 -0.11443345248699188 -0.07172489166259766 -0.01421019434928894 -0.011095881462097168 0.07177938520908356 0.04673202335834503 0.01703651249408722 0.06193731725215912 -0.08812251687049866 -0.029456377029418945
0.04894322156906128 0.04520520567893982 -0.07089908421039581 0.010758548974990845 0.0093718022108078 0.06730237603187561 -0.03895878791809082 -0.03764595091342926 0.09317408502101898 0.00571577250957489 0.05932800471782684 0.11219573020935059 -0.02046121656894684 0.10506315529346466 0.08138561248779297 0.053590476512908936 0.06624676287174225 0.022463977336883545 -0.010206848382949829 0.11683186888694763 -0.05639198422431946 -0.11946243047714233 0.04762342572212219 -0.07093288004398346 -0.08275793492794037 0.09380784630775452 0.05572839081287384 0.04306350648403168 0.11530771851539612 -0.04441460967063904 -0.05073826014995575 0.0748559981584549 0.09200145304203033 -0.032750457525253296 0.09744292497634888 0.07841107249259949 0.03452107310295105 0.03383105993270874 -0.1028718650341034 0.05111199617385864 -0.10557253658771515 0.014864131808280945 0.07819530367851257 0.05152539908885956 0.05067916214466095 -0.00300636887550354 0.016532182693481445 0.0943402349948883 0.10927854478359222 -0.07885101437568665 -0.0018280744552612305 0.07076367735862732 0.12293550372123718 0.06282253563404083 -0.01682351529598236 -0.058963626623153687 0.052492380142211914 -0.10538193583488464 0.11376960575580597 -0.01590631902217865 -0.1173718273639679 -0.0483732670545578 0.06314127147197723 0.06201012432575226
0.047986969351768494 -0.027526751160621643 0.09133908152580261 0.057084545493125916 -0.014517202973365784 -0.05808711051940918 0.023984670639038086 0.09769614040851593 -0.024094343185424805 -0.06992773711681366 0.034906432032585144 -0.05804595351219177 -0.06704019010066986 -0.10723325610160828 0.10129484534263611 0.1110706627368927 -0.11930058896541595 0.04617370665073395 -0.10955221951007843 0.12000620365142822 -0.027968809008598328 -0.11895158886909485 0.1186375617980957 -0.029195085167884827 0.0408606082201004 0.07567568123340607 -0.07804721593856812 -0.08779962360858917 0.0761890858411789 -0.006209850311279297 0.11664225161075592 0.012490436434745789 0.012510254979133606 -0.005667835474014282 -0.08927477896213531 0.10123711824417114 -0.056528910994529724 -0.05428387224674225 0.07900387048721313 -0.002722606062889099 -0.08512040972709656 -0.06831751763820648 -0.027023613452911377 -0.08654874563217163 0.01773187518119812 -0.08622132241725922 0.10171632468700409 0.04271623492240906 0.09800314903259277 0.053840845823287964 -0.05708478391170502 -0.0422372967004776 0.08475182950496674 0.12294861674308777 0.08704198896884918 0.11359953880310059 -0.055873945355415344 -0.060021430253982544 0.04480019211769104 -0.012799456715583801 -0.01688408851623535 0.10216253995895386 -0.08136802911758423 -0.09718699753284454
-0.09843726456165314 -0.07551287114620209 0.03639352321624756 0.005196899175643921 0.11190715432167053 -0.12287965416908264 0.08922180533409119 -0.11021006107330322 0.013543769717216492 -0.08949345350265503 -0.1243908703327179 0.05365893244743347 -0.006837993860244751 -0.0948084145784378 0.08575884997844696 -0.11463266611099243 -0.005511760711669922 0.10220617055892944 0.06732061505317688 0.08768987655639648 0.07645101845264435 -0.12251639366149902 0.0014143586158752441 -0.07113593816757202 -0.09890080988407135 0.06863120198249817 0.044647425413131714 -0.02757371962070465 0.025510385632514954 -0.0769917368888855 0.09344851970672607 0.12387478351593018 -0.07259666919708252 -0.10961601138114929 0.03389841318130493 0.10307955741882324 -0.10664202272891998 -0.04333280026912689 -0.04835262894630432 0.11030364036560059 0.09687459468841553 0.04776453971862793 -0.021442636847496033 -0.09723588824272156 -0.03601810336112976 -0.07599014043807983 0.06914487481117249 -0.07076376676559448 -0.04925131797790527 -0.047011807560920715 0.07082425057888031 -0.03327484428882599 0.014916792511940002 0.12056085467338562 0.05282673239707947 0.07458503544330597 0.12047351896762848 -0.03148113191127777 0.044130221009254456 0.036051347851753235 0.0007409900426864624 -0.08029507100582123 -0.07116155326366425 -0.04209868609905243
-0.051935479044914246 0.056268319487571716 0.03294067084789276 0.02145346999168396 0.07380184531211853 -0.10987091064453125 0.025455370545387268 0.12010811269283295 0.11979183554649353 -0.09612180292606354 0.05658775568008423 -0.04048396646976471 0.04907207190990448 0.05607658624649048 -0.014963924884796143 -0.07838544249534607 -0.015688538551330566 0.024396106600761414 0.07491600513458252 -0.06162253022193909 -0.07148715853691101 -0.007497042417526245 -0.029012084007263184 0.039732158184051514 -0.03204964101314545 -0.04383409023284912 0.0033292025327682495 -0.04504352807998657 0.07014523446559906 0.08841975033283234 0.11788780987262726 -0.057061001658439636 0.04712517559528351 -0.0896972119808197 0.04495611786842346 -0.046862438321113586 -0.03819078207015991 0.08252933621406555 -0.11994040012359619 0.03640533983707428 0.0159427672624588 -0.04668678343296051 0.05452430248260498 0.019553139805793762 0.08214329183101654 -0.003002643585205078 0.10723260045051575 0.12139345705509186 -0.11057214438915253 -0.0037216544151306152 0.058221787214279175 -0.04857414960861206 0.07357685267925262 0.11584699153900146 0.030025839805603027 -0.0854775458574295 0.0772123783826828 0.10797503590583801 0.032446637749671936 0.009550809860229492 0.00540730357170105 0.09957180917263031 -0.04981490969657898 0.12176966667175293
-0.006477966904640198 -0.08080439269542694 -0.08008186519145966 0.07153889536857605 0.07657402753829956 -0.11750909686088562 -0.06486062705516815 -0.027983039617538452 0.020174294710159302 -0.08103425800800323 -0.03307546675205231 0.11069296300411224 -0.051945045590400696 -0.12223021686077118 0.004309356212615967 0.04364055395126343 0.09234832227230072 0.010525897145271301 -0.0007971972227096558 -0.05319218337535858 -0.011149868369102478 -0.039150431752204895 -0.11549046635627747 -0.11646798253059387 -0.002926647663116455 0.0336875319480896 0.059912070631980896 0.06852993369102478 -0.09556794166564941 -0.042355164885520935 -0.08778151869773865 -0.02812102437019348 -0.0035057365894317627 -0.02041703462600708 -0.12451775372028351 0.0839015394449234 0.05146850645542145 0.03240594267845154 0.05455581843852997 0.012023255228996277 -0.020694971084594727 -0.07164470851421356 -0.05862906575202942 0.01731376349925995 -0.02572786808013916 -0.0377824604511261 0.0001595616340637207 -0.0013667494058609009 -0.08396366238594055 0.013336539268493652 -0.03466632962226868 0.06388947367668152 0.064876988530159 -0.01659885048866272 0.03116525709629059 -0.008398592472076416 -0.07908220589160919 -0.09962643682956696 -0.015434712171554565 -0.024493694305419922 0.01432470977306366 -0.11879856884479523 -0.07312734425067902 -0.028926968574523926
-0.010357961058616638 0.0173930823802948 -0.10623310506343842 0.05735614895820618 -0.0649101734161377 0.11539223790168762 -0.06509087979793549 0.06057286262512207 0.012252360582351685 -0.01596042513847351 -0.05580569803714752 -0.10865022242069244 0.04328678548336029 0.0942620038986206 -0.12379172444343567 0.07335260510444641 -0.025410860776901245 -0.015703588724136353 0.037194982171058655 -0.0390242338180542 0.09010317921638489 -0.12037913501262665 0.09477491676807404 0.10703292489051819 -0.09096506237983704 -0.11760279536247253 -0.0075578391551971436 -0.11970603466033936 0.07780933380126953 0.08272641897201538 -0.022685855627059937 -0.0021260231733322144 -0.09916898608207703 -0.015779733657836914 -0.11256846785545349 0.06320425868034363 0.09846895933151245 0.061313435435295105 0.12020595371723175 0.11372870206832886 -0.11554278433322906 0.07088372111320496 0.050855010747909546 -0.030966579914093018 0.11616337299346924 0.09667006134986877 -0.0316624641418457 -0.1114596277475357 -0.06759658455848694 -0.12488484382629395 -0.0924559086561203 -0.02265016734600067 0.03921763598918915 0.10843159258365631 0.09654578566551208 0.1029568463563919 -0.05252143740653992 -0.01812499761581421 -0.12410041689872742 0.1208948940038681 -0.06831309199333191 0.07190297544002533 -0.051225289702415466 -0.04725019633769989
0.0840243548154831 -0.12264220416545868 -0.03882861137390137 -0.07268022000789642 -0.1025642454624176 -0.00924597680568695 -0.08175057172775269 0.0792742520570755 -0.005349978804588318 0.052109092473983765 -0.07411333918571472 0.11164340376853943 -0.03274093568325043 0.1193571537733078 -0.1149338036775589 -0.032563239336013794 -0.11056298017501831 -0.10315355658531189 -0.04023563861846924 0.018773674964904785 -0.02309197187423706 -0.11683604121208191 -0.097479909658432 0.10500811040401459 0.06816026568412781 0.0007153600454330444 0.05430904030799866 0.034900546073913574 0.0915566235780716 0.003908723592758179 0.07107783854007721 -0.11832138895988464 0.04134120047092438 -0.0820537805557251 0.08115892112255096 -0.10175938904285431 0.06804068386554718 0.10009719431400299 0.07817138731479645 0.022919058799743652 -0.08739610016345978 -0.005480721592903137 0.10434640944004059 0.01164977252483368 -0.01920546591281891 0.0038578808307647705 -0.024764269590377808 -0.077916219830513 -0.030161887407302856 -0.0034444332122802734 0.06075045466423035 -0.11693534255027771 0.09611782431602478 -0.06310039758682251 -0.04939156770706177 0.07139977812767029 -0.04309646785259247 0.11927038431167603 0.10404527187347412 0.06727534532546997 0.05477499961853027 0.05016376078128815 0.07288238406181335 -0.006552934646606445
0.07848849892616272 0.07579223811626434 -0.08035740256309509 0.008232921361923218 -0.03344438970088959 0.004024222493171692 0.022581785917282104 -0.009038776159286499 -0.06268554925918579 -0.039484381675720215 -0.08666273951530457 -0.0768161416053772 -0.0062063634395599365 0.05292050540447235 0.024734780192375183 0.0896259993314743 -0.007331147789955139 -0.08995631337165833 0.08776697516441345 -0.10128556191921234 0.04253607988357544 0.1182301789522171 0.03415457904338837 -0.0755777657032013 -0.09205269813537598 0.10952125489711761 0.021790578961372375 -0.10582022368907928 -0.08129271864891052 -0.05795598030090332 -0.11066065728664398 -0.09531663358211517 -0.11269998550415039 -0.10814081132411957 -0.09952251613140106 0.10234081745147705 -0.0715898871421814 -0.020472347736358643 0.08660277724266052 -0.06919603049755096 -0.04493717849254608 -0.027120232582092285 0.036078810691833496 0.05795668065547943 -0.06146220862865448 0.04878668487071991 -0.0762256532907486 0.05536073446273804 -0.09546953439712524 0.10367631912231445 -0.034461140632629395 0.04018799960613251 -0.08149243891239166 0.04306270182132721 -0.06047573685646057 0.024509042501449585 0.09741058945655823 0.11499567329883575 -0.06744804978370667 0.019579842686653137 0.006292581558227539 -0.0636691004037857 -0.0998104065656662 -0.12042152881622314
0.12323637306690216 0.03364554047584534 0.056318074464797974 -0.06991147994995117 -0.05428917706012726 0.12387281656265259 -0.12419916689395905 0.007147237658500671 -0.09312629699707031 -0.006568148732185364 -0.08824415504932404 -0.10265867412090302 0.0903746485710144 -0.025259792804718018 -0.10039187967777252 0.040012210607528687 -0.018131807446479797 -0.03187425434589386 -0.058360472321510315 -0.012477397918701172 0.05694790184497833 -0.12229256331920624 0.08191953599452972 0.08571092784404755 0.06426315009593964 -0.03671513497829437 0.0599658340215683 -0.02415946125984192 -0.014554411172866821 0.01443946361541748 0.1070920079946518 0.04830297827720642 -0.11695881187915802 0.09048415720462799 -0.11004459857940674 -0.08462198078632355 0.10344091057777405 -0.028085708618164062 -0.05033472180366516 -0.044425949454307556 0.05982227623462677 -0.09223374724388123 -0.11609748005867004 -0.023049086332321167 0.009371325373649597 0.05296948552131653 0.09561644494533539 0.06693479418754578 0.05204743146896362 -0.09538446366786957 -0.05892650783061981 0.1178695410490036 0.062274277210235596 0.0363113135099411 0.051000818610191345 0.09922522306442261 -0.04065074026584625 0.03428831696510315 -0.09604136645793915 -0.0076666176319122314 -0.09431791305541992 0.06345725059509277 -0.09084035456180573 -0.08450925350189209
-0.015228450298309326 0.056720227003097534 -0.03923700749874115 -0.09516151249408722 0.08053845167160034 0.03026100993156433 0.010571882128715515 0.0771043598651886 -0.06260094046592712 0.007225841283798218 0.07292214035987854 -0.07333289086818695 -0.07271827757358551 -0.05489882826805115 -0.07355432212352753 -0.0691407173871994 -0.0647473931312561 0.05297917127609253 0.01906333863735199 0.06438200175762177 -0.041950926184654236 -0.009677708148956299 0.06013280153274536 0.012972548604011536 -0.10589516162872314 0.11859077215194702 0.070892333984375 -0.12257695198059082 -0.12241612374782562 -0.08734200894832611 0.0870630294084549 0.12101569771766663 -0.07892698049545288 -0.0916835218667984 -0.009287506341934204 0.0846950113773346 -0.11719846725463867 -0.11684276163578033 -0.08638639748096466 0.09849995374679565 0.11883759498596191 0.014575973153114319 0.07813207805156708 -0.08831347525119781 0.12366217374801636 -0.025124549865722656 -0.05985262989997864 -0.09888766705989838 -0.0974462628364563 0.1045847088098526 -0.11057724058628082 0.10948364436626434 -0.11164510250091553 0.02155044674873352 0.013268694281578064 0.04287141561508179 0.01699042320251465 -0.046193450689315796 0.032761260867118835 -0.04822130501270294 -0.09597393870353699 0.11254312098026276 0.11473947763442993 -0.08750827610492706
0.10130563378334045 0.054743170738220215 0.0281064510345459 0.06659598648548126 -0.10937628149986267 0.1154216080904007 -0.04909293353557587 0.015231773257255554 -0.04680578410625458 -0.04439997673034668 0.08747810125350952 -0.10046520829200745 0.044886231422424316 -0.07664793729782104 -0.1021781861782074 -0.020008504390716553 0.019470810890197754 0.0035570263862609863 -0.088177889585495 -0.017998844385147095 0.028888151049613953 -0.011268392205238342 0.07197163999080658 0.0005232244729995728 -0.05961908400058746 0.12359529733657837 0.10781311988830566 -0.08938717842102051 0.09414955973625183 0.03699852526187897 -0.02661280333995819 0.08122117817401886 -0.07836884260177612 -0.07317228615283966 0.002152740955352783 -0.11428588628768921 0.03980344533920288 -0.0028211772441864014 -0.009838998317718506 -0.10947462916374207 -0.02428784966468811 0.07336004078388214 0.049375519156455994 -0.014666303992271423 0.03467753529548645 -0.0711938887834549 -0.11642767488956451 0.06779640913009644 0.12444065511226654 -0.010235130786895752 -0.10438238084316254 -0.10493265092372894 0.0034326016902923584 0.11030660569667816 -0.03025864064693451 -0.11932680010795593 -0.06395524740219116 0.03775867819786072 -0.055248990654945374 0.07158143818378448 -0.06600810587406158 -0.12355425953865051 0.025173798203468323 0.015170857310295105
-0.006377726793289185 0.02996230125427246 0.05831041932106018 -0.0939762145280838 0.08271154761314392 0.011388987302780151 -0.10045424103736877 -0.10081963241100311 0.08102579414844513 -0.016445308923721313 0.10758282244205475 -0.0695052295923233 -0.1116967648267746 -0.04504165053367615 -0.05733364820480347 0.10915756225585938 0.01426541805267334 -0.0260046124458313 -0.0621756911277771 -0.07918040454387665 -0.05931752920150757 0.055343762040138245 0.10431647300720215 0.012353584170341492 0.08993396162986755 0.08096577227115631 -0.07959073781967163 -0.04636378586292267 -0.06036651134490967 -0.026750490069389343 -0.022608041763305664 0.12129274010658264 0.04155293107032776 0.034415289759635925 -0.001011088490486145 -0.009027794003486633 0.09479431807994843 -0.07608820497989655 0.11080008745193481 -0.08260098099708557 0.006548598408699036 -0.06042708456516266 0.07306799292564392 0.10152441263198853 0.07854273915290833 -0.04564934968948364 0.027749240398406982 -0.018036678433418274 0.07976886630058289 -0.0004291832447052002 -0.09436893463134766 0.12023074924945831 -0.08483581244945526 -0.09730398654937744 -0.1199570745229721 -0.03764498233795166 0.04735264182090759 0.008577197790145874 -0.0008892863988876343 -0.04476293921470642 0.11913344264030457 0.05122344195842743 -0.08541877567768097 -0.08457638323307037
0.06099078059196472 0.091592937707901 0.01269666850566864 0.03683754801750183 0.09182977676391602 -0.014427244663238525 -0.08511759340763092 -0.055275142192840576 -0.0016541779041290283 -0.07380707561969757 0.023013323545455933 0.03362290561199188 -0.06531833112239838 -0.08030152320861816 0.0703740268945694 0.0485052764415741 -0.11515027284622192 0.025158151984214783 -0.0020897984504699707 0.11879067122936249 -0.09258918464183807 0.06862770020961761 0.0016162842512130737 0.06671229004859924 -0.062364161014556885 -0.045487359166145325 0.0847562849521637 0.10655739903450012 0.029007554054260254 0.03970368206501007 -0.013205870985984802 0.11286726593971252 -0.050034016370773315 -0.011950001120567322 0.01888318359851837 -0.03740067780017853 -0.05813145637512207 0.10253004729747772 -0.1246965229511261 0.07552923262119293 -0.0038863271474838257 -0.11948740482330322 -0.08042079210281372 -0.11182641983032227 -0.043399959802627563 -0.009204208850860596 0.0029825717210769653 -0.031042277812957764 0.05928339064121246 -0.08577670156955719 -0.10776892304420471 0.0635991245508194 -0.035134345293045044 0.03743833303451538 -0.10473254323005676 0.0551736056804657 0.10021716356277466 0.01268225908279419 0.08784419298171997 -0.08631715178489685 0.08021154999732971 0.08449147641658783 -0.07201510667800903 0.11213751137256622
-0.042827337980270386 0.09240376949310303 0.043635666370391846 0.08118611574172974 -0.07112640142440796 0.11609278619289398 0.10516199469566345 0.07113362848758698 -0.07951009273529053 -0.06461022794246674 -0.050400227308273315 -0.014657735824584961 0.05882175266742706 0.09011669456958771 -0.09334743022918701 0.039647176861763 0.027410253882408142 -0.11369174718856812 0.09146235883235931 0.06866483390331268 -0.007362037897109985 -0.10962745547294617 0.042234063148498535 -0.047258198261260986 -0.04281468689441681 0.10625678300857544 0.10974143445491791 0.0107756108045578 -0.1033814400434494 0.09034611284732819 -0.02001170814037323 0.07459366321563721 -0.10813373327255249 0.06122824549674988 0.08383150398731232 0.04733888804912567 -0.03352317214012146 -0.08921526372432709 0.06596983969211578 0.0820966362953186 0.03177960216999054 -0.09475082159042358 0.016596972942352295 -0.052338048815727234 0.07301974296569824 -0.05271409451961517 -0.06861686706542969 -0.12031771242618561 0.10916711390018463 0.08536678552627563 0.04540853202342987 -0.06862859427928925 -0.019874602556228638 0.08925622701644897 -0.08015409111976624 -0.06535004079341888 -0.004635617136955261 0.0926617681980133 0.0369182825088501 -0.05877144634723663 -0.05717359483242035 0.046017736196517944 -0.11970753967761993 -0.1186048686504364
0.0037486404180526733 -0.07530003786087036 -0.09851871430873871 -0.1162242442369461 0.11767473816871643 0.004310876131057739 0.011742621660232544 -0.03944821655750275 0.04353149235248566 0.01619875431060791 0.03130964934825897 -0.10085780918598175 0.06452275812625885 -0.008219614624977112 0.030901193618774414 0.02110670506954193 -0.04659163951873779 0.10995489358901978 0.06164892017841339 0.004201933741569519 0.1189577728509903 -0.1232689768075943 0.06925065815448761 0.06697872281074524 -0.014088824391365051 0.019864588975906372 0.038939833641052246 0.02716308832168579 -0.07425466179847717 0.036776602268218994 -0.04257741570472717 -0.09349140524864197 0.029447749257087708 -0.08181498944759369 0.05117407441139221 -0.10813829302787781 0.001976028084754944 -0.08315086364746094 -0.08198072016239166 0.09452101588249207 0.010519608855247498 0.11286082863807678 -0.06454837322235107 0.015174299478530884 -0.11114557087421417 0.04325203597545624 0.040677234530448914 0.029578372836112976 0.10988935828208923 0.10952475666999817 0.03112080693244934 0.11988143622875214 -0.006629884243011475 -0.12118346989154816 -0.08735454082489014 -0.07108508050441742 0.04198741912841797 -0.08679656684398651 -0.05398549139499664 -0.11471986770629883 -0.10410581529140472 0.07978254556655884 -0.06321108341217041 -0.09082214534282684
-0.019577249884605408 -0.10119043290615082 -0.09459023177623749 0.08231529593467712 -0.08247658610343933 0.032461851835250854 0.006056532263755798 -0.12383091449737549 -0.04090622067451477 0.08044984936714172 0.003990650177001953 0.020846128463745117 0.0234726220369339 0.06340831518173218 -0.12442712485790253 -0.013476133346557617 0.02644208073616028 -0.06871223449707031 0.10035941004753113 -0.10615997016429901 -0.11718744039535522 -0.09068115055561066 -0.06341677904129028 0.04352805018424988 0.12166951596736908 -0.11596955358982086 -0.019764557480812073 -0.06079970300197601 0.03543217480182648 -0.06992527842521667 -0.025630399584770203 0.0753999650478363 -0.08805897831916809 -0.10875311493873596 0.10716545581817627 0.08583803474903107 0.12290593981742859 -0.06885777413845062 -0.08005280792713165 -0.026370897889137268 -0.08083872497081757 -0.061247989535331726 0.01849915087223053 0.07601089775562286 -0.03168155252933502 -0.03141951560974121 -0.03831031918525696 -0.10425764322280884 0.02535472810268402 0.028379783034324646 0.019305482506752014 -0.02819909155368805 -0.12344081699848175 -0.06932695209980011 -0.0833825170993805 0.08132067322731018 -0.05522580444812775 0.0908292829990387 -0.0011637210845947266 0.044558778405189514 -0.12166677415370941 0.09752301871776581 -0.02369694411754608 0.07009060680866241
-0.030447721481323242 0.07233120501041412 -0.08722496032714844 0.03508087992668152 -0.005762666463851929 -0.07018743455410004 0.0007190406322479248 -0.04073473811149597 0.09526899456977844 -0.10989774763584137 -0.08862897753715515 0.08449903130531311 0.05795665085315704 -0.12260521948337555 0.0661262720823288 0.11207447946071625 0.02248235046863556 0.05828666687011719 -0.10645587742328644 0.06943018734455109 0.0867752730846405 0.08495654165744781 -0.10922953486442566 -0.11623109877109528 -0.06851440668106079 0.03362850844860077 -0.03928588330745697 -0.002380669116973877 0.04351681470870972 0.015095189213752747 -0.022723406553268433 -0.07409249246120453 0.040690287947654724 -0.008678853511810303 0.09664113819599152 0.09751440584659576 0.03992374241352081 -0.04432468116283417 -0.10219255089759827 -0.12406443059444427 0.12452876567840576 0.076886385679245 0.029751047492027283 -0.09148816764354706 0.07093338668346405 -0.10549089312553406 -0.07736590504646301 -0.06915958225727081 -0.11225193738937378 0.0045876652002334595 0.07388530671596527 -0.05702182650566101 0.10091948509216309 -0.009640216827392578 0.021235540509223938 0.027747854590415955 0.053348228335380554 0.1085243970155716 0.11055676639080048 0.12257914245128632 -0.020213380455970764 0.05853663384914398 0.09784506261348724 -0.07961280643939972
-0.10196565091609955 -0.09908139705657959 -0.09322087466716766 0.05095855891704559 -0.10706853866577148 -0.00483587384223938 0.0755748301744461 0.12193308770656586 -0.11275866627693176 0.024184688925743103 -0.0018995553255081177 0.02426271140575409 0.06116288900375366 0.10002191364765167 0.0056403279304504395 0.03464105725288391 0.09997446835041046 -0.004524350166320801 -0.10638198256492615 0.06900690495967865 -0.07810355722904205 -0.03275240957736969 0.06779627501964569 0.0793657898902893 -0.006755053997039795 -0.02739529311656952 -0.0246439129114151 0.09493511915206909 -0.014814868569374084 0.09895534813404083 -0.017244815826416016 0.01976919174194336 -0.10525362193584442 0.07006664574146271 -0.02373667061328888 0.047746554017066956 -0.12165576219558716 -0.0362447053194046 0.10503032803535461 0.0745999664068222 -0.005335256457328796 -0.09822435677051544 0.052997082471847534 -0.003841400146484375 0.05431945621967316 0.12177874147891998 -0.08906495571136475 -0.016836017370224 -0.05394457280635834 0.0718097984790802 0.09620268642902374 -0.0076465904712677 -0.0276976078748703 -0.060644567012786865 -0.10565192997455597 -0.011910095810890198 -0.07406860589981079 -0.11480005085468292 -0.046854764223098755 0.07963261008262634 -0.07572411000728607 0.039767712354660034 0.11987140774726868 -0.08072970807552338
-0.07142855226993561 -0.1138673722743988 -0.11420692503452301 0.008796587586402893 -0.12301057577133179 0.01526673138141632 -0.08772705495357513 0.055620402097702026 0.06924861669540405 -0.008478164672851562 0.03933428227901459 0.12146531045436859 0.09445242583751678 0.0660395622253418 -0.10299479961395264 0.050450399518013 0.044098496437072754 0.088236004114151 -0.09057514369487762 -0.06812030076980591 0.08017180860042572 0.006457000970840454 0.10837692022323608 -0.0003821253776550293 -0.04944203794002533 -0.12429061532020569 -0.07143229246139526 0.06424026191234589 -0.11621367931365967 -0.0418863445520401 0.04885709285736084 -0.00038833916187286377 0.017815977334976196 0.024922773241996765 -0.009376481175422668 0.11480239033699036 -0.11432749032974243 -0.10086435079574585 0.058840736746788025 0.09838449954986572 -0.07364603877067566 -0.006605386734008789 -0.11213715374469757 -0.10645371675491333 0.04908004403114319 0.09176307916641235 0.07464119791984558 0.021141692996025085 -0.10756373405456543 -0.12335184216499329 -0.049033522605895996 -0.027096495032310486 -0.020985722541809082 0.04102599620819092 -0.012005865573883057 0.026799365878105164 0.029208645224571228 -0.025699034333229065 0.021504923701286316 -0.11500217020511627 -0.03968864679336548 0.08764474093914032 0.007283106446266174 0.07924950122833252
0.08129394054412842 -0.036841586232185364 0.11678643524646759 0.02520790696144104 -0.11950905621051788 -0.05724169313907623 -0.03357122838497162 0.0794333666563034 0.010016635060310364 -0.06881394982337952 0.11085405945777893 0.03137996792793274 -0.045015037059783936 -0.11179348826408386 -0.10653959214687347 -0.09853158891201019 -0.12105917930603027 -0.099675253033638 0.035946935415267944 -0.06982828676700592 -0.11375491321086884 -0.05086274445056915 0.050895094871520996 0.04309903085231781 -0.11114253103733063 -0.10577107965946198 -0.06534911692142487 0.09762421250343323 0.10354368388652802 0.03253401815891266 -0.031429439783096313 0.11003769934177399 0.07233244180679321 0.06296859681606293 0.06375834345817566 0.009611457586288452 -0.03311564028263092 -0.034309372305870056 -0.09494943916797638 -0.10377152264118195 0.06742967665195465 -0.1010809987783432 0.07684583961963654 -0.05297155678272247 -0.05039238929748535 -0.029356494545936584 0.0171985924243927 -0.11858995258808136 -0.11852377653121948 0.11648398637771606 0.040817126631736755 -0.07550287246704102 0.08505544066429138 -0.00697501003742218 -0.09874287247657776 0.10630147159099579 0.09060610830783844 -0.11402904987335205 -0.0641072690486908 0.012854814529418945 -0.08151775598526001 0.0403299480676651 0.057298824191093445 -0.060718655586242676
0.09717005491256714 -0.11307922005653381 0.01957675814628601 0.11746259033679962 -0.08476170897483826 0.04558636248111725 0.04273711144924164 0.08867612481117249 -0.019962817430496216 -0.07232186198234558 -0.09711799025535583 0.10826967656612396 -0.1095624715089798 -0.0730208307504654 -0.06015413999557495 0.031000375747680664 -0.045144498348236084 -0.022089555859565735 0.07902710139751434 -0.09542424976825714 -0.11264139413833618 0.10094046592712402 0.09384934604167938 0.00546477735042572 0.08144871890544891 -0.11630041897296906 0.05378536880016327 -0.11809989809989929 0.011705443263053894 0.08405143022537231 0.03933846950531006 -0.11821502447128296 -0.06500056385993958 0.08353550732135773 -0.10843808948993683 -0.11591605842113495 -0.0808180421590805 -0.10755950212478638 0.0753520280122757 0.12426325678825378 0.0650244653224945 0.05618642270565033 0.07122671604156494 0.018725275993347168 0.10425026714801788 -0.05853112041950226 -0.05344177782535553 -0.06282679736614227 -0.040901631116867065 -0.002769947052001953 -0.1131499707698822 0.09553402662277222 0.044580861926078796 -0.0698920339345932 -0.08132660388946533 -0.0027217864990234375 -0.01477155089378357 -0.017989560961723328 -0.04997870326042175 0.018272414803504944 0.037092238664627075 0.11643733084201813 0.07121317088603973 0.12073659896850586
-0.036144137382507324 -0.0458940714597702 -0.00976194441318512 0.016484946012496948 -0.0441938191652298 0.07735522091388702 0.11857470870018005 -0.01864686608314514 0.052097246050834656 0.013244807720184326 0.004738315939903259 -0.016017258167266846 -0.10580936074256897 0.09334409236907959 -0.08869224786758423 0.10291342437267303 0.07565414905548096 0.026195302605628967 -0.09098240733146667 -0.014056757092475891 0.0024747997522354126 -0.07824952900409698 0.11377064883708954 0.0371880978345871 -0.09331682324409485 0.10395190119743347 -0.06972667574882507 0.01118767261505127 0.014263957738876343 -0.05282658338546753 -0.05370199680328369 0.03222896158695221 0.03839607536792755 -0.11282235383987427 -0.10015761852264404 0.08461947739124298 0.1097971647977829 -0.1116689145565033 0.11576320230960846 -0.06640425324440002 0.08728699386119843 -0.01898890733718872 0.08475461602210999 -0.10389350354671478 0.06863759458065033 0.05514340102672577 0.10502815246582031 -0.06881169974803925 -0.10395142436027527 -0.035012632608413696 0.035326167941093445 0.0225193053483963 -0.04406940937042236 -0.06660711765289307 -0.10880297422409058 0.10689926147460938 0.09598316252231598 -0.018282756209373474 0.06564144790172577 0.04358610510826111 -0.015366211533546448 -0.11067505180835724 0.11426936089992523 0.12390878796577454
0.009314477443695068 0.08081759512424469 0.012048020958900452 -0.06417235732078552 -0.1191038191318512 0.11195389926433563 0.09925369918346405 0.019185006618499756 -0.030402779579162598 0.05279126763343811 0.05873420834541321 0.049996912479400635 -0.04696829617023468 0.04382586479187012 0.05678088963031769 -0.12300971150398254 -0.05327893793582916 0.02184291183948517 0.034888580441474915 -0.06647762656211853 0.09753075242042542 0.03779776394367218 -0.0535910427570343 -0.10188025236129761 0.029845133423805237 0.035227686166763306 0.09330622851848602 0.06604552268981934 -0.05726626515388489 0.10067951679229736 -0.10257138311862946 0.08827656507492065 -0.032530367374420166 -0.013644993305206299 0.0020827800035476685 -0.018540814518928528 0.04086560010910034 0.014093741774559021 -0.033408477902412415 0.08022119104862213 0.09768098592758179 -0.006557568907737732 0.02665652334690094 0.007485866546630859 -0.09828099608421326 -0.02256375551223755 0.08838672935962677 -0.11207233369350433 0.027240514755249023 -0.12349340319633484 -0.02625657618045807 -0.11927264928817749 0.02030666172504425 -0.062162742018699646 -0.0802508294582367 -0.06141187250614166 0.03137525916099548 -0.08166733384132385 -0.1242351084947586 0.015929535031318665 0.011750400066375732 -0.0731530636548996 0.12356439232826233 -0.08958083391189575
0.07831858098506927 0.04426512122154236 0.08235609531402588 0.06618468463420868 0.11131028831005096 0.06374344229698181 0.07688142359256744 0.028164580464363098 -0.0058694034814834595 -0.11182726919651031 0.09925958514213562 -0.04315827786922455 -0.08679883182048798 -0.09204977750778198 -0.0095595121383667 0.12026649713516235 0.0571296364068985 -0.046168938279151917 -0.1076163500547409 0.012515440583229065 -0.020982295274734497 0.1070050448179245 -0.02011074125766754 -0.07768677175045013 -0.08616475760936737 0.07566997408866882 0.016925424337387085 -0.040713027119636536 -0.0017771124839782715 -0.0328403115272522 0.07466588914394379 0.036613985896110535 -0.04359057545661926 -0.04068176448345184 0.04598739743232727 -0.03649149835109711 -0.11570760607719421 -0.07028290629386902 0.03897471725940704 -0.05748175084590912 0.08872523903846741 0.07679496705532074 -0.12246406078338623 -0.05992482602596283 -0.03246821463108063 0.08937768638134003 -0.11084045469760895 -0.12234655022621155 0.0014887303113937378 0.058065712451934814 0.04335196316242218 -0.09081621468067169 0.09317325055599213 -0.09056475758552551 0.07737918198108673 0.037222981452941895 -0.08446341753005981 0.07583779096603394 -0.08299942314624786 -0.11546546220779419 0.07120321691036224 0.017877936363220215 0.05119171738624573 0.05129292607307434
-0.09573860466480255 -0.06297457218170166 0.05776338279247284 -0.1180131733417511 0.03501895070075989 -0.001328796148300171 0.05940711498260498 -0.04004096984863281 -0.11966843903064728 -0.11473709344863892 0.11025995016098022 -0.07525685429573059 0.06803964078426361 -0.1008787602186203 0.08109773695468903 -0.05270765721797943 0.04842856526374817 -0.025232568383216858 -0.049233511090278625 0.023952126502990723 0.01584574580192566 0.04763731360435486 0.10427851974964142 -0.04058530926704407 -0.10454784333705902 0.09713804721832275 0.004868537187576294 -0.034692466259002686 0.025330722332000732 0.054296091198921204 -0.008844166994094849 -0.09177829325199127 -0.015638217329978943 -0.07663992047309875 -0.09601165354251862 0.031418249011039734 -0.12053041160106659 -0.05191443860530853 -0.0919787734746933 -0.021061286330223083 -0.015878692269325256 0.0880780816078186 -0.06673309206962585 0.0092572420835495 -0.014380291104316711 -0.0039109885692596436 -0.062407851219177246 -0.029685646295547485 -0.11971044540405273 -0.012231394648551941 -0.026638388633728027 -0.039942219853401184 0.02239835262298584 0.03203733265399933 -0.03043636679649353 0.0879860371351242 -0.08608493208885193 -0.08123736083507538 -0.0015865862369537354 0.021169230341911316 -0.0812990665435791 -0.11342322826385498 -0.0950751006603241 -0.015149906277656555
0.026928633451461792 -0.0031211525201797485 0.013178929686546326 0.12482239305973053 -0.03308141231536865 -0.034464240074157715 -0.07064248621463776 0.06042279303073883 0.039303794503211975 -0.04658249020576477 -0.07710659503936768 0.011717796325683594 -0.035536184906959534 0.06898917257785797 0.09025348722934723 0.05839483439922333 0.08641090989112854 -0.0029455870389938354 -0.04060468077659607 -0.0442337691783905 0.0525125116109848 -0.06709110736846924 -0.04691033065319061 -0.07934372127056122 0.025564223527908325 -0.03768913447856903 0.08894483745098114 0.09141972661018372 0.011760160326957703 -0.00885017216205597 -0.0805024653673172 0.01819644868373871 -0.027411088347434998 0.040609508752822876 0.05265149474143982 0.08650535345077515 0.07510323822498322 0.036880314350128174 0.016730770468711853 0.08234789967536926 -0.0911407470703125 -0.12307338416576385 -0.1064281314611435 -0.020492106676101685 0.05692656338214874 0.003177255392074585 0.12339228391647339 0.07594941556453705 -0.11292862892150879 -0.10634739696979523 0.03780597448348999 0.10400527715682983 0.11572621762752533 -0.08456681668758392 0.10914570093154907 0.10640795528888702 -0.09198464453220367 -0.09175825119018555 0.0017594993114471436 -0.06299126148223877 -0.05278952419757843 -0.05634939670562744 0.09252205491065979 -0.08079932630062103
0.06852766871452332 -0.01854206621646881 0.049731552600860596 -0.1242690235376358 0.013419806957244873 -0.059469252824783325 0.06847552955150604 0.09074284136295319 -0.0755261778831482 0.11635760962963104 -0.11224260926246643 0.06385597586631775 0.12311527132987976 0.005318790674209595 0.03379015624523163 0.10667800903320312 -0.022613629698753357 0.05173909664154053 0.0713539868593216 -0.11401686072349548 0.058046236634254456 0.03220711648464203 -0.07815435528755188 -0.10719002783298492 0.03916139900684357 -0.01635850965976715 -0.036098793148994446 -0.017658889293670654 0.12419366836547852 -0.05166815221309662 -0.0921306163072586 0.08380486071109772 -0.05182106792926788 -0.10918708145618439 0.10475669801235199 -0.09017790853977203 -0.10256029665470123 -0.06367680430412292 -0.11701124906539917 -0.05110219120979309 -0.027259215712547302 -0.0010275989770889282 0.07875622808933258 0.1003219336271286 0.06331062316894531 -0.012310013175010681 0.1163565069437027 -0.1233769953250885 0.11694225668907166 0.09714631736278534 0.0740763247013092 0.016142025589942932 -0.001142546534538269 0.03536008298397064 0.10491354763507843 0.08173534274101257 0.03908728063106537 0.11411599814891815 -0.04358382523059845 0.05956414341926575 -0.08487091958522797 -0.0301579087972641 0.09532766044139862 -0.10338175296783447
0.002532362937927246 0.04605068266391754 -0.06977209448814392 -0.07554331421852112 0.10090328752994537 -0.098062664270401 -0.12113955616950989 0.11656749248504639 0.014755070209503174 -0.04148170351982117 -0.06782883405685425 -0.09438104927539825 -0.06367218494415283 0.06596095860004425 0.006253406405448914 -0.03449501097202301 0.030500352382659912 -0.01792272925376892 0.12281851470470428 0.024747654795646667 -0.06728586554527283 0.11318716406822205 0.11502744257450104 -0.06844660639762878 0.026895910501480103 -0.047224804759025574 0.11627893149852753 0.07021775841712952 -0.028409242630004883 -0.11818026006221771 -0.09875679016113281 0.008418172597885132 -0.049395591020584106 -0.043422043323516846 0.044098809361457825 0.008405402302742004 0.06034962832927704 0.09159596264362335 -0.040434375405311584 0.029108598828315735 0.08822163939476013 0.12210243940353394 -0.025134846568107605 0.03070811927318573 -0.052837520837783813 -0.11581234633922577 0.1072368174791336 -0.0671776533126831 0.02029554545879364 -0.03499065339565277 -0.0493430495262146 0.048464298248291016 -0.049897700548172 0.10629139840602875 0.08932210505008698 -0.0022264420986175537 -0.09208457171916962 0.003735259175300598 0.01724758744239807 -0.08325131237506866 -0.08893512189388275 0.040346235036849976 -0.06296789646148682 0.02061864733695984
-0.03874526917934418 -0.019261151552200317 0.07896749675273895 -0.04744403064250946 -0.07547791302204132 0.01124204695224762 0.0626675933599472 -0.03157873451709747 -0.12453673779964447 0.04981851577758789 0.10425055027008057 -0.11105473339557648 0.028409138321876526 -0.015755698084831238 -0.10356411337852478 -0.0474744588136673 0.046532630920410156 -0.07626745104789734 -0.060814738273620605 0.07727737724781036 -0.11434300243854523 0.008960992097854614 -0.10812529921531677 -0.05709703266620636 0.09881596267223358 0.11319760978221893 -0.0457867830991745 -0.07834656536579132 -0.079967200756073 -0.12048472464084625 -0.09012126922607422 -0.11236293613910675 -0.0004854947328567505 -0.06073473393917084 -0.05683119595050812 0.08693370223045349 -0.017659634351730347 -0.0949060469865799 0.0030325651168823242 0.047949403524398804 0.028228968381881714 -0.07232576608657837 0.03868843615055084 0.056289687752723694 0.050615906715393066 -0.012565895915031433 0.11122526228427887 0.05601729452610016 0.11632654070854187 0.03336070477962494 0.10961662232875824 -0.0676509290933609 0.050172701478004456 0.031177088618278503 -0.0536164790391922 0.020010486245155334 0.04319274425506592 0.12108936905860901 -0.08649273216724396 0.02059042453765869 0.11734539270401001 -0.05131016671657562 0.0033991634845733643 -0.10921448469161987
0.0631113201379776 0.027835726737976074 -0.06348925828933716 0.02457636594772339 0.052542150020599365 0.10663895308971405 -0.09329156577587128 -0.06000739336013794 0.12283596396446228 0.0036528557538986206 -0.06026603281497955 0.09410156309604645 0.06534546613693237 -0.11597254872322083 0.016062766313552856 0.01590830087661743 -0.0836491733789444 0.078362837433815 0.005932435393333435 0.002636045217514038 0.11730566620826721 0.03784927725791931 -0.10480646789073944 0.031407445669174194 0.10361906886100769 -0.005638495087623596 -0.047018229961395264 -0.009886220097541809 0.12082608044147491 0.015518292784690857 -0.05706402659416199 -0.0020456910133361816 -0.09363609552383423 -0.08092820644378662 -0.1242789477109909 -0.05121225118637085 0.08984233438968658 0.017867162823677063 -0.053725406527519226 -0.10871368646621704 -0.07746411859989166 -0.044590890407562256 0.11541274189949036 0.11356626451015472 -0.0034497231245040894 -0.04988555610179901 0.10316574573516846 0.03207878768444061 -0.12347662448883057 -0.09657526016235352 0.06735590100288391 0.09956090152263641 0.025495871901512146 -0.10925036668777466 -0.0013997554779052734 -0.09403917193412781 0.08739420771598816 0.04808494448661804 0.09182915091514587 -0.0978424996137619 0.06025180220603943 -0.043648794293403625 -0.013126358389854431 0.08958984911441803
0.1039896011352539 0.026288658380508423 -0.0023438185453414917 0.027489781379699707 0.07458771765232086 -0.010474070906639099 0.02901872992515564 0.02924959361553192 0.05382128059864044 -0.09873856604099274 0.029444724321365356 0.011614829301834106 0.06223009526729584 -0.02054765820503235 -0.030088171362876892 0.07857507467269897 -0.10503481328487396 0.05439518392086029 0.1032882034778595 -0.06552010774612427 0.09538708627223969 -0.01205018162727356 -0.02056911587715149 0.07309214770793915 0.09292876720428467 -0.0515291690826416 -0.06952591240406036 0.01932881772518158 0.016301020979881287 0.09103165566921234 -0.04762096703052521 0.0986483246088028 -0.09465312957763672 -0.01004740595817566 -0.009306386113166809 -0.03913599252700806 -0.035322099924087524 -0.03836186230182648 -0.045452818274497986 -0.08182263374328613 0.10952930152416229 -0.06689250469207764 0.005151122808456421 -0.06258706748485565 -0.0809655487537384 0.08695580065250397 -0.08360111713409424 -0.026435837149620056 0.0966615080833435 -0.0005178451538085938 0.09237459301948547 0.08088113367557526 -0.06130978465080261 -0.11448152363300323 -0.08412861824035645 0.0324380099773407 -0.0039043128490448 0.0850829929113388 0.08267371356487274 0.12316885590553284 0.0872325748205185 -0.06153029203414917 -0.11988654732704163 -0.005718067288398743
-0.10294416546821594 0.09967069327831268 -0.012528017163276672 0.004187524318695068 -0.052417248487472534 -0.1229885071516037 -0.11113691329956055 0.09504589438438416 -0.08788037300109863 0.06267638504505157 0.0468037873506546 -0.06275516748428345 -0.0833650529384613 0.0008781105279922485 0.08392484486103058 0.04372340440750122 0.09740890562534332 -0.07000710070133209 0.06289413571357727 0.01946665346622467 -0.030606478452682495 -0.06371547281742096 -0.0993117243051529 0.0024695098400115967 -0.06811141967773438 0.07093958556652069 -0.047354623675346375 0.0003537386655807495 -0.0613536536693573 -0.11490200459957123 0.10507349669933319 0.06330540776252747 0.026496201753616333 -0.087998166680336 0.11863863468170166 0.09374843537807465 -0.10011504590511322 -0.048292577266693115 0.07001987099647522 0.0780591368675232 0.09669771790504456 0.0880669504404068 0.004836961627006531 -0.015613436698913574 -0.0703270435333252 0.11097756028175354 -0.0004125833511352539 0.04009392857551575 0.02119334042072296 -0.10704191029071808 0.1177714616060257 0.0681997686624527 0.015179723501205444 0.08325934410095215 -0.07084432244300842 -0.08645616471767426 -0.11610768735408783 -0.038602977991104126 -0.07421906292438507 -0.0356968492269516 -0.05897781252861023 -0.032908156514167786 -0.027531519532203674 -0.08967624604701996
