-371 -399 -375 258 -403 -89 -419 40 -370 45 215 285 -499 -266 -496 -141 146 -103 -486 468 20 -456 -67 79 -478 -128 86 -468 -436 370 -414 -439 293 100 470 -134 -282 163 73 -263 -269 -505 -310 -323 261 186 477 366 205 368 -375 512 100 -361 -314 330 147 -437 -158 -269 82 211 -270 25
104 -185 134 -437 -33 -128 -79 214 -309 -30 409 289 430 -168 51 -75 -135 -497 -247 -186 224 -92 -31 -31 84 390 -105 -83 351 -41 259 291 158 429 -373 -230 -427 492 -240 -313 -114 284 252 396 460 56 -273 24 201 -426 -297 -354 -243 432 -377 -185 -73 229 429 -232 -472 504 -310 166
-196 269 148 121 -122 -129 -480 -234 47 -257 -195 -333 -193 -426 46 -321 482 97 -476 -182 411 -299 -85 -113 -508 -121 -271 -283 -127 216 347 392 172 -106 -120 -454 443 247 396 40 53 -283 298 44 -165 -330 65 340 -23 356 204 -124 -353 -387 -367 -260 -264 -170 -393 431 -193 -347 -314 428
328 239 341 174 119 295 -67 282 -240 -325 412 391 -435 -88 132 468 234 -127 -140 310 85 -41 -293 396 362 -94 247 -153 -292 -139 -109 259 292 510 -344 -49 -490 -99 -71 422 -22 -340 249 467 -84 263 -324 222 158 440 -368 492 210 -202 81 240 -396 287 -489 349 233 293 60 354
-453 355 -314 251 -323 -313 414 87 5 -279 -406 219 -273 -22 231 451 -174 297 321 468 -346 83 365 -295 306 474 -428 -234 47 -27 312 -101 -206 -325 308 -58 -137 -379 -78 158 335 -202 116 72 -54 -60 100 110 306 257 7 -409 -354 -74 227 -204 268 -358 -267 -108 53 -437 -197 -429
-80 467 -255 -282 -123 -38 -39 -42 -41 -61 -250 -376 2 392 -325 474 508 -379 -65 66 416 -395 -490 446 -503 -32 100 -328 418 476 471 132 -300 -462 487 228 -435 -75 136 218 -392 -390 15 458 -317 24 -140 -252 327 494 254 -245 -337 95 493 81 -150 -238 353 337 -304 -238 381 390
224 -280 423 -181 117 -80 4 -351 -152 -271 174 -251 -105 -339 -458 -287 -391 -72 -19 201 419 114 -156 -414 -113 -365 293 239 459 -376 -309 -26 -55 70 311 471 -302 -187 -364 -333 -480 94 112 295 -260 262 436 230 16 48 364 262 342 83 252 -371 -503 -453 -317 99 -232 -303 -202 -406
-207 -338 190 172 96 -157 -194 -117 -378 19 -439 -130 65 440 -493 -184 119 -341 154 -305 386 -122 -50 -23 116 313 -42 369 83 86 269 425 -1 288 -137 -345 279 -366 437 190 -76 -67 -472 365 194 498 20 186 -388 110 358 -500 -441 179 102 -271 129 296 -346 423 -319 448 -168 67
-489 -79 -25 -107 141 44 -387 69 31 -334 213 475 103 431 510 354 217 306 253 241 0 6 -331 326 337 224 196 -365 216 -455 -90 259 -497 142 -153 -117 357 284 -361 -441 -58 -504 -189 -279 42 452 -146 336 -430 -261 344 -377 118 30 419 -492 23 -263 252 -89 165 -210 -453 386
-295 -446 182 -478 -422 0 -508 310 -8 258 129 -302 201 -302 136 -71 355 -209 489 -270 145 197 337 -162 243 -102 -138 -157 438 100 177 -72 74 232 391 15 285 361 392 -291 -164 78 -235 114 -458 -128 -57 321 -500 187 501 138 192 444 -153 182 502 -129 430 36 -507 -174 435 -41
128 81 -30 -296 430 430 249 148 -106 -116 -295 -508 286 320 -342 394 255 349 -26 37 -286 -299 -321 408 -469 -239 433 391 -387 51 169 289 -454 6 -19 -267 384 225 -287 -64 -50 93 68 -188 -209 -509 -72 -119 223 -419 -3 30 67 320 -48 -87 26 371 199 -239 -17 -474 -450 -285
-6 477 -231 44 4 -148 144 492 -453 -223 -387 247 316 145 393 -347 -112 -457 9 465 -301 -223 482 503 -480 181 -266 -17 471 -255 398 -357 394 30 -40 -345 -126 -438 -196 -365 -157 -503 386 215 -404 -250 -501 -366 278 372 -274 372 230 -195 448 -39 262 172 400 -255 -507 -260 262 196
-84 -150 60 430 20 -395 -463 358 -269 368 28 -488 357 460 150 389 -391 -348 -410 474 17 435 152 -208 -2 -263 -477 -222 -87 56 -65 -486 -486 -340 130 -38 305 461 48 -466 21 444 -84 69 -17 23 -273 152 218 -74 38 -457 -42 188 9 -402 448 147 -426 -189 51 456 328 -172
-319 -320 -85 305 -308 439 -126 -142 224 155 -371 251 -331 -133 184 91 475 245 40 -86 177 -500 -178 369 399 171 486 -230 -332 254 -126 278 230 -76 114 77 35 315 -475 404 -67 -225 -5 -191 173 350 -501 55 423 -475 -66 238 -388 -355 200 485 279 -510 -368 -232 -225 -398 122 -189
198 -7 -244 173 339 -111 456 12 -378 281 221 -110 171 3 -84 -461 -234 -183 -119 287 -124 10 455 126 494 -49 251 137 40 -210 -435 -470 -297 -327 420 360 158 223 -409 -233 22 84 -110 -259 226 -493 -304 -269 185 206 320 -110 -355 38 -441 398 -364 -262 214 160 -294 -50 417 303
-51 66 -411 441 248 -244 -481 157 263 -418 -187 -413 -382 402 421 147 -92 83 258 293 508 -98 -149 50 -313 -348 -8 -506 -290 -228 47 -295 389 265 -61 165 140 -165 120 356 183 -276 352 429 -360 -412 387 -43 -20 -49 -303 471 -151 -102 157 147 -364 -254 217 -346 304 11 354 316
-14 459 299 -191 88 97 -499 390 -73 399 -480 -366 135 240 -492 468 496 -79 -200 -498 473 -339 -62 -497 80 -35 -411 -248 -184 -471 -4 -146 -294 180 99 9 315 -454 -426 64 -247 412 -440 252 115 302 -161 -82 335 -341 -215 326 -106 -238 334 64 235 -221 -306 393 321 -329 -399 -418
-483 313 369 -432 -78 -213 -339 -340 496 458 217 334 -346 415 245 -483 388 -201 -16 -384 -374 414 -89 -182 154 -324 -460 437 218 -314 -21 -184 111 -284 -504 -414 -152 94 314 170 -340 -453 275 221 -162 115 -92 -13 344 199 -242 -228 -181 -382 70 -57 125 73 -246 41 134 84 -417 177
10 3 -478 120 102 81 486 -73 -347 -13 308 203 -476 421 -11 -118 -457 -146 407 -254 -67 132 -485 -334 -165 -164 -381 -310 -281 -182 494 243 166 384 44 452 -72 -379 -104 484 481 -215 488 79 -334 -111 -26 234 413 -287 -490 354 -248 -440 -79 2 34 -278 -204 -146 50 -231 272 235
-4 -446 -213 115 -123 -340 2 -398 449 -148 -289 274 402 450 -286 59 251 -114 312 -13 -81 -274 -178 -176 103 -65 182 -274 372 115 -263 101 -264 387 448 -502 206 197 -294 419 -510 41 504 -327 -274 -32 238 415 63 -490 -507 165 428 -297 342 -495 338 -273 251 51 -315 305 103 -206
-253 -318 36 -369 481 -463 405 -416 -346 466 241 217 21 -359 408 -382 -328 -486 38 -130 -57 396 -469 -487 -70 93 -183 -477 61 470 425 294 122 342 -358 -168 145 16 194 -64 395 -56 241 268 499 210 -120 -302 229 -56 -459 366 -21 -55 112 -352 156 -214 2 -433 -221 -460 -410 304
-220 260 -269 325 113 155 -174 216 -300 23 -220 -466 -141 -113 -408 178 373 -100 67 457 -323 -193 -103 289 105 -266 2 393 297 -503 -378 26 -162 -251 223 509 -179 259 -198 -201 163 -272 447 421 -109 216 -16 -241 -44 409 -365 -327 -260 425 508 203 169 -464 258 279 230 -359 486 -194
-488 9 -248 -425 -487 477 -61 -336 471 -292 212 139 359 -474 -213 295 -279 84 -214 263 91 -305 56 -4 -246 -456 385 -347 243 352 489 -216 -161 -368 -222 -393 296 257 -328 480 3 -172 -211 216 426 82 359 250 274 449 396 302 18 -204 -319 502 109 -407 162 140 250 -273 168 -89
436 145 -61 -216 460 -340 -455 -79 -376 -269 338 230 -304 -507 -108 497 -67 446 441 -397 477 -265 105 142 478 461 81 -485 -37 -339 -370 503 422 -91 -114 128 1 416 301 427 -109 141 -328 281 -123 58 364 -328 436 -365 -140 -33 -457 238 216 -331 337 96 -511 19 -416 465 -84 68
-280 -301 -399 -82 493 -378 -257 250 -348 262 19 -255 -370 396 -289 -490 235 -90 225 39 -95 289 142 8 456 161 -152 -105 179 -394 -150 228 -215 -421 342 125 236 341 -185 -8 395 194 85 315 -336 -435 -284 -411 84 -322 -167 241 484 279 -142 -247 -104 -326 435 423 484 347 -423 -301
-218 354 76 -58 406 45 4 20 25 -101 -449 -468 -117 -448 -504 -348 139 56 -1 -250 -369 500 -82 319 -401 -27 -281 387 290 383 239 -110 -246 -117 54 38 69 -493 29 160 -348 283 -223 494 450 -331 114 202 -99 16 275 484 -501 223 -56 208 -146 425 383 65 138 -353 381 305
-295 261 283 489 306 -202 293 -226 -97 -474 228 -20 -99 268 -260 214 258 338 -244 442 422 -226 -5 -226 -257 408 -251 140 -226 -264 38 -51 188 97 505 -121 122 -506 -25 200 441 -52 213 -374 -117 369 33 128 -428 56 -234 -338 243 -4 105 -491 308 469 -477 408 0 -126 -475 17
-503 -327 -489 17 88 168 -236 443 501 373 -357 505 274 164 -112 442 336 -204 -303 189 396 -454 -449 -319 417 -502 -174 340 -184 229 437 335 246 -148 -379 246 -137 -429 470 -134 466 -461 279 166 -347 209 200 -329 -75 511 -277 49 -18 26 94 410 434 -121 342 264 107 141 19 94
50 -20 360 398 -399 390 195 72 -180 26 172 -335 -267 459 76 -318 -258 -454 -169 263 -263 34 394 155 -462 -89 301 -445 361 -53 435 -433 -242 488 384 -441 -278 -175 260 328 -216 248 -92 332 108 -110 364 140 -401 -296 412 388 475 140 -61 -419 -81 82 -350 403 -389 198 -179 -351
114 494 -354 -25 140 454 159 -121 204 333 -125 214 -185 240 490 323 -439 63 -403 -399 127 -50 -508 -423 408 -386 328 331 18 260 432 -450 481 -312 -81 0 -495 -114 -161 -511 -129 122 -401 498 388 -181 266 -452 -373 -331 -109 -439 494 -420 26 -187 -372 -459 496 -35 -132 208 327 -121
297 82 446 320 138 -288 192 -266 -14 -395 -346 -248 -416 -388 -30 -189 103 226 -48 -432 308 327 308 136 -44 -407 44 -388 174 -509 -177 -341 -240 93 481 89 110 356 -495 138 -334 290 199 -6 -427 40 -21 -427 10 175 154 157 350 -154 -314 127 353 -307 -356 -449 54 508 -200 -504
357 93 201 -280 68 -156 185 59 -187 453 -272 -193 -106 264 -251 155 -136 401 324 137 508 -347 -463 253 213 -39 503 34 147 455 -485 6 -437 -95 -230 -212 260 460 108 383 -72 -94 -48 -372 -165 -353 -208 282 -262 255 -28 504 279 -101 -264 446 -463 -303 258 492 1 152 -177 288
137 -218 248 460 -357 -140 282 -16 104 237 -251 461 -465 449 -478 167 34 -437 -253 426 -180 -369 -357 -21 228 -261 -297 -483 34 -177 -459 -37 -190 311 -10 329 -306 61 -230 131 291 429 -267 381 250 318 -109 143 438 281 475 -162 -420 174 -478 318 -375 -174 149 -207 375 -297 -30 -421
53 -396 -298 202 499 -104 459 -264 221 -324 95 21 -57 56 -293 52 160 -58 223 307 -296 263 459 194 409 72 -288 409 -469 -487 356 -498 78 340 383 -71 -63 -171 196 -458 -138 -222 212 150 372 -502 33 -66 454 40 92 264 -145 -459 -67 77 -237 347 467 37 370 -239 292 -205
-215 -287 39 -72 -56 255 416 -508 -480 -378 -494 266 310 360 416 -304 -157 -246 177 -3 -36 -235 -82 153 -286 437 435 353 -423 345 -102 223 223 184 -188 268 154 -431 195 -101 -352 290 -93 93 468 -288 253 -411 -138 307 57 -379 -298 20 441 -505 60 369 108 -251 -128 177 -452 -123
112 -447 -197 32 242 162 -9 468 -356 369 244 428 226 475 -303 240 -154 39 -289 341 380 -431 42 501 -254 -475 107 -363 29 -26 -165 -187 216 502 41 -507 249 125 497 -196 -41 143 388 424 -127 -472 -319 -50 395 -147 -304 -510 -291 -488 -279 503 137 -206 430 -186 485 -493 2 -173
331 6 218 418 418 -247 283 -483 230 -95 95 112 189 295 462 -457 75 -310 -474 -474 -129 277 -497 111 492 -184 373 -287 -257 219 95 -46 -47 -126 511 -212 -245 30 200 284 -109 -5 -121 285 435 -461 -181 202 -461 -322 320 -195 -384 293 -316 -323 343 -453 125 397 448 -48 -29 277
-114 340 -474 465 -83 179 -45 -317 295 -151 286 -123 227 219 -47 -469 -428 -284 135 -153 -90 252 -146 -203 -174 -430 87 449 25 379 -162 -166 324 383 -484 266 -442 102 -463 296 13 490 125 425 -217 -89 352 487 79 -286 241 -332 106 -350 -285 369 416 416 49 380 77 5 -79 34
-34 -6 163 124 85 -97 377 342 -200 204 336 -233 -413 -389 -94 172 64 -60 -503 233 356 -345 439 71 -347 471 -450 215 -183 -257 304 -7 67 434 351 507 -344 -369 328 -442 -339 248 -112 -8 59 398 -414 111 49 -265 -190 375 406 381 -160 -170 198 -13 161 443 208 -490 -35 312
305 307 -44 -187 237 -440 -167 66 327 14 77 -478 -353 268 -256 92 -439 360 -226 81 266 478 349 236 453 61 -288 192 26 -443 86 303 -323 -367 -275 -17 509 -491 229 269 387 -431 -501 -243 49 -3 285 410 309 44 -466 460 302 24 124 -45 -175 -350 431 130 -379 -39 -183 69
420 -144 -302 329 452 -423 53 454 -70 -246 151 107 147 303 -343 -211 -317 52 473 74 -326 -45 189 -239 307 -497 112 474 104 206 -416 -402 -110 145 272 116 -443 -469 -264 511 466 51 -313 258 181 -329 -420 227 11 316 291 424 455 -107 107 267 329 -103 16 227 -306 -77 33 452
334 -477 -148 -285 114 -232 -204 -213 -378 484 -177 -37 274 45 -239 -342 -491 394 -146 -158 121 -19 295 -408 127 456 245 -421 -384 -320 -512 327 439 -473 -118 359 -490 -128 25 -246 332 -118 -396 -444 -439 -106 -25 -2 85 158 -203 -407 -160 -201 166 -40 8 415 -352 -25 -287 271 323 -60
512 354 191 473 -20 -358 262 270 -22 63 -325 -319 -415 -77 189 -38 22 256 -239 -10 149 437 -5 -172 -241 -123 -397 367 -30 -360 -45 -29 169 -164 74 -485 -208 -197 -154 369 -233 -142 420 -271 -216 66 118 -375 -441 246 462 436 -214 -166 275 439 -42 -436 -42 -53 -189 489 -102 -478
349 -139 -375 313 -368 206 142 161 -484 -220 189 245 366 -474 161 -373 95 456 -442 355 431 -479 265 -30 418 -73 317 220 -379 -410 -352 143 16 360 -362 -447 374 -12 -337 -414 331 194 -396 -288 -452 -172 100 397 -146 179 303 145 -243 449 -176 -397 -331 264 234 -492 274 -139 464 -120
287 -86 117 78 -42 225 375 447 -443 -199 475 -11 30 75 -167 198 397 -364 -396 98 255 382 73 137 -353 276 -91 -118 150 499 417 479 218 341 -328 -51 -142 -32 90 -98 265 365 -342 227 290 476 173 200 -94 125 -79 273 364 -273 92 -477 32 467 214 222 -371 112 -295 -456
116 -459 56 -183 58 446 99 -293 -137 501 264 -287 -489 -117 289 -452 -34 -303 -113 -42 453 -90 -398 322 286 -300 -325 245 217 -307 278 -226 -451 59 373 337 486 -82 -394 -155 61 501 -457 -236 -75 -195 -58 163 -175 -164 147 -456 225 -10 153 -452 -393 -86 10 241 -501 358 18 22
-290 122 77 212 -405 -372 156 -405 -327 -137 -87 -511 370 418 -364 -128 40 -310 -231 112 -77 -140 103 -76 72 489 434 73 138 406 98 465 -503 258 334 263 246 408 100 -202 -472 -33 171 -201 -448 42 -323 -262 -488 317 -466 -75 -502 -426 236 279 -292 -93 -428 306 467 -508 -80 -112
-487 -453 428 -168 147 -458 79 -226 235 -48 -328 -27 -196 54 -183 -187 250 -383 -478 -65 -478 -270 475 -489 -120 177 206 -142 -320 119 -323 -254 -484 24 -460 73 -106 507 -18 473 471 85 184 -51 -340 -433 126 -490 488 -88 248 -219 -265 213 -393 246 -137 318 99 7 -479 -120 308 506
445 119 205 275 358 -411 124 -300 254 46 462 -458 376 -261 48 486 -146 93 427 -22 118 -400 23 379 220 -212 115 -14 -284 -32 307 -412 205 -404 208 397 128 245 -367 439 49 392 173 362 -465 -195 459 25 423 122 -297 -184 -248 490 -213 -13 57 81 -383 -147 -266 -302 69 93
370 487 -42 337 -87 123 65 -317 -474 5 -33 -29 185 418 416 -221 288 -44 171 277 -498 -207 -422 484 293 -10 -302 2 161 -149 -227 209 -346 467 149 142 486 -57 448 -356 -102 -105 137 505 356 -89 -360 391 28 -218 265 -69 165 -326 -56 -35 -173 -206 247 233 93 226 -432 239
21 -182 -130 440 -222 -371 490 324 83 144 257 341 -450 -248 -237 250 -183 -19 420 -377 -505 437 232 145 -467 246 461 173 -450 -470 241 -34 -461 77 -111 151 485 290 -295 397 -371 174 420 339 -40 294 385 106 -448 82 -282 -274 -79 14 53 -231 124 280 -473 23 182 -348 -310 44
-32 -314 336 9 249 -99 120 -280 40 456 -277 -63 -376 -366 177 227 -351 -177 -505 342 158 -226 -444 221 6 58 315 206 -252 2 299 484 -46 38 132 -284 83 -503 490 -489 310 149 -429 -391 -266 394 119 -71 492 195 198 116 -213 -142 103 488 -339 87 -371 289 239 -161 -320 -466
407 -450 141 13 404 -379 -469 226 -441 -100 -167 -272 264 322 -284 209 175 0 192 434 460 -45 442 11 191 -461 384 -168 39 176 224 155 350 144 63 64 -135 512 -277 -317 49 118 340 -154 70 -55 -128 343 -347 -369 -462 47 157 -284 406 129 -80 268 -11 213 200 75 135 177
-120 -496 67 260 -345 -465 -148 285 -32 123 -271 -309 -494 -212 475 492 -259 -487 408 288 418 86 -350 -196 89 -9 145 -338 302 -149 -187 -142 80 374 -70 231 -482 246 27 -476 -312 27 81 -454 -359 391 -181 -479 -435 172 -91 -195 54 24 -477 -287 15 35 346 150 337 301 -195 -311
-338 306 359 363 412 195 -291 -178 305 106 39 358 -205 -229 316 -373 -458 -307 -255 -295 435 -250 212 383 114 -294 427 -157 -5 -488 160 -340 350 -287 31 -47 190 35 -401 200 -316 455 -276 39 108 7 217 -143 -178 -411 -442 494 267 121 460 -353 -481 -317 -260 84 -249 454 -251 438
-208 -259 86 68 -34 -404 -318 336 12 405 -497 -8 -172 -63 -280 -395 0 -146 412 -153 178 259 156 361 -209 -419 -304 136 -337 -294 -112 -181 206 319 -202 28 30 -311 -309 -305 -393 429 386 -222 -330 278 150 6 -217 -215 -196 132 -214 496 70 198 -240 130 -92 -501 390 25 0 -67
-394 343 -297 -240 290 330 166 -331 -148 -32 -164 -408 -251 -416 165 -103 -29 -209 -118 -157 -122 -385 -137 435 -258 -479 -205 114 -257 404 -266 179 -324 -183 90 -43 427 -275 509 -224 -298 229 -15 118 206 -50 -287 -427 237 277 -225 -362 -259 494 -125 236 187 307 -310 -125 -153 -462 362 -285
314 -169 92 306 279 -435 -169 -142 -491 -20 -120 -288 220 -479 403 -376 431 422 -185 400 -57 280 419 -206 -448 -395 -450 -225 -317 -242 155 -309 394 279 -404 307 112 383 128 -407 -248 -414 -396 -461 371 -269 337 4 12 406 -81 140 396 177 69 -121 319 -11 434 -45 209 -127 185 17
31 -307 -436 34 372 -26 -87 -182 -390 60 88 -409 169 -353 -386 -186 -13 468 290 113 392 292 311 249 -153 -249 -500 -261 -257 -70 434 64 23 -271 -422 281 -264 499 441 56 483 141 206 395 389 492 427 -238 -512 339 453 425 105 261 -96 -238 61 -162 -83 -234 -112 -54 1 -463
220 -77 192 369 -251 -403 229 253 -347 494 -178 162 -472 -232 403 -299 485 -90 -430 486 235 -67 -499 493 -312 280 276 -357 190 -159 323 -476 193 434 160 -390 121 122 136 -220 -225 354 -189 86 -480 -199 33 -447 -85 43 103 441 -238 67 53 341 -5 282 456 -187 -104 -204 496 -14
268 -153 -124 -11 280 -268 508 301 -358 -411 101 -223 105 -380 -351 432 31 -242 -412 -251 130 205 -13 -55 454 -190 -16 -486 464 129 -31 67 299 -147 385 161 477 108 465 481 177 442 -38 376 481 479 -102 230 411 -347 340 -67 115 -165 90 50 -149 14 457 -327 140 381 -384 -124
227 120 -237 324 -208 284 117 -179 -481 320 170 -44 -216 211 88 -118 300 69 218 296 -333 75 389 -440 -91 335 -104 192 507 -32 495 421 -258 358 504 60 -129 123 -58 496 455 224 -233 -454 221 265 -56 193 -177 -387 -246 201 -11 493 -429 -52 -177 185 166 -191 -298 363 132 -29
-370 431 353 -242 -70 -58 -404 -50 492 -438 494 -299 -322 -441 -274 354 -77 -417 -263 475 -191 278 -173 101 -143 -140 -441 -136 408 -503 473 -363 183 217 -279 377 -320 -140 18 -44 -101 206 -345 245 -357 -506 -270 -1 275 174 188 -72 347 214 -191 -439 -490 -247 -237 -94 68 331 -253 80
143 153 365 409 -380 442 42 453 192 -1 147 231 -359 223 345 157 253 157 -352 -86 118 44 -449 -86 92 -323 -506 -327 -95 -140 464 -455 479 -98 206 -37 9 421 -162 285 -356 434 361 370 -308 274 -191 427 -258 -254 -87 -152 446 402 435 -28 -129 -428 -130 -242 -390 -278 166 159
-154 390 361 155 -482 213 -173 -31 -452 310 -404 -169 -31 86 -107 -395 340 -39 281 234 -121 -168 -184 -3 142 110 -5 -469 -434 -94 -247 -246 295 -329 271 -28 370 345 105 -350 -101 120 205 -467 -404 -504 0 -302 -124 -125 456 -477 104 268 307 -476 391 -75 285 418 253 -179 -340 120
60 -120 -112 420 325 -162 148 313 -179 -345 -350 160 97 63 239 480 -190 -225 -17 -269 -5 -254 207 -120 -115 -159 111 -45 -469 -447 207 488 -83 382 174 296 -237 -189 268 -447 304 81 163 -171 -435 285 -483 508 335 341 -122 -334 -395 -18 179 208 103 128 -266 -202 266 -426 242 -262
474 -501 27 175 338 -346 -207 281 -210 183 157 -248 305 -355 232 148 131 262 193 93 463 -220 283 -375 -258 495 -174 -413 98 129 -244 377 -87 -246 304 -43 -10 121 -195 -444 250 372 -104 -38 -14 258 -390 -167 248 87 -269 451 346 120 -7 36 443 -302 -147 -37 -82 -404 -156 -476
151 190 -507 -458 -246 332 -375 343 -490 -500 -126 306 467 -252 350 -351 -87 -76 506 156 361 319 -85 -254 -113 69 -324 -443 154 81 -366 511 -33 281 345 -389 196 -235 -70 0 71 -416 310 402 363 152 -406 -277 -476 122 90 -233 -341 -72 -269 -338 411 268 -264 -243 452 -435 310 -312
217 -200 -365 -492 -443 508 -64 121 337 311 157 -386 0 472 -428 454 62 -195 -28 -275 -21 68 -312 489 -369 124 -29 216 69 25 171 98 -424 293 -179 -409 -83 365 8 -372 157 89 -162 -218 -122 461 -7 140 -180 -231 301 -22 247 -81 -361 113 -509 -462 193 193 -158 278 279 -184
-145 -454 -91 -417 -346 281 -275 316 90 -413 186 -482 220 299 267 301 -299 -196 -353 467 -405 -437 230 -252 433 124 103 -8 -473 -33 335 -254 -379 473 -66 345 325 -304 178 395 -212 -96 21 -382 -358 58 401 -338 278 -328 -67 214 -13 127 -183 214 357 -210 254 247 -389 -145 -254 -486
-365 -505 44 -22 2 263 351 -50 -417 -2 482 -110 -408 -67 13 -270 448 -469 -415 -494 207 -35 -391 408 -196 399 402 429 -425 324 501 367 256 -128 133 45 -133 25 340 -344 -383 497 -126 168 -346 427 -486 406 -169 -442 260 -341 -15 -211 432 490 -390 -338 463 -161 -70 -202 -142 -344
483 -171 418 145 -94 -189 75 -351 -495 303 507 -337 99 -396 352 -9 -216 208 265 -24 427 100 -310 33 165 67 150 453 444 -156 -238 64 375 -367 -260 -142 -106 -83 -301 -371 175 35 228 -339 -347 -104 -338 464 241 149 202 -270 406 392 -77 427 -111 -114 234 -266 -174 207 419 -354
-244 346 495 256 -418 -320 -238 -418 -4 479 -465 -480 -172 125 341 -39 101 -272 -12 -290 -245 407 -31 -47 -484 359 -241 482 -183 21 232 297 38 -260 -109 440 -176 421 -9 -193 -29 -182 -403 76 -350 -305 -332 -481 235 -258 -424 91 32 380 -38 128 -397 -53 340 340 -81 -132 -274 -64
-409 -314 -256 -164 34 -294 187 485 309 -260 436 114 -500 511 418 -38 -392 -418 -136 -362 422 390 300 -145 23 -469 -19 -49 -376 -235 462 352 -41 -275 -300 124 68 88 172 18 -358 -37 467 26 28 -124 -29 -392 -362 267 -154 451 -239 386 110 61 175 393 -119 -96 -335 145 -186 -164
-451 -86 -324 -212 450 12 -207 -338 443 -110 398 -391 228 -238 -117 130 89 -102 328 -306 223 300 -509 63 493 -202 317 -310 -208 -203 214 -13 -141 386 -22 -193 -288 -431 23 463 -334 -9 -260 35 446 -63 396 -260 499 248 -71 -170 -397 384 351 -216 -6 452 -447 -364 324 -335 137 376
298 -75 106 -118 294 -439 69 -471 -38 245 -413 -317 156 143 79 357 -139 -156 454 437 -115 -285 161 -185 356 319 334 -78 364 421 -340 -376 445 -201 374 185 -415 442 244 -193 -211 -440 -131 32 497 406 282 -154 -368 3 15 -2 283 -127 191 -68 377 -290 -230 243 105 480 287 -39
-357 -371 2 -447 99 -7 -322 26 111 -448 340 350 -358 -490 -181 476 484 364 27 69 59 -357 446 164 -492 -39 -434 -247 -70 -132 -407 -84 409 206 337 -354 504 -380 499 -444 -141 510 -83 -403 83 441 118 -313 -256 271 -457 -294 -64 412 -73 -209 241 -9 82 -39 49 -112 -193 320
324 -498 289 319 13 31 -106 56 -1 309 283 324 403 -301 342 217 -495 473 -36 -264 337 -75 105 -482 334 -437 54 -127 -32 -170 -509 -202 336 -296 -285 -210 -183 17 244 186 -52 26 -110 312 465 -276 482 141 -162 104 -234 171 -327 -181 24 -30 497 27 -134 393 -380 -33 310 382
342 -414 85 -149 -237 217 314 346 275 315 -283 101 -302 251 -422 -442 -147 -9 448 -264 -54 -477 115 145 -411 438 456 184 -411 376 -308 -510 361 2 106 221 70 459 52 -479 -447 -338 -485 -490 -263 -211 108 -153 -395 -102 21 -511 213 -137 -292 486 -379 -290 47 239 314 -387 133 248
-505 410 442 -300 -476 390 510 -136 -6 -509 419 125 71 -326 -336 490 18 -265 -35 -151 -260 -61 -388 -97 207 37 350 319 -114 206 434 256 102 -144 -317 475 229 436 -152 -448 37 -365 381 -355 -457 282 35 487 509 -295 -473 -25 229 421 107 429 -122 -37 507 -23 254 155 238 235
-113 -192 279 -185 170 -210 226 466 423 294 -371 392 -327 -229 -379 292 408 439 -216 -167 -316 339 -511 -355 -51 102 238 -41 -502 -122 282 -324 20 149 -65 -291 -195 47 -512 114 -284 463 364 189 -328 -204 35 274 -329 507 -136 363 -495 112 393 -493 -66 -321 -180 425 -118 264 0 493
490 350 -15 -72 -276 245 -195 -227 223 218 -99 452 266 169 -308 -65 -498 -423 -448 337 412 -179 -372 349 229 -74 265 67 -308 295 105 -177 192 7 -481 -314 143 398 68 127 -464 391 -435 444 0 -464 424 -86 396 -359 34 162 -492 462 500 123 181 304 -98 -368 177 430 -91 -367
-70 -395 304 -502 275 428 321 241 139 -119 197 118 -77 69 -450 -241 -486 235 -442 91 -166 160 361 162 -222 -350 504 100 -115 235 -188 -504 -161 102 354 14 489 -339 -96 305 -204 78 -473 279 410 418 -12 -433 -28 367 -403 -486 -499 498 240 155 -473 43 -389 161 -140 -57 413 151
-472 -178 348 7 41 505 -3 -421 -356 -286 -206 -176 -301 458 -511 191 241 -458 -140 12 -390 420 111 355 201 -221 -466 -106 98 36 374 75 -92 156 -448 362 -337 -26 450 306 342 -446 21 -330 -378 -448 -446 323 -400 -37 -177 -55 -210 -369 293 -394 -359 -267 331 -508 -169 -445 193 256
-229 -146 -502 -377 -357 -20 -210 -388 -214 -135 -425 419 -56 6 -145 -359 40 -345 -327 -30 -266 -60 250 -194 478 -68 -15 166 -496 -57 377 -488 -486 -207 141 -181 228 -144 364 -296 -35 233 -383 163 -465 492 -443 462 -49 333 -479 -218 -264 311 424 374 -295 218 -54 -169 476 -450 195 -9
-493 124 -190 -432 494 -24 -345 345 28 -141 -402 324 -126 -279 307 -48 350 247 -216 215 111 -50 -445 79 212 -55 236 365 -500 -368 291 121 87 -80 379 -300 -28 416 -126 440 -498 209 388 -234 -482 250 -510 119 -475 -227 139 400 -337 -212 -459 181 -417 -431 313 -465 -15 -73 -147 451
-178 454 32 -81 340 -426 200 -459 -216 -416 -174 481 370 -264 -234 429 486 -156 54 471 24 263 148 322 189 422 406 -259 -127 247 -274 -61 -408 437 307 423 -282 -470 423 367 56 210 -79 -170 -377 -343 32 248 -226 -261 91 -482 -19 69 53 -481 -113 -385 -156 -359 -176 470 -325 -79
103 391 -196 -493 -380 275 423 72 -491 128 201 485 -103 -107 44 116 -296 -336 -337 -358 31 31 345 18 136 -372 151 -176 335 -259 57 -431 211 314 -380 -407 490 188 -360 22 246 49 239 438 -183 -505 -457 216 38 425 -47 -5 -14 -402 -370 -149 -503 -313 504 87 367 355 -403 52
364 -415 511 -42 -460 88 396 -420 -279 365 509 -84 -151 10 268 96 84 -281 -270 -227 138 -266 410 247 136 69 -329 197 -197 -54 -368 186 -34 -362 213 328 378 -79 147 -509 -433 -194 -178 314 -120 267 220 -278 -507 -57 121 122 417 170 -79 -242 9 330 179 -420 -140 372 -298 412
-412 -115 -73 -467 404 301 363 508 -93 48 -447 -379 -77 -165 351 -3 392 -397 -310 -251 449 56 398 27 -50 272 71 84 -63 349 54 130 208 279 -92 271 324 174 325 31 466 -403 471 432 -67 432 -368 -275 5 317 -281 -116 -277 -464 -24 -88 -449 150 454 -1 -56 -427 -498 -342
-395 99 -391 165 134 -419 -102 -283 167 -277 77 -227 104 -12 -105 -211 -486 -75 -182 177 -268 -319 -170 252 -131 262 445 129 -41 -400 180 -134 375 243 115 -60 -396 437 -81 370 189 -159 -270 142 -134 474 34 306 -11 -241 -375 -392 212 252 -389 435 -481 -29 132 17 -201 80 -339 -61
-40 -435 -166 -197 -68 -298 413 -439 453 173 160 -254 -134 -347 -304 -50 270 -251 334 -227 335 236 -291 329 -431 340 230 -406 -56 -351 -479 -470 59 -409 25 25 -7 -294 75 194 399 456 -496 230 192 415 361 -78 254 444 72 222 352 141 -429 169 79 -178 227 -114 -81 215 -238 164
309 -203 -413 -270 -468 11 -361 -428 154 -446 175 -388 7 -75 -253 39 -64 -265 150 396 -252 -391 365 -305 -70 448 204 164 14 285 240 91 313 -1 -321 -314 -345 8 -276 492 -482 378 292 134 -285 -185 40 -171 252 444 74 -438 -123 -232 43 473 -69 385 277 101 -466 -199 256 342
-121 -12 -205 374 427 160 -413 278 -56 430 347 -316 20 -20 421 -298 86 395 201 -273 216 261 313 -71 4 63 456 240 -379 215 192 462 -55 228 25 -155 -314 402 -221 491 108 -46 -331 -212 -438 -441 -55 -235 27 -70 65 -3 464 335 431 338 111 281 53 59 -76 -361 429 -357
218 -440 189 275 241 -108 -76 317 -75 -174 454 -165 16 26 -439 136 -447 -388 445 -447 -422 -233 144 -459 -354 444 -43 114 -130 168 219 -326 -299 146 -202 289 -409 -149 123 -163 -86 -38 431 -489 -439 511 -290 137 -423 -303 39 -14 -448 -398 -346 480 -281 -209 -112 59 -409 -435 303 493
110 57 -470 -6 -275 182 417 51 414 -21 93 -211 379 -130 -479 -18 225 -19 301 -382 -117 310 29 435 417 112 -75 -319 -422 488 -150 365 -437 -447 366 -490 187 121 -271 389 92 -331 -35 -475 108 -212 -333 -266 -190 352 -408 183 -505 488 389 256 63 9 81 380 -442 -335 -226 -499
136 -166 103 -65 -318 173 297 91 239 15 196 226 145 -10 272 -373 -25 -446 -440 249 -6 478 -41 -204 321 271 -283 277 -247 313 423 338 369 306 105 449 -347 450 373 -476 283 5 168 -46 97 -78 419 -413 60 413 452 464 287 73 -253 -196 70 250 58 -471 126 -462 -48 416
82 474 440 38 -329 -397 476 241 -34 510 -295 153 45 -277 -439 -337 -354 -449 -293 -500 322 -249 -279 -156 281 -131 490 -383 45 65 -228 -23 293 400 -177 -399 383 -230 224 179 -56 231 -243 228 -349 14 54 165 -26 -320 -50 136 427 215 452 56 -236 -90 300 -367 -150 -114 153 -254
98 -431 -164 -349 -260 32 226 223 -174 417 224 448 381 -143 -401 -439 398 303 108 316 -248 -324 -210 443 -484 359 433 -18 -498 39 -207 269 280 -502 164 349 407 -261 -340 125 184 440 409 -385 71 -236 61 493 -231 -327 261 -115 350 154 -73 -337 32 -4 458 -485 369 274 116 277
-374 117 92 -481 -190 329 -504 431 -440 -25 374 399 336 -403 473 208 458 82 35 109 -401 -479 -184 176 458 -403 18 -294 195 83 -146 501 -444 -226 -218 -73 -30 266 503 -116 438 -430 321 379 -443 -358 -243 -501 -399 -423 178 44 -98 22 -163 -273 138 27 -488 -228 -429 155 297 505
355 78 283 -131 -298 253 214 93 321 -198 388 330 -173 -60 -111 8 262 -75 -402 267 -249 -168 364 492 -442 291 143 192 -174 -434 -498 -281 -171 403 265 368 29 -213 26 101 -346 -485 -108 -191 -469 -507 238 493 199 -380 148 385 313 -223 339 -302 -138 -53 -50 -6 -497 493 299 233
-74 260 -404 193 499 -319 221 432 248 262 274 -148 -18 512 -201 -306 200 67 54 -347 -115 -463 468 -507 -268 -28 495 -316 93 208 -76 -261 268 -83 393 -422 -113 -278 462 103 11 -40 -406 253 -141 -261 -159 171 498 69 338 188 -32 466 359 35 230 261 -123 432 -307 -383 334 201
-31 -192 139 -220 -402 313 -420 -132 209 -432 211 10 -348 -458 -250 -506 -407 -509 1 -335 383 -269 -183 -94 442 -362 162 229 -444 29 -428 428 352 390 381 -418 -339 -70 -171 -348 -334 135 -135 -444 264 198 -73 -183 389 -460 -23 -271 -478 -303 507 -257 -494 230 417 112 -256 -167 370 132
199 -397 48 -298 -213 -465 -381 393 38 -241 248 160 -14 -251 -117 78 17 -410 -369 -2 372 117 -102 -273 284 292 -427 -113 -70 8 -444 121 334 -424 -504 484 -2 -25 229 409 -97 456 9 338 -116 14 -180 -412 470 171 -391 292 466 80 338 373 -218 327 162 125 -417 155 -19 376
68 -454 -436 -305 -31 487 503 248 148 -194 -191 -291 346 -89 251 401 406 -258 -462 23 -11 -390 261 -448 -260 62 490 -241 -407 379 -284 500 372 69 -458 158 -38 432 -167 358 175 -96 382 -484 -222 -371 395 73 -244 243 291 -113 -344 -382 236 -67 -401 -143 452 -73 423 -492 108 -26
140 191 21 203 373 195 -88 274 -86 -250 455 345 278 50 45 432 -340 332 -471 -123 -123 419 -339 -71 160 385 -332 44 -183 268 133 29 299 -365 -47 -158 167 -339 -346 437 463 -346 489 337 -117 -451 -231 -340 -326 -458 231 175 -382 -425 463 445 256 260 -256 -79 -281 329 445 251
-392 -390 388 173 -323 -326 300 475 -136 -98 407 383 332 498 472 -109 -411 439 -265 418 351 491 254 -58 443 -135 -189 -287 16 -28 468 61 137 39 198 -154 73 -179 -176 -151 6 -507 193 374 52 10 117 -207 504 184 438 76 -464 -212 26 239 -338 234 130 -269 -285 403 364 -241
-210 88 -431 123 455 493 -275 25 280 -425 168 -319 40 -495 504 -257 149 -110 -328 -373 -104 57 -201 -25 -26 293 185 55 -500 -223 -498 -187 101 333 281 18 -80 -217 509 -367 322 20 501 264 361 -285 251 411 466 -203 -95 -503 -364 -403 77 -507 -338 123 -320 506 64 -14 471 66
277 454 286 490 -148 334 383 -465 455 -208 316 128 330 -344 389 -401 -278 -465 -389 119 227 229 71 -231 -355 236 243 317 333 -70 -291 -139 -305 -217 -365 146 -154 -188 84 125 89 313 -254 -244 68 5 338 -206 -79 -76 175 -391 222 -489 155 489 -427 -453 191 442 -293 64 388 492
-205 -431 26 361 56 430 -415 -382 183 -204 -320 -415 397 -498 -280 294 -7 -484 167 58 368 -397 434 -184 -175 415 -108 374 -436 138 -257 -244 -401 504 503 -398 -209 114 38 -335 476 -13 -46 -140 311 -32 -510 -453 311 -230 346 173 -193 -247 213 5 206 -181 71 461 -170 138 354 -197
-316 177 140 -478 -187 -135 322 -191 -199 42 -149 -165 57 349 446 288 270 310 3 -155 93 215 38 -241 -350 310 341 475 113 417 43 -164 235 130 -287 -260 505 228 161 -24 373 -126 -71 327 454 357 -307 -27 328 81 -349 -251 450 418 -161 -115 249 74 -66 408 403 -494 -500 -93
-419 111 474 -329 421 -487 -161 403 -13 416 -174 199 -104 356 59 428 216 4 275 -124 -323 167 -184 382 -164 218 367 -157 -47 287 -86 443 375 -361 -285 270 68 -444 -426 269 -187 47 -467 -470 -300 100 29 -12 -295 206 364 -143 -397 314 194 -430 240 54 498 230 -404 12 512 41
127 450 125 -397 110 -449 490 237 -338 -155 44 -71 3 -267 95 360 -325 -438 38 -406 122 383 360 -512 108 -251 158 330 -478 454 83 22 234 -487 -511 210 -491 -89 -441 118 -209 -126 -97 373 17 -75 -260 165 -482 -440 422 70 -130 39 504 -455 -430 -340 -391 110 365 199 510 -243
288 460 496 -151 -427 -433 -71 -431 334 -222 487 -20 -173 152 -346 -311 38 34 -149 -497 389 -344 182 -435 391 503 -406 238 -122 -466 -472 192 -119 504 418 -82 -461 -490 -120 -401 94 385 170 17 401 -447 -262 396 -100 -305 21 -93 224 -458 -324 394 402 -297 -6 453 -282 -98 378 454
335 37 -130 181 -206 -395 -80 188 16 -474 305 245 479 173 -263 -349 431 54 365 -265 -353 293 31 -256 -417 500 -273 275 -410 212 34 -258 -132 199 -161 219 297 -286 -470 -447 302 -20 -18 365 -185 475 44 501 412 63 119 65 -177 111 -468 413 278 -369 130 -82 114 -365 410 -508
-352 -481 -336 344 175 -435 -85 56 -219 -202 66 -218 62 -276 174 486 -402 -469 -153 -494 -104 -347 -53 -225 391 30 -146 -201 345 -251 -139 -117 212 458 240 -7 174 388 327 352 400 -356 -184 -353 367 455 243 320 -423 170 241 -142 -53 -408 -259 -313 61 424 195 51 -280 266 -494 -426
-419 -183 -316 -392 12 231 277 -182 -154 177 47 449 179 -189 -69 -395 53 -145 -230 -178 -442 415 510 -276 -71 338 317 83 412 -359 453 -273 68 343 60 40 -130 -107 -251 380 -57 -168 -257 124 -408 -260 -238 108 -512 356 439 259 450 9 -460 200 77 -322 -231 390 218 -219 99 116
-174 -319 -249 354 -304 -165 -113 94 223 -367 158 -142 382 450 0 85 252 -297 331 -230 -197 24 -131 455 312 73 248 419 218 229 -495 182 301 31 -439 144 -231 191 -474 -330 172 -466 122 -256 -469 353 67 317 229 -420 304 -274 -350 -485 -160 -124 -374 51 493 106 94 188 -475 -243
-1 -114 -329 268 -283 -398 283 -392 58 -210 -282 70 339 98 -258 -62 -401 55 -119 44 -398 489 126 -175 -66 170 -298 243 423 -392 285 483 -404 379 141 478 32 -325 -457 33 447 33 322 212 -12 297 145 -128 125 -196 -160 113 -455 -510 501 -296 372 91 356 -163 110 -308 -414 -223
-179 476 454 -251 104 493 239 374 -485 -453 382 -277 170 402 406 471 0 294 -216 -282 -7 128 15 -503 142 -86 332 359 -212 152 473 272 -122 103 -271 198 415 275 -246 -327 32 94 -421 182 -16 102 -272 -283 -353 67 181 -310 210 37 -387 365 -242 -147 388 -411 133 168 155 -72
484 -271 442 -381 -83 -348 165 -363 461 -418 -86 -419 -313 297 -417 -284 -19 275 -14 -325 -363 -150 -416 -150 31 220 -241 353 214 203 226 -180 -347 463 -479 159 -455 -81 435 -387 413 -153 -86 -422 -499 -419 -58 -511 509 -393 497 -374 -437 173 -227 -146 -68 -312 -25 106 461 259 -282 243
143 241 146 -451 -305 -371 329 436 353 17 -128 -31 75 -138 342 320 4 -433 -2 -336 -399 174 -113 274 -374 -218 -427 162 -336 -277 -142 -115 -50 -241 485 -496 -461 -12 -403 -56 360 132 -161 221 367 -269 368 -471 -422 238 -496 15 -349 16 399 15 -122 -110 267 -45 356 111 -427 -435
-424 -328 468 -144 -449 -438 -5 278 81 -17 470 255 389 442 -115 -93 -169 449 -260 -206 78 -385 -13 -377 -204 -163 47 307 65 -435 -425 -323 297 -43 199 153 -143 371 57 469 -469 -102 -236 -150 40 -117 300 -189 -96 -376 331 173 243 -435 -39 -419 334 166 483 -16 -300 68 400 111
-326 -334 -48 -44 311 98 340 291 63 -238 277 64 -97 -365 -412 364 -170 -475 212 423 223 -126 204 -1 117 238 356 345 -457 378 415 -101 102 -117 -456 -488 39 -206 -425 102 -354 178 -12 -38 -107 -100 110 425 253 77 -211 432 363 257 -388 252 -40 -274 21 -382 -415 369 506 -444
-382 -284 3 24 26 477 359 -303 273 407 -23 -96 -492 -431 265 121 -486 158 -9 343 -449 -296 52 -469 177 347 -48 158 10 -52 -477 -428 -408 440 406 232 26 -417 -252 -102 416 -27 -397 241 -322 179 303 -29 365 -485 429 -511 -269 384 357 -297 -17 448 -303 486 -281 -423 271 456
-347 -100 282 40 -310 431 129 218 -46 357 -286 -259 82 278 -156 -485 -311 -482 77 415 157 300 168 -449 -191 152 -39 -315 -71 -305 461 186 483 79 -106 353 286 197 77 -438 493 -100 281 414 -230 443 -327 204 -501 423 -279 45 -215 -240 -414 496 -382 -198 -250 -161 260 -68 -487 153
374 -456 68 481 -229 -442 466 348 -5 151 -239 502 -101 78 -39 202 129 -187 -265 -310 -508 46 -475 18 -239 10 -458 -104 -84 485 381 -27 459 368 -463 -277 -39 -172 260 434 -401 283 76 195 -262 73 -494 382 -15 223 -477 -473 -116 -496 43 399 -251 400 -170 164 -377 392 274 394
352 230 370 193 321 -247 -32 173 -432 293 4 -107 424 306 488 -350 162 200 -446 427 504 451 394 279 -501 30 -48 111 357 467 166 -204 -345 233 210 -422 405 404 161 228 14 -349 199 376 221 -155 -146 -186 92 456 -124 465 -170 -131 209 103 284 444 445 -487 -60 -99 -456 -194
