-210 407 142 -349 -393 -142 53 -341 -157 409 -12 -178 -474 73 274 -3 466 -182 -398 -200 180 37 -397 366 492 -446 61 420 429 121 303 -276 -181 41 -304 -380 -118 -10 289 -434 44 -508 394 4 50 -371 462 80 354 -438 50 40 218 501 -431 -490 -93 309 -162 -191 -214 170 -341 313
-463 3 199 317 -280 284 299 415 -480 445 -461 -122 -494 187 -358 79 341 -302 -61 -69 -104 -59 272 -184 66 221 -288 16 -347 -385 -449 -135 176 451 44 -185 39 -357 -192 248 -270 -13 489 -435 95 -186 463 -77 -192 416 -60 -217 -6 -186 -413 -328 266 167 431 -464 -398 -280 424 328
399 -217 198 -446 -348 279 -395 -299 -262 -330 23 -262 434 -117 511 326 -340 -117 -125 -257 289 -220 -277 501 84 -148 -90 -198 -152 -43 259 459 -446 -137 -494 224 153 -174 -353 -266 180 -392 -228 -336 -430 463 -339 -227 200 31 160 -503 229 -3 -100 -278 -209 346 362 248 -80 140 -251 -103
2 487 -295 75 -165 301 -331 449 -229 301 272 28 -421 -399 -446 509 -209 20 -506 -18 -437 94 358 -9 -53 331 -92 66 -186 311 346 -440 -302 -107 465 35 -264 -344 300 238 -500 239 170 -125 -444 75 407 166 -52 -450 -458 180 -300 96 155 348 470 60 -471 151 447 44 272 -481
502 -325 421 167 7 -422 -236 23 -338 403 -18 -115 379 -246 447 -311 99 55 -249 -406 -220 144 -250 -372 191 -77 -434 -75 -470 -497 -267 277 -462 -464 -507 -417 -43 501 -367 -479 90 -83 196 170 -463 -292 -116 196 38 -352 -116 380 395 194 90 -133 384 -49 41 -106 79 -309 -344 474
147 -67 197 104 -197 44 144 142 147 -193 -449 191 -457 -430 21 -204 364 138 -161 -94 -103 434 -286 58 -270 -94 237 -57 483 376 -212 278 -245 -449 313 -144 272 -339 499 -102 319 461 -244 84 116 -166 152 461 -243 191 -23 -170 412 250 290 -408 -250 47 -290 -92 -9 37 512 233
495 146 -151 -46 485 243 -336 322 -276 -166 106 -390 -146 423 299 297 97 -478 496 328 -18 -312 -399 -333 -442 -294 68 -444 -245 7 -62 275 265 219 46 326 465 186 159 138 453 253 -332 230 283 -251 326 -88 210 -247 -316 403 -451 -434 282 337 -291 -135 -230 -301 203 -156 20 261
-438 -262 -243 -504 -492 -178 -426 349 -248 478 -18 7 500 166 -99 -483 -191 -361 13 -404 -485 -230 88 387 -240 51 239 -44 229 -291 28 -484 -433 403 -33 4 -287 -18 363 128 468 466 -232 -170 -484 -362 203 264 -431 304 468 373 -168 -271 -58 -311 470 -228 -12 392 -142 244 -365 226
-423 501 365 -348 211 -72 -503 274 261 12 367 468 349 -5 187 274 64 383 311 -478 96 -298 390 305 -458 -295 421 445 111 144 429 -240 429 178 28 344 -355 -146 345 -179 326 -61 -337 -479 57 -91 -83 -141 136 67 423 175 372 -379 -305 40 -332 167 491 192 62 -282 107 -361
-94 -69 464 306 -492 -298 280 500 -294 -464 -444 -124 -259 491 65 105 312 -187 -348 182 377 110 80 164 472 -479 -145 -45 408 440 150 -112 -416 -10 -57 293 -158 -277 187 366 381 5 164 163 42 -326 -325 -209 -263 378 222 320 73 -392 489 72 231 438 -444 -178 483 -28 -228 -264
-41 -125 294 161 345 109 -397 -484 -65 -52 -392 -306 -452 -74 -372 437 -166 -39 280 -196 199 -14 -189 -264 200 -217 227 -282 371 -398 417 335 180 374 -425 111 106 102 91 -322 -42 -337 66 -358 353 -489 84 -354 -282 -165 391 -296 -127 -369 -227 450 31 -275 95 329 343 444 14 -53
112 -3 -483 289 -235 -28 -491 389 124 394 -58 -461 -42 -163 -215 329 -199 87 -190 -217 -63 309 219 453 294 247 236 -334 -373 -453 -378 344 100 -184 -135 463 -276 -342 -265 -316 172 -376 -159 242 -38 146 100 -462 -281 244 284 98 -105 -277 210 300 -222 402 -250 282 441 282 -132 337
-131 -271 228 386 -354 230 -438 351 -475 20 189 -118 116 299 145 -89 275 -282 -385 -85 -80 303 -357 -330 -356 461 -405 298 -457 325 398 -238 -241 249 -185 435 376 -204 260 289 133 -12 -472 289 -19 252 177 -227 -228 -506 -227 154 107 -200 429 -483 247 -474 244 -78 210 -59 -299 106
-217 468 261 -252 215 253 159 186 -17 -88 -238 -148 -488 -301 -290 -183 -105 -99 216 437 370 4 -269 -421 -240 8 -121 173 -329 342 100 335 57 -169 -436 464 345 -82 357 247 -392 370 -360 -320 -133 -102 -12 -428 98 259 332 88 -317 -491 -136 246 -361 399 143 271 257 -375 389 18
443 -333 -460 54 125 -62 -110 -472 152 -480 276 -118 386 60 -319 -2 302 -31 -231 367 64 167 278 -462 -314 82 256 460 -145 -396 377 -369 298 -140 47 -1 -234 -430 -418 277 102 7 297 339 -395 -392 -229 -79 394 12 -357 -264 84 -288 -16 -271 175 408 262 502 116 -123 12 454
-90 -167 363 -103 237 510 425 480 -327 -50 -30 -239 351 -181 -12 -322 -360 -294 -109 -413 449 -260 177 -175 390 -25 -63 275 -113 -361 -353 -479 -502 34 8 -151 -500 252 375 75 183 37 422 -145 474 -347 -124 231 199 255 86 -309 282 -357 -189 -113 -407 -396 -362 -245 380 10 506 415
11 333 38 -188 -16 -304 -39 298 120 -308 -130 -326 287 115 123 370 353 129 -111 -358 -242 -107 -142 -258 326 -7 405 267 331 -377 -62 -393 -24 38 -451 -195 292 478 -88 -46 -321 39 -293 -296 239 -251 66 127 281 312 -10 -187 114 -501 -471 140 449 -441 117 256 -293 229 -97 -51
-414 -144 -364 -116 284 170 346 -330 315 232 198 -138 -169 363 489 -123 -246 -348 -130 9 -376 -153 108 99 354 128 -63 -120 -91 -43 352 -409 -415 -42 -19 199 34 105 113 265 243 -10 -330 263 -420 -89 -495 306 -109 -162 84 -232 385 -482 352 29 93 322 -276 370 -452 38 -442 207
-14 32 222 -132 193 -281 -267 96 -86 -71 -468 9 232 -232 -106 -43 223 -96 -511 287 -205 -372 -305 90 478 207 -197 -137 -214 426 -234 -412 -394 330 -6 485 -499 15 -221 60 406 -184 -104 -461 37 225 -279 241 138 -404 204 -104 215 413 17 -447 137 151 -382 -428 -119 3 -103 457
-272 -207 168 -467 -85 -203 218 351 -266 454 125 -147 -250 371 -252 375 108 487 402 196 58 -28 294 -192 466 -20 -357 188 -4 -370 -198 353 -288 -25 -245 -371 403 201 -56 61 397 -133 343 164 103 483 -185 481 379 407 325 -386 -390 -362 166 -405 268 508 119 296 -352 94 303 -312
212 -29 -1 -31 -49 -30 -371 -236 -84 -403 162 135 433 252 119 489 -376 -383 -207 253 -129 193 130 283 -305 466 -38 -232 -332 -344 413 285 123 101 -255 28 453 -161 -90 435 186 509 39 475 339 192 218 -98 303 504 -6 265 172 -287 23 -474 170 -494 -448 482 -347 21 -469 -506
468 442 -396 -384 395 -204 -134 -265 452 29 -217 144 -19 308 -432 -363 502 349 328 -355 -323 389 -121 129 -92 287 -489 -385 -128 360 35 -386 69 -253 -228 170 158 398 -246 -408 -336 435 -251 -347 -323 -233 -53 -101 379 -147 -46 -410 -84 -149 108 -185 33 50 211 -352 444 152 426 443
387 -313 -248 399 -275 -315 61 -366 -489 278 -4 -500 314 35 -254 402 -281 -340 -224 413 230 -133 -461 -143 -257 -80 -247 -385 182 -275 -8 394 -468 198 471 -189 -452 367 357 -389 48 132 -401 -208 -344 -446 254 -157 122 335 -140 -144 63 219 421 4 -323 -19 484 314 -220 90 279 325
108 -480 -264 300 111 -56 125 -152 -54 -438 227 -405 -143 397 -265 -418 -17 197 -251 -284 -115 208 -471 20 -87 249 430 -392 408 483 -257 66 -20 -459 463 27 354 -489 3 155 32 44 -289 -157 313 425 491 194 418 -40 -294 -323 -214 -306 28 -416 294 -427 -367 268 406 78 68 370
-215 -172 -416 -89 480 404 -302 -463 -143 282 181 -67 -8 -142 -112 -210 -507 176 489 -3 -75 -416 -486 42 -438 -445 238 233 146 415 -46 -41 40 -485 52 131 -239 -445 161 -359 252 -195 -206 -179 -284 272 8 -336 -507 -334 -90 364 -261 243 414 -81 508 -193 -23 -486 360 168 -171 422
-295 170 -205 -121 -102 467 -210 172 63 -481 -342 -290 290 -109 104 35 -350 275 -250 -234 -10 36 442 368 11 2 441 -230 -178 -119 148 -138 -285 -65 -150 -75 245 74 -483 -153 -487 -286 -496 -156 -281 390 -364 -179 334 110 -76 -410 -325 -280 -87 -39 -406 -100 -306 -393 226 -13 293 -276
104 -463 273 219 -48 257 201 450 -450 86 405 -18 334 458 506 317 451 -44 155 -141 370 -368 -382 211 188 -32 -55 282 498 363 -121 124 -144 306 -265 -202 -288 352 -87 99 246 34 56 -56 -236 119 -490 104 -91 481 336 181 -245 -307 -251 75 76 -289 273 -323 -251 29 -15 -53
211 -340 -181 -438 -373 -207 442 -353 257 87 421 39 -213 47 151 -310 9 434 -103 -89 -172 -86 172 -260 322 379 -89 473 35 -262 -404 -51 342 -327 451 234 -132 -172 156 -489 164 412 -90 131 360 -72 -49 434 387 24 -177 -56 20 119 -429 -339 -44 -316 191 -485 401 -23 46 -178
-104 85 402 -196 344 138 -232 508 -116 337 312 -310 -305 -182 507 339 -385 -497 -249 -25 385 53 272 182 397 -167 -98 -129 422 -222 -3 -294 -318 -211 26 -421 144 462 -390 -56 87 -511 179 -383 -133 -234 -353 -392 -278 -421 -241 -404 318 257 51 -385 -468 -437 -477 -373 409 -328 408 61
-102 -33 174 -389 -182 -129 -398 -83 -30 213 370 -16 -444 43 89 293 361 38 323 469 -225 -43 -39 -6 2 -81 -230 419 39 420 -70 -178 262 382 -158 482 462 486 -149 270 -153 -160 -81 -296 -207 104 -32 477 392 270 -82 467 447 130 60 -454 -375 -90 -58 -370 54 -96 -60 312
-431 39 492 -377 391 272 417 435 -48 -110 -111 -75 -287 -265 278 320 -13 23 319 -227 496 -142 393 74 291 496 168 -48 133 437 42 422 260 -164 415 59 -79 500 -400 88 414 54 -500 -405 307 24 -93 -464 -391 -70 -65 -361 -409 498 -493 -241 -455 322 -137 -245 437 -502 -242 226
-36 -339 -8 40 448 315 492 -375 -401 -6 247 -301 -335 -1 -454 -330 94 432 -499 84 -399 261 -190 -434 -221 -338 -229 -301 134 -403 116 -505 -184 57 -165 329 442 -466 -507 97 433 182 40 -297 -504 238 358 -294 -486 -153 425 -459 -201 -195 -99 510 -493 302 178 186 -2 -203 417 -119
-126 -206 442 413 -37 -297 131 -253 426 -73 -462 489 236 375 -308 88 -454 -100 -226 311 101 448 298 229 -459 -359 68 371 -340 -291 100 480 137 -58 -283 -171 -115 64 -348 8 498 260 -417 198 359 -125 -377 21 -352 432 -507 240 499 457 -168 55 497 130 -444 58 381 -167 -57 -453
484 41 40 282 290 -452 256 78 330 -142 1 292 63 -333 103 -132 55 345 365 -267 237 113 33 -310 259 -318 380 -121 -475 452 471 402 -187 -417 171 310 383 265 57 22 193 -435 180 441 -102 -302 -141 216 219 -42 -150 31 313 157 -392 413 -6 154 -435 140 193 252 269 280
-454 170 -341 212 -135 -375 -486 -320 73 -176 470 -294 271 -77 -74 -410 191 192 -336 335 111 281 135 449 -343 321 247 -68 -455 -188 463 319 195 320 383 -248 -426 -504 -207 -272 -234 317 -28 -501 -341 426 -438 -236 361 -373 378 -79 90 -462 322 -414 -283 -300 -288 251 -258 -464 459 -142
-454 -457 286 97 -452 494 95 -334 -421 134 375 313 -512 21 323 482 478 -267 -370 201 386 503 -259 -5 -461 -367 -118 -390 98 99 53 393 147 93 -302 367 78 310 460 147 -497 -48 -340 296 -404 -157 354 241 -263 -358 -485 -261 10 172 431 436 -364 94 25 411 106 63 385 -236
249 269 446 247 -148 -421 -386 -263 -72 478 447 282 -389 453 -39 315 496 147 28 -110 -486 343 234 -197 390 -258 152 -500 137 425 325 133 -172 -127 331 376 20 -468 -53 440 -269 -196 -244 -510 -369 -407 -320 302 52 -394 -240 -14 -188 369 22 -428 165 186 -418 166 -193 293 233 -404
-60 68 12 -183 221 -163 -244 -68 55 429 326 -22 226 10 277 446 -392 84 -420 -492 107 -87 200 209 19 475 -360 -231 -428 -203 463 -308 298 -3 331 450 -202 -75 21 -23 -389 -240 -398 4 150 -8 311 313 -158 -181 354 385 416 292 108 -111 -446 -303 -109 353 -81 -77 185 -209
-233 103 31 -59 -194 478 462 416 -434 317 -281 -227 55 -274 185 -226 349 161 95 82 -228 148 11 398 -442 -347 183 254 250 -236 -492 -359 228 47 -178 344 -499 -148 498 -299 -245 282 451 276 239 -294 177 -322 -481 -71 -123 -505 -46 421 -139 205 -86 448 140 -342 -391 456 64 -305
-458 503 263 401 -318 50 -374 -6 1 -348 363 -493 404 98 -342 -441 288 -307 -484 469 -345 49 121 298 -192 -140 473 417 91 233 -348 -83 -217 484 -256 -510 358 414 -261 285 48 -358 415 418 -203 372 405 -114 443 -287 -245 241 -94 -478 -260 -441 299 308 401 465 -487 29 -471 294
-260 457 207 300 -307 -101 -360 -67 -78 258 283 -304 470 297 -423 -453 51 87 -175 -108 -366 -398 341 -42 41 -148 259 181 -507 -68 348 32 -310 -472 -473 -462 -152 353 -293 -334 -186 247 120 373 15 38 162 22 506 154 -96 -434 -260 129 45 176 468 -64 -416 -45 -369 -357 473 -59
66 -378 -439 295 -402 319 -132 -416 290 431 -181 453 425 -415 -272 -75 -187 -156 372 -116 255 -132 -365 399 480 -293 -444 419 -292 -200 440 -401 -125 247 324 57 -332 69 379 274 468 -487 315 500 429 -51 210 -331 -199 275 -396 -468 -470 214 385 89 99 80 345 -437 369 -388 -331 136
147 381 463 500 465 384 76 -270 479 -478 231 -101 113 -149 -222 -84 -419 114 69 -276 459 -368 490 -2 -158 43 42 -173 453 45 345 -330 1 -102 -509 439 -66 219 101 -180 -262 455 35 271 368 -429 -435 -504 -130 12 -503 221 -157 -39 436 -405 -140 -387 300 491 72 134 95 484
-89 -292 -392 -110 -275 451 282 -398 224 -219 -313 77 -221 485 -311 501 354 -429 171 479 381 217 386 -118 153 -503 -286 492 -128 479 -87 272 107 157 20 -484 -468 356 40 -235 404 -236 -161 168 -346 -85 -360 506 -175 411 -130 258 74 22 -62 327 372 349 -38 -119 219 45 148 -22
-33 -416 199 -291 481 -263 -147 300 -453 189 -247 405 414 -198 -484 -56 -247 -87 22 496 275 43 453 16 274 -449 -438 -346 138 -171 -432 324 39 122 -367 -2 322 40 -446 102 146 135 -331 263 219 -416 213 -184 -126 -59 182 -186 -278 -13 239 363 -345 -465 -113 -149 -195 -376 -244 190
-465 -67 242 356 -492 -264 -65 -365 511 158 426 242 -78 490 84 19 -163 67 53 108 152 250 -254 -102 -457 460 -374 -74 304 75 -317 444 454 347 351 -178 -281 -307 -394 343 -163 6 -160 -314 -32 463 490 143 152 -187 98 -56 254 -160 23 154 247 383 98 -99 -266 73 -320 -45
409 406 364 102 -171 427 51 262 -331 -277 -345 144 410 -88 -58 -206 461 204 441 -202 -95 479 -5 209 124 333 105 -309 -163 -428 424 478 -378 -181 -102 61 73 94 -308 -88 496 -198 379 88 318 394 260 298 -112 263 465 255 -236 -367 -150 -217 397 238 -226 120 207 -177 349 -431
94 -371 -170 -362 -255 101 481 275 428 -94 -90 438 -258 114 -32 -227 -315 20 234 299 -481 100 -71 -356 430 -503 337 122 -4 200 335 354 117 419 266 -273 91 -329 250 345 251 -31 -286 -54 -240 -407 392 297 393 53 -177 -501 170 50 -356 -188 264 -343 100 -50 -193 -66 -226 410
-255 48 -258 -425 128 38 278 0 347 -152 305 -103 -500 191 -187 -456 210 45 -166 276 -237 36 -47 188 302 400 155 -466 371 -79 -83 182 184 48 341 280 380 -408 205 -291 -167 -251 -212 -74 508 -26 -84 -473 -466 -455 52 233 -317 -429 -446 -440 197 -370 -263 -109 -503 -216 -258 199
-461 -290 -110 506 315 50 467 327 -104 -125 345 -2 -402 -28 -104 -19 -206 18 125 -189 -138 2 -478 321 -420 373 351 198 -245 -271 398 325 -99 307 218 -115 -264 224 -319 211 250 -429 386 -183 49 200 42 241 -157 191 93 -133 -452 -436 -482 -185 307 -256 -88 443 173 394 -229 323
-262 -88 273 300 332 -91 -356 -49 204 -214 83 -354 -508 -14 112 145 -222 252 168 422 -15 187 -18 175 314 -465 263 -364 105 99 -258 250 -347 -226 127 378 170 -52 367 360 155 468 -205 466 221 -214 482 -226 -298 257 178 -354 -75 294 -160 -461 484 1 211 -162 -290 47 -421 312
108 -25 212 -272 247 -107 470 -320 62 105 -462 306 -62 -494 -2 489 -306 -473 447 -196 483 111 -127 113 438 320 287 -107 76 321 311 149 210 -258 235 -449 240 259 -48 -212 494 190 -380 -170 11 460 221 281 -41 -158 -238 -271 207 469 -123 -507 415 -33 299 -244 85 -272 -241 -68
-285 -225 225 -444 387 -26 -478 -168 -21 -307 -497 340 -422 314 -235 28 59 323 401 -95 -493 -374 15 165 -162 159 26 -136 -122 -452 -385 405 -66 71 196 -82 -216 -154 425 340 340 -369 -337 81 -4 -427 -389 204 -45 36 -489 -414 419 372 -275 -214 249 -391 -470 -355 -484 -138 117 210
187 -94 501 509 -169 166 129 -210 79 -166 -431 297 -369 280 184 356 -69 -235 29 331 -13 -332 -394 245 201 -125 40 95 46 290 500 -167 478 -365 -152 449 387 -371 414 137 176 106 259 265 370 112 309 -370 280 -367 3 -21 -421 475 158 -58 -166 -63 -162 -492 207 128 159 224
338 189 163 388 -53 396 303 176 390 -201 413 -89 507 235 115 255 -471 209 -281 146 -317 -343 65 -356 123 427 324 -172 -228 -440 -140 270 -464 232 140 506 -468 367 -354 -111 495 -483 -496 -97 -150 1 262 -458 -443 -490 -452 388 -116 324 -218 -156 -252 -309 -489 -495 -183 -495 285 -381
-94 -458 -104 -146 248 -489 -380 -176 -445 -500 -425 -505 47 93 -91 -377 -93 -307 -263 439 285 -118 75 -357 102 167 75 -45 -73 99 -455 -218 -442 340 10 193 409 289 -213 261 -317 -19 154 -404 174 -266 -364 74 -469 302 0 29 321 -281 160 372 140 -332 391 -321 -182 486 264 273
-315 -118 -505 317 251 -298 -280 439 317 415 -68 -73 42 192 -501 -374 -112 94 328 -93 -166 193 377 155 338 -365 381 298 137 495 -213 317 114 194 -32 228 -448 196 -364 -440 41 -240 -492 6 -82 189 -242 378 444 -242 320 295 476 -273 -317 440 418 -310 305 245 234 129 -126 -174
-455 -271 416 38 243 -63 -135 451 -27 -26 17 -18 409 -133 -205 -491 212 280 -466 124 16 -73 -61 156 -150 -30 -248 -285 203 491 -330 -341 -396 -169 -28 386 251 -446 382 53 -28 -375 -320 511 446 118 -291 209 -386 -191 123 260 -230 287 -502 424 -65 -256 240 322 84 -55 42 458
92 99 -397 62 367 367 -190 418 135 -2 -29 231 -29 -432 242 142 508 -360 89 0 -279 496 490 184 -300 -419 -199 -354 -187 468 -294 206 242 -118 48 199 -116 -381 -164 273 176 252 198 432 -387 -74 377 360 63 -160 -28 -227 220 281 -386 -106 349 -359 380 -156 -406 486 333 -112
262 -464 311 -345 132 164 -283 379 445 309 -125 235 378 115 417 50 -108 201 113 -8 -293 36 45 -90 33 -49 -260 27 -296 196 342 80 133 490 77 -292 -173 367 -6 -95 200 190 81 -309 166 160 -358 114 430 -21 -424 504 461 -329 499 31 202 411 382 413 26 -19 362 -36
355 496 -367 -259 41 -245 -92 -83 -34 -186 116 -438 -38 389 -181 403 -353 -291 485 -238 485 -319 -383 494 -63 104 -179 -385 -265 -128 -506 -326 77 372 -318 24 250 -210 -454 98 453 -209 129 296 297 -265 451 99 136 234 269 -451 132 157 -83 -363 -58 170 382 -445 353 -226 171 -30
-265 262 259 -9 -512 -254 214 -384 302 -244 -15 -14 242 52 -479 -357 -265 275 -294 502 -504 481 -413 -41 272 -228 204 -148 158 -206 201 74 82 -424 -444 -136 341 1 180 -134 -40 66 261 421 40 57 243 479 103 -157 16 508 462 -247 175 -353 -339 1 140 100 -310 424 -56 253
-144 34 -90 63 -411 -444 -121 165 421 -82 126 379 -20 -197 92 118 -182 -255 -244 229 -510 342 50 2 -474 -77 272 46 173 -180 209 -285 409 226 186 29 363 -94 469 114 -419 399 505 -149 -453 -298 -143 492 -58 203 456 -204 -344 458 -173 240 340 135 -462 493 -243 119 105 162
401 -339 22 266 -112 490 -502 -403 -160 -4 -343 24 441 -476 -112 431 -67 -252 -369 -204 240 264 -365 65 -465 150 -151 -24 -138 329 -361 103 512 136 126 395 -260 149 -350 234 247 -347 235 73 -373 -251 -118 288 354 0 -428 -341 367 -113 -135 -156 400 -34 92 297 -17 -511 271 -50
