0.0439738854765892
-0.03412235155701637
0.018005453050136566
-0.03780974820256233
-0.039820827543735504
-0.02625720202922821
-0.04851015657186508
-0.0760660320520401
0.04711060971021652
0.012122802436351776
-0.07830631732940674
0.05734560638666153
0.055146194994449615
-0.01621866226196289
0.03574419021606445
-0.04391380026936531
0.05215699225664139
-0.01321161538362503
0.04777713865041733
-0.039556946605443954
0.06943415850400925
0.01115572452545166
0.018778160214424133
-0.08488034456968307
0.08484562486410141
0.05028858035802841
-0.060171980410814285
-0.06648702174425125
0.014741428196430206
-0.013542689383029938
0.06440725177526474
-0.04435599595308304
-0.016010522842407227
0.04342261701822281
0.031673528254032135
0.05723152309656143
-0.019244231283664703
-0.04680044949054718
0.06251721829175949
-0.0447513647377491
-0.05925950035452843
0.0789819285273552
0.030628159642219543
0.07553885132074356
0.08319246023893356
0.07711025327444077
0.055319853127002716
0.0558638796210289
0.05909448117017746
0.03557039052248001
0.012079626321792603
0.058321066200733185
-0.016268610954284668
-0.04843989014625549
0.0216204971075058
-0.0036242157220840454
0.010624885559082031
-0.07326582819223404
-0.01991436630487442
0.07359126955270767
-0.0074409544467926025
-0.08560341596603394
-0.06865028291940689
0.013266317546367645
