234 283 117 -155 58 -287 55 -81 4 -318 -257 73 100 338 109 326 -72 -309 24 359 -81 -99 -207 246 -360 35 8 338 65 361 351 353 -53 -292 30 -286 -226 171 -303 -310 40 249 245 196 -195 265 -277 -244 -261 261 -267 276 -109 50 237 212 -121 -315 -107 5 262 5 -213 179 52 235 -33 -333 6 -151 -124 -151 -67 -281 255 -46 18 250 28 136 215 -322 -285 324 -115 -178 167 227 67 -102 71 230 -105 198 264 100 -191 239 -179 344 190 -100 262 -215 103 257 267 172 189 133 -13 -286 -32 264 -47 274 -313 120 14 -8 -34 164 -123 20 50 -352 -129 -79
239 -112 11 -10 153 -10 326 -111 348 -225 79 40 -293 -305 59 156 33 213 -149 -231 317 -254 -268 -65 -357 35 -61 319 -108 228 -10 239 -188 188 46 99 -78 9 -343 27 183 -256 248 -16 -294 -63 226 144 267 219 -108 152 315 122 -266 -82 -186 216 71 122 114 -306 -101 54 -225 -215 179 39 195 -180 -187 -231 -203 62 208 185 303 60 152 321 253 -281 -49 -252 -344 -216 -273 0 39 237 344 123 -77 318 335 -131 4 -16 253 237 61 9 7 -324 -181 225 -103 -16 -274 -296 186 -114 104 -167 30 -165 331 -240 -292 208 -61 36 343 -192 277 133 -168 -108
93 71 -292 -65 -120 335 162 339 -11 114 103 135 202 32 -238 220 52 270 -201 -335 157 7 107 178 44 -184 -131 303 -118 -341 70 278 -80 326 -134 152 74 149 -109 148 87 204 -11 2 349 361 -120 -63 214 121 105 -353 258 50 -184 -341 361 -90 -245 -224 116 -137 97 -224 267 210 152 142 -132 -300 -12 -81 339 246 -99 306 -258 -232 65 -150 -243 -159 275 -306 10 -121 238 40 262 -135 162 49 -237 -30 -10 294 -210 -15 -288 186 210 -71 -71 -302 9 95 -54 115 41 55 -320 -114 317 26 -40 -351 143 -346 201 -46 134 159 316 49 -113 -203 327 302
351 -219 -271 -270 212 -213 236 -331 72 -23 -108 220 -47 253 -37 262 27 284 -295 359 110 -121 -9 173 129 -35 63 -62 59 -236 -123 237 284 140 -65 -183 202 -50 -352 -205 -38 193 -246 191 -54 -79 179 189 -342 288 34 55 309 65 -74 346 144 -153 -306 -159 -214 -316 214 -173 -206 101 340 -319 211 22 203 -221 337 -19 -172 200 -153 -81 -135 -306 -260 360 -290 -164 166 -154 -347 -343 -221 -342 278 289 278 191 107 66 185 -313 -152 12 -240 114 -346 360 112 44 -253 121 -228 -269 -61 151 -60 -53 196 -21 237 -3 80 -191 -50 -43 231 139 -19 281 -81 65
198 104 291 295 -50 270 -227 28 305 -129 -14 173 -97 276 -74 -328 -328 -19 288 247 152 -49 -113 -242 -105 -324 113 312 349 308 -149 -24 252 15 2 -283 264 -76 -284 238 -343 -86 173 233 127 -332 -125 -231 174 102 -328 256 197 -76 -304 -170 -274 127 -67 271 240 270 -336 -177 -307 -150 -103 317 -338 341 215 216 280 -41 -292 48 -179 76 -206 349 -145 0 90 19 202 182 -332 359 -247 141 230 132 -313 -13 99 -327 205 -153 -33 -89 -247 174 1 71 -6 -31 339 -6 74 323 103 -170 -94 4 97 -218 2 -15 -344 -346 174 -189 70 -52 -287 -290 137 154
-198 -145 217 104 -116 103 -35 331 -75 -132 114 86 -90 -48 62 69 -56 -29 -248 200 229 -324 280 -216 112 -298 127 341 134 251 23 -125 86 11 313 -149 262 -93 64 37 75 -249 -112 -16 11 90 -107 207 -229 109 284 38 -231 -259 -183 -118 -328 -170 43 103 -230 -89 323 352 -307 -166 -149 -339 -132 80 -209 -322 -152 -281 209 10 228 161 -179 321 269 9 -1 -342 -361 127 -73 -245 -194 -204 1 -253 -195 254 -16 -283 184 244 171 41 250 235 216 -111 -231 -20 -58 328 87 -220 107 -124 261 -11 327 334 207 -253 -318 -59 -337 -10 -49 239 42 -147 286 117
-326 272 224 128 48 -327 258 -225 -51 105 280 -202 81 334 248 -209 -344 -178 -164 -157 -146 139 294 279 -180 -240 -41 338 20 328 -168 308 255 -42 -238 -218 -62 71 -343 -211 347 -175 35 -203 41 287 -140 -188 351 -146 285 189 115 -191 -200 243 -257 345 67 204 232 348 -196 -198 -34 236 208 -133 322 -70 342 230 68 172 344 256 101 -49 290 -132 -305 -276 84 215 173 -281 -122 209 79 -343 -83 -172 -198 -49 -347 292 194 -230 180 244 -348 251 280 245 -77 -286 -143 312 -286 -246 -359 -13 293 245 -102 -126 293 -327 181 -317 -27 187 57 -136 -164 -30 -358 -304
-239 8 86 330 -213 305 -181 -90 24 -32 178 -284 -102 -315 5 14 131 -112 -37 -189 -115 119 185 305 -38 299 280 22 -306 113 177 112 -144 143 -240 267 -77 207 96 191 47 -98 -138 -263 -124 148 130 190 113 247 11 1 203 34 16 -332 -118 286 309 203 238 26 -250 -170 -284 73 288 200 -121 347 175 50 312 276 -185 303 -178 -334 -354 -147 -120 117 -16 -35 -117 218 -110 25 -238 253 231 79 -246 151 262 231 118 11 353 206 -150 -49 -347 145 -357 -195 257 -23 -353 -145 -251 -103 257 222 343 185 -182 138 127 251 -165 -349 102 -359 252 328 -158 40
-236 163 155 -357 -103 -90 30 13 302 344 16 -74 -294 -56 160 89 121 120 344 108 -49 -51 191 -229 162 195 -237 330 190 -14 198 69 293 -17 -317 113 -12 -164 -84 52 -169 240 39 191 198 -271 319 -106 281 187 -134 -277 301 -299 -265 44 -301 -138 136 196 -324 48 -70 -279 -282 -280 351 154 -75 286 9 -94 77 177 121 -248 120 24 279 -151 152 -261 103 212 -232 -29 -234 -65 -239 -133 -134 82 -360 109 -262 -183 -52 -230 165 10 -339 -346 137 -65 -255 205 267 290 154 183 -72 96 -341 -25 142 180 -287 -10 352 -128 14 231 -94 -112 135 277 336 -308
350 -12 297 -312 261 -240 51 241 114 -211 -262 177 -61 156 -179 320 -137 18 -183 16 -29 -117 -67 133 110 313 224 -319 -93 358 27 -201 250 116 -329 -281 123 -71 187 -19 217 -355 278 -347 -290 -226 -6 -276 -116 39 47 -101 180 348 -129 -120 -15 -200 -116 -348 257 306 -26 -45 -10 -251 283 211 -307 196 -337 -309 -150 337 -358 -152 -317 -157 -130 180 -115 85 144 267 27 -113 124 -69 -100 -355 -269 -52 327 184 -207 101 -12 -78 57 -103 121 -93 113 126 311 -86 238 -41 106 239 168 -133 171 181 356 -88 -306 -20 -12 226 -91 -27 -79 219 -326 -141 48 214
235 7 -351 26 204 7 -257 -277 260 242 -145 82 -323 -52 -183 -152 -300 261 345 -35 224 122 326 -1 -181 -254 -192 -91 -155 -105 265 -62 -96 -105 -130 -307 -210 -94 184 13 7 98 -346 -159 -290 -65 100 -51 294 318 88 -128 242 106 66 87 -45 302 -296 -185 199 -53 -346 -215 32 -208 319 -351 60 227 185 325 172 32 -354 -51 -29 120 320 -187 157 -239 -244 -284 -325 324 -66 134 -360 -141 -353 -299 319 -307 -171 -164 346 -138 136 220 -309 125 -15 38 4 -113 -291 357 190 7 -189 19 -144 -39 243 281 -15 179 -103 -327 58 209 -300 -296 311 -244 1 -297
80 -14 120 240 274 69 -55 51 -146 -233 -210 7 230 46 8 -120 193 212 251 -222 152 -329 -175 80 -11 319 -32 235 -220 -316 274 -251 78 277 -96 -311 -173 211 343 43 -197 333 -311 107 -109 129 -197 185 218 315 224 -330 -93 -35 323 214 208 -235 -259 -242 -60 -245 171 137 222 -71 17 214 -346 293 -140 -348 -64 -325 -94 -296 64 -154 94 -174 -132 -46 -241 235 -185 -10 -204 -196 254 186 -168 20 -95 -156 252 -352 227 -37 11 -222 9 -107 235 82 342 221 -287 173 -146 -3 -93 -103 -99 -338 46 287 -3 303 -113 268 -99 -228 -230 -351 198 88 289 -141
149 301 283 349 -199 255 -215 -119 -20 -231 20 250 -328 -252 -269 -60 -243 -61 -238 -68 301 -290 87 223 -260 -196 58 -203 -122 -196 163 334 -102 155 40 121 -85 -341 -160 -71 248 111 169 -267 -197 80 149 -83 -132 106 161 -202 -13 213 162 31 269 262 118 -253 143 -36 -88 -357 157 -249 -261 236 -90 -52 235 -120 -355 -237 -302 348 -228 -106 -60 -270 89 -236 249 -173 112 80 269 -235 259 -152 -79 4 145 -70 -25 -31 119 -257 261 133 82 -206 44 -350 319 -249 230 266 247 224 205 -233 -65 197 -249 -240 292 -248 149 -185 -41 -359 -361 -117 -303 -121 -45 214
-278 356 -31 191 309 -338 217 102 70 5 -328 133 -334 -17 -215 270 216 -29 30 -34 90 -354 -297 -340 83 -361 -133 -257 -45 -260 240 -166 -105 -131 112 -253 350 167 112 264 -189 63 -267 -176 360 127 -338 -347 -298 304 277 145 26 -70 -40 187 49 -207 120 322 -362 324 108 83 233 -41 -347 271 -120 -187 -281 -169 -180 -361 167 176 -202 -13 257 160 -256 18 48 290 172 21 -41 81 -21 -115 -142 -309 295 -299 -226 303 -83 159 165 109 -120 165 274 357 272 -71 314 -246 -175 -148 275 -31 5 -307 97 273 74 135 362 -93 -232 -274 -258 169 270 86 330 -66
0 305 -271 -323 283 -76 119 -221 301 207 253 334 246 359 -106 -166 -184 45 -216 276 -106 -66 156 -196 46 123 -281 247 226 -57 245 -206 162 -221 -162 -311 292 -115 352 203 -220 127 343 266 359 -214 331 -264 344 -332 -24 -36 -65 -83 343 75 303 334 -195 -84 -25 -332 -231 20 164 -359 70 -329 43 -360 -166 -65 -192 266 -328 -77 102 156 -18 68 287 120 -284 133 -358 329 -229 -53 -133 -284 -87 312 -86 -191 -125 -121 -187 -341 -199 77 -154 -206 -25 -192 -296 74 -352 250 -190 -181 239 -124 76 -17 92 154 -55 -89 -68 -34 159 82 262 -180 96 39 -166 -194
-258 -224 199 200 -271 -105 -148 -167 120 -127 75 -55 -250 -265 -219 -140 -125 -320 37 12 112 -341 -189 -356 -356 -245 -70 166 110 -234 -273 130 -296 -125 -361 -352 182 -127 -263 286 -192 247 42 -234 -73 -154 72 -59 151 301 -46 104 24 -75 322 57 331 134 159 -139 76 117 -342 -342 274 144 71 -358 178 331 362 -134 123 299 -46 -139 159 78 32 99 248 -223 340 -353 337 135 -344 300 173 161 31 314 198 115 -199 357 292 157 -1 154 -128 -219 -118 94 -138 -304 95 -350 318 129 -359 342 51 215 -95 -281 -149 -113 350 249 -168 -94 307 -236 -304 188 -179 -53
-276 -46 284 -262 -287 -113 233 -69 -270 -269 -24 222 341 -17 271 114 13 134 -299 321 44 -257 -91 319 308 27 225 -217 281 232 181 36 -277 -65 182 -121 -82 -292 -207 -301 21 145 -177 -235 -5 40 -128 333 -202 -26 -9 229 100 -291 47 -268 -31 242 -259 139 -200 138 -302 190 -47 -247 -44 93 -245 305 324 -232 -180 -301 169 277 -23 220 203 -240 259 -204 306 -299 -286 -164 335 13 85 -34 -277 165 323 315 -221 44 144 191 34 -356 -204 -85 358 57 64 -134 -26 -33 347 -268 -248 -127 -259 -45 185 93 164 -137 -71 173 -243 -265 -302 -29 -4 -193 -58 81
358 60 -68 145 93 -123 -197 -250 262 47 188 329 144 192 -264 286 135 -160 175 351 160 152 -294 -135 26 150 95 202 320 73 -225 -289 37 213 -329 248 217 -108 -26 -1 -45 62 261 340 15 -236 54 244 175 167 -52 253 219 -309 -250 -49 -253 -252 66 207 -47 -304 -342 71 -198 193 -289 -285 -322 207 351 294 -97 341 -287 -324 265 125 65 -85 19 -201 39 -354 87 70 -9 -60 14 -7 340 39 -322 228 135 -7 -212 -225 240 -103 -256 -112 206 -4 360 105 -183 7 204 267 158 -136 -101 171 10 28 309 277 180 272 -300 -85 280 252 -195 302 -285 -122
24 -114 -106 90 46 -9 293 -224 -342 137 -280 316 111 -287 82 -325 -36 -332 346 -6 -165 78 40 -328 -295 -171 86 53 -16 -340 240 -283 -29 -44 274 -52 -89 61 -32 -50 158 -343 32 -166 -218 -254 324 -196 -197 -310 -175 60 -119 -76 -186 277 227 221 -245 357 120 236 -120 -356 143 256 -180 -280 -313 -313 -214 168 -180 108 218 219 245 -340 -37 -324 280 -355 219 -20 6 32 155 -33 -308 -227 -233 342 252 240 -32 -236 -266 -60 -178 74 177 104 320 233 234 -232 258 329 85 172 -235 -229 -192 -211 -340 329 -272 -205 -106 -140 66 266 77 116 277 322 -304 91
-81 112 -256 244 64 77 -171 128 332 -35 -138 332 260 115 -223 229 -263 163 231 11 66 -181 -28 -72 -46 -226 -235 124 -297 -170 -12 100 81 -129 -178 298 -230 -156 115 229 -85 -160 220 345 -346 -261 -90 -168 160 -237 -21 -161 -186 107 238 187 -131 288 36 -159 26 152 -336 -270 232 -236 20 18 -314 -11 -206 -169 226 -7 17 131 153 104 -192 -117 -358 146 256 96 -126 15 -209 -226 -10 41 -59 311 256 -314 -68 250 -17 -156 -311 174 -179 -77 -51 172 -249 279 -305 126 -342 329 146 336 -59 25 55 -199 -56 324 -214 -81 299 307 145 247 -254 109 290 97
-117 -2 254 -226 263 104 -286 -302 298 -223 -155 235 -75 -276 78 -332 -15 -82 -330 -17 192 276 272 272 149 218 -303 298 4 -214 -69 -86 -32 -226 81 157 -106 65 -87 314 195 145 122 209 -219 313 74 -126 33 -43 154 45 296 57 -108 -182 126 153 121 -82 -226 -281 -83 -48 -24 155 58 307 148 -304 -351 -109 210 -299 144 82 241 -259 -198 -286 -340 -205 275 -148 -189 251 -79 -222 338 -124 -258 -69 164 156 73 -124 -165 50 -113 116 -219 323 290 -214 89 -300 93 -4 63 -23 -84 -192 -68 273 121 -207 57 33 -224 -55 -125 -73 184 -256 129 -152 229 -51
-71 -150 145 338 132 309 62 318 -255 -147 174 -246 26 -171 5 -158 234 319 -292 174 110 -254 215 -209 -72 310 -298 125 156 312 284 -135 -90 -287 -356 133 12 92 -70 45 201 -192 86 258 -160 174 -237 341 -202 -25 126 99 -24 -59 -290 53 302 20 170 -241 184 -114 -225 -301 75 -160 -355 352 -232 32 -66 98 -271 -151 -198 -32 -243 75 153 311 68 174 92 230 -35 -138 -225 230 303 215 304 -174 1 240 -155 -221 243 316 146 -137 199 -87 -119 206 283 172 202 -157 65 -272 175 349 -261 -283 -311 293 160 -191 -136 110 -338 -107 -225 -200 176 -116 -173 253
-59 -284 -329 201 -282 -131 44 277 164 218 -47 -296 -339 316 -345 -148 -317 -297 149 -237 -353 -92 -151 79 85 -302 -43 -102 342 194 75 -276 -218 -129 -285 65 293 213 -328 -61 246 23 -267 -277 -167 17 -246 310 -248 -114 347 12 -280 -255 -248 -45 -310 107 -192 61 90 -242 203 123 -182 -215 272 -293 -229 -313 343 -306 238 -314 -360 326 -259 -111 -84 -110 10 -327 325 -69 -351 -127 11 356 123 97 207 -2 314 189 24 -85 -75 181 -228 313 164 -337 -298 -152 -14 -346 -37 104 -109 -85 255 -275 263 222 220 -76 -350 -139 -61 179 53 305 103 43 -46 207 200 -360
-309 240 -35 -349 -220 -202 21 54 -340 -88 231 245 -215 88 359 -89 97 37 -57 62 -59 -139 -280 229 15 245 12 73 -235 356 304 17 -107 129 -218 -133 -172 208 -59 160 -344 43 -174 -226 -127 -220 164 116 -51 358 351 220 348 348 -56 -255 -309 -186 -41 -19 -143 117 55 139 256 345 64 -260 -295 -119 69 182 -288 -306 106 172 -337 -330 -305 -185 199 215 16 -85 83 -355 -329 144 -181 250 148 287 177 -39 -151 -241 268 -237 70 51 345 226 -261 172 -339 -124 271 84 156 28 276 11 -205 -277 -330 -121 159 215 -244 -25 -161 -7 357 -312 246 -194 354 -92
58 42 -219 -349 -39 -11 184 200 117 67 -130 -282 -62 -209 -18 -283 -66 -38 -35 -155 -193 130 -268 -134 -3 -183 -141 -218 161 37 27 27 -181 10 -26 259 256 104 -195 -94 -27 -163 78 -301 -224 -301 100 87 38 119 -157 20 -162 -359 256 113 327 -38 -279 -105 181 88 85 322 110 302 165 -15 12 144 225 -126 147 201 -115 336 240 296 -89 -282 -245 26 -213 49 -146 142 173 -248 -146 260 355 -126 -257 22 236 315 213 -339 -274 254 -326 200 -119 93 43 -272 -323 118 37 44 -277 337 63 -290 284 -277 198 270 -6 -286 -293 136 211 122 305 42 276 -156
-275 148 -81 -255 -276 51 252 69 -33 146 -297 218 301 140 -301 139 -31 276 324 47 104 -96 144 -147 40 -315 98 278 -294 149 73 316 73 177 140 -177 -320 341 54 286 -43 64 -45 281 144 -18 -348 -327 -245 -150 42 22 -8 342 -28 -65 -240 -115 -80 -331 141 -268 87 351 194 120 -4 141 67 277 -83 3 304 -51 -206 -263 255 27 -318 -295 -127 -14 262 275 -103 300 -328 122 158 -345 -45 -71 -225 299 3 -196 211 -166 109 200 -33 101 148 258 153 271 -292 224 -13 70 18 237 85 -76 353 268 -141 -155 -357 -56 223 -33 192 55 -76 318 322 201
153 -66 88 -198 -90 -72 2 150 204 -108 -262 160 217 -211 -137 -229 -261 -59 341 -300 -83 165 -30 230 112 -65 54 133 -157 21 -148 340 63 -252 272 -172 -117 31 79 232 -219 237 -57 71 -156 -73 -12 -345 -228 156 307 -151 -292 -205 251 -269 241 128 -349 -123 284 85 285 -99 89 -110 89 165 336 286 -78 50 -67 349 41 -195 -273 -66 -311 283 99 254 55 -335 -293 -308 344 -343 -35 138 -2 85 271 149 112 228 -262 -6 223 143 283 -288 -300 -249 53 166 -18 7 -276 31 -242 238 249 108 35 -106 -361 173 -277 211 229 -216 -22 169 89 69 339 -332
215 -352 131 -118 -16 -290 85 -280 -81 -80 -250 158 -339 -327 -205 -231 84 -21 -213 -293 -53 270 248 15 219 289 188 206 -253 -260 305 -98 -167 -287 57 217 -49 121 -178 -274 148 -102 -361 164 296 -303 -44 87 234 103 202 57 -205 215 -118 -113 179 214 -275 247 -158 218 -327 -55 -339 162 -233 -10 -268 -231 -189 94 127 -37 -218 98 -83 198 -44 233 -257 -310 -95 -168 -298 139 78 -117 37 -314 -34 -266 249 244 28 -215 -286 -6 298 39 134 -146 -354 -249 89 74 -290 245 -37 -33 -229 105 -278 -42 -303 338 66 200 -38 -219 -205 -108 175 -185 -283 -347 1 351
359 17 -87 -179 -2 -5 -19 323 215 347 -247 81 -317 323 66 124 73 288 58 -266 158 -30 -174 -82 -228 -99 35 -282 209 332 -334 358 -243 132 -15 -312 243 -139 319 -108 338 -123 -224 57 177 -307 330 281 0 -89 -303 232 121 -1 95 -13 -360 -292 -8 128 147 288 73 -8 33 127 -229 -250 255 -258 -131 282 1 241 -295 89 -65 -348 -16 141 358 1 -15 -174 -279 -89 -85 -260 -332 35 211 -291 -279 219 220 342 272 304 -250 -195 289 -268 229 213 -138 155 -136 -248 -161 282 206 48 -120 249 -248 277 -314 181 -179 -110 -262 -318 -129 -288 209 -307 -87 -269
325 -156 176 -79 314 -305 -270 -120 237 196 -289 -242 320 245 219 -33 -216 -181 191 -267 357 35 152 97 -101 46 241 100 -268 -332 -170 195 -326 43 80 216 -110 161 -331 -64 311 105 319 69 -189 26 146 -103 16 -92 252 208 -332 307 -289 127 297 -10 -54 202 305 -182 -176 -184 -33 199 -64 -53 6 54 78 204 239 60 92 -150 181 207 -353 -171 -355 343 248 33 -80 243 303 13 32 -230 -151 -214 102 -279 -13 -337 -114 162 -350 -152 315 -149 326 -93 177 -174 -236 50 209 -133 182 -198 90 -155 324 -58 -44 241 -289 287 -226 141 -175 -219 23 178 127 -161
36 -74 -295 -83 216 72 2 -314 306 -148 -256 -213 -166 176 -321 80 -288 253 -72 293 210 285 147 -137 202 198 -330 65 148 238 -197 262 79 279 -222 8 192 72 -345 -208 350 214 -167 153 336 -123 -148 61 -69 169 68 327 -149 13 24 -321 155 -242 132 -275 -226 42 -343 246 -10 -279 -141 307 143 -85 107 -66 -33 -179 79 139 -31 -229 -302 -98 44 -92 -97 -268 25 156 -226 217 16 29 -286 -226 215 -35 -158 -180 264 -146 -304 -145 183 142 -310 343 -290 -272 -357 -266 -106 58 280 9 96 3 52 53 -150 -282 -150 118 293 92 -39 -322 237 -97 -213 -316
166 306 246 290 136 -281 -181 -205 -216 -247 27 108 -74 345 78 -244 -306 112 159 171 266 108 -168 329 -192 -25 23 309 247 54 240 -106 238 140 -327 -224 334 262 31 203 -224 -118 -1 123 -221 41 19 -94 -20 334 -291 340 -51 -120 -191 267 -222 -10 260 -315 -105 6 -321 89 -91 -320 58 139 255 108 -13 216 234 281 -42 -60 159 332 -189 -222 -170 -141 -287 244 326 244 -286 -117 -287 -211 344 -15 217 -144 279 -9 107 -218 43 211 -248 92 -63 -68 33 91 202 -326 -170 228 91 -258 -217 -222 247 -361 -211 264 173 205 -248 -9 45 -337 -73 362 -282 -197
165 48 -208 -166 331 102 30 85 126 69 135 -361 51 -272 135 -67 270 -270 311 -234 28 -283 -305 -23 -181 152 -333 146 353 359 219 12 -302 320 6 -308 209 213 308 -327 320 236 -317 117 92 223 -245 -120 -316 286 32 257 4 -212 314 287 191 131 -239 69 328 -288 125 293 -150 -215 128 -312 163 64 353 -172 25 316 7 91 -117 -325 322 -301 44 207 -128 -160 -94 56 -72 88 84 -157 -193 -328 25 246 -210 -136 101 -358 -309 244 -176 27 180 -59 -270 266 224 -301 -235 4 -152 136 -345 -116 -359 341 -181 -340 -149 314 55 9 335 -117 -5 -12 5 319
-298 77 -326 134 -284 95 100 -259 -110 247 -189 140 356 -204 292 157 151 -241 -360 284 -2 275 -38 63 -98 186 -104 -252 221 -300 23 66 -44 -328 304 -216 -164 -86 146 109 341 -140 -38 -264 264 -238 -126 -273 -96 -234 -44 -118 62 226 -224 40 348 -191 -11 271 -345 164 172 289 27 323 -249 179 302 183 -221 60 -20 -358 -275 -127 -75 28 -155 61 -118 -78 -15 129 233 -292 198 -256 -160 328 -40 30 169 112 204 163 -15 -293 -96 -342 -306 -301 293 249 144 141 164 -22 -341 -76 -329 -236 -87 -145 156 95 220 -242 -73 -166 137 211 174 -262 357 223 -357 -6
-49 78 -16 9 32 -354 -335 -194 173 60 115 140 80 9 -338 359 53 329 -227 -231 -39 -259 -323 -145 -76 -277 -153 -359 -313 357 20 -75 271 322 -290 226 46 86 43 -152 -141 -44 289 177 29 347 277 22 -205 -106 -87 -201 -270 -292 233 278 -208 108 63 -191 -186 -140 -358 349 11 -219 -303 -51 252 347 -316 -1 1 331 -61 306 -241 -302 97 53 247 -340 -261 -19 297 125 -273 211 337 -246 293 -267 118 91 -81 189 -9 -91 303 -205 -77 290 -22 -56 -206 55 -335 -281 122 -237 -194 184 -286 -253 -55 -220 149 -131 155 -112 352 61 -231 -345 215 -311 172 238
338 -335 362 -289 240 -97 223 312 3 111 294 -59 -329 -221 -166 351 353 -4 166 111 -206 -342 -262 -80 -97 340 148 -357 -68 62 -334 -344 -134 -241 223 184 186 -247 -188 347 -140 345 -91 -211 -146 190 256 26 -103 255 -54 -305 -5 -239 -298 99 -353 -222 -77 236 81 -30 -50 -323 -237 247 135 -339 71 -66 173 -301 -356 -19 73 -152 301 48 98 114 207 -81 -262 34 185 350 -270 -73 263 30 -337 184 318 -228 209 318 -54 -216 -31 182 -54 128 -249 -53 -45 -127 -109 -351 217 -82 23 113 295 -171 -206 -24 358 -295 -147 283 116 164 -233 -290 161 -46 298 217
305 194 -345 111 360 316 -317 -58 204 -215 119 284 155 -233 -22 -270 299 -255 141 126 -19 -322 -10 -36 78 -339 -193 -167 25 -264 -233 -164 -185 -231 265 -204 -107 -147 -203 -59 343 84 87 146 -323 -277 103 336 271 -264 9 312 352 128 -91 155 20 65 -326 160 -185 360 -172 138 204 -289 -26 -178 -219 -281 91 -5 46 -323 99 -195 -269 -117 -112 -58 -103 142 212 -46 -168 106 -350 308 -47 -212 -114 336 -101 208 273 -169 -317 79 -260 -257 -305 1 316 -317 334 277 -277 78 -276 -58 187 -56 -184 107 -192 77 319 354 95 -295 -221 344 78 -96 -131 337 258 -87
173 298 160 343 -283 -275 -27 208 34 43 -252 50 82 60 -168 -115 331 -357 -360 -247 -267 -76 -35 -88 178 -151 -107 42 30 341 -345 -6 246 225 -223 99 -176 -339 154 -167 -120 250 312 341 25 -167 81 21 -158 271 -161 59 -78 141 -75 -183 283 343 256 -113 -68 -218 231 221 -95 9 336 -235 -80 -247 168 3 -129 -206 238 -277 -240 197 114 -309 292 353 301 -269 204 234 -241 19 -273 260 345 -129 -148 -246 252 -309 -344 208 27 -185 -221 -281 166 267 240 -134 102 169 266 68 121 215 -173 116 -176 -137 350 95 -71 -218 209 -345 -192 -219 144 310 -342 170
-334 -2 -128 -331 -146 117 250 -131 185 -209 316 -200 -164 -133 -6 -198 -326 -295 296 -14 -197 362 148 309 -69 -24 132 -143 -357 110 -129 81 135 77 268 278 295 266 -324 -113 181 197 -58 47 205 -161 -295 254 -349 98 53 231 -173 -9 -147 15 201 175 198 142 132 -303 155 -190 -29 -74 158 332 105 153 214 -56 -354 194 170 251 -36 -153 175 91 -3 137 -289 57 157 122 7 10 178 285 97 -246 291 -69 70 -266 200 -200 119 -301 242 172 -59 78 1 -274 -33 -21 -32 -206 183 -313 -202 -231 -59 -30 139 19 -143 240 -184 -222 156 336 -277 192 -273 63
-154 202 29 -11 45 -126 -287 -283 -326 -209 38 -253 222 -70 -149 -264 116 -256 116 317 10 -192 28 -43 62 91 -79 215 192 323 -352 -36 309 -115 107 -240 238 256 -65 223 -159 118 -66 189 -169 18 135 -106 141 -108 -267 41 203 259 -143 320 -267 58 -132 322 -204 -228 234 274 -295 -251 -65 -292 250 -66 159 -211 135 -143 -238 221 -280 330 -141 102 173 361 -324 -299 -189 258 -151 -160 296 336 -266 277 -254 -354 286 -194 -335 -221 34 -268 235 332 -169 130 -299 -123 224 165 15 29 159 298 -306 318 220 -236 -261 188 -226 166 -129 354 83 -35 181 8 -152 -24
238 -286 139 46 -92 141 -216 326 -19 18 301 -181 -162 207 -311 191 -146 -39 18 -69 151 -177 59 128 -32 105 -214 169 14 327 -241 -33 55 -142 -182 95 62 -5 48 17 162 -300 186 -152 -120 -196 26 81 42 -148 -119 346 -275 111 -11 117 -97 -292 -3 222 244 26 82 -293 -131 -164 -93 351 -173 -173 83 314 348 105 -302 315 -345 189 -96 -169 64 90 -291 -358 -282 117 153 197 55 -350 -229 -257 -235 -308 329 -318 -289 77 114 104 122 187 63 -13 -227 -313 161 -161 -234 -71 -190 -43 230 160 -189 0 193 -17 -75 228 -50 74 -321 -91 115 290 220 307
51 201 335 -236 -7 251 -14 -151 37 -48 -228 -199 -305 -262 -17 -108 326 -153 178 -57 -36 228 275 -104 -356 61 27 127 -68 197 264 49 -135 105 -156 -32 339 -174 -156 143 277 96 -111 -333 -171 -104 -356 88 -221 -346 236 -61 -204 -307 -160 -98 46 -300 -14 -254 329 -294 247 12 43 341 315 128 -260 -347 -283 178 130 24 189 -117 -19 -291 -287 202 -192 327 210 66 105 -102 67 -94 -277 138 197 -164 309 -329 104 169 322 292 -27 -18 -323 -85 190 -76 -133 66 -339 -232 -175 -136 -133 16 -248 218 -183 -320 196 -166 86 236 -255 -282 282 242 7 278 335 316
-288 -305 -75 287 350 103 242 17 -269 -358 -115 43 259 -252 -209 -97 171 243 88 -252 -208 356 169 -339 276 359 -350 64 147 -297 -294 205 62 229 2 -82 63 214 46 -346 -338 -168 149 109 -324 -209 140 -46 -176 -329 -216 356 -182 -85 -266 -193 155 225 287 266 -36 89 193 -198 -209 -318 -40 -75 -117 350 -91 -360 357 42 284 198 146 -62 -222 353 -167 274 -313 236 -315 360 -78 341 179 118 -26 209 260 69 87 -7 -16 69 -273 -72 62 -354 162 -259 -247 -242 228 -179 115 347 -166 -128 154 -255 -165 -80 123 292 -154 -334 -288 -36 -52 -103 89 -299 -220 261
-121 193 -7 -258 -273 88 167 352 75 -133 -94 245 251 296 -180 361 329 -284 209 27 190 217 -136 328 -315 313 3 -84 -195 -125 -315 -62 66 -210 355 159 247 0 233 268 -194 217 -293 -21 186 -163 134 285 -12 31 -130 -25 80 112 44 248 141 -196 234 -174 -204 40 204 70 -93 -22 -172 98 -38 -286 -235 -99 -153 317 -361 -111 275 241 -270 -236 41 226 130 -77 -132 238 -272 158 -301 142 167 -35 -68 -213 -180 316 -328 21 303 122 58 -40 343 -340 120 -190 -315 -186 324 108 103 -174 97 -141 97 -67 4 -147 -34 -138 59 -144 125 157 237 134 35 -240
-355 -176 44 94 -128 -255 199 289 -169 216 51 -121 349 187 -269 -190 -80 248 -139 -270 -276 -317 239 -263 158 199 -124 -316 237 -316 100 347 25 250 -195 58 244 -58 -32 183 208 185 24 -157 13 161 50 293 -81 -188 -130 -117 -211 354 131 139 233 -34 216 335 -264 299 -51 -121 201 258 355 -82 -110 134 295 84 295 -162 214 328 -192 -245 147 -305 -64 -55 -65 83 178 -240 -253 167 -106 8 80 -316 186 -69 -228 -182 343 120 -308 -279 93 -337 168 -292 -338 212 -291 -151 71 194 167 -222 317 -182 245 222 -47 -10 111 145 348 -138 -70 -40 357 -359 -229 56
-295 213 -312 65 22 64 -233 -232 -3 314 259 323 -191 -146 -285 131 104 118 284 337 50 321 327 -2 129 335 -34 -238 338 -259 185 162 -316 85 -136 -290 292 -291 169 -321 -361 -233 -146 18 293 117 -154 -225 -272 -55 -51 -155 -95 -68 -70 -259 -50 -98 -187 117 321 -128 300 258 -291 -175 251 -282 53 59 -29 72 187 -199 -77 -228 -349 -144 37 251 -340 -202 -62 351 -340 -209 -252 111 -112 240 12 -199 128 -208 -334 101 -212 -314 84 304 -243 -76 -360 -77 -103 -79 -283 -35 -326 152 19 -206 -90 -218 -206 -70 355 -123 298 126 -290 224 41 250 -214 183 -86 -22
235 -205 257 -151 152 359 320 136 -86 -193 -260 330 -19 -312 297 246 210 -66 186 -221 -120 45 228 257 -281 179 76 310 -200 -254 214 249 6 11 -354 -138 246 36 -361 -208 -148 69 -153 20 -270 -284 265 134 223 295 304 -351 326 -193 102 -19 222 -55 189 -275 -341 -222 -341 162 -99 115 -338 208 -18 152 -97 -347 -260 -21 -250 -362 -126 137 264 -43 -50 -354 135 0 91 -239 -346 205 267 315 262 177 -356 297 -150 170 107 101 -142 17 115 192 -265 -343 -333 67 240 271 162 -242 -283 38 -76 31 42 -31 -18 255 140 129 -292 38 263 164 228 112 -337 -259
219 84 128 194 210 -272 -27 -250 110 26 -38 0 106 265 -277 123 54 119 75 257 -74 -226 -180 227 114 -1 -346 282 161 220 340 -239 -152 54 52 -32 -189 -202 -117 -309 -46 -228 -127 347 71 216 330 -107 -339 -238 -342 175 293 -329 288 -1 153 164 281 86 -27 -319 -222 17 -318 237 -357 281 -349 -96 -245 328 -245 301 208 132 -232 -113 154 -83 206 109 -220 -135 -139 -327 214 225 -155 103 -160 78 -297 -8 111 -55 -282 -149 -160 55 -345 91 140 72 -24 113 50 112 -161 78 1 -8 -74 -346 -348 -287 -11 198 272 -354 176 349 41 308 112 57 -110 -168
321 -19 275 134 17 -159 -212 288 -155 -20 109 -187 58 -330 180 159 269 -33 -307 110 -247 261 175 80 154 48 -163 256 181 330 306 -334 360 269 83 29 102 12 219 -124 -200 -155 73 302 -148 -134 316 -183 286 213 354 -310 160 -94 304 -306 327 -169 -233 -109 172 253 -79 77 -266 26 194 -154 -325 212 -104 284 -311 -282 -342 -282 101 -228 -72 215 -224 290 -75 -201 6 -316 350 87 261 -249 141 -196 182 244 204 -67 -309 280 80 313 140 306 68 129 -212 100 115 195 -246 87 -73 -355 127 -55 31 318 -354 -303 -26 -236 265 174 -332 327 -191 -187 -303 210
-297 -134 113 331 294 122 231 254 -305 -78 -238 360 -23 -346 309 352 -320 103 36 117 89 13 174 -361 166 -175 -329 28 -234 -130 321 67 -312 -183 157 -178 -10 116 320 13 118 -72 14 -132 188 -203 73 -190 -28 -70 18 80 159 290 277 336 113 320 28 -176 -24 -305 261 -82 -336 172 -331 176 -200 -15 -170 295 -73 352 -114 11 16 -242 242 68 7 332 -32 32 -329 -95 -169 62 -284 -215 34 161 -97 -69 169 -203 -165 36 34 -120 43 7 297 341 179 214 -121 68 50 -35 -173 280 360 137 -150 -265 326 -273 185 -114 187 313 163 86 -232 346 190 -148
-352 285 -48 -191 -147 266 129 -26 105 243 243 248 69 102 328 103 207 -115 -222 -183 -64 -77 106 224 -64 -74 24 329 55 253 -159 -333 -308 -126 102 232 194 -330 120 -229 -39 346 155 107 -321 -41 206 -304 9 -128 -215 21 353 281 123 189 -70 -75 119 -131 -253 50 -271 -13 229 166 -113 -17 113 -144 -134 181 -142 240 309 -347 -1 318 -164 -141 -208 304 -340 145 -162 -74 292 -100 42 24 345 -75 -318 -227 -303 341 266 -14 44 354 16 -190 62 -272 -166 7 58 200 47 -328 -282 299 -106 -162 -250 226 -118 346 -64 -251 66 -335 58 -343 -238 -121 89 -210
-129 -357 162 -113 332 100 105 -9 -14 -312 124 -229 -71 221 333 167 -294 -48 300 183 334 -59 -307 -165 62 326 57 -60 -254 235 257 347 322 85 -109 287 182 -155 156 358 8 -73 -86 -99 300 -136 -351 -300 142 340 52 -86 91 265 -53 301 -64 92 74 -277 136 -80 147 -147 105 -20 -234 183 176 262 -85 -199 -143 -39 43 81 -352 -175 -152 269 -300 -288 155 -113 -292 -293 -241 -61 233 214 -1 -286 351 -87 338 336 -50 307 -116 141 301 352 354 -18 163 -31 42 330 -224 -43 -67 -226 196 -295 -271 17 257 330 -253 98 -213 -144 11 180 12 348 326 -206
141 -49 -142 23 207 179 -91 -59 106 -330 -220 191 194 -209 298 -141 215 -317 -224 18 155 48 -230 -74 -59 -136 -72 -347 -52 -245 -167 311 283 54 -181 89 304 342 200 -31 -359 -347 245 309 -83 170 -313 -8 -328 -240 330 -183 115 244 242 -310 -169 -106 89 -291 -281 -147 28 -146 311 224 313 -68 27 316 -114 -164 84 179 -172 73 133 -39 131 -302 296 -192 -12 182 215 100 351 -239 -246 -273 191 23 -143 272 -120 -91 -181 -158 -296 -341 -199 -107 -190 -52 324 -104 -257 -179 163 33 60 298 -57 -122 -61 42 319 23 83 256 73 36 -45 16 22 291 -49 -314
5 134 203 -265 -328 -4 -43 141 -145 298 122 -191 312 295 -358 -260 354 -345 -203 350 267 -179 207 -327 226 182 -181 120 -94 -136 5 -220 12 159 254 -48 -354 -13 235 60 -354 28 220 -57 15 -209 -138 240 -20 55 -34 -122 -56 303 308 174 78 117 340 -209 236 -232 6 -158 40 86 -240 -38 -337 -93 -121 347 -140 -46 -358 -312 -144 -355 6 319 -164 31 361 -261 86 343 247 304 -303 -269 327 150 360 -135 166 233 55 17 71 -221 -140 -255 46 72 159 162 28 -214 -254 -250 -193 -171 219 -225 208 -184 -340 176 -261 -329 -175 224 311 -305 337 33 -20 -150
359 -174 297 39 259 -161 -119 -50 -316 -156 98 -82 -262 -113 -176 337 85 155 221 -282 5 -321 126 111 -334 21 -183 -288 -249 -178 -42 7 -108 264 -323 -259 -160 310 119 -146 201 -333 -141 -130 -176 -51 40 -321 -195 175 64 18 -141 -5 -22 351 105 -214 -170 -54 122 -157 350 -170 298 -14 -362 -56 15 191 -238 117 43 90 126 48 99 -48 31 210 63 -131 327 -226 -242 -111 -288 -68 -173 -331 178 -323 -231 -231 -198 24 316 -137 132 74 64 -228 -350 222 159 -344 143 -115 231 -332 294 206 -291 -198 43 -241 -99 -73 229 261 159 176 -284 -33 84 -161 -198 226
112 -200 332 -326 -96 -136 -201 45 -155 -342 107 -135 -119 -16 -180 354 -119 54 49 351 -68 -144 261 302 -118 -170 -310 -328 305 230 -116 -327 12 -167 222 29 -80 39 -108 303 336 -118 -187 50 -188 -305 -220 -360 -205 293 -31 310 -216 362 224 163 200 125 53 -244 -289 -181 -11 -246 194 343 331 24 -142 -85 -220 23 -222 224 -1 25 329 -342 -65 -360 136 348 -139 64 -361 -340 -150 -90 86 -176 171 -244 257 337 124 147 -183 -159 -313 -237 216 158 231 229 -33 172 -1 -359 177 -94 -308 -262 313 353 -349 -66 26 -14 29 331 44 44 -148 -244 -266 -343 -144 -104
-76 92 315 -175 164 -269 85 295 317 57 -217 356 197 -22 -170 276 -68 -213 -112 -307 59 -268 109 -161 -325 347 -347 -327 -102 179 273 -39 -349 222 58 330 -286 -165 333 272 -361 156 65 -356 125 3 -241 228 71 49 77 195 50 213 -278 -164 -126 -156 38 109 7 -213 142 -69 187 -81 -264 357 -172 59 73 111 -196 -193 295 -133 -137 231 48 12 -68 205 -199 -94 -180 348 -30 329 36 -91 -87 197 -118 -79 -43 -54 -283 261 205 -276 204 -247 84 -25 224 10 -53 -65 -350 247 84 148 306 174 -33 83 -304 -294 -284 148 112 -256 -18 -284 263 185 84 277
-304 211 243 306 -80 -99 -339 -2 -74 -81 -140 47 -33 300 -337 -94 149 6 -46 355 -132 -151 166 193 -146 -25 233 21 -179 -319 -53 231 321 -311 -282 68 -230 114 -101 -122 -88 -32 -125 -60 166 -47 8 125 132 -186 7 237 -201 224 -46 134 78 -14 -125 -143 -292 231 25 -116 -44 335 175 56 48 134 -107 -2 -163 141 307 -114 -106 -36 278 -61 -18 347 282 -98 208 -28 221 66 -142 -208 11 -67 281 -3 7 173 241 38 316 -325 117 -355 337 99 3 -44 337 -280 190 -37 -207 314 336 260 173 57 186 -21 217 6 257 143 -216 -272 -252 145 272 32
-263 -237 -237 -153 -287 187 355 -225 343 82 -361 -201 325 329 57 -68 294 -322 -27 75 -43 -57 284 84 249 -327 349 -249 -192 -356 -150 10 -216 -10 -357 -302 146 152 -202 163 202 -276 203 115 -114 -147 -59 252 -3 346 -167 187 -26 -267 190 340 340 148 141 141 313 -194 73 -347 -191 49 -26 -193 -300 209 -82 291 -149 250 -135 -39 156 -360 22 -216 -119 -254 323 316 175 -30 -159 69 -113 356 110 0 277 -35 227 298 92 181 -111 335 -181 86 -344 210 -355 202 47 -137 47 -91 237 109 -351 -234 177 -180 -310 163 -351 167 150 241 -62 -196 206 1 247 65
182 316 171 -16 15 252 52 233 -21 313 33 -66 -144 103 206 296 259 100 -173 1 -207 -350 -328 -275 -211 181 -32 56 -225 -170 -186 82 199 70 264 70 -349 311 280 -9 -129 -196 113 -89 -49 191 -32 -7 -214 -253 84 141 107 -237 41 -15 -329 -204 338 -185 167 -204 308 -286 -176 -315 -351 -263 40 356 -124 24 -238 -101 -201 -218 -149 191 265 260 247 -14 335 -290 115 191 305 206 -110 -38 63 -250 -278 298 278 229 -305 -361 70 38 -245 -25 -34 154 -315 204 208 -113 -352 28 251 362 243 176 251 -58 148 304 337 66 302 136 -51 267 -121 -348 -195 -62
-122 268 -230 37 -249 -159 169 100 266 295 -26 -204 -11 -125 -101 -185 260 -191 342 73 -284 151 23 255 109 -194 282 8 -312 -98 -100 -233 223 225 115 169 -286 -130 -86 208 296 106 -182 -135 120 11 -148 101 -150 -83 -180 -89 -267 106 275 212 200 -286 -56 -45 142 315 -187 236 -144 -186 -76 -72 -323 309 -56 -323 -119 -188 290 -80 -59 213 234 89 118 53 -239 -201 33 -26 -139 -343 -39 -198 13 -176 228 -315 -315 110 69 361 145 123 -266 -343 176 220 84 -291 -39 126 13 27 -275 192 -89 91 235 -198 -51 280 268 -152 173 -136 -267 19 124 -37 -224 67
98 280 -202 270 236 165 183 -152 -142 106 235 -232 305 314 -246 -284 311 -99 94 149 -274 -31 -143 314 101 -269 343 -76 -162 -128 -310 -15 -33 40 -49 -184 -243 272 -226 -122 -226 359 -47 212 349 190 328 -44 -62 -270 319 175 -133 47 -10 204 -224 246 252 66 284 347 -212 -223 358 250 -40 -291 40 -166 250 267 267 266 20 47 -124 -123 16 -128 289 95 234 -87 35 120 -339 -108 281 -182 -35 -182 -38 -7 -174 -342 -244 172 349 -142 351 141 -332 -317 -148 -205 117 -135 -24 52 221 348 -227 139 88 271 -194 272 167 120 240 341 -93 -158 159 22 162 102
248 -141 -334 25 48 243 -53 -244 277 -163 -92 -14 282 311 76 -63 -137 -280 208 -295 -329 -59 -236 -252 -300 -51 -242 -107 296 -291 49 117 -334 -59 -280 -288 116 -58 -145 -268 -75 180 246 -207 251 111 -125 306 -258 -63 106 -90 -325 64 294 331 -288 281 -60 -206 -239 28 -77 20 70 72 -86 -355 -227 -129 -238 134 -226 -214 293 335 69 -74 -42 171 -142 52 219 145 -207 152 309 -139 -175 -237 -290 -268 194 -115 -329 -138 -251 -333 -61 52 293 23 146 92 96 324 -210 59 -153 -328 39 -246 -338 -113 67 214 31 140 7 -250 209 -211 -42 -335 -315 201 349 -149
273 -217 362 -49 -317 92 160 12 252 251 -355 320 -193 270 310 -106 -117 -348 244 -325 303 236 357 -340 -239 -318 188 -316 -134 304 -219 -229 199 -151 -325 -192 -276 -134 178 -22 -2 273 -97 49 106 -260 -207 157 -342 305 348 141 -198 134 -2 -260 358 -361 -323 -213 9 263 -329 73 -30 -348 121 -295 -138 -320 251 81 199 217 300 -131 -255 208 132 108 97 254 192 81 -70 195 -116 149 103 97 -267 -146 -308 -128 119 -283 118 -314 -279 116 224 179 110 -102 -168 206 -158 67 175 -138 233 205 -18 179 -147 -143 -69 -188 -196 321 -11 -225 -327 249 -13 349 138 324
