216 -391 207 -247 288 -353 -264 183 -266 -152 188 -458 -316 -255 -476 -316 120 -249 -41 -101 411 358 -321 366 238 -233 243 227 -108 191 384 71 389 -13 -2 -14 -324 113 -275 -280 -459 265 -438 -195 -198 -353 105 382 299 115 207 -455 25 -123 -53 -478 468 450 -469 -334 246 -419 -184 -139
481 -405 -155 216 -178 161 256 58 -164 31 131 183 52 428 204 -487 -216 365 69 -379 320 -284 -127 -74 -362 333 105 488 311 -505 43 -168 -275 -62 -196 -410 316 0 449 -444 -318 339 -129 -334 229 417 -308 -312 314 -74 491 448 -184 290 51 -472 -360 210 303 -453 -202 -206 15 331
352 -58 -199 -477 -249 -66 -244 122 479 -405 333 -31 311 -497 -377 204 -494 -226 145 192 74 71 -2 -140 489 -180 -135 -188 -452 445 365 485 58 81 -59 445 -107 -404 -241 -470 352 -132 414 -349 153 -42 -374 -427 -227 -316 -338 250 337 -446 265 229 95 -157 -46 60 -302 -349 144 432
213 -316 -128 -163 9 -237 143 -275 383 366 295 349 -176 -322 410 -69 -69 -484 355 93 -6 246 330 368 364 -146 85 323 498 235 229 35 52 435 -345 -142 -12 -123 448 243 66 128 -236 -84 -51 233 318 177 -309 36 -177 -372 81 -408 -445 352 -36 46 -329 -291 51 73 200 -447
-340 397 -326 -78 -137 318 -336 326 493 232 -123 -441 67 111 -439 46 -388 503 -76 483 -296 -9 -310 224 107 351 -509 -30 -142 -26 -315 96 152 191 -72 -265 14 195 160 108 294 -170 -346 -105 228 -23 298 446 262 199 -75 -436 438 276 463 -197 132 -273 -203 247 348 255 -233 -294
34 262 406 419 -251 -389 -143 77 6 -361 -148 -291 303 -151 -61 388 418 -112 -128 -458 428 -292 472 127 191 495 288 -261 487 -440 -331 -174 -284 268 130 -221 -50 248 -203 -108 -246 234 -8 -341 -275 -251 -246 190 -181 300 -73 91 -15 169 131 -357 144 359 194 -260 -111 332 135 -342
-451 76 -45 -362 -138 97 -269 -232 -51 -27 283 -402 436 -58 112 -373 -477 -43 -221 -478 93 -477 193 332 -256 306 507 -396 55 -154 -190 -449 -50 8 -365 -448 -304 304 267 300 -273 461 128 -115 273 197 135 -425 487 -388 -492 -93 -433 138 119 308 -380 403 264 -461 -101 199 222 421
223 471 3 -74 295 -220 -376 480 195 -431 172 -411 -403 397 -328 334 -20 -86 473 -509 -443 -439 349 202 -201 -115 76 272 -419 313 -319 -452 -510 -456 239 73 -3 -351 105 74 244 132 144 107 -87 232 -50 106 341 393 179 -61 -71 -25 122 -253 103 -412 -497 -162 88 104 -170 -451
-31 -355 178 211 -97 462 370 225 -441 -438 -103 87 -499 160 341 -177 309 272 -90 -333 419 74 449 472 -302 467 -207 -6 209 -267 -489 394 328 440 506 -97 24 258 -275 218 230 -366 427 -481 -46 -10 -490 -138 -352 475 -436 398 81 323 -229 137 367 -439 276 371 275 -10 -27 -15
-254 -304 -375 210 -92 485 -247 -157 505 250 -442 409 -280 343 479 463 -7 -26 -498 -247 87 -149 -257 285 99 94 416 -460 108 -399 472 468 -146 132 49 -317 -163 168 417 369 -23 241 480 -210 41 140 471 -151 -429 -482 -471 395 461 44 -313 112 158 -440 -313 34 8 27 -68 155
