-0.10345159471035004
0.06224742531776428
-0.07698369026184082
0.0802174061536789
0.07218082249164581
0.04817558825016022
0.016749456524848938
0.06639058887958527
-0.11760783195495605
0.11870326101779938
0.09299060702323914
-0.11478497087955475
-0.06084258854389191
0.034186288714408875
0.11945933103561401
0.054754361510276794
0.07247485220432281
0.02841128408908844
0.043024465441703796
0.06008940935134888
0.05609014630317688
0.07848712801933289
0.053069308400154114
0.06374989449977875
0.06432268023490906
-0.06704913079738617
0.05617356300354004
-0.04396553337574005
-0.030836030840873718
-0.04935133457183838
-0.08615913987159729
-0.10634167492389679
-0.06623125076293945
-0.013214826583862305
-0.017365798354148865
-0.03007790446281433
-0.027256816625595093
-0.05169321596622467
0.015340268611907959
0.02936844527721405
0.10060818493366241
0.03240491449832916
-0.11129257082939148
-0.020454004406929016
0.11540043354034424
-0.05050279200077057
-0.013149023056030273
0.05274029076099396
-0.12017914652824402
0.08431100845336914
0.05052471160888672
-0.07070030272006989
0.11510567367076874
0.06283646821975708
0.05391179025173187
0.09437966346740723
-0.09699228405952454
-0.040716513991355896
-0.11122654378414154
-0.08985629677772522
0.013607308268547058
0.04957965016365051
-0.10247655212879181
0.0027936846017837524
-0.04294198751449585
0.0022872239351272583
0.08513914048671722
-0.06145119667053223
0.07034020125865936
0.10387645661830902
-0.041294828057289124
0.049288660287857056
0.032758474349975586
0.07334792613983154
-0.07759024202823639
0.08750450611114502
-0.0033539384603500366
-0.0998927503824234
-0.02952180802822113
-0.08159346878528595
0.08833551406860352
0.09724253416061401
0.1242256611585617
0.0983334630727768
0.015404269099235535
0.08773501217365265
-0.11254778504371643
-0.11007125675678253
-0.028219953179359436
-0.07429026067256927
0.03620274364948273
-0.05378168821334839
-0.09084786474704742
-0.10334038734436035
-0.1057242900133133
0.06655897200107574
0.047560304403305054
0.04846610128879547
-0.035306572914123535
0.0628022849559784
-0.05677543580532074
-0.02660621702671051
-0.0020937472581863403
0.014978840947151184
0.0328889936208725
0.032856136560440063
0.037397369742393494
0.10254673659801483
0.07979442179203033
0.026117295026779175
0.10329288244247437
0.10266607999801636
0.027193590998649597
0.033162444829940796
-0.010178372263908386
0.08575685322284698
0.09712013602256775
0.10509555041790009
0.1209893524646759
0.11185753345489502
0.02354709804058075
0.0024864226579666138
-0.02171465754508972
0.015718400478363037
0.014344528317451477
-0.020520567893981934
0.10898454487323761
0.09301285445690155
