0.08628961443901062 -0.043203338980674744 0.03879939019680023 -0.010924175381660461 0.014874055981636047 0.028779253363609314 -0.09709225594997406 -0.06353111565113068 0.019437268376350403 -0.03322470188140869 -0.07002680003643036 0.12386004626750946 0.06049518287181854 -0.06782180070877075 0.06170232594013214 -0.10325826704502106 0.0234072208404541 -0.04754982888698578 0.00835368037223816 -0.08104266226291656 0.037671640515327454 -0.053956612944602966 0.10334613919258118 0.07276014983654022 0.09909042716026306 0.11567912995815277 0.08683595061302185 0.061453089118003845 0.003851175308227539 0.028647974133491516 -0.047616079449653625 -0.029763951897621155 -0.023848026990890503 -0.01263129711151123 0.11245563626289368 0.08854147791862488 0.07198819518089294 0.08170336484909058 0.05551983416080475 0.062455952167510986 -0.017095446586608887 -0.013016566634178162 -0.07085181772708893 0.006259560585021973 0.11163102090358734 0.03226679563522339 0.06423434615135193 0.005163595080375671 -0.12413239479064941 -0.08769761025905609 -0.08777575194835663 0.0503954142332077 -0.07241368293762207 0.048724234104156494 0.09732033312320709 0.10272336006164551 0.03052295744419098 -0.06282302737236023 -0.05807553231716156 0.044964104890823364 0.03783349692821503 0.020665332674980164 0.06249530613422394 -0.05213615298271179
0.04023335874080658 -0.12353108823299408 0.12105083465576172 -0.08463148772716522 0.00753447413444519 0.048366934061050415 -0.07982711493968964 0.04924532771110535 -0.034995242953300476 -0.10367739200592041 -0.06966255605220795 -0.054846882820129395 -0.06347641348838806 0.08889871835708618 0.021069377660751343 0.04327066242694855 0.03259669244289398 -0.09416680037975311 0.07799538969993591 -0.06408834457397461 0.08122298121452332 -0.07736459374427795 0.11325570940971375 -0.019379541277885437 -0.05201789736747742 -0.014195814728736877 -0.00479792058467865 -0.11693280935287476 -0.11315217614173889 -0.0504252165555954 0.10075697302818298 -0.08193992078304291 0.05126354098320007 -0.08927786350250244 -0.021336868405342102 0.09647296369075775 -0.11233499646186829 0.016654163599014282 -0.02007502317428589 0.12053069472312927 -0.02270255982875824 -0.09073346853256226 -0.07910068333148956 0.019407615065574646 0.016946643590927124 -0.09208425879478455 0.09444837272167206 -0.10958808660507202 -0.08146579563617706 -0.06686389446258545 -0.1152937263250351 -0.09907490015029907 0.04723687469959259 0.04044586420059204 -0.08085356652736664 -0.06098267436027527 0.04496791958808899 -0.027415931224822998 -0.015363797545433044 0.0804111510515213 -0.09744185209274292 -0.04666738212108612 0.016622602939605713 0.02660691738128662
-0.05950850248336792 -0.04646281898021698 -0.06859739124774933 -0.04473699629306793 -0.08055518567562103 0.032178089022636414 0.0781094878911972 0.11397624015808105 -0.08388850092887878 0.04221981763839722 0.11970055103302002 -0.06866414844989777 0.04081113636493683 0.08841212093830109 0.02039216458797455 -0.09493258595466614 0.05059687793254852 0.10238148272037506 0.06864716112613678 0.03216598927974701 0.015172064304351807 0.1118316501379013 0.08936004340648651 -0.08046042919158936 0.10214060544967651 0.02106297016143799 -0.07233366370201111 -0.048222318291664124 -0.11101813614368439 -0.03495490550994873 0.09268036484718323 -0.051135510206222534 -0.021718502044677734 -0.06019967794418335 -0.11363548040390015 0.09241954982280731 0.014154493808746338 0.024212747812271118 -0.06563405692577362 0.1164940744638443 0.12152010202407837 -0.09360961616039276 0.06618718802928925 -0.06364694237709045 0.06932032108306885 0.10044635832309723 -0.011602193117141724 -0.008886098861694336 -0.10444891452789307 -0.07256533205509186 -0.014606520533561707 -0.10050000250339508 -0.06268848478794098 -0.01608620584011078 -0.028703108429908752 0.015078827738761902 0.03348097205162048 -0.034825265407562256 -0.010049641132354736 -0.09105539321899414 -0.0839892029762268 0.06635336577892303 -0.12091626226902008 0.11445918679237366
0.008633047342300415 -0.03760462999343872 0.08555169403553009 -0.11740356683731079 0.09663704037666321 0.01087343692779541 0.10532987117767334 0.08318920433521271 0.09833000600337982 -0.07225003838539124 -0.009957939386367798 -0.11977081000804901 0.1067878007888794 0.1162421703338623 0.0056396424770355225 0.09266993403434753 0.03613768517971039 0.09933997690677643 0.0424640029668808 -0.04917742311954498 -0.12202563881874084 -0.029780343174934387 -0.10267986357212067 -0.10125596821308136 0.11728203296661377 0.08538603782653809 0.08311066031455994 -0.048297539353370667 0.020897209644317627 -0.08260142803192139 0.11716745793819427 0.02709139883518219 0.07832323014736176 0.06890873610973358 0.10928291082382202 0.06886467337608337 0.0013358891010284424 -0.06725956499576569 0.10802918672561646 -0.10521557927131653 -0.08233179152011871 0.10171070694923401 -0.02499374747276306 -0.0008072555065155029 -0.11200320720672607 -0.047417521476745605 0.06031893193721771 -0.11649376153945923 0.0011841356754302979 -0.026386767625808716 -0.02466428279876709 -0.07288087904453278 0.11485172808170319 -0.0530368834733963 0.10920526087284088 -0.1154259443283081 -0.04907146096229553 -0.11267659068107605 -0.08668442070484161 0.10000364482402802 -0.045057862997055054 -0.11188152432441711 -0.038276806473731995 -0.09647320210933685
0.03443440794944763 0.08274003863334656 -0.022630617022514343 -0.0010236352682113647 0.032404378056526184 -0.06403739750385284 -0.06763245165348053 0.027249664068222046 0.05870349705219269 0.041205763816833496 -0.11136506497859955 -0.11305978894233704 0.05327156186103821 0.10923206806182861 -0.09250299632549286 0.0025370121002197266 -0.04064112901687622 -0.09835788607597351 -0.08593226969242096 -0.04746273159980774 0.020561978220939636 -0.027575388550758362 -0.008635416626930237 0.11798687279224396 0.028930380940437317 -0.08219467103481293 -0.07024718821048737 -0.10234607756137848 0.06876729428768158 0.09604603052139282 -0.038456425070762634 -0.011705979704856873 0.11778278648853302 0.011196479201316833 -0.008984461426734924 -0.0853738933801651 -0.034030601382255554 0.0379946231842041 0.07460200786590576 0.06314335763454437 0.08357447385787964 0.109837606549263 -0.120661661028862 -0.07946239411830902 0.12456996738910675 0.10289864242076874 0.12089650332927704 -0.02051664888858795 -0.0076448023319244385 0.061841532588005066 -0.016822516918182373 -0.03368249535560608 -0.12446051836013794 -0.025101706385612488 0.08026653528213501 0.047624170780181885 -0.005478233098983765 0.021045610308647156 -0.003159850835800171 0.09755846858024597 -0.007257863879203796 -0.06866809725761414 -0.0823911726474762 -0.0253707617521286
0.004936337471008301 -0.05748656392097473 -0.0880415290594101 -0.10753650963306427 0.12072192132472992 0.12018093466758728 0.027012988924980164 0.012305483222007751 -0.06636078655719757 0.03620661795139313 0.04386912286281586 0.0280563086271286 -0.08425658941268921 -0.09841275215148926 0.11746574938297272 -0.02080453932285309 0.009624019265174866 -0.04157775640487671 0.032150521874427795 -0.058246731758117676 -0.05116203427314758 0.05359096825122833 0.08950448036193848 -0.016072392463684082 -0.03222578763961792 0.11341461539268494 -0.11570344865322113 0.05175009369850159 -0.09066325426101685 -0.04131500422954559 -0.12126937508583069 0.026036307215690613 -0.051300063729286194 -0.041378334164619446 -0.05939151346683502 -0.09619759023189545 -0.09821249544620514 -0.015736564993858337 0.11231663823127747 0.09952929615974426 -0.12356629967689514 0.06254015862941742 0.004349470138549805 -0.08946427702903748 -0.03168101608753204 0.04869765043258667 0.11337447166442871 -0.035739779472351074 0.07138046622276306 -0.08976104855537415 0.11764590442180634 -0.03716859221458435 0.06714656949043274 0.09181858599185944 -0.030845627188682556 -0.11590586602687836 0.09119892120361328 -0.03548547625541687 -0.052337005734443665 -0.018744274973869324 -0.09264475107192993 0.07931482791900635 0.05379033088684082 -0.08756063878536224
0.041041746735572815 -0.06723712384700775 0.025365859270095825 -0.01836465299129486 0.055052176117897034 0.09978151321411133 -0.09522920846939087 -0.10204462707042694 0.06707525253295898 0.05224435031414032 0.04064789414405823 0.08368219435214996 -0.006622761487960815 0.05050969123840332 -0.039302438497543335 -0.03628571331501007 0.06894426047801971 -0.020490780472755432 0.05788800120353699 0.08769635856151581 -0.06298065185546875 -0.07461535930633545 0.05230027437210083 -0.01525406539440155 -0.09442467987537384 -0.07724574208259583 0.057511940598487854 -0.014684855937957764 0.07889039814472198 -0.0847916454076767 -0.1215374767780304 -0.05792006850242615 -0.037497520446777344 0.10027080774307251 -0.007112070918083191 0.11668147146701813 0.022874653339385986 0.059770822525024414 -0.05764465034008026 0.05620098114013672 -0.008986219763755798 -0.06769560277462006 0.05352930724620819 -0.10123686492443085 0.039276763796806335 0.07201346755027771 -0.013400539755821228 0.029109284281730652 0.04220406711101532 -0.0060473233461380005 -0.06302747130393982 0.03065621852874756 0.06836593151092529 0.11524756252765656 0.011287480592727661 0.06335683166980743 -0.0024818331003189087 -0.09283725917339325 0.10118982195854187 -0.0675026923418045 -0.010825932025909424 0.10677170753479004 0.061342790722846985 -0.05961483716964722
-0.006098747253417969 -0.07506147027015686 -0.07782432436943054 0.035806357860565186 -0.054510727524757385 -0.11463791131973267 -0.08793905377388 0.021064087748527527 0.08732837438583374 0.11358276009559631 0.044082194566726685 0.046165987849235535 -0.05326257646083832 0.09636892378330231 0.04962968826293945 0.012598976492881775 0.0036767125129699707 -0.0807286947965622 0.10961271822452545 -0.12086600065231323 0.06976696848869324 -0.09861046075820923 -0.0706605464220047 0.09261943399906158 -0.10075153410434723 0.02475804090499878 -0.11445184051990509 -0.03445786237716675 0.07936958968639374 0.04276752471923828 -0.02257378399372101 0.07275332510471344 -0.10834603011608124 0.09106683731079102 -0.08103276789188385 0.09553705155849457 0.006875708699226379 -0.022540315985679626 0.10315461456775665 -0.10350839793682098 0.008743658661842346 -0.03766506910324097 -0.03308503329753876 -0.05795794725418091 0.04067617654800415 0.06525187194347382 0.12054121494293213 0.06963171064853668 0.09937568008899689 0.04089474678039551 -0.09125597774982452 -0.01433698832988739 -0.10354498028755188 -0.10800831019878387 -0.08117833733558655 -0.05132804811000824 -0.0402388870716095 0.03800073266029358 0.003984630107879639 -0.003147438168525696 0.06699086725711823 -0.05599704384803772 -0.05358418822288513 -0.11212044954299927
-0.10526701807975769 -0.04012250900268555 0.07263801991939545 0.00646074116230011 0.12340624630451202 -0.10795861482620239 -0.06489288806915283 -0.09597021341323853 -0.008333936333656311 0.05514107644557953 0.046303197741508484 0.08073388040065765 0.04137316346168518 0.051534250378608704 0.03588689863681793 -0.12049387395381927 -0.08972296118736267 0.06855340301990509 -0.04246816039085388 -0.026122570037841797 0.022471487522125244 0.012385651469230652 0.05403469502925873 0.006753474473953247 0.11346311867237091 -0.033831074833869934 0.05366547405719757 -0.03196309506893158 -0.10627016425132751 0.10255362093448639 -0.10559754073619843 -0.06812724471092224 -0.041626960039138794 0.08968010544776917 -0.07397204637527466 -0.11595235764980316 -0.0645725280046463 0.08812996745109558 0.04446116089820862 -0.01241910457611084 -0.008055850863456726 0.12386436760425568 -0.08540019392967224 0.10990734398365021 0.007532939314842224 -0.12068431079387665 -0.05075840651988983 0.06543086469173431 0.019768163561820984 -0.031075358390808105 0.04009805619716644 0.0341581255197525 -0.06494635343551636 -0.1203126311302185 -0.0048246681690216064 0.11231285333633423 -0.01218898594379425 -0.011179313063621521 0.04921384155750275 0.016092374920845032 0.05737863481044769 -0.045170485973358154 -0.1108342856168747 0.1175163984298706
-0.05433425307273865 0.0028461813926696777 -0.06710723042488098 6.267428398132324e-05 0.005679309368133545 0.0527062714099884 0.07658164203166962 0.028666183352470398 0.09052293002605438 0.060834795236587524 0.0871305763721466 -0.014856934547424316 -0.09761680662631989 -0.050650179386138916 -0.03107631206512451 -0.07238441705703735 0.02147817611694336 -0.03697238862514496 0.10509923100471497 0.12382280826568604 0.004162713885307312 0.11536678671836853 0.060251057147979736 0.02971634268760681 0.09898953139781952 0.04248432815074921 0.05467130243778229 0.114076167345047 0.0248088538646698 0.05980047583580017 0.06187687814235687 0.005435556173324585 -0.04000033438205719 0.04521776735782623 0.12140865623950958 0.02228851616382599 0.028142675757408142 0.0822252631187439 -0.09951728582382202 -0.09133416414260864 0.07183487713336945 0.11530186235904694 -0.02022556960582733 -0.032799944281578064 0.11262589693069458 -0.07463820278644562 0.0742664635181427 0.010951071977615356 0.053790971636772156 -0.05999086797237396 -0.1148567646741867 -0.013267561793327332 0.039426714181900024 -0.00824768841266632 -0.025126293301582336 0.10392965376377106 0.10328793525695801 -0.045336365699768066 -0.10180129110813141 0.07706774771213531 -0.04927945137023926 0.02263222634792328 -0.11699351668357849 0.02710968255996704
0.09076155722141266 -0.038523584604263306 -0.048297300934791565 -0.09986081719398499 -0.08667337894439697 -0.06411993503570557 -0.07460103929042816 0.010842278599739075 0.01961396634578705 -0.07700298726558685 0.0658789724111557 -0.0812326967716217 0.04835335910320282 0.03249576687812805 0.06258167326450348 0.08364357054233551 -0.020905300974845886 -0.03377741575241089 -0.04434889554977417 -0.04433561861515045 -0.06426015496253967 -0.1075369268655777 0.001194879412651062 -0.10687761008739471 0.11165806651115417 -0.0452083945274353 -0.09750021994113922 0.11149276793003082 -0.02675749361515045 0.09959381818771362 -0.11370022594928741 -0.004953518509864807 0.11960311233997345 0.007319092750549316 0.08432498574256897 -0.009486719965934753 0.1033056378364563 0.06596484780311584 -0.09937158226966858 -0.01898728311061859 -0.10925263166427612 0.03089386224746704 0.09064288437366486 -0.05297213792800903 -0.04919452965259552 -0.09435626864433289 -0.09929493069648743 -0.06557002663612366 -0.025177955627441406 -0.08014939725399017 -0.018368542194366455 0.012879014015197754 0.061761900782585144 -0.11323527991771698 0.05796197056770325 0.012283623218536377 -0.11272872984409332 -0.008702084422111511 -0.005362674593925476 0.0504516065120697 0.04957960546016693 0.01744849979877472 0.12144449353218079 0.1177649199962616
0.07042177021503448 -0.10929276049137115 -0.06844384968280792 0.008643358945846558 -0.06914585828781128 -0.08331717550754547 0.054091036319732666 0.02109050750732422 0.027549520134925842 0.037827134132385254 -0.051612600684165955 -0.0822487622499466 0.03553736209869385 0.12194028496742249 0.022250249981880188 -0.1211407333612442 0.1083526611328125 0.0801948606967926 -0.05578906834125519 0.1010296642780304 0.018049851059913635 -0.04496227204799652 0.007000401616096497 -1.887977123260498e-05 0.04493577778339386 -0.11212483048439026 0.09275467693805695 0.0993359386920929 -0.04064597189426422 0.042804643511772156 0.01341886818408966 -0.0009876638650894165 -0.11700335144996643 -0.0640193372964859 -0.050999268889427185 0.09332706034183502 -0.055806964635849 0.005217492580413818 0.0707230418920517 -0.06302796304225922 0.019456535577774048 0.012356847524642944 -0.018381759524345398 0.028414905071258545 0.060650259256362915 -0.06223784387111664 0.08820906281471252 -0.1042044460773468 -0.10068175196647644 0.05524320900440216 -0.03706195950508118 0.08456532657146454 0.07626983523368835 -0.11293742060661316 0.037561267614364624 0.0369618684053421 -0.08362780511379242 -0.12209081649780273 -0.11474034190177917 -0.04092438519001007 0.10119493305683136 -0.09061914682388306 0.10513652861118317 -0.0843905359506607
-0.030291572213172913 -0.0007894188165664673 0.03369399905204773 -0.0566253662109375 0.07728086411952972 -0.01071561872959137 0.06461934745311737 0.00914686918258667 -0.06430494785308838 0.10742653906345367 0.12047344446182251 -0.02252599596977234 -0.0627109706401825 0.11247377097606659 0.11273939907550812 -0.020640969276428223 0.021258622407913208 0.0317586213350296 0.018337547779083252 0.01345263421535492 -0.07169732451438904 -0.0026804953813552856 -0.015153184533119202 0.05218808352947235 -0.09924495220184326 -0.013070866465568542 0.10714635252952576 0.014440178871154785 -0.08176282048225403 -0.052822545170784 -0.10180075466632843 -0.12406256794929504 0.016795948147773743 -0.07991485297679901 -0.004795774817466736 -0.019926100969314575 0.1068168580532074 -0.04616472125053406 0.1032378077507019 -0.10504916310310364 -0.0076591819524765015 -0.013031303882598877 -0.11125476658344269 -0.06515586376190186 -0.10499787330627441 -0.10718412697315216 0.09911689162254333 -0.006346777081489563 0.0245637446641922 -0.09193211793899536 0.016614362597465515 -0.1140189915895462 0.07246209681034088 0.10587528347969055 0.02577371895313263 0.0005064010620117188 -0.07505020499229431 0.10098038613796234 -0.08373469114303589 -0.06034526228904724 -0.03466294705867767 -0.11331361532211304 0.058486536145210266 0.047822996973991394
-0.011558517813682556 -0.0355411171913147 -0.0902482271194458 -0.09186933934688568 -0.049431607127189636 -0.08132325112819672 -0.08640314638614655 -0.08624705672264099 0.03454175591468811 0.03983987867832184 -0.08757235109806061 0.01625993847846985 -0.06654830276966095 0.12431979179382324 -0.018788784742355347 -0.05955849587917328 0.0345597118139267 -0.05543145537376404 -0.12017281353473663 -0.12091793119907379 0.07907837629318237 -0.12077485024929047 0.00392933189868927 -0.08099395036697388 -0.06680667400360107 0.01232840120792389 0.06324334442615509 0.05556070804595947 0.03862716257572174 0.09469835460186005 0.038995444774627686 0.10436137020587921 0.10510042309761047 -0.11789606511592865 -0.024316221475601196 0.024149522185325623 0.08741377294063568 -0.030687451362609863 0.09878033399581909 0.05962808430194855 -0.09385691583156586 0.09224770963191986 0.05439010262489319 -0.0022380053997039795 -0.06553143262863159 -0.036371827125549316 0.08718430995941162 -0.06916192173957825 -0.11181873083114624 -0.12054398655891418 0.007972419261932373 -0.11443939805030823 0.1177808940410614 -0.05502866208553314 0.05365000665187836 -0.10728585720062256 -0.08686861395835876 -0.024958103895187378 -0.0649113655090332 -0.006092876195907593 -0.02550707757472992 0.017782136797904968 -0.0885114073753357 0.11103662848472595
0.08839082717895508 0.04932139813899994 0.078280970454216 -0.009851619601249695 0.11351516842842102 0.004091173410415649 -0.05311819911003113 -0.022663235664367676 0.040877461433410645 -0.10142567753791809 -0.10791422426700592 -0.12144103646278381 0.09197835624217987 -0.06252816319465637 -0.03200194239616394 0.11672359704971313 -0.015852153301239014 -0.02594095468521118 0.04703149199485779 -0.08856689929962158 0.1243746280670166 0.09844687581062317 -0.06255999207496643 -0.04298681020736694 0.10699272155761719 -0.06483399868011475 0.07224303483963013 0.04623892903327942 0.015220388770103455 -0.1013575941324234 0.025388330221176147 0.03437575697898865 0.0988135039806366 0.05457374453544617 0.11289913952350616 0.11387236416339874 -0.06987012922763824 0.09265533089637756 0.08848568797111511 -0.11826741695404053 -0.10887075960636139 0.02951890230178833 -0.10216875374317169 -0.012114554643630981 -0.0884641706943512 0.06799465417861938 -0.06638000905513763 0.08926406502723694 0.02624531090259552 -0.07773804664611816 -0.005970433354377747 0.046031653881073 -0.11494062840938568 0.0024403929710388184 0.05673198401927948 0.013077199459075928 -0.11793893575668335 -0.030881613492965698 -0.11212995648384094 0.10318140685558319 -0.02137880027294159 0.07987667620182037 0.12139050662517548 -0.05978675186634064
-0.10058966279029846 -0.017411231994628906 0.12047497928142548 -0.08101046085357666 -0.016384795308113098 0.10424534976482391 0.041500285267829895 -0.08930954337120056 -0.08653615415096283 -0.10032404959201813 0.044602856040000916 0.043730705976486206 0.000362589955329895 0.003991082310676575 -0.001020684838294983 0.025971487164497375 0.013426139950752258 -0.1120748370885849 -0.007304102182388306 0.04428808391094208 -0.018655359745025635 0.09253883361816406 -0.06234331429004669 -0.09226372838020325 -0.09510868787765503 -0.007821992039680481 0.08403338491916656 -0.10102607309818268 0.11712795495986938 0.11372306942939758 0.0480383038520813 -0.06805682182312012 -0.04686565697193146 -0.09283660352230072 -0.07182231545448303 -0.05741766095161438 -0.035652562975883484 0.011199966073036194 0.024568602442741394 0.1106821596622467 0.09963762760162354 -0.027919188141822815 0.07076440751552582 0.06057994067668915 0.03734844923019409 -0.11161650717258453 0.07454857230186462 -0.0656474381685257 -0.08162280917167664 0.014626383781433105 -0.09539556503295898 0.01458953320980072 0.08036249876022339 0.12132970988750458 0.01354411244392395 0.11448447406291962 0.07509821653366089 -0.09643451869487762 0.11814269423484802 -0.09198963642120361 -0.09200885891914368 0.020765289664268494 0.05931082367897034 -0.08856849372386932
0.10667794942855835 -0.058639541268348694 0.11653400957584381 -0.05500592291355133 0.02989916503429413 -0.08806785941123962 -0.035571545362472534 0.11292676627635956 0.018605977296829224 0.10960674285888672 0.0034728944301605225 0.050974518060684204 -0.06636223196983337 0.11238184571266174 0.06309787929058075 -0.06005991995334625 0.07224324345588684 -0.09821999073028564 0.03451727330684662 -0.061064571142196655 0.017725452780723572 0.04268863797187805 -0.10014055669307709 0.1174413412809372 0.02306273579597473 0.02327728271484375 -0.01487945020198822 -0.030329838395118713 -0.0771162360906601 -0.09567727148532867 -0.08964800834655762 0.05928158760070801 0.035605862736701965 0.004776850342750549 -0.07802349328994751 0.0319913774728775 0.041560232639312744 -0.025444865226745605 0.09425650537014008 0.10699357092380524 -0.0779263824224472 -0.0924627035856247 0.046675533056259155 -0.1101296991109848 0.056576505303382874 0.057984545826911926 -0.08867138624191284 0.09357112646102905 -0.11188256740570068 0.04097408056259155 0.062340930104255676 0.056415826082229614 -0.06742091476917267 -0.0024792253971099854 0.06082741916179657 -0.05311647057533264 -0.07925175130367279 0.10093152523040771 -0.008684292435646057 0.06895045936107635 0.12104874849319458 0.02612467110157013 -0.051129430532455444 0.09483304619789124
-0.08259692788124084 0.11395856738090515 0.10354241728782654 -0.061166778206825256 -0.0481133759021759 0.05693291127681732 0.008360981941223145 0.07213573157787323 0.06863003969192505 0.10949839651584625 0.07488180696964264 0.021274223923683167 -0.06072334945201874 -0.1037207543849945 0.12416812777519226 -0.10142706334590912 0.11080016195774078 -0.05966085195541382 0.007155880331993103 0.08817049860954285 0.08677715063095093 -0.07037043571472168 0.05812540650367737 0.09459717571735382 0.01103644073009491 0.08951874077320099 -0.10073046386241913 -0.11009743809700012 0.07925567030906677 0.010740980505943298 -0.0902479737997055 -0.10342825949192047 -0.096546471118927 -0.043290361762046814 0.09619198739528656 0.04889725148677826 -0.07792307436466217 0.09499026834964752 0.027700692415237427 0.04157175123691559 -0.10660089552402496 0.024172306060791016 -0.01124507188796997 -0.05248449742794037 -0.03915371000766754 0.01601436734199524 -0.058962225914001465 0.026146292686462402 -0.12156327068805695 -0.07945583760738373 -0.12499448657035828 -0.01824963092803955 -0.04474741220474243 0.09740747511386871 -0.05457128584384918 0.018157988786697388 -0.11646942794322968 -0.043179333209991455 0.07705417275428772 0.0034088194370269775 -0.015545040369033813 -0.07426413893699646 -0.08303722739219666 -0.0024161040782928467
-0.03152714669704437 -0.026003733277320862 -0.1168590635061264 0.018742471933364868 0.1092214584350586 0.08940385282039642 -0.0542885959148407 0.1051340401172638 -0.061840564012527466 -0.09924991428852081 -0.013336807489395142 0.09575420618057251 -0.10415586829185486 0.002451568841934204 0.10538271069526672 -0.010246649384498596 0.018776997923851013 0.03546701371669769 0.021418511867523193 0.030232354998588562 0.10690788924694061 0.05356337130069733 -0.12310700118541718 -0.08157317340373993 0.0032964497804641724 0.031218454241752625 -0.02463163435459137 0.051229625940322876 0.08658646047115326 0.12275427579879761 -0.04197902977466583 0.09906841814517975 0.06257611513137817 -0.07059778273105621 -0.07268038392066956 0.11135484278202057 -0.04396337270736694 -0.049843937158584595 -0.03646408021450043 -0.07606175541877747 -0.02105581760406494 -0.0554983913898468 -0.0422610342502594 -0.05309893190860748 -0.08404429256916046 -0.031066924333572388 -0.0817524790763855 -0.12076175212860107 -0.015337496995925903 -0.04617421329021454 -0.06610772013664246 0.10553734004497528 0.05143749713897705 -0.07995238900184631 -0.06161585450172424 -0.10171467065811157 -0.11853271722793579 -0.09006427228450775 -0.08327677845954895 0.009166955947875977 0.0008925348520278931 0.08019471168518066 0.04298868775367737 -0.09566456079483032
-0.10777954757213593 0.07531997561454773 0.03136582672595978 0.08963139355182648 -0.0688302218914032 0.048023030161857605 -0.12101998925209045 -0.0003454536199569702 -0.059371739625930786 0.08238671720027924 -0.012047111988067627 -0.12013870477676392 -0.12079842388629913 0.015348464250564575 0.018009811639785767 -0.0060510337352752686 0.040098100900650024 -0.027097150683403015 -0.002088800072669983 0.12262837588787079 0.12187981605529785 -0.055878907442092896 0.018690630793571472 0.07010594010353088 0.004098460078239441 0.0656919777393341 0.0577499121427536 -0.06757503747940063 0.07856792211532593 0.03059789538383484 -0.013673469424247742 0.033862292766571045 -0.07572272419929504 0.10468234121799469 -0.12331585586071014 -0.080594003200531 -0.11447860300540924 -0.07263468205928802 0.0748404860496521 -0.10151161253452301 -0.06666561961174011 -0.09360723197460175 -0.05363510549068451 0.08598935604095459 -0.04270122945308685 0.0483609139919281 -0.1232708990573883 0.04011189937591553 0.0926673412322998 -0.04168061912059784 0.07862631976604462 0.09749282896518707 0.11044372618198395 -0.11536134779453278 0.12120537459850311 0.0054243505001068115 -0.07264360785484314 -0.08568193018436432 0.10037152469158173 -0.07394753396511078 0.03262639045715332 -0.08252856135368347 0.03626883029937744 0.09267055988311768
-0.018450692296028137 0.04613545536994934 -0.021666646003723145 0.030570968985557556 -0.028996333479881287 -0.08699482679367065 -0.09196977317333221 0.00956745445728302 -0.04994173347949982 -0.004568696022033691 -0.11528858542442322 -0.059796348214149475 -0.0012415647506713867 -0.10130573809146881 0.015463173389434814 -0.09059049189090729 -0.005175694823265076 -0.07706144452095032 0.11605724692344666 -0.0886262059211731 -0.07439544796943665 0.024689272046089172 0.10984957218170166 -0.10025057196617126 0.06346404552459717 0.013544246554374695 -0.09921412169933319 -0.06254774332046509 -0.05465865135192871 -0.05687800049781799 0.11575083434581757 0.07136578857898712 0.10714513063430786 0.06051214039325714 0.11474767327308655 -0.023021802306175232 0.05070912837982178 0.0380433052778244 0.07272300124168396 -0.05264240503311157 -0.10960063338279724 -0.008252590894699097 -0.03557915985584259 -0.00635644793510437 -0.1179085224866867 -0.08001604676246643 0.11887839436531067 -0.018525779247283936 -0.009861364960670471 0.1157732903957367 -0.03997844457626343 0.019403159618377686 0.09843961894512177 0.09845881164073944 0.035003453493118286 0.06846083700656891 0.11039268970489502 0.06864076852798462 0.10267089307308197 0.06897057592868805 0.008518978953361511 -0.0016737431287765503 -0.017588838934898376 -0.05225329101085663
0.007027417421340942 -0.02431386709213257 0.030956029891967773 0.09321346879005432 0.10575199127197266 0.0036922693252563477 -0.01716792583465576 -0.06646867096424103 -0.056012243032455444 0.020387768745422363 -0.10724470019340515 0.08391855657100677 -0.009052842855453491 0.06864282488822937 0.10220915079116821 -0.04418677091598511 0.05131170153617859 0.026994973421096802 0.06009034812450409 0.12365950644016266 0.10474011301994324 -0.05181361734867096 9.204447269439697e-05 0.12438906729221344 -0.06896871328353882 0.007704779505729675 -0.11895772814750671 -0.04159556329250336 0.10785004496574402 0.04409022629261017 -0.032935842871665955 0.09640087187290192 0.0001220405101776123 -0.07449126243591309 0.07412028312683105 -0.10187666118144989 0.0770605206489563 -0.06677074730396271 0.07697419822216034 -0.10600210726261139 0.10408715903759003 0.06505431234836578 -0.09956395626068115 -0.07453911006450653 0.03258761763572693 -0.03507523238658905 -0.029264286160469055 -0.02779369056224823 0.009121894836425781 -0.029606536030769348 0.10692453384399414 0.11708348989486694 0.10044696927070618 0.05599091947078705 -0.09516851603984833 0.030556023120880127 -0.06851120293140411 -0.11139354109764099 0.023569762706756592 0.01969800889492035 -0.0831984281539917 -0.08885426819324493 -0.016928374767303467 -0.022695526480674744
-0.11796562373638153 0.02580869197845459 0.05206820368766785 -0.11332863569259644 0.06034556031227112 0.07184314727783203 0.11124876141548157 0.05151262879371643 0.08240009844303131 0.01699836552143097 0.00273701548576355 -0.04224270582199097 -0.023265063762664795 0.019659772515296936 0.026426509022712708 0.07554426789283752 0.004084169864654541 0.10876527428627014 -0.07296468317508698 0.029708892107009888 0.03314867615699768 -0.10359664261341095 0.05251969397068024 -0.009691625833511353 0.011219605803489685 -0.027017205953598022 -0.039251238107681274 0.056331291794776917 -0.036986157298088074 0.05733007192611694 -0.1004030853509903 -0.10950997471809387 -0.035117268562316895 -0.07976561784744263 0.023628592491149902 -0.08525833487510681 -0.08735643327236176 0.05738721787929535 0.05844588577747345 0.0947481244802475 0.029064998030662537 -0.009524032473564148 -0.07926797866821289 0.02689388394355774 0.03220106661319733 0.10538110136985779 -0.08354602754116058 0.010770410299301147 -0.01605096459388733 -0.06827805936336517 -0.018661826848983765 0.0676036924123764 -0.12133747339248657 0.018149584531784058 -0.09146849811077118 -0.002667173743247986 -0.014746397733688354 -0.02003982663154602 0.06769025325775146 -0.06746134161949158 -0.031147897243499756 -0.11071701347827911 0.011029064655303955 0.10288429260253906
-0.03249819576740265 -0.11366942524909973 -0.0077620744705200195 0.06608448922634125 -0.02269655466079712 0.06540291011333466 0.06976896524429321 0.1156182736158371 -0.11515286564826965 0.05428820848464966 0.05969519913196564 -0.054283708333969116 0.055005937814712524 -0.11371250450611115 0.11541253328323364 0.0036895275115966797 0.01564618945121765 -0.016350239515304565 -0.014939680695533752 0.044455066323280334 0.09464158117771149 -0.11222091317176819 0.07726059854030609 -0.07633534073829651 -0.025936469435691833 -0.01662081480026245 0.031067833304405212 0.10385598242282867 0.12332315742969513 -0.05796198546886444 -0.11388124525547028 0.06578567624092102 -0.03279232978820801 0.007386893033981323 -0.045963868498802185 -0.06318165361881256 0.0014557838439941406 -0.006859645247459412 -0.10227854549884796 -0.09964171051979065 -0.05042561888694763 -0.019851192831993103 -0.08821003139019012 -0.009760186076164246 -0.05958962440490723 0.005505651235580444 0.0961785614490509 0.09485931694507599 0.045446306467056274 0.008472412824630737 0.06086118519306183 -0.04495137929916382 -0.07753071188926697 0.1032252311706543 0.09699839353561401 -0.11461269855499268 0.06131710112094879 0.04597620666027069 -0.03693664073944092 -0.09490732848644257 0.01918335258960724 0.051803186535835266 -0.0075278133153915405 -0.07701420783996582
-0.05044427514076233 -0.03449636697769165 0.11151078343391418 -0.0482763946056366 -0.10765905678272247 0.09179611504077911 -0.00781741738319397 -0.09491194784641266 0.08454592525959015 0.08396604657173157 0.023199543356895447 0.11421458423137665 0.10959175229072571 0.0006331801414489746 -0.0037312954664230347 0.003227800130844116 0.04718698561191559 -0.11503490805625916 0.060057222843170166 0.1013483852148056 0.014604181051254272 0.054301515221595764 -0.09653541445732117 -0.06905770301818848 0.0698423683643341 0.06956005096435547 -0.07596927881240845 -0.11767609417438507 0.05278627574443817 0.02535267174243927 0.006091460585594177 0.03884430229663849 -0.053479939699172974 -0.048677340149879456 0.06926770508289337 -0.013644009828567505 0.009190335869789124 0.10111856460571289 -0.05922539532184601 -0.003367811441421509 0.08972923457622528 -0.04283319413661957 -0.012469813227653503 0.001125231385231018 -0.0053626298904418945 -0.024691641330718994 -0.08316551148891449 -0.007087334990501404 -0.07754911482334137 -0.11959201097488403 -0.10977168381214142 -0.07511027157306671 0.08100640773773193 -0.08247606456279755 0.022204428911209106 -0.032481685280799866 0.07972955703735352 -0.052780017256736755 0.051088348031044006 -0.03341910243034363 -0.053776293992996216 0.03957569599151611 -0.008225306868553162 0.11706118285655975
0.07439585030078888 -0.03730551898479462 0.01766224205493927 -0.032147735357284546 0.029455319046974182 0.0015569180250167847 -0.021286234259605408 -0.07078595459461212 0.09654192626476288 -0.07485218346118927 -0.118363156914711 -0.09306663274765015 0.07398003339767456 0.0812072604894638 0.12065064907073975 -0.056970998644828796 -0.02114182710647583 -0.10870452225208282 -0.07467986643314362 0.07758571207523346 0.08212350308895111 -0.11643536388874054 -0.021190881729125977 -0.07993744313716888 -0.021293923258781433 0.1000974178314209 -0.042453572154045105 -0.019076630473136902 -0.09173913300037384 -0.008571311831474304 0.049850642681121826 0.020597010850906372 -0.09973561763763428 -0.10097798705101013 -0.0770186185836792 0.09951317310333252 -0.005013063549995422 0.1232498437166214 -0.10008308291435242 0.05364476144313812 0.010340094566345215 0.009581565856933594 -0.08392994105815887 -0.10709771513938904 -0.07273529469966888 0.11526060104370117 0.10670077800750732 0.08803346753120422 -0.034238994121551514 0.09981770813465118 -0.07460668683052063 0.12455202639102936 -0.07808177173137665 0.013572856783866882 0.03613273799419403 0.05555197596549988 0.12431547045707703 0.05748105049133301 -0.020615413784980774 -0.10568222403526306 -0.040399715304374695 0.07792766392230988 -0.05423964560031891 -0.1040201336145401
-0.04893411695957184 0.05233262479305267 -0.026460647583007812 -0.026388615369796753 0.0726923942565918 0.09365430474281311 -0.045148640871047974 0.003544718027114868 0.09421376883983612 -0.07127712666988373 0.047138750553131104 -0.06479394435882568 0.11068469285964966 -0.10092352330684662 0.020848378539085388 0.08379444479942322 -0.09588207304477692 0.04281818866729736 -0.05559329688549042 0.10321807861328125 -0.12177518010139465 -0.056186825037002563 -0.009674981236457825 0.024562790989875793 0.06180374324321747 -0.030610397458076477 -0.07536520063877106 0.09235666692256927 0.08127915859222412 0.10105262696743011 -0.11810564994812012 0.03604698181152344 0.057569682598114014 0.02240613102912903 -0.11662378907203674 0.08060809969902039 -0.07283608615398407 -0.07217751443386078 -0.03737768530845642 -0.09948164224624634 -0.07685817778110504 -0.08262677490711212 -0.028536587953567505 0.005449175834655762 -0.12001341581344604 0.04604107141494751 -0.05004236102104187 -0.09444564580917358 0.01564796268939972 -0.08245676755905151 -0.02145342528820038 0.051124587655067444 0.04083111882209778 0.1001657098531723 0.07714056968688965 -0.08857150375843048 -0.02717927098274231 -0.04029761254787445 -0.01778319478034973 0.10595984756946564 -0.07685953378677368 -0.011339470744132996 0.03956322371959686 0.060085996985435486
-0.047615110874176025 0.05690594017505646 0.04083617031574249 0.11923378705978394 0.057682737708091736 0.03928728401660919 -0.034767135977745056 0.1217188686132431 -0.0479280948638916 0.08860963582992554 -0.09057369828224182 -0.038367897272109985 0.023705273866653442 0.03303356468677521 -0.1102118194103241 0.0037869811058044434 0.028671056032180786 -0.025125324726104736 -0.025177165865898132 0.10605470836162567 0.0685887485742569 0.06748820841312408 0.07482078671455383 -0.03941759467124939 -0.016870945692062378 0.07090459764003754 0.10527719557285309 0.0632161796092987 -0.09593348205089569 0.10116426646709442 -0.0669545829296112 0.08013927936553955 -0.007577851414680481 -0.07403738796710968 0.1020021140575409 -0.05413898825645447 0.034476205706596375 0.1221650093793869 -0.01704178750514984 0.11649411916732788 -0.0074318647384643555 0.05140295624732971 -0.08124639093875885 0.03600829839706421 0.03020814061164856 0.046326518058776855 0.07542411983013153 0.006714940071105957 -0.02613815665245056 0.06102180480957031 0.025643914937973022 0.03495907783508301 0.11361241340637207 0.003275558352470398 0.05109153687953949 0.12470574676990509 0.03136257827281952 0.10509352385997772 0.06976081430912018 -0.0979350358247757 0.0898614376783371 0.12299172580242157 -0.011376813054084778 -0.07790324091911316
-0.12171153724193573 -0.008593827486038208 0.08373449742794037 0.019421160221099854 0.007438212633132935 0.07688581943511963 -0.11393691599369049 0.09805633127689362 -0.12428286671638489 -0.0949372947216034 0.09922103583812714 -0.08582648634910583 0.11061978340148926 0.03208914399147034 0.06878955662250519 0.04273149371147156 0.0536155104637146 0.11756265163421631 -0.06725171208381653 1.4692544937133789e-05 0.030398622155189514 -0.03140580654144287 0.10747559368610382 0.025689631700515747 -0.01653321087360382 0.07110828161239624 -0.04404433071613312 -0.061983391642570496 0.04979950189590454 0.09314090013504028 -0.02378213405609131 -0.09123937785625458 0.010518312454223633 -0.03828185796737671 0.0037846267223358154 0.0024996548891067505 0.12321917712688446 -0.0007973164319992065 -0.04157094657421112 -0.0628294050693512 -0.06402277946472168 0.12273608148097992 0.05749821662902832 -0.07162436842918396 0.06736548244953156 -0.04820220172405243 -0.005889430642127991 -0.010622993111610413 0.0597105473279953 -0.11847595870494843 -0.01330004632472992 -0.048492878675460815 -0.08101792633533478 0.07140545547008514 -0.09190873801708221 0.05747644603252411 0.05917136371135712 -0.04484154284000397 -0.1141919195652008 -0.08806654810905457 -0.0660867840051651 -0.04997473955154419 0.11168070137500763 0.1007564514875412
-0.02302628755569458 0.019666016101837158 0.08703377842903137 0.014353662729263306 0.10617959499359131 -0.09995792806148529 -0.004085734486579895 -0.014752507209777832 0.09021778404712677 0.09293581545352936 0.09917870163917542 0.09305167198181152 0.07456929981708527 0.05756194889545441 -0.02919691801071167 0.11782471835613251 0.08174121379852295 0.11455883085727692 0.06031149625778198 -0.037935465574264526 -0.015911206603050232 -0.06891724467277527 -0.007714971899986267 -0.11246401071548462 -0.06585519015789032 -0.05307412147521973 -0.08054906129837036 0.1069868952035904 0.05475433170795441 -0.09270963072776794 0.030272379517555237 -0.028356149792671204 0.07137906551361084 0.08348964154720306 0.11200925707817078 -0.10938829183578491 -0.12141679227352142 -0.0782807469367981 -0.02807796001434326 0.025350674986839294 0.06724771857261658 -0.05366718769073486 -0.07174782454967499 0.04808643460273743 0.008508116006851196 -0.018497079610824585 -0.10935132205486298 0.07196506857872009 0.06320801377296448 0.07626976072788239 -0.06611204147338867 -0.08534786105155945 0.010009393095970154 -0.0033023208379745483 0.09529775381088257 0.05564965307712555 -0.11769181489944458 0.08537206053733826 0.07479366660118103 -0.05565527081489563 -0.012567967176437378 -0.09372127056121826 0.03340475261211395 -0.12226453423500061
0.03335973620414734 -0.08772377669811249 -0.08057284355163574 0.09513537585735321 -0.11925867199897766 -0.05441538989543915 0.08095337450504303 0.10079248249530792 -0.016385287046432495 -0.08512361347675323 0.10523499548435211 -0.05218075215816498 -0.006697818636894226 0.06690323352813721 0.04700616002082825 0.022788971662521362 0.04522097110748291 -0.04045787453651428 0.09700027108192444 -0.010947614908218384 -0.10027867555618286 0.00557573139667511 -0.030794337391853333 -0.11700668931007385 -0.09947313368320465 -0.026907920837402344 0.047441720962524414 -0.03415049612522125 0.10217833518981934 0.017122119665145874 0.03565885126590729 0.1150362491607666 -0.04226182401180267 -0.0696050226688385 -0.05829636752605438 -0.022677704691886902 -0.12070395052433014 0.05312059819698334 0.01447075605392456 0.11616048216819763 0.08948710560798645 0.017591014504432678 0.015391930937767029 0.04032242298126221 0.0057968199253082275 0.06268885731697083 -0.09266844391822815 -0.08369162678718567 0.014731526374816895 0.033273860812187195 -0.05979318916797638 -0.07543115317821503 -0.10186165571212769 0.0008456110954284668 0.12267208099365234 -0.104461669921875 0.056271567940711975 0.03809252381324768 -0.01065005362033844 0.03574828803539276 0.09053678810596466 -0.0318739116191864 0.11345639824867249 -0.11736854910850525
0.007024660706520081 0.06324532628059387 -0.0037224292755126953 -0.12180057168006897 0.044697314500808716 0.0387154221534729 -0.0587598979473114 0.11161188781261444 0.11380577087402344 0.027530506253242493 -0.04830354452133179 -0.11879555881023407 -0.07861579954624176 0.09619258344173431 0.12111441791057587 -0.09203144907951355 0.05864517390727997 -0.05559276044368744 0.0025446414947509766 -0.05762803554534912 0.0455574095249176 -0.055195316672325134 -0.0022445470094680786 -0.07687346637248993 0.12282432615756989 -0.007456496357917786 0.1076793223619461 0.019057393074035645 -0.10948969423770905 0.062301620841026306 0.0028712451457977295 0.08307923376560211 -0.10999223589897156 0.11382266879081726 -0.05057448148727417 0.03331732749938965 -0.09202392399311066 0.028552845120429993 -0.09931613504886627 -0.07387852668762207 -0.05294734239578247 0.05212719738483429 0.11688335239887238 -0.02541247010231018 0.09734536707401276 0.03495366871356964 0.08592464029788971 0.06436535716056824 0.010509714484214783 -0.01034604012966156 0.10276968777179718 0.09437671303749084 0.11969615519046783 0.022780343890190125 0.002745509147644043 -0.004052594304084778 -0.09632623195648193 0.07028378546237946 0.03869682550430298 0.03325150907039642 -0.1097487360239029 0.12449820339679718 0.009601384401321411 0.06649520993232727
0.03022068738937378 -0.09851101040840149 0.07162338495254517 -0.08783885836601257 0.02457176148891449 -0.04071901738643646 -0.05248112976551056 0.010529816150665283 -0.12009760737419128 -0.06517232954502106 0.01582452654838562 -0.03052087128162384 -0.020334213972091675 -0.10351110994815826 -0.06847909092903137 -0.07433415949344635 -0.08514644205570221 -0.03202962875366211 -0.012657195329666138 -0.08402325212955475 -0.031161770224571228 0.07201144099235535 -0.05815973877906799 -0.007730141282081604 0.11754147708415985 0.12051878869533539 -0.030832424759864807 -0.039782941341400146 0.03397722542285919 0.10788270831108093 -0.04789133369922638 0.04936972260475159 0.03250624239444733 -0.023368552327156067 -0.052050307393074036 -0.042226120829582214 -0.11784355342388153 -0.010546579957008362 0.07945361733436584 -0.12458781898021698 0.009131893515586853 0.05354733765125275 0.07173176109790802 0.07950448989868164 0.10329170525074005 -0.04767806828022003 0.07024542987346649 -0.058178290724754333 0.03926943242549896 -0.1245066225528717 -0.03292880952358246 0.008911430835723877 0.11340969800949097 0.11420364677906036 -0.03620833158493042 0.10150416195392609 -0.016704395413398743 -0.008734911680221558 0.04612340033054352 0.09405852854251862 -0.03340429067611694 -0.011039763689041138 -0.1194290816783905 -0.1147809624671936
0.007015317678451538 -0.04426015913486481 -0.034947142004966736 -0.06385070085525513 0.08737324178218842 -0.08549949526786804 -0.016377314925193787 0.0007982254028320312 0.11102932691574097 -0.100806325674057 0.011165782809257507 -0.02586330473423004 0.10107463598251343 0.032954856753349304 0.03065444529056549 0.09037965536117554 -0.04106111824512482 -0.10823316872119904 -0.04876531660556793 0.06249111890792847 -0.10238617658615112 0.0828227549791336 0.0506715327501297 0.04865294694900513 -0.07314112782478333 0.0882609486579895 -0.07063338160514832 -0.08766525983810425 -0.01256529986858368 0.10509231686592102 -0.0831148773431778 -0.10726091265678406 0.10822051763534546 0.03616665303707123 0.019611284136772156 -0.043501123785972595 0.059308379888534546 -0.014143988490104675 0.049117594957351685 -0.10007938742637634 0.002313286066055298 0.05527836084365845 0.009765535593032837 -0.09673413634300232 -0.062113210558891296 0.03969272971153259 0.11790314316749573 -0.05105516314506531 0.01492413878440857 0.04066374897956848 -0.10743644833564758 0.10779181122779846 0.11333183944225311 0.022542163729667664 0.1190689355134964 -0.03873163461685181 -0.10561546683311462 0.07250471413135529 0.024183273315429688 0.04032057523727417 0.04999630153179169 -0.05801421403884888 -0.029165714979171753 0.01966649293899536
-0.09715770184993744 -0.1229885071516037 0.10253305733203888 -0.10210451483726501 -0.0037022680044174194 0.10128627717494965 -0.09249114990234375 0.05081205070018768 0.10781705379486084 -0.0919969230890274 -0.06957946717739105 -0.007976740598678589 -0.08477945625782013 0.050347134470939636 -0.006070882081985474 0.037326276302337646 -0.03669288754463196 0.08491331338882446 -0.05405321717262268 -0.07038475573062897 0.10954895615577698 0.0005205720663070679 0.02270914614200592 0.10265178978443146 -0.07798375189304352 -0.0043839216232299805 -0.05115039646625519 0.07070265710353851 -0.08099731802940369 -0.08022056519985199 0.08940576016902924 -0.07530577480792999 -0.01668107509613037 0.06872819364070892 -0.020849302411079407 -0.05415789783000946 0.0016223788261413574 -0.019802823662757874 -0.09219284355640411 -0.008222237229347229 0.1088661402463913 0.0006435513496398926 0.0660441666841507 -0.044940248131752014 -0.11725695431232452 0.0776744931936264 -0.12243087589740753 -0.10567238926887512 -0.09755109250545502 -0.08654962480068207 0.05153775215148926 0.05664844810962677 -0.03110671043395996 0.09161975979804993 -0.07196469604969025 -0.12325817346572876 0.053201839327812195 -0.1096353530883789 -0.10396428406238556 -0.061585426330566406 0.10778418183326721 -0.006885841488838196 0.003840908408164978 0.11765599250793457
-0.03782588243484497 0.11022642254829407 0.09859222173690796 0.053479552268981934 0.11452798545360565 -0.06353253126144409 0.08877876400947571 0.11310464143753052 0.09025813639163971 0.02159905433654785 0.10086439549922943 0.03623645007610321 0.04247044026851654 0.02759622037410736 -0.021602407097816467 0.03549729287624359 -0.08081315457820892 -0.03550134599208832 0.05524231493473053 0.02208152413368225 0.07077483832836151 -0.034173086285591125 -0.0059169381856918335 0.07650268077850342 0.04263980686664581 -0.037743568420410156 0.0004207342863082886 0.050285279750823975 0.006334513425827026 -0.11259499192237854 0.09743338823318481 0.11286701261997223 0.014717504382133484 0.11740468442440033 -0.02847224473953247 -0.08310870826244354 -0.007716014981269836 -0.05395740270614624 -0.04843783378601074 -0.0009646564722061157 0.12314635515213013 0.06898786127567291 -0.015857651829719543 0.02537006139755249 0.023123353719711304 0.02999255061149597 -0.07195122539997101 0.11598239839076996 -0.08113622665405273 -0.12453477084636688 0.09334029257297516 -0.06599530577659607 -0.08605027198791504 -0.06995952129364014 0.024908170104026794 0.12453117966651917 -0.02245473861694336 0.02495473623275757 0.04928968846797943 -0.09291587769985199 -0.10005490481853485 -0.06173589825630188 -0.03327693045139313 -0.1193484514951706
-0.05876272916793823 0.11677590012550354 -0.07227779924869537 -0.010116413235664368 0.0469573438167572 0.01705603301525116 -0.04855528473854065 0.06830738484859467 0.022274717688560486 -0.07969272136688232 0.09666764736175537 -0.019681677222251892 0.011455237865447998 0.10822886228561401 0.026846498250961304 -0.045890405774116516 -0.04175904393196106 -0.04598122835159302 0.11052669584751129 -0.08714866638183594 -0.09494693577289581 0.10923950374126434 -0.04123128950595856 -0.09121912717819214 0.06723684072494507 -0.1238698959350586 -0.11057791113853455 -0.004608809947967529 0.10005223751068115 0.026750147342681885 0.023096278309822083 -0.09951430559158325 0.01204584538936615 -0.011243045330047607 -0.01686963438987732 -0.05070506036281586 -0.059927403926849365 0.09487675130367279 -0.029672279953956604 0.038642555475234985 -0.072286456823349 0.09901595115661621 0.04673302173614502 -0.002607479691505432 0.05921570956707001 0.1179744303226471 -0.0734761655330658 -0.08280432224273682 -0.08260463178157806 -0.09482935070991516 -0.013602867722511292 -0.09356334805488586 -0.0956851989030838 0.0049578845500946045 -0.009422674775123596 -0.0003291666507720947 -0.011710748076438904 0.0827120840549469 0.0624612420797348 0.09197303652763367 0.019506752490997314 -0.07033546268939972 0.09471671283245087 -0.07885931432247162
0.06280939280986786 -0.08514319360256195 -0.02167479693889618 -0.08184604346752167 0.11325934529304504 -0.007376432418823242 -0.10932601988315582 -0.07038486003875732 0.022255510091781616 -0.09973452985286713 0.051772817969322205 0.06504236161708832 0.026648953557014465 0.03374813497066498 0.11213158071041107 0.06914238631725311 -0.034853920340538025 0.002233251929283142 -0.04255509376525879 0.005182325839996338 0.09996853768825531 0.07955345511436462 -0.09607210755348206 0.030319005250930786 -0.10368143022060394 0.1142779141664505 0.055183276534080505 0.08611659705638885 0.06850787997245789 0.1034243255853653 0.1090092658996582 -0.054447099566459656 0.067522794008255 -0.10106055438518524 0.09213952720165253 -0.06214533746242523 0.04531875252723694 0.09039540588855743 -0.12254050374031067 0.1051034927368164 0.02000485360622406 0.09079395234584808 0.04738527536392212 -0.08528265357017517 -0.04449068009853363 0.1192619651556015 0.0013649612665176392 0.05294744670391083 0.11283473670482635 0.08449949324131012 0.1072833240032196 0.07424263656139374 0.08598808944225311 0.07237684726715088 -0.04868096113204956 -0.11661502718925476 -0.08934599161148071 0.017684876918792725 0.1105537861585617 0.06861884891986847 0.09931334853172302 -0.08355402946472168 0.04795697331428528 -0.03885413706302643
0.047747090458869934 -0.05229325592517853 0.05337224900722504 -0.02708171308040619 0.06110212206840515 -0.03232000768184662 0.00923129916191101 -0.07022055983543396 0.10300709307193756 0.09960766136646271 0.12431910634040833 -0.07379947602748871 -0.09619376063346863 -0.044943809509277344 -0.035041049122810364 0.02460378408432007 -0.07578837871551514 0.06088273227214813 0.09524369239807129 -0.058649942278862 0.08101947605609894 -0.12458370625972748 0.02303484082221985 0.036668404936790466 -0.08328065276145935 0.04315271973609924 -0.03937670588493347 0.10067649185657501 -0.005944281816482544 -0.12368908524513245 0.010040327906608582 0.04324229061603546 0.07361769676208496 -0.10543297231197357 0.06920501589775085 -0.023021265864372253 0.021006017923355103 -0.060021668672561646 0.08700299263000488 -0.08794289827346802 0.09806832671165466 0.09217382967472076 0.022058263421058655 0.11091367900371552 -0.06199713051319122 -0.06482017040252686 0.00922459363937378 0.06297847628593445 0.11914846301078796 -0.12256433069705963 -0.041505470871925354 0.017069563269615173 -0.10317979753017426 -0.0764959454536438 -0.07573902606964111 -0.06018000841140747 -0.01937703788280487 0.12028491497039795 0.10208681225776672 0.014772623777389526 0.12084513902664185 0.021066918969154358 -0.06243142485618591 0.07510700821876526
-0.01089198887348175 -0.014814257621765137 -0.05304056406021118 0.10248212516307831 -0.0021904706954956055 -0.10961365699768066 0.10548177361488342 0.03701984882354736 -0.11110204458236694 0.04263034462928772 -0.019762113690376282 -0.039101094007492065 -0.08551497757434845 -0.06245306134223938 -0.005224630236625671 0.0560988187789917 -0.11962777376174927 -0.06584177911281586 -0.09343002736568451 0.014471188187599182 0.07670529186725616 -0.03093436360359192 0.09467025101184845 0.022313818335533142 0.09245353937149048 -0.07944414019584656 0.07569074630737305 -0.06734836101531982 -0.08337555825710297 -0.08939215540885925 -0.01657688617706299 -0.0917980968952179 -0.05660231411457062 0.00874955952167511 0.015166446566581726 -0.08614088594913483 0.012970119714736938 0.08244927227497101 -0.035998791456222534 -0.11464837193489075 -0.07129116356372833 0.042385533452034 -0.1239766925573349 -0.010206207633018494 -0.09978228807449341 -0.0177898108959198 -0.10194341838359833 0.05091370642185211 -0.051828399300575256 0.11889390647411346 -0.025755420327186584 0.014237627387046814 -0.10733476281166077 -0.09515057504177094 -0.05483295023441315 0.03609335422515869 -0.013335272669792175 0.10135726630687714 0.06421597301959991 0.015511780977249146 0.1068950742483139 -0.0777486115694046 0.09704479575157166 0.11235183477401733
-0.0053804367780685425 -0.07805638015270233 0.06683787703514099 0.08648751676082611 -0.06996804475784302 0.022224679589271545 -0.012529313564300537 0.08778992295265198 -0.05214095115661621 -0.086922287940979 -0.06525439023971558 0.04275190830230713 -0.01192241907119751 -0.013470619916915894 -0.07476003468036652 0.052582427859306335 0.11197835206985474 0.04120716452598572 0.07078878581523895 0.09944576025009155 0.05276685953140259 0.09227220714092255 -0.070963054895401 -0.024552002549171448 -0.006962388753890991 -0.12405979633331299 -0.06110656261444092 -0.008450791239738464 0.0712781548500061 -0.003921866416931152 -0.019332528114318848 -0.11113443970680237 0.006369680166244507 0.04063737392425537 0.019564613699913025 0.09401538968086243 0.06677265465259552 -0.056954264640808105 -0.1176089495420456 -0.0251314640045166 0.0780075192451477 -0.01894538104534149 0.019613802433013916 0.002998456358909607 -0.08314695954322815 0.05271883308887482 0.00455060601234436 0.0715290904045105 -0.09248687326908112 0.00012202560901641846 -0.06451107561588287 0.05191788077354431 0.09619809687137604 0.03915725648403168 -0.06919664144515991 -0.11829078197479248 -0.0439305454492569 -0.030893877148628235 -0.0969371646642685 -0.06967394053936005 0.07331778109073639 0.11309455335140228 -0.06948116421699524 0.04951071739196777
-0.023855045437812805 -0.10216261446475983 0.07625329494476318 -0.07625487446784973 -0.07723262906074524 -0.05865636467933655 0.09269025921821594 -0.12489838898181915 0.0953872799873352 0.05804291367530823 -0.07678604125976562 0.005247533321380615 0.04195086658000946 -0.12432695925235748 -0.024777084589004517 0.09542937576770782 -0.056278571486473083 -0.05033467710018158 -0.03764897584915161 -0.10063181817531586 -0.052892476320266724 0.1083245575428009 -0.02801862359046936 -0.07650366425514221 -0.09062327444553375 -0.0740518718957901 0.11021056771278381 0.07694606482982635 -0.0551852285861969 0.036643922328948975 -0.0333523154258728 -0.09549464285373688 -0.10327118635177612 0.0499531626701355 -0.011311814188957214 0.03651949763298035 -0.042351558804512024 0.06595811247825623 0.0949321836233139 0.07158666849136353 -0.11025689542293549 0.08162543177604675 0.0003746598958969116 -0.002164512872695923 -0.02374790608882904 0.01799333095550537 -0.07373964786529541 0.023304641246795654 -0.017394617199897766 0.08380118012428284 0.06437656283378601 -0.02252522110939026 0.04485577344894409 0.11974355578422546 0.10006710886955261 0.05481263995170593 0.036298707127571106 -0.0939444750547409 -0.043094053864479065 0.024738699197769165 0.10883568227291107 -0.008711308240890503 -0.08302845060825348 0.0987948477268219
0.06427212059497833 -0.02690267562866211 -0.09201592206954956 0.11988557875156403 0.06843343377113342 0.05115675926208496 -0.02765008807182312 -0.059088289737701416 -0.09681397676467896 -0.10941655933856964 0.031117722392082214 0.04328379034996033 -0.07650099694728851 0.035346806049346924 0.12495546042919159 -0.113658607006073 0.034692928194999695 -0.07467634975910187 -0.017153844237327576 -0.022713065147399902 0.09700827300548553 0.12438218295574188 -0.07266603410243988 0.07061208784580231 -0.01890130341053009 0.03293852508068085 -0.10953538119792938 0.08810976147651672 0.09862677752971649 -0.055639445781707764 -0.1158258467912674 0.05536195635795593 0.07286043465137482 0.05485717952251434 -0.0008790940046310425 0.032150834798812866 0.05174209177494049 0.04797068238258362 -0.09337939321994781 -0.04393383860588074 0.11775092780590057 -0.057076796889305115 -0.01985849440097809 0.11592940986156464 -0.0036486536264419556 0.02677568793296814 0.052529171109199524 0.04431760311126709 0.04209049046039581 -0.12273715436458588 -0.034799814224243164 0.11386032402515411 -0.11079178750514984 0.07430306077003479 -0.008920088410377502 -0.10906490683555603 -0.03786304593086243 0.000632166862487793 0.09467452764511108 0.009527832269668579 -0.0899115651845932 -0.055664896965026855 -0.08885607123374939 0.07166770100593567
-0.04253298044204712 -0.051294758915901184 0.04498976469039917 -0.029460281133651733 -0.02063332498073578 0.10960572957992554 0.10607731342315674 0.11315029859542847 -0.05004866421222687 0.027811244130134583 -0.09256811439990997 -0.10253383219242096 0.10302424430847168 -0.06343227624893188 -0.11330835521221161 0.015332132577896118 -0.06223699450492859 -0.1009434312582016 0.02002863585948944 0.01621277630329132 0.11072923243045807 0.09947144985198975 -0.08283281326293945 0.01119263470172882 0.024386361241340637 0.03411392867565155 0.005510300397872925 -0.014830857515335083 0.05604176223278046 0.03006291389465332 -0.09617973864078522 0.02720034122467041 0.12364500761032104 0.01943586766719818 0.04273180663585663 0.09451146423816681 -0.078701913356781 -0.008776575326919556 -0.11619175970554352 -0.013100728392601013 -0.0747704803943634 -0.0038697123527526855 -0.042938560247421265 0.06660735607147217 0.0564742237329483 -0.025878578424453735 -0.04648889601230621 -0.0833728164434433 -0.010243713855743408 -0.119456946849823 0.06946802139282227 0.02550870180130005 -0.08667309582233429 -0.06165461242198944 -0.005159318447113037 0.020428955554962158 -0.07789453864097595 -0.04127758741378784 -0.11121329665184021 -0.01324528455734253 -0.07993084192276001 0.08431214094161987 0.04987582564353943 -0.025275319814682007
-0.09847687184810638 0.11980578303337097 -0.0178384929895401 -0.09935672581195831 -0.08113786578178406 -0.0319385826587677 -0.017345860600471497 -0.11117419600486755 -0.11432276666164398 -0.09357273578643799 0.05991309881210327 0.09255351126194 -0.09410785138607025 0.07838129997253418 0.09265270829200745 -0.033182933926582336 -0.10498662292957306 -0.12315280735492706 -0.10543882846832275 0.06347443163394928 -0.07904975116252899 -0.048213377594947815 -0.059535399079322815 0.03956142067909241 0.07547765970230103 0.11329001188278198 -0.02566283941268921 0.05979025363922119 -0.10996289551258087 0.07460261881351471 0.11638681590557098 -0.07844480872154236 0.10726548731327057 0.12454034388065338 -0.06471726298332214 0.09161092340946198 -0.04940125346183777 0.017416730523109436 0.06059245765209198 0.04950471222400665 0.053203731775283813 -0.10994498431682587 -0.1211828887462616 0.022042885422706604 -0.09136143326759338 0.01011359691619873 0.005453139543533325 0.1167823076248169 0.03556263446807861 -0.11744409799575806 0.04907074570655823 0.11165228486061096 0.03184768557548523 -0.10648481547832489 0.11421559751033783 0.07279212772846222 0.0459761768579483 -0.059074923396110535 0.053428396582603455 0.1188608855009079 0.12456893920898438 -0.03588089346885681 0.08625209331512451 0.021260246634483337
-0.010499849915504456 -0.057982251048088074 0.03720232844352722 0.08362646400928497 0.04803113639354706 0.04448890686035156 -0.10169270634651184 -0.041157886385917664 0.054970547556877136 0.1045382022857666 -0.06350873410701752 -0.06509622931480408 0.0905606597661972 0.09880711138248444 -0.12158580124378204 -0.06862969696521759 0.08382999897003174 0.05703689157962799 0.081785649061203 0.0942787379026413 -0.06909961998462677 -0.06730711460113525 -0.0165795236825943 -0.09424978494644165 -0.08358986675739288 -0.05433487892150879 0.028432652354240417 0.008806198835372925 0.0826369971036911 -0.06442824006080627 -0.10122896730899811 -0.09232674539089203 -0.007627084851264954 -0.07438065111637115 0.08976563811302185 0.07662132382392883 -0.06572204828262329 0.09901078045368195 -0.06602320075035095 -0.09254826605319977 0.008925840258598328 0.08928531408309937 0.0846400260925293 0.0820981115102768 -0.057527318596839905 0.0072538405656814575 0.04708471894264221 0.04218311607837677 -0.12371386587619781 0.03823906183242798 -0.03306564688682556 0.04102225601673126 0.03710418939590454 -0.03719724714756012 0.11043776571750641 -0.03898036479949951 -0.09166531264781952 -0.05783168971538544 0.028823748230934143 -0.05449990928173065 -0.09719374775886536 -0.04699832201004028 -0.12083609402179718 -0.07640144228935242
-0.05005855858325958 -0.01882648468017578 0.03748041391372681 -0.018240168690681458 -0.04465281963348389 -0.06792062520980835 0.02032645046710968 0.08613236248493195 -0.11350125074386597 0.005057722330093384 0.006376534700393677 0.0483563095331192 -0.008034512400627136 -0.08624754846096039 0.009357348084449768 -0.11622528731822968 0.01883220672607422 -0.10444396734237671 -0.03461611270904541 0.0025557875633239746 0.042632222175598145 -0.10386602580547333 0.11195045709609985 -0.05746161937713623 -0.12020045518875122 0.07369126379489899 -0.1184120923280716 0.0095377117395401 -0.006280481815338135 -0.10772962868213654 -0.008227035403251648 0.10975480079650879 0.10520325601100922 0.06685386598110199 -0.11137567460536957 -0.032905519008636475 -0.0025377273559570312 0.10603964328765869 -0.003945574164390564 0.11336691677570343 0.08696867525577545 0.015008151531219482 0.046202629804611206 0.04348471760749817 0.07102684676647186 0.018252834677696228 -0.012752965092658997 0.09074975550174713 0.06757204234600067 0.09218011796474457 0.06770136952400208 0.08153820037841797 -0.008073970675468445 0.08537177741527557 -0.10956726968288422 0.07609280943870544 -0.11106358468532562 0.01138700544834137 -0.06561204791069031 -0.10627695918083191 -0.11249513924121857 -0.09678541123867035 -0.007438242435455322 0.06287845969200134
-0.10451667010784149 -0.10817207396030426 -0.002393573522567749 0.08098280429840088 -0.11055397987365723 -0.10242253541946411 0.03694795072078705 0.009090930223464966 -0.10314734280109406 -0.0014262348413467407 -0.10705885291099548 -0.10852456092834473 -0.002810835838317871 0.10981713235378265 0.059827521443367004 -0.10292813181877136 -0.12281633913516998 -0.06862321496009827 0.036601290106773376 0.026142224669456482 0.05037039518356323 -0.08258813619613647 0.00944681465625763 0.05965012311935425 -0.11590304970741272 0.03631898760795593 0.03194822371006012 0.05812905728816986 0.014254003763198853 -0.024343237280845642 0.06639161705970764 -0.08728466928005219 -0.09928129613399506 0.10218802094459534 0.013691306114196777 -0.056778356432914734 0.06687672436237335 -0.11908747255802155 0.05668728053569794 -0.12304969131946564 -0.09945531189441681 0.09796367585659027 -0.015963301062583923 0.005022361874580383 0.06912429630756378 0.04812218248844147 -0.04944443702697754 0.06855997443199158 0.09245255589485168 0.06870114803314209 0.10508911311626434 -0.05919256806373596 -0.03732195496559143 -0.05305705964565277 -0.05841894447803497 0.033190056681632996 0.03575727343559265 -0.07632438838481903 -0.07183519005775452 -0.05386175215244293 0.07994817197322845 -0.06176282465457916 0.06054551899433136 -0.06519393622875214
0.023402869701385498 -0.09419028460979462 -0.10827948153018951 0.018485158681869507 -0.03707335889339447 -0.07954829931259155 0.10767713189125061 0.06869351863861084 -0.0017488747835159302 -0.0028717368841171265 -0.060378506779670715 -0.10241134464740753 0.09861224889755249 0.10472442209720612 0.05684572458267212 0.021308571100234985 -0.10453647375106812 0.029439955949783325 -0.1143452525138855 -0.06405174732208252 -0.06093284487724304 0.02121114730834961 -0.04057610034942627 -0.10168462991714478 -0.07477249205112457 -0.09320473670959473 0.11862269043922424 0.07906612753868103 -0.08741606771945953 -0.1080155223608017 -0.03001435101032257 0.034189313650131226 0.038456112146377563 -0.09865222871303558 -0.0694814920425415 0.08320392668247223 -0.04329250752925873 0.023485347628593445 0.10536807775497437 0.10149127244949341 -0.09266948699951172 -0.0425233393907547 0.05007210373878479 -0.08632706105709076 0.016610100865364075 -0.016829729080200195 0.10800699889659882 0.046727657318115234 0.11695703864097595 0.0669146329164505 0.08586281538009644 -0.11132065951824188 -0.021818459033966064 -0.12135931849479675 0.06206686794757843 -0.0520428866147995 0.12205542623996735 -0.024273931980133057 0.11550837755203247 0.04070815443992615 0.020807385444641113 -0.01713678240776062 0.02055637538433075 -0.05218119919300079
-0.028572991490364075 -0.10194419324398041 -0.08189131319522858 0.06856738030910492 -0.028763651847839355 -0.12209197878837585 0.06965096294879913 0.049066051840782166 0.07466749846935272 -0.07511650025844574 -0.04711724817752838 0.08623847365379333 -0.08134131133556366 -0.10263049602508545 -0.08550497889518738 -0.10971604287624359 -0.09918771684169769 -0.01543678343296051 0.08204472064971924 -0.02146434783935547 -0.05215921998023987 -0.04385146498680115 0.010168477892875671 -0.01389339566230774 -0.018590331077575684 -0.019949927926063538 -0.02102704346179962 0.11853252351284027 0.08434028923511505 -0.09987877309322357 0.0024570822715759277 -0.09138907492160797 -0.10178320109844208 -0.04148775339126587 0.10972686111927032 0.050719812512397766 -0.11838309466838837 -0.001417800784111023 0.04633574187755585 -0.03803548216819763 0.027353301644325256 -0.016425713896751404 0.011593237519264221 -0.04928967356681824 0.09213493764400482 0.029534146189689636 -0.01781083643436432 0.03269040584564209 -0.07383948564529419 -0.07922179996967316 0.10419048368930817 0.11811855435371399 0.07926581799983978 -0.001036331057548523 0.09086699783802032 0.07324445247650146 0.04001477360725403 -0.12454979121685028 -0.055385589599609375 -0.06520935893058777 0.026348277926445007 0.11697633564472198 0.015721380710601807 -0.11212950944900513
-0.06056724488735199 -0.11096540093421936 -0.09033170342445374 -0.10876159369945526 0.010157376527786255 -0.029248014092445374 0.003489449620246887 -0.033460572361946106 -0.05750478804111481 0.08681005239486694 0.10526195168495178 0.11744049191474915 -0.05673687160015106 0.10055452585220337 -0.08094249665737152 0.06532314419746399 0.054300397634506226 0.10270120203495026 -0.0014157891273498535 0.04699075222015381 -0.054127246141433716 -0.013357102870941162 0.10189571976661682 0.0849522203207016 0.05511258542537689 -0.017750725150108337 0.09284950792789459 0.013496726751327515 -0.0030475109815597534 -0.12019215524196625 -0.08866916596889496 0.07706882059574127 -0.026937246322631836 -0.03226582705974579 -0.02011406421661377 0.07468971610069275 -0.0021796971559524536 0.026591628789901733 0.11294132471084595 0.07539327442646027 -0.016191676259040833 -0.018383637070655823 0.12004807591438293 0.05318157374858856 0.06701470911502838 -0.0999443382024765 0.09276075661182404 -0.0930887758731842 -0.08237069845199585 0.04486210644245148 -0.06245496869087219 0.10396772623062134 -0.04549910128116608 0.06699222326278687 0.11989805102348328 -0.05486205220222473 0.07432577013969421 -0.12498222291469574 0.09863682091236115 -0.027442380785942078 0.09789051115512848 0.07894065976142883 -0.005716368556022644 0.045231446623802185
0.014540240168571472 0.043555572628974915 0.06835362315177917 0.05816088616847992 0.05814841389656067 0.07344923913478851 0.014810353517532349 0.03230312466621399 0.07589645683765411 0.0599227100610733 -0.01704275608062744 -0.04819731414318085 0.0198899507522583 0.04412734508514404 -0.1148771345615387 0.06637734174728394 0.10216771066188812 -0.00297527015209198 -0.04327809810638428 0.058735787868499756 -0.05377912521362305 0.09527777135372162 -0.03181000053882599 -0.11751197278499603 0.09355998039245605 0.09252344071865082 0.0618898868560791 0.03567926585674286 0.11736726760864258 -0.1205359548330307 -0.09860791265964508 0.11832398176193237 -0.05908548831939697 -0.10921476781368256 0.01740528643131256 -0.11134529113769531 0.10485495626926422 0.04220154881477356 -0.011072412133216858 0.054533958435058594 0.11602583527565002 0.017115771770477295 -0.10171958804130554 0.03174850344657898 -0.0741230696439743 0.07259295880794525 -0.06487727165222168 0.05172155797481537 0.10862821340560913 -0.10186861455440521 0.04145751893520355 -0.09012550115585327 0.09270508587360382 -0.05770738422870636 -0.09038615226745605 0.03699752688407898 0.0017266273498535156 0.030062437057495117 -0.030201584100723267 0.02786073088645935 0.07268495857715607 -0.08562348783016205 -0.0777396410703659 0.015711575746536255
-0.0253850519657135 -0.10755564272403717 -0.05154077708721161 0.05177035927772522 0.06264503300189972 0.056138426065444946 0.12243744730949402 0.08420498669147491 -0.10437816381454468 0.01702345907688141 0.027403369545936584 0.03638041019439697 0.10029168426990509 0.048369914293289185 -0.05629301071166992 0.009002506732940674 -0.08050712943077087 0.010674387216567993 0.0513777881860733 -0.06715378165245056 -0.028003588318824768 -0.1123536080121994 -0.047768011689186096 -0.06921924650669098 0.007280334830284119 -0.07926586270332336 0.1220923364162445 0.11238668859004974 0.05365777015686035 -0.10078521072864532 -0.06892021000385284 -0.07401850819587708 -0.003039732575416565 -0.015736594796180725 0.0030851364135742188 0.04520541429519653 0.0816991925239563 0.12169907987117767 0.036454081535339355 -0.023498117923736572 -0.016701623797416687 -0.11308877170085907 -0.0033987760543823242 -0.011897742748260498 0.006139397621154785 0.05972126126289368 0.06177017092704773 -0.06544952094554901 0.04169449210166931 -0.0955858826637268 0.08289144933223724 0.0696868747472763 -0.1149209588766098 0.09769482910633087 0.04717765748500824 -0.04406529664993286 0.1241341233253479 0.10492812097072601 0.03498217463493347 0.10973325371742249 -0.10889327526092529 0.04218591749668121 -0.09623320400714874 -0.09527328610420227
0.12045370042324066 0.040914371609687805 -0.024935990571975708 -0.008113712072372437 -0.11004313826560974 0.03705115616321564 -0.09514909982681274 0.02208656072616577 -0.056795865297317505 -0.09313656389713287 0.0025705695152282715 0.10556653141975403 -0.055568575859069824 -0.08066719770431519 -0.059446245431900024 0.07106748223304749 0.02167828381061554 0.03945985436439514 0.08587262034416199 -0.047527849674224854 -0.05340315401554108 -0.05529928207397461 -0.018279850482940674 0.03784887492656708 -0.11967505514621735 -0.08389808237552643 0.03581497073173523 -0.0884036123752594 0.10594439506530762 -0.06755675375461578 0.07414524257183075 0.009468048810958862 -0.025705307722091675 0.06276442110538483 0.034945592284202576 0.031719207763671875 0.018527954816818237 -0.006857201457023621 0.11412876844406128 -0.010955944657325745 0.07300432026386261 -0.08540208637714386 0.06715966761112213 0.053829193115234375 0.054329559206962585 0.10111148655414581 -0.06553418934345245 -0.0924689918756485 -0.10347793996334076 0.04402759671211243 0.08330440521240234 0.06015145778656006 0.08107736706733704 -0.002262115478515625 -0.09251284599304199 -0.0722448080778122 0.07213346660137177 0.09886087477207184 -0.05216635763645172 0.0807020366191864 -0.10286860167980194 0.02442440390586853 0.03120654821395874 -0.07600468397140503
-0.021398082375526428 0.03697463870048523 -0.06584315001964569 0.017023250460624695 0.07335714995861053 -0.10191398859024048 -0.12302272021770477 -0.01934140920639038 -0.036470070481300354 0.10318119823932648 -0.04154668748378754 -0.018372386693954468 0.10872218012809753 -0.03910274803638458 -0.10573288798332214 -0.03752729296684265 -0.08734738826751709 -0.0047502219676971436 0.022077694535255432 -0.10490307211875916 0.07263574004173279 0.03932705521583557 -0.10079704225063324 0.12013658881187439 -0.07661910355091095 -0.0950935035943985 -0.12266254425048828 0.017251119017601013 -0.08255746960639954 0.1194017231464386 -0.10234782099723816 -0.1188654750585556 0.11098308861255646 0.09969140589237213 -0.09981918334960938 0.05446407198905945 0.025749221444129944 -0.0607544481754303 0.00416603684425354 0.056285589933395386 0.10342325270175934 0.013788983225822449 0.06940996646881104 -0.030398130416870117 -0.06446053087711334 -0.019944220781326294 0.11751122772693634 0.11447221040725708 0.007511928677558899 -0.10593864321708679 -0.10649637877941132 0.09109766781330109 0.12469364702701569 -0.07195383310317993 0.01097118854522705 0.014075607061386108 -0.051105841994285583 -0.09872192144393921 -0.09927552938461304 0.04464435577392578 -0.11528755724430084 0.08134560286998749 -0.0768660306930542 0.0159275084733963
-0.11780323088169098 0.0051454901695251465 -0.051497682929039 -0.053897321224212646 0.08330324292182922 0.059389546513557434 -0.0019435733556747437 0.11364957690238953 0.08313769102096558 -0.06319011747837067 -0.009612113237380981 -0.04257720708847046 -0.12367050349712372 -0.10754336416721344 -0.10764022171497345 -0.08260798454284668 0.04871058464050293 0.09994885325431824 0.11332067847251892 0.0072662681341171265 -0.045280709862709045 0.041710078716278076 0.10200096666812897 -0.10768289864063263 0.0905466228723526 0.10235263407230377 -0.07981067895889282 -0.040666669607162476 0.07452705502510071 0.095661461353302 -0.06453388929367065 0.05840352177619934 0.07745562493801117 0.009820535778999329 0.015596255660057068 -0.08021017909049988 0.04604363441467285 -0.10064263641834259 0.08435674011707306 0.09565922617912292 -0.10339362919330597 -0.006646260619163513 0.03812536597251892 -0.07535707950592041 0.09531012177467346 0.12126630544662476 -0.03390145301818848 0.12446120381355286 -0.061017706990242004 -0.06862735748291016 0.031046941876411438 -0.08435957133769989 0.07013815641403198 0.09294596314430237 0.01822841167449951 0.013743370771408081 0.01602683961391449 -0.013384565711021423 0.06579729914665222 -0.0775509774684906 0.004669025540351868 0.08041681349277496 0.013285011053085327 -0.012077420949935913
-0.06825979053974152 -0.042651548981666565 -0.021296873688697815 -0.03457130491733551 -0.0006440430879592896 -0.02496640384197235 0.03397457301616669 -0.005207419395446777 -0.04587648808956146 -0.03144142031669617 -0.034213870763778687 0.0020108073949813843 -0.052980199456214905 0.10672295093536377 0.041647255420684814 -0.030076652765274048 0.05307917296886444 0.08226144313812256 0.09926679730415344 -0.05802758038043976 0.05847771465778351 -0.11690093576908112 -0.06343071162700653 -0.06264747679233551 -0.047581061720848083 0.0772344321012497 -0.12022046744823456 0.04938420653343201 -0.042488738894462585 0.09611594676971436 -0.03572662174701691 0.03076063096523285 -0.027139276266098022 0.0198601633310318 0.09454981982707977 -0.03831227123737335 0.03436022996902466 9.34302806854248e-06 -0.11125019192695618 0.0718839019536972 -0.06463374197483063 -0.08639079332351685 -0.019320711493492126 0.11710181832313538 0.06478251516819 -0.032294124364852905 -0.03993822634220123 0.07367043197154999 -0.03469550609588623 0.11212158203125 -0.1141682118177414 0.08655056357383728 -0.12148851156234741 -0.011531993746757507 -0.08415405452251434 -0.09818130731582642 -0.02340395748615265 -0.07305364310741425 -0.08400961756706238 0.09042802453041077 -0.09566880762577057 -0.09164121747016907 -0.05410827696323395 0.06067447364330292
-0.09398110210895538 0.0625859797000885 -0.05342401564121246 0.037394553422927856 0.017051860690116882 -0.08757255971431732 -0.0891108512878418 -0.11384722590446472 -0.014307558536529541 0.022091448307037354 0.026566684246063232 0.019680604338645935 0.004683926701545715 -0.003044918179512024 -0.07613645493984222 0.0920504778623581 0.0038213133811950684 -0.09382084012031555 -0.11855703592300415 0.11974479258060455 -0.012815549969673157 0.01046687364578247 0.09280921518802643 0.10412035882472992 -0.06119464337825775 0.08923104405403137 0.0922512412071228 0.029295742511749268 0.05743575096130371 0.02944187819957733 0.12249325215816498 0.06719498336315155 -0.05435052514076233 0.07796241343021393 -0.020249366760253906 0.11018921434879303 -0.03029187023639679 0.11239442229270935 -0.10360778868198395 0.11716684699058533 0.010278552770614624 -0.014705941081047058 -0.04372034966945648 -0.006002023816108704 -0.10670429468154907 -0.004060640931129456 0.0016715526580810547 -0.10613185167312622 -0.09795713424682617 0.100467249751091 0.06941528618335724 0.08873039484024048 0.03654196858406067 -0.03930447995662689 -0.05693182349205017 -0.023585110902786255 0.07038968801498413 -0.007547840476036072 -0.08583754301071167 -0.020975008606910706 0.041504472494125366 -0.07760167121887207 -0.12267535924911499 0.002998173236846924
0.04494602978229523 -0.0418916791677475 -0.0590347945690155 -0.06708815693855286 -0.08035586774349213 0.05035775899887085 0.015331581234931946 -0.04903183877468109 -0.0024294108152389526 -0.009693428874015808 0.04289214313030243 0.06087830662727356 0.06215210258960724 0.05040472745895386 -0.007362827658653259 -0.07635372877120972 -0.11137700080871582 0.012516051530838013 -0.1010122150182724 -0.09236708283424377 -0.05006857216358185 0.03738360106945038 0.00746329128742218 -0.004964873194694519 0.09258610010147095 0.052711427211761475 0.007422447204589844 0.0006622970104217529 0.07846608757972717 -0.02673819661140442 -0.11160892248153687 0.0076334476470947266 0.003710806369781494 -0.03762926161289215 0.08032330870628357 0.1127856969833374 -0.02684466540813446 -0.0597095787525177 -0.10093505680561066 0.06824415922164917 -0.1132858544588089 0.005319759249687195 0.027701780200004578 0.03805360198020935 0.04658815264701843 0.11896875500679016 0.12417611479759216 0.11566002666950226 0.05377846956253052 -0.09842690825462341 -0.07287627458572388 -0.07498715817928314 -0.09257641434669495 -0.07133311033248901 0.046442821621894836 0.051166877150535583 0.060258179903030396 -0.03023892641067505 -0.04495461285114288 0.05696621537208557 -0.024097725749015808 -0.10905398428440094 -0.10948275029659271 0.00218161940574646
-0.10545532405376434 -0.05208839476108551 -0.013048216700553894 -0.04616875946521759 0.07761946320533752 -0.050028398633003235 0.07518258690834045 0.08863921463489532 0.05069425702095032 0.0910377949476242 -0.07897768914699554 0.1049431562423706 -0.06569726765155792 -0.02662728726863861 -0.0025684088468551636 0.10186874866485596 -0.004721641540527344 0.036314696073532104 -0.11245211958885193 0.1168716549873352 0.09854725003242493 0.078509122133255 0.0061539411544799805 0.08328989148139954 0.06190553307533264 -0.06885506212711334 -0.1159835159778595 -0.00730586051940918 -0.10178454220294952 -0.043783172965049744 -0.056612029671669006 0.02823643386363983 -0.014575585722923279 0.016707196831703186 -0.0655384212732315 0.006498470902442932 -0.07153864204883575 0.08914290368556976 0.09052769839763641 -0.06561151146888733 -0.03216753900051117 -0.09116372466087341 -0.028727993369102478 -0.09098812937736511 -0.0935358852148056 -0.08722156286239624 -0.015264078974723816 -0.0382709801197052 0.10690167546272278 0.11088758707046509 -0.0031819939613342285 0.0712852030992508 -0.07808384299278259 -0.07343147695064545 -0.020857766270637512 -0.010136187076568604 -0.06845380365848541 -0.04357554018497467 0.10445481538772583 0.10241618752479553 0.06142377853393555 -0.03666861355304718 0.006009384989738464 -0.04447066783905029
-0.018508687615394592 -0.07459913194179535 -0.015560775995254517 -0.04981185495853424 0.008869439363479614 -0.11080074310302734 -0.017527848482131958 -0.047686830163002014 -0.04163786768913269 0.005333989858627319 -0.07274432480335236 -0.013962909579277039 -0.10749034583568573 0.07911072671413422 -0.01265127956867218 0.07231949269771576 0.021539688110351562 0.04782305657863617 0.021834224462509155 -0.0019019395112991333 -0.0873073935508728 -0.034493863582611084 -0.040471211075782776 -0.12306319177150726 -0.06057026982307434 0.12317262589931488 0.0008472204208374023 -0.0895538330078125 -0.02231776714324951 0.036603525280952454 0.027157127857208252 -0.020799562335014343 -0.1230679601430893 -0.08624215424060822 -0.08787807822227478 0.07143549621105194 -0.06547960638999939 -0.12301783263683319 -0.006612613797187805 -0.008140966296195984 -0.11905007064342499 0.11593161523342133 -0.10190160572528839 -0.12000499665737152 0.04108025133609772 -0.050446391105651855 -0.002392023801803589 0.08227729797363281 0.07776534557342529 0.056538283824920654 0.0036700963973999023 -0.020578965544700623 0.08335074782371521 -0.03972578048706055 0.09002096951007843 -0.004483133554458618 -0.07119661569595337 0.023788228631019592 0.05026625096797943 -0.10354764759540558 0.12110726535320282 0.0855608731508255 0.07372544705867767 -0.053177326917648315
-0.04061472415924072 -0.060549527406692505 0.0967651903629303 -0.09327571094036102 0.08190983533859253 -0.007745280861854553 0.11008644104003906 0.10765855014324188 0.01737581193447113 -0.10874652862548828 -0.04283741116523743 0.02971489727497101 -0.026517093181610107 0.09674066305160522 -0.014461755752563477 -0.11844319105148315 0.08067820966243744 0.1000247448682785 -0.03888383507728577 0.03746554255485535 -0.07472631335258484 -0.11831359565258026 -0.11136224865913391 -0.11205847561359406 -0.0633096843957901 0.01864224672317505 0.06573744118213654 -0.05869634449481964 -0.10140742361545563 0.09976436197757721 -0.04574666917324066 -0.11305409669876099 -0.10943955183029175 0.08625763654708862 0.0503980815410614 -0.08699299395084381 -0.10840028524398804 0.10314960777759552 -0.08078835904598236 0.06342224776744843 0.032877251505851746 -0.0038569271564483643 -0.06877678632736206 0.07038041949272156 0.048706889152526855 -0.08964531123638153 -0.07512602210044861 0.1194014847278595 0.06719513237476349 -0.12425464391708374 0.023038014769554138 -0.03175319731235504 0.1163688600063324 0.09974238276481628 0.11950111389160156 0.1128884106874466 0.0897088348865509 -0.11628739535808563 -0.10142700374126434 0.05150574445724487 -0.11302439868450165 0.03178383409976959 -0.10479603707790375 0.06907151639461517
0.021001070737838745 -0.05014964938163757 -0.07339157164096832 -0.02842959761619568 -0.07967476546764374 -0.024169087409973145 0.08421117067337036 0.11945672333240509 0.09706421196460724 0.07053212821483612 -0.027316972613334656 0.07849326729774475 -0.1192779541015625 -0.09929452836513519 0.10404175519943237 0.04902547597885132 0.07759971916675568 -0.12041842937469482 -0.03492259979248047 -0.0029882490634918213 0.10610494017601013 0.06845404207706451 0.03312765061855316 -0.0031544119119644165 0.07789923250675201 -0.014619827270507812 0.013229325413703918 0.12205609679222107 0.05196163058280945 -0.10786649584770203 -0.025162994861602783 -0.06978373229503632 0.10834759473800659 0.04457825422286987 -0.07907195389270782 0.12164883315563202 -0.07457597553730011 0.09853751957416534 -0.04483833909034729 0.10643218457698822 0.05088751018047333 -0.05507907271385193 -0.0021433979272842407 -0.11994099617004395 -0.03064684569835663 -0.0945030152797699 0.07200689613819122 -0.004477769136428833 -0.03194928169250488 0.03601051867008209 -0.1159798800945282 0.1197625994682312 0.09894318878650665 0.0776737779378891 -0.08093036711215973 0.004583537578582764 0.00898180902004242 0.07842616736888885 -0.10884276032447815 -0.10448496043682098 -0.044147104024887085 0.11930274963378906 -0.10073894262313843 0.08674335479736328
0.036456525325775146 0.1249588131904602 -0.02367134392261505 0.11655496060848236 0.012260645627975464 0.08875757455825806 0.040817663073539734 0.0729878842830658 0.09690432250499725 0.10200852155685425 0.09319795668125153 -0.003225848078727722 -0.06809137761592865 0.04605802893638611 0.1104658842086792 0.11245562136173248 0.11396503448486328 0.0731697678565979 0.061593443155288696 -0.038684338331222534 -0.08416970074176788 -0.11974091827869415 -0.06746453046798706 0.04445575177669525 -0.08925609290599823 0.04206135869026184 0.03198370337486267 0.010762453079223633 -0.11744540929794312 -0.004327863454818726 0.03795461356639862 -0.07333016395568848 0.007218971848487854 0.12141463160514832 -0.02518428862094879 -0.05502310395240784 -0.052437424659729004 0.10253937542438507 -0.0432395339012146 -0.04662857949733734 -0.04107178747653961 0.097471684217453 -0.04112629592418671 -0.062241390347480774 -0.04915958642959595 0.009587645530700684 -0.051395922899246216 0.01531374454498291 0.07717719674110413 0.00883716344833374 0.12080293893814087 -0.041022419929504395 -0.11225789785385132 0.04890044033527374 0.05758756399154663 -0.11537910997867584 0.08715274930000305 -0.02022138237953186 0.024542197585105896 -0.06328363716602325 -0.08696004748344421 -0.0023787468671798706 0.004349038004875183 -0.04122164845466614
