-436 -140 -348 93 372 313 -99 368 -257 -40 -272 -370 -78 -316 260 120 -9 406 414 -124 22 -391 268 1 454 -442 121 -122 320 -134 -124 339 199 311 -102 -150 303 201 131 -417 39 361 -468 37 -369 123 -20 455 183 -271 -28 -393 107 10 -193 307 276 -170 -352 -462 197 62 231 -473
-132 -96 -14 269 -502 -31 84 -476 -506 183 413 88 119 477 279 -254 64 38 90 218 -124 478 425 -223 -490 48 450 364 8 367 -119 -271 -484 98 -255 434 -180 -182 256 -412 -490 338 -27 -141 426 7 222 35 251 -70 -28 44 -390 352 -174 -156 -258 -466 -138 58 -450 208 103 153
-78 -256 -159 -71 -255 124 -495 -467 -30 466 -467 -89 174 -319 251 -123 -299 -270 -347 183 193 -396 241 423 -313 217 -157 28 -56 -355 251 -286 -365 64 -73 -123 -314 320 -273 -99 -219 -196 -227 323 -96 -96 35 -36 102 492 141 -476 54 116 188 407 40 -321 263 -124 -151 -500 -89 259
-157 -123 45 -335 170 59 -368 384 -403 -106 -375 64 411 -393 53 239 -47 50 -159 127 -394 -8 -259 50 333 183 -449 419 -234 -347 145 -108 -507 328 35 112 -192 -221 368 -292 273 -50 239 72 49 -266 239 404 277 -187 -238 413 293 250 427 356 165 -148 -147 -78 -127 -468 80 470
-145 348 -160 -283 -132 -85 -72 216 132 197 -46 -456 -169 167 -16 -446 -435 90 29 392 265 199 30 246 111 -332 139 41 20 -245 273 -437 216 200 365 74 443 -240 -330 477 -386 381 293 349 -309 323 153 361 440 203 -361 306 -157 -492 302 251 -48 -204 364 -214 381 -403 260 -349
384 184 -202 403 -187 -36 -361 39 92 -158 432 -478 -252 410 -385 -196 96 354 -487 -175 -404 278 461 -20 199 -455 -326 -410 189 -478 257 346 -292 -467 330 -450 -106 111 -366 -36 -158 -65 365 -425 -55 -433 -304 24 186 81 -254 231 297 68 480 427 189 -215 -199 -170 -256 -446 224 490
-453 -508 -229 240 -464 -13 -147 -385 439 481 -256 -109 -71 -33 -77 -507 297 -374 -110 109 403 -158 196 -281 387 507 -472 -24 -108 445 -491 51 -215 -267 151 -204 -69 95 156 86 -188 494 -131 494 -88 250 425 -270 -491 -419 71 -174 -486 473 424 -355 -197 -147 -339 -279 184 -117 -457 324
-404 110 -286 -493 343 -305 90 -388 232 45 107 -414 -405 -286 -128 -340 -156 -494 227 246 -117 -482 -22 471 95 -250 -411 407 -509 93 8 44 -413 387 -460 -66 392 243 95 -275 -283 210 -269 277 43 -6 356 477 30 -441 90 -167 -21 -83 253 -469 -146 -37 -99 232 -175 353 -191 -175
-82 -102 270 -239 -346 211 215 -321 224 -143 -176 172 -511 -370 27 -203 56 -3 89 97 -31 -429 -418 191 -377 -386 -462 495 144 -170 134 -454 485 470 -393 124 374 -322 456 4 -426 92 39 364 36 -506 257 -195 360 282 39 505 376 130 276 17 182 -213 -454 -457 -272 11 -255 -503
-34 398 -457 183 166 -184 -113 286 76 -122 -486 -37 8 -330 -484 431 -24 -12 350 -49 247 -490 -161 291 132 344 -206 -13 -379 -341 440 -80 -46 76 414 -484 142 32 358 360 -78 464 5 59 144 -491 459 -425 -264 9 122 -10 -410 431 -438 -356 336 -459 -426 -304 496 -360 -5 -51
-396 46 121 -250 480 -89 280 -74 -63 -452 -494 -374 1 168 -420 -385 456 138 66 60 -90 -492 -383 -101 -504 309 -457 -380 291 206 399 -474 408 -482 -321 433 91 166 391 -139 -396 -312 -335 -283 -6 158 332 -425 -82 9 453 -360 -269 -76 -377 -255 342 29 263 208 371 44 409 -449
-125 -219 237 -237 -114 389 -125 164 -33 174 49 479 398 -290 288 139 -488 127 475 -280 -151 25 -217 391 -479 -18 -278 -503 61 -198 340 -381 193 -219 273 -187 -298 88 54 296 -439 5 380 400 421 344 64 -490 -374 -474 -203 -444 139 -31 -444 272 -426 175 159 -436 -228 -308 -97 359
-410 -230 64 -368 -489 305 391 254 -289 505 -351 404 -227 264 -272 292 -237 -397 -79 -24 -493 -271 20 -443 381 167 -189 -218 -344 200 158 -327 372 295 -384 350 -419 421 -333 432 -502 -506 -387 334 459 -420 -3 -471 188 169 -183 129 389 -428 -422 327 -169 -368 363 -216 361 -62 135 -43
410 404 -375 -457 -295 -391 439 254 -87 298 367 89 492 445 -263 -77 167 -6 -332 -348 -162 -189 -232 32 369 -385 -410 -13 218 -202 111 -435 507 -159 -50 81 -363 -83 -70 234 86 -163 189 77 -98 242 -495 -222 -45 -62 -74 -365 287 97 -384 -326 169 -418 29 385 154 -506 78 280
-399 -493 429 -280 154 221 492 442 -259 -116 -507 -411 -360 503 382 143 442 336 179 -503 -33 225 -50 -352 -80 477 -354 -397 274 -281 51 -159 497 -361 258 435 1 32 397 222 -195 203 226 -180 -430 -178 -111 276 159 -21 -44 413 -126 56 114 243 -32 -318 58 -480 -142 -483 271 -149
-54 442 -73 253 -441 105 -136 -31 259 -444 -15 -435 -371 -384 -110 -414 451 430 -129 -137 -420 -358 332 478 282 -339 327 54 63 -242 -106 -342 474 -151 226 414 408 -69 -228 -413 -287 -400 -154 316 -220 -284 -414 -177 -464 364 155 337 292 168 389 309 32 305 25 -177 331 337 -52 -362
-465 -241 189 -13 -452 -383 -47 195 -370 -126 -341 -426 185 -403 267 227 314 364 -95 412 450 321 -222 -26 -84 -230 -359 -383 -337 257 349 -287 504 -110 -208 222 -465 -478 48 68 419 -38 -318 79 511 -297 -296 499 367 107 241 109 198 -226 115 -451 412 -196 -307 -426 351 227 171 508
-433 -5 19 -372 -40 3 228 -234 -284 129 -453 -433 -219 351 95 -112 -207 -57 380 -116 252 19 -317 32 323 -136 -179 469 196 465 364 48 -229 290 -240 203 -96 263 -276 -41 373 253 340 218 -258 286 365 -450 -118 -226 -50 449 445 385 -453 -330 146 -234 38 -96 410 138 433 290
329 -167 474 -165 -341 -239 481 290 392 405 -244 256 123 -178 411 -377 -370 292 -37 -132 24 488 -479 -250 -194 486 -496 -498 455 165 -272 -401 133 230 2 -214 279 -40 -123 203 -491 85 149 -409 335 507 143 -345 -410 -299 344 207 -478 64 -45 -306 -53 317 458 262 410 293 -477 -127
-487 -394 480 147 354 70 -87 207 -418 -205 387 -454 67 -193 -257 74 -162 -266 147 452 24 -391 -136 440 -290 -89 -66 -484 304 -351 -132 438 -486 183 164 449 -352 -102 204 179 351 -317 238 -435 -37 -53 -241 -483 235 -471 -479 -118 4 -494 -475 150 274 -307 281 -15 275 468 172 1
84 -453 -416 206 -404 -175 44 493 -296 -429 58 7 302 14 -183 257 -168 458 -486 175 -361 393 -32 294 -508 434 150 -219 401 -446 236 242 -174 21 39 18 -32 -350 288 388 462 -84 393 124 430 118 315 -94 427 397 73 -96 -471 -439 -126 -46 352 -127 3 -52 303 -22 146 163
-25 397 374 468 -107 -426 -14 489 -312 367 -352 199 -98 -283 136 146 178 -190 190 -424 -434 495 -459 -33 -285 388 -231 -413 442 -358 381 -302 -32 441 449 -288 -99 -150 -450 -238 -240 -429 -187 194 -392 -322 -463 -473 -235 80 -320 258 -436 -234 506 434 291 31 179 -109 -32 185 -45 42
-233 -313 500 19 -456 149 -470 -240 -464 -472 129 403 292 355 -368 361 -385 -48 291 141 203 357 -3 397 -84 339 -1 450 236 -76 -347 -266 -31 -102 248 500 -20 -190 -25 -8 451 -245 -324 -463 54 -323 -329 -27 103 383 137 -42 -505 365 -25 -182 407 -163 -372 -305 427 92 -109 -414
439 29 135 -114 -376 388 -18 452 347 398 93 55 252 -282 308 62 -106 -368 -35 -93 87 122 -452 -403 -174 402 397 152 -282 480 -273 -92 498 -130 -299 -259 -99 384 345 3 -382 -373 241 -14 -39 355 12 -474 -364 -255 -132 -350 156 -191 -392 -247 -185 460 -297 -446 258 148 428 -446
-127 -79 230 -228 234 444 453 61 412 256 469 -264 -266 276 338 168 -452 6 241 392 -110 -105 418 -58 456 223 -224 -263 236 -188 -11 206 -351 -374 288 488 422 -18 270 -330 -300 -489 62 273 -19 -468 -402 -99 48 -70 -350 -99 -109 234 264 -31 -150 -61 -476 -469 33 -509 442 20
70 -49 284 111 21 64 -303 125 355 175 -155 -5 369 500 19 -219 -158 -130 -139 126 494 161 440 -116 276 321 226 297 -135 -406 312 77 -171 205 -84 269 265 83 -371 -39 276 372 166 -425 341 -76 -473 -400 128 80 143 459 506 445 -1 215 -294 271 -310 192 62 124 230 -247
-107 -26 231 -302 10 -443 262 18 257 -161 139 -112 405 -416 165 476 -125 314 -297 -507 -257 312 253 -505 -152 -339 -341 -339 487 -510 201 136 330 252 -244 -188 180 -5 -104 441 24 -134 73 -487 -319 290 111 61 -498 101 -86 448 274 1 107 -224 44 211 -487 45 29 212 -70 -509
-94 -131 -504 263 57 204 267 -43 -512 510 -416 -192 -443 173 -101 367 -11 64 157 -180 215 392 -487 -385 -340 92 -285 405 -469 -350 -391 4 -41 -128 -319 -163 7 350 97 -200 29 -73 402 -509 12 193 -117 36 0 352 -50 -107 422 221 207 508 -430 -60 -270 301 456 398 491 201
289 -257 137 -104 -104 -63 458 119 494 -216 355 262 30 423 -500 282 -381 -79 -75 289 -57 -187 470 184 -88 -9 -377 -368 -294 -396 443 -270 -13 113 -196 510 -477 -62 -56 335 -506 -471 128 -306 -500 210 501 105 -10 -442 -266 46 332 -236 352 363 -328 32 437 210 310 -88 -381 414
81 -421 -21 411 -379 171 -439 -316 -453 12 -312 -126 91 -126 204 -60 -4 -246 -39 276 -82 405 421 366 -212 -133 -300 -424 -266 -385 -471 171 53 -337 -301 -416 -205 84 -176 -339 -394 -207 -311 -35 206 446 -224 -117 -238 -504 -437 -117 -422 -115 424 -104 -141 -33 277 -234 183 350 -343 -46
225 -155 233 496 -313 457 -42 -69 -114 -230 -484 -179 408 -498 -382 -264 -113 140 268 -327 -203 131 235 225 -108 338 -19 -318 -113 -321 68 -121 -372 478 -377 -367 -375 470 195 7 -208 494 37 104 75 -171 443 -93 -37 500 357 -190 -2 374 -113 219 53 -205 460 29 21 440 89 191
70 286 361 -148 -358 282 216 83 -478 -471 10 -33 -376 -99 -265 310 249 84 -425 154 -507 483 86 -278 -465 452 -285 -488 -20 -230 -364 -197 26 -479 24 219 467 66 -267 -349 -507 249 -99 509 167 -329 104 39 124 56 -122 -342 256 511 -200 111 412 400 369 -198 505 19 -502 85
-26 232 449 -317 -366 64 -215 1 -264 471 319 355 -181 -202 -271 346 309 -329 -407 -169 270 -326 -170 -181 485 405 -226 -310 404 -332 307 276 114 442 -418 -84 -294 -455 189 -425 -430 0 -183 -430 88 378 486 -175 -350 330 182 -509 -250 286 -476 31 -447 410 104 358 -118 273 -448 50
-409 -348 196 433 -445 308 270 302 -75 -497 -181 301 -70 -273 131 -166 -367 -7 10 211 -253 -4 360 -51 423 -245 -490 360 56 169 58 -75 24 -3 340 -506 243 19 -86 -166 -293 481 504 -78 -167 190 -79 147 -288 -64 -171 307 447 -96 183 -97 -85 -149 465 -26 388 -371 267 -137
424 340 476 -198 -472 -258 44 302 458 288 369 -409 -412 -231 314 198 -422 -403 342 -246 221 389 13 -120 507 503 501 382 395 76 -288 392 -360 250 134 181 -105 373 15 323 -267 39 -316 -370 -82 348 -166 494 -90 -120 -323 201 350 116 -504 -413 -131 442 -382 -431 -340 -402 126 420
-176 74 171 285 -421 417 470 138 352 -258 144 -107 -246 213 -56 -106 -196 496 -139 -62 327 -170 -447 271 252 240 50 -133 -154 -171 399 79 499 216 -155 -178 -193 237 242 290 -474 23 -4 -177 -373 -110 442 -314 -446 115 -456 263 -222 422 -133 508 426 -439 436 -352 107 288 -487 -417
20 270 -133 110 193 240 -450 -94 58 497 -319 477 -134 399 -256 -254 -174 -357 507 -219 89 -61 421 -432 -461 358 497 45 173 -470 -138 -161 102 246 41 -342 -354 116 314 396 -498 301 148 -347 465 247 -100 -288 -218 -199 -215 -50 210 121 487 3 258 200 -397 -56 328 337 -167 102
236 -7 -495 -105 -57 389 -90 -439 -365 474 194 73 217 -446 230 400 103 -278 -382 275 299 321 -105 -141 -441 -187 -26 168 361 447 416 338 94 492 -401 148 -147 -62 153 470 63 346 111 -160 436 330 -312 169 197 -256 -216 248 -436 -491 244 -362 297 -62 117 279 -167 180 161 158
360 -15 462 -453 -64 346 305 -273 -87 -500 -433 118 169 -285 476 -55 -94 125 -282 4 -373 -354 -289 186 -255 10 -356 147 -172 493 272 342 33 135 308 -49 -181 -138 98 368 -509 -435 -32 -263 -181 404 -76 -372 -102 403 45 -407 236 365 168 166 84 359 362 348 27 -168 -168 216
-504 267 -301 -40 171 193 409 452 -317 -398 179 10 298 449 440 -405 241 -232 -405 -111 145 63 419 -480 352 423 -147 -488 451 469 124 -21 -35 -236 461 -35 503 -161 -185 295 -193 205 -503 -289 -223 465 453 366 189 189 223 56 286 379 88 287 -15 415 -57 -29 -282 -230 111 232
-368 -164 -82 -321 212 -492 358 140 -137 237 -343 2 -338 313 49 -116 -352 -368 -137 -308 434 208 -492 -58 408 492 185 -463 178 301 95 -264 219 -151 -98 425 139 -169 -390 1 6 -72 -243 -123 -492 228 192 122 55 -31 -367 343 -19 89 -30 -501 -142 446 252 -287 -467 10 -120 181
-322 483 422 -216 102 124 481 -121 -71 155 225 -271 -413 -7 69 253 368 8 270 -379 -477 -214 358 -86 -110 355 322 -197 -345 193 97 355 -506 -352 -276 187 412 -268 -27 229 33 -403 187 167 -295 -362 274 -299 -205 20 -488 286 465 229 276 268 397 -324 486 -257 -196 -409 483 -423
-103 -341 485 39 116 -474 -322 -323 -342 -259 -393 46 270 448 -253 -496 -82 288 234 127 448 -353 354 51 -469 -500 271 -349 -143 -180 -244 379 450 -98 173 -250 471 -52 -310 -319 -124 -428 -159 304 321 -43 -302 -396 -470 -64 -296 -83 -459 -54 124 460 -420 24 482 -73 309 281 28 296
93 -238 -32 -458 -20 -505 507 -451 -20 321 -80 -118 -211 -63 -180 368 209 49 481 -415 511 277 -128 -493 -186 -4 271 127 174 -215 -121 502 284 329 -55 -369 18 241 94 470 -353 426 -219 -93 -59 -278 295 300 -280 364 -387 48 -104 -201 -439 168 195 -414 -241 -259 -259 206 66 296
458 -145 -189 -157 -106 -321 82 242 403 384 -111 511 -136 170 323 390 498 -500 -486 -451 96 -189 81 76 -492 -230 369 487 67 -300 -110 -67 -245 -160 221 -493 382 -485 -510 247 -148 298 312 -38 496 475 -246 407 -77 -473 -396 92 -114 10 88 -170 -429 451 -79 -354 -480 53 -189 71
392 -54 -492 -395 93 3 -301 -35 -72 485 -110 -322 91 470 -130 45 -65 128 -299 -148 -393 195 285 -207 228 -484 -478 -357 -294 -404 479 262 445 429 424 334 291 129 50 479 43 24 -420 435 392 -399 243 20 -197 89 -498 -279 -505 -129 304 443 153 -485 24 44 138 -22 329 362
110 -226 -378 -252 201 -302 -468 290 438 151 -276 85 0 -203 -182 399 156 87 222 -481 -355 -218 -82 384 -421 -333 -502 -449 -314 276 475 95 -332 -129 -138 247 194 315 242 -131 -245 318 511 472 -281 -454 435 -237 -237 182 455 271 34 -199 -399 -471 315 403 216 439 -110 -170 473 -44
-269 348 292 493 -378 -85 -296 -487 453 -302 -177 -332 -275 293 -290 131 13 -14 118 49 319 478 462 -399 491 -41 -429 -122 24 68 -210 454 -272 -432 -190 -210 -286 486 7 490 495 37 -252 472 -406 -391 174 45 32 6 31 -158 -440 103 -198 232 476 412 -205 457 2 502 509 -115
-467 -339 -137 427 141 -223 432 246 -86 326 291 -101 412 342 -403 -360 -111 158 -370 -244 38 407 -409 168 -345 -210 -338 -130 11 -85 231 -347 -407 -478 -412 -422 151 460 12 150 -455 -326 234 397 -306 335 -148 94 138 370 -424 233 -362 -6 -348 157 326 -238 253 -117 44 -62 39 -207
108 -47 -419 142 102 -38 -73 -504 -308 -49 506 96 -343 -37 -109 496 181 456 -222 -119 -175 211 -16 -448 128 -232 96 481 429 -417 -226 188 -478 92 491 96 37 41 434 402 -173 -165 190 -254 186 -507 49 150 -399 -245 -22 -510 299 309 -479 469 48 332 -58 50 282 -320 -176 304
300 -174 29 28 -94 -418 -65 367 -42 -414 -127 -233 487 436 399 -356 -439 -68 -470 -390 -73 72 191 -284 21 471 20 191 325 248 -447 468 61 313 -2 43 258 78 222 396 -437 279 450 16 -179 -138 241 -31 470 -168 -55 54 104 -44 314 -171 -181 -46 357 -100 -145 284 -61 447
-226 -425 -161 274 -247 -199 396 488 499 -172 -307 -54 149 270 412 -256 445 -73 -501 -425 306 -198 412 414 -478 -69 -445 -480 -404 -414 -114 20 -175 -148 58 -172 121 330 -207 -37 -154 245 -317 101 271 -32 507 14 208 -185 312 -79 -172 -122 241 -509 -39 163 111 410 404 -266 316 333
273 -285 -287 196 -62 337 258 255 430 282 126 -293 -246 -318 282 -78 471 -243 -464 -256 -168 -93 -70 334 -115 210 -33 -261 -275 -369 100 -364 -153 -158 22 -411 351 318 -214 496 354 -110 495 -30 201 -306 467 -238 400 153 446 387 -6 -216 206 -510 -444 127 -127 -178 -468 -160 193 77
127 327 256 175 339 263 -81 -76 -88 -77 -501 453 90 -288 -371 -117 373 -53 -35 481 182 -303 131 3 176 94 -221 -293 129 -470 -403 -352 67 502 7 -221 63 272 -373 -354 428 -375 286 402 247 66 27 238 -99 -129 271 170 -175 90 -496 467 -52 80 -281 2 0 -333 -299 308
-145 43 -463 -247 -340 335 246 46 503 350 -25 358 -291 406 -414 68 -3 509 426 326 -390 -492 319 323 507 -112 176 206 -445 -229 -224 304 -109 -465 -258 251 511 215 382 498 -452 24 -249 187 -219 186 -380 181 -97 -369 -413 481 278 464 -229 272 476 -68 40 187 5 -165 412 502
-405 434 119 320 464 420 -257 -51 301 -445 141 -479 -410 47 27 -14 -486 326 -92 -10 -373 310 285 3 341 324 64 -56 461 -436 433 -149 -240 -492 401 4 479 129 127 488 428 -148 211 67 -381 72 398 -418 174 -149 328 -56 -49 142 467 59 -432 443 304 389 195 -205 -277 362
-11 239 25 -506 -387 -460 45 -111 193 -203 -246 -59 -464 -355 -321 30 45 109 482 -267 85 426 245 303 -17 -491 153 -45 150 -90 191 311 63 62 15 359 448 471 276 395 437 457 175 46 -375 418 494 364 43 -53 355 480 58 -506 75 507 -287 -299 274 -383 -248 414 389 -152
299 -459 214 -129 83 -206 325 -280 -303 85 490 -40 73 -476 -390 97 -342 258 323 -41 -248 -81 62 116 -475 -363 -88 70 -306 331 -180 -68 76 370 61 184 137 126 -28 -255 -323 -499 225 -75 -450 496 -53 -133 -488 80 -197 -50 33 -462 88 112 372 -215 117 445 -11 207 72 27
177 -296 220 -398 451 408 -85 416 110 0 -33 268 -22 -417 487 -219 27 -475 106 225 -66 151 -200 234 -174 322 -259 63 -301 -159 248 423 289 484 2 101 240 -358 -51 -54 -323 -357 241 28 254 -299 277 256 122 -216 97 484 55 -377 -482 119 -189 -310 -324 353 67 -309 -22 -216
-27 -298 336 435 -247 13 -74 467 -479 -182 -73 182 -171 488 -11 294 361 76 170 257 -410 -153 437 354 294 -174 -209 124 -33 489 -70 -41 -317 -416 -154 341 -288 -128 -237 426 -252 324 -154 162 389 -75 10 -152 281 -77 407 244 -41 447 268 288 324 23 -448 -462 -190 -202 2 -142
-257 171 -377 381 496 -429 -213 245 496 478 77 59 462 371 457 -456 182 10 381 -109 -345 67 487 -193 -32 -284 367 -170 -430 -191 455 77 -125 493 88 -449 88 -360 -5 163 -224 424 -208 -475 -378 49 418 -262 46 383 150 323 324 -276 344 483 -138 -350 465 45 332 -448 -257 48
157 56 -49 -334 196 147 22 -207 94 27 306 -185 -476 -306 376 244 -103 342 -384 141 -244 446 -475 -254 -39 427 2 -472 402 -52 -40 130 -378 211 -303 -181 15 389 -183 308 499 -292 275 202 475 -193 79 142 106 -217 -135 -221 203 -427 -478 135 410 -377 253 -453 279 -380 -124 -4
118 217 -176 -179 442 436 358 168 -329 382 243 495 184 121 -201 289 254 -34 -348 112 174 347 -143 -30 237 -230 -123 -24 -394 -353 153 -236 -477 -454 418 454 443 346 138 -188 136 419 458 468 416 -57 395 186 -455 -70 94 -130 59 360 58 496 -177 -122 226 132 437 156 -452 -193
74 14 -19 -62 -66 270 -9 -477 -166 -162 492 -383 -205 -191 -438 313 238 -49 250 -251 220 79 240 -315 -115 -435 286 -297 230 -367 -375 345 433 -163 -462 50 -296 -91 -492 37 -463 -370 374 -256 108 -327 406 358 292 -312 -362 -74 337 324 367 459 457 -340 -125 -171 440 406 -447 181
-333 -27 264 315 63 -327 -99 209 -170 227 -234 109 333 33 -96 -281 -220 109 404 173 177 481 -456 138 217 70 -94 -335 358 193 -102 321 -163 -446 422 -4 -245 -341 222 -308 -216 56 304 47 -2 508 -104 169 211 377 -293 -32 6 219 -159 312 25 473 -271 -323 253 405 28 -358
-64 -177 -495 -88 399 60 136 -408 -508 7 -279 506 -73 -461 202 408 248 -66 314 48 -320 -85 173 -439 491 -41 -275 -229 -487 59 494 210 -427 -188 -406 -427 91 -134 214 328 -508 505 -94 -262 477 416 -337 114 451 169 -85 -429 -163 -155 -501 -22 74 433 -164 -256 359 -174 -36 -8
350 407 22 -435 -55 -177 -397 93 -334 -65 -490 268 258 -128 -494 413 490 -45 -184 -411 -96 -202 -319 -76 -465 -494 389 450 -377 39 289 209 137 452 336 414 -511 340 156 -493 -278 -344 -197 209 -443 91 -272 266 -360 197 -123 -394 -304 24 -47 495 -359 248 217 -6 -221 -452 307 -310
-82 -114 -505 -288 174 369 78 301 -338 41 -209 160 338 70 340 418 -479 -495 297 293 -251 -325 96 76 -415 294 234 79 -275 -306 462 11 173 386 -454 -400 421 227 60 -60 309 434 134 197 -42 -463 227 -60 -236 -103 -341 450 192 154 -92 -334 352 417 -13 184 231 -204 86 106
351 461 -247 368 -6 213 -141 42 -336 -351 -211 20 -21 187 124 244 -316 -112 -297 295 227 -398 461 -291 365 414 -177 197 73 -17 28 41 92 482 366 -119 260 509 -349 402 187 -393 153 -392 -34 211 -453 -96 403 -198 -159 118 -146 -233 -233 370 -387 -448 -86 -352 483 299 468 408
-154 185 -329 -108 -311 371 87 -380 -161 467 -353 224 449 -462 57 120 -509 234 -311 42 -451 234 -405 -114 -199 -351 -121 40 -182 284 -130 -20 -352 -362 -432 246 425 253 -406 333 -387 -29 -32 -363 318 -4 415 -250 362 -107 470 -231 -11 -273 -345 59 -326 -97 307 284 -164 -101 445 -190
-177 416 152 467 -324 243 458 -360 94 -442 268 -188 -265 -111 -359 0 184 -296 41 -23 -238 -119 387 -387 137 142 -116 -24 120 295 -308 489 -285 -439 392 -348 21 -214 -233 160 251 -464 200 133 -5 49 -246 -212 -338 238 486 -325 -228 474 188 -134 -240 -410 473 -137 -141 98 -426 36
-246 -322 -307 163 -113 -71 319 -34 -463 357 -401 -190 268 -328 475 -295 356 -332 -323 80 -120 46 -420 -216 283 -429 -82 -190 308 -230 -445 -285 24 -42 207 -51 37 -310 449 -305 -75 -378 429 228 -218 36 187 -295 -225 509 222 266 271 -360 -424 54 -223 6 149 -352 288 15 249 372
-482 397 -89 -261 165 -373 -420 -47 386 496 390 -25 -176 108 300 317 -116 -316 126 91 6 -138 245 -458 -446 -292 -275 -424 52 280 -126 366 -65 456 422 -171 -173 -294 302 262 170 366 -401 439 -474 -54 -50 435 -202 -3 282 320 -127 -389 -446 -290 447 206 151 419 4 338 319 450
-70 -324 417 123 -327 -318 -298 171 -72 -110 102 -467 -189 -155 197 162 -249 -151 -276 -486 482 -289 102 194 -351 358 64 -117 392 13 -416 -23 -399 106 38 -223 78 143 451 253 -449 -110 329 -326 15 15 -333 506 -307 -321 28 -162 -107 -303 472 -462 105 -205 -504 83 -429 -439 340 -383
504 232 -262 399 -20 -403 209 7 377 -375 -478 -84 -500 -244 384 463 -34 14 -26 -347 298 177 415 -17 199 267 -312 76 -374 310 280 118 -38 -42 155 431 -40 125 -422 220 210 459 455 94 -204 -115 419 -87 18 94 17 -353 130 302 -201 -242 270 240 -391 60 42 381 -324 384
325 -256 -186 400 486 -431 480 261 321 330 -338 -235 -54 119 110 494 187 -9 62 -71 -421 65 348 412 -97 -352 170 -496 -21 189 264 219 464 494 -295 -482 -275 59 179 37 391 -222 -64 -4 44 -511 107 212 -463 237 -493 -8 194 319 -165 -404 -316 337 -97 -167 367 453 -201 -413
-500 -280 -270 135 17 186 297 -338 -216 226 -66 -507 -175 243 -162 -81 300 -179 511 124 -389 -169 -48 -169 247 162 -263 -373 423 -346 -150 290 -150 245 46 -229 -108 434 509 -338 315 -89 -489 -376 203 402 -366 -190 308 -293 -159 301 -435 -456 33 -243 -282 -371 157 480 114 122 189 358
164 310 192 -314 67 -177 -309 -212 227 -384 207 -289 -350 -154 103 -113 -357 -313 370 -407 134 395 145 428 122 -416 78 288 -211 495 -126 317 259 -256 26 445 78 -324 -247 -474 -451 -230 414 -153 14 361 223 509 -443 274 391 440 417 -259 61 -166 386 147 -120 263 -463 -7 63 -446
-10 -125 -430 -320 -304 -135 -418 -67 23 -344 -360 -348 -301 49 -311 -323 254 266 -493 280 -85 -265 -136 -197 -283 512 80 -468 293 -248 199 -473 -128 6 445 218 -94 503 48 231 -108 77 -164 476 -147 -424 -182 315 -422 414 157 -415 -279 -405 -144 -33 -257 -503 -182 270 -410 -352 230 -489
-39 264 -460 160 -499 233 -500 157 308 346 150 254 233 -125 16 -299 -398 -54 -405 -275 -74 -232 417 -417 125 -512 98 145 -144 -209 433 370 323 11 -331 269 189 423 -128 223 330 333 -217 174 -192 -278 -183 -10 -453 -148 -367 -419 -250 196 -204 24 -144 362 233 139 -291 -113 -472 410
469 -351 406 400 -59 -338 -430 473 -126 -1 -247 239 23 -16 391 413 396 -448 114 -416 -215 -477 -477 -261 44 -67 -308 175 -197 274 -340 -391 -340 415 -496 -230 193 358 266 153 -204 -129 15 157 437 -303 63 50 -386 -113 283 -438 -488 163 333 505 -408 -236 -423 411 180 105 -93 469
421 290 -297 -115 155 346 -398 440 -465 -332 378 -12 -348 133 117 263 483 -431 384 -334 -69 -405 -417 129 301 -321 228 242 -51 101 247 -452 130 -99 -339 -413 -462 232 19 9 358 116 -297 -309 -403 306 304 286 81 -202 65 -327 -374 -257 -390 64 -20 129 -239 309 506 281 -151 -377
-303 230 286 235 457 433 308 111 -17 353 -309 307 -197 315 325 -339 -193 -398 24 369 -120 63 -398 39 -327 412 11 -107 -38 94 356 153 -290 134 -100 -334 -139 -187 204 -12 123 -225 120 -502 -327 -126 -318 -329 199 -432 150 309 -136 -493 309 250 83 -83 -82 -145 292 91 -136 80
120 104 199 30 332 476 41 146 56 341 122 -268 28 -201 294 178 390 -52 317 330 458 -510 -168 294 -391 -258 396 427 -409 97 305 -258 411 397 115 -509 247 -393 -75 -47 44 -461 5 40 -338 428 21 -38 -465 318 -493 -390 426 176 393 60 -67 -5 11 349 485 151 121 422
-313 386 491 321 -399 415 18 378 57 74 -274 13 332 327 10 -155 -244 190 -246 118 466 408 -60 181 208 -245 401 301 415 -101 -358 202 188 506 269 315 -359 337 45 -167 -231 -318 408 348 -407 163 181 -468 -248 -185 134 119 -242 174 -71 -141 -426 50 -452 -155 317 -409 222 283
81 -178 -31 -225 -154 272 83 -365 -468 246 -453 -93 233 -443 -38 -123 -146 -288 83 -429 -86 -306 -94 -95 461 408 -504 506 -339 95 91 -487 354 269 455 481 -461 381 -127 -25 -51 100 160 320 -50 4 -92 13 352 -13 142 417 60 -236 -54 510 -199 -372 -265 -412 -201 -283 415 -326
-486 -268 8 -190 -353 -94 -333 65 190 -55 340 -305 -240 -41 -86 325 -299 -66 5 -429 -433 -394 134 435 -359 316 -194 92 -312 51 -103 -3 205 -8 267 106 -257 215 -121 -73 -137 21 -239 -287 -183 283 417 -58 30 -412 -15 187 306 -11 -39 -9 -187 397 -214 457 -99 481 90 -135
-403 203 -262 22 -344 -254 -114 293 372 -138 -264 -497 -191 432 367 9 17 -22 436 -421 -362 -338 -139 -406 403 -317 -71 -158 454 422 -161 503 -134 43 -180 197 357 195 397 -490 -128 225 274 -364 -411 198 -282 -407 503 -257 -437 81 234 281 281 18 133 329 437 289 -132 -221 -191 332
123 -37 -179 -125 -487 -62 169 -308 253 -237 -443 -505 -17 -470 19 504 426 -80 -508 156 312 -238 -350 281 -141 -111 -337 -306 149 510 -16 -405 -23 422 91 -502 -34 -349 -122 -427 226 -47 393 -326 60 282 -274 -103 -25 -503 26 21 323 124 -481 346 -410 446 274 506 392 314 -279 -297
204 -95 264 301 311 -174 -31 415 -428 -177 271 459 434 -375 -38 -362 493 27 -198 268 -229 -273 -388 108 -150 -259 66 -177 279 -180 -26 -314 -401 -87 146 -100 -77 -358 102 -235 144 271 -80 -62 -22 251 419 203 -129 -81 -111 381 119 -246 -138 136 168 -61 -30 38 -16 -472 -479 -433
-501 -68 5 -287 -55 482 386 148 370 -68 419 -47 -240 -136 387 195 -476 138 95 -177 -231 -495 127 -99 327 149 467 237 -88 63 -139 -268 -448 -141 68 502 83 -427 292 111 -359 203 165 316 33 -486 -504 -271 -73 -360 -388 373 -152 460 -220 158 -107 -435 -265 -412 505 -382 72 -232
301 -277 -321 301 -387 134 -79 -116 -24 40 408 289 352 61 488 -265 148 275 231 95 -346 143 -412 -28 194 419 371 103 -346 -87 -406 -183 -307 159 -219 -192 287 -421 -426 116 -193 -223 335 -207 180 -295 119 412 -166 289 -157 -196 -377 -62 -42 -151 127 -81 -224 -497 251 -63 -257 -74
-345 -207 -489 11 290 457 228 176 -67 -380 -53 124 418 -221 108 -421 447 -349 93 -107 429 54 -132 345 -276 -73 288 -138 -269 -225 419 -438 320 -180 30 409 -243 -429 399 358 91 -256 84 16 -1 150 298 117 -252 326 298 -445 411 -105 219 45 -453 -465 -10 478 378 -247 -425 -343
196 337 292 452 -97 -125 321 -323 -241 -81 151 -205 242 -285 -284 473 118 -87 436 50 288 -116 134 251 212 388 157 6 -150 -305 -292 -349 -311 359 -259 -14 374 465 419 176 -193 -225 -366 503 -181 412 81 -442 158 442 -318 78 -269 -296 -123 -421 199 476 -34 -476 -437 326 -245 -77
355 -33 -20 254 10 -333 -312 175 -473 -291 131 -227 -443 -74 116 208 9 -303 338 404 316 -176 61 270 -295 -103 496 350 -222 -91 -352 101 25 400 -241 -383 -278 392 -67 -387 294 417 327 -49 260 -66 361 -386 -3 245 -102 -379 319 -85 506 -339 -158 167 35 -447 -32 -200 -256 -443
406 -476 509 188 335 9 56 -187 258 332 341 -127 -413 -112 379 -77 -414 -403 -437 -324 -260 -502 51 475 166 -166 -340 493 251 -260 293 -251 -74 -307 487 -384 -503 25 -400 14 -383 112 -346 237 -462 62 -155 -251 204 165 134 -319 94 -224 214 -249 506 -260 182 -140 -447 -13 509 20
-191 61 -229 337 84 -86 266 309 -483 105 -390 -369 386 449 182 116 -92 252 41 -368 414 67 -310 154 -493 -487 -485 324 457 -75 -373 318 -9 -92 -209 -94 -90 331 -468 -413 -505 128 95 -234 201 390 477 202 -368 486 210 -234 -248 -165 -36 398 -247 406 -296 -265 217 -418 64 -343
-392 -354 -374 -16 -247 -135 451 474 -281 -89 284 504 2 -367 -152 -413 495 -155 390 -402 353 -465 145 332 -282 -163 -58 191 -120 239 114 -495 140 176 394 494 218 381 121 -226 -161 -99 -326 -440 106 -280 -46 -278 191 189 256 -503 -3 241 433 -32 -64 505 117 343 447 -174 -391 398
181 -109 444 -494 254 -38 -102 0 -403 -86 -331 495 -279 -32 491 -399 497 351 -419 -429 196 313 99 43 327 -453 500 -279 -214 379 -496 307 435 75 -72 -404 118 25 488 268 387 -171 -348 139 -364 502 102 -151 -298 -407 8 -342 398 -466 -70 146 472 -472 457 -368 105 -167 70 250
459 -467 375 121 -326 315 450 92 282 -471 353 -274 -454 278 -82 122 -361 -37 -167 -467 -13 -424 -504 334 -66 -151 245 -110 247 176 324 -41 -185 306 92 335 33 136 -317 25 458 225 -155 63 -170 -183 262 54 420 334 113 160 -454 46 307 -395 -136 -317 -392 -15 -287 -140 307 438
45 -373 -136 378 479 198 338 290 498 -165 -160 -228 -290 118 -123 -374 45 239 13 -379 503 197 126 507 237 262 -127 241 47 -138 -165 55 129 156 -74 -59 -286 289 422 -450 -110 -52 101 73 -270 407 433 145 319 40 184 -60 190 -367 262 278 175 -126 452 -187 154 -61 -129 -188
64 295 169 447 -88 -450 -26 -133 414 -228 -55 -282 197 78 355 -49 325 333 464 274 -98 -324 219 -286 -471 -373 -320 -228 99 -148 31 -39 -260 162 -7 -75 32 216 366 333 116 -72 -295 85 -381 -316 -310 -434 16 96 -329 68 26 -436 291 -300 3 495 -255 208 285 37 228 -11
139 230 392 232 -476 -322 379 -118 -260 -74 -96 72 23 -463 -363 -375 286 -146 -445 -271 225 354 219 212 169 -100 141 282 229 404 -470 -128 -349 -68 -432 48 -437 -182 438 209 335 297 70 -387 -141 113 -332 402 155 -493 -70 -443 346 -267 -13 376 -430 -89 310 -217 -213 369 -343 239
-339 278 -47 320 458 -493 -447 466 -260 445 379 62 258 -281 395 -467 -69 -286 -99 -228 83 309 56 31 -303 99 327 -43 395 -420 209 136 128 316 97 -353 -210 293 468 271 -351 -89 -101 337 -30 154 259 -166 -267 39 -171 0 -435 305 -177 -1 273 0 210 -109 261 100 358 285
-425 228 354 -288 419 368 -323 172 -420 -184 -387 315 -41 277 -462 -106 11 -323 -509 -46 262 331 -406 205 353 -1 475 104 465 168 -341 -313 30 51 268 511 -310 381 -499 315 -325 181 -468 -347 -30 346 -206 158 -330 168 -291 150 394 -57 73 284 -374 405 -156 494 -14 115 -267 302
-95 128 -106 463 324 338 -373 423 -49 -253 449 283 -465 -94 -70 481 -84 272 394 415 475 169 -54 295 114 308 1 -264 -56 28 119 -360 190 -26 -456 400 -256 396 484 508 -438 -435 -344 462 213 -271 -7 507 -10 67 -448 -142 -51 381 50 -472 68 307 -269 -457 -221 -231 294 -429
-464 -428 348 -372 -100 -12 -159 -324 -39 -207 202 379 258 -275 14 69 116 -85 -165 -204 -491 -498 96 13 246 -222 -149 335 -394 319 -172 -91 -323 115 -261 -330 -440 394 412 -226 -234 491 6 478 503 165 253 370 -494 -214 172 -322 -114 345 -208 -367 511 -101 -388 -32 336 -271 -418 74
413 -99 327 398 259 364 -117 -336 446 -53 102 -185 127 -145 -6 486 249 13 62 -4 -127 -270 377 17 -387 382 -53 184 -388 -246 436 30 309 213 214 90 -329 466 -379 -276 405 -87 283 295 135 162 343 -423 -300 164 -9 -372 -98 -72 -27 -464 -288 -86 -399 -81 -423 216 -36 435
-418 49 237 -23 -39 -214 -99 -190 85 478 371 351 279 48 -365 177 35 -335 -414 283 139 304 -183 -476 352 216 -216 -378 -338 164 192 215 367 -63 398 -357 -94 45 430 426 381 378 227 134 450 -286 -275 -163 -315 -50 -343 -182 510 182 -24 -160 232 -394 391 221 483 129 -215 232
-232 -123 145 156 -237 -359 458 -266 193 24 240 402 257 409 -332 9 -285 6 237 -405 -252 452 -97 -270 -346 -409 -404 470 84 266 4 180 -489 -453 389 -272 -307 -504 349 352 -314 -183 310 121 -195 -405 -361 480 143 393 -306 104 -240 75 376 194 -42 408 -123 76 375 -383 237 399
111 -217 -484 -222 -452 -381 347 -92 -355 -376 -362 -492 428 -308 -162 205 142 95 -77 281 -459 -364 404 463 -88 -159 -484 509 -487 -56 -86 -498 24 445 -177 -302 75 -87 -52 -112 408 78 161 467 322 320 493 -196 -138 168 -67 433 -167 -281 282 -300 -103 120 262 289 322 11 119 -266
433 -86 -318 151 177 -148 483 -171 -72 -467 -406 439 -290 212 181 -480 373 504 287 337 117 -330 -364 36 165 504 372 293 -432 142 8 110 309 -83 238 55 -372 -11 331 74 -159 -263 29 -311 44 10 -503 -416 -402 194 -360 -28 -37 -437 -491 -144 340 488 -320 -167 -145 277 417 326
330 326 324 -153 -36 -291 -398 363 -394 -107 378 -462 84 -362 -317 464 -38 -15 -281 207 341 -237 509 -359 405 -405 -220 -292 104 366 250 84 -484 -279 -489 440 309 -458 178 307 421 195 -259 -257 253 195 460 -102 453 -225 -207 502 -38 460 229 -357 458 437 -190 135 195 376 -320 -179
389 133 469 155 -447 118 174 425 -92 445 -119 234 -424 -444 154 73 201 -165 487 33 -112 263 388 -396 367 274 293 -190 195 -251 404 131 -261 406 -269 268 -186 -360 -345 362 239 -433 234 -194 -188 -495 401 -29 287 251 -160 253 129 353 137 -362 -475 188 100 416 -153 -169 171 -484
-281 289 96 -64 -205 401 25 131 -500 -329 250 -179 -169 -260 -504 -339 -74 -209 -262 -258 -163 -253 -464 349 -462 -172 117 325 194 164 375 74 44 310 108 -159 354 17 43 -177 -256 -65 375 80 416 167 -70 213 199 -352 -40 2 -57 461 -232 -392 259 400 -289 190 208 -302 427 -238
-457 463 308 246 -327 -263 -126 422 -190 366 468 -267 132 -303 -269 59 42 176 -271 24 227 -350 -336 -505 -425 152 428 375 -178 216 -304 -298 -95 115 245 -106 220 60 -294 -451 -333 -150 -500 -282 251 -437 -441 -464 -270 -468 -74 -432 -329 269 115 48 174 124 -82 328 181 132 -404 -380
-253 354 471 495 257 54 193 406 87 -5 -41 -431 429 179 -377 409 250 176 -473 -257 469 -251 71 -59 -113 69 279 -353 -38 134 466 -459 271 86 299 174 80 219 -183 6 -97 -184 -455 353 -120 -293 -250 -230 -455 -299 14 -456 -11 -461 279 -139 -296 190 85 -216 -443 135 -60 262
80 139 254 -222 353 -209 -302 -203 324 477 -227 358 -480 -62 -358 -363 64 -130 148 -458 42 -179 -108 43 330 178 -409 -17 -118 -373 -399 -298 -331 289 -194 -293 -191 196 274 -476 230 84 -298 -19 -6 -207 12 102 192 349 -101 -405 271 -393 349 440 -447 -297 206 176 309 163 267 -359
-242 283 362 -495 407 -481 -94 -55 404 -244 -132 14 374 42 -16 42 -270 228 -203 474 328 361 235 -478 -258 -447 -171 282 250 231 -325 -481 389 -189 -280 15 -262 193 -256 -424 -196 -382 491 205 341 -202 -140 -209 -125 301 25 -427 -230 -10 295 3 -484 -365 374 -496 470 268 276 -428
-407 -89 235 -150 -159 -245 -460 -501 326 251 -92 -106 -477 -375 296 294 488 277 408 -312 -396 -211 94 147 508 -361 148 -310 -328 -77 510 -229 276 417 -141 263 496 -482 304 325 -422 24 -320 384 232 329 282 -333 -242 -166 258 -331 -78 -55 -445 -361 -21 179 -93 163 -377 -101 165 -321
-151 37 -237 50 80 -423 -381 -472 176 105 373 -450 -164 -127 -337 410 250 -95 -490 -49 -323 13 222 -441 32 -436 -462 -117 290 86 -186 -12 -423 -199 289 -109 193 284 -143 495 -17 374 -426 313 283 472 -67 -493 138 302 -394 -459 442 168 -67 -144 -153 38 357 201 182 167 -200 -315
-16 334 -83 -403 503 7 -313 18 290 -335 306 -417 441 -41 -110 448 -100 -55 -333 8 487 84 155 -226 -63 95 340 444 -152 -115 137 491 374 396 -97 -241 164 -409 -24 -220 -214 -217 -83 393 439 295 -195 -205 424 265 83 436 401 181 -85 259 17 -87 294 240 228 386 -97 393
-217 443 -112 293 -81 -6 47 -326 -150 338 193 322 456 -118 -498 -115 88 -267 -309 -472 -32 -63 486 329 276 -81 -442 393 -440 -450 -97 -287 -467 57 -398 -49 -453 411 373 -462 511 379 179 491 453 301 -407 -213 220 447 48 87 -63 296 -460 303 -287 202 -97 397 -387 391 247 -466
-338 504 156 70 -152 -174 -382 443 30 -188 -319 -497 254 76 -504 -180 343 195 -461 155 -248 -394 -64 -279 26 -59 -371 34 327 461 300 -440 -65 241 -23 142 -129 -248 -486 264 -194 -475 137 476 70 -105 -112 -188 -123 -503 398 -381 -215 -319 68 -9 -441 220 364 192 182 30 177 269
-429 -170 403 130 -127 -41 390 105 264 -10 -74 128 203 271 353 55 161 333 -386 34 22 -37 181 -93 333 -478 -59 503 293 -284 -111 279 388 476 -505 -114 213 132 137 3 -22 321 88 -478 -382 179 -392 200 -242 -321 305 -78 -82 36 -247 269 232 21 -15 424 145 -222 -284 85
14 150 -430 -308 349 -424 -78 133 226 123 401 146 -103 -350 480 -182 121 -345 71 -96 268 -78 462 21 427 263 36 -115 7 286 120 285 -499 323 -256 -507 -383 -63 467 -157 -62 -259 506 -106 -93 422 -203 -345 397 497 62 205 78 -95 440 224 69 -490 -394 -117 297 358 -241 -133
370 473 212 67 -434 247 -111 85 -2 -201 51 468 -420 -414 -288 -104 -455 -359 -375 63 472 -86 98 -351 417 -157 234 369 -39 193 -135 -47 266 -310 -92 36 186 306 100 365 7 -77 -350 68 506 473 -403 -425 171 354 -229 323 -138 494 -360 -180 65 -283 -249 -451 -76 85 173 -487
15 -446 281 431 155 -336 -127 16 34 -466 -408 49 177 -479 134 404 -221 -490 162 467 203 -117 -312 366 -37 328 350 245 244 -143 61 -313 156 -323 427 21 61 72 402 50 494 -440 -180 -314 280 -27 -372 346 494 108 -469 -510 229 -290 -307 -164 35 219 249 -486 320 486 214 351
