-21 -103 197 -292 485 -202 -112 -368 -406 500 112 453 -212 -274 87 410 -428 498 -104 -467 -356 -289 -421 -440 -332 173 -3 -233 301 123 400 505 210 438 428 141 337 -191 264 232 250 -178 176 -216 89 -10 -34 67 434 400 170 332 405 -402 86 -430 494 122 -215 465 91 -51 176 -394
-46 -218 414 -131 26 -311 116 79 -265 -203 130 128 173 28 -148 232 241 -407 246 113 -31 81 -328 263 84 9 11 251 -92 291 39 419 -274 -34 -505 182 -466 440 239 -215 -434 -315 -226 -372 -443 -443 -277 -368 -297 457 -293 474 -142 39 -212 -504 353 79 21 174 -214 -332 154 -445
465 179 410 -447 169 -340 251 -385 -349 243 -178 -80 -392 -492 160 -222 244 501 -168 -322 238 -289 -477 293 501 -440 -397 -227 -236 -335 272 465 423 124 -30 1 -346 -203 -139 -45 147 -339 -487 -178 -182 -228 -111 -348 -226 -7 201 373 425 438 484 -81 394 185 151 170 155 -400 184 -83
281 417 -465 228 -432 -339 -60 497 147 -329 -145 227 -57 429 -93 -86 -503 87 -426 -300 -55 -311 414 -229 83 122 428 3 -111 -212 430 222 309 54 -430 262 -16 -14 165 -453 36 -2 13 -164 334 293 387 324 340 -64 -407 243 149 -174 -78 -85 209 -181 -301 315 -293 503 509 -508
62 182 3 9 330 -61 28 409 -491 478 12 -50 -486 -413 -142 298 -53 112 273 -264 480 107 -16 -141 129 -469 69 -98 -461 58 -497 -1 -441 -264 337 -235 311 -216 -395 -15 231 -361 -470 274 34 123 -478 63 -124 -124 -233 -402 110 -365 -199 -400 -311 -396 444 -486 -80 -83 434 -494
-70 222 -366 -463 -14 187 -340 -204 -337 -236 -318 -401 -135 -310 -87 -427 378 8 -164 -78 -495 -252 467 -494 -402 -4 -503 357 216 266 38 -455 472 -444 -441 102 379 -507 123 25 357 219 -179 197 206 -35 -152 -228 397 -159 -440 355 10 -217 -390 227 -438 274 -151 -45 310 407 -285 -347
-288 488 349 -465 470 432 50 484 329 -253 -147 -175 468 69 -438 -244 449 -138 445 120 404 -129 57 116 201 -500 448 461 -332 -109 444 -268 188 -493 168 344 -184 -54 479 -65 -21 78 -407 -140 -425 126 335 3 405 -123 299 267 -348 243 -291 406 246 -366 340 436 311 275 401 -167
175 -296 382 -49 281 441 -337 -278 207 160 249 -453 332 435 -267 336 463 -417 200 298 -189 -430 300 -53 -474 -454 108 172 -32 -478 -268 331 -325 -385 -479 -335 104 49 -509 239 263 371 239 453 -148 37 -363 91 27 -329 259 487 -304 70 44 53 31 -323 109 -219 -510 425 -493 5
444 410 -370 418 495 -76 -102 -39 43 292 -410 -17 122 198 426 -493 2 -124 -292 468 -102 -484 413 -437 -354 -26 -237 395 -105 263 -88 509 -439 -248 -167 366 149 -150 330 431 -364 -196 -506 331 141 -123 231 322 -105 373 -402 280 452 485 -100 -167 -84 92 -267 -356 202 -43 -265 26
178 -189 -36 5 -356 191 -56 214 317 -54 55 467 156 375 41 399 -273 198 -36 409 -297 -9 -502 90 459 -13 -270 -298 -351 464 350 -304 470 91 123 231 -137 -301 137 309 -34 149 -32 -279 458 356 -163 366 -237 427 412 398 -492 139 291 -17 -378 317 490 405 401 132 133 -64
8 141 -184 -252 414 -465 267 386 232 287 -100 -441 -256 41 -163 -244 -63 398 106 326 36 -195 192 272 343 -10 -470 -18 -498 66 -340 100 -226 -337 140 27 354 206 42 -162 -243 -197 -300 207 230 -511 -460 -438 136 -3 -189 305 179 -439 141 -417 293 125 -170 -72 413 -87 497 -452
451 106 25 -204 451 -452 -26 110 -456 192 192 -491 83 329 234 -338 -59 -492 500 95 -207 -373 370 496 129 242 0 497 149 -264 382 297 131 185 -123 -413 -412 434 154 -502 247 -14 -172 -218 -276 -65 468 -167 -198 484 -155 -179 -351 458 3 -248 407 -119 67 199 198 -33 -382 350
150 24 -112 284 -466 305 227 343 -392 -377 36 -273 342 -95 500 77 234 -448 -131 -72 -426 -225 -235 110 -132 57 371 -397 -296 -95 376 -457 -361 -368 -361 180 80 -511 391 82 -34 253 142 -435 462 106 -451 90 112 -292 -236 298 -110 -379 233 -289 148 170 -363 18 353 176 210 -105
-191 188 258 451 -335 -216 433 -337 -488 -448 -75 390 457 152 -380 273 -374 -416 -9 215 316 243 227 68 354 155 250 -180 -330 -180 -402 424 431 237 189 -41 -122 50 377 -279 167 181 94 -352 237 -412 357 344 302 -30 -99 230 -483 476 -242 21 -453 33 -470 -399 311 87 496 -124
168 477 76 -432 -42 508 384 42 253 377 434 181 464 -157 101 54 -452 -352 -376 179 23 132 478 -38 354 486 -464 38 -142 -266 316 226 271 417 -42 505 353 -229 -80 112 360 298 511 -318 333 461 -403 -76 266 172 271 -121 -425 288 -352 -272 -395 249 -65 -349 -434 176 -232 197
476 -55 -442 -386 -474 111 -236 -220 -362 -406 58 -114 164 -227 -248 -473 225 -322 -322 -15 262 453 -108 171 -50 -474 -348 400 162 313 475 -144 406 387 337 55 -15 -253 421 33 160 -459 341 -88 -438 436 356 94 -244 -436 215 -323 -270 -232 34 472 -130 -474 391 -357 -87 -330 380 -39
121 -382 406 -17 348 502 132 -145 294 411 -420 -296 -364 399 213 -60 21 448 -431 305 78 42 -105 -27 444 -216 443 -228 -300 -63 -50 347 179 439 10 353 -442 169 -215 194 -464 167 -97 457 -108 -48 255 -164 -271 -142 286 183 -417 31 -498 -9 367 -113 -212 297 7 -335 -56 484
134 4 -156 425 303 300 -217 -131 -423 -11 -107 265 -296 170 -434 -221 282 -340 475 -440 -316 -92 91 -86 299 -221 339 -438 255 -400 -126 -495 -59 -423 -506 57 -225 103 323 -65 226 40 154 -137 42 -392 -47 152 329 -316 96 -10 308 250 -238 -340 268 -153 -121 -332 -317 484 90 -287
412 253 210 -77 -491 477 -345 -356 239 87 200 -11 -125 445 -162 272 234 508 -489 -173 219 -201 34 478 468 -352 -205 399 87 -48 -302 25 116 -314 -257 20 -438 163 167 -449 -447 56 510 -449 -387 479 55 284 -235 -73 -236 508 156 474 65 -282 -457 -64 51 110 504 220 -403 75
281 65 -25 -231 40 -509 -366 129 -170 -473 -291 391 -96 407 -233 -99 111 199 -359 102 166 271 386 412 364 60 -411 -436 170 145 -410 28 -196 358 33 -435 461 -146 -7 270 447 230 386 -416 -192 342 143 -451 -185 359 -384 59 28 -319 145 11 -63 -237 168 418 -147 313 443 258
257 356 -219 -152 -478 367 9 373 266 253 -104 -333 -508 282 407 -30 -50 481 -89 119 -168 -467 -309 438 -144 -282 -415 19 282 270 -272 -497 162 -143 469 -366 428 -270 -12 -247 183 148 123 -421 347 -380 430 -431 -395 278 -464 -502 339 -43 -230 -153 19 416 27 -207 -506 -328 -451 399
-53 283 -303 272 25 -153 422 -26 42 110 -482 481 -328 -467 -172 -229 59 -283 -318 23 -231 -341 329 57 1 -163 284 -68 -438 266 -371 -38 -181 -260 34 266 255 -459 -307 -196 -242 101 -271 -74 -348 -160 341 60 400 -390 -211 426 -133 36 -85 319 -223 147 33 69 308 -299 295 -316
-395 -416 359 -13 391 166 -311 -508 318 252 -202 331 -359 -127 -245 83 291 -340 -257 -385 -343 310 339 237 341 -215 407 78 -237 -155 214 -313 240 -140 84 -493 -284 -37 -81 63 -449 -471 395 418 151 -290 -167 84 -495 235 101 -502 -202 -48 -217 -356 241 -181 23 364 331 197 492 -210
222 380 -106 22 -337 109 331 483 -224 198 -425 456 4 -408 -67 52 -150 -398 63 -502 -193 35 380 396 -342 146 -503 121 300 445 -419 17 507 -449 487 319 36 21 285 479 -302 -92 -383 86 139 -257 -368 -299 -455 20 -379 74 90 -374 90 319 -470 509 -242 -54 239 -459 107 340
-260 -2 -480 410 425 317 16 459 -455 378 -502 331 211 -44 31 294 78 -467 -14 267 -154 30 402 -370 213 207 93 102 -75 303 -101 -156 -119 38 -218 -449 -83 425 319 234 452 -125 -350 485 121 -32 -16 -194 412 270 307 459 -44 191 -242 -400 -81 -98 -84 -225 -412 446 450 37
60 -169 326 115 18 -30 -337 27 444 -239 182 85 151 -76 303 -413 -283 -260 -373 370 -232 -199 82 451 -485 -492 -141 306 250 54 -54 106 200 -353 496 410 -144 508 96 211 -211 -487 293 108 -355 346 -326 113 354 262 -179 -4 -307 335 -26 -503 47 305 146 238 -116 -190 -34 369
303 -143 17 -60 465 167 459 409 -84 -435 -437 -211 350 -159 -63 -318 220 1 -78 -60 -32 -443 257 -335 276 -251 -503 -499 -329 -68 490 196 65 203 233 -235 260 -55 319 80 460 -492 61 -298 406 -402 -427 179 312 -17 480 228 -213 -32 80 -49 370 -373 98 -348 370 -173 408 -93
352 47 -236 -108 -109 456 155 -2 37 44 43 218 -347 241 333 -27 -439 -69 -316 -296 -379 -315 -251 185 392 461 -85 53 -388 -374 -220 444 -136 -379 -71 -464 202 37 438 445 -135 -226 -162 168 -428 310 322 92 -300 12 101 454 397 222 -270 134 -99 345 175 163 -204 -491 51 123
109 -439 -149 435 -481 -471 426 -21 -176 -15 -497 14 92 -390 179 -266 460 -397 -162 159 40 87 -329 -373 -121 165 -237 -20 -268 172 224 471 -464 262 -317 -211 -486 457 101 445 13 317 -236 -171 -328 431 -459 463 -466 -475 -173 269 -491 472 502 -489 448 -472 -156 -129 53 -192 -412 224
-399 425 138 -316 145 -362 -294 280 -340 -283 259 373 -265 -298 -27 -86 352 89 243 316 60 -397 344 192 -8 129 384 -46 -76 -147 -422 228 312 96 427 -263 -47 -347 -380 -64 116 -39 418 268 45 44 268 418 -349 308 4 -120 42 4 -39 220 -206 96 -268 -251 -414 -165 365 -478
-134 469 -492 264 229 406 54 418 243 -507 65 222 90 -194 -79 31 -422 -170 19 377 88 64 467 -160 447 -396 -333 81 375 359 -379 -42 -235 30 495 -169 33 461 350 -131 -468 -72 -369 -3 196 -373 -184 136 196 -273 -459 -472 329 130 286 452 -365 285 -37 19 278 -67 414 -378
-117 227 -209 -124 455 150 -364 498 -320 482 -457 178 287 182 -10 -374 -37 412 447 -235 354 0 279 -357 294 287 -221 208 195 -3 148 124 381 -241 403 224 426 128 -146 459 -274 -272 -478 433 6 56 -378 -369 52 211 136 -231 -332 -223 -248 -54 -395 -365 -505 290 4 -426 -73 121
-360 85 337 415 212 -363 -284 -344 14 9 300 -46 -246 -230 238 -20 444 354 233 249 -8 -311 -485 249 -260 191 487 15 -334 435 224 287 417 -383 477 -357 490 -47 -206 45 479 281 79 -342 -175 -41 98 -292 391 254 93 195 271 306 471 326 -293 -219 356 459 -387 63 -259 360
158 -14 -222 -341 -425 -503 112 85 308 482 -483 209 -20 -467 -139 386 -297 -215 -216 -40 5 -158 21 -390 -321 438 262 -76 436 218 36 313 74 -160 -124 55 418 322 323 454 320 333 407 251 305 353 173 -149 -311 -332 -436 485 97 -132 405 23 -162 -264 -470 183 -108 -227 229 345
254 421 45 105 -40 71 -104 -378 -65 -105 -260 -56 468 -29 -3 -466 261 -162 51 282 -309 -221 149 29 206 203 104 -79 392 -351 81 412 206 -45 -53 50 -486 275 -394 67 356 52 -211 -378 -313 398 207 17 -320 128 160 494 -247 -417 -185 42 -98 -473 177 158 231 500 6 81
-32 191 363 110 215 159 452 29 -448 -281 -430 8 -341 487 50 -279 163 71 307 397 332 351 -439 138 207 75 135 -267 316 190 -100 -46 99 246 359 -240 -434 -327 444 215 -53 -108 -498 -338 -334 212 470 449 -123 139 218 165 221 -183 308 -199 375 -260 161 -68 -251 -488 -374 -396
-227 247 208 -433 233 -143 -345 238 -198 241 -509 359 -302 -51 61 264 -46 -367 196 203 -451 -326 139 -319 413 204 -191 496 385 -455 71 510 467 446 -170 435 163 -422 -412 -303 -178 -68 -31 -330 305 -102 -390 489 -448 -453 -338 -137 204 -186 -476 -149 211 -92 465 62 -484 -187 -137 362
-496 71 -345 -252 261 -307 120 -160 107 93 -482 489 240 -67 -322 143 -136 486 3 -159 280 -168 354 -467 3 288 -12 187 -52 510 -422 -271 333 314 -170 27 -111 -34 160 -458 -31 -379 133 459 158 20 -391 -81 242 304 -93 495 -493 57 406 464 325 -396 50 -111 207 -416 -86 -311
207 -111 -9 398 -247 -457 442 224 -490 -462 116 409 238 428 -5 -483 464 472 -217 -267 293 -173 140 -72 -213 -267 -181 213 244 79 110 -508 -305 -42 -320 504 -472 -477 -301 409 436 -292 -304 -421 -72 -31 413 -83 -477 127 338 492 -15 72 494 -229 -35 44 92 285 237 -255 326 102
-436 10 434 -151 -331 12 -403 226 -33 -493 -416 383 161 21 -390 -395 -118 376 -336 -13 85 -337 -300 -351 -139 176 96 162 -393 -131 -190 492 -435 459 11 406 -333 474 -481 15 -287 -19 506 130 442 414 118 5 -282 194 11 321 -186 388 156 -246 -420 33 -277 295 -262 397 250 424
-75 -67 -55 363 340 -299 -274 -165 -383 65 275 -334 -232 -476 270 -452 -63 423 -350 456 419 -36 -428 293 -453 -334 241 53 -108 -454 -222 -123 -46 -179 -310 374 -174 -197 -389 404 -379 -474 -131 410 482 -415 487 59 158 467 317 -422 -96 -212 43 -259 41 455 -449 291 104 -357 -276 115
-380 -405 -99 106 -4 -457 -26 366 -116 438 260 -181 219 330 91 -86 -328 -421 -168 -116 245 -376 -220 -201 83 -292 301 -246 23 95 293 151 487 -326 102 -194 -108 -92 -122 2 314 -435 41 -53 230 459 367 -93 213 187 -342 427 -463 196 -301 -119 -296 -61 -126 272 -443 -368 196 -443
376 248 127 350 -44 -114 -106 287 -388 -174 483 -98 -22 -400 473 99 -356 -388 15 -108 -135 -50 -106 92 -213 -466 400 300 -504 -391 371 368 221 145 145 191 88 54 -110 496 86 -90 91 -200 487 -367 -347 -313 -187 106 -357 470 -23 -9 -446 360 90 38 -420 34 258 150 113 -295
418 235 373 -131 13 -274 369 54 379 -150 303 91 436 50 29 196 -46 207 -330 132 396 -449 203 106 -153 -214 228 465 496 200 -278 -164 -464 83 490 388 -40 -211 -368 226 -380 29 -363 115 76 -309 498 -147 112 432 9 -8 199 391 -486 71 100 -470 -279 277 74 -132 -133 490
214 -43 -490 335 293 -420 -362 392 -231 -28 339 -111 -152 -501 275 -286 -171 -143 -252 -128 -325 498 155 -22 50 -289 269 158 -245 342 412 -475 317 -476 139 437 268 200 96 438 373 -89 -95 354 -68 163 -194 290 -471 -47 -7 220 -73 -365 106 -406 -116 180 242 -465 159 156 299 -138
437 -476 70 486 -60 -270 2 -256 141 -238 -101 -359 243 255 384 401 462 332 4 401 -101 42 -261 -140 434 193 328 267 213 -342 -319 81 -158 -434 249 377 11 115 -232 -336 407 489 217 235 284 479 348 315 -356 -90 -438 357 298 74 -337 -234 229 -300 32 -176 56 205 -260 -116
450 -12 -51 428 -115 -357 413 200 -297 311 -227 39 260 -42 -106 -118 -322 123 322 390 273 -385 -231 294 37 -147 202 283 285 -280 262 -123 -223 477 -351 80 -29 -501 -262 -499 -394 198 -153 -5 -109 -357 3 -302 -181 250 340 226 -36 456 335 489 -32 -258 131 283 -125 246 271 39
30 -375 310 -317 103 -365 151 181 91 145 -119 211 145 281 -482 -459 -113 -147 -505 246 -299 334 -417 -28 437 285 -422 293 315 167 -293 -248 455 457 -292 239 283 -182 462 166 504 294 -249 351 -191 164 477 -202 -361 463 -40 -418 337 427 244 307 382 261 150 -262 -69 -202 -23 -136
-297 107 -466 3 -215 121 203 482 319 -335 -132 -440 -453 478 -196 140 260 238 -333 383 -369 -38 81 -365 -246 -100 -385 185 320 -370 -299 -173 204 284 84 -443 414 123 76 334 -405 -65 324 203 -12 -473 -337 163 372 -344 346 -2 460 -403 -54 37 -142 -456 -138 48 305 -418 464 443
-257 386 -406 276 370 -244 148 113 -53 460 -361 499 68 423 377 -374 -68 339 454 62 502 128 -320 -306 180 340 -224 -389 197 -317 -473 2 149 -200 -504 -9 41 -226 -196 207 -86 -143 -294 278 467 -333 310 -225 -326 -293 -273 -67 330 497 220 -447 97 -127 -375 483 -339 -337 346 -24
225 -493 43 281 -511 473 422 -36 39 276 116 -148 56 410 447 -332 -121 -432 413 -303 -62 221 476 -511 -257 -107 -97 -506 226 -250 479 434 449 359 401 -496 96 -105 -272 451 -468 121 -129 184 -32 -473 -468 200 112 -427 -281 -448 276 268 -45 451 -211 140 -152 198 -265 51 -510 -507
-216 -248 400 229 -333 72 -60 -491 -416 249 -115 -246 4 279 -132 134 263 -165 99 -161 -124 128 -358 -43 11 362 320 -194 436 253 -130 -252 91 -135 -506 368 -277 259 -109 -310 -278 -442 -481 -251 508 234 60 258 334 234 -364 350 235 439 -351 415 -303 435 -244 217 -412 97 -28 284
-250 -159 -225 344 -506 334 325 -98 -76 54 -309 321 -504 -328 -383 375 -473 -447 -509 -170 -325 -507 -320 150 154 110 388 -361 190 -318 230 -75 262 -313 419 -440 -494 480 -169 345 -249 13 1 -255 254 -36 4 -209 -265 -119 -282 437 -453 471 180 -330 63 -29 81 -405 -470 204 2 -183
-124 -480 75 429 -320 435 -356 304 -84 -475 -254 217 -51 252 264 397 -316 207 -339 49 281 251 -331 294 434 -414 51 -141 481 -38 -242 -441 -2 -377 -503 357 -182 -288 -308 -176 277 410 247 -100 -309 416 318 325 234 -471 -220 428 162 -411 357 152 -287 121 414 272 -233 -210 115 -68
-393 -278 503 -178 -240 267 78 163 -235 -427 -322 146 -494 245 188 -124 274 -428 -400 -437 -169 235 -454 -405 498 108 -42 -242 456 -90 -412 -81 -107 -433 193 -208 -52 160 -210 258 396 -420 252 -272 418 13 288 286 -291 337 374 15 208 -182 -251 290 -250 202 -75 72 -298 413 392 71
-314 -194 -280 -27 136 499 -429 -52 179 422 -79 46 224 131 247 422 99 442 -470 283 -321 460 -205 -487 -181 384 4 458 -502 27 45 411 192 -89 309 2 447 -276 -252 -496 286 22 38 350 -82 -101 398 -86 -434 384 337 -190 -161 505 -210 -128 -348 -17 -440 89 299 342 194 -401
493 66 -248 484 -112 -143 502 429 220 320 173 -435 -494 323 -387 -98 -229 11 -437 -47 -320 -214 -452 -75 -66 -184 449 -212 -231 444 480 5 -414 -85 -135 -278 -428 -30 -394 504 -314 372 -449 357 377 28 -279 -31 -368 19 -21 37 -407 141 -309 -49 460 154 -437 -334 298 235 -149 -240
-495 376 309 -485 231 245 188 220 -290 -471 125 128 -216 -359 279 -34 -333 377 389 299 312 162 33 -479 -210 -120 -434 -232 192 443 213 -376 -219 413 -97 -230 -111 -92 -161 393 244 62 493 283 274 -4 -6 -175 -413 -138 -503 362 -270 403 -393 -95 213 -388 -261 -266 352 312 -273 359
81 -221 -365 84 416 -423 295 262 16 -253 375 307 33 -154 -352 -329 -38 -409 308 -59 -324 -413 450 263 -103 454 440 -120 -415 -274 -98 298 66 121 -230 -231 -511 293 -40 -212 -71 224 338 49 -209 -410 283 -204 -428 271 -363 -296 -390 -407 -197 -99 125 420 -467 199 -466 4 218 33
255 387 67 2 319 -75 -268 169 34 -53 98 -372 -421 230 384 49 -373 -372 467 -155 -150 -208 -477 -382 -223 466 -58 397 -160 407 398 502 -292 -73 479 462 -92 -150 -428 287 332 -70 -142 -489 372 -78 -107 133 187 444 -4 116 -297 -439 429 462 264 -256 -25 -343 -273 -248 98 -280
459 255 437 491 -131 -147 311 -387 -407 341 251 83 -106 414 -227 471 460 372 333 200 12 219 -499 -211 -316 34 -71 -307 -187 83 47 268 -229 309 245 -248 -406 408 91 -267 357 -218 -50 430 126 -327 436 271 -511 510 -433 -296 -368 251 -154 487 -253 377 -66 -122 439 -248 277 -324
-238 455 20 -134 -406 378 452 -473 202 -65 4 -448 470 -185 60 -249 401 442 379 -347 433 386 -209 -377 -73 500 71 -431 475 -32 91 456 231 254 -326 376 343 223 6 -80 -163 -73 233 116 498 318 243 285 355 -256 265 399 -456 24 0 49 -243 113 436 79 486 -52 -205 -421
-37 334 378 332 -140 -214 -122 384 -84 180 -381 177 -314 203 372 -375 -76 491 -19 -372 134 -278 -346 274 -7 377 365 -441 249 -110 400 -176 -380 502 449 332 -227 -143 211 227 116 253 -149 -312 474 190 411 -269 386 -455 373 305 58 392 -13 237 68 235 408 -247 241 448 208 -191
379 -7 488 -189 -320 152 -505 -50 -75 422 -401 506 320 432 -129 5 -389 -177 182 -447 -103 -293 238 92 506 98 462 -472 164 -58 321 -139 398 -149 75 -92 305 269 -477 -480 -435 -275 -352 312 -370 -98 477 458 309 -22 504 -165 171 -86 489 -226 173 237 85 -306 -254 487 -288 431
