0.046642765402793884 0.0721166729927063 -0.025764063000679016 -0.08903326094150543 0.02195221185684204 -0.09693047404289246 -0.04717904329299927 0.11364419758319855 -0.033015474677085876 0.11308391392230988 0.06408374011516571 -0.12492020428180695 0.10083535313606262 -0.06906998157501221 -0.07631886005401611 0.07990281283855438 -0.055411919951438904 -0.03263375163078308 -0.12170453369617462 0.12076576054096222 -0.023900911211967468 0.005363896489143372 0.0056036412715911865 -0.031249746680259705 -0.12034550309181213 -0.03641793131828308 -0.013534650206565857 0.07258696854114532 0.0009662359952926636 0.06135241687297821 0.07880103588104248 0.08989676833152771 0.10226680338382721 0.0751795619726181 -0.11811858415603638 0.03935465216636658 0.11837953329086304 0.08927272260189056 -0.09209653735160828 0.034658849239349365 -0.06835159659385681 0.033525437116622925 0.055435776710510254 -0.10886512696743011 0.05758935213088989 -0.005216881632804871 -0.05338956415653229 0.0748058408498764 -0.0710161030292511 0.03384324908256531 -0.03890761733055115 0.06965808570384979 0.06423377990722656 -0.0810229480266571 0.03105507791042328 0.10322709381580353 -0.039552927017211914 -0.0029023438692092896 0.12129680812358856 -0.04275819659233093 0.056798964738845825 0.05953894555568695 -0.054072797298431396 0.04379519820213318
0.05799965560436249 -0.021495193243026733 0.020828232169151306 -0.010796979069709778 0.02392837405204773 -0.12212125957012177 0.09931175410747528 0.09225437045097351 -0.0644768476486206 0.03291021287441254 0.00983169674873352 0.02623814344406128 -0.056460171937942505 0.003027290105819702 -0.07310676574707031 -0.05191384255886078 0.053126752376556396 0.11596107482910156 -0.057163625955581665 0.03579819202423096 0.08715379238128662 0.024323061108589172 0.031660959124565125 -0.04019472002983093 -0.09364713728427887 -0.02269616723060608 0.08177269995212555 0.0072111040353775024 -0.09014816582202911 0.11742211878299713 -0.08766990900039673 -0.029732510447502136 -0.01855359971523285 0.10957783460617065 -0.03252066671848297 -0.0840301513671875 -0.056405067443847656 0.0818176120519638 0.056585341691970825 0.055487439036369324 -0.12217320501804352 -0.08880199491977692 0.019801929593086243 0.04712590575218201 -0.035649776458740234 -0.07762408256530762 0.0362238734960556 -0.1156148612499237 0.07481147348880768 0.036099568009376526 -0.04150167107582092 0.047244101762771606 -0.027583524584770203 0.06945319473743439 0.024970903992652893 -0.0723542869091034 0.03384798765182495 -0.03820629417896271 0.027392208576202393 0.038005366921424866 -0.07828572392463684 0.018795698881149292 0.0368175208568573 0.06552565097808838
-0.08618728816509247 -0.04768107831478119 0.09807141125202179 0.01810656487941742 -0.029223546385765076 0.08570785820484161 0.007089167833328247 -0.11357401311397552 0.12120851874351501 0.0130806565284729 0.1182677298784256 -0.08856374025344849 -0.1105252057313919 0.0036514699459075928 0.01706346869468689 -0.10508507490158081 0.07642970979213715 0.03911939263343811 0.0541376918554306 -0.11453601717948914 0.10261090099811554 -0.09191319346427917 -0.04805390536785126 -0.12285396456718445 -0.08626465499401093 -0.08594952523708344 0.09286656975746155 0.09780476987361908 0.03796122968196869 -0.02245931327342987 -0.10004556179046631 -0.055309101939201355 0.11875341832637787 0.05918771028518677 -0.10910961031913757 -0.038760051131248474 -0.08419643342494965 0.10057491064071655 -0.06751322746276855 0.10675990581512451 -0.11668582260608673 0.07601173222064972 -0.050957515835762024 0.06617283821105957 -0.029230982065200806 -0.09866930544376373 0.05335266888141632 -0.0039853304624557495 -0.0356927216053009 -0.10532429814338684 0.11793592572212219 0.02379681169986725 -0.004939362406730652 -0.09497426450252533 0.019960656762123108 0.04463467001914978 0.10016274452209473 0.013987168669700623 0.0009847134351730347 0.004985392093658447 0.07685239613056183 -0.005702078342437744 -0.03892047703266144 0.04549683630466461
0.050300195813179016 0.0694277286529541 0.0579436719417572 -0.05374309420585632 0.058348193764686584 -0.04004727303981781 -0.007033392786979675 -0.051852598786354065 0.07109126448631287 0.07101835310459137 0.11213971674442291 0.023160114884376526 0.060866281390190125 0.10615476965904236 -0.006304875016212463 0.02196960151195526 -0.07989448308944702 0.09902843832969666 0.0407068133354187 0.04672136902809143 -0.07108135521411896 0.076432004570961 -0.11403007805347443 0.02136950194835663 -0.09964847564697266 0.10073184967041016 0.10538771748542786 -0.07773424685001373 0.12496423721313477 0.03640085458755493 -0.016533315181732178 0.04311537742614746 -0.030793264508247375 -0.09923222661018372 -0.06342251598834991 0.00755581259727478 0.06623567640781403 -0.030308350920677185 -0.010178431868553162 -7.72625207901001e-05 -0.012358084321022034 -0.09910149872303009 0.004640072584152222 -0.08107979595661163 -0.008446455001831055 0.04417449235916138 0.02151454985141754 -0.03347615897655487 -0.021148666739463806 0.04135458171367645 -0.008802354335784912 0.07867886126041412 -0.05176514387130737 -0.07214212417602539 0.03212282061576843 -0.03990080952644348 0.10307331383228302 0.025154247879981995 0.04265598952770233 -0.016931042075157166 0.0644703209400177 -0.04546712338924408 0.022328242659568787 0.10190927982330322
-0.016674354672431946 0.06775039434432983 0.09051099419593811 0.03991018235683441 -0.026479646563529968 0.04946702718734741 0.02411547303199768 0.046198680996894836 0.11720424890518188 -0.016735807061195374 0.06932438910007477 -0.06167970597743988 0.10910823941230774 -0.032285913825035095 0.06396384537220001 0.04035952687263489 0.04828205704689026 -0.002302318811416626 0.1057380884885788 -0.046873852610588074 0.001847386360168457 0.06717471778392792 -0.0029808729887008667 0.008985340595245361 0.004301488399505615 -0.048729896545410156 -0.014351099729537964 -0.05781058967113495 0.06573791801929474 0.04362724721431732 -0.07815229892730713 -0.08220481872558594 -0.1152811199426651 0.09888839721679688 0.11537513136863708 -0.10333532094955444 -0.06302206218242645 0.02484002709388733 0.07297565042972565 -0.10080063343048096 -0.10457703471183777 0.05689394474029541 -0.06638436019420624 0.02359040081501007 0.0665944367647171 -0.01641210913658142 -0.082872673869133 0.02544650435447693 0.004331469535827637 -0.10048550367355347 -0.023405954241752625 0.12498630583286285 0.013531848788261414 0.006263107061386108 -0.07128584384918213 -0.04131561517715454 -0.045699939131736755 -0.08195991814136505 -0.121291384100914 -0.012914732098579407 0.10485580563545227 0.031566157937049866 0.02730138599872589 0.10221986472606659
0.08109109103679657 -0.024601593613624573 0.023043155670166016 0.10480915009975433 0.006479576230049133 0.08332021534442902 -0.01845361292362213 0.016866937279701233 -0.07891902327537537 -0.0800320953130722 -0.011480242013931274 0.036231085658073425 -0.010224878787994385 0.08135922253131866 -0.07181091606616974 0.07681316137313843 0.12386159598827362 -0.10892722010612488 0.004875287413597107 0.027027234435081482 0.041839197278022766 0.05851559340953827 0.10076037049293518 -0.11944113671779633 0.004030734300613403 0.056380704045295715 0.04708503186702728 -0.08647450804710388 -0.09907656908035278 0.11351743340492249 -0.03955948352813721 0.03109586238861084 -0.05381208658218384 0.04925936460494995 0.02633674442768097 -0.03317877650260925 -0.1164713203907013 0.048725426197052 0.05277734994888306 0.06425568461418152 -0.08717457950115204 0.05998973548412323 0.08091562986373901 0.03337560594081879 0.07689224183559418 -0.031494006514549255 0.06420555710792542 0.06531918048858643 0.054066359996795654 -0.020922943949699402 0.009535998106002808 0.02012781798839569 -0.04830333590507507 0.09586432576179504 0.039556339383125305 -0.04239760339260101 -0.01677022874355316 0.05787789821624756 0.04158315062522888 -0.11214104294776917 -0.04509569704532623 0.09563694894313812 0.026471778750419617 -0.055115148425102234
0.028255492448806763 0.013737604022026062 0.12463922798633575 -0.05991283059120178 -0.08470207452774048 0.08627505600452423 -0.002505064010620117 0.0009624511003494263 -0.02912314236164093 0.06486769020557404 0.11119446158409119 -0.05451911687850952 0.0032773464918136597 0.007120057940483093 0.12295393645763397 -0.07418563961982727 -0.10495410859584808 -0.09390842914581299 -0.06886138021945953 -0.04815642535686493 -0.11710426211357117 0.02401554584503174 0.10757361352443695 -0.006282120943069458 0.003760233521461487 -0.055594295263290405 -0.014649823307991028 0.10216215252876282 -0.07192184031009674 0.022157058119773865 0.06490740180015564 0.10302956402301788 0.09978173673152924 0.12072940170764923 -0.11348842084407806 -0.08379568159580231 0.08325053751468658 -0.026598244905471802 0.048349812626838684 -0.06717528402805328 -0.08175723254680634 0.028754577040672302 -0.012914314866065979 -0.03329014778137207 -0.0801788866519928 0.11323612928390503 -0.11620849370956421 0.10064488649368286 -0.062037453055381775 0.045031607151031494 -0.025507882237434387 -0.0880156010389328 0.10747206211090088 0.10535204410552979 0.038472458720207214 -0.038743361830711365 0.00338001549243927 -0.015273302793502808 -0.03682531416416168 -0.0869513601064682 0.07329024374485016 -0.0701242983341217 0.1102944165468216 0.01532311737537384
-0.09431816637516022 0.10702621936798096 0.030676230788230896 -0.0873522013425827 -0.11259819567203522 -0.023278892040252686 -0.1145508885383606 0.09291204810142517 0.017236575484275818 0.09311288595199585 -0.07598565518856049 0.05291198194026947 -0.12333576381206512 -0.09516426920890808 0.03176811337471008 0.008544296026229858 0.10061562061309814 -0.10064037144184113 0.1039418876171112 0.10354620218276978 0.10127714276313782 -0.004342943429946899 0.12266974151134491 0.11970321834087372 -0.04546616971492767 0.025826260447502136 0.058476656675338745 -0.04322674870491028 0.07715058326721191 0.09110736846923828 -0.05654489994049072 -0.12220536172389984 0.11896659433841705 0.09326252341270447 0.061324864625930786 -0.06626200675964355 0.002861529588699341 -0.06951229274272919 -0.11898106336593628 -0.12054552137851715 -0.0067728012800216675 0.060023680329322815 0.06505326926708221 -0.09780547022819519 0.09849013388156891 -0.04894237220287323 -0.031436726450920105 0.007239788770675659 -0.07086163759231567 0.02677266299724579 0.006887808442115784 -0.04608564078807831 0.0656854659318924 -0.0868087112903595 0.07363663613796234 -0.11137264966964722 0.0033457428216934204 -0.06638732552528381 -0.026929646730422974 -0.07805933058261871 -0.00013603270053863525 0.06842635571956635 -0.01527722179889679 -0.10288181900978088
0.11275407671928406 -0.05482308566570282 -0.07680423557758331 -0.07858124375343323 -0.09048667550086975 -0.0022534430027008057 0.026653185486793518 0.08793230354785919 0.08280885219573975 0.02278667688369751 -0.0776415765285492 0.10147663950920105 -0.10332764685153961 0.12380912899971008 0.08647319674491882 -0.10337571799755096 0.02305486798286438 0.11660127341747284 0.04422853887081146 0.07758347690105438 -0.059728533029556274 -0.0690368115901947 -0.11924119293689728 0.027891337871551514 -0.013487398624420166 0.07172027230262756 0.023046717047691345 -0.11441949009895325 0.072569340467453 -0.12324073910713196 0.10900849103927612 0.020683377981185913 0.11403481662273407 0.0019398927688598633 0.024360448122024536 -0.10664278268814087 0.0908445417881012 -0.1105901449918747 -0.12130516767501831 0.10194393992424011 -0.06298094987869263 -0.05681554973125458 0.017605051398277283 0.09576062858104706 -0.03767143189907074 0.11951188743114471 -0.049943625926971436 0.07741554081439972 0.020613759756088257 -0.1087086945772171 0.03323306143283844 -0.11091567575931549 0.013689950108528137 0.09768517315387726 0.10472254455089569 -0.07958680391311646 -0.07614204287528992 0.0774746835231781 0.06011876463890076 -0.022107094526290894 -0.06819012761116028 -0.09359407424926758 0.10476437211036682 -0.020948901772499084
-0.061750903725624084 0.11060880124568939 -0.0006092041730880737 0.0008624494075775146 -0.07147713005542755 -0.06531789898872375 0.0071988701820373535 -0.05390842258930206 -0.05756866931915283 0.06802646815776825 0.11242550611495972 0.04816994071006775 -0.022542864084243774 0.010139569640159607 0.027109146118164062 0.0499705970287323 -0.0866093784570694 0.11029459536075592 0.016082018613815308 0.05722448229789734 0.009639501571655273 0.10723057389259338 0.0756949931383133 0.06614229083061218 -0.05044323205947876 -0.058075398206710815 -0.10393591225147247 -0.0552571564912796 0.11833804845809937 0.06538593769073486 0.10508480668067932 0.013976916670799255 -0.0344749391078949 0.04744262993335724 0.11464008688926697 0.12420275807380676 0.057973310351371765 0.028981566429138184 0.11933732032775879 0.042396336793899536 0.09723098576068878 0.09250068664550781 -0.10503952205181122 -0.02469506859779358 -0.09380623698234558 -0.11534450948238373 -0.044532522559165955 -0.04867883026599884 0.041902825236320496 -0.09447488188743591 0.07705935835838318 -0.033243730664253235 0.012933596968650818 0.12307381629943848 -0.10095769166946411 0.10593974590301514 -0.05741496384143829 -0.024290546774864197 -0.09020404517650604 0.01904715597629547 -0.09847761690616608 -0.012953042984008789 -0.01827937364578247 -0.10957543551921844
0.017064884305000305 -0.10507400333881378 0.08036193251609802 -0.06200873851776123 0.04842698574066162 0.025380954146385193 0.031115874648094177 0.05121389031410217 0.09044995903968811 -0.09970848262310028 -0.08849705755710602 -0.11866506934165955 -0.01257827877998352 -0.07649801671504974 1.2010335922241211e-05 -0.08031328022480011 0.008809760212898254 -0.09007370471954346 -0.10498347878456116 0.07942505180835724 0.07805728912353516 0.03418134152889252 -0.0030156373977661133 0.07068924605846405 0.11180037260055542 0.036923304200172424 -0.028224214911460876 -0.10920566320419312 0.043807342648506165 -0.007894843816757202 0.06272940337657928 0.05181047320365906 -0.07609261572360992 -0.007544875144958496 0.01195758581161499 -0.004048138856887817 0.11810791492462158 -0.022785037755966187 0.016952916979789734 0.027619734406471252 0.11565923690795898 0.09581418335437775 0.011591807007789612 0.08610525727272034 0.04378409683704376 0.11863553524017334 0.09851342439651489 -0.018166422843933105 -0.06643113493919373 -0.12083449959754944 -0.038925349712371826 -0.07684098184108734 0.05754376947879791 -0.024286434054374695 -0.097018301486969 0.052369773387908936 -0.06072834134101868 0.01882089674472809 -0.02323170006275177 0.049427732825279236 0.029828205704689026 -0.07580360770225525 -0.08110183477401733 0.015381589531898499
0.026536688208580017 0.00617256760597229 -0.05752919614315033 -0.02695535123348236 0.1111573576927185 0.006898343563079834 0.07968546450138092 -0.049171239137649536 0.04114839434623718 0.11058244109153748 -0.0030103325843811035 -0.11380283534526825 0.05056732892990112 0.1219237744808197 -0.12130774557590485 -0.12346839904785156 -0.07979410886764526 0.11066518723964691 0.12346333265304565 0.02889595925807953 0.01850336790084839 -0.02053612470626831 0.01755981147289276 -0.11064785718917847 0.1180935800075531 -0.10437262058258057 0.02377624809741974 0.07385623455047607 -0.07940690219402313 -0.017301112413406372 0.049928635358810425 0.07589223980903625 -0.0816444605588913 0.053880006074905396 -0.10173581540584564 0.11177004873752594 0.020755872130393982 -0.08077248930931091 0.09780244529247284 0.08917751908302307 0.0653037279844284 -0.06904518604278564 0.0300762802362442 -0.05905821919441223 -0.12160997092723846 0.04885375499725342 -0.09574739634990692 0.05587010085582733 0.059150129556655884 0.03528377413749695 0.0477103590965271 -0.09064903855323792 0.024040520191192627 -0.08921438455581665 0.04425136744976044 0.003176376223564148 0.006620258092880249 -0.06948739290237427 0.02403697371482849 -0.03444907069206238 -0.02566465735435486 0.0557684451341629 -0.11854521930217743 -0.08987666666507721
-0.005559071898460388 0.07800132036209106 0.050873368978500366 0.0793207436800003 -0.056101009249687195 0.09671720862388611 -0.015170514583587646 -0.05846478044986725 0.014532387256622314 0.10618746280670166 -0.03392946720123291 0.02923665940761566 -0.07638391852378845 0.0958983451128006 -0.026568472385406494 0.008165180683135986 -0.010196864604949951 -0.09030336141586304 -0.07984468340873718 -0.044961363077163696 0.09323935210704803 0.09953758120536804 -0.06955261528491974 -0.11486726999282837 0.0780230164527893 0.07551883161067963 0.08886206150054932 0.12335798144340515 -0.009849712252616882 0.11793582141399384 -0.11442722380161285 -0.07046090066432953 -0.003726571798324585 -0.07629819214344025 0.12149989604949951 0.04295915365219116 0.0516013503074646 -0.10725194215774536 -0.04372960329055786 -0.054936960339546204 0.06737940013408661 -0.07815004885196686 0.06135912239551544 0.12424083054065704 0.02840884029865265 -0.048705264925956726 0.04730843007564545 -0.09496989846229553 -0.05099715292453766 -0.04448631405830383 0.03623954951763153 0.0017411857843399048 -0.02261708676815033 0.06677642464637756 -0.08668383955955505 -0.010517895221710205 0.08012820780277252 -0.09022915363311768 -0.1107611358165741 -0.09783729910850525 0.011263951659202576 0.053518861532211304 0.1157575398683548 0.05193030834197998
0.1186084896326065 0.06636777520179749 -0.04674290120601654 0.0022566616535186768 -0.10928992927074432 -0.053456664085388184 -0.0013851970434188843 0.12200130522251129 -0.054341062903404236 0.05635017156600952 0.0981997400522232 0.11077377200126648 0.006985187530517578 -0.02034693956375122 0.07158125936985016 0.06276197731494904 -0.10851223766803741 0.09669503569602966 -0.06173403561115265 0.11214137077331543 0.03178495168685913 -0.03600011765956879 -0.05691331624984741 0.11812768876552582 -0.013391956686973572 -0.06477269530296326 -0.007481381297111511 0.06825549900531769 -0.05363422632217407 0.08937866985797882 -0.056040406227111816 0.09598201513290405 -0.06619235873222351 0.09179647266864777 -0.04050777852535248 -0.02248428761959076 -0.11550994217395782 0.11238904297351837 0.05785803496837616 0.002164110541343689 -0.0900515466928482 0.10700830817222595 0.08506225049495697 -0.025085628032684326 0.03076241910457611 0.03922910988330841 -0.08978445827960968 0.09168082475662231 0.07770062983036041 -0.04389721155166626 0.08491532504558563 -0.09985235333442688 -0.018572285771369934 -0.03647705912590027 0.0952737033367157 0.088289275765419 -0.09081403911113739 0.0445781946182251 0.0973936915397644 0.03129012882709503 0.08414219319820404 0.044140055775642395 0.06369419395923615 -0.1184413880109787
-0.05938024818897247 -0.12139877676963806 -0.09677790105342865 0.10659141838550568 0.0700375884771347 -0.005816400051116943 0.11178551614284515 0.015431568026542664 0.05866144597530365 -0.016348451375961304 0.0014178752899169922 -0.09305603802204132 0.03434692323207855 0.0914565920829773 -0.109823077917099 0.039746448397636414 0.00737898051738739 0.08415073156356812 -0.04328182339668274 -0.011236727237701416 0.07968862354755402 0.10029403865337372 -0.06206664443016052 0.08186709880828857 0.07910816371440887 -0.0030861347913742065 -0.07613043487071991 -0.10656344890594482 -0.06959064304828644 -0.0669274777173996 -0.049199819564819336 -0.030512899160385132 0.07094378769397736 0.06805063784122467 -0.11012372374534607 0.07245883345603943 0.030789107084274292 0.08997803926467896 0.11581684648990631 -0.0014746040105819702 0.0285244882106781 0.11535310745239258 0.029292240738868713 0.07589440047740936 -0.07177123427391052 -0.05566701292991638 0.10247993469238281 -0.06495356559753418 -0.08490495383739471 0.06391938030719757 0.06976281106472015 0.11960069835186005 0.013598442077636719 -0.03272916376590729 -0.05493924021720886 0.006720185279846191 0.048474058508872986 0.0783759206533432 0.027634218335151672 0.07055297493934631 0.11411213874816895 0.11874203383922577 -0.005493491888046265 0.11669152975082397
-0.06345091760158539 0.04915018379688263 0.02917097508907318 0.025430426001548767 0.11316569149494171 0.058904558420181274 0.0826675295829773 -0.1086285412311554 0.031701698899269104 0.0898553729057312 0.04036077857017517 -0.08601440489292145 -0.08171048760414124 -0.09773232042789459 0.06706108152866364 -0.0607580691576004 -0.05334535241127014 0.028384163975715637 0.036018237471580505 0.028851687908172607 0.10060231387615204 -0.050889164209365845 0.01073901355266571 0.0010395795106887817 0.08336564898490906 -0.016101866960525513 0.0051966458559036255 -0.039840325713157654 0.08793441951274872 -0.117251917719841 -0.08198864758014679 0.04053664207458496 -0.04016369581222534 -0.024858206510543823 -0.10426676273345947 0.09293198585510254 0.11770635843276978 -0.0693640261888504 -0.02889944612979889 -0.107269287109375 -0.02749328315258026 0.004257902503013611 0.08773413300514221 -0.052443623542785645 0.08447551727294922 -0.09521521627902985 -0.06365185976028442 0.1125040203332901 -0.0927274078130722 -0.02291823923587799 0.06452591717243195 0.027112677693367004 0.017616331577301025 -0.0014966726303100586 -0.06745800375938416 -0.11718608438968658 -0.1053868979215622 0.007994085550308228 0.12206773459911346 0.10511215031147003 0.12230931222438812 -0.11074599623680115 -0.10002352297306061 0.11858715116977692
-0.11942097544670105 -0.08750283718109131 0.0898524671792984 -0.021776705980300903 -0.07510142028331757 0.004224658012390137 0.0033719241619110107 -0.0030968934297561646 -0.02545982599258423 -0.0739191472530365 -0.07194742560386658 -0.08197973668575287 0.04600284993648529 0.016842782497406006 -0.04155050218105316 -0.0986027866601944 0.1112775057554245 -0.0433979332447052 0.027949929237365723 0.037520259618759155 0.016344726085662842 -0.05884084105491638 0.03280359506607056 0.011820048093795776 -0.08930239081382751 0.0798751562833786 -0.12440869212150574 0.07978318631649017 0.11089392006397247 0.11841458082199097 0.09234505891799927 -0.11688509583473206 0.04944014549255371 0.007822379469871521 0.05993475019931793 0.07025548815727234 0.09130878746509552 0.07236509025096893 0.06704409420490265 0.10246427357196808 -0.06253798305988312 -0.04330357909202576 -0.04855459928512573 -0.03684698045253754 -0.09204211831092834 -0.07734894752502441 0.08960144221782684 0.041976198554039 0.113764688372612 -0.10991249978542328 -0.013511314988136292 0.00581514835357666 -0.0874936580657959 -0.07683168351650238 -0.1007363349199295 -0.08942288160324097 -0.010901346802711487 0.0977284163236618 0.07973307371139526 0.08231501281261444 0.037403449416160583 -0.058214202523231506 -0.0690382570028305 -0.0750238448381424
0.092807337641716 0.052138552069664 -0.04654432833194733 0.0132855623960495 0.09538625180721283 0.018197402358055115 -0.08111879229545593 0.02560766041278839 -0.07710017263889313 -0.01892891526222229 0.11297640204429626 0.037417277693748474 -0.011328056454658508 -0.050846025347709656 0.12059257924556732 0.051186710596084595 -0.056780487298965454 -0.0121222585439682 0.028005287051200867 -0.0378149151802063 -0.08095493912696838 -0.03189787268638611 0.07475662231445312 -0.08234378695487976 -0.02819742262363434 0.09296168386936188 0.10041564702987671 0.07932724058628082 -0.011286959052085876 0.0003627687692642212 -0.081122025847435 -0.05476100742816925 -0.0018524229526519775 -0.1063736081123352 -0.11444398760795593 -0.07835212349891663 -0.010477125644683838 0.07641170918941498 -0.08294156193733215 0.038689225912094116 -0.016025245189666748 0.061956390738487244 -0.01748885214328766 0.04837024211883545 0.06581088900566101 0.12125569581985474 0.08742910623550415 0.024524345993995667 0.12428507208824158 0.12487941980361938 0.017112642526626587 0.0983026772737503 -0.042444467544555664 0.07481120526790619 -0.008429273962974548 -0.11783815920352936 0.008340016007423401 0.005330324172973633 0.12060429155826569 -0.10698351263999939 -0.1121383011341095 -0.025740429759025574 0.017560899257659912 0.03470991551876068
0.013809889554977417 0.058855146169662476 0.03442797064781189 0.01102803647518158 -0.041295796632766724 -0.046993330121040344 0.0975334644317627 -0.06890562176704407 0.05028000473976135 -0.016473740339279175 -0.0216342955827713 -0.04577775299549103 -0.10974918305873871 -0.12236148118972778 -0.004923015832901001 -0.12313061952590942 0.011886537075042725 -0.08224782347679138 -0.09617786109447479 0.09862148761749268 -0.07913404703140259 -0.02516871690750122 -0.10402628779411316 -0.031037181615829468 -0.033103764057159424 0.10022829473018646 0.04684482514858246 -0.03869470953941345 0.0218963623046875 -0.043932124972343445 0.09279961884021759 -0.050928011536598206 0.03654637932777405 0.0597863644361496 -0.026178985834121704 -0.07317227125167847 -0.059164419770240784 -0.029692575335502625 0.08788712322711945 0.02885390818119049 0.09251821041107178 -0.12296323478221893 -0.0957711935043335 0.03581918776035309 0.07964351773262024 0.09501643478870392 -0.06423482298851013 0.08530400693416595 -0.09659518301486969 -0.11443385481834412 -0.011161014437675476 -0.07897686958312988 -0.11295723915100098 0.07394181191921234 -0.11304299533367157 -0.062326446175575256 0.11038203537464142 -0.03635409474372864 -0.07046835124492645 -0.05869990587234497 -0.09804509580135345 -0.12127126753330231 -0.05991904437541962 0.05805017054080963
0.11832614243030548 0.04063495993614197 -0.004448935389518738 -0.003922954201698303 -0.07773412764072418 0.01631447672843933 0.06670522689819336 -0.06983956694602966 -0.02449493110179901 0.01354263722896576 -0.01570269465446472 -0.012734636664390564 0.0690704882144928 0.032790616154670715 0.023834794759750366 -0.025390103459358215 -0.021699383854866028 0.004157170653343201 0.03478972613811493 -0.06071348488330841 -0.05006980895996094 -0.0038245171308517456 -0.05499507486820221 0.1184617429971695 -0.005888059735298157 0.03204840421676636 -0.05258738994598389 0.047558754682540894 0.1083395779132843 0.12058581411838531 -0.0599604994058609 0.032775476574897766 0.005930989980697632 0.11338983476161957 -0.01856979727745056 0.1034645140171051 0.039000362157821655 -0.10198892652988434 -0.052563220262527466 0.07272772490978241 0.011258706450462341 -0.07381188869476318 -0.09379810094833374 0.10138799250125885 -0.08750307559967041 0.08607392013072968 -0.014413297176361084 0.12157931923866272 0.08183565735816956 0.1248193234205246 0.0007252097129821777 -0.11325696110725403 0.030237853527069092 0.12009906768798828 0.016333356499671936 0.08429613709449768 0.010735511779785156 -0.0467848926782608 -0.0005849748849868774 -0.003300964832305908 0.08366258442401886 0.050742343068122864 -0.04203535616397858 -0.06071974337100983
0.08289097249507904 0.007060319185256958 0.06556989252567291 0.030258342623710632 0.010528862476348877 0.12470822036266327 0.028813838958740234 -0.0787043571472168 -0.12160253524780273 0.07315985858440399 -0.0027066320180892944 -0.08692857623100281 -0.10885584354400635 0.07039159536361694 0.1224902868270874 0.1044163852930069 0.0953197330236435 0.1067667007446289 0.03269107639789581 -0.028560936450958252 0.020865783095359802 -0.04726971685886383 0.02215699851512909 0.10371609032154083 0.11598782241344452 0.02802976965904236 0.08456240594387054 -0.052551597356796265 0.07421664893627167 -0.10221025347709656 -0.12361159920692444 -0.10634361207485199 0.0011704713106155396 -0.007054314017295837 0.047876596450805664 0.10275448858737946 -0.10108669102191925 0.015584170818328857 0.10645394027233124 -0.11320097744464874 0.08632020652294159 -0.08689622581005096 -0.07675626873970032 -0.09456546604633331 0.022244855761528015 -0.10633683204650879 0.05694460868835449 0.024955570697784424 0.06892864406108856 0.06858338415622711 0.0017463266849517822 0.015106260776519775 0.05732196569442749 0.11634211242198944 0.10650691390037537 -0.051343247294425964 0.10306921601295471 0.03194513916969299 0.09312933683395386 0.043979838490486145 0.020128101110458374 0.0041354745626449585 0.11127997934818268 -0.09523409605026245
-0.11442616581916809 0.03662183880805969 -0.06577235460281372 0.018361568450927734 -0.03381645679473877 0.030639588832855225 -0.03930230438709259 -0.10866999626159668 -0.04834425449371338 -0.12235629558563232 0.015623092651367188 0.00020207464694976807 0.05003306269645691 -0.06095831096172333 0.06329269707202911 0.017442286014556885 -0.026026666164398193 0.11184139549732208 0.12168996036052704 0.06481410562992096 0.10848748683929443 0.040893569588661194 -0.09922796487808228 -0.041114017367362976 -0.09117451310157776 0.08661901950836182 0.11681181192398071 0.0448899120092392 -0.04558302462100983 0.013612225651741028 -0.041287705302238464 -0.026864081621170044 0.06589242815971375 -0.002145543694496155 0.10826614499092102 -0.08783058822154999 0.06148083508014679 0.09528467059135437 0.05732354521751404 0.07383540272712708 0.017330363392829895 -0.06452931463718414 0.0545630156993866 -0.054943591356277466 -0.025469884276390076 -0.04735827445983887 -0.06817968189716339 -0.060745105147361755 0.06070542335510254 0.10065026581287384 -0.051638633012771606 0.04265233874320984 -0.09035612642765045 0.037199825048446655 -0.06654763221740723 -0.10606049001216888 0.1188914030790329 -0.0538465678691864 -0.07289889454841614 -0.07043401896953583 0.01035425066947937 -0.09834526479244232 0.09063495695590973 0.03806102275848389
-0.009660914540290833 -0.005886062979698181 0.028709575533866882 -0.062235116958618164 0.061981216073036194 0.09813797473907471 0.11784197390079498 -0.011735200881958008 -0.08367286622524261 -0.04093432426452637 -0.06142653524875641 -0.051052093505859375 -0.01106138527393341 -0.10115179419517517 -0.07779732346534729 -0.050253525376319885 -0.0929313600063324 -0.06728041172027588 0.07569745182991028 -0.022165030241012573 0.029748231172561646 0.08931663632392883 -0.024766817688941956 -0.11532001197338104 0.10667699575424194 0.024534955620765686 -0.023229166865348816 -0.06091320514678955 0.004757314920425415 -0.1109519749879837 0.10426852107048035 -0.07347427308559418 -0.03602902591228485 0.09986479580402374 -0.023635894060134888 -0.07719893753528595 0.007783412933349609 0.01269020140171051 -0.005212336778640747 0.07431414723396301 -0.12245924770832062 -0.018781855702400208 -0.11276887357234955 -0.08351403474807739 -0.09847226738929749 -0.11633075773715973 0.03395757079124451 0.08686773478984833 0.0043081194162368774 -0.11451028287410736 -0.0420389324426651 0.10762952268123627 -0.045559316873550415 0.07178756594657898 -0.012893855571746826 -0.11796626448631287 0.1236451268196106 0.037090882658958435 -0.039258792996406555 0.05231525003910065 0.09403572976589203 0.09057271480560303 -0.06241695582866669 0.005820736289024353
-0.007850095629692078 -0.09256298840045929 0.07465244829654694 0.0715317577123642 0.042218297719955444 0.06389252841472626 0.01774705946445465 0.050820425152778625 -0.09995640814304352 0.02114500105381012 -0.08016777038574219 -0.033024951815605164 0.0409521758556366 -0.0827741026878357 0.015989407896995544 -0.09667837619781494 -0.041595458984375 -0.044054046273231506 0.011395499110221863 -0.025940552353858948 -0.0895957201719284 -0.00341932475566864 0.011368289589881897 0.09780533611774445 -0.11004622280597687 -0.09286628663539886 0.06604862213134766 0.09281422197818756 -0.03182269632816315 -0.10236936807632446 -0.005470335483551025 0.07224777340888977 0.01342223584651947 -0.03370864689350128 -0.02281033992767334 0.12053777277469635 0.04198351502418518 -0.016909107565879822 0.012374699115753174 -0.06818798184394836 0.07676516473293304 -0.05955462157726288 -0.033043235540390015 0.005691960453987122 -0.03383736312389374 -0.06783595681190491 -0.10016033053398132 -0.01102958619594574 -0.07401110231876373 -0.08792299032211304 0.08919557929039001 -0.032048240303993225 0.04315038025379181 0.045293018221855164 0.020942285656929016 -0.036241933703422546 0.0647783875465393 -0.007422447204589844 0.00045546889305114746 0.11721275746822357 -0.07385776937007904 0.1161527931690216 0.021829798817634583 0.06598098576068878
-0.05107128620147705 -0.0034047961235046387 -0.1181892603635788 -0.02380317449569702 -0.00359952449798584 -0.03259696066379547 -0.06685192883014679 0.02694028615951538 0.11899137496948242 0.12497767806053162 -0.11127977073192596 0.09039546549320221 -0.010960817337036133 -0.013434559106826782 -0.02408522367477417 0.05624280869960785 -0.0485558807849884 0.060693323612213135 0.06415188312530518 0.020394831895828247 0.09329544007778168 0.0878695547580719 0.11614376306533813 0.10761679708957672 0.02467760443687439 0.08066889643669128 0.048659488558769226 0.05447778105735779 -0.009456828236579895 -0.00492309033870697 -0.002931743860244751 0.08145409822463989 -0.05236341059207916 0.12420620024204254 -0.028942689299583435 -0.10528695583343506 0.01631276309490204 0.08739608526229858 -0.034711867570877075 0.11703376471996307 0.020413130521774292 0.09006418287754059 -0.03402629494667053 -0.0674186646938324 0.08452954888343811 0.031041592359542847 0.08995924890041351 0.08194251358509064 -0.11025573313236237 0.03863741457462311 -0.010810956358909607 -0.0924602746963501 0.017397865653038025 -0.06314161419868469 -0.11677208542823792 0.026207149028778076 -0.09207680821418762 -0.04858115315437317 0.045539095997810364 -0.07446223497390747 -0.046206846833229065 0.04510961472988129 0.11422623693943024 0.06387472152709961
0.014852762222290039 0.10879857838153839 0.11635169386863708 -0.049844443798065186 0.097161203622818 0.037116244435310364 -0.031067505478858948 0.023669734597206116 0.0630015879869461 -0.022099018096923828 0.11593154072761536 -0.02582135796546936 -0.08890429139137268 -0.09191115200519562 0.09647397696971893 -0.01688869297504425 0.004558190703392029 0.05673116445541382 -0.057511404156684875 0.029545858502388 0.06824842095375061 -0.10094749927520752 -0.09007576107978821 -0.11167171597480774 0.006868258118629456 -0.026937469840049744 -0.01925356686115265 0.02903616428375244 -0.031311407685279846 0.10889005661010742 -0.029888421297073364 -0.1130332499742508 0.03554505109786987 -0.12158243358135223 -0.11615672707557678 -0.08347515761852264 0.011432260274887085 -0.102903813123703 -0.03569185733795166 -0.08140057325363159 0.03539949655532837 -0.07273691892623901 0.10798598825931549 0.08839882910251617 0.0909557044506073 0.12458080053329468 0.10138143599033356 -0.08208781480789185 0.057984620332717896 0.03458543121814728 0.08898425102233887 0.028328850865364075 -0.049783095717430115 0.07103176414966583 -0.023336291313171387 0.015812307596206665 0.055000439286231995 -0.10838460922241211 -0.007811591029167175 -0.0913434624671936 -0.06214234232902527 0.08374494314193726 -0.04481911659240723 -0.12414668500423431
0.07843852043151855 -0.007759749889373779 0.014805331826210022 0.0281459242105484 0.03708958625793457 0.048522770404815674 0.072358638048172 0.0835629254579544 -0.07512246072292328 0.05178983509540558 -0.0007146298885345459 0.12155193090438843 0.08938738703727722 0.019282206892967224 0.024225398898124695 0.07092340290546417 -0.02944721281528473 -0.11465182900428772 -0.014088526368141174 -0.07163894176483154 -0.049211740493774414 -0.1168345957994461 -0.046355634927749634 0.08594869077205658 0.05608661472797394 -0.06726080179214478 0.08346845209598541 -0.08114162087440491 -0.07891389727592468 -0.11078378558158875 -0.019302189350128174 0.108136385679245 -0.1179632693529129 -0.07331722974777222 -0.05219458043575287 0.06755989789962769 0.04953069984912872 -0.005188480019569397 -0.03499335050582886 0.0632089376449585 -0.010408654808998108 -0.01699337363243103 -0.08729548752307892 0.031008616089820862 0.09238308668136597 -0.033275753259658813 -0.11188282072544098 -0.053521931171417236 -0.1112477034330368 -0.04343743622303009 -0.049111366271972656 0.11642757058143616 -0.06011374294757843 -0.06649847328662872 0.1014547199010849 0.09034654498100281 0.10422597825527191 0.02365899085998535 0.08610041439533234 -0.038988515734672546 -0.009962111711502075 -0.08249373733997345 -0.04338109493255615 -0.12400147318840027
0.04708072543144226 0.008498892188072205 -0.07517145574092865 0.021305888891220093 0.0680571049451828 -0.03382842242717743 -0.032054707407951355 0.0858258455991745 0.06467147171497345 0.06588882207870483 -0.04446287453174591 0.09142144024372101 -0.08346673846244812 0.026927873492240906 -0.05290958285331726 -0.037536486983299255 -0.0869327187538147 0.039251893758773804 -0.009573116898536682 -0.11820288002490997 -0.03504316508769989 0.11907893419265747 -0.021449148654937744 0.12440405786037445 0.09952379763126373 0.030670061707496643 -0.12423539161682129 -0.003198564052581787 0.10590505599975586 0.010519936680793762 0.10904975235462189 -0.01372617483139038 0.07295002043247223 -0.11549989879131317 0.03988160192966461 -0.04598504304885864 -0.10719692707061768 -0.07997070252895355 -0.07316149771213531 0.10980746150016785 -0.072529137134552 0.018363699316978455 -0.0063306838274002075 0.09388220310211182 0.11701260507106781 -0.0619027316570282 -0.01586224138736725 0.006877467036247253 0.0018199533224105835 0.07435286045074463 -0.04631134867668152 -0.09114444255828857 -0.10762317478656769 -0.06994625926017761 0.033274874091148376 -0.02223251760005951 0.10917642712593079 0.1246742457151413 0.006346479058265686 0.09681683778762817 -0.02406388521194458 0.034248143434524536 0.01410028338432312 -0.01314467191696167
0.07677049934864044 0.03910216689109802 0.06184946000576019 0.0488375723361969 -0.049978405237197876 0.04277074337005615 0.0961269736289978 -0.04535117745399475 -0.061369046568870544 0.061383605003356934 0.08738015592098236 0.11258763074874878 0.0645826905965805 0.06507641077041626 -0.12483218312263489 -0.03552769124507904 -0.05445842444896698 -0.0915161669254303 0.08528733253479004 -0.0019380897283554077 0.06249260902404785 -0.060493871569633484 -0.11850473284721375 0.017919078469276428 -0.12246611714363098 0.10695040225982666 0.08862274885177612 0.062100932002067566 0.013501346111297607 -0.1047726720571518 -0.11098030209541321 -0.014127403497695923 0.0556558221578598 -0.04022352397441864 0.008350595831871033 -0.05531223118305206 0.06207744777202606 0.0140104740858078 0.03947477042675018 -0.0896439254283905 0.04785197973251343 0.06619422137737274 0.018869221210479736 0.008171141147613525 -0.09921720623970032 0.06365782022476196 0.09059438109397888 -0.11695224046707153 0.07578454911708832 0.03660754859447479 -0.05356857180595398 0.08850498497486115 -0.11330574750900269 0.01686200499534607 0.02290816605091095 0.07206587493419647 -0.037832409143447876 -0.08032143115997314 0.046820878982543945 0.013365253806114197 -0.06852847337722778 0.05508562922477722 0.08879095315933228 0.0886557549238205
0.09506024420261383 0.10671909153461456 0.09706902503967285 0.10520409047603607 -0.0043992698192596436 -0.05273483693599701 0.032594263553619385 -0.08979655802249908 -0.046834349632263184 0.05473299324512482 -0.08307605981826782 0.06388725340366364 0.05809074640274048 0.06113347411155701 0.035963669419288635 0.10408414900302887 -0.04467637836933136 0.08034856617450714 0.08504824340343475 0.06051820516586304 0.08696584403514862 -0.022766783833503723 -0.021595463156700134 -0.06678500771522522 -0.045106515288352966 0.015989035367965698 0.10129396617412567 0.05533802509307861 -0.023191392421722412 0.06914684176445007 0.07933226227760315 -0.030708596110343933 -0.12412384152412415 0.0618027001619339 0.017160817980766296 -0.03639701008796692 -0.013317927718162537 -0.02556478977203369 0.03437340259552002 0.02430078387260437 -0.042905792593955994 -0.04534494876861572 -0.08031269907951355 -0.021030694246292114 0.0947352796792984 -0.09069585800170898 0.05639198422431946 0.10579989850521088 -0.09790794551372528 0.08517742156982422 -0.10807257890701294 0.12323859333992004 0.10170102119445801 0.0798073559999466 -0.04991897940635681 0.07221662998199463 -0.061292216181755066 -0.12238156795501709 -0.102384552359581 0.0016962885856628418 -0.07972529530525208 0.08685518801212311 0.02549932897090912 0.028040364384651184
-0.09206418693065643 0.05446881055831909 -0.002754315733909607 -0.06415371596813202 0.006339818239212036 -0.059489473700523376 0.10661645233631134 -0.11256842315196991 0.02273876965045929 -0.045710355043411255 0.07462665438652039 0.03635624051094055 0.0623895525932312 0.06377078592777252 -0.08324845135211945 -0.06728912889957428 0.042264655232429504 -0.0007324814796447754 0.10718494653701782 -0.10882322490215302 -0.020747855305671692 0.040001094341278076 0.06545071303844452 0.038426876068115234 -0.07343180477619171 -0.12414100766181946 -0.013772696256637573 -0.06127913296222687 -0.08722583949565887 -0.04898753762245178 -0.014921098947525024 -0.011094644665718079 0.06533046066761017 0.08705376088619232 0.062288254499435425 -0.10473360121250153 -0.11911816895008087 0.12417967617511749 0.08879165351390839 -0.09244641661643982 -0.05566997826099396 0.12169778347015381 -0.0414266437292099 -0.019638195633888245 0.11525645852088928 -0.1097167432308197 -0.12376520037651062 -0.11015278100967407 -0.11986277997493744 0.002070307731628418 0.0511559396982193 -0.017089128494262695 -0.06601609289646149 0.005343332886695862 -0.10006144642829895 -0.0792500227689743 -0.008713334798812866 -0.04464659094810486 -0.11037591099739075 -0.03159834444522858 -0.11460819840431213 -0.04890589416027069 0.004286676645278931 -0.03518672287464142
0.07787925004959106 0.01221989095211029 0.05796848237514496 -0.015053287148475647 0.02424187958240509 0.09767767786979675 0.10936632752418518 0.07838772237300873 -0.06971058249473572 0.09093630313873291 0.05900666117668152 -0.020132452249526978 0.04015108942985535 0.09439373016357422 -0.10602416098117828 0.10027630627155304 0.07060563564300537 0.0027875900268554688 0.042347222566604614 -0.1009100079536438 -0.05642521381378174 0.031217172741889954 0.08906146883964539 -0.02798481285572052 0.003399387001991272 -0.08815254271030426 0.04514452815055847 0.11229819059371948 0.05267001688480377 0.0527413934469223 -0.01607520878314972 0.11185120046138763 0.12116953730583191 0.01497294008731842 -0.10550989210605621 -0.07992258667945862 0.04848918318748474 0.07239288091659546 0.03049960732460022 -0.08339673280715942 0.015522494912147522 -0.12040334939956665 0.11170879006385803 -0.07715949416160583 0.09943753480911255 -0.033533453941345215 0.005947008728981018 8.177757263183594e-05 0.040457502007484436 0.09919430315494537 -0.05644895136356354 0.08931766450405121 -0.03487895429134369 0.0804034173488617 0.0948416143655777 0.08064356446266174 0.06480847299098969 0.0634998083114624 0.07966649532318115 -0.0037586838006973267 0.11013402044773102 -0.0850009173154831 0.04616516828536987 -0.0562458336353302
0.07976165413856506 0.1083650290966034 -0.01823584735393524 -0.018260225653648376 -0.06485551595687866 -0.06103856861591339 0.026256248354911804 0.04119391739368439 0.04665851593017578 -0.04601038992404938 -0.0673285722732544 -0.086544930934906 -0.0494568794965744 -0.02436073124408722 0.03437560796737671 -0.04146987199783325 0.006715685129165649 -0.11903949081897736 -0.0046306997537612915 0.05640415847301483 0.014520958065986633 -0.014066383242607117 0.026063039898872375 -0.025940850377082825 0.05757071077823639 0.11438292264938354 0.05425642430782318 0.11659520864486694 -0.09234774112701416 0.007441714406013489 0.10092201828956604 0.1089688092470169 0.07358185946941376 -0.12228955328464508 0.033796414732933044 -0.1018701046705246 -0.10491625964641571 -0.055123746395111084 -0.09013019502162933 -0.011448562145233154 -0.008154869079589844 -0.031181544065475464 -0.01802237331867218 -0.02592739462852478 -0.11654902994632721 0.031153604388237 0.08696450293064117 0.04236586391925812 0.07655350863933563 0.04152552783489227 0.030695945024490356 -0.11061057448387146 0.10457180440425873 0.0052590519189834595 0.07068151235580444 0.11163020133972168 -0.09488509595394135 0.049794599413871765 -0.018579214811325073 0.05509461462497711 0.10454699397087097 -0.025650829076766968 0.0768769234418869 -0.05486290156841278
-0.07256640493869781 -0.08709158003330231 -0.09678655862808228 -0.09527197480201721 0.11803174018859863 0.050392553210258484 0.05281582474708557 0.08577018976211548 -0.00737801194190979 0.11835931241512299 -0.08415400981903076 -0.003707319498062134 -0.027590259909629822 0.08496338129043579 0.05140317976474762 -0.08458560705184937 0.04824917018413544 -0.05828528106212616 0.10803437232971191 -0.03391043841838837 0.040774986147880554 -0.09926597774028778 -0.020396843552589417 0.052343666553497314 -0.05599476397037506 -0.0009800195693969727 0.04261027276515961 -0.10962922871112823 0.0019028782844543457 0.059328094124794006 -0.10456104576587677 0.09542353451251984 0.10292570292949677 0.10732296109199524 -0.09478282928466797 0.0493791401386261 0.06542636454105377 -0.11698465049266815 -0.020536065101623535 -0.025413140654563904 -0.06487596035003662 -0.04880443215370178 0.08856427669525146 -0.07965736091136932 0.12229767441749573 0.03654766082763672 0.09806467592716217 0.1094600260257721 -0.09905083477497101 -0.0910988599061966 -0.09358265995979309 -0.04655730724334717 0.07989224791526794 -0.01454518735408783 0.043475836515426636 0.1028556227684021 0.11269363760948181 -0.10097582638263702 0.009305134415626526 -0.068275585770607 -0.060641124844551086 0.07362523674964905 0.011880829930305481 0.028776705265045166
-0.041818201541900635 -0.07198508083820343 0.10117238759994507 -0.11772066354751587 0.018835097551345825 0.07759581506252289 -0.06623785197734833 -0.04029490053653717 -0.04343697428703308 0.09515497088432312 -0.11206559836864471 0.028017789125442505 0.014931589365005493 -0.05864834785461426 0.023610278964042664 -0.010158225893974304 0.04197312891483307 -0.08835956454277039 -0.06839492917060852 0.025377869606018066 -0.06555172801017761 -0.10964235663414001 -0.060884639620780945 0.027352482080459595 -0.08183079957962036 0.04630999267101288 -0.09823282063007355 0.0889115035533905 -0.08005905151367188 -0.012395620346069336 -0.08951537311077118 -0.076134592294693 0.007975339889526367 0.016229212284088135 -0.039600253105163574 0.07697653770446777 -0.10020312666893005 0.009504318237304688 -0.05688227713108063 -0.059690818190574646 0.09934712946414948 0.11524686217308044 -0.027087047696113586 0.11860337853431702 0.03969267010688782 -0.0027220845222473145 0.029184624552726746 -0.08083416521549225 0.08353392779827118 -0.0658402293920517 0.03295336663722992 0.079771026968956 -0.049646735191345215 0.07268305122852325 0.06025180220603943 0.022765308618545532 0.10231274366378784 0.06314799189567566 -0.06507667899131775 0.1093643307685852 0.09875497221946716 0.054036810994148254 0.11155541241168976 -0.10293373465538025
0.03813639283180237 -0.09901866316795349 -0.0525430291891098 -0.01636555790901184 0.07189831137657166 0.07140472531318665 -0.07404185831546783 0.0876859575510025 -0.03479926288127899 0.054079651832580566 0.03072461485862732 0.05652470886707306 0.0599508136510849 0.00036340951919555664 0.00908370316028595 0.006605356931686401 0.11790600419044495 0.039155974984169006 -0.029230311512947083 0.09610188007354736 -0.09600073099136353 -0.1224440187215805 0.046570003032684326 -0.07876165211200714 0.08703257143497467 0.09929102659225464 -0.035966068506240845 -0.09243223071098328 -0.043792665004730225 0.04537104070186615 -0.08331380784511566 0.054772213101387024 0.12305274605751038 0.037237703800201416 -0.05784817039966583 0.04826758801937103 -0.03903381526470184 -0.08868291974067688 0.0699121505022049 0.01646941900253296 0.08345754444599152 0.09709186851978302 -0.0976477563381195 -0.009366661310195923 0.05232648551464081 0.01665353775024414 0.008932456374168396 0.02517537772655487 0.04208679497241974 -0.11406758427619934 -0.02845063805580139 -0.033559903502464294 0.08337143063545227 0.005574837327003479 0.08867707848548889 0.0490720272064209 -0.06391127407550812 0.018009141087532043 0.07706047594547272 0.10215556621551514 0.09324082732200623 0.08647897839546204 0.0722353607416153 0.06496821343898773
6.435811519622803e-05 -0.12094488739967346 0.09400434792041779 0.008239790797233582 -0.1123151183128357 0.07346220314502716 0.08393813669681549 0.0021682530641555786 -0.1213483065366745 0.08434507250785828 -0.05745401978492737 -0.050763338804244995 -0.02035701274871826 -0.09249123930931091 0.0209771990776062 -0.04005312919616699 0.004388689994812012 -0.09578263759613037 0.09072121977806091 -0.11435575783252716 -0.07605355978012085 0.12185338139533997 0.12387731671333313 -0.09354357421398163 -0.07391206920146942 -0.11611448228359222 0.07119490206241608 -0.0838080644607544 -0.10581859946250916 -0.020705461502075195 -0.0034539997577667236 0.026658669114112854 0.011190086603164673 0.019846618175506592 0.09496437013149261 -0.04962734878063202 -0.10512559115886688 0.01972241699695587 0.08002090454101562 0.05147702991962433 -0.08660823106765747 -0.07800254225730896 0.02912352979183197 0.05397959053516388 0.11052608489990234 -0.06779487431049347 0.040065690875053406 0.06408798694610596 -0.1173706203699112 0.053206667304039 0.04146677255630493 -0.08589200675487518 -0.11427856981754303 -0.09863553941249847 0.12463560700416565 0.08752752840518951 0.10206626355648041 0.0032760798931121826 -0.06926241517066956 0.1167602390050888 -0.06430712342262268 -0.10651922225952148 -0.014066189527511597 0.015388444066047668
0.07653406262397766 0.0936773419380188 0.03564615547657013 -0.1157737672328949 -0.020471960306167603 0.11460685729980469 0.0692380964756012 -0.08828823268413544 0.03214132785797119 -0.04004599153995514 -0.07840529084205627 -0.0857156366109848 0.09183450043201447 -0.048460036516189575 -0.09882575273513794 -0.05102558434009552 -0.04439380764961243 0.07401266694068909 0.10775710642337799 0.02204117178916931 -0.02342914044857025 -0.05414174497127533 -0.01596023142337799 -0.019011259078979492 -0.036979228258132935 0.014521494507789612 -0.08094160258769989 0.09684452414512634 0.1223401129245758 -0.06693722307682037 0.04304066300392151 -0.042552635073661804 -0.04036794602870941 0.0736151784658432 -0.09549421072006226 -0.06777632236480713 0.05809900164604187 0.11750318109989166 0.09154544770717621 0.11593960225582123 0.027023792266845703 0.08694392442703247 0.04300008714199066 -0.01501975953578949 -0.035935819149017334 -0.00482979416847229 -0.10701113939285278 0.014792278409004211 0.043499186635017395 -0.011531040072441101 -0.021737679839134216 0.04712718725204468 0.060636237263679504 0.11375674605369568 -0.05579032003879547 -0.08242854475975037 -0.10121779143810272 -0.06564976274967194 -0.06089608371257782 0.04528544843196869 0.081228107213974 0.09217436611652374 0.056287720799446106 0.09889741241931915
-0.10846975445747375 -0.022243067622184753 -0.021622925996780396 0.04436372220516205 0.029808953404426575 0.023602992296218872 0.024756640195846558 0.11461922526359558 -0.10289372503757477 0.08919626474380493 -0.08431488275527954 -0.013329699635505676 -0.008964285254478455 -0.04453778266906738 0.025263652205467224 -0.04418158531188965 -0.04701255261898041 0.11666473746299744 -0.053317874670028687 -0.08652262389659882 -0.00967678427696228 -0.02504010498523712 -0.08242005109786987 0.06082160770893097 -0.055063679814338684 0.12278018891811371 0.05469539761543274 -0.036835476756095886 -0.0753919929265976 -0.04590415954589844 0.05371898412704468 -0.0850459486246109 0.011533960700035095 0.12042662501335144 -0.06471066176891327 0.06449271738529205 0.036625102162361145 0.046657025814056396 -0.1249956488609314 -0.04934300482273102 -0.09560026228427887 -0.06297779083251953 -0.07610468566417694 0.055427029728889465 -0.020850449800491333 0.01748497784137726 0.07004141807556152 0.08606694638729095 -0.118970587849617 -0.0007334202527999878 -0.018049970269203186 0.0881008505821228 -0.010547548532485962 -0.08204640448093414 0.05188736319541931 -0.07886876165866852 0.04231278598308563 0.11518074572086334 0.11125373840332031 -0.016965016722679138 -0.10402517020702362 -0.09496572613716125 -0.0645708292722702 -0.12368835508823395
0.11059141159057617 0.04053466022014618 -0.11636233329772949 -0.09566055238246918 -0.07048635184764862 -0.11561506986618042 0.05755974352359772 0.07969571650028229 0.014878764748573303 -0.05114808678627014 0.0020366013050079346 -0.11317068338394165 -0.039659276604652405 0.054571494460105896 0.12020562589168549 0.10457602143287659 -0.1177973598241806 -0.1082843691110611 -0.06926527619361877 0.022475361824035645 0.003911316394805908 -0.09675812721252441 0.014144659042358398 0.08588959276676178 0.0273142009973526 0.11304588615894318 -0.11172181367874146 0.0702391266822815 -0.10304878652095795 -0.10861514508724213 -0.09727206826210022 0.05959543585777283 -0.11533229053020477 0.07918314635753632 0.015051409602165222 -0.09006960690021515 -0.05736006796360016 0.10381273925304413 0.0068822503089904785 -0.08533236384391785 0.07584787905216217 -0.025939717888832092 -0.045369282364845276 0.013705089688301086 0.10297706723213196 0.029697835445404053 0.08241523802280426 -0.0049810707569122314 -0.04957234859466553 -0.03656893968582153 0.049005404114723206 0.02012580633163452 -0.09542238712310791 -0.03579443693161011 0.08197179436683655 -0.031590357422828674 0.017872154712677002 0.0566592812538147 0.0359354168176651 0.027514323592185974 -0.06031045317649841 -0.04648426175117493 -0.12283428013324738 -0.11210897564888
-0.10058850049972534 -0.03360973298549652 -0.0849105566740036 -0.08196629583835602 0.05609017610549927 -0.0343766063451767 0.020498022437095642 -0.04956531524658203 0.10674792528152466 0.007602617144584656 0.07846809923648834 0.02861839532852173 0.04138241708278656 -0.006188943982124329 -0.035017192363739014 0.04348647594451904 -0.04844209551811218 0.07534794509410858 -0.11166569590568542 0.07943275570869446 0.04344232380390167 0.08233441412448883 0.11067025363445282 -0.035188525915145874 -0.0759502500295639 0.11179475486278534 -0.05727195739746094 0.06908176839351654 -0.0904732495546341 0.08569055795669556 0.04602155089378357 -0.08518083393573761 -0.025721296668052673 -0.07146082818508148 -0.05392800271511078 0.06256420910358429 -0.06699417531490326 0.060624465346336365 -0.03771065175533295 -0.07469578087329865 -0.10265710949897766 -0.034616678953170776 0.03551281988620758 -0.07169963419437408 0.04390667378902435 0.05315929651260376 0.007290378212928772 0.11190183460712433 0.0028218328952789307 0.07128912210464478 0.056259363889694214 -0.015131548047065735 0.08880777657032013 -0.0819312334060669 0.02468647062778473 0.11182111501693726 0.08281731605529785 0.03337259590625763 0.07620152831077576 0.04842182993888855 -0.0005619525909423828 0.07168680429458618 -0.10474270582199097 -0.006479054689407349
0.0647430568933487 -0.06047314405441284 -0.08019866049289703 -0.0155210942029953 0.12162797152996063 0.12295174598693848 0.11074398458003998 0.10656097531318665 0.00769592821598053 -0.12476940453052521 -0.12115916609764099 -0.015271246433258057 0.0766107439994812 0.003813445568084717 -0.0512329638004303 -0.09311337769031525 -0.010478183627128601 -0.03672245144844055 -0.08152171969413757 0.04527866840362549 0.1017204076051712 -0.09878930449485779 -0.01971149444580078 0.009532943367958069 -0.0248519629240036 0.09434492886066437 0.07707130908966064 0.09800739586353302 0.10849052667617798 0.05920180678367615 -0.029068171977996826 0.0640086978673935 0.026535168290138245 -0.05029776692390442 -0.11631694436073303 -0.06049966812133789 0.1055050641298294 0.04172562062740326 -0.07875430583953857 0.03841187059879303 -0.024270057678222656 -0.02290719747543335 -0.028581470251083374 0.09379889070987701 0.05658891797065735 -0.11807030439376831 0.005812883377075195 -0.05947013199329376 0.025143280625343323 0.09548769891262054 0.02497193217277527 0.01695971190929413 0.03111042082309723 0.049323007464408875 -0.11465424299240112 0.11867374181747437 -0.08384548127651215 0.09042303264141083 -0.07504688203334808 0.02516081929206848 -0.09989944100379944 -0.051630064845085144 0.12376487255096436 0.010100767016410828
-0.09782524406909943 -0.07754908502101898 -0.026089876890182495 0.04307013750076294 0.064289391040802 0.05545683205127716 0.001419857144355774 0.05479615926742554 0.08293943107128143 -0.11935454607009888 0.06116668879985809 0.03177809715270996 -0.0417211651802063 -0.07966896891593933 0.017656922340393066 -0.10282653570175171 -0.004104912281036377 0.09913752973079681 -0.021174341440200806 0.017847031354904175 -0.043067753314971924 0.12134306132793427 -0.0019603967666625977 0.09970815479755402 -0.05070587992668152 -0.12288913130760193 -0.0582461804151535 0.005503758788108826 0.03210406005382538 0.10531771183013916 0.07658764719963074 0.09810467064380646 -0.03311599791049957 0.06573259830474854 0.05487044155597687 -0.11702053248882294 0.10030104219913483 0.01610743999481201 -0.04322831332683563 0.10381805896759033 -0.10895633697509766 0.029828011989593506 0.09867069125175476 0.1191394031047821 -0.08326604962348938 0.11429189145565033 0.041775211691856384 -0.07771429419517517 0.07429216802120209 -0.06551679968833923 -0.02502022683620453 0.021145746111869812 0.054343536496162415 0.0395810604095459 0.07876183092594147 0.05043238401412964 -0.048506081104278564 -0.05742725729942322 -0.023189380764961243 -0.06841951608657837 0.04293575882911682 0.10492774844169617 0.0549275279045105 0.009425833821296692
-0.09779803454875946 0.014260023832321167 -0.02519547939300537 -0.038544535636901855 -0.12113381922245026 0.02514362335205078 -0.05517938733100891 -0.06703390181064606 -0.08412562310695648 -0.035205766558647156 -0.07683789730072021 0.023369133472442627 0.06489874422550201 0.008954808115959167 -0.002013459801673889 -0.12499783933162689 0.10073183476924896 -0.11500458419322968 -0.036095380783081055 0.029082253575325012 -0.11936026811599731 0.10242806375026703 0.045360833406448364 0.08995893597602844 0.10997827351093292 -0.023520231246948242 -0.06438843905925751 -0.010052219033241272 0.08686172962188721 -0.009041771292686462 -0.11235569417476654 0.068433478474617 0.004905253648757935 0.09864439070224762 -0.12490220367908478 0.040724873542785645 -0.03561390936374664 -0.019823342561721802 -0.08177070319652557 0.05976523458957672 -0.027634501457214355 0.03322635591030121 0.06851336359977722 0.019272416830062866 0.12123264372348785 -0.003054678440093994 0.011823773384094238 0.03395606577396393 0.019791752099990845 -0.08935058116912842 -0.11749117076396942 0.11851365864276886 -0.08583007752895355 -0.043426513671875 -0.11532425880432129 0.11639143526554108 0.08998455107212067 0.053483203053474426 0.04181712865829468 -0.060993537306785583 0.12113870680332184 0.06010247766971588 -0.01908944547176361 0.05068354308605194
0.028134137392044067 0.01139877736568451 -0.07552452385425568 0.10440665483474731 -0.12165594100952148 0.10454992949962616 -0.08657941222190857 -0.03740854561328888 -0.02732020616531372 0.11343975365161896 -0.011966735124588013 -0.029455333948135376 -0.0018478035926818848 0.04216557741165161 0.08392146229743958 0.011121600866317749 0.09801888465881348 0.0270615816116333 -0.03677262365818024 -0.09831306338310242 0.10711616277694702 0.09791091084480286 0.07797253131866455 -0.10581335425376892 0.010749518871307373 0.06972156465053558 0.0536634624004364 -0.08131691813468933 0.09106209874153137 0.03926438093185425 -0.09753955900669098 -0.033727675676345825 0.011835604906082153 0.004911527037620544 0.06861419975757599 0.036227405071258545 -0.02129434049129486 0.11263829469680786 -0.014946311712265015 -0.0079631507396698 0.07474200427532196 0.118642657995224 0.09022641181945801 0.06040777266025543 0.11131833493709564 -0.0006729364395141602 -0.0760248452425003 0.09798440337181091 -0.09984439611434937 -0.11630256474018097 0.03280937671661377 -0.07551518082618713 -0.07367126643657684 -0.05412814021110535 -0.1077578067779541 -0.12332881987094879 0.08583024144172668 -0.08765216171741486 -0.06728428602218628 0.03559942543506622 0.04319758713245392 0.09638173878192902 -0.0198819637298584 0.009968027472496033
0.046153515577316284 0.011007234454154968 -0.08739522099494934 0.11530789732933044 -0.03808894753456116 0.043048083782196045 -0.011786401271820068 0.0799039751291275 -0.018316924571990967 0.04976271092891693 0.0666465312242508 -0.016571953892707825 -0.11216214299201965 0.0620235800743103 -0.021415263414382935 -0.029642611742019653 0.07718229293823242 -0.015940740704536438 -0.027347177267074585 0.09532448649406433 0.060357481241226196 -0.04188604652881622 0.09315794706344604 -0.05806353688240051 -0.04839375615119934 -0.07408744096755981 0.047382041811943054 0.0466221421957016 -0.0866173654794693 -0.002832278609275818 0.11154177784919739 -0.069424569606781 -0.006121650338172913 0.05158586800098419 0.12289024889469147 0.02331891655921936 0.12283764779567719 -0.10864865779876709 0.07274346053600311 -0.028828278183937073 -0.0002644062042236328 0.045008644461631775 0.058163464069366455 -0.07086201012134552 0.09312798082828522 -0.1170276552438736 -0.08458280563354492 0.07251816987991333 -0.04597295820713043 -0.00529836118221283 0.11656291782855988 -0.0949341356754303 -0.012949764728546143 0.005468234419822693 0.0914965569972992 0.06912186741828918 -0.0560598224401474 0.002017676830291748 -0.049171119928359985 0.013199731707572937 0.08895152807235718 -0.06366218626499176 0.03934727609157562 -0.05946066975593567
0.04066476225852966 -0.09003990888595581 0.08853010833263397 0.12245361506938934 0.054307252168655396 -0.004350990056991577 0.025907069444656372 0.09230868518352509 0.06910526752471924 -0.007484808564186096 0.001139327883720398 0.09886626899242401 0.07998505234718323 0.11774551868438721 -0.008646339178085327 -0.0005088001489639282 0.031948432326316833 -0.08892151713371277 -0.041462838649749756 -0.031122982501983643 0.11196573078632355 -0.06848782300949097 0.11152909696102142 -0.12409301102161407 -0.04478245973587036 -0.10507982969284058 0.0724661648273468 -0.11374564468860626 0.10064542293548584 -0.08310146629810333 0.10425849258899689 0.06321033835411072 0.07780788838863373 -0.0921894907951355 -0.04818512499332428 -0.08552804589271545 -0.047742605209350586 -0.07284702360630035 -0.04952624440193176 -0.026121780276298523 0.057713016867637634 -0.05658431351184845 0.06184050440788269 0.04374116659164429 -0.00945727527141571 -0.012618809938430786 0.04421360790729523 -0.09458628296852112 -0.10629419982433319 0.05910344421863556 -0.06324584782123566 -0.04127626121044159 -0.047319620847702026 0.07578147947788239 -0.11541284620761871 0.09941369295120239 -0.11732195317745209 0.010560944676399231 0.05269169807434082 0.06258232891559601 0.08994342386722565 -0.0592203289270401 -0.04461279511451721 0.02312573790550232
0.040104180574417114 0.022956520318984985 -0.061185285449028015 -0.04801541566848755 -0.07699064910411835 0.02030569314956665 0.10904401540756226 0.06921917200088501 0.06786395609378815 0.12075828015804291 0.03126645088195801 -0.12346179783344269 0.052682191133499146 -0.11105746030807495 -0.1077980101108551 0.08571630716323853 0.02756592631340027 0.07916304469108582 0.12223750352859497 0.11538760364055634 0.000418052077293396 -0.018714815378189087 -0.04475310444831848 -0.10827188193798065 -0.002913564443588257 -0.03615221381187439 0.08363786339759827 0.03350028395652771 0.012758716940879822 0.019957751035690308 -0.05158519744873047 0.10621248185634613 -0.111578568816185 -0.07287241518497467 -0.05694141983985901 -0.0896870493888855 -0.10722355544567108 -0.02470974624156952 -0.0030701160430908203 -0.06120924651622772 0.09633314609527588 -0.12022209167480469 -0.07029080390930176 -0.036621883511543274 -0.03456522524356842 -0.0088510662317276 0.03864949941635132 -0.11867941915988922 -0.04813316464424133 -0.04083406925201416 0.10473258793354034 0.1221865862607956 -0.059291526675224304 0.006629526615142822 0.058670803904533386 -0.0733226090669632 0.10947595536708832 -0.07215981185436249 0.06643535196781158 0.05608281493186951 -0.044154033064842224 -0.004231512546539307 0.06150299310684204 -0.08688443899154663
-0.1057819277048111 -0.06701190769672394 -0.003592655062675476 -0.00046116113662719727 0.06989817321300507 -0.08284163475036621 0.062146514654159546 0.02883942425251007 0.046679362654685974 0.04070523381233215 0.043737784028053284 0.06336674094200134 0.10756482183933258 -0.12074436247348785 -0.11041982471942902 0.01067325472831726 0.016536518931388855 -0.005267620086669922 -0.10020707547664642 -0.04893001914024353 0.03695586323738098 -0.10672727227210999 -0.08140656352043152 0.01584048569202423 0.029745817184448242 -0.0690651684999466 0.05077698826789856 0.07816195487976074 0.11184903979301453 0.09439662098884583 0.09016941487789154 -0.04585249722003937 0.055659934878349304 -0.0237576961517334 0.030637726187705994 0.1074463427066803 0.007701367139816284 0.041374921798706055 0.08848254382610321 -0.11021967232227325 -0.05245932936668396 0.006320104002952576 -0.09077505767345428 0.0784970223903656 0.030835866928100586 -0.07106070220470428 -0.10998402535915375 0.12000532448291779 -0.009164705872535706 -0.07262121140956879 -0.06810441613197327 0.08476242423057556 0.03318539261817932 0.08006896078586578 0.01376102864742279 0.021327853202819824 -0.011328935623168945 -0.026999428868293762 0.0465654581785202 0.050737082958221436 -0.08432641625404358 0.11581604182720184 -0.03865942358970642 -0.0849185436964035
-0.11681729555130005 0.08294413983821869 -0.03686603903770447 -0.12159845232963562 0.119243323802948 -0.010881513357162476 0.08079075813293457 -0.04790280759334564 -0.008741721510887146 -0.08378951251506805 0.035772740840911865 -0.03134855628013611 0.049994975328445435 0.04506683349609375 -0.0004473179578781128 -0.06558892130851746 -0.07261843979358673 -0.020466908812522888 -0.12123240530490875 0.04746432602405548 0.05624218285083771 0.021413788199424744 -0.07111118733882904 0.07446888089179993 0.07023246586322784 0.05391521751880646 0.0873638242483139 -0.09343653917312622 -0.08129425346851349 0.0025302618741989136 -0.07762712240219116 -0.11102728545665741 -0.054817378520965576 0.12088799476623535 0.041795507073402405 -0.05643804371356964 -0.04278099536895752 0.06668727099895477 0.08921365439891815 -0.008656218647956848 -0.016710609197616577 0.11788102984428406 0.058080002665519714 -0.11477984488010406 -0.07380090653896332 0.07391233742237091 0.06535285711288452 -0.07390590012073517 0.0482831746339798 -0.06558932363986969 -0.03081849217414856 -0.08565294742584229 -0.03665901720523834 -0.05429817736148834 -0.10669241845607758 -0.020604178309440613 0.05876290798187256 0.02673564851284027 0.012010589241981506 -0.09996484220027924 0.003985807299613953 -0.08425113558769226 0.025163859128952026 -0.005850091576576233
0.06446243822574615 0.08405759930610657 0.10794316232204437 0.10847176611423492 0.09629300236701965 0.06391654908657074 0.049460381269454956 -0.012567684054374695 0.013122767210006714 -0.027739569544792175 -0.018360137939453125 -0.051377490162849426 -0.06424075365066528 -0.05286090075969696 0.04362517595291138 0.0714334100484848 0.1087067574262619 0.12166948616504669 -0.017570853233337402 -0.038752779364585876 -0.015645667910575867 0.10603457689285278 0.008832529187202454 0.009196028113365173 -0.04406696557998657 -0.002374619245529175 0.01834249496459961 -0.006449505686759949 -0.029456570744514465 -0.025315701961517334 -0.11200317740440369 -0.029806092381477356 0.08854725956916809 0.009139671921730042 0.09256444871425629 0.015546783804893494 0.06452392041683197 0.07713796198368073 -0.07574614882469177 0.0914735347032547 0.09861698746681213 0.008277267217636108 0.0627252459526062 -0.08779276907444 0.10127297043800354 -0.07967765629291534 0.012439146637916565 0.11623887717723846 -0.09555837512016296 0.06079427897930145 0.0960996150970459 -0.008535414934158325 -0.022319108247756958 -0.021070346236228943 -0.07102528214454651 0.09609195590019226 0.04601296782493591 -0.09589052200317383 -0.07499425113201141 0.07321693003177643 0.05464932322502136 0.10297881066799164 0.10147540271282196 0.010216280817985535
-0.08674672245979309 -0.04569515585899353 -0.005911782383918762 -0.11387208104133606 -0.1122284084558487 0.006212159991264343 -0.12244588136672974 -0.11489467322826385 0.03885476291179657 0.09570316970348358 0.05630660057067871 0.06275294721126556 0.08074356615543365 0.009969383478164673 -0.0193098783493042 0.10694117844104767 0.08740285038948059 -0.06904113292694092 -0.11062115430831909 -0.05700702965259552 -0.08417481184005737 0.004860863089561462 0.03822815418243408 -0.040386736392974854 -0.04105760157108307 0.11606647074222565 -0.016856059432029724 -0.12066583335399628 0.02441161870956421 -0.11794710159301758 -0.04551798105239868 0.10653115808963776 0.08227980136871338 0.1058148741722107 -0.114222452044487 -0.09469170868396759 0.057408228516578674 0.009319931268692017 -0.022054553031921387 -0.10417629778385162 0.12090341746807098 0.051851361989974976 0.09402453899383545 -0.10649333894252777 -0.024265676736831665 0.024068698287010193 -0.09554260969161987 -0.009049341082572937 0.05360901355743408 -0.04312729835510254 0.02178238332271576 -0.018723145127296448 -0.04542633891105652 0.10597619414329529 -0.05439455807209015 -0.0981837660074234 -0.08706563711166382 0.07363784313201904 0.09228041768074036 -0.11442099511623383 -0.06878915429115295 0.06399953365325928 0.06926888227462769 -0.09497873485088348
-0.010302603244781494 0.06682811677455902 0.11561225354671478 -0.10416394472122192 -0.10245098173618317 -0.012769117951393127 0.060501471161842346 -0.06475174427032471 0.10067722201347351 -0.02763219177722931 0.0034095346927642822 -0.06034474074840546 -0.08369094133377075 0.11664411425590515 0.02610073983669281 0.028697386384010315 0.09114030003547668 0.04183417558670044 0.0021141916513442993 -0.08614052832126617 0.08082005381584167 0.003923892974853516 0.11499844491481781 0.010402470827102661 -0.01041191816329956 -0.09794066846370697 0.07287141680717468 -0.0545835942029953 -0.05747587978839874 0.10117034614086151 0.08334468305110931 -0.00900353491306305 0.10574063658714294 0.06572073698043823 -0.09832872450351715 0.07605744898319244 -0.03248167037963867 0.022319108247756958 -0.01289418339729309 -0.07064519822597504 0.022981256246566772 -0.04608023166656494 -0.06648927927017212 -0.11378182470798492 -0.01616467535495758 -0.07758915424346924 -0.044726163148880005 0.1243603378534317 -0.05510108172893524 -0.04976034164428711 -0.049131616950035095 -0.010777875781059265 -0.022119954228401184 -0.014982268214225769 0.03445298969745636 0.06558576226234436 0.09991374611854553 -0.08277992904186249 -0.07398657500743866 0.000995352864265442 0.1173996776342392 -0.05846284329891205 -0.08233906328678131 0.01976439356803894
-0.057594120502471924 0.0976727306842804 -0.09238359332084656 0.08232888579368591 -0.09112584590911865 -0.012123659253120422 0.022279322147369385 0.023790940642356873 0.06456290185451508 0.03892314434051514 0.02106824517250061 -0.0447361022233963 0.08482949435710907 0.07894875109195709 -0.017091989517211914 -0.08906108140945435 -0.11211055517196655 -0.07110224664211273 -0.1243133693933487 -0.09877575933933258 0.037525102496147156 0.028566867113113403 -0.10533277690410614 0.12473222613334656 -0.05635853111743927 -0.08536195755004883 0.08468905091285706 -0.10083837807178497 0.07891173660755157 -0.08396105468273163 -0.020887240767478943 0.0416242778301239 -0.06648173928260803 -0.07950413227081299 -0.006935566663742065 -0.08992360532283783 -0.020900383591651917 -0.07628107070922852 0.036942437291145325 0.0842367559671402 -0.09140349924564362 -0.06499315798282623 -0.033621758222579956 0.019167348742485046 -0.06098826229572296 -0.12392142415046692 -0.02698388695716858 -0.025914430618286133 -0.06702341139316559 0.11804386973381042 -0.030459359288215637 0.09707845747470856 0.028382673859596252 0.02754265069961548 -0.0003891885280609131 -0.005135387182235718 0.054164692759513855 -0.03615427017211914 -0.031856000423431396 -0.09361922740936279 0.0987045019865036 0.008497536182403564 -0.09183000028133392 -0.10592491924762726
-0.026320546865463257 0.04857403039932251 -0.013912960886955261 -0.012746065855026245 0.03413568437099457 -0.06163448095321655 -0.024220198392868042 -0.03012882173061371 0.07459333539009094 0.04830329120159149 0.08429887890815735 0.05555364489555359 -0.10426637530326843 -0.025574147701263428 0.03847208619117737 0.04496242105960846 0.0098801851272583 0.09883099794387817 0.0420069545507431 -0.024738311767578125 -0.0056585222482681274 -0.11797115206718445 -0.09205907583236694 -0.07356506586074829 -0.12023845314979553 -0.07052236795425415 0.07827126979827881 -0.11556187272071838 -0.0014030635356903076 0.07370579242706299 -0.03089289367198944 0.09819677472114563 -0.026534780859947205 0.030455663800239563 0.06381040811538696 0.03849545121192932 -0.05597689747810364 0.10779184103012085 0.07705217599868774 -0.07627876102924347 0.11990320682525635 -0.003076687455177307 -0.016928687691688538 -0.10599607229232788 0.0016126036643981934 0.10777568817138672 0.04839056730270386 -0.09381173551082611 -0.034740060567855835 -0.07582730054855347 -0.05190597474575043 -0.03671891987323761 -0.07380497455596924 0.028179004788398743 0.0428837388753891 -0.003592878580093384 -0.09723435342311859 0.11365213990211487 -0.01657727360725403 0.09743006527423859 0.07310864329338074 0.0868287980556488 -0.017993628978729248 -0.10049884021282196
-0.1180630773305893 0.018187716603279114 0.06729233264923096 0.023380309343338013 0.015658989548683167 -0.07316020131111145 0.11556169390678406 0.02786526083946228 -0.06674924492835999 0.11763261258602142 -0.016078010201454163 0.010931015014648438 -0.020171359181404114 0.06622657179832458 -0.04574887454509735 0.06671653687953949 0.11188431084156036 0.005962789058685303 -0.00621640682220459 0.08753380179405212 -0.013053685426712036 0.0752566009759903 -0.06709510087966919 0.03667891025543213 0.04224616289138794 -0.05904430150985718 -0.005445107817649841 0.017973095178604126 0.06409026682376862 -0.09281051158905029 0.051604583859443665 -0.01909025013446808 0.0054232776165008545 -0.10029639303684235 -0.11161409318447113 -0.00803808867931366 -0.05831687152385712 -0.12164588272571564 0.03166210651397705 0.06053537130355835 0.020825639367103577 -0.08398392796516418 0.098878413438797 -0.0417042076587677 0.06330643594264984 0.09031812846660614 0.018468350172042847 0.10705916583538055 0.12110058963298798 0.07322348654270172 -0.00722929835319519 -0.05078995227813721 0.03115144371986389 0.1078190803527832 -0.023821935057640076 -0.12460900843143463 -0.09766885638237 -0.02436390519142151 0.0003107339143753052 -0.06115473806858063 -0.12445622682571411 -0.06876993179321289 -0.06042209267616272 -0.046485647559165955
0.05472242832183838 -0.019310951232910156 -0.003959923982620239 0.03243245184421539 -0.08224399387836456 -0.09006987512111664 -0.09589880704879761 0.06594865024089813 0.006934270262718201 -0.11670170724391937 -0.10386884212493896 0.08983391523361206 0.07445874810218811 0.0467018187046051 -0.11704820394515991 -0.08214187622070312 0.0052785128355026245 0.08815339207649231 -0.045403048396110535 0.0020070821046829224 0.043089330196380615 0.09603041410446167 0.1087094098329544 -0.09090505540370941 0.0292651504278183 0.06320388615131378 -0.00537659227848053 -0.030442625284194946 0.06348763406276703 -0.07065817713737488 -0.10495603084564209 -0.04115116596221924 -0.01965746283531189 -0.10277767479419708 0.024116531014442444 0.08873598277568817 0.11075000464916229 -0.0946977436542511 0.0075476765632629395 0.024468988180160522 0.09744954109191895 -0.0009988397359848022 -0.0029582232236862183 -0.020375162363052368 -0.04401691257953644 0.06748577952384949 -0.019657433032989502 -0.098070427775383 0.09422388672828674 -0.006333604454994202 0.09036107361316681 -0.08964277803897858 0.11770181357860565 -0.09792347252368927 0.08290144801139832 0.08849114179611206 0.11261236667633057 -0.013423919677734375 -0.1161821186542511 0.0718977302312851 -0.04775221645832062 -0.06424115598201752 -0.01817050576210022 0.049569740891456604
-0.11651039123535156 0.06671033799648285 0.04790988564491272 0.05923813581466675 -0.1175881028175354 -0.09812237322330475 -0.089311882853508 0.08672952651977539 -0.12101420760154724 0.02112613618373871 -0.019077777862548828 -0.056308016180992126 -0.07283937931060791 -0.08244039118289948 0.11074179410934448 0.05340507626533508 -0.013973906636238098 -0.11569181084632874 0.11479787528514862 -0.08196762204170227 0.06933608651161194 -0.10903976857662201 0.11031500995159149 -0.03918251395225525 -0.07405784726142883 -0.08709926903247833 -0.055575817823410034 -0.11981578171253204 -0.1108429878950119 -0.06656040251255035 -0.054275497794151306 -0.05722813308238983 0.057255715131759644 -0.10482296347618103 0.0721348226070404 -0.00791698694229126 -0.05857154726982117 -0.10107384622097015 0.017462149262428284 0.04441535472869873 0.11723797023296356 0.0030022114515304565 0.002394378185272217 0.09143663942813873 0.1081821471452713 -0.04562821984291077 0.046967655420303345 -0.05334429442882538 0.07886210083961487 0.08492985367774963 -0.011693015694618225 -0.08571290969848633 -0.06579472124576569 0.08517248928546906 0.07975001633167267 -0.11974717676639557 0.0901581197977066 -0.08958928287029266 0.03903619945049286 -0.08198517560958862 0.12239378690719604 -0.04544752836227417 -0.047216638922691345 0.0876457691192627
0.04221890866756439 0.06057178974151611 0.07219022512435913 -0.034813255071640015 -0.00560586154460907 -0.007235422730445862 0.11832477152347565 -0.010949715971946716 0.07011908292770386 -0.004347220063209534 -0.0555599182844162 0.11740672588348389 0.1166248470544815 -0.0653163492679596 0.11262121796607971 -0.020427986979484558 -0.01779693365097046 0.07610401511192322 0.07678623497486115 -0.05217170715332031 0.020120039582252502 0.018087640404701233 0.11549784243106842 -0.07700304687023163 0.040334731340408325 -0.09469723701477051 -0.025591611862182617 0.030079156160354614 0.10517580807209015 -0.09844531118869781 -0.023942172527313232 -0.11515840888023376 0.06722798943519592 0.11844712495803833 -0.08555090427398682 0.03496851027011871 0.06886158883571625 -0.09821927547454834 0.06262101233005524 -0.12045355141162872 0.09683522582054138 0.013512730598449707 -0.03636625409126282 -0.07806500792503357 -0.030917495489120483 0.1005731076002121 0.1085452288389206 -0.08249358832836151 -0.015300780534744263 -0.01246662437915802 -0.07195527851581573 0.0642920732498169 -0.024351254105567932 -0.07455098628997803 0.01233866810798645 -0.029743298888206482 -0.07301855087280273 0.11129970848560333 0.03813108801841736 0.009578153491020203 0.08921238780021667 -0.06793282926082611 -0.08668659627437592 -0.11685961484909058
0.12449333071708679 -0.033175528049468994 0.044602543115615845 0.05358448624610901 0.00037248432636260986 0.022773638367652893 0.06067642569541931 -0.10094559192657471 0.12420661747455597 -0.013073146343231201 0.05146569013595581 -0.07091037929058075 -0.10813991725444794 -0.06154528260231018 -0.07317005097866058 -0.031653955578804016 -0.022860988974571228 -0.06614421308040619 -0.07140791416168213 0.12248177826404572 -0.04987017810344696 0.009390905499458313 0.037883952260017395 -0.06385430693626404 0.027099311351776123 -0.09287501871585846 -0.11095693707466125 -0.10105443000793457 0.09616424143314362 0.08024679124355316 0.022964894771575928 -0.010043203830718994 -0.12279196083545685 -0.10617969930171967 -0.08366003632545471 -0.10804155468940735 -0.02067890763282776 0.07586713135242462 -0.05538149178028107 -0.10062390565872192 -0.03683234751224518 0.011463642120361328 0.03663754463195801 -0.07475866377353668 -0.06934700906276703 0.08125181496143341 0.06336572766304016 -0.09282267093658447 -0.11677514016628265 0.07590702176094055 0.029591262340545654 0.015449479222297668 0.10775645077228546 0.07327406108379364 0.02498231828212738 0.11350519955158234 -0.049803316593170166 0.005564957857131958 0.052205026149749756 0.07558111846446991 -0.09099449217319489 -0.03593409061431885 -0.11667574942111969 -0.06886380910873413
-0.08640457689762115 0.10389719903469086 0.03628203272819519 0.0009030997753143311 0.01186053454875946 0.02596871554851532 -0.12436816096305847 -0.021441206336021423 -0.07923966646194458 -0.02129310369491577 0.12134073674678802 -0.12008064985275269 -0.028322935104370117 0.10950854420661926 0.037076354026794434 0.016493812203407288 -0.005866706371307373 0.016714975237846375 -0.01078103482723236 0.06411510705947876 0.09428095817565918 0.061727628111839294 0.018103227019309998 0.06764894723892212 0.06539581716060638 -0.09738929569721222 -0.06741805374622345 0.0854281336069107 0.07370314002037048 0.004764929413795471 -0.05127298831939697 0.06536190211772919 -0.0034576207399368286 -0.10584348440170288 0.10038763284683228 -0.10480421781539917 -0.09878206253051758 -0.04754815995693207 -0.11792278289794922 -0.04039205610752106 0.06647555530071259 -0.08256027102470398 -0.0016707032918930054 0.02969449758529663 0.07413993775844574 -0.0037655234336853027 0.03788900375366211 0.06622239947319031 0.09760825335979462 -0.0026749372482299805 0.009719282388687134 -0.05422253906726837 -0.09485581517219543 0.08352942764759064 0.09580746293067932 -0.04004479944705963 -0.11776505410671234 -0.012507379055023193 -0.01645633578300476 0.09784114360809326 -0.02750721573829651 0.05542607605457306 0.06191645562648773 0.11694420874118805
-0.05040012300014496 -0.11510619521141052 0.015702009201049805 0.11408250033855438 -0.09015929698944092 -0.09592875838279724 0.09854930639266968 -0.11615042388439178 0.12059792876243591 -0.024252355098724365 0.042680829763412476 0.07066074013710022 -0.11801441013813019 0.030290931463241577 -0.0596451461315155 -0.06678071618080139 0.09995687007904053 -0.017038851976394653 0.12262585759162903 -0.020968928933143616 0.05670173466205597 -0.06887322664260864 -0.02411748468875885 0.0778266191482544 0.09332707524299622 0.03727497160434723 -0.06751610338687897 -0.07896514236927032 -0.03311915695667267 0.11613234877586365 0.010798707604408264 -0.10085609555244446 -0.027343720197677612 -0.0007032006978988647 -0.04208771884441376 -0.004798039793968201 -0.04744705557823181 0.08975249528884888 0.11721590161323547 -0.015176042914390564 -0.0307491272687912 -0.1185481995344162 0.04719966650009155 -0.04600793123245239 0.0031535178422927856 0.038085728883743286 0.04429525136947632 0.12486200034618378 -0.08998091518878937 0.0840694010257721 -0.045016661286354065 -0.1092965304851532 0.034029245376586914 0.06512349843978882 0.03450585901737213 0.021421357989311218 -0.051795199513435364 0.07075265049934387 -0.10469277203083038 -0.02624604105949402 0.05215993523597717 0.05195446312427521 0.053867921233177185 -0.0960734635591507
-0.0969240665435791 0.009902998805046082 -0.0024887174367904663 0.07268817722797394 0.014189720153808594 0.05567824840545654 0.09886731207370758 0.08192943036556244 -0.04306553304195404 -0.09382878243923187 -0.058742210268974304 -0.10964560508728027 -0.08758391439914703 -0.060980379581451416 0.09423843026161194 -0.07325303554534912 0.04132243990898132 -0.032322660088539124 0.028307676315307617 -0.06292535364627838 -0.02589540183544159 -0.03067818284034729 0.10010877251625061 -0.03245270252227783 -0.10995614528656006 0.06527997553348541 0.11228594183921814 0.04644882678985596 -0.05009949207305908 -0.013192921876907349 -0.0945805162191391 0.0895656943321228 -0.004988312721252441 0.07450632750988007 0.03514687716960907 0.1016521155834198 -0.006007492542266846 -0.0007268190383911133 0.024885594844818115 -0.11227704584598541 0.10119006037712097 -0.08550317585468292 0.07343307137489319 -0.09854680299758911 -0.04439026117324829 -0.11749346554279327 0.03454919159412384 0.05798780918121338 -0.038355037569999695 -0.027129992842674255 0.09195296466350555 0.09737281501293182 -0.035862892866134644 0.10724374651908875 0.028276145458221436 -0.026020333170890808 -0.021870672702789307 0.030284464359283447 0.1028030663728714 -0.08547702431678772 -0.05639629065990448 -0.01881346106529236 -0.11113336682319641 -0.06286518275737762
0.09700500965118408 0.06965777277946472 0.06970013678073883 0.05414615571498871 0.09232592582702637 -0.08558431267738342 -0.04760587215423584 -0.10587726533412933 0.011676684021949768 -0.02439504861831665 -0.11303123831748962 -0.11750547587871552 -0.042866870760917664 0.09231053292751312 -0.010677993297576904 -0.11278246343135834 0.04921692609786987 -0.006255120038986206 -0.08839528262615204 -0.09020096063613892 -0.006022453308105469 0.09198997914791107 -0.04265624284744263 0.03119055926799774 0.12481841444969177 -0.11514721810817719 0.1100265234708786 0.01754721999168396 -0.01591208577156067 -0.048361703753471375 -0.029248878359794617 0.04808877408504486 0.03851376473903656 0.09038399159908295 -0.0013554543256759644 -0.07653385400772095 0.10511945188045502 0.04293559491634369 0.007236897945404053 0.0306636244058609 -0.01637977361679077 -0.04565693438053131 0.06289570033550262 0.025587916374206543 -0.05945603549480438 0.08533072471618652 0.10385109484195709 -0.09607900679111481 0.0005110800266265869 -0.10260741412639618 -0.04738414287567139 -0.010190606117248535 -0.10570085048675537 -0.07733279466629028 0.1101912409067154 0.05153997242450714 0.0031042397022247314 -0.08099362254142761 0.0513014942407608 0.030600830912590027 0.04850408434867859 -0.10426376760005951 0.09172330796718597 -0.035344868898391724
-0.02399386465549469 -0.09734347462654114 0.08625781536102295 0.09108136594295502 -0.021670907735824585 -0.031881630420684814 -0.09453882277011871 -0.046851158142089844 0.08329960703849792 -0.019336998462677002 0.10018634796142578 0.08556342124938965 0.0051214247941970825 0.09427602589130402 -0.06645070016384125 -0.006195560097694397 0.1075814962387085 -0.0010394304990768433 0.10564368963241577 0.011337846517562866 0.10613402724266052 0.04856036603450775 0.033203765749931335 -0.10454143583774567 0.09744840860366821 0.10523514449596405 0.09442083537578583 -0.046133965253829956 -0.0620371550321579 -0.10163980722427368 -0.10275866091251373 -0.049976661801338196 -0.10713884234428406 -0.05031624436378479 -0.04857218265533447 0.08727869391441345 0.03677012026309967 0.07552480697631836 -0.04795704782009125 -0.03196357190608978 -0.12358774244785309 -0.05226103961467743 0.11557884514331818 -0.08076731860637665 -0.07317745685577393 0.08428046107292175 -0.1100211888551712 0.008602678775787354 -0.02709728479385376 0.016962572932243347 -0.10616995394229889 0.018534809350967407 -0.08382335305213928 -0.03962576389312744 0.031838491559028625 -0.11365549266338348 -0.01665794849395752 0.11326992511749268 -0.015140682458877563 -0.038939133286476135 -0.07730330526828766 -0.10188297927379608 0.056578099727630615 -0.07336270809173584
-0.1005992442369461 -0.04600435495376587 0.10553388297557831 0.028278768062591553 -0.035607561469078064 0.016750171780586243 -0.11107902228832245 0.1149253100156784 0.09124396741390228 0.05303385853767395 -0.010249406099319458 -0.09787151217460632 -0.09678967297077179 0.08446110785007477 -0.04358522593975067 0.008770585060119629 0.02560921013355255 -0.033019840717315674 0.08785800635814667 0.018263891339302063 0.02923525869846344 -0.09019692242145538 0.05991591513156891 -0.03030271828174591 -0.030710726976394653 -0.09574933350086212 -0.00875440239906311 0.07026426494121552 -0.10998432338237762 0.050922736525535583 0.052611321210861206 -0.02771216630935669 0.030866071581840515 -0.0762464851140976 -0.060478076338768005 -0.03918580710887909 0.029911071062088013 0.11863519251346588 0.00533546507358551 -0.11289605498313904 -0.0602114200592041 0.013582706451416016 0.03479529917240143 0.09097214043140411 -0.0002684742212295532 -0.0737740695476532 -0.12396347522735596 -0.08701972663402557 -0.09025608003139496 0.11589333415031433 0.09157638251781464 0.06092539429664612 -0.05592787265777588 0.06877325475215912 -0.09165279567241669 -0.041366785764694214 -0.1119767278432846 -0.05216982960700989 0.06761245429515839 -0.01055869460105896 -0.09699620306491852 0.005846142768859863 -0.060425907373428345 0.07792419195175171
-0.08639729022979736 -0.07235755026340485 0.05077129602432251 0.08225871622562408 0.041036128997802734 -0.08899742364883423 -0.030241072177886963 -0.06535635888576508 0.005777671933174133 -0.109627366065979 -0.03136686980724335 -0.030812442302703857 -0.005042672157287598 0.11932826042175293 -0.08311381936073303 -0.03802195191383362 0.09783603250980377 0.05858851969242096 0.11656875908374786 -0.055842459201812744 -0.050881773233413696 -0.11200648546218872 0.04595947265625 0.024147123098373413 0.03090156614780426 -0.04230518639087677 0.09954600036144257 -0.06622423231601715 -0.06902356445789337 0.03501981496810913 -0.025433778762817383 -0.05108395218849182 0.09196469187736511 -0.09414973855018616 -0.05139872431755066 0.009673312306404114 0.11510097980499268 0.12420991063117981 -0.07411155104637146 0.04490731656551361 -0.06611065566539764 -0.05996350944042206 -0.015383020043373108 -0.10126374661922455 -0.10990606248378754 0.02770020067691803 0.12256325781345367 -0.0941178947687149 0.09159904718399048 -0.03240518271923065 -0.09298737347126007 0.059282079339027405 0.09569038450717926 0.0488077849149704 0.030659452080726624 0.0020345747470855713 -0.03976373374462128 0.045037493109703064 0.05786316096782684 -0.007916346192359924 0.059949979186058044 0.021776825189590454 0.017798662185668945 0.05048142373561859
-0.041328296065330505 0.0999399721622467 -0.11123105883598328 0.005344316363334656 -0.00749187171459198 0.06667186319828033 -0.04958373308181763 0.017272472381591797 -0.03785933554172516 0.06530362367630005 -0.02886393666267395 -0.07704728841781616 -0.0085572749376297 0.015230298042297363 -0.08242413401603699 -0.06801123917102814 0.001593276858329773 0.05262333154678345 -0.0660557895898819 -0.023955658078193665 -0.025446802377700806 0.03983329236507416 0.08506621420383453 0.11604289710521698 0.012487336993217468 -0.08525167405605316 0.055825069546699524 -0.08121593296527863 -0.052732184529304504 0.009922802448272705 -0.013136640191078186 0.06180243194103241 0.055654823780059814 -0.12292635440826416 0.031603991985321045 0.09704789519309998 0.11515957117080688 -0.07874524593353271 0.0555201917886734 -0.05736221373081207 -0.046838030219078064 -0.08081848919391632 -0.10797549784183502 0.08398161828517914 -0.03258633613586426 0.004478931427001953 -0.0566428005695343 -0.026990920305252075 -0.018641158938407898 0.03516902029514313 0.10218293964862823 -0.06570935249328613 -0.020358964800834656 0.08624635636806488 -0.08857718110084534 0.01578293740749359 0.0231044739484787 0.0065781474113464355 -0.08232314884662628 -0.11794610321521759 0.08737115561962128 -0.017874926328659058 -0.12293986976146698 -0.07387259602546692
0.08620710670948029 0.047948598861694336 -0.09356999397277832 0.11429627239704132 0.02107195556163788 0.019888758659362793 -0.02567361295223236 0.121910959482193 -0.10387687385082245 -0.04256351292133331 0.024156376719474792 -0.11951039731502533 0.06264516711235046 0.07479842007160187 0.06012696027755737 -0.08698570728302002 -0.05182892084121704 -0.010361015796661377 -0.053513944149017334 -0.023147761821746826 0.1248309463262558 -0.009020403027534485 0.12191188335418701 -0.07946145534515381 0.06402075290679932 -0.0746801346540451 0.1061473935842514 0.04954227805137634 -0.04548734426498413 -0.09177382290363312 -0.09078927338123322 0.1224486231803894 -0.02843049168586731 -0.049159854650497437 0.07614664733409882 -0.036971986293792725 0.07789993286132812 -0.06278803944587708 0.027514159679412842 -0.023124054074287415 0.07591429352760315 0.03622223436832428 0.022620663046836853 -0.1200067400932312 -0.006339207291603088 -0.025240451097488403 -0.05178837478160858 0.11964111030101776 -0.10604910552501678 -0.08357760310173035 0.006593465805053711 0.07515029609203339 0.0461643785238266 0.04156069457530975 0.10777443647384644 -0.08188188076019287 -0.06957732141017914 -0.005290970206260681 -0.049885913729667664 0.11679676175117493 -0.05193285644054413 -0.01867052912712097 -0.006584376096725464 0.07748520374298096
-0.03841504454612732 -0.11560161411762238 0.08063399791717529 -0.04001040756702423 -0.07398886978626251 0.03946830332279205 0.08609147369861603 -0.0869898796081543 -0.09792859852313995 0.001354902982711792 0.11012206971645355 -0.08319641649723053 0.02657194435596466 -0.01952722668647766 0.06470851600170135 0.010643169283866882 0.03418081998825073 -0.10847873985767365 0.07993024587631226 -0.07416923344135284 0.12058606743812561 -0.0688147246837616 0.06471395492553711 0.08756248652935028 -0.037446603178977966 -0.0029995739459991455 0.05483609437942505 -0.0017245113849639893 -0.10856465995311737 -0.05985555052757263 0.08725966513156891 -0.006575673818588257 0.11401434242725372 -0.02273392677307129 0.08099360764026642 -0.0688091516494751 0.07072991132736206 0.12032648921012878 0.04337017238140106 0.10937055945396423 -0.07054126262664795 -0.09925360977649689 -0.008285954594612122 -0.06082327663898468 -0.0032242238521575928 -0.0024912655353546143 -0.10299760103225708 -0.07860077917575836 -0.08821702003479004 0.03822299838066101 0.06628665328025818 0.03337746858596802 0.12488660216331482 -0.10246270895004272 0.004298210144042969 -0.10152685642242432 -0.038109079003334045 -0.014287605881690979 0.04190029203891754 -0.08718915283679962 -0.0371868759393692 -0.0637173056602478 0.10668779909610748 0.124748095870018
0.014039874076843262 -0.026399284601211548 0.025338903069496155 -0.07212018966674805 -0.0623575896024704 -0.0392182320356369 0.09027054905891418 -0.046995386481285095 0.11122021079063416 0.023108437657356262 0.11192356050014496 0.10646083950996399 0.040291815996170044 -0.07261045277118683 -0.06384629011154175 0.03334808349609375 0.017993375658988953 0.05292123556137085 0.03499162197113037 0.013986736536026001 0.03833243250846863 0.04386712610721588 0.11493280529975891 0.11673976480960846 -0.08053480088710785 0.11648178100585938 -0.06891737878322601 -0.06599599123001099 0.06681978702545166 -0.015202805399894714 0.0770416110754013 -0.09896840155124664 -0.015552744269371033 0.08678719401359558 0.05098424851894379 -0.035687223076820374 -0.12361577153205872 0.031900420784950256 0.12091577053070068 0.11155238747596741 0.11293268203735352 0.11647294461727142 0.11298120021820068 0.03090585768222809 0.1067488044500351 0.04485835134983063 0.06600180268287659 0.03963661193847656 -0.10639366507530212 -0.004397556185722351 -0.09125341475009918 0.010081902146339417 0.05071595311164856 -0.023926332592964172 -0.10636544227600098 -0.09210583567619324 0.026977360248565674 0.012015581130981445 0.061092808842659 0.06566174328327179 -0.018933162093162537 0.08248792588710785 -0.09623058140277863 -0.12172149121761322
0.01722373068332672 -0.11382628977298737 0.027933597564697266 0.015964537858963013 0.06932508945465088 0.08316056430339813 0.08525656163692474 0.008303523063659668 0.09550312161445618 0.052668243646621704 0.12230092287063599 0.09940432012081146 -0.09618659317493439 0.05527991056442261 -0.006030678749084473 0.022546857595443726 0.1057138592004776 0.06292423605918884 0.04980027675628662 -0.04415847361087799 0.05824349820613861 0.04483345150947571 0.023730367422103882 -0.0043420493602752686 0.08353082835674286 -0.010808423161506653 0.040714919567108154 0.0868518203496933 -0.12320566177368164 0.028904259204864502 0.09188094735145569 -0.08331707119941711 -0.029307633638381958 -0.055846139788627625 -0.05952584743499756 -0.08544677495956421 -0.01668870449066162 -0.004167288541793823 -0.01827685534954071 0.04183143377304077 0.06407994031906128 -0.08894649147987366 -0.1172785758972168 0.0530906617641449 -0.07342548668384552 0.03609347343444824 -0.1091742217540741 -0.09490092098712921 0.040625035762786865 -0.04656714200973511 -0.08471570909023285 -0.049255192279815674 -0.03228597342967987 0.035322993993759155 0.1093970239162445 0.0903661847114563 -0.07225602865219116 0.12152519822120667 -0.05184577405452728 0.04320068657398224 0.0229903906583786 -0.016198769211769104 -0.09568873047828674 -0.07866059243679047
0.05002598464488983 -0.09391763806343079 -0.0032894015312194824 -0.022565141320228577 -0.07293888926506042 0.06537880003452301 -0.10498380661010742 -0.12264290452003479 -0.05382449924945831 0.02252809703350067 -0.021344855427742004 -0.11126008629798889 0.11761687695980072 0.08770863711833954 0.055473536252975464 0.015895947813987732 0.0034380853176116943 0.10637158155441284 -0.11154824495315552 -0.05856621265411377 0.1005416214466095 0.02934424579143524 -0.055194154381752014 0.023011833429336548 -0.07754687964916229 0.01605185866355896 -0.029733210802078247 0.03712110221385956 0.034626275300979614 0.015170425176620483 0.06357187032699585 -0.09507761895656586 0.07555978000164032 0.042086243629455566 0.1029483824968338 0.10377782583236694 0.12271101772785187 0.07910329103469849 -0.013166666030883789 -0.05812971293926239 -0.10937820374965668 -0.025652572512626648 0.04895809292793274 -0.0759073793888092 0.04785528779029846 0.10629639029502869 -0.03373493254184723 0.06886342167854309 -0.02204631268978119 0.01972310245037079 0.02418939769268036 -0.11783257126808167 0.003966584801673889 0.008128032088279724 -0.11042256653308868 -0.020575955510139465 -0.06578981876373291 -0.048724547028541565 -0.0045614093542099 -0.05862404406070709 -0.11742937564849854 -0.08526962995529175 -0.09131395816802979 -0.05047197639942169
-0.04982474446296692 -0.018972247838974 -0.05672360956668854 -0.07102367281913757 -0.10920162498950958 0.11417114734649658 -0.010496899485588074 0.03313437104225159 -0.07271228730678558 0.05174897611141205 -0.03209216892719269 -0.10273511707782745 0.11693564057350159 -0.015602394938468933 0.08468684554100037 0.09721855819225311 0.03587253391742706 0.08819602429866791 0.040193766355514526 -0.014732271432876587 0.08785204589366913 -0.09280048310756683 -0.11822924017906189 -0.12418152391910553 -0.0375424325466156 0.05627302825450897 -0.09178267419338226 0.07784105837345123 0.032836928963661194 -0.08810068666934967 -0.11304448544979095 0.11520017683506012 0.058173373341560364 0.014462053775787354 0.08947117626667023 -0.09058505296707153 0.07921364903450012 0.0708380788564682 -0.042715609073638916 -0.06093400716781616 -0.030088841915130615 0.05729275941848755 -0.11625738441944122 0.0637156218290329 0.009388461709022522 -0.12351557612419128 0.06693536043167114 -0.046802371740341187 -0.06485597789287567 0.05838659405708313 0.07761713862419128 -0.11616820096969604 -0.005711153149604797 -0.09331083297729492 -0.10621584951877594 0.013231053948402405 0.08816835284233093 0.04627825319766998 0.02284519374370575 0.09009461104869843 -0.06801991164684296 0.06621044874191284 0.0026088207960128784 0.10488775372505188
0.03597921133041382 0.06884156167507172 0.10503792762756348 0.008887305855751038 -0.01580078899860382 0.023994266986846924 -0.10250155627727509 0.10170106589794159 -0.05935470759868622 -0.03489480912685394 0.0029061436653137207 0.08854210376739502 0.08087483048439026 0.038151517510414124 -0.09939055144786835 0.010978415608406067 0.02666674554347992 -0.08932867646217346 0.09768585860729218 0.07244648039340973 0.10543572902679443 0.10372556746006012 -0.027913913130760193 0.08172810077667236 0.02982543408870697 0.12334232032299042 0.10395334661006927 -0.06852079927921295 0.05738164484500885 0.022808954119682312 -0.05859149992465973 -0.05256016552448273 -0.007354408502578735 0.11082357168197632 0.04550272226333618 0.045038238167762756 -0.08420060575008392 0.0960688591003418 -0.012638568878173828 0.04273894429206848 0.05080223083496094 0.018279820680618286 -0.11043702065944672 0.058746710419654846 -0.08574031293392181 -0.05459199845790863 0.11243297159671783 -0.1043456494808197 0.061620473861694336 0.033301159739494324 -0.10845394432544708 -0.0807998925447464 0.030131474137306213 -0.006760060787200928 -0.051378339529037476 0.09839840233325958 -0.10696502029895782 -0.01863667368888855 0.09861668944358826 -0.04936835169792175 0.06126771867275238 0.012062028050422668 0.09241549670696259 0.022125959396362305
