0.06925494968891144 -0.011540830135345459 -0.05334334075450897 -0.009518429636955261 -0.02186928689479828 0.0451359748840332 -0.016956627368927002 -0.09776473045349121 -0.028298094868659973 0.05869954824447632 -0.03900758922100067 -0.10824576020240784 0.043657079339027405 0.006817474961280823 0.044134095311164856 0.005840793251991272 0.08789362013339996 -0.014860183000564575 -0.11536048352718353 0.057118773460388184 -0.02704004943370819 0.03210750222206116 -0.07572472095489502 0.07363845407962799 0.07203181087970734 0.02712102234363556 -0.08066487312316895 -0.06159287691116333 0.11209087073802948 -0.002687111496925354 -0.08440075814723969 0.053502947092056274 -0.06252138316631317 -0.1045275628566742 0.05988496541976929 -0.07739239931106567 0.12466743588447571 0.0456041544675827 0.09739217162132263 0.07101765275001526 -0.03364048898220062 0.038549184799194336 -0.049883946776390076 -0.0738692432641983 0.10725438594818115 -0.022677496075630188 -0.07777789235115051 -0.11054252088069916 -0.11327049136161804 0.053872838616371155 0.04844449460506439 -0.10801811516284943 0.007500976324081421 -0.03759080171585083 -0.0701306164264679 0.019865959882736206 -0.0032715797424316406 -0.10386136174201965 -0.05130685865879059 0.08201521635055542 0.10009053349494934 0.05302987992763519 -0.09998476505279541 0.05346573889255524
-0.036033570766448975 0.07709363102912903 0.09626097977161407 -0.04542328417301178 -0.12410932779312134 0.0011311918497085571 -0.12380054593086243 0.08449634909629822 -0.009159356355667114 -0.021136626601219177 0.05910557508468628 0.0059168338775634766 -0.09633715450763702 0.12184838950634003 -0.07867516577243805 -0.04944200813770294 -0.038159847259521484 -0.019590765237808228 0.052251264452934265 -0.05443330109119415 -0.06991112232208252 -0.054098159074783325 -0.0022301524877548218 -0.027241140604019165 -0.002234935760498047 -0.07451137900352478 -0.10800686478614807 -0.03863261640071869 0.10731442272663116 0.11455754935741425 0.11345523595809937 -0.0016576647758483887 0.07465299963951111 -0.04815755784511566 0.11789605021476746 -0.10395801067352295 -0.002290964126586914 -0.020797476172447205 0.03875340521335602 0.02182638645172119 -0.08463352918624878 -0.05864492058753967 -0.07356065511703491 -0.0828821063041687 0.04644255340099335 0.0571892112493515 0.09090195596218109 0.06197367608547211 -0.03716909885406494 0.05037294328212738 -0.0780990719795227 -0.08455854654312134 0.1020822823047638 -0.042373910546302795 0.04807201027870178 0.009042993187904358 0.01873321831226349 0.08444565534591675 -0.03371456265449524 0.04234829545021057 0.026137903332710266 -0.07769829034805298 0.08449916541576385 -0.07163731753826141
-0.0011081695556640625 0.054443359375 -0.10979770123958588 0.038143157958984375 0.02662639319896698 -0.00837281346321106 -0.0527355819940567 0.05153188109397888 0.03405497968196869 -0.07608382403850555 0.06076201796531677 0.06035076081752777 -0.10570834577083588 0.06475910544395447 -0.06003524363040924 -0.10630835592746735 0.05173540115356445 -0.054910361766815186 -0.029678761959075928 -0.07860919833183289 -0.03526708483695984 0.028104782104492188 0.11855386197566986 0.054583922028541565 0.10605992376804352 -0.02192811667919159 0.05268365144729614 0.11825427412986755 0.11878375709056854 0.014384418725967407 -0.11757636070251465 0.10552768409252167 -0.0004392862319946289 -0.05130073428153992 0.01815454661846161 -0.012871593236923218 0.08608278632164001 0.044858261942863464 0.09400387108325958 -0.07906679809093475 -0.08115197718143463 0.025568783283233643 0.09732003509998322 0.06877055764198303 0.010070964694023132 0.06924544274806976 0.011013641953468323 0.030783116817474365 0.09067927300930023 -0.0578000545501709 -0.023094087839126587 0.08540402352809906 0.05792801082134247 0.006797388195991516 0.06554114818572998 0.0194682776927948 0.09502273797988892 -0.10417686402797699 -0.10296580195426941 -0.10267198085784912 0.09870511293411255 -0.04728102684020996 -0.01977679133415222 0.027477994561195374
-0.025552794337272644 -0.025639593601226807 0.005419835448265076 0.050412729382514954 0.0519915372133255 -0.12086351215839386 0.006668508052825928 0.1081196516752243 0.04580177366733551 0.07723380625247955 0.027990251779556274 -0.12312468886375427 -0.023769423365592957 -0.12383817136287689 0.11506044864654541 0.09451824426651001 0.12111437320709229 0.11743372678756714 0.0463998019695282 0.11837722361087799 0.08852240443229675 -0.09679630398750305 -0.0122719407081604 -0.08635050058364868 -0.03968264162540436 -0.07426469027996063 -0.08043815195560455 -0.099897101521492 -0.10204675793647766 0.05837029218673706 0.048126399517059326 -0.07652318477630615 0.04627475142478943 -0.12192322313785553 -0.02063266932964325 -0.1107010543346405 0.09244513511657715 0.08244872093200684 -0.05104345083236694 0.0076256245374679565 0.013429686427116394 0.07948650419712067 0.03839410841464996 -0.036253735423088074 0.10103435814380646 -0.11918579041957855 0.09521074593067169 0.0828147828578949 -0.019414544105529785 -0.013835594058036804 0.09221002459526062 -0.07783086597919464 -0.09935837984085083 0.03208407759666443 0.054122328758239746 -0.02370665967464447 0.02091158926486969 0.02719929814338684 -0.08206631243228912 -0.11702984571456909 -0.07218000292778015 0.09839797019958496 -0.011309459805488586 -0.006972000002861023
-0.014700055122375488 -0.030625179409980774 0.04954752326011658 0.09542080760002136 -0.06762935221195221 -0.08987216651439667 0.07829801738262177 -0.07379108667373657 -0.05407918989658356 -0.08652828633785248 0.02936682105064392 -0.06962187588214874 -0.05348876118659973 -0.0839841216802597 -0.04772020876407623 0.024093657732009888 -0.033465027809143066 -0.07022681832313538 -0.07118222117424011 -0.10174915194511414 0.005165889859199524 0.10548742115497589 0.06927789747714996 0.08188749849796295 0.12244360148906708 0.001097351312637329 -0.049810707569122314 -0.115509033203125 -0.10458932816982269 -0.06420515477657318 -0.08557575941085815 -0.10326382517814636 0.06454306840896606 0.030057504773139954 -0.05694805085659027 -0.023886770009994507 -0.09763070940971375 0.07981286942958832 -0.05830995738506317 0.01428559422492981 0.005363345146179199 -0.04300305247306824 0.0025684237480163574 0.09428751468658447 -0.0609622448682785 -0.03017100691795349 0.021510407328605652 0.1248389184474945 -0.07881948351860046 0.03251984715461731 -0.12430812418460846 0.08903227746486664 0.08318208158016205 0.09814029932022095 -0.028529226779937744 0.020244821906089783 -0.0453190803527832 0.09810848534107208 0.09189200401306152 0.10530801117420197 -0.020511910319328308 -0.0015162527561187744 0.015895724296569824 0.11774428188800812
0.019630029797554016 0.018369391560554504 -0.04866923391819 0.05337953567504883 -0.08894111216068268 0.08733844757080078 -0.11771026253700256 0.015151634812355042 -0.05981956422328949 -0.108355313539505 -0.10011735558509827 -0.0924353152513504 0.09351436793804169 0.0877479761838913 0.11310981214046478 0.03152300417423248 -0.1073167622089386 0.12051708996295929 0.027793556451797485 0.0013515353202819824 -0.07439282536506653 -0.05770052969455719 0.09398216009140015 0.04802273213863373 -0.047782883048057556 0.009112343192100525 -0.05491732060909271 -0.07007330656051636 0.030058354139328003 0.0427393764257431 -0.10909071564674377 0.09936492145061493 0.036417409777641296 -0.06551314890384674 0.024907812476158142 -0.12112157046794891 0.060729652643203735 0.012162178754806519 0.06171011924743652 0.06908425688743591 0.003997936844825745 0.1221020370721817 -0.03584359586238861 0.1063743531703949 -0.08830268681049347 0.09295764565467834 0.09788508713245392 -0.02391466498374939 -0.025138989090919495 -0.0041484534740448 -0.054216280579566956 -0.024920746684074402 0.07400357723236084 0.0056422799825668335 -0.0855560153722763 0.03034473955631256 0.01744912564754486 -0.10935929417610168 -0.0049210041761398315 0.07715550065040588 0.000848814845085144 -0.04137714207172394 0.08594563603401184 -0.11176972091197968
-0.007063508033752441 -0.033039793372154236 -0.069657102227211 0.09787288308143616 0.018664583563804626 -0.07699203491210938 -0.03142865002155304 0.09069566428661346 -0.04687140882015228 0.10586459934711456 0.0925150215625763 0.12221875786781311 0.014150828123092651 -0.06664730608463287 0.053942516446113586 0.11302883923053741 0.07674320042133331 0.03231331706047058 -0.118736132979393 -0.09477688372135162 -0.07461336255073547 0.04695354402065277 -0.09695495665073395 0.03436334431171417 0.08234724402427673 0.0993984043598175 0.02741357684135437 -0.014344558119773865 -0.08073848485946655 -0.05932021141052246 -0.057097166776657104 -0.08981108665466309 -0.11715465784072876 0.12381888926029205 -0.1155577003955841 -0.001983851194381714 -0.017339438199996948 -0.1053263247013092 0.11449295282363892 -0.08386167883872986 0.08325660228729248 -0.08848369121551514 -0.08043494820594788 -0.09621870517730713 -0.023719817399978638 0.08603695034980774 -0.08647502958774567 0.06940516829490662 0.11778688430786133 -0.09656386077404022 0.03833293914794922 -0.07214631140232086 -0.003986164927482605 0.11263924837112427 0.10868744552135468 0.030947431921958923 -0.046255528926849365 -0.09035681188106537 -0.11969001591205597 0.05116166174411774 -0.07064130902290344 0.046923622488975525 -0.05727553367614746 0.09564685821533203
0.003090694546699524 0.052035704255104065 0.032106027007102966 -0.0325537770986557 -0.09824885427951813 -0.06185127794742584 0.08070538938045502 0.11533601582050323 -0.08305031061172485 -0.013894259929656982 -0.041905179619789124 0.005451291799545288 -0.11703108251094818 0.06200827658176422 0.03217218816280365 -0.0008809566497802734 -0.0955071896314621 0.03619632124900818 0.0937434732913971 -0.006849244236946106 0.11303700506687164 0.05975629389286041 -0.0722082257270813 -0.00014449656009674072 -0.061022982001304626 0.06722825765609741 -0.0014574825763702393 -0.056535035371780396 -0.10807698965072632 0.06495560705661774 0.08604945242404938 -0.02195902168750763 0.007143720984458923 0.0853474885225296 0.016509205102920532 -0.04385407269001007 0.09174120426177979 -0.05085019767284393 -0.10136131942272186 0.018759608268737793 -0.06682175397872925 -0.039141178131103516 -0.07454964518547058 -0.021856561303138733 -0.10398907959461212 -0.07693704962730408 0.04706074297428131 0.1034078299999237 0.0665019303560257 -0.0437285453081131 0.0007430016994476318 -0.08003254234790802 -0.003630205988883972 -0.034304454922676086 -0.0008368939161300659 0.03584630787372589 0.09148575365543365 0.020543470978736877 -0.09743081033229828 0.02379336953163147 0.11248128116130829 0.003881201148033142 -0.010970264673233032 -0.02619706094264984
-0.08305737376213074 -0.0373571515083313 -0.12296707928180695 0.056550413370132446 0.06380908191204071 -0.10434584319591522 -0.047532156109809875 -0.08682838082313538 0.08545248210430145 0.05986805260181427 0.0054258257150650024 0.12085916101932526 0.0373397171497345 -0.12181545794010162 -0.11513961851596832 0.11241202056407928 -0.12070897221565247 -0.021001532673835754 -0.08484242856502533 0.03370289504528046 0.0338667631149292 -0.1175498515367508 0.02847076952457428 -0.013925597071647644 -0.07115496695041656 0.00832974910736084 -0.06455090641975403 0.1205359548330307 0.001992940902709961 -0.047424957156181335 -0.09841816127300262 -0.0815788209438324 -0.07193540036678314 0.09326253831386566 0.055176109075546265 0.09968286752700806 0.01869136095046997 -0.05154615640640259 -0.06724350154399872 -0.12352754175662994 -0.07537378370761871 0.07232005894184113 -0.11801230907440186 0.027215689420700073 0.07695876061916351 -0.036858052015304565 -0.02542215585708618 -0.0407775342464447 -0.015456706285476685 -0.04580909013748169 0.004376128315925598 -0.0911816656589508 -0.09902091324329376 0.11758887767791748 -0.017543718218803406 -0.021489813923835754 -0.043769121170043945 -0.06471537053585052 -0.08038575947284698 0.05492177605628967 -0.05071757733821869 -0.11402109265327454 -0.0857434868812561 -0.07536180317401886
0.004958838224411011 -0.07812835276126862 -0.08018606901168823 0.043357521295547485 -0.05604885518550873 0.07766801118850708 0.0011027604341506958 -0.04211966693401337 -0.05158185958862305 -0.11892792582511902 -0.06862719357013702 0.08584187924861908 0.01625785231590271 0.11058788001537323 -0.053688496351242065 0.06463974714279175 -0.11178004741668701 -0.06484249234199524 -0.007137417793273926 -0.08498364686965942 -0.09489917755126953 0.022401928901672363 -0.11674578487873077 -0.0826147049665451 0.046611711382865906 0.008157491683959961 0.08844965696334839 0.0004450082778930664 0.11209587752819061 -0.10884629189968109 0.11531206965446472 0.0694640725851059 -0.08694136142730713 0.11221134662628174 -0.11712999641895294 0.022635728120803833 0.11591467261314392 -0.022205069661140442 0.0812598317861557 -0.020272240042686462 -0.0802605152130127 0.10282938182353973 0.09750312566757202 -0.033864960074424744 -0.10120894014835358 -0.025659427046775818 -0.06536075472831726 -0.00996728241443634 0.038587868213653564 0.12244190275669098 -0.05137738585472107 0.031054392457008362 0.04306638240814209 0.0742330551147461 0.12095290422439575 -0.046968504786491394 0.010140657424926758 -0.018885821104049683 -0.05847042798995972 0.07203324139118195 -0.10290130972862244 0.015312686562538147 0.05649273097515106 -0.1243816465139389
0.02801273763179779 -0.08688659965991974 0.011459007859230042 0.040158599615097046 -0.05908885598182678 0.041257455945014954 -0.0173959881067276 0.08773940801620483 0.015911146998405457 0.04472993314266205 -0.11792351305484772 0.06738846004009247 -0.09014396369457245 0.0809255987405777 0.014263123273849487 -0.0861794650554657 0.03214254975318909 -0.09145036339759827 -0.04189154505729675 0.042589351534843445 -0.03479926288127899 -0.06836855411529541 0.07261437177658081 0.060985490679740906 0.05009271204471588 -0.09676022827625275 0.07460062205791473 -0.03559926152229309 -0.09103024005889893 0.12059350311756134 -0.047457724809646606 -0.11693191528320312 0.11257374286651611 -0.04104249179363251 0.03723922371864319 0.054235026240348816 0.07573476433753967 0.01862838864326477 0.11467204988002777 -0.021057069301605225 -0.1059422641992569 0.11559516191482544 0.005886256694793701 0.007889032363891602 -0.05805414915084839 -0.09862622618675232 -0.04296182096004486 -0.0014768242835998535 0.07664938271045685 0.080934539437294 -0.07392826676368713 0.05330657958984375 0.07612383365631104 -0.08160637319087982 0.06658846139907837 0.018969789147377014 -0.019665658473968506 0.03158771991729736 -0.07119423151016235 0.07389062643051147 -0.07466281950473785 -0.017881318926811218 0.08301262557506561 0.0645705908536911
0.10116873681545258 -0.023829743266105652 -0.004149213433265686 -0.05643981695175171 -0.056978970766067505 -0.004532113671302795 -0.09227226674556732 0.011415645480155945 0.0014485716819763184 0.07090365886688232 0.0796521008014679 0.024989157915115356 -0.04518844187259674 -0.058396726846694946 -0.0892699807882309 0.06334024667739868 -0.03141181170940399 0.06405168771743774 0.09588804841041565 0.0038087815046310425 -0.09546320140361786 0.09631918370723724 0.08250920474529266 -0.11735469102859497 0.01414865255355835 0.0649871677160263 -0.05646654963493347 -0.11960062384605408 -0.023816168308258057 -0.05578841269016266 -0.05266280472278595 -0.10271565616130829 -0.08963043987751007 0.09244006872177124 -0.0688663125038147 -0.03993880748748779 -0.07596299052238464 0.03319668769836426 0.050058379769325256 -0.07321818172931671 -0.013428568840026855 -0.025714680552482605 -0.016799986362457275 0.09299828112125397 -0.07695618271827698 0.05440458655357361 -0.009053260087966919 0.10314546525478363 0.08241088688373566 0.08969870209693909 0.02861936390399933 0.1220180094242096 0.04295876622200012 0.007174208760261536 -0.06524622440338135 -0.11228261888027191 0.057230472564697266 -0.008125215768814087 0.03249533474445343 -0.09031546115875244 -0.07563416659832001 -0.05237369239330292 0.01495698094367981 0.11252179741859436
-0.008041486144065857 -0.09081512689590454 0.023899346590042114 -0.11024707555770874 -0.024053528904914856 0.10114908218383789 -0.06756769120693207 0.03975418210029602 -0.09425981342792511 0.0880354642868042 -0.06114049255847931 -0.028453171253204346 -0.09118220210075378 -0.0865001529455185 0.09178106486797333 -0.12466777861118317 0.08574725687503815 0.11336395144462585 -0.10900139808654785 -0.11336718499660492 0.05063354969024658 -0.018806397914886475 0.06466658413410187 -0.0956561416387558 -0.02684594690799713 -0.0793551355600357 -0.010912761092185974 -0.1231595128774643 -0.10572026669979095 -0.08367063105106354 -0.07459132373332977 -0.0876276046037674 0.008897989988327026 -0.11421641707420349 0.03975339233875275 -0.007644385099411011 0.1113467663526535 0.06849494576454163 -0.08984607458114624 0.02654731273651123 -0.011962831020355225 -0.018820464611053467 0.06910096108913422 -0.11027148365974426 0.08005794882774353 -0.070376917719841 -0.03444233536720276 -0.10047021508216858 0.09095482528209686 -0.0006353110074996948 -0.07400661706924438 -0.014706462621688843 -0.017293959856033325 0.00904063880443573 0.0918128490447998 0.048553138971328735 0.06192414462566376 0.07332117855548859 -0.018040403723716736 -0.10865093767642975 0.03595142066478729 0.024286732077598572 0.07757027447223663 0.11543655395507812
0.02839246392250061 -0.11030323803424835 0.11274474859237671 -0.01123403012752533 0.10641472041606903 -0.1075543612241745 -0.08754043281078339 -0.12188306450843811 -0.018837720155715942 0.11462755501270294 -0.0007461458444595337 -0.042562320828437805 0.06732584536075592 -0.0638258159160614 -0.051303401589393616 0.06702372431755066 -0.10075056552886963 0.08498869836330414 0.12005305290222168 -0.06863284111022949 0.011682495474815369 0.0506121963262558 -0.12144795060157776 0.08079944550991058 0.006139114499092102 0.04445922374725342 -0.07324531674385071 0.12050865590572357 -0.027157247066497803 0.04871706664562225 0.08015279471874237 0.08514288067817688 -0.11429004371166229 -0.05543778836727142 0.10978089272975922 -0.053116574883461 0.027279168367385864 -0.03186646103858948 0.05565652251243591 0.028148159384727478 -0.059295833110809326 0.10438817739486694 0.01612432301044464 -0.017294839024543762 -0.0387430340051651 -0.0002209693193435669 0.05368296802043915 0.059814706444740295 -0.11381055414676666 0.03738546371459961 0.005952730774879456 -0.08174097537994385 0.034044086933135986 0.09778536856174469 0.03334391117095947 0.10040283203125 0.04648780822753906 0.04044121503829956 -0.12035802006721497 0.009064435958862305 0.09340330958366394 -0.014229252934455872 -0.11254654824733734 -0.010465472936630249
-0.0012682527303695679 0.025736406445503235 0.09834837913513184 0.05582989752292633 -0.01902836561203003 0.12056733667850494 -0.05732755362987518 -0.10714222490787506 0.033020421862602234 -0.07188236713409424 -0.08458143472671509 0.025924131274223328 -0.08791330456733704 0.08853955566883087 -0.033406034111976624 -0.07481405138969421 -0.10320389270782471 -0.03837516903877258 0.015608564019203186 0.09286575019359589 0.08554565906524658 0.04996629059314728 -0.040742143988609314 0.009090736508369446 -0.0619952529668808 0.03547683358192444 0.08646491169929504 0.09132823348045349 -0.01056353747844696 0.04815587401390076 -0.10934653878211975 -0.11916662752628326 -0.03962162137031555 0.054409459233284 -0.07430435717105865 -0.026633694767951965 0.033829957246780396 0.10563875734806061 0.11100609600543976 -0.03916798532009125 0.011249542236328125 -0.0881161242723465 -0.08853788673877716 -0.02808000147342682 -0.060699135065078735 0.0046764761209487915 0.05693730711936951 0.0058861225843429565 -0.07530847191810608 0.017039164900779724 0.014757513999938965 -0.11472399532794952 0.06281088292598724 0.05796000361442566 -0.11369375884532928 0.011213719844818115 0.03367629647254944 -0.00910218060016632 0.11192245781421661 0.11450739204883575 0.03973904252052307 -0.021833181381225586 -0.03552292287349701 0.001115456223487854
0.06374149024486542 -0.11789241433143616 0.08071891963481903 0.0998939722776413 -0.11372730135917664 0.08573764562606812 -0.027353346347808838 0.06868122518062592 -0.00021791458129882812 -0.06689497828483582 -0.05959269404411316 0.04019692540168762 -0.12245787680149078 -0.07131130993366241 -0.013943389058113098 0.03366020321846008 -0.12478360533714294 0.05700124800205231 0.10235363245010376 0.023552238941192627 -0.1065010130405426 -0.10384690761566162 0.06784853339195251 -0.05621713399887085 0.008753195405006409 -0.04532051086425781 -0.0510878711938858 -0.02735939621925354 0.016353249549865723 -0.03857789933681488 -0.013949453830718994 0.08064833283424377 0.07084040343761444 0.05824202299118042 0.11772625148296356 0.06994213163852692 0.009134829044342041 0.07647612690925598 -0.1012081652879715 0.06828996539115906 -0.08248904347419739 0.10934276878833771 0.06537802517414093 0.03211849927902222 0.03274132311344147 -0.11937974393367767 0.03778950870037079 0.06489825248718262 0.09814731776714325 0.12084081768989563 0.0504562109708786 0.11571115255355835 -0.0077409446239471436 0.05732065439224243 0.11078733205795288 0.010577976703643799 -0.04674486815929413 -0.10130320489406586 -0.04714037477970123 -0.08510169386863708 0.061121612787246704 0.053511083126068115 0.10136933624744415 -0.11865273118019104
0.06249214708805084 0.039817675948143005 -0.08267611265182495 -0.05994896590709686 -0.11224451661109924 -0.08844806253910065 0.028389036655426025 0.06828579306602478 -0.012592628598213196 -0.03893221914768219 -0.09697003662586212 0.01996484398841858 -0.039941877126693726 0.05050352215766907 0.030146107077598572 0.024117156863212585 0.005402058362960815 0.12216353416442871 0.026843205094337463 -0.01600930094718933 0.061182573437690735 0.06977136433124542 0.11719061434268951 0.023512065410614014 -0.12097416818141937 -0.0387062132358551 -0.0074421316385269165 0.12279999256134033 -0.12138515710830688 -0.07138727605342865 0.044940635561943054 0.03365451097488403 0.09385651350021362 0.05593569576740265 -0.08068819344043732 0.12376539409160614 0.07336889207363129 0.03187590837478638 -0.11084458231925964 0.075349360704422 0.04486285150051117 0.06516040861606598 -0.0014695674180984497 -0.0908614844083786 0.1081334799528122 -0.013193890452384949 -0.08506810665130615 0.007354766130447388 0.09851442277431488 0.07262694835662842 -0.08643591403961182 -0.11473266780376434 0.009866222739219666 0.1014050543308258 0.07957957684993744 0.1153431236743927 -0.1142074316740036 0.10074260830879211 0.07489839196205139 -0.049019113183021545 0.049329474568367004 0.0036197900772094727 -0.1247871071100235 -0.12446747720241547
0.04693847894668579 -0.07096581161022186 -0.0034705698490142822 0.085556760430336 0.07550258934497833 0.09822718799114227 -0.05819922685623169 -0.09520944952964783 -0.11530214548110962 0.05830904841423035 0.07870559394359589 -0.04332423210144043 -0.07424810528755188 -0.11488060653209686 0.09636121988296509 0.06530711054801941 0.013697132468223572 0.060344189405441284 0.10774688422679901 -0.09637075662612915 -0.061169400811195374 -0.017327338457107544 -0.0026739388704299927 0.0949336439371109 0.12448471784591675 0.10250277817249298 0.1121114194393158 -0.0018409639596939087 0.10993875563144684 -0.01925225555896759 -0.03597046434879303 -0.08279526233673096 0.05061030387878418 0.018005430698394775 0.11289402842521667 0.014854863286018372 -0.11379314959049225 -0.06361225247383118 0.10732416808605194 0.11408555507659912 0.051357924938201904 0.006168156862258911 -0.05538684129714966 -0.10839883983135223 0.04990898072719574 -0.03427748382091522 0.05442704260349274 0.02846832573413849 0.0236968994140625 -0.07331657409667969 0.09466975927352905 0.04637745022773743 0.11867289245128632 0.046789705753326416 -0.06636862456798553 0.06504993140697479 0.03153277933597565 0.05563196539878845 0.05314844846725464 0.09971886873245239 -0.05344964563846588 -0.007239341735839844 -0.05163842439651489 -0.07767994701862335
0.05312304198741913 -0.0026177018880844116 -0.07507136464118958 -0.11150418221950531 -0.06080520153045654 0.046960413455963135 0.07421185076236725 -0.04009218513965607 -0.037566542625427246 0.07135753333568573 -0.09724678099155426 0.1142343133687973 -0.020336344838142395 -0.05372034013271332 0.10799355804920197 0.06986798346042633 -0.03427901864051819 -0.03167662024497986 -0.054826200008392334 -0.020974382758140564 0.07838000357151031 -0.012810200452804565 0.08097855746746063 -0.0833122581243515 -0.08143840730190277 -0.11727066338062286 -0.0455411821603775 0.08384472131729126 -0.0456225723028183 0.12159235775470734 -0.08891750872135162 -0.036424532532691956 -0.0025828927755355835 0.05759523808956146 -0.04020759463310242 0.08647581934928894 0.01553007960319519 0.01626497507095337 -0.041653722524642944 -0.10641995072364807 -0.08545249700546265 -0.05017581582069397 -0.07364833354949951 0.05104365944862366 0.01567421853542328 -0.1058373898267746 0.0853327214717865 0.04046550393104553 -0.09735377132892609 -0.10378366708755493 0.06658618152141571 0.053725466132164 -0.12175826728343964 0.06156699359416962 0.008130311965942383 0.0923515111207962 -0.009191736578941345 -0.03850097954273224 -0.029456138610839844 0.02635091543197632 -0.03933693468570709 -0.04833294451236725 0.013403698801994324 0.1188492476940155
0.11399152874946594 -0.06722372770309448 0.05456113815307617 0.04809127748012543 -0.011277198791503906 -0.05781054496765137 -0.1204492598772049 0.07101243734359741 0.08402033150196075 -0.08479377627372742 -0.07849287986755371 -0.11168992519378662 -0.0007803738117218018 -0.029396355152130127 0.04901735484600067 0.008925825357437134 -0.04089990258216858 -0.11862356960773468 -0.02656981348991394 0.11171820759773254 -0.02278764545917511 -0.07382936775684357 -0.12283317744731903 0.038267627358436584 -0.0034779757261276245 -0.0973554253578186 0.10791610181331635 -0.051261335611343384 -0.07155808806419373 0.09550099074840546 -0.014942258596420288 0.07776595652103424 0.04782818257808685 0.09602320194244385 -0.07335083186626434 0.013367235660552979 -0.06536337733268738 -0.0890187919139862 -0.09525494277477264 -0.09745462238788605 -0.08252894878387451 0.02735099196434021 -0.02385324239730835 0.056028813123703 -0.02143712341785431 -0.016388103365898132 0.03323142230510712 0.059785306453704834 0.09218341112136841 0.03223450481891632 -0.06111426651477814 0.10412357747554779 0.09040388464927673 0.038357555866241455 -0.051631003618240356 0.060385555028915405 -0.0930643379688263 -0.12419450283050537 -0.1020774394273758 -0.12398262321949005 -0.08748401701450348 0.0003157705068588257 -0.11682236194610596 0.021254301071166992
-0.00509314239025116 -0.009408250451087952 0.07614801824092865 0.045267075300216675 -0.028416991233825684 -0.10207340121269226 -0.1105535477399826 -0.12083728611469269 -0.0937570184469223 0.06260021030902863 0.07309208810329437 0.03851395845413208 0.09664668142795563 -0.008686572313308716 -0.04984499514102936 0.021358579397201538 -0.03818143904209137 -0.11871536076068878 -0.0730360597372055 0.025188162922859192 0.11397141218185425 0.025647804141044617 -0.002473384141921997 0.08048887550830841 -0.07492658495903015 -0.09692473709583282 -0.05039660632610321 -0.07063339650630951 0.06284254789352417 -0.0601477324962616 0.008573517203330994 -0.07718178629875183 0.12276668846607208 -0.021259307861328125 -0.04755274951457977 0.02850787341594696 0.09816820919513702 0.04803512990474701 0.012547791004180908 0.05230182409286499 0.022322282195091248 0.0721965879201889 -0.07056310772895813 0.12087494134902954 0.067999467253685 0.11445428431034088 -0.05324217677116394 -0.08659237623214722 0.048024654388427734 -0.0535067617893219 -0.011023864150047302 -0.019591674208641052 0.05294233560562134 0.11615945398807526 -0.0006257146596908569 -0.07495421171188354 -0.03109610080718994 -0.0014458894729614258 0.004570513963699341 -0.10351677238941193 0.023280039429664612 0.10074916481971741 -0.0655626654624939 -0.06963510811328888
-0.10758104920387268 -0.03110027313232422 -0.0905977189540863 0.07709881663322449 -0.11718781292438507 0.10259029269218445 -0.10355596244335175 -0.11399459838867188 -0.11611823737621307 -0.11028225719928741 -0.10769324004650116 0.061000287532806396 -0.002351313829421997 0.10501489043235779 0.00806310772895813 0.10297179222106934 -0.04062934219837189 -0.04598522186279297 0.004081428050994873 -0.02357695996761322 -0.021308258175849915 0.04890534281730652 0.1137920469045639 0.11479249596595764 -0.11680640280246735 0.11692889034748077 0.08249838650226593 0.06523722410202026 0.0004898905754089355 0.0695500522851944 0.060659125447273254 0.007198154926300049 0.05069632828235626 -0.023611456155776978 0.12381426990032196 -0.03526216745376587 0.03885926306247711 0.06309093534946442 0.0846291035413742 -0.00982329249382019 -0.038827985525131226 -0.08754724264144897 0.09688600897789001 -0.05005858838558197 0.0066200196743011475 0.10535255074501038 0.09358595311641693 -0.027596905827522278 -0.017439693212509155 -0.0914478749036789 -0.06582121551036835 -0.0692567527294159 -0.08367975056171417 -0.12141004204750061 -0.08518747985363007 0.09883002936840057 -0.016993016004562378 0.04280002415180206 0.05570182204246521 -0.013222187757492065 0.034746989607810974 0.04203948378562927 -0.06498104333877563 0.005752295255661011
-0.055445268750190735 0.04874873161315918 -0.06913086771965027 0.046772703528404236 -0.05889633297920227 -0.07498788833618164 0.05994851887226105 0.09245003759860992 -0.08734060823917389 -0.0567045658826828 -0.10973505675792694 0.01075814664363861 0.0655427873134613 0.032356277108192444 0.09052616357803345 -0.05431440472602844 0.025626465678215027 0.07617633044719696 -0.10331244766712189 0.010237708687782288 -0.10071465373039246 -0.05950133502483368 -0.10147759318351746 0.04233554005622864 -0.060312941670417786 -0.07437044382095337 0.07646463811397552 0.10575279593467712 0.10417935252189636 -0.053203314542770386 -0.11757192015647888 -0.11298985779285431 0.016730502247810364 -0.12332451343536377 -0.09067711234092712 -0.01485489308834076 0.07396316528320312 -0.07435604929924011 -0.07887324690818787 0.046093180775642395 0.07238650321960449 0.0959913581609726 -0.12442763149738312 -0.025782033801078796 -0.0403214693069458 -0.10624724626541138 -0.02736358344554901 -0.11196903884410858 -0.025115594267845154 0.0664214938879013 -0.06476318836212158 0.039216652512550354 -0.06863574683666229 -0.004778653383255005 -0.10022696852684021 0.079709991812706 0.08686208724975586 0.05833946168422699 -0.03103257715702057 0.02184508740901947 -0.09784635901451111 -0.031646549701690674 0.09631483256816864 -0.047104671597480774
-0.019897684454917908 0.08728119730949402 0.0608847439289093 0.08048643171787262 -0.019921138882637024 -0.04287460446357727 -0.1045500785112381 -0.03804634511470795 -0.11301706731319427 0.12089771032333374 0.06858283281326294 -0.06443805992603302 -0.08597637712955475 0.09919534623622894 -0.08971758186817169 0.06059862673282623 0.08144120872020721 0.035284146666526794 0.010781615972518921 -0.0969267189502716 0.044145211577415466 0.04773572087287903 0.005178704857826233 -0.004024922847747803 -0.06543838977813721 0.03017285466194153 -0.0749509334564209 0.02482147514820099 -0.11309699714183807 0.014726251363754272 -0.12243586778640747 -0.08113320171833038 0.08729298412799835 -0.022732660174369812 -0.00023598968982696533 -0.08907216787338257 0.013987556099891663 -0.07929171621799469 -0.03249944746494293 -0.022467762231826782 -0.11787945032119751 -0.045142337679862976 -0.08703240752220154 -0.06248745322227478 -0.06460325419902802 -0.0776025652885437 0.10439366102218628 0.04613316059112549 -0.031712114810943604 -0.11062200367450714 0.02977822721004486 -0.08802391588687897 -0.1004384458065033 -0.124396413564682 0.07727080583572388 0.10724106431007385 0.019113928079605103 0.014568224549293518 0.0313861221075058 0.10681842267513275 0.0015142112970352173 0.07164312899112701 0.06383757293224335 0.07467915117740631
-0.033262014389038086 -0.10453522205352783 0.06433041393756866 0.004721224308013916 0.04444517195224762 -0.02848808467388153 -0.08122450113296509 0.08144642412662506 -0.11037957668304443 0.10190150141716003 0.11229389905929565 -0.08776260912418365 -0.03433611989021301 -0.025387614965438843 -0.10385702550411224 0.023768141865730286 0.04740011692047119 0.057384952902793884 0.10016512870788574 0.042863160371780396 0.10228231549263 0.01368384063243866 -0.024613305926322937 -0.0660577118396759 0.03736734390258789 -0.10334528982639313 -0.04865621030330658 0.0016317814588546753 -0.06392937898635864 0.0722547322511673 -0.1217978298664093 0.06312038004398346 0.07664823532104492 0.010659173130989075 -0.07257717847824097 0.010258302092552185 -0.09793558716773987 0.09747321903705597 -0.006030485033988953 -0.10635963082313538 0.032104700803756714 -0.05748260021209717 -0.013577952980995178 0.06571637094020844 -0.050551071763038635 0.09047502279281616 -0.014472931623458862 -0.061712846159935 0.020929843187332153 0.03367327153682709 0.06252114474773407 0.11706309020519257 -0.09860268235206604 -0.0657045841217041 0.09372580051422119 -0.08073598146438599 0.06133715808391571 0.025151327252388 -0.09268052875995636 0.0629640519618988 -0.08630344271659851 0.04659193754196167 -0.036896735429763794 -0.038019925355911255
-0.0013553351163864136 0.006971538066864014 -0.09876342117786407 0.09288069605827332 -0.027127504348754883 -0.012985914945602417 -0.047045424580574036 -0.06253287196159363 -0.04411390423774719 -0.03948861360549927 -0.08727455139160156 -0.06929105520248413 -0.0025945156812667847 0.09207010269165039 -0.04829612374305725 -0.026432663202285767 0.11903652548789978 0.05195543169975281 -0.08766654133796692 -0.04292896389961243 -0.016857638955116272 0.03736686706542969 0.05364987254142761 -0.1102900356054306 -0.08118225634098053 -0.0476238876581192 0.025294408202171326 -0.06835897266864777 0.049517661333084106 -0.1227027028799057 0.058023691177368164 -0.06658768653869629 0.08024202287197113 -0.09380616247653961 0.07483667135238647 0.08163394033908844 -0.11248239874839783 0.07649502158164978 -0.078023761510849 0.08222493529319763 0.11724777519702911 -0.11721150577068329 0.0750177651643753 0.09317484498023987 0.022945284843444824 -0.010731443762779236 -0.0403880774974823 -0.0353100448846817 0.08039550483226776 -0.12352459132671356 -0.03871637582778931 -0.06470978260040283 0.019673332571983337 -0.0696321576833725 0.019917190074920654 0.09528705477714539 -0.03421540558338165 -0.11989893019199371 0.062127724289894104 0.030441194772720337 -0.0652463436126709 0.03980045020580292 -0.09816674888134003 0.0986657440662384
0.09988400340080261 -0.08706933259963989 0.007393553853034973 -0.07426820695400238 -0.0025613754987716675 0.013988345861434937 -0.035714760422706604 0.10351867973804474 0.019616514444351196 0.05947570502758026 -0.0947781503200531 0.11240853369235992 0.0836760550737381 0.08547446131706238 0.013997197151184082 0.033150896430015564 0.03731067478656769 0.10294441878795624 -0.027856051921844482 -0.085166335105896 0.0029408931732177734 0.055539026856422424 0.07753540575504303 0.09799021482467651 0.05815689265727997 -0.06928402185440063 -0.062031090259552 -0.0745229423046112 -0.0981474220752716 0.004289969801902771 0.028897225856781006 0.039654746651649475 -0.02259296178817749 -0.03820246458053589 0.04324568808078766 -0.09554345905780792 0.09902657568454742 -0.10659736394882202 0.11363695561885834 -0.12185987830162048 0.07841949164867401 0.12163455784320831 0.11220391094684601 0.1007951945066452 0.06018972396850586 -0.12416251003742218 0.04915708303451538 0.12480492889881134 0.09582826495170593 0.03920179605484009 -0.00888584554195404 -0.038245946168899536 -0.12302197515964508 0.0112314373254776 -0.0852770060300827 0.12032800912857056 -0.06138172745704651 -0.11563503742218018 -0.05175146460533142 0.1118803471326828 -0.03434924781322479 -0.03218953311443329 0.04800534248352051 -0.011501595377922058
-0.046796321868896484 0.11170192062854767 0.07409438490867615 0.014363989233970642 0.11077249050140381 -0.04083772003650665 0.09171311557292938 -0.10699501633644104 0.0585184246301651 -0.013629913330078125 0.10512605309486389 0.07263453304767609 -0.014082416892051697 0.0025509297847747803 0.03473632037639618 -0.0010406672954559326 -0.03542855381965637 -0.05934847891330719 0.036722972989082336 0.074882373213768 -0.10544723272323608 0.09847493469715118 -0.04564081132411957 0.10610529780387878 -0.09178993105888367 -0.0036618858575820923 -0.023239105939865112 0.019940465688705444 0.08881200850009918 -0.014286160469055176 -0.00942961871623993 -0.0751723200082779 0.0934867113828659 -0.09396816790103912 0.021300718188285828 0.05858728289604187 0.03160789608955383 -0.10593068599700928 0.021256938576698303 0.07616646587848663 -0.07729987800121307 0.11474934220314026 0.003216788172721863 -0.10012872517108917 0.020443066954612732 0.062188521027565 0.11473381519317627 0.08484165370464325 0.03949873149394989 -0.05430962145328522 -0.04635593295097351 0.04293696582317352 -0.028744027018547058 -0.04995653033256531 0.11318360269069672 -0.10800762474536896 0.10070681571960449 0.09520156681537628 -0.09223835170269012 -0.08969645202159882 0.07378512620925903 0.10170571506023407 -0.062091484665870667 0.010364308953285217
-0.011010214686393738 0.016047373414039612 0.06208054721355438 0.028756171464920044 0.10468892753124237 -0.11339515447616577 0.06860589981079102 -0.01776060461997986 0.04522775113582611 -0.07530106604099274 0.0915195494890213 0.020287632942199707 0.07937157154083252 -0.1081652045249939 0.07777078449726105 0.03086841106414795 -0.12480100989341736 0.05004049837589264 -0.09277254343032837 0.07770267128944397 -0.031545743346214294 -0.07225549221038818 -0.08207064867019653 0.09227800369262695 0.06071870028972626 -0.008819103240966797 0.03307183086872101 0.055671244859695435 0.00151786208152771 -0.0809471607208252 0.061355724930763245 0.055578991770744324 0.014395490288734436 -0.058299243450164795 0.11010392010211945 0.09528203308582306 0.07967512309551239 -0.10223841667175293 0.11106856167316437 0.10323446989059448 0.06272085011005402 -0.016839534044265747 -0.09250019490718842 0.010527074337005615 -0.007367610931396484 0.12319323420524597 0.09149380028247833 0.06665736436843872 0.025688722729682922 -0.1132206916809082 0.09578672051429749 0.08118335902690887 0.054156988859176636 -0.033446550369262695 -0.003251403570175171 0.04851251840591431 -0.11262169480323792 0.10645969212055206 0.11298243701457977 0.007320836186408997 -0.03399956226348877 -0.10161878168582916 0.0833180695772171 0.0900743156671524
-0.029955804347991943 0.1103270947933197 -0.11703953146934509 -0.051138997077941895 0.0676954835653305 -0.03225955367088318 0.021066740155220032 0.0655631572008133 -0.11910901963710785 0.11484825611114502 0.0737021267414093 0.0014825016260147095 -0.09268997609615326 0.0447830855846405 -0.04036353528499603 0.01887798309326172 -0.07243490219116211 0.10263395309448242 0.09007139503955841 0.1096377968788147 0.11905094981193542 -0.08134143054485321 -0.08294305205345154 0.09733013808727264 -0.0595414936542511 -0.09900186955928802 0.018685966730117798 0.0938800722360611 0.10573224723339081 -0.0848512053489685 -0.10182760655879974 0.060330986976623535 0.07114928960800171 0.07848070561885834 0.014514967799186707 -0.08038060367107391 -0.06234653294086456 0.059315621852874756 -0.05953846871852875 0.008164569735527039 0.03481864929199219 -0.12336012721061707 0.026752009987831116 -0.0022419989109039307 0.06231975555419922 0.0690782219171524 -0.08932724595069885 0.046262189745903015 0.020515888929367065 0.06858237087726593 -0.01373647153377533 0.026850491762161255 0.022981509566307068 -0.1043260395526886 0.07493942975997925 0.08834540843963623 -0.00028011202812194824 -0.11010821163654327 0.0027903765439987183 -0.04940272867679596 0.08092223107814789 -0.04984772205352783 -0.07367141544818878 0.04755754768848419
0.07694698870182037 0.032968878746032715 0.058889880776405334 0.03773544728755951 -0.06910987198352814 -0.06504744291305542 -0.04236871004104614 -0.08438698947429657 -0.09373040497303009 -0.11584754288196564 -0.11335280537605286 -0.11628839373588562 0.056345656514167786 -0.09961746633052826 0.026926189661026 -0.08096031844615936 -0.053184688091278076 -0.04390886425971985 -0.09392485022544861 -0.10476309061050415 -0.07930904626846313 0.0937340259552002 -0.07405070960521698 0.056017518043518066 -0.02542649209499359 0.10814327001571655 0.11789001524448395 -0.028276264667510986 0.08935587108135223 -0.006272822618484497 0.09010705351829529 0.053967252373695374 -0.029937371611595154 0.0564284473657608 0.05497810244560242 0.00447237491607666 0.011722981929779053 0.008502185344696045 0.03229653835296631 0.06545907258987427 -0.08375288546085358 -0.03933131694793701 -0.03149726986885071 -0.020811766386032104 -0.06229978799819946 -0.12266522645950317 -0.03569413721561432 0.045712441205978394 -0.09819428622722626 0.09754888713359833 -0.08838827908039093 -0.0649300366640091 -0.12225298583507538 0.022821620106697083 -0.06350846588611603 0.11898267269134521 0.09701406955718994 -0.054297298192977905 -0.002242043614387512 0.022258266806602478 -0.08714045584201813 -0.1019182801246643 -0.07551798224449158 -0.09673376381397247
0.11284725368022919 -0.1240462213754654 -0.12439490854740143 -0.049832239747047424 0.044244810938835144 -0.10507442057132721 -0.10563412308692932 -0.11664290726184845 -0.0176602303981781 -0.0078069716691970825 -0.11883997917175293 -0.0016829818487167358 0.06245245039463043 0.05854184925556183 -0.0235612690448761 0.10465025901794434 0.0890803188085556 0.059964895248413086 -0.07919512689113617 0.11492973566055298 -0.06658712029457092 0.07174500823020935 -0.056441083550453186 0.09606626629829407 0.11235597729682922 -0.04216790199279785 -0.041567519307136536 -0.0024463385343551636 0.04196999967098236 0.11339503526687622 -0.01134924590587616 0.07718163728713989 -0.037574946880340576 -0.07842141389846802 -0.08058694005012512 -0.06245969235897064 0.07675845921039581 0.12359070777893066 -0.09395970404148102 0.0803833156824112 -0.10658890008926392 0.039590343832969666 -0.09547138214111328 -0.08687813580036163 0.0996440052986145 -0.11225390434265137 0.025902822613716125 0.044371530413627625 -0.022057101130485535 -0.05501115322113037 0.1106434017419815 -0.05603688955307007 0.05311845242977142 -0.06815305352210999 0.06616279482841492 0.009878009557723999 0.0465315580368042 0.10827533900737762 0.05752609670162201 -0.0834144800901413 -0.09791174530982971 0.0016620755195617676 -0.10162857174873352 -0.02974170446395874
0.08778536319732666 0.10296234488487244 -0.10127253830432892 0.05815359950065613 -0.04388722777366638 0.07022848725318909 0.05643400549888611 0.03199777007102966 -0.09662814438343048 0.016015559434890747 -0.08905230462551117 -0.0819445252418518 -0.04464124143123627 -0.01674152910709381 -0.07924215495586395 -0.06326800584793091 -0.0025428086519241333 0.01737341284751892 -0.049978241324424744 -0.09966522455215454 -0.006575778126716614 0.08783787488937378 -0.03893323242664337 0.02346712350845337 -0.03529056906700134 0.03249956667423248 -0.08983899652957916 0.05596381425857544 -0.018633589148521423 -0.06164830923080444 0.07130753993988037 -0.02969077229499817 0.01697516441345215 -0.08473217487335205 0.11485366523265839 -0.10717129707336426 0.09268182516098022 0.017337828874588013 0.11418907344341278 0.06630593538284302 -0.0731540322303772 0.0690474808216095 0.07596257328987122 0.03839537501335144 -0.11528463661670685 0.07274346053600311 -0.08392752707004547 -0.026473447680473328 0.12194214761257172 -0.06554858386516571 0.0966140478849411 -0.0842074453830719 0.03638717532157898 0.0612858384847641 0.050441011786460876 0.04652419686317444 0.053235217928886414 -0.02036726474761963 -0.013735398650169373 0.03317864239215851 0.04811638593673706 0.07897135615348816 0.10116693377494812 0.07925185561180115
-0.11700113117694855 -0.05205480754375458 0.03366890549659729 -0.09469439089298248 0.07368656992912292 0.08631345629692078 -0.01716434955596924 0.03572487831115723 0.10429875552654266 0.11479368805885315 0.006612733006477356 0.10628587007522583 0.11201412975788116 -0.08701251447200775 -0.011595293879508972 -0.10616979002952576 0.015176951885223389 0.04853707551956177 0.011556103825569153 -0.0804370641708374 0.11491164565086365 0.089082270860672 -0.12331755459308624 0.05951109528541565 0.028964459896087646 0.056600213050842285 0.0061750710010528564 0.03439927101135254 0.008892863988876343 -0.09635642170906067 -0.012782558798789978 -0.10866554081439972 0.11159399151802063 -0.0018104910850524902 0.11391767859458923 -0.01881304383277893 0.09611791372299194 0.010479435324668884 0.10716420412063599 0.05664093792438507 0.013870075345039368 -0.007564827799797058 -0.015838757157325745 -0.03247135877609253 -0.08810053765773773 -0.12441688776016235 0.018995702266693115 0.07464103400707245 0.026593536138534546 -0.0021904706954956055 -0.009668692946434021 -0.05737343430519104 0.09427936375141144 0.08260159194469452 0.09547200798988342 0.11891263723373413 -0.06980712711811066 0.06362998485565186 0.06696124374866486 0.07993459701538086 0.03732559084892273 0.08106471598148346 0.09296521544456482 0.053767845034599304
-0.10241097211837769 -0.06949493288993835 -0.006501808762550354 -0.06329044699668884 0.06737467646598816 0.050835177302360535 0.02827271819114685 0.11221334338188171 0.06629537045955658 -0.019723862409591675 -0.006159618496894836 0.06940825283527374 0.0841398686170578 0.0522332638502121 -0.06364895403385162 0.06698937714099884 0.05253516137599945 -0.007889389991760254 0.09650729596614838 -0.11234688758850098 0.005076348781585693 -0.02333766222000122 0.09338407218456268 0.00427970290184021 0.019508838653564453 -0.007797330617904663 0.10089761018753052 0.10309173166751862 -0.05092230439186096 0.0021374672651290894 -0.11386172473430634 0.038473665714263916 0.04501509666442871 0.026367485523223877 0.02368207275867462 0.11543813347816467 0.12114831805229187 0.0020644664764404297 -0.09078551828861237 0.07363688945770264 -0.1042250543832779 0.10078361630439758 0.00544564425945282 -0.06793209910392761 0.1083570271730423 0.018758311867713928 0.12040551006793976 -0.057467296719551086 0.06726033985614777 0.12067048251628876 0.008890941739082336 0.06556530296802521 0.08333177864551544 -0.09679752588272095 0.10815568268299103 0.10619470477104187 0.07357172667980194 0.07123281061649323 0.06121826171875 -0.1148790717124939 -0.05013136565685272 -0.03262552618980408 0.05051290988922119 0.0739997923374176
-0.05612121522426605 0.009947672486305237 0.01087796688079834 0.11688800156116486 -0.020175933837890625 -0.1195785403251648 0.015451237559318542 -0.04306221008300781 0.08429008722305298 -0.01873871684074402 0.07573135197162628 0.041817739605903625 0.03862428665161133 0.029983505606651306 -0.044574737548828125 -0.03197820484638214 0.04593922197818756 0.023474857211112976 0.0880054384469986 -0.057281941175460815 0.03305177390575409 0.05234900116920471 -0.031981199979782104 0.056304872035980225 -0.09076781570911407 0.06579643487930298 0.09836594760417938 0.09699685871601105 -0.03203938901424408 -0.05170629918575287 -0.08274994790554047 -0.09731273353099823 0.02920234203338623 -0.04336866736412048 0.04930560290813446 0.0858817994594574 -0.08808077871799469 0.07608883082866669 0.029333055019378662 0.11766877770423889 -0.09572365880012512 -0.09306725859642029 0.10719659924507141 0.08298155665397644 -0.008219748735427856 0.11620213091373444 -0.08857592940330505 0.08028057217597961 -0.040174439549446106 0.10540764033794403 0.01603001356124878 0.00037986040115356445 -0.045254528522491455 0.11415109038352966 -0.12109754979610443 -0.027095630764961243 0.02098214626312256 -0.03916706144809723 0.09896111488342285 -0.09456409513950348 -0.11664798855781555 -0.08475051820278168 -0.11437733471393585 0.03437323868274689
0.002045273780822754 0.0878845751285553 -0.11156576871871948 0.0903879851102829 0.0313422828912735 0.11945892870426178 0.11024610698223114 -0.0740702748298645 -0.004617437720298767 0.08434158563613892 -0.0750734955072403 0.03571850061416626 -0.04507642984390259 -0.04423616826534271 -0.06724673509597778 -0.015057772397994995 0.019733980298042297 0.03913494944572449 0.09048707783222198 0.02736853063106537 0.013307228684425354 0.10677766799926758 0.07025720179080963 0.01748575270175934 -0.08713322877883911 -0.046261265873909 -0.12123499810695648 0.0403086394071579 -0.10478051006793976 0.04016038775444031 0.05644957721233368 0.052222102880477905 0.08605340123176575 -0.02756713330745697 0.11857843399047852 -0.03076598048210144 -0.05558218061923981 0.06785708665847778 -0.09488222002983093 -0.12172940373420715 -0.06967480480670929 -0.05686357617378235 0.03972548246383667 0.04937863349914551 -0.06285500526428223 0.12198048830032349 -0.04622168838977814 0.1193433403968811 0.07258610427379608 0.020495638251304626 -0.010465070605278015 0.11894717812538147 0.10129013657569885 0.09419192373752594 -0.043837323784828186 -0.05919557809829712 0.1177346259355545 0.12304337322711945 -0.11208540201187134 0.04122041165828705 -0.09580597281455994 0.04475225508213043 0.006993040442466736 -0.09249995648860931
0.08974677324295044 -0.10079818964004517 0.10122019052505493 -0.00018489360809326172 0.00525820255279541 -0.0011121779680252075 -0.11316768825054169 -0.10060015320777893 0.053770795464515686 0.10733497142791748 -0.11695230007171631 0.013790279626846313 0.07649986445903778 0.09514226019382477 -0.0964503139257431 0.07680720090866089 0.024268969893455505 -0.11393910646438599 0.005891203880310059 -0.06971916556358337 -0.01285475492477417 0.04142172634601593 0.06745380163192749 -0.03639824688434601 -0.05971008539199829 0.12485821545124054 0.09159258008003235 0.036532461643218994 -0.017357811331748962 0.009211838245391846 -0.053179726004600525 -0.029570847749710083 -0.01575838029384613 0.019850119948387146 0.10845166444778442 -0.0847005695104599 0.02443365752696991 -0.03256674110889435 0.08501818776130676 -0.06747704744338989 -0.012044250965118408 0.03377065062522888 -0.031454816460609436 -0.008466944098472595 -0.07641297578811646 0.005362480878829956 -0.048414260149002075 0.11348287761211395 0.08385032415390015 0.07065248489379883 0.03781649470329285 -0.0491141676902771 -0.07667836546897888 -0.07048818469047546 0.011519432067871094 -0.014617875218391418 -0.10630621016025543 -0.060021400451660156 -0.02604377269744873 -0.014101281762123108 0.0850297212600708 0.10901303589344025 -0.04577207565307617 0.0036935955286026
-0.04543328285217285 -0.07700097560882568 0.10256484150886536 0.09621697664260864 -0.09831371903419495 -0.010866329073905945 -0.04285512864589691 -0.07052601873874664 -0.07424671947956085 -0.024826765060424805 0.03574950993061066 0.04032805562019348 0.00783248245716095 -0.09993650019168854 0.07170510292053223 0.12476456165313721 0.031210318207740784 -0.08730794489383698 -0.10042800009250641 0.1198013424873352 -0.04610678553581238 -0.012025609612464905 -0.0009248256683349609 0.017595618963241577 0.04436914622783661 -0.0034816712141036987 0.11240433156490326 -0.10715517401695251 -0.06805652379989624 0.012051835656166077 0.12182000279426575 -0.019267603754997253 -0.07724952697753906 0.004730880260467529 -0.042371466755867004 -0.00685766339302063 0.09573687613010406 -0.1246957778930664 -0.07324086129665375 0.11116357147693634 -0.1187332421541214 0.0029710978269577026 0.05409584939479828 -0.07392975687980652 0.059522658586502075 0.03185664117336273 0.015205129981040955 0.00041018426418304443 -0.07503020763397217 0.09779514372348785 -0.10855774581432343 0.02997729182243347 0.04844829440116882 0.04784040153026581 -0.0994325578212738 -0.08307139575481415 0.10903261601924896 -0.0853881984949112 -0.040075093507766724 0.04063589870929718 0.045974910259246826 0.07330219447612762 0.050748392939567566 0.1126304417848587
0.07414692640304565 0.04832199215888977 0.10121282935142517 0.08124653995037079 -0.07323281466960907 -0.06432782113552094 -0.0023347139358520508 0.07365922629833221 0.04500402510166168 -0.07670460641384125 0.06233599781990051 -0.04069255292415619 -0.036458343267440796 -0.01062360405921936 0.07703045010566711 0.0809621810913086 0.0925435721874237 0.0879410058259964 0.058914169669151306 -0.09684842824935913 0.07392969727516174 -0.06594452261924744 0.08164544403553009 0.01802504062652588 -0.12310691177845001 -0.10072354972362518 -0.016718313097953796 -0.0738385021686554 -0.06912080943584442 0.04252190887928009 0.08275170624256134 -0.08741104602813721 0.12022016942501068 -0.11070053279399872 0.11285118758678436 0.022968828678131104 -0.11613757908344269 -0.10276369750499725 0.11629365384578705 0.037926048040390015 -0.054765790700912476 0.0934872180223465 -0.08759154379367828 -0.05858983099460602 -0.10932683944702148 0.12308989465236664 -0.022375136613845825 0.07484188675880432 -0.11313512921333313 0.04072484374046326 0.1141282320022583 0.01405113935470581 0.07313625514507294 0.09288549423217773 -0.00017893314361572266 0.10180586576461792 0.10533906519412994 -0.05757428705692291 -0.10556481778621674 -0.08599036931991577 0.03394944965839386 -0.04161033034324646 0.08322438597679138 -0.055948659777641296
0.09483850002288818 0.04601705074310303 0.03785954415798187 -0.0937429815530777 -0.01506592333316803 -0.038062453269958496 0.10726788640022278 0.07811625301837921 0.11065927147865295 -0.08033673465251923 -0.0859152227640152 -0.05112874507904053 0.08131234347820282 -0.018254578113555908 -0.029318764805793762 0.032054394483566284 -0.04027295112609863 -0.09700846672058105 0.002317875623703003 -0.04353484511375427 -0.08178950846195221 -0.0919874906539917 0.05157306790351868 0.08979092538356781 -0.0011370182037353516 0.0712021142244339 -0.011984393000602722 -0.03532858192920685 0.08566178381443024 -0.11011980473995209 -0.002198323607444763 -0.03303427994251251 0.019281357526779175 0.10387557744979858 0.01822100579738617 -0.02298213541507721 -0.059374839067459106 -0.06072910130023956 0.10710415244102478 -0.04973132908344269 0.09682728350162506 0.007991835474967957 0.007953494787216187 -0.013072043657302856 -0.03875814378261566 -0.05234368145465851 -0.11031961441040039 0.10281741619110107 0.0022578537464141846 0.07606439292430878 -0.031525105237960815 0.10551640391349792 -0.06185302138328552 -0.0003386884927749634 -0.09236519038677216 -0.01927943527698517 -0.06512442231178284 -0.054208412766456604 -0.06358925998210907 0.11898148059844971 0.08390884101390839 0.03567478060722351 -0.09311676025390625 -0.09769809246063232
0.024078354239463806 -0.10877874493598938 0.04957340657711029 -0.056216493248939514 0.11159034073352814 -0.10294705629348755 -0.08829095959663391 0.011780858039855957 0.1192941814661026 0.020288243889808655 -0.01410624384880066 -0.11177800595760345 0.10846340656280518 0.08614836633205414 0.06414078176021576 0.10439780354499817 0.12139621376991272 -0.039240092039108276 -0.050362274050712585 -0.054429396986961365 -0.05617302656173706 -0.11233095824718475 0.059065982699394226 0.025376632809638977 0.06351083517074585 -0.025630593299865723 -0.11998501420021057 -0.03254707157611847 0.031480565667152405 -0.05478107929229736 0.045627012848854065 0.04159432649612427 0.08563622832298279 -0.0688960999250412 -0.09598428010940552 0.0780029147863388 -0.10948130488395691 0.07579857110977173 0.016334086656570435 -0.12444721162319183 -0.09568634629249573 0.04594205319881439 -0.01963604986667633 0.043040454387664795 0.029986098408699036 0.10406127572059631 0.06152142584323883 0.050828754901885986 0.08756685256958008 -0.04331688582897186 0.006024092435836792 0.08076220750808716 0.022592395544052124 -0.019258752465248108 0.12142769992351532 0.06514473259449005 0.06771767139434814 -0.04566998779773712 0.08893822133541107 -0.11201594769954681 0.12130270898342133 -0.06745024025440216 -0.0176352858543396 0.03298032283782959
0.055404260754585266 0.05581693351268768 0.03785184025764465 -0.07115806639194489 -0.07631771266460419 -0.06014721095561981 0.08892008662223816 0.09894655644893646 0.07329331338405609 0.11714832484722137 -0.018980294466018677 0.09353090822696686 0.050471603870391846 0.024977102875709534 -0.06231825053691864 -0.05576469004154205 0.10720545053482056 -0.11363983154296875 -0.07438242435455322 -0.08400198817253113 0.09159642457962036 0.02530616521835327 0.0972844660282135 -0.0987042635679245 -0.12459184229373932 0.06774300336837769 0.011905297636985779 0.07567737996578217 0.09023122489452362 -0.0009594708681106567 0.010981708765029907 -0.061938971281051636 -0.07325410842895508 0.02039603888988495 0.09263384342193604 0.09394986927509308 -0.023041129112243652 -0.058236852288246155 -0.08254796266555786 0.05965763330459595 -0.0530804842710495 -0.019326716661453247 -0.09852337837219238 0.0636858195066452 -0.09080827236175537 0.010890305042266846 0.0989646464586258 0.08336132764816284 0.055192336440086365 0.11890944838523865 -0.06166468560695648 0.06039632856845856 0.03171335160732269 -0.006369605660438538 0.10692377388477325 -0.11813414096832275 -0.06267867982387543 0.0021578967571258545 -0.09108719229698181 -0.012900188565254211 0.06214272975921631 -0.040469005703926086 0.07761821150779724 -0.0835418850183487
-0.018512725830078125 -0.0015925168991088867 0.11020034551620483 0.0883520096540451 -0.05881612002849579 -0.0873471200466156 -0.05363583564758301 -0.10342538356781006 0.0011595934629440308 -0.05063271522521973 -0.004494711756706238 0.019143283367156982 -0.018314167857170105 0.049119412899017334 -0.09692467749118805 -0.07837723195552826 0.008307188749313354 -0.0283115953207016 0.08824574947357178 -0.004118561744689941 -0.05642494559288025 -0.0534358024597168 0.04191185534000397 0.06299665570259094 0.020591899752616882 0.10800223052501678 -0.09086146950721741 0.10442280769348145 0.1149032711982727 0.10318604111671448 0.08946983516216278 0.07915259897708893 -0.09823496639728546 0.11409755051136017 0.04365415871143341 0.02153770625591278 -0.08378121256828308 0.007340177893638611 0.05017368495464325 0.12109516561031342 -0.07441630959510803 0.030117392539978027 -0.06291326880455017 0.09269110858440399 0.07921981811523438 -0.02950434386730194 0.09675838053226471 0.06916865706443787 0.10526338219642639 -0.061967283487319946 0.029495522379875183 -0.054200515151023865 -0.10962744057178497 -0.060974255204200745 0.082093745470047 0.03973986208438873 0.005476057529449463 -0.10658419132232666 -0.09689097106456757 -0.055320560932159424 0.08463042974472046 -0.024745583534240723 0.014657393097877502 0.11433511972427368
0.007813140749931335 0.10348568856716156 -0.11308982968330383 0.09563358128070831 -0.08265174925327301 0.0741216242313385 0.07677501440048218 0.037296950817108154 -0.05021938681602478 -0.0884675681591034 -0.008102059364318848 0.1109919399023056 -0.08073301613330841 -0.0184200257062912 0.041241854429244995 -0.05777391791343689 0.1109890341758728 0.04159112274646759 -0.022901147603988647 -0.02300548553466797 -0.08654963970184326 0.017014890909194946 -0.05647146701812744 0.039215102791786194 -0.042502760887145996 0.011659055948257446 -0.02313464879989624 -0.09286583960056305 -0.09309841692447662 0.056012168526649475 0.020956963300704956 0.03809994459152222 -0.04064452648162842 0.0500480979681015 0.10882537066936493 0.11120748519897461 -0.05224578082561493 -0.12027738988399506 0.033965662121772766 0.006258979439735413 0.055927619338035583 0.05820080637931824 0.06793880462646484 -0.10858981311321259 0.018858060240745544 -0.06693050265312195 0.06998583674430847 -0.029276028275489807 -0.026574909687042236 0.10128691792488098 0.009174734354019165 -0.11479254066944122 0.12460343539714813 -0.0836213082075119 -0.032232195138931274 -0.11053360998630524 -0.10299219191074371 -0.06491255760192871 -0.07600925862789154 -0.09305286407470703 -0.10611963272094727 0.00911925733089447 0.07585310935974121 -0.10543262958526611
0.06199730932712555 -0.06531710922718048 0.10518151521682739 0.1028631329536438 -0.06706024706363678 -0.11602194607257843 0.07900416851043701 -0.0018997937440872192 0.03790660202503204 0.04211658239364624 -0.003723740577697754 -0.016351938247680664 -0.05911463499069214 -0.11514201760292053 -0.013418704271316528 0.024367481470108032 0.029767632484436035 0.022068262100219727 0.058259934186935425 0.04914160072803497 -0.07285451889038086 0.030428484082221985 0.029628336429595947 -0.10897514224052429 0.023498699069023132 -0.07119911909103394 0.08326226472854614 0.01422850787639618 0.004848375916481018 -0.09340856969356537 0.04605022072792053 0.00766126811504364 -0.061679303646087646 -0.09371575713157654 -0.047942742705345154 0.017282158136367798 0.00851885974407196 0.024145662784576416 0.08126746118068695 -0.03557384014129639 -0.0980503261089325 -0.0979829728603363 0.1083415299654007 0.06442251801490784 -0.12181486189365387 0.09227560460567474 0.01220807433128357 0.1007196307182312 0.10713677108287811 0.040770113468170166 0.015420958399772644 -0.0639754980802536 -0.08355465531349182 -0.08344106376171112 -0.07377630472183228 0.02667143940925598 0.06734614074230194 -0.06489984691143036 0.06416209042072296 0.03185085952281952 0.07500381767749786 -0.037160828709602356 -0.07660678029060364 -0.06851144134998322
-0.0799216479063034 0.011077925562858582 -0.12214592099189758 -0.09921339154243469 0.027752816677093506 -0.1138114184141159 0.03523509204387665 -0.008002698421478271 0.06116585433483124 0.042245760560035706 0.1155228465795517 0.024145692586898804 -0.08190600574016571 0.11824946105480194 -0.033447012305259705 -0.015959858894348145 -0.06495803594589233 0.06901636719703674 0.05764308571815491 -0.046864062547683716 0.052557677030563354 -0.02284608781337738 -0.022137358784675598 -0.09318143129348755 0.012588217854499817 -0.057059332728385925 -0.053528472781181335 0.09294292330741882 0.019841402769088745 -0.02927076816558838 -0.04280176758766174 0.11816537380218506 -0.01449921727180481 -0.0276787132024765 0.06869111955165863 -0.01235438883304596 -0.09221544861793518 -0.09087496995925903 -0.0024971216917037964 0.06605476140975952 0.05433276295661926 0.012820109724998474 -0.04920594394207001 -0.12164467573165894 0.07546627521514893 0.07411321997642517 0.05378951132297516 0.10063587129116058 0.07257531583309174 0.08806431293487549 -0.0441475510597229 -0.05421409010887146 0.11995387077331543 0.02870050072669983 -0.03682766854763031 -0.063031867146492 -0.0602777898311615 0.10811598598957062 0.029283776879310608 -0.010142356157302856 -0.08198995888233185 0.09322062134742737 -0.007120445370674133 -0.06999722123146057
0.060045838356018066 -0.07345300912857056 -0.05902937054634094 0.023664459586143494 0.0715516209602356 -0.007311716675758362 0.006053462624549866 -0.08810070157051086 -0.08033047616481781 -0.03566202521324158 -0.11479048430919647 0.11812175810337067 0.014657601714134216 -0.016338959336280823 0.008843019604682922 -0.1086188405752182 0.09598799049854279 -0.029165998101234436 0.015841811895370483 -0.08428166806697845 -0.02819816768169403 -0.11792077124118805 0.002707764506340027 -0.11138054728507996 -0.006328850984573364 0.07837113738059998 0.008277162909507751 -0.11462381482124329 -0.12250909209251404 0.03832024335861206 -0.04521532356739044 -0.07967296242713928 -0.04234938323497772 -0.11255104839801788 -0.0871930867433548 -0.0570501834154129 -0.09646265208721161 0.0035046935081481934 0.05282066762447357 0.08128441870212555 -0.008980557322502136 0.09953056275844574 0.11668741703033447 0.04678542912006378 -0.08935987949371338 -0.021045610308647156 -0.09361417591571808 -0.08909173309803009 -0.0479513555765152 0.12410089373588562 -0.1028362512588501 0.09794391691684723 -0.10876502096652985 0.08628298342227936 0.0292980819940567 0.09158094227313995 -0.06452089548110962 0.007188290357589722 0.11082282662391663 0.07763244211673737 0.04788410663604736 0.11052075028419495 0.05667439103126526 -0.08545896410942078
0.08881489932537079 0.011423245072364807 0.009934455156326294 0.04579836130142212 -0.04541553556919098 0.037241801619529724 0.08119189739227295 0.05668474733829498 -0.05953478813171387 -0.10258030891418457 0.09808561205863953 -0.0034815818071365356 -0.06615377962589264 0.02657151222229004 0.09411577880382538 0.04670582711696625 -0.002224266529083252 -0.08469988405704498 0.07777400314807892 -0.11924928426742554 0.06827893853187561 -0.12191636860370636 -0.04766519367694855 0.048171818256378174 0.017732009291648865 0.0711514800786972 -0.015574127435684204 0.07960200309753418 -0.08923910558223724 0.06391075253486633 -0.10006193816661835 0.05660879611968994 0.12251749634742737 0.07467754185199738 0.0991133451461792 -0.0723939836025238 0.04717300832271576 0.07428207993507385 -0.09843768179416656 0.08351311087608337 0.03361313045024872 0.009858757257461548 -0.015898466110229492 -0.10913558304309845 0.10637916624546051 -0.0359048992395401 0.051767393946647644 0.08776040375232697 -0.09921878576278687 -0.015088900923728943 0.011551737785339355 -0.12405462563037872 -0.020410820841789246 0.11356779932975769 0.09946691989898682 0.015782713890075684 0.04625096917152405 0.11621619760990143 -0.07247352600097656 -0.09919373691082001 -0.041239604353904724 -0.08569963276386261 0.10400450229644775 0.0980650782585144
-0.07889504730701447 0.09908843040466309 0.11565326154232025 0.00720621645450592 0.014940068125724792 0.04432709515094757 0.12083372473716736 -0.02143070101737976 0.10462051630020142 -0.07352674007415771 -0.11350993812084198 0.11967357993125916 0.029962196946144104 0.037886425852775574 0.12016351521015167 -0.04199931025505066 -0.10182322561740875 -0.10397735238075256 0.022197484970092773 0.08650963008403778 0.0031401365995407104 -0.07586519420146942 -0.11490048468112946 0.12133334577083588 -0.12404067814350128 -0.0017644017934799194 -0.009678572416305542 -0.038997188210487366 -0.03779397904872894 -0.04527601599693298 0.10492628812789917 0.12305662035942078 -0.08965811133384705 0.1080511063337326 0.017914876341819763 -0.020501375198364258 -0.08180177211761475 0.0999482274055481 -0.06560198962688446 0.06239427626132965 0.10429874062538147 0.02252107858657837 -0.05550530552864075 0.12357790768146515 0.08338367938995361 -0.024280384182929993 -0.1045694500207901 -0.059495583176612854 -0.026280581951141357 -0.029219388961791992 -0.1065605878829956 -0.0515444278717041 -0.10240386426448822 -0.03543427586555481 0.079181969165802 0.03126096725463867 -0.06562075018882751 -0.007860854268074036 0.08731673657894135 -0.06491197645664215 0.04285174608230591 0.04907439649105072 -0.005502283573150635 -0.07660537958145142
0.019006475806236267 0.08355450630187988 0.011717364192008972 0.11714881658554077 -0.03270687162876129 0.10834328830242157 0.008762016892433167 0.12461385130882263 0.02139905095100403 -0.04367341101169586 0.12249590456485748 -0.04592770338058472 0.1177784651517868 -0.11914210021495819 0.02462136745452881 0.06970474123954773 -0.007775783538818359 -0.07206666469573975 -0.04721513390541077 0.026314914226531982 -0.1069047600030899 0.03832875192165375 0.11823432147502899 -0.09838181734085083 -0.032361939549446106 -0.11844806373119354 0.09814435243606567 0.016974225640296936 -0.009980455040931702 0.11160127818584442 -0.022013306617736816 -0.10667246580123901 0.03519721329212189 0.06817756593227386 -0.05181621015071869 0.0754096657037735 0.006636336445808411 0.07817286252975464 -0.11498655378818512 0.1195572167634964 -0.054567813873291016 0.10679206252098083 0.019688978791236877 -0.07375580072402954 -0.04132600128650665 -0.11678753793239594 0.017188027501106262 0.09436024725437164 0.007271409034729004 -0.10774298012256622 -0.05943591892719269 0.03263993561267853 -0.022317275404930115 -0.0588216632604599 0.06012202799320221 0.10639166831970215 -0.03954195976257324 0.08337725698947906 -0.05410976707935333 -0.02314920723438263 -0.072527676820755 0.004316121339797974 -0.0606842041015625 0.08399099111557007
0.11754323542118073 -0.08899907767772675 0.06853462755680084 -0.008834019303321838 0.12475955486297607 0.12129530310630798 -0.012877494096755981 -0.04995979368686676 -0.10833847522735596 -0.05459222197532654 0.07301902770996094 -0.07718777656555176 0.0901462584733963 0.09760327637195587 -0.08043703436851501 0.03756248950958252 0.006475433707237244 -0.004673942923545837 -0.06009107828140259 -0.050112515687942505 0.06562857329845428 0.05440501868724823 0.10591934621334076 -0.11942026019096375 0.059549480676651 -0.10611693561077118 0.07879002392292023 -0.09291604161262512 0.07223933935165405 -0.003403976559638977 -0.08901694416999817 -0.09666965901851654 0.06979098916053772 -0.0707479864358902 0.09693598747253418 -0.04438339173793793 0.01294080913066864 0.06700471043586731 -0.034175172448158264 -0.06286358833312988 -0.035627081990242004 -0.0670175701379776 0.08856511116027832 -0.09690257906913757 0.04380202293395996 0.05446942150592804 -0.10873961448669434 -0.08555866777896881 0.1162518858909607 0.08707630634307861 -0.05269642174243927 0.08863222599029541 0.061678409576416016 0.060369908809661865 0.029437080025672913 -0.1178133487701416 0.05621132254600525 0.1052093654870987 0.01009511947631836 -0.06244960427284241 0.11269566416740417 -0.00849132239818573 0.009593978524208069 0.04194384813308716
-0.12205299735069275 0.05966565012931824 0.046026602387428284 0.06426364183425903 -0.0436646044254303 -0.02398526668548584 0.10242670774459839 0.09629292786121368 0.03498433530330658 0.0718773603439331 0.025418564677238464 0.09286960959434509 0.034657880663871765 0.023865118622779846 0.11519601941108704 0.11939696967601776 -0.006004020571708679 0.05372542142868042 -0.06580385565757751 0.0855318158864975 0.06248219311237335 -0.044020116329193115 -0.1129867285490036 -0.0788145363330841 0.09509314596652985 -0.06976155936717987 0.05214710533618927 0.03422713279724121 0.0681818425655365 0.06422170996665955 -0.010963886976242065 0.013572260737419128 -0.028467580676078796 0.10417884588241577 -0.05095785856246948 -0.06987844407558441 -0.027569279074668884 0.07250121235847473 -0.11790293455123901 -0.043196335434913635 -0.1146838366985321 0.03629507124423981 0.025370299816131592 -0.04093037545681 -0.007004916667938232 -0.003398612141609192 -0.0556086003780365 -0.0034723877906799316 -0.01691421866416931 0.02986772358417511 0.010518893599510193 -0.08869610726833344 0.06500807404518127 0.10960948467254639 0.08314572274684906 -0.06835411489009857 -0.019886329770088196 -0.008006438612937927 0.007826551795005798 0.08463877439498901 -0.09712386131286621 -0.0001369565725326538 0.038810089230537415 0.05898699164390564
0.08183495700359344 -0.016347020864486694 -0.11437773704528809 -0.04367980360984802 0.0015109777450561523 -0.10619911551475525 -0.01111842691898346 4.144012928009033e-05 -0.08313557505607605 -0.05734209716320038 -0.11456750333309174 -0.0725243091583252 -0.052834466099739075 0.04070858657360077 -0.11414620280265808 -0.02939029037952423 -0.1244254857301712 0.034735456109046936 0.10429851710796356 -0.017887666821479797 0.0633239597082138 -0.08212751150131226 0.0241670161485672 -0.0051685720682144165 0.12084449827671051 0.07008318603038788 0.08562031388282776 0.11419408023357391 0.07218442857265472 0.04047712683677673 0.05857701599597931 -0.023242294788360596 -0.047600582242012024 -0.09403958916664124 -0.05825917422771454 -0.10250069200992584 0.03476749360561371 -0.09841768443584442 -0.06230585277080536 0.028691604733467102 -0.04398664832115173 -0.01655358076095581 -0.03795574605464935 -0.043535977602005005 -0.049288615584373474 0.09711697697639465 0.017506852746009827 0.02035313844680786 -0.01710592210292816 0.03485549986362457 -0.08520682156085968 -0.049402087926864624 0.10944527387619019 -0.0018586516380310059 0.11462157964706421 -0.07897178828716278 -0.021158337593078613 0.09969864785671234 0.04069019854068756 0.09007714688777924 -0.0004988908767700195 -0.06984733045101166 -0.018091872334480286 -0.10438479483127594
0.12465348839759827 0.09649638831615448 -0.0320257693529129 0.0394657701253891 -8.656084537506104e-05 -0.01930682361125946 0.08494679629802704 0.027060329914093018 0.05080747604370117 0.06926420331001282 -0.12359029054641724 -0.10830943286418915 0.09118443727493286 -0.11982832849025726 -0.03565579652786255 -0.05304273962974548 0.011251568794250488 0.10702614486217499 0.04609590768814087 -0.04365399479866028 0.017524048686027527 -0.09512229263782501 -0.005531862378120422 0.02759172022342682 0.00037898123264312744 0.10453718900680542 -0.00731329619884491 -0.004343941807746887 -0.06202752888202667 0.12302875518798828 0.00039145350456237793 -0.10867957770824432 0.021586447954177856 -0.06359037756919861 0.10866251587867737 0.02620367705821991 0.12005342543125153 -0.028438672423362732 -0.01279371976852417 0.01279526948928833 -0.08615376055240631 -0.018403440713882446 -0.022349074482917786 -0.12327888607978821 0.015584900975227356 -0.01207628846168518 -0.08823569118976593 0.09243831038475037 0.07657837867736816 0.020307213068008423 -0.07451853156089783 -0.12021937966346741 0.07264375686645508 -0.11265420913696289 -0.0522332638502121 0.030672043561935425 -0.10410594940185547 0.03580103814601898 0.06281551718711853 -0.10549172759056091 -0.09818200767040253 0.04504254460334778 -0.005606308579444885 0.10378828644752502
0.05739402770996094 0.11995804309844971 -0.035586461424827576 0.11044299602508545 0.009882822632789612 -0.024903535842895508 0.031489238142967224 0.08826673030853271 0.06382392346858978 0.016046836972236633 0.1166975349187851 0.010112792253494263 -0.10628531873226166 -0.07718391716480255 -0.10791856050491333 -0.08749960362911224 0.10545437037944794 -0.0569005012512207 -0.06663352251052856 -0.09705431759357452 -0.04759770631790161 -0.021265819668769836 0.013281747698783875 0.02341771125793457 0.0005586743354797363 0.03147877752780914 -0.10354207456111908 0.1163015067577362 0.010816395282745361 -0.0572500079870224 -0.07916606962680817 -0.09031262993812561 0.11788667738437653 0.0668502151966095 0.08946116268634796 0.018127694725990295 0.12200957536697388 0.050140947103500366 0.008751824498176575 0.10211503505706787 0.012100905179977417 0.022199511528015137 -0.06181144714355469 -0.07900246977806091 -0.05457422137260437 0.09052841365337372 0.08846713602542877 0.12240760028362274 0.09358108043670654 0.01586039364337921 0.09119221568107605 0.06605085730552673 -0.05903741717338562 -0.06729216873645782 -0.005735158920288086 -0.01727965474128723 0.08281047642230988 -0.08843687176704407 -0.04016195237636566 0.05687856674194336 0.06693632900714874 -0.03073461353778839 0.07349660992622375 -0.10817447304725647
0.08063016831874847 -0.09353964030742645 -0.023761332035064697 0.12301650643348694 0.03394328057765961 -0.05725450813770294 0.0378614217042923 -0.016798898577690125 0.09185874462127686 -0.06190863251686096 0.03141032159328461 0.0026489049196243286 0.02934466302394867 0.10903871059417725 0.06858931481838226 -0.08046518266201019 -0.036335840821266174 0.07889421284198761 0.01360274851322174 0.04740552604198456 0.004659906029701233 -0.02138492465019226 -0.023889079689979553 0.1247059553861618 0.058415889739990234 0.06168423593044281 0.045427531003952026 -0.012592554092407227 0.006748408079147339 0.0846119225025177 -0.011738374829292297 -0.05596005916595459 -0.03337886929512024 0.05143554508686066 -0.0882301777601242 -0.05448909103870392 0.05415444076061249 -0.034349411725997925 0.06683290004730225 -0.03791031241416931 -0.08541139960289001 -0.0024546682834625244 0.09311655163764954 0.036616384983062744 -0.09992343187332153 0.011648818850517273 -0.09559525549411774 -0.052929267287254333 9.620189666748047e-05 0.07859113812446594 -0.1233455091714859 0.024361714720726013 0.011987671256065369 -0.08408291637897491 0.03748789429664612 0.021038681268692017 0.04221954941749573 0.1023394763469696 0.07961449027061462 0.05968847870826721 -0.009181022644042969 -0.05437329411506653 0.08168452978134155 -0.10726973414421082
-0.04936403036117554 -0.08358655869960785 0.03062756359577179 -0.03714704513549805 0.10063855350017548 -0.05778686702251434 -0.0745948851108551 0.02230183780193329 0.05538316071033478 0.05223676562309265 -0.102547287940979 0.015872210264205933 0.048902153968811035 0.046089500188827515 0.07341369986534119 -0.029188886284828186 -0.008511260151863098 0.09069649875164032 -0.05677390098571777 0.05987460911273956 -0.002863645553588867 0.013627931475639343 0.060486555099487305 0.07739226520061493 0.06819148361682892 -0.08198963105678558 0.058314189314842224 0.06682054698467255 0.0353931188583374 0.10914959013462067 0.04291364550590515 -0.03770942986011505 0.10311408340930939 0.09674927592277527 -0.026808828115463257 0.023746177554130554 0.08789549767971039 0.10070309042930603 -0.0888168215751648 -0.065148264169693 0.12239609658718109 -0.026712581515312195 0.06240220367908478 0.09928569197654724 0.12218783795833588 -0.0011649131774902344 -0.11267079412937164 -0.10426342487335205 -0.11646915972232819 0.0433511883020401 0.09378954768180847 -0.0012140721082687378 0.08218686282634735 0.1035861074924469 0.0673496276140213 0.04661448299884796 -0.1243610680103302 0.10426492989063263 0.03582286834716797 -0.10574477910995483 -0.0014968663454055786 0.10467095673084259 -0.08667394518852234 -0.08082842826843262
-0.04665862023830414 0.024702876806259155 -0.1029142290353775 0.054071635007858276 -0.03595450520515442 0.06494410336017609 0.06634020805358887 -0.03152047097682953 -0.12064017355442047 0.020893588662147522 -0.022115617990493774 -0.07611121237277985 0.10972584784030914 0.03284233808517456 0.04315146803855896 0.09920614957809448 -0.032156482338905334 0.09308989346027374 -0.09042808413505554 0.08605021238327026 -0.020847782492637634 -0.08949901163578033 0.02970530092716217 0.11207315325737 0.08246080577373505 0.041530266404151917 0.10541500151157379 -0.1040724366903305 0.004431992769241333 0.09524025022983551 -0.12210986018180847 0.10339082777500153 -0.12052424252033234 0.09810763597488403 -0.08214029669761658 -0.009864315390586853 0.08347313106060028 0.02431023120880127 -0.11128292977809906 -0.017781734466552734 -0.07322879135608673 0.025329574942588806 -0.12040330469608307 0.0714046061038971 0.06021641194820404 0.10579061508178711 -0.03659646213054657 -0.09070348739624023 -0.039123907685279846 0.040758877992630005 0.06599283218383789 -0.11481030285358429 0.1136348694562912 0.0738040953874588 -0.09021997451782227 -0.002340570092201233 0.10625196993350983 0.10463245213031769 -0.06197117269039154 0.027874767780303955 -0.10645030438899994 -0.08411559462547302 -0.0805107057094574 0.1022924929857254
0.05654488503932953 -0.02294236421585083 0.07940490543842316 0.0750190019607544 -0.03212094306945801 -0.023648858070373535 -0.00863705575466156 -0.07278034090995789 -0.04755339026451111 -0.02834463119506836 -0.012597277760505676 -0.015297546982765198 -0.03804224729537964 0.08596749603748322 0.07467690110206604 -0.09574843943119049 -0.10507673025131226 -0.019739210605621338 -0.06944920122623444 -0.0841628909111023 -0.007995322346687317 -0.10856281220912933 -0.032093971967697144 0.02060636878013611 0.10438071191310883 0.03829874098300934 0.11248534917831421 -0.08736637234687805 -0.008557885885238647 -0.07277624309062958 0.10685823857784271 0.11987026035785675 -0.04342050850391388 -0.04207858443260193 -0.03777366876602173 0.0998234748840332 0.029172152280807495 0.06195870041847229 0.02297002077102661 -0.10174095630645752 -0.10107454657554626 -0.0564408153295517 -0.060692861676216125 0.08693145215511322 0.09534929692745209 -0.03057338297367096 -0.09984919428825378 -0.07858636975288391 0.04067733883857727 0.027072668075561523 0.07972978055477142 0.11734399199485779 -0.10757522284984589 -0.12081839144229889 -0.04229356348514557 -0.09425801038742065 0.007769584655761719 0.09341119229793549 -0.039362892508506775 -0.03407391905784607 -0.06756150722503662 0.02059076726436615 -0.054241299629211426 -0.010079190135002136
-0.059429705142974854 -0.05186846852302551 0.09984439611434937 -0.06725318729877472 -0.07977336645126343 0.10514231026172638 8.538365364074707e-06 0.008464083075523376 0.07927915453910828 -0.09115102887153625 0.022242829203605652 0.09770822525024414 -0.04599536955356598 -0.06840881705284119 -0.08351470530033112 -0.03574515879154205 0.031472474336624146 -0.043589040637016296 0.06516842544078827 -0.023859292268753052 -0.06440560519695282 -0.11367632448673248 -0.08017946779727936 -0.017545253038406372 -0.023241683840751648 0.09485085308551788 0.019620582461357117 0.0826248824596405 0.04192189872264862 0.008306577801704407 0.09429126977920532 -0.08302173018455505 0.01360851526260376 -0.10117919743061066 0.10363458096981049 -0.11508218944072723 -0.124632328748703 -0.09877844154834747 0.06988337635993958 0.08009405434131622 0.01827166974544525 0.048830971121788025 0.016570299863815308 -0.038722455501556396 -0.06914561986923218 -0.0782700926065445 0.10494023561477661 0.022254809737205505 -0.07203051447868347 0.0546417236328125 -0.08280503749847412 -0.02934424579143524 0.05725345015525818 0.01428203284740448 -0.1072266697883606 0.11792872846126556 -0.1131233274936676 0.020337149500846863 -0.04658815264701843 -0.002376347780227661 -0.022054150700569153 0.030481547117233276 -0.11657069623470306 0.03683468699455261
0.039828747510910034 -0.07202544808387756 0.09335120022296906 0.06428705155849457 0.10154604911804199 -0.07439808547496796 -0.018556848168373108 0.046149373054504395 -0.010724261403083801 0.12246635556221008 0.10371339321136475 0.11634771525859833 -0.010047271847724915 0.11769901216030121 0.023580223321914673 -0.0027542859315872192 0.057873666286468506 0.09130464494228363 -0.06721667945384979 -0.03105674684047699 0.057009413838386536 -0.01298418641090393 0.04858863353729248 -0.03415200114250183 -0.03291931748390198 0.1179659515619278 0.02682916820049286 -0.08058570325374603 0.03400340676307678 -0.10527350008487701 -0.1001770943403244 -0.07594488561153412 0.07126441597938538 -0.09356637299060822 -0.06318147480487823 -0.06128711998462677 0.03315021097660065 0.053725555539131165 -0.10427869856357574 0.004246413707733154 -0.040072858333587646 0.09837901592254639 0.014185398817062378 -0.1168106198310852 0.0027515292167663574 -0.04697182774543762 -0.0645434558391571 -0.10349017381668091 -0.022144943475723267 -0.0626416951417923 -0.08238595724105835 0.022436797618865967 0.06937411427497864 -0.09353338181972504 -0.08358427882194519 0.1247226893901825 0.005177423357963562 -0.0505385547876358 -0.10067419707775116 -0.05869092047214508 -0.09187239408493042 0.09352937340736389 0.11412283778190613 0.07591599225997925
0.015572711825370789 -0.09577049314975739 0.11114142835140228 -0.1242380440235138 -0.042377814650535583 -0.00711958110332489 -0.0521574467420578 0.054909124970436096 0.07499188184738159 0.0873306542634964 0.030968084931373596 -0.10028740763664246 -0.08010327816009521 0.06863583624362946 -0.11173923313617706 -0.11096328496932983 0.06287848949432373 -0.08989833295345306 -0.0484081506729126 0.09353852272033691 0.1065533459186554 -0.0363718718290329 0.10556450486183167 -0.041800692677497864 -0.11273805797100067 0.010367482900619507 0.109082892537117 -0.09104694426059723 -0.0019206106662750244 -0.11990027129650116 0.06777229905128479 0.011763438582420349 -0.09822037816047668 0.08796745538711548 0.0742616057395935 -0.07900884747505188 -0.11128953099250793 -0.009838029742240906 0.036554038524627686 -0.01898425817489624 0.12366695702075958 -0.09360012412071228 0.12471802532672882 0.0042741745710372925 -0.10533955693244934 0.04138019680976868 -0.09953473508358002 0.09168639779090881 0.11925333738327026 -0.10654620826244354 -0.0051888227462768555 -0.0183727890253067 0.02796243131160736 -0.02252015471458435 0.07946009933948517 -0.04433158040046692 -0.08458279073238373 -0.08962790668010712 0.010677561163902283 -0.0004720240831375122 0.08985677361488342 0.10456638038158417 -0.013587146997451782 -0.0669965147972107
-0.030697405338287354 0.04453811049461365 -0.042560845613479614 0.102288156747818 0.0022660493850708008 -0.009240344166755676 -0.04574476182460785 0.038376495242118835 0.013106197118759155 0.04177863895893097 -0.06537103652954102 0.06275878846645355 0.031254515051841736 -0.04146888852119446 -0.10891333222389221 0.11709736287593842 0.11600248515605927 -0.06499361991882324 -0.02706824243068695 0.05179372429847717 -0.03747999668121338 -0.03271165490150452 -0.05759011209011078 0.11494700610637665 0.08678196370601654 -0.11447963118553162 -0.055465131998062134 0.1222570389509201 -0.017692938446998596 0.04444998502731323 0.035810068249702454 0.08195297420024872 -0.0009898394346237183 -0.02535553276538849 0.07286988198757172 0.05980364978313446 0.058741673827171326 0.03785890340805054 0.10950051248073578 0.10010072588920593 0.10985870659351349 -0.11213549971580505 -0.0029021650552749634 0.021259009838104248 -0.006286993622779846 -0.07814383506774902 -0.07482032477855682 -0.10694436728954315 0.03957478702068329 -0.12236239016056061 0.00824744999408722 0.006222635507583618 -0.0875554233789444 -0.05142034590244293 0.10330362617969513 -0.028365418314933777 -0.10434961318969727 -0.0840749591588974 -0.026286646723747253 -0.03023482859134674 -0.04906079173088074 0.0839293897151947 -0.014053791761398315 0.018547073006629944
0.07573796808719635 0.09217065572738647 -0.05763845145702362 0.02368488907814026 0.011953294277191162 0.11884212493896484 -0.0867329090833664 -0.035356029868125916 -0.0858277678489685 -0.11364102363586426 0.09441350400447845 -0.012875765562057495 0.05896154046058655 0.01605212688446045 -0.05677536129951477 0.059220775961875916 -0.09794414043426514 -0.06727729737758636 -0.03215530514717102 0.03737635910511017 0.02807942032814026 0.025582551956176758 0.10944691300392151 -0.021378740668296814 -0.0693424791097641 0.042309507727622986 0.03782042860984802 0.04208673536777496 0.11852104961872101 0.054018065333366394 0.04546812176704407 -0.05652676522731781 0.052841708064079285 -0.02544569969177246 -0.005024164915084839 -0.09208695590496063 0.08571323752403259 -0.09539301693439484 0.021159276366233826 -0.05276226997375488 0.008410990238189697 -0.05255395174026489 -0.021785646677017212 0.04630650579929352 0.05509053170681 -0.02589370310306549 -0.11928299069404602 -0.05059345066547394 0.06331637501716614 0.07919082045555115 0.040186479687690735 -0.09374202787876129 -0.003982976078987122 -0.1058792918920517 -0.013827517628669739 0.036954715847969055 -0.1183290034532547 -0.12328571081161499 0.046796903014183044 -0.033862754702568054 0.03922252357006073 -0.12153922021389008 -0.08746875822544098 -0.02076314389705658
-0.10248187184333801 -0.030134037137031555 0.046205997467041016 -0.11956454813480377 0.037637755274772644 0.08363933861255646 0.05508944392204285 0.12369292974472046 -0.04029160737991333 0.005299806594848633 0.05696265399456024 0.11098788678646088 0.07584552466869354 -0.08925732970237732 0.08906123042106628 0.02949179708957672 0.07652613520622253 0.02554216980934143 0.10181631147861481 -0.028745055198669434 -0.11310598254203796 0.03850795328617096 0.0381850004196167 0.010149344801902771 0.10768729448318481 -0.11362822353839874 -0.05050429701805115 0.0610620379447937 -0.10494127869606018 0.04605033993721008 -0.1012154370546341 -0.06757265329360962 -0.06688030064105988 0.015492632985115051 0.08088614046573639 -0.045193612575531006 -0.08464771509170532 0.039486274123191833 0.02461962401866913 -0.08664649724960327 -0.11038991808891296 -0.014242827892303467 -0.08964024484157562 -0.10906624794006348 0.03430047631263733 0.08014264702796936 -0.013267874717712402 -0.08459900319576263 0.10448379814624786 0.05966313183307648 -0.062393128871917725 0.11941052973270416 0.11384314298629761 -0.09564432501792908 -0.09413601458072662 -0.02243250608444214 -0.09595276415348053 0.12010528147220612 -0.1040787547826767 -0.04073747992515564 -0.11990135908126831 0.09806676208972931 -0.004286155104637146 -0.049391716718673706
-0.03453287482261658 -0.004038989543914795 0.012266173958778381 0.10680048167705536 0.11010031402111053 -0.11574400961399078 -0.05673268437385559 0.005259305238723755 0.005454361438751221 0.1124974936246872 -0.03315642476081848 -0.0591006875038147 0.05320817232131958 -0.11633726954460144 0.05129924416542053 0.0032570064067840576 0.07819879055023193 0.023229241371154785 0.11719468235969543 0.06518490612506866 -0.12086518108844757 -0.0912831723690033 -0.03569214046001434 -0.11015436053276062 -0.031167209148406982 0.01595410704612732 -0.08918482065200806 0.10395736992359161 0.08405119180679321 0.01321527361869812 -0.06327369809150696 0.005590811371803284 0.08617109060287476 0.04134204983711243 -0.0616731196641922 -0.08776745200157166 0.01894940435886383 -0.042413026094436646 -0.0010421127080917358 -0.03561249375343323 -0.08581341803073883 0.10349997878074646 0.0905604213476181 -0.08934171497821808 0.05681917071342468 -0.057779163122177124 0.021277308464050293 0.06618684530258179 -0.08874949812889099 0.05621655285358429 0.003515005111694336 -0.0404181033372879 -0.09936018288135529 -0.0862627625465393 0.01820702850818634 -0.012018516659736633 -0.048363640904426575 -0.04832178354263306 -0.017844796180725098 0.0007240027189254761 0.0723608136177063 0.05895642936229706 -0.09071566164493561 -0.07119670510292053
0.12163648009300232 0.027784988284111023 -0.04183937609195709 0.06143037974834442 -0.10473056137561798 0.10026660561561584 -0.016798213124275208 -0.06042446196079254 0.09291163086891174 0.013816788792610168 -0.014430180191993713 -0.07401269674301147 0.06133793294429779 -0.10780385136604309 0.05483610928058624 0.07650627195835114 -0.10410885512828827 -0.03226974606513977 0.07110863924026489 0.115491583943367 -0.1175074577331543 0.013378530740737915 -0.07305438816547394 0.09474293887615204 -0.031243160367012024 -0.03145956993103027 0.11781235039234161 0.09912878274917603 0.08244335651397705 -0.01769179105758667 0.08129125833511353 0.1006995290517807 -0.029775887727737427 0.0731644481420517 0.10938645899295807 0.1224168986082077 0.04052402079105377 -0.1000480055809021 0.005155012011528015 -0.011187732219696045 -0.05620221793651581 0.10229472815990448 0.10123811662197113 -0.07198761403560638 0.03812277317047119 0.04762290418148041 -0.06816653907299042 0.053941696882247925 0.11216890811920166 0.0011497586965560913 0.03648531436920166 0.032826825976371765 -0.020215526223182678 0.012659460306167603 -0.0007452219724655151 0.11506347358226776 -0.004385799169540405 -0.02186080813407898 0.04040032625198364 -0.02494780719280243 -0.04757027328014374 -0.0093718022108078 -0.026447772979736328 -0.017030417919158936
-0.07721896469593048 -0.04568338394165039 0.11105775833129883 0.07541131973266602 0.024395525455474854 0.08078102767467499 0.020419612526893616 0.10802339017391205 -0.09473080933094025 -0.09964412450790405 -0.010172605514526367 0.006508320569992065 0.02657116949558258 0.013020619750022888 -0.08389222621917725 -0.03710708022117615 0.00344790518283844 -0.10958544909954071 0.06426772475242615 -0.05146445333957672 0.07402130961418152 0.0781315267086029 0.08314892649650574 0.03171232342720032 0.07369844615459442 -0.12160883843898773 -0.044214293360710144 0.08180151879787445 -0.07468216121196747 0.06312008202075958 0.10465343296527863 -0.0023965984582901 -0.034272029995918274 0.08183243870735168 0.0995994508266449 -0.08217479288578033 -0.04069924354553223 0.03583607077598572 0.04941372573375702 -0.06321583688259125 0.11430492997169495 0.04299263656139374 -0.02979286015033722 -0.03193335235118866 0.023423612117767334 0.039684876799583435 0.08908604085445404 0.05015861988067627 -0.02135021984577179 0.062112316489219666 0.04502832889556885 0.04430431127548218 0.027776509523391724 0.124395951628685 0.016215592622756958 -0.07831946015357971 0.031306684017181396 0.07013355195522308 -0.005647927522659302 -0.0786319375038147 -0.09135870635509491 0.05449666082859039 -0.06417369842529297 0.057930052280426025
0.06883791089057922 0.04537519812583923 0.12182657420635223 -0.0613231360912323 -0.10279564559459686 0.10186989605426788 -0.045948684215545654 -0.026584744453430176 0.08232094347476959 -0.028422638773918152 0.09446738660335541 -0.00626508891582489 -0.011736869812011719 0.09976056218147278 -0.06368042528629303 0.08984754979610443 0.042249009013175964 0.01675504446029663 -0.05626454949378967 0.03302386403083801 -0.0074955374002456665 0.017933622002601624 0.11856874823570251 -0.0036303848028182983 0.03799183666706085 -0.039897799491882324 0.011825919151306152 0.05845707654953003 0.050485849380493164 -0.09297564625740051 -0.0417618602514267 0.10161152482032776 -0.05770352482795715 0.07108594477176666 0.03384751081466675 -0.0583113431930542 -0.11784617602825165 0.1049090027809143 0.048168838024139404 0.01226814091205597 0.0630268007516861 0.06392987072467804 -0.07545791566371918 0.07662814855575562 -0.031017616391181946 0.025484472513198853 -0.03134174644947052 -0.06707918643951416 0.035659775137901306 -0.03263804316520691 0.027748972177505493 -0.09971731901168823 0.002706751227378845 0.038298532366752625 -0.07231524586677551 -0.11211638152599335 -0.0024782568216323853 -0.039795443415641785 0.08124507963657379 0.0075770169496536255 -0.07232169806957245 -0.07131358981132507 -0.03080269694328308 0.10707709193229675
0.015193924307823181 -0.10151341557502747 -0.04011823236942291 -0.08906807005405426 -0.08725537359714508 -0.04197901487350464 0.00018931925296783447 -0.05850394070148468 -0.11773043870925903 0.11492902040481567 0.07197366654872894 -0.011044427752494812 -0.026716381311416626 0.04881063103675842 -0.07045616209506989 -0.08797487616539001 -0.0022478997707366943 0.08826887607574463 0.049294859170913696 0.07735516130924225 -0.07375924289226532 0.009609729051589966 -0.09028217196464539 0.006651520729064941 -0.10991016030311584 0.03406292200088501 0.037198275327682495 -0.09878392517566681 0.08422523736953735 -0.03252515196800232 -0.10916639864444733 -0.08033962547779083 0.06713955104351044 0.08730186522006989 -0.12391442060470581 -0.08788637816905975 -0.02062191069126129 0.06412254273891449 0.10807596147060394 0.01983010768890381 -0.04136769473552704 0.0491614043712616 -0.016124770045280457 -0.005534082651138306 0.09568145871162415 -0.06908708810806274 -0.08238065242767334 0.11754746735095978 -0.061478644609451294 -0.09946410357952118 -0.04486507177352905 0.12197689712047577 0.12160812318325043 -0.06069546937942505 0.07987482845783234 0.09736071527004242 0.11170272529125214 -0.11487142741680145 0.09750306606292725 0.06015120446681976 -0.09215982258319855 0.007346928119659424 0.07815735042095184 0.11942963302135468
-0.11258737742900848 0.020387470722198486 -0.03259861469268799 -0.05791178345680237 7.118284702301025e-05 -0.09587264060974121 0.08112458884716034 0.031214192509651184 0.024781137704849243 -0.04710687696933746 -0.06400735676288605 -0.03405007719993591 -0.11204686760902405 -0.08461306989192963 -0.09804289042949677 -0.010334491729736328 -0.012953609228134155 -0.10213415324687958 0.09400443732738495 -0.07575803995132446 -0.026770085096359253 -0.027647972106933594 0.07742761075496674 0.11908164620399475 0.06922972202301025 -0.09292738139629364 0.018319323658943176 0.04321622848510742 0.08313839137554169 0.016363441944122314 -0.028324946761131287 0.08855101466178894 0.09058661758899689 0.01327592134475708 -0.09349998831748962 0.060014620423316956 0.07674095034599304 0.1219242662191391 -0.11043870449066162 0.013968169689178467 -0.007901012897491455 -0.02814304828643799 -0.11941923201084137 -0.11585819721221924 -0.022036224603652954 0.10911379754543304 -0.11637647449970245 -0.01879715919494629 -0.1010865718126297 -0.11246025562286377 -0.07904016971588135 0.059130311012268066 0.12281924486160278 4.1604042053222656e-05 -0.013203829526901245 -0.024258330464363098 -0.05596849322319031 -0.056865617632865906 -0.0724140852689743 0.04130880534648895 0.10149021446704865 0.09344880282878876 0.009930774569511414 -0.060824915766716
-0.049356669187545776 -0.08214627206325531 0.1002688854932785 0.04655662178993225 0.04372972249984741 0.0218992680311203 0.07256823778152466 -0.08136862516403198 0.08346487581729889 -0.11154964566230774 0.09080801904201508 0.11876529455184937 0.011819064617156982 -0.040561527013778687 -0.10538379848003387 0.013806194067001343 0.035275042057037354 -0.04068620502948761 0.06233038008213043 0.08358339965343475 -0.10468316078186035 -0.05688738822937012 0.07186536490917206 0.0540323406457901 0.0007569789886474609 0.016525477170944214 -0.07663381099700928 0.08959874510765076 0.05929739773273468 -0.10959075391292572 0.11852452158927917 -0.07140719890594482 -0.08716736733913422 -0.026949450373649597 0.010461121797561646 0.05242447555065155 -0.08563555777072906 -0.11535914242267609 -0.07009445130825043 0.1089768260717392 0.09659171104431152 -0.08275572955608368 0.07658189535140991 -0.11661003530025482 0.03222203254699707 0.03297963738441467 0.026932016015052795 0.10253673791885376 0.029768750071525574 -0.008395060896873474 -0.08789336681365967 -0.054643645882606506 0.06384514272212982 0.09015212953090668 0.005605742335319519 -0.09548787772655487 -0.11337219178676605 0.026799440383911133 0.0711718499660492 -0.1150161623954773 0.009408026933670044 -0.034732624888420105 0.008289113640785217 -0.10540242493152618
-0.05152876675128937 -0.04771341383457184 0.10324753820896149 -0.12187325954437256 0.09921756386756897 0.009878665208816528 -0.04501047730445862 -0.05921578407287598 0.07797014713287354 0.11512860655784607 -0.051592081785202026 -0.024800196290016174 -0.006507858633995056 -0.05307362973690033 0.06884993612766266 0.059139132499694824 -0.057693228125572205 -0.09358097612857819 -0.04046820104122162 0.11207053065299988 -0.10872752964496613 0.04478052258491516 0.04704493284225464 -0.04567989706993103 -0.10136626660823822 0.057628288865089417 -0.03932596743106842 -0.023395434021949768 -0.08724814653396606 -0.0418538898229599 -0.10824541747570038 0.1032663881778717 -0.028138265013694763 -0.04176288843154907 0.1223892867565155 0.08986200392246246 -0.11079297959804535 0.0772412121295929 0.010560601949691772 -0.07089446485042572 0.042732447385787964 0.011538997292518616 0.030775517225265503 0.013393968343734741 0.10442177951335907 -0.11350749433040619 0.003304526209831238 0.09209825098514557 -0.08112657070159912 0.004941165447235107 -0.04349660873413086 -0.059116557240486145 -0.03508378565311432 -0.06890232861042023 0.017720043659210205 0.08890356123447418 -0.002218499779701233 0.008880048990249634 -0.020077988505363464 -0.002402767539024353 0.10363174974918365 -0.035270482301712036 0.11456169188022614 0.02869594097137451
-0.11942306160926819 0.060751691460609436 0.12348467111587524 0.02318979799747467 0.08701208233833313 -0.10395129024982452 -0.026502355933189392 -0.1246279627084732 -0.1224716305732727 -0.05590829253196716 0.04094991087913513 -0.011208519339561462 -0.08861343562602997 -0.09775201976299286 0.0892879068851471 -0.052845969796180725 0.025235891342163086 0.04459474980831146 0.10720118880271912 -0.05998755991458893 -0.07194387912750244 0.09866692125797272 -0.08380116522312164 0.12325997650623322 -0.1129361242055893 0.09354425966739655 0.0800791084766388 -0.0685308575630188 0.07467219233512878 0.04457075893878937 -0.07201588153839111 -0.08393608033657074 0.040085166692733765 0.10942883789539337 0.026004746556282043 0.05057282745838165 0.03745809197425842 -0.06509126722812653 -0.08293171226978302 0.09040006995201111 0.043242186307907104 0.03137803077697754 -0.045887723565101624 0.08908471465110779 0.07252708077430725 -0.00776807963848114 0.02349969744682312 -0.028789281845092773 0.07819388806819916 0.0406537801027298 0.03207722306251526 -0.025339797139167786 0.09535747766494751 0.05227552354335785 -0.11028429865837097 -0.004270896315574646 0.02869187295436859 -0.09050193428993225 0.06965821981430054 -0.0780588835477829 0.08699433505535126 0.08847954869270325 -0.09749193489551544 0.020215332508087158
