0.026722192764282227
0.028773963451385498
0.08275085687637329
-0.05862616002559662
-0.06888194382190704
-0.054853156208992004
-0.0035025030374526978
0.08478941023349762
0.09645049273967743
-0.0694378912448883
-0.011997997760772705
-0.05216483771800995
-0.06331641972064972
0.012230932712554932
0.012964308261871338
-0.060497820377349854
-0.05036008358001709
0.0390191376209259
0.11128082871437073
0.05223076045513153
-0.02453450858592987
-0.02641431987285614
0.05253605544567108
0.02289445698261261
-0.004426300525665283
0.09669700264930725
0.02597185969352722
0.10092891752719879
0.010214969515800476
-0.055447787046432495
-0.035832300782203674
-0.08399084210395813
0.12194523215293884
-0.064984992146492
-0.04082830250263214
-0.07493418455123901
0.10095196962356567
-0.08976826071739197
0.10015353560447693
-0.11285087466239929
0.10069674253463745
0.03517378866672516
0.09708501398563385
-0.09188656508922577
-0.10008971393108368
-0.06143231689929962
0.08423608541488647
0.07375867664813995
0.03999693691730499
-0.03615701198577881
-0.021069079637527466
-0.11231590807437897
0.012320607900619507
-0.015159621834754944
0.09079468250274658
0.09992121160030365
0.015933051705360413
0.03896452486515045
-0.04808296263217926
0.12465192377567291
0.10113522410392761
-0.10312403738498688
0.10496053099632263
0.060698866844177246
