-0.12477801740169525 0.046172142028808594 -0.04678867757320404 0.025004446506500244 0.10575687885284424 0.013081759214401245 -0.10518212616443634 -0.10920131206512451 0.0498991459608078 -0.021697774529457092 -0.12327463924884796 0.08606237173080444 -0.0251694917678833 -0.06780079007148743 -0.005913257598876953 -0.07912144064903259 -0.1212940365076065 0.04792232811450958 0.12439386546611786 -0.08793771266937256 0.10527585446834564 -0.10318714380264282 -0.015309959650039673 -0.12469211220741272 -0.06853806972503662 -0.02509063482284546 0.08016394078731537 -0.12255658209323883 -0.019300177693367004 0.08783596754074097 -0.053357526659965515 0.07596021890640259 0.04430204629898071 0.12321379780769348 -0.11545152962207794 0.099275141954422 0.07649774849414825 -0.0690939724445343 0.04421509802341461 -0.01979987323284149 0.09454597532749176 -0.12020482122898102 -0.046132251620292664 -0.10038965940475464 -0.044668927788734436 0.09210251271724701 0.1119549423456192 0.010047614574432373 0.028883978724479675 -0.02209596335887909 -0.0794878900051117 -0.02138783037662506 -0.0363154262304306 -0.03288336098194122 0.053313568234443665 -0.04025663435459137 0.009609296917915344 0.08756999671459198 -0.09614415466785431 -0.056009918451309204 -0.054537683725357056 0.05672748386859894 0.069038987159729 -0.05911128222942352
-0.021393731236457825 0.043121084570884705 -0.013789787888526917 0.07245327532291412 0.08923293650150299 -0.10967797040939331 -0.06505171954631805 -0.08551855385303497 -0.021687030792236328 -0.10041153430938721 -0.040870100259780884 -0.06449413299560547 -0.07968173921108246 -0.09260636568069458 -0.07518823444843292 0.10040295124053955 0.09861789643764496 -0.013883575797080994 0.034804388880729675 -0.08321027457714081 -0.11421868205070496 -0.05608007311820984 -0.07124936580657959 -0.08546203374862671 0.018332183361053467 -0.09603846073150635 -0.035627514123916626 0.0850122720003128 0.07661731541156769 -0.06752437353134155 0.0639091432094574 0.12302829325199127 -0.01304638385772705 -0.035542964935302734 0.1210479587316513 0.0036093443632125854 0.06933580338954926 -0.08742944896221161 -0.006415322422981262 -0.02132423222064972 -0.04372668266296387 0.020561859011650085 -0.08645975589752197 -0.027185961604118347 0.0010293275117874146 0.011888563632965088 0.022304192185401917 0.08807948231697083 0.022786319255828857 -0.03189006447792053 -0.12479974329471588 0.054789215326309204 -0.08424170315265656 -0.01900327205657959 0.01196657121181488 0.058407559990882874 -0.05429300665855408 0.06358367204666138 0.00813475251197815 -0.08296193182468414 0.06311006844043732 0.01268322765827179 0.0766945481300354 0.027623191475868225
0.00017051398754119873 -0.04566079378128052 0.060218676924705505 -0.11090616881847382 0.0647728443145752 -0.015129059553146362 -0.02308623492717743 0.06306590139865875 0.05793054401874542 0.09532102942466736 -0.12056019902229309 -0.0010660290718078613 -0.12375304102897644 -0.06322236359119415 0.05678914487361908 -0.0409211665391922 0.08295632898807526 -0.06044074892997742 0.03115127980709076 -0.07964219152927399 -0.056617483496665955 0.10783278942108154 -0.12324267625808716 -0.043990567326545715 0.05774557590484619 0.06186342239379883 -0.026283442974090576 0.08816090226173401 0.11030049622058868 -0.006925761699676514 -0.009538799524307251 -0.028429284691810608 -0.05338439345359802 0.049238741397857666 -0.11857952177524567 0.12070274353027344 0.10483002662658691 -0.001260027289390564 -0.07620404660701752 -0.09432071447372437 -0.014133170247077942 -0.008852943778038025 -0.07416749000549316 0.03102123737335205 -0.08625240623950958 0.11572231352329254 0.05496698617935181 -0.02316252887248993 -0.04823023080825806 -0.026852354407310486 0.019320473074913025 -0.12447613477706909 0.10829783976078033 -0.06800366938114166 0.044126659631729126 0.0788244754076004 0.0005907267332077026 -0.09315747022628784 -0.04082149267196655 -0.05350874364376068 0.10493849217891693 0.09917819499969482 -0.07321605086326599 0.05584578216075897
0.0031413882970809937 0.1141192615032196 0.04295127093791962 0.0812482237815857 0.08952568471431732 -0.0248071551322937 0.08676198124885559 0.03239060938358307 0.11782510578632355 0.051317259669303894 0.10922372341156006 -0.010999530553817749 0.06400258839130402 0.0723213404417038 -0.008399561047554016 0.07115532457828522 0.07639740407466888 -0.11139416694641113 0.021301329135894775 -0.09427392482757568 0.0017379969358444214 -0.12468567490577698 0.0027436017990112305 -0.07554534077644348 0.054811179637908936 -0.03592512011528015 -0.10771152377128601 -0.11722619831562042 -0.033886536955833435 -0.01061655580997467 -0.07565070688724518 0.007116571068763733 0.03720194101333618 0.014445111155509949 0.07105585932731628 -0.06422054767608643 -0.002741187810897827 0.026003092527389526 -0.12374106049537659 0.03558863699436188 -0.029663890600204468 0.029715120792388916 -0.01607474684715271 0.07124847173690796 0.12016282975673676 -0.09769667685031891 0.06978437304496765 0.06041337549686432 -0.11646716296672821 0.019415631890296936 -0.07837072014808655 0.07110628485679626 -0.04870636761188507 0.08845439553260803 0.013012290000915527 -0.08648981153964996 0.05562324821949005 -0.11343489587306976 0.03960144519805908 0.11025908589363098 -0.09375004470348358 0.040059372782707214 0.025178387761116028 -0.04965271055698395
-0.08481964468955994 -0.10795414447784424 0.0447891503572464 0.11841307580471039 -0.08073852956295013 -0.024474427103996277 0.0743514746427536 0.11191774904727936 -0.07174892723560333 -0.12330685555934906 -0.07883469760417938 -0.03529246151447296 0.05550181865692139 -0.032958537340164185 -0.000707775354385376 -0.0502503365278244 -0.09760436415672302 -0.05514401197433472 -0.06825703382492065 0.10174836218357086 -0.08065059781074524 -0.0832497626543045 0.03080432116985321 -0.013110384345054626 0.07444392144680023 -0.12216527760028839 0.07770887017250061 -0.03781287372112274 0.07636861503124237 -0.06861262023448944 -0.04800243675708771 0.08863501250743866 0.026918262243270874 0.02906787395477295 -0.0680786669254303 -0.03824588656425476 0.04369533061981201 -0.07417786121368408 -0.05900321900844574 0.04526369273662567 0.015386074781417847 0.0422760546207428 0.04356762766838074 -0.05327346920967102 0.11026044189929962 0.035316914319992065 -0.04094633460044861 -0.034189894795417786 -0.07701155543327332 0.015354141592979431 -0.022214069962501526 -0.10921420156955719 -0.10954318940639496 0.06551402807235718 0.055464133620262146 0.008992969989776611 0.038166046142578125 -0.03222668170928955 0.08989813923835754 -0.09035331010818481 -0.04876750707626343 -0.06646616756916046 -0.08971229195594788 -0.01752127707004547
-0.050683438777923584 0.03315889835357666 -0.05252687633037567 0.04078684747219086 0.002659425139427185 0.011207923293113708 -0.10146142542362213 0.073799729347229 -0.0660223662853241 0.06976586580276489 0.07281382381916046 0.10926103591918945 -0.08389955759048462 -0.11000223457813263 0.10542474687099457 -0.06390871107578278 0.06401611864566803 0.07321973145008087 -0.00038196146488189697 -0.054368287324905396 -0.021854758262634277 -0.0987558513879776 -0.07719489932060242 -0.03191530704498291 -0.09493477642536163 -0.03708946704864502 0.07358796894550323 0.10934321582317352 -0.0316745787858963 -0.09099018573760986 0.02295471727848053 0.08670505881309509 -0.11306431889533997 0.09332363307476044 0.09493856132030487 -0.08042602241039276 0.09387831389904022 0.10775721073150635 -0.05375990271568298 -0.0805562287569046 0.07327987253665924 -0.030562862753868103 0.11584727466106415 -0.12223201990127563 0.06088799238204956 0.027627408504486084 0.11622697114944458 0.004341915249824524 -0.03556835651397705 0.010576695203781128 0.0912148654460907 0.08612348139286041 0.073844313621521 -0.022796571254730225 0.04645511507987976 0.062174901366233826 -0.06640484929084778 -0.11983659863471985 0.008482784032821655 -0.03509990870952606 0.10994172096252441 0.03549209237098694 -0.12096436321735382 0.07166983187198639
-0.08390316367149353 -0.02539597451686859 0.10431782901287079 -0.049293577671051025 -0.033312007784843445 -0.051728278398513794 -0.09979251027107239 -0.10742107033729553 -0.1152733713388443 0.011278048157691956 0.0925201028585434 -0.08625754714012146 -0.06666989624500275 0.06313927471637726 -0.023848026990890503 0.003972113132476807 -0.05765905976295471 0.09461221098899841 -0.08711519837379456 -0.06722043454647064 0.11466996371746063 0.05745312571525574 -0.09339761734008789 -0.06251053512096405 -0.06362150609493256 -0.12101644277572632 -0.11073784530162811 0.03866782784461975 -0.03083445131778717 -0.026309937238693237 0.0022318512201309204 0.10182344913482666 -0.05177323520183563 -0.08153873682022095 0.07027286291122437 0.03823278844356537 -0.02859775722026825 0.012627184391021729 -0.06872542202472687 -0.09085187315940857 0.023040249943733215 -0.05866977572441101 0.032030120491981506 0.05338655412197113 -0.11250971257686615 -0.014605849981307983 -0.0998181700706482 0.10774748027324677 0.12040296196937561 -0.10407416522502899 0.06892363727092743 0.01656050980091095 -0.10138106346130371 0.10202501714229584 0.06582845747470856 0.04348154366016388 0.04053953289985657 0.011158570647239685 0.025614827871322632 0.011453628540039062 -0.0775495171546936 -0.031846895813941956 0.12391054630279541 0.04968491196632385
-0.07767559587955475 0.02881789207458496 0.11023615300655365 -0.054595693945884705 0.05219881236553192 0.06214441359043121 0.026165485382080078 -0.10950237512588501 0.05796843767166138 -0.06117275357246399 -0.10224640369415283 -0.1132243424654007 -0.046587780117988586 -0.03790079057216644 -0.08018481731414795 -0.03895410895347595 0.036108702421188354 -0.02931550145149231 0.01923002302646637 0.07545535266399384 0.08929471671581268 0.028517812490463257 -0.05415564775466919 -0.10974639654159546 -0.10173024237155914 -0.10646876692771912 -0.08460059762001038 0.12040568888187408 -0.0009071528911590576 -0.09764364361763 0.10402314364910126 -0.0037641674280166626 -0.036679476499557495 -0.007545933127403259 -0.025638163089752197 0.019868284463882446 -0.06093306839466095 0.06858490407466888 -0.03927750885486603 0.09118756651878357 -0.059724390506744385 0.08659438788890839 -0.01656453311443329 -0.05668635666370392 -0.08404125273227692 0.11039809882640839 -0.12141992151737213 -0.09548276662826538 0.06676091253757477 -0.10866627097129822 -0.00200633704662323 0.09296540915966034 0.052240848541259766 -0.09782576560974121 -0.04375438392162323 0.04247039556503296 0.05189782381057739 -0.07594722509384155 0.08525456488132477 -0.043374910950660706 -0.04197758436203003 0.11540378630161285 0.07151265442371368 -0.11082252860069275
-0.09050148725509644 -0.04689060151576996 0.10678216814994812 0.12466301023960114 0.05748090147972107 0.025341719388961792 -0.008887678384780884 -0.0026986002922058105 0.05708304047584534 0.014174476265907288 0.0873260349035263 -0.02359887957572937 0.08432385325431824 0.049618691205978394 0.019593894481658936 0.033406853675842285 0.09994982182979584 0.05352027714252472 0.11067406833171844 -0.0031276345252990723 -0.09527045488357544 0.08471664786338806 -0.11758385598659515 0.10181497037410736 -0.025494515895843506 0.09838005900382996 -0.08035853505134583 0.007466375827789307 -0.039627522230148315 0.011802151799201965 -0.11191712319850922 -0.0744560956954956 0.04037407040596008 0.08881598711013794 0.003164231777191162 0.028838694095611572 -0.11862869560718536 -0.05656038224697113 0.03878515958786011 -0.07157307863235474 -0.04211530089378357 0.1032537966966629 0.11617302894592285 0.12363158166408539 0.05913126468658447 -0.08721019327640533 0.12138219177722931 0.11843755841255188 0.024146944284439087 -0.030024215579032898 0.07517345249652863 0.04473355412483215 0.06442175805568695 -0.0411657989025116 -0.04478961229324341 -0.08393356204032898 -0.05001963675022125 -0.10625588893890381 0.10626669228076935 -0.08684231340885162 -0.07618004083633423 0.04715241491794586 0.06015495955944061 -0.0361378937959671
0.04364544153213501 -0.05308036506175995 -0.11331616342067719 -0.0806465893983841 -0.006847739219665527 0.11104884743690491 -0.014384478330612183 -0.01789627969264984 0.06757895648479462 -0.06185697019100189 -0.04300136864185333 0.07311718165874481 -0.1179351955652237 -0.061510488390922546 0.06240782141685486 -0.09582577645778656 -0.008934706449508667 -0.10817869007587433 -0.07501690089702606 0.048831820487976074 -0.0579921156167984 0.04633922874927521 0.07352997362613678 0.12439562380313873 -0.11565166711807251 -0.07926484942436218 -0.037280574440956116 -0.033426523208618164 0.05064062774181366 0.0027017593383789062 -0.07215923070907593 0.053733646869659424 -0.003514990210533142 0.07748199999332428 -0.07482267916202545 0.08965031802654266 -0.05921943485736847 0.09446550905704498 0.09451456367969513 -0.02468174695968628 0.09645411372184753 -0.10926656424999237 -0.12373922765254974 -0.06961971521377563 0.027067139744758606 0.06268055737018585 -0.0940120667219162 0.023400068283081055 0.0632110983133316 -0.022934988141059875 0.0599539577960968 0.08738209307193756 0.022588446736335754 0.12272267043590546 -0.1036321371793747 0.1038539707660675 -0.10052114725112915 -0.059842631220817566 0.03501985967159271 0.008006885647773743 -0.11416400969028473 -0.008502542972564697 0.03971971571445465 -0.1060427874326706
-0.1169734001159668 -0.012437492609024048 0.10414397716522217 -0.10725913941860199 0.03287200629711151 -0.08054061233997345 -0.016091838479042053 0.059686675667762756 0.04964478313922882 -0.07884642481803894 0.09647192060947418 -0.11318507790565491 -0.05781950056552887 -0.042115479707717896 -0.0730164647102356 0.06139354407787323 -0.09833458065986633 0.04571688175201416 -0.04413996636867523 0.10632814466953278 0.0274183452129364 -0.00974014401435852 0.12097229063510895 0.10521669685840607 0.04008740186691284 -0.00647987425327301 0.07420974969863892 0.0793992280960083 -0.0016525089740753174 0.0803404152393341 -0.11498573422431946 -0.05192051827907562 0.03782275319099426 -0.015606969594955444 -0.110147625207901 0.11759242415428162 0.026975437998771667 -0.11732104420661926 -0.10054272413253784 -0.11004950106143951 0.10367771983146667 -0.06501443684101105 0.10125263035297394 -0.11961233615875244 -0.05616769194602966 -0.062350258231163025 0.043646350502967834 -0.01443268358707428 0.058677464723587036 -0.03034891188144684 -0.007197707891464233 -0.12072686851024628 0.06143300235271454 -0.03789296746253967 0.1067192405462265 -0.09966853260993958 -0.024845018982887268 0.01570954918861389 0.10144877433776855 -0.04973159730434418 0.030260354280471802 0.08364060521125793 0.05642366409301758 0.11529313027858734
0.04516179859638214 -0.004881471395492554 -0.0938134640455246 0.06478162109851837 -0.09054508805274963 -0.05209857225418091 -0.008914053440093994 -0.08865608274936676 0.013480216264724731 -0.02130228281021118 0.04019525647163391 0.06344233453273773 -0.09333203732967377 0.0866272896528244 0.08785203099250793 0.05034451186656952 0.05063283443450928 0.11102119088172913 0.009995654225349426 0.12080711126327515 0.006991147994995117 -0.02737884223461151 0.11176025867462158 0.02340283989906311 -0.06277288496494293 -0.055895328521728516 0.01549479365348816 -0.0007039755582809448 0.0009501278400421143 -0.06954745948314667 -0.06869639456272125 -0.09701797366142273 -0.019691020250320435 -0.12131749093532562 0.09532575309276581 0.023492619395256042 -0.08364057540893555 0.03494784235954285 -0.0006560385227203369 -0.07898488640785217 -0.023609966039657593 0.001112908124923706 -0.012050852179527283 0.06302408874034882 -0.09330427646636963 0.10641908645629883 0.09878313541412354 -0.005653440952301025 0.0017117112874984741 0.11256289482116699 0.0934007316827774 0.02091483771800995 0.11346130073070526 -0.07224516570568085 -0.07711765170097351 0.058114051818847656 0.10434494912624359 0.08309571444988251 -0.0791797935962677 -0.06530328094959259 0.07859809696674347 -0.049790158867836 0.1156720221042633 -0.08828429877758026
-0.05382484197616577 -0.0010710805654525757 -0.0856461375951767 -0.06817927956581116 0.06469765305519104 0.028633177280426025 -0.05837202072143555 0.052653148770332336 -0.03650985658168793 0.05314728617668152 -0.02438296377658844 0.02458786964416504 0.03884880244731903 0.04913611710071564 0.024354055523872375 0.05515451729297638 -0.013213053345680237 0.05253429710865021 0.08742912113666534 0.06191262602806091 -0.07275404036045074 0.07149139046669006 -0.0021713078022003174 -0.078534334897995 -0.05815218389034271 0.11009769141674042 -0.11855533719062805 -0.07914526760578156 0.1241854578256607 0.12242110073566437 0.07030858099460602 -0.0544314980506897 0.025637969374656677 0.007525578141212463 -0.03874623775482178 -0.09392158687114716 0.06961582601070404 -0.030278295278549194 0.12212507426738739 0.08144745230674744 -0.04569236934185028 0.12118591368198395 -0.07539680600166321 -0.06841674447059631 0.009955927729606628 0.04838813841342926 0.012890517711639404 -0.11325414478778839 -0.051843538880348206 0.0916973203420639 -0.00955142080783844 0.05322311818599701 0.0325784832239151 -0.02326737344264984 0.0988924503326416 -0.04999840259552002 0.05819782614707947 -0.01705680787563324 -0.08044852316379547 -0.0119619220495224 0.11328782141208649 -0.0813215970993042 -0.00943109393119812 -0.06053781509399414
0.1248929351568222 0.10603287816047668 -0.03485512733459473 -0.0027031153440475464 -0.12121403217315674 0.08168962597846985 -0.08712224662303925 -0.018193945288658142 0.08959919214248657 0.01625947654247284 0.012634903192520142 -0.06943121552467346 0.06584133207798004 -0.017412379384040833 -0.05402635037899017 0.11375845968723297 0.009089216589927673 -0.03375241160392761 -0.025713101029396057 -0.045442238450050354 0.033410847187042236 0.0981980413198471 -0.077216237783432 0.10776786506175995 0.07307980954647064 -0.10957345366477966 -0.022731125354766846 -0.010766461491584778 0.0652804970741272 0.016460970044136047 -0.11673338711261749 0.06471893191337585 0.02512522041797638 0.046553835272789 -0.0016821026802062988 -0.11059063673019409 -0.08153548836708069 -0.029157057404518127 -0.004541799426078796 0.046943411231040955 0.09546476602554321 -0.043054088950157166 -0.11679382622241974 -0.04219067096710205 -0.031615227460861206 -0.054334670305252075 -0.07376118004322052 -0.00788852572441101 0.12012331187725067 -0.11420433223247528 0.06873251497745514 0.07050666213035583 -0.06327630579471588 -0.11653299629688263 0.055849120020866394 0.07568901777267456 0.06346152722835541 -0.0891655683517456 -0.04991908371448517 -0.07613848149776459 0.10588058829307556 0.1135558933019638 -0.1093071848154068 -0.016462266445159912
-0.01631680130958557 0.08906446397304535 0.11258886754512787 -0.10449282824993134 -0.040291935205459595 -0.03519622981548309 -0.03169655799865723 -0.06162549555301666 0.11451777815818787 -0.01837855577468872 -0.058396026492118835 0.03959451615810394 0.09959322214126587 0.11209225654602051 0.1035757064819336 0.056666433811187744 0.12120068073272705 0.030955329537391663 0.0642324686050415 -0.07429526746273041 -0.017833024263381958 -0.018389418721199036 -0.04432617127895355 0.11104272305965424 0.05009610950946808 0.042917683720588684 0.016057521104812622 0.04237337410449982 -0.10443902015686035 -0.12087062001228333 0.0784875750541687 0.08882756531238556 -0.06327548623085022 -0.12072764337062836 0.029600799083709717 -0.04534269869327545 0.01744827628135681 -0.03132222592830658 -0.013803571462631226 0.11655876040458679 0.0614829957485199 0.05431684851646423 0.023073330521583557 -0.046697989106178284 0.1004924327135086 -0.019169390201568604 -0.0071293264627456665 0.06918707489967346 0.03702838718891144 0.019473716616630554 -0.02744424343109131 0.019831106066703796 -0.12357360124588013 -0.09163101017475128 0.07232947647571564 -0.08592347800731659 0.05774678289890289 0.10776108503341675 0.025179579854011536 0.11178001761436462 0.06301450729370117 -0.0483231395483017 0.06657801568508148 0.12467962503433228
-0.08457721769809723 -0.1135844886302948 -0.0859660804271698 0.04792095720767975 0.018089786171913147 -0.08296860754489899 0.074831023812294 -0.1235310286283493 0.07829421758651733 0.10727275907993317 0.10031479597091675 -0.020356252789497375 0.05637170374393463 0.057190895080566406 -0.09484976530075073 -0.06891560554504395 0.007605388760566711 0.10372863709926605 0.013295203447341919 0.023058876395225525 -0.0055704861879348755 -0.007966414093971252 0.04294079542160034 0.07599526643753052 0.02918294072151184 0.04428860545158386 0.007514491677284241 -0.007983669638633728 -0.005322158336639404 0.07522204518318176 -0.03860974311828613 -0.07669778168201447 -0.09880046546459198 0.03784945607185364 0.05795133113861084 -0.0026331543922424316 -0.09375599026679993 -0.02049979567527771 -0.03880758583545685 -0.0179135799407959 -0.05367089807987213 -0.1025114357471466 0.06286013126373291 -0.06681002676486969 -0.10545481741428375 -0.07743862271308899 -0.10740742087364197 0.028320729732513428 0.0008666664361953735 -0.0350145548582077 -0.041097626090049744 0.02031777799129486 0.006797283887863159 -0.0560079962015152 -0.06202554702758789 0.00730586051940918 -0.01627005636692047 -0.06946684420108795 -0.007568150758743286 0.07907894253730774 -0.07390080392360687 -0.061061352491378784 -0.04656769335269928 -0.11502005159854889
0.1089697927236557 0.01606181263923645 0.04406075179576874 0.041476860642433167 0.10820619761943817 -0.05681917071342468 0.12157398462295532 0.04038958251476288 0.1189245879650116 0.04395461082458496 -0.02433820068836212 0.0037985295057296753 -0.06518130004405975 0.07785333693027496 -0.09769023954868317 0.0763411670923233 0.12438809871673584 -0.05474650859832764 0.031761571764945984 -0.035996854305267334 0.07303191721439362 0.0874774158000946 -0.05653829872608185 -0.04378640651702881 -0.1152491569519043 0.04419645667076111 -0.017462432384490967 -0.049124568700790405 0.01256851851940155 0.07924593985080719 -0.11403504014015198 -0.06903348863124847 -0.0782846063375473 0.12044423818588257 -0.07659493386745453 0.004506975412368774 -0.06420759856700897 0.048788413405418396 -0.052732303738594055 -0.004853576421737671 -0.07567737996578217 0.10539504885673523 -0.06157524883747101 -0.01357962191104889 -0.07360227406024933 -0.12198813259601593 -0.10474410653114319 0.05344194173812866 0.09355765581130981 0.07909902930259705 -0.11691750586032867 0.059488192200660706 0.09720084071159363 -0.027814552187919617 -0.06874510645866394 0.042940303683280945 0.05130775272846222 -0.10589735209941864 -0.0447615385055542 -0.07850323617458344 -0.019792482256889343 0.05036762356758118 -0.015213176608085632 0.06444226205348969
0.06905880570411682 0.11971236765384674 0.03813102841377258 -0.04745754599571228 -0.024655282497406006 -0.09294681251049042 0.08367955684661865 0.10987819731235504 -0.12157021462917328 0.11965219676494598 -0.07895305752754211 0.1224411278963089 -0.03682640194892883 0.11240608990192413 -0.044183120131492615 0.11347703635692596 0.0438850075006485 -0.11931519210338593 0.08330458402633667 0.029216453433036804 0.05348712205886841 0.05207012593746185 -0.12007468938827515 -0.06933711469173431 0.11961609125137329 -0.04894767701625824 -0.1124921441078186 -0.012667462229728699 0.016454383730888367 0.021105334162712097 0.10847984254360199 0.027465075254440308 0.00862094759941101 -0.008444815874099731 -0.11330009996891022 -0.06380671262741089 0.004265338182449341 -0.0359041690826416 -0.07434585690498352 0.03911645710468292 0.08521930873394012 0.0007954835891723633 -0.06761597096920013 0.08793407678604126 -0.0903722494840622 -0.006274983286857605 -0.09591248631477356 0.0815034955739975 -0.07146088778972626 -0.12103927135467529 0.012789890170097351 0.024439886212348938 0.07939085364341736 0.0482945442199707 -0.016152814030647278 0.001955360174179077 -0.025552138686180115 -0.09985461831092834 0.005416601896286011 0.05459034442901611 -0.07359714806079865 0.07031559944152832 -0.015825912356376648 0.0597623735666275
0.10844159126281738 0.10965046286582947 0.012487545609474182 -0.0543842613697052 0.05524584650993347 -0.06871019303798676 -0.0727640837430954 -0.07410214841365814 0.10837981104850769 -0.04670894145965576 -0.09366226196289062 -0.046517759561538696 -0.11825792491436005 -0.05743098258972168 -0.059757694602012634 0.037219300866127014 -0.05345672369003296 0.005918592214584351 0.10123053193092346 0.09279076755046844 -0.09041926264762878 -0.12165305018424988 -0.09892533719539642 -0.015485182404518127 -0.10351841151714325 -0.10112811625003815 0.10634912550449371 0.056250378489494324 0.06248226761817932 -0.10960493981838226 -0.12467949092388153 0.04061061143875122 -0.04974164068698883 0.10873779654502869 -0.1026117354631424 0.022182032465934753 -0.03749507665634155 0.0006483644247055054 -0.09957994520664215 -0.08182482421398163 0.04251457750797272 0.11689668893814087 0.12191152572631836 0.12179659307003021 0.008701235055923462 -0.08300767838954926 0.08722890913486481 0.009012266993522644 0.12384925782680511 -0.022737309336662292 0.019591957330703735 0.1159832775592804 -0.036735400557518005 0.08204464614391327 0.10603155195713043 -0.014382407069206238 0.09131212532520294 0.12396912276744843 -0.07525326311588287 0.08115169405937195 -0.08317463099956512 0.0743100494146347 0.025291383266448975 0.018388882279396057
-0.11002463102340698 0.1031416654586792 0.10666653513908386 -0.021631211042404175 0.060331791639328 0.0031566321849823 -0.001856297254562378 -0.019831344485282898 -0.044820189476013184 -0.016856759786605835 0.033455610275268555 0.09010487794876099 0.11319586634635925 -0.04229331016540527 -0.058566272258758545 0.07325921952724457 0.005258113145828247 0.08227162063121796 0.11949518322944641 -0.04796174168586731 -0.08004312217235565 -0.08652642369270325 0.05585591495037079 -0.09044961631298065 -0.004731103777885437 -0.015064537525177002 0.0864926427602768 -0.042046964168548584 0.06402496993541718 -0.09379550814628601 -0.09181670844554901 0.10179474949836731 -0.049441561102867126 -0.07960070669651031 -0.09591136872768402 0.003821149468421936 0.09970724582672119 -0.0663096010684967 0.07543212175369263 -0.08776587247848511 -0.015944987535476685 0.1180402934551239 0.05697077512741089 -0.05790969729423523 -0.10261204838752747 -0.004605934023857117 -0.10363365709781647 -0.01865886151790619 -0.07640990614891052 -0.11244507133960724 0.08216787874698639 0.09741619229316711 -0.02672271430492401 0.02702757716178894 0.08739987015724182 -0.10697218775749207 0.11548878252506256 -0.09853750467300415 -0.0073577165603637695 -0.05721507966518402 -0.04992970824241638 -0.0244692862033844 -0.07609102129936218 0.042207688093185425
-0.005946233868598938 -0.10279801487922668 -0.10294696688652039 0.10760027170181274 0.050360649824142456 -0.11067742109298706 -0.06427671015262604 -0.07220952212810516 -0.0629885196685791 -0.020637869834899902 0.04220689833164215 0.05831591784954071 -0.0545307993888855 0.10804495215415955 -0.11978544294834137 0.021111100912094116 -0.03949970006942749 0.011946350336074829 0.12017455697059631 -0.08096691966056824 -0.11902099847793579 0.08311772346496582 -0.08382496237754822 -0.07571934163570404 0.11481504142284393 -0.05963118374347687 0.002618849277496338 0.06450706720352173 -0.10378628969192505 0.09185239672660828 -0.02643139660358429 0.03405751287937164 0.09661318361759186 0.07518495619297028 0.07745401561260223 -0.11782477796077728 0.1077466607093811 -0.03592446446418762 -0.046465516090393066 -0.09621673822402954 -0.06605571508407593 -0.08435425162315369 -0.11174198985099792 -0.05855615437030792 -0.018291637301445007 0.05562180280685425 -0.01345546543598175 -0.037201881408691406 -0.021231770515441895 -0.09843841195106506 -0.08758662641048431 0.11103808879852295 -0.04705309867858887 -0.029454827308654785 0.09942702949047089 0.09412838518619537 0.11056418716907501 0.10894134640693665 -0.1069716066122055 -0.04087109863758087 -0.07100135087966919 -0.026217758655548096 -0.04527875781059265 0.08185827732086182
0.037009671330451965 0.07353509962558746 0.021760761737823486 0.10084767639636993 0.11553235352039337 -0.05260401964187622 0.011614188551902771 -0.08381229639053345 -0.02529086172580719 -0.03575548529624939 -1.8522143363952637e-05 -0.045711949467659 -0.05780184268951416 0.05821460485458374 0.09670639038085938 0.044607460498809814 -0.027164369821548462 -0.116448774933815 -0.09595979750156403 -0.06092505156993866 0.007077127695083618 -0.06366284191608429 -0.09992916882038116 0.01891574263572693 -0.09824830293655396 -0.06227840483188629 0.029682040214538574 -0.05657339096069336 0.011495575308799744 -0.0014288276433944702 -0.005261272192001343 -0.11052848398685455 -0.10873651504516602 -0.028151199221611023 -0.06311805546283722 -0.03295285999774933 -0.023990705609321594 0.10484741628170013 0.0889940857887268 -0.04770416021347046 0.03751589357852936 -0.0910152941942215 -0.09990960359573364 -0.10247062146663666 0.07399702072143555 0.015194907784461975 0.06643450260162354 -0.03337228298187256 0.0454866886138916 0.009123548865318298 -0.11229361593723297 -0.04130364954471588 0.0228365957736969 -0.0016344040632247925 -0.10305887460708618 0.06391055881977081 0.04332256317138672 0.11302609741687775 -0.013715803623199463 0.04900653660297394 0.08057612180709839 0.1068575531244278 -0.06829173862934113 -0.02613389492034912
0.09873466193675995 0.0338481068611145 0.12135298550128937 -0.07637159526348114 -0.06269362568855286 -0.10006068646907806 0.013085737824440002 -0.007609650492668152 0.050405919551849365 0.07579559087753296 0.030245184898376465 0.030645355582237244 -0.010913729667663574 0.0363481342792511 0.056262627243995667 0.09217497706413269 0.08322302997112274 -0.10921043157577515 -0.03804542124271393 0.06871244311332703 0.012958228588104248 -0.04326425492763519 -0.0573430210351944 -0.034580230712890625 0.09908682107925415 0.01608678698539734 0.07451115548610687 0.01047980785369873 -0.07527358829975128 0.046248659491539 -0.04990464448928833 -0.1118333488702774 0.04998566210269928 0.0926201343536377 0.044540390372276306 0.09154826402664185 -0.11170434951782227 0.009832769632339478 -0.06805834174156189 -0.050327569246292114 0.10193772614002228 -0.02492530643939972 -0.05751395225524902 0.05360737442970276 0.010506659746170044 -0.007906034588813782 0.0636707991361618 0.007856488227844238 -0.06885984539985657 0.06106734275817871 0.02749428153038025 -0.0807986706495285 0.10604116320610046 0.12480080127716064 -0.06297042965888977 0.044699251651763916 0.06219020485877991 -0.005173832178115845 -0.06529930233955383 0.003134697675704956 0.06830103695392609 0.004487767815589905 -0.08575630187988281 -0.11908215284347534
-0.0978395938873291 -0.015342026948928833 -0.07896764576435089 0.004771292209625244 -0.09702257812023163 0.09892375767230988 -0.053333550691604614 0.009320557117462158 -0.07580423355102539 -0.12117402255535126 0.08696728944778442 0.03560899198055267 -0.09291326999664307 0.04065854847431183 0.10072368383407593 0.0605243444442749 -0.06279435753822327 -0.053391098976135254 0.01228669285774231 0.03372812271118164 0.08079759776592255 0.002440214157104492 0.10350014269351959 -0.06393557786941528 -0.10208643972873688 0.11401605606079102 -0.1125393807888031 0.10624594986438751 -0.07648502290248871 0.016217052936553955 -0.06994259357452393 0.05267427861690521 -0.12282568216323853 0.0925285816192627 -0.06249311566352844 -0.05699913203716278 0.0033291876316070557 -0.045749351382255554 -0.047228291630744934 -0.1202128529548645 0.05798935890197754 -0.07988281548023224 -0.06618045270442963 0.1116829663515091 -0.02596898376941681 0.1062929630279541 -0.04554322361946106 0.10879531502723694 -0.09246008098125458 0.02660501003265381 -0.07217146456241608 0.0345778614282608 -0.049146369099617004 0.04475516080856323 0.06620369851589203 -0.08865094184875488 0.05362062156200409 0.03593161702156067 -0.04999171197414398 -0.07069748640060425 -0.0786593109369278 -0.06871093809604645 -0.006918579339981079 0.06127209961414337
-0.039693981409072876 0.05673480033874512 -0.09764134883880615 -0.043492212891578674 -0.025670796632766724 0.07686823606491089 0.011425897479057312 -0.09957855939865112 0.09548155963420868 0.10052727162837982 -0.11368903517723083 0.01927788555622101 -0.011119335889816284 0.10776589810848236 0.10839004814624786 0.08492766320705414 -0.10480935871601105 -0.04975484311580658 0.012714505195617676 0.08459421992301941 -0.03687506914138794 -0.025503844022750854 -0.011337041854858398 -0.09657798707485199 0.06689184904098511 0.05220247805118561 -0.10516612231731415 -0.12196584045886993 0.04170942306518555 0.021803081035614014 0.10881483554840088 0.0716978907585144 0.06988959014415741 -0.006343230605125427 0.07500624656677246 -0.08415888249874115 0.060863688588142395 0.06239771842956543 0.007517799735069275 -0.04364314675331116 -0.05262698233127594 0.02258618175983429 -0.08711834251880646 -0.10740348696708679 -0.0936310738325119 0.10230819880962372 -0.055524080991744995 0.09298539161682129 0.05640442669391632 -0.07305870950222015 0.08630190789699554 -0.06849727034568787 -0.09202763438224792 0.04670575261116028 0.09729179739952087 -0.0072356462478637695 0.004093348979949951 0.10976245999336243 0.05338524281978607 -0.09842988848686218 -0.04330568015575409 0.12430323660373688 0.052406832575798035 -0.02260059118270874
0.007162332534790039 0.0328570157289505 0.0592416375875473 0.03602360188961029 -0.07952506840229034 -0.07414264976978302 -0.03750477731227875 -0.06977108120918274 0.04621334373950958 -0.08059525489807129 -0.0586458295583725 -0.032599881291389465 0.06820599734783173 0.10044574737548828 0.10483098030090332 0.05583071708679199 0.061260104179382324 -0.05768556892871857 -0.06354224681854248 0.056042686104774475 0.024807482957839966 -0.09329107403755188 -0.06581960618495941 0.02400420606136322 -0.08237592875957489 0.07803891599178314 0.10010039806365967 -0.053117260336875916 -0.11356183886528015 0.056544914841651917 0.054174184799194336 -0.098390594124794 -0.10862067341804504 -0.07585963606834412 0.10644887387752533 -0.016952410340309143 -0.03823266923427582 0.09936478734016418 0.08978554606437683 -0.07743534445762634 0.007831752300262451 -0.07906495034694672 -0.04545515775680542 -0.09240968525409698 -0.06711924076080322 0.07083511352539062 0.020130664110183716 -0.09521752595901489 0.027079686522483826 0.10864555835723877 0.07163754105567932 -0.10111606121063232 0.08070047199726105 -0.03779241442680359 0.005064293742179871 0.11890126764774323 0.11418062448501587 0.05528588593006134 0.12436617910861969 -0.10391019284725189 0.03492496907711029 -0.054222479462623596 -0.08241187036037445 0.03467710316181183
0.059651583433151245 -0.04935938119888306 0.10052746534347534 0.0003994107246398926 -0.12329241633415222 -0.020022302865982056 -0.04199694097042084 0.08475133776664734 0.09548279643058777 -0.042794376611709595 0.0847359299659729 -0.0952913761138916 0.03693147003650665 -0.02495427429676056 0.11409473419189453 -0.026160597801208496 0.12452198565006256 -0.053365558385849 -0.09809386730194092 -0.033622875809669495 -0.09612923860549927 0.002902805805206299 0.031044647097587585 -0.043921977281570435 0.006943643093109131 0.10763809084892273 -0.06164255738258362 0.07114356756210327 0.02669636905193329 -0.04223579168319702 0.0644361823797226 -0.007596805691719055 -0.08934295177459717 -0.12406347692012787 0.030578508973121643 -0.12393276393413544 -0.026319921016693115 0.014908015727996826 -0.012359008193016052 0.09069003164768219 -0.05956999957561493 0.10851968824863434 -0.04126496613025665 0.10857464373111725 0.02415330708026886 -0.003020763397216797 -0.06608088314533234 -0.12310115993022919 0.03299582004547119 0.09637165069580078 -0.08162093162536621 0.013709023594856262 -0.015853017568588257 0.08518841862678528 -0.015649423003196716 -0.014790207147598267 0.0685456246137619 -0.007105618715286255 -0.11731031537055969 0.029704466462135315 0.04613688588142395 0.028641358017921448 0.10154545307159424 0.013941794633865356
-0.07875768840312958 0.11076448857784271 0.10939037799835205 -0.008468672633171082 0.12460911273956299 -0.00944530963897705 -0.07171812653541565 0.039382413029670715 0.019667387008666992 0.008891880512237549 0.006383135914802551 -0.07069163024425507 -0.10902181267738342 -0.016561120748519897 -0.07978859543800354 -0.10153445601463318 0.010454431176185608 0.06815047562122345 0.05080319941043854 0.014366239309310913 -0.03668138384819031 -0.039484888315200806 -0.10304482281208038 0.08081379532814026 -0.062370628118515015 -0.07255201041698456 0.013932988047599792 0.007625222206115723 0.10566176474094391 0.09802435338497162 -0.10983428359031677 0.021183311939239502 0.005926445126533508 -0.09024195373058319 0.017710313200950623 -0.031513139605522156 -0.03475943207740784 0.01786324381828308 -0.03216077387332916 0.09516845643520355 -0.04265567660331726 -0.12462571263313293 -0.04634493589401245 -0.06915505230426788 -0.061717405915260315 0.11443522572517395 0.028904974460601807 0.09506300091743469 0.06649065017700195 -0.008512631058692932 -0.03522416949272156 -0.032695040106773376 0.0242682546377182 0.0037904828786849976 -0.034668996930122375 0.003914967179298401 0.09323017299175262 -0.01368337869644165 -0.02788664400577545 0.11524799466133118 -0.10702203214168549 0.024893969297409058 0.08999693393707275 -0.0014132410287857056
-0.11878879368305206 -0.04036654531955719 0.058754533529281616 -0.06614100933074951 -0.07231327891349792 0.024551495909690857 0.12486757338047028 0.01703570783138275 0.060141026973724365 -0.10977834463119507 -0.08872967958450317 -0.0678086131811142 -0.006557077169418335 0.04725976288318634 0.060761675238609314 -0.07430024445056915 0.029384136199951172 0.029803603887557983 0.08872978389263153 -0.004672110080718994 0.030926957726478577 0.11047251522541046 -0.04601748287677765 -0.08830107748508453 -0.05497245490550995 0.09311293065547943 0.022435709834098816 -0.05626702308654785 0.054440051317214966 -0.10235679149627686 0.06793959438800812 -0.06924232840538025 0.035134971141815186 -0.12175703048706055 0.10858766734600067 0.11203591525554657 -0.10041342675685883 -0.10266584157943726 0.027417197823524475 -0.07976022362709045 -0.003723159432411194 -0.10866054892539978 0.04777729511260986 0.08708702027797699 0.11562931537628174 0.07170185446739197 0.051283106207847595 -0.07107096910476685 -0.03137388825416565 0.024639233946800232 -0.06658369302749634 -0.04323264956474304 -0.005767539143562317 -0.06702807545661926 0.08039744198322296 0.06189854443073273 0.0574655681848526 -0.027238458395004272 0.024483785033226013 -0.11737456917762756 -0.024560347199440002 0.06295600533485413 -0.09293437004089355 -0.10269074141979218
0.009219512343406677 -0.0014312714338302612 0.05760180950164795 0.12205538153648376 -0.012377619743347168 -0.09090498089790344 -0.02935744822025299 0.04380011558532715 0.09991244971752167 -0.06854823231697083 -0.12055636942386627 0.028177976608276367 0.025618895888328552 -0.04976189136505127 0.08923591673374176 0.09419426321983337 -0.04351387917995453 -0.028211474418640137 0.06597308814525604 0.1142471432685852 0.10105475783348083 0.07479488849639893 -0.12319432199001312 0.08240136504173279 -0.0735088586807251 0.04921601712703705 -0.09973061084747314 0.0172579288482666 0.12408412992954254 0.041231632232666016 0.12343011796474457 0.08182956278324127 0.07034491002559662 -0.03187943994998932 0.025694340467453003 -0.1173676997423172 0.011177897453308105 -0.06365625560283661 -0.02895452082157135 -0.04866984486579895 -0.07108347117900848 0.05813230574131012 -0.00026582181453704834 -0.0134819895029068 0.04476329684257507 0.0028111636638641357 -0.03004246950149536 0.010079443454742432 0.059189572930336 -0.12434497475624084 -0.05544377863407135 -0.06012977659702301 0.03587178885936737 -0.06768620014190674 0.06498545408248901 0.08657710254192352 0.08994416892528534 0.04129396378993988 -0.0646451860666275 -0.002112269401550293 0.01773129403591156 -0.06964477896690369 -0.015426352620124817 0.05348813533782959
0.0008543282747268677 -0.07931794226169586 -0.0359824001789093 0.03616689145565033 -0.004612252116203308 0.009768426418304443 -0.10615552961826324 -0.043867722153663635 -0.017622709274291992 0.04010792076587677 0.0009627938270568848 0.12080810964107513 -0.12325181066989899 -0.12092579901218414 0.03324952721595764 0.08990444242954254 0.1105726808309555 -0.004230767488479614 -0.10319387912750244 -0.07412083446979523 -0.020855680108070374 -0.08852595090866089 -0.048313140869140625 -0.08765619993209839 0.12309648096561432 0.08906012773513794 -0.11211483180522919 -0.09976501762866974 -0.02467954158782959 0.1012779027223587 0.12483087182044983 0.11152130365371704 0.0379323810338974 -0.0026059895753860474 0.10912597179412842 -0.002650842070579529 0.06425456702709198 -0.059593185782432556 -0.06510670483112335 -0.08879140019416809 -0.11338634788990021 -0.11823207139968872 0.09758563339710236 -0.11952251195907593 0.020229950547218323 0.12427854537963867 0.0689602792263031 0.10399095714092255 -0.029849335551261902 0.10450838506221771 -0.00714421272277832 -0.027459219098091125 0.0003317892551422119 0.11063103377819061 0.084834024310112 -0.07444003224372864 0.06519871950149536 -0.007542073726654053 -0.07867243885993958 0.0858335793018341 -0.08226785063743591 -0.05107644200325012 0.00947137176990509 -0.08923082053661346
0.09831148386001587 -0.08072647452354431 -0.10008490085601807 0.019259408116340637 0.04136472940444946 -0.12271076440811157 0.0895492434501648 -0.07464087009429932 -0.0011489540338516235 0.11809563636779785 -0.050889790058135986 0.0423370897769928 0.06428122520446777 0.10660970211029053 -0.07698525488376617 0.11364437639713287 -0.033452779054641724 -0.08876967430114746 0.1010640412569046 -0.07808582484722137 0.02163010835647583 0.09335331618785858 -0.12133139371871948 0.1097480058670044 0.10995933413505554 -0.07754985988140106 -0.09442144632339478 0.10491117835044861 -0.05120643973350525 0.0460054874420166 0.06011436879634857 -0.11596426367759705 -0.04014642536640167 0.06855280697345734 -0.08217504620552063 0.04401718080043793 -0.10903659462928772 -0.11387218534946442 -0.0015590935945510864 -0.10557082295417786 0.11658675968647003 0.06944261491298676 -0.009793594479560852 0.11183337867259979 -0.11255848407745361 -0.08651557564735413 -0.06689238548278809 -0.04259209334850311 0.09732577204704285 -0.08566595613956451 -0.07956372201442719 -0.06807053089141846 0.10680224001407623 0.11958333849906921 0.0403754860162735 0.09604343771934509 -0.016890451312065125 0.10659626126289368 -0.04533912241458893 0.06739208102226257 -0.021731868386268616 0.04380856454372406 -0.07326243817806244 0.01526227593421936
-0.09466227889060974 -0.051674097776412964 -0.09469515085220337 0.037473827600479126 -0.07786114513874054 0.05601978302001953 -0.11901873350143433 -0.016656965017318726 0.03224165737628937 -0.026355430483818054 0.007265821099281311 0.010017290711402893 -0.05898134410381317 -0.035103484988212585 -0.05567517876625061 -0.10243715345859528 0.08067432045936584 -0.010448619723320007 -0.08419093489646912 -0.06386461853981018 0.11707033216953278 0.005784526467323303 -0.03200522065162659 -0.047380730509757996 0.08054430782794952 0.12246929109096527 0.003247275948524475 0.11487200856208801 -0.07689587771892548 0.036715105175971985 -0.08957478404045105 0.0958605706691742 0.12303976714611053 0.10660174489021301 0.0834098756313324 -0.03947468101978302 -0.03315594792366028 0.01071329414844513 -0.034296274185180664 0.0231199711561203 0.03164510428905487 -0.006914615631103516 0.015566796064376831 0.0055614858865737915 0.10712341964244843 0.10412408411502838 -0.1043078750371933 -0.04955697059631348 -0.10803523659706116 -0.04171974956989288 -0.0970747172832489 0.055803507566452026 0.03223060071468353 0.10733292996883392 0.06334559619426727 0.08322519063949585 0.07576458156108856 -0.07909221947193146 0.09883035719394684 0.005052879452705383 -0.07610271871089935 -0.061237871646881104 -0.10950987040996552 -0.006443783640861511
-0.024537712335586548 0.010209232568740845 0.041948720812797546 -0.007822304964065552 -0.07802659273147583 0.019017457962036133 0.07893429696559906 -0.028378203511238098 -0.029367506504058838 -0.0073308199644088745 0.07353490591049194 -0.06717686355113983 -0.02575555443763733 0.004695713520050049 0.11251221597194672 0.01388956606388092 0.038017094135284424 0.03308907151222229 0.06035618484020233 -0.08471451699733734 0.04710760712623596 -0.056117430329322815 0.08721886575222015 -0.12137871980667114 0.05120250582695007 0.004122421145439148 0.04708343744277954 -0.08064611256122589 -0.09195505082607269 0.08087754249572754 -0.09800243377685547 0.0015791207551956177 -0.08017931878566742 -0.07131347060203552 -0.03972238302230835 0.01182827353477478 0.03242669999599457 -0.017850279808044434 -0.07418778538703918 -0.041677579283714294 -0.06802169978618622 -0.05546249449253082 -0.05791190266609192 -0.05012078583240509 -0.12133915722370148 0.006596580147743225 0.10062038898468018 -0.0002808570861816406 -0.09730270504951477 0.06745153665542603 -0.1030936986207962 0.053591445088386536 0.11357109248638153 -0.039381444454193115 0.07741302251815796 0.11561347544193268 -0.09467016160488129 -0.016600072383880615 0.10504673421382904 0.0029468685388565063 -0.06734791398048401 -0.1008274257183075 0.034545138478279114 -0.0973808765411377
0.048201337456703186 -0.0013367235660552979 -0.02229990065097809 0.08630591630935669 -0.08612954616546631 0.11255288124084473 -0.12444852292537689 0.020314574241638184 0.016114741563796997 0.053449273109436035 -0.00898607075214386 -0.06373031437397003 0.07791820168495178 -0.04883590340614319 0.04284776747226715 0.034249499440193176 -0.1125263124704361 0.07108360528945923 -0.08704881370067596 -0.017567172646522522 -0.04856228828430176 0.10564842820167542 0.013597369194030762 -0.07808095216751099 -0.09037628769874573 0.021569713950157166 -0.04669278860092163 -0.06098213791847229 -0.089704230427742 -0.0045377761125564575 0.08149886131286621 -0.10802207887172699 0.08996511995792389 -0.02977992594242096 -0.11182479560375214 -0.10769860446453094 0.11644770205020905 0.0031064897775650024 0.12382395565509796 0.1124916672706604 -0.06566838920116425 -0.032229602336883545 0.020208388566970825 0.07933223247528076 -0.02499479055404663 -0.05238993465900421 0.09379301965236664 0.017316654324531555 -0.08451429009437561 -0.02679528295993805 -0.03026367723941803 0.1081947386264801 0.08374443650245667 -0.06756822764873505 -0.107585608959198 -0.06317561864852905 0.007012009620666504 -0.07004168629646301 -0.060259848833084106 0.07418996095657349 0.10145777463912964 -0.09470081329345703 0.08313654363155365 -0.02754385769367218
-0.038431569933891296 -0.0347931832075119 0.05585944652557373 -0.08932429552078247 0.05208507180213928 0.11270168423652649 0.08896014094352722 -0.05789250135421753 -0.035170361399650574 -0.11020483076572418 -0.04018546640872955 -0.006498470902442932 0.11787454783916473 0.051596105098724365 0.09493891894817352 -0.06001773476600647 -0.037849873304367065 0.10958731174468994 -0.019658252596855164 0.06173966825008392 -0.11582417786121368 -0.018682420253753662 -0.05129899084568024 0.12272803485393524 0.040764614939689636 -0.11125276982784271 0.032394975423812866 -0.06653091311454773 -0.02422414720058441 0.08063548803329468 -0.0759975016117096 0.05624273419380188 0.03651517629623413 0.10722342133522034 0.08849227428436279 -0.060330793261528015 0.08913679420948029 -0.12108215689659119 0.016101136803627014 -0.017122268676757812 -0.08473210036754608 0.034132689237594604 -0.04204048216342926 0.047174498438835144 -0.03712831437587738 0.06551718711853027 -0.05530636012554169 -0.06537136435508728 0.03744490444660187 0.05401434004306793 0.08562761545181274 0.007828906178474426 0.07231660187244415 -0.06550900638103485 -0.0894123911857605 -0.021960675716400146 0.06796979904174805 0.005607619881629944 0.059610992670059204 -0.08555614948272705 -0.10916398465633392 -0.034795165061950684 -0.0480528324842453 0.010108783841133118
-0.06946362555027008 0.09089449048042297 -0.042347028851509094 0.04986698925495148 0.024749115109443665 -0.07222007215023041 0.050862520933151245 -0.06969581544399261 -0.03636808693408966 -0.06850811839103699 0.05742262303829193 -0.024595916271209717 0.11619941890239716 0.03082960844039917 -0.06900684535503387 -0.021363094449043274 -0.024024322628974915 -0.0855332612991333 0.08453398942947388 -0.09078817069530487 -0.0016584545373916626 -0.11762084066867828 -0.08160310983657837 -0.12107734382152557 -0.00421103835105896 0.06191323697566986 -0.044373154640197754 0.0902618020772934 0.11335650086402893 -0.021039366722106934 -0.06694100797176361 -0.03645332157611847 0.0035036951303482056 0.10979697108268738 -0.06130629777908325 -0.0324392169713974 -0.11850020289421082 0.1198493093252182 -0.06474839150905609 -0.08284814655780792 0.02004075050354004 0.03695040941238403 0.06534677743911743 0.021514251828193665 0.08389104902744293 -0.07955889403820038 -0.03742939233779907 0.0046007633209228516 0.040663108229637146 0.042513877153396606 0.021446332335472107 -0.09546373784542084 0.04075637459754944 -0.004498988389968872 -0.1036795973777771 -0.05993835628032684 0.10207816958427429 0.020317241549491882 0.013958558440208435 0.09397390484809875 0.0173322856426239 0.04844991862773895 -0.0815526694059372 0.03175997734069824
0.0478651225566864 -0.024376869201660156 -0.04485329985618591 0.05109745264053345 0.11417451500892639 0.01300056278705597 0.035523101687431335 -0.04404355585575104 0.07315719127655029 0.11192294955253601 0.006700173020362854 0.05866082012653351 -0.06057506799697876 0.08100029826164246 -0.07030335068702698 0.0957636833190918 0.0604516863822937 -0.011680886149406433 0.05320684611797333 0.06068488955497742 -0.008230984210968018 -0.10539045929908752 -0.1101042628288269 -0.11470869183540344 0.002707451581954956 0.08681201934814453 0.09785839915275574 -0.04719282686710358 -0.06168770790100098 -0.006949380040168762 0.026911765336990356 -0.057605013251304626 -0.032428279519081116 -0.10700282454490662 -0.02114155888557434 -0.03218516707420349 -0.012042537331581116 0.07216835021972656 0.05245712399482727 0.10257096588611603 -0.005927532911300659 -0.04345192015171051 0.0046354979276657104 0.03570707142353058 -0.04648773372173309 -0.0489097535610199 -0.0679474025964737 -0.06301113963127136 -0.06739208102226257 -0.023806124925613403 -0.045403555035591125 -0.002673208713531494 0.029552951455116272 0.058489203453063965 0.09851038455963135 -0.04233767092227936 -0.07097950577735901 -0.0641118586063385 -0.013682812452316284 0.004648879170417786 -0.03364139795303345 -0.11790655553340912 0.009033247828483582 -0.12272702157497406
-0.11492933332920074 -0.08082042634487152 0.08295644819736481 0.08708146214485168 0.050257906317710876 0.11946676671504974 -0.02137047052383423 0.12083572149276733 -0.020170480012893677 -0.008853137493133545 -0.039028674364089966 0.027613669633865356 -0.035460084676742554 -0.02407747507095337 0.11619739234447479 -0.09824013710021973 -0.043161436915397644 -0.11695665121078491 0.05710287392139435 0.08341120183467865 -0.046640828251838684 -0.017448440194129944 -0.04983764886856079 0.10331304371356964 -0.04864421486854553 -0.05974361300468445 -0.040622130036354065 0.1060805469751358 -0.031128838658332825 -0.02553345263004303 -0.015339702367782593 0.09201875329017639 -0.017562314867973328 0.02676337957382202 -0.09237253665924072 0.08131277561187744 -0.013379707932472229 -0.03884696960449219 0.02868078649044037 -0.06921246647834778 0.024447575211524963 0.005683794617652893 -0.11737361550331116 -0.07786940038204193 -0.09473885595798492 0.10886222124099731 0.07623013854026794 -0.06701873242855072 0.09946919977664948 -0.004737287759780884 -0.11606274545192719 -0.04896192252635956 0.013242200016975403 -0.1171124279499054 -0.10654115676879883 0.03928825259208679 -0.027750641107559204 0.01168753206729889 -0.004550814628601074 -0.005319610238075256 0.07314212620258331 0.01990671455860138 0.02410884201526642 0.07801587879657745
0.09301935136318207 -0.12096185982227325 -0.027542591094970703 0.0508551299571991 -0.05673627555370331 -0.05647249519824982 0.11907617747783661 0.09743595123291016 0.030479148030281067 -0.056291788816452026 -0.07640914618968964 0.004135429859161377 0.054620951414108276 0.05645763874053955 0.09496623277664185 0.05567023158073425 -0.057805463671684265 -0.09548021852970123 -0.036098554730415344 -0.07038074731826782 0.07605712115764618 0.028925493359565735 -0.08213338255882263 -0.019862160086631775 -0.0991380363702774 -0.018391013145446777 0.04226326942443848 0.001990601420402527 -0.10956090688705444 0.036591753363609314 0.006111621856689453 -0.08253169059753418 -0.09492859244346619 0.009582310914993286 0.12459376454353333 -0.07363854348659515 0.04762594401836395 -0.06495681405067444 0.06814359128475189 -0.02173110842704773 0.08424244821071625 -0.09903119504451752 0.10470041632652283 -0.034765809774398804 0.012600138783454895 0.08979368209838867 -0.09293271601200104 -0.09982094168663025 -0.1032099574804306 -0.0731174498796463 0.09791472554206848 0.03599885106086731 -0.0855184942483902 0.05344480276107788 -0.022542983293533325 -0.08497120440006256 0.0488671213388443 0.0710589587688446 -0.02533036470413208 -0.06275461614131927 0.09531906247138977 0.06617160141468048 0.06954190135002136 -0.04210342466831207
0.07412707805633545 -0.09103035926818848 0.05836367607116699 0.05641074478626251 -0.06052105128765106 0.02546052634716034 0.07728365063667297 0.024684712290763855 -0.06183885037899017 -0.04127393662929535 -0.08689053356647491 -0.09777434170246124 -0.018594250082969666 -0.09159865975379944 -0.0030287206172943115 0.09009470045566559 0.02209603786468506 -0.006249964237213135 0.1140504777431488 0.006509125232696533 -0.07933934032917023 0.031516432762145996 0.1031712144613266 0.009874731302261353 0.07688921689987183 0.10442233085632324 -0.06110967695713043 -0.06850630044937134 0.045261532068252563 -0.09155048429965973 -0.12406463921070099 0.04338972270488739 0.12002280354499817 -0.024693116545677185 -0.006749764084815979 -0.10230669379234314 -0.044428080320358276 -0.015491172671318054 0.09722864627838135 -0.06695052981376648 0.08301040530204773 -0.0735112875699997 -0.01203148066997528 0.123995840549469 0.068516805768013 0.02626502513885498 -0.08537133038043976 0.02665753662586212 -0.0038997381925582886 0.08764483034610748 -0.0960814505815506 -0.1136724054813385 0.07776600122451782 0.03162065148353577 0.0028464049100875854 0.06730568408966064 0.02637508511543274 -0.0054557472467422485 0.08878497779369354 0.11692014336585999 0.123130202293396 0.028123930096626282 -0.07923911511898041 0.08810988068580627
0.0819661021232605 -0.061202019453048706 0.08058537542819977 -0.06872299313545227 0.07746455073356628 -0.05937756597995758 -0.10165365040302277 0.10725905001163483 0.0742599368095398 -0.04864762723445892 0.015613824129104614 -0.00584295392036438 0.08789408206939697 0.06643824279308319 0.009858042001724243 -0.08596625924110413 0.0020466148853302 -0.12194308638572693 0.09816709160804749 0.10803362727165222 0.06526023149490356 0.11091698706150055 -0.078707754611969 0.0644313395023346 -0.10623238980770111 -0.10635212063789368 -0.04232442378997803 0.11461369693279266 -0.0207558274269104 -0.09713269770145416 -0.09237061440944672 0.1142922192811966 0.015772193670272827 -0.005378395318984985 0.06494024395942688 -0.12366853654384613 0.06860940158367157 0.12109395861625671 0.06387905776500702 -0.057876765727996826 0.045561760663986206 0.0083475261926651 -0.05854135751724243 0.1124916523694992 0.017450973391532898 0.07520206272602081 -0.02949105203151703 0.06570270657539368 0.101048544049263 -0.07529845833778381 0.04690949618816376 0.028630554676055908 0.04110744595527649 -0.07974168658256531 0.09363371133804321 0.04698842763900757 -0.052253350615501404 -0.08461694419384003 0.0869031548500061 -0.010639026761054993 -0.09690231084823608 0.037444472312927246 0.04226793348789215 -0.0607328861951828
-0.04621268808841705 0.07531553506851196 -0.06127391755580902 -0.11982613801956177 -0.0434439480304718 -0.0930941104888916 0.025223329663276672 0.006787344813346863 -0.1106557697057724 -0.014628931879997253 -0.1201198399066925 0.02585691213607788 -0.04503531754016876 -0.01554669439792633 -0.11124776303768158 -0.05991663038730621 -0.11175990104675293 0.07739266753196716 -0.06085783243179321 0.08090412616729736 0.10840469598770142 -0.011246845126152039 -0.054061561822891235 -0.11117778718471527 0.0735168606042862 0.10146799683570862 -0.05974841117858887 -0.11577153205871582 0.022924453020095825 0.07707475125789642 -0.10525672137737274 0.04342086613178253 0.08943082392215729 -0.10583393275737762 -0.0656270980834961 -0.03447765111923218 -4.1857361793518066e-05 0.06271094083786011 -0.0559028685092926 0.045854002237319946 -0.023909464478492737 0.013053864240646362 0.035519763827323914 0.020927801728248596 -0.0447922945022583 0.0943165272474289 0.07711385190486908 0.1173727959394455 -0.05935414135456085 0.06012657284736633 -0.0044470131397247314 0.09036736190319061 0.11771649122238159 -0.05186416208744049 -0.06117944419384003 0.1030672937631607 0.09933122992515564 -0.07541772723197937 0.00741925835609436 0.09747394919395447 -0.095985546708107 0.006437629461288452 0.057664453983306885 0.07216398417949677
-0.11553625762462616 0.09536813199520111 -0.014076009392738342 0.056603074073791504 0.07602441310882568 -0.06962844729423523 -0.08772046864032745 -0.08533960580825806 -0.10885117948055267 0.00014238059520721436 -0.03785005211830139 -0.026804283261299133 0.07103811204433441 -0.09927892684936523 -0.08228997886180878 0.07208651304244995 -0.11693492531776428 -0.0732257068157196 0.08332529664039612 -0.12088437378406525 -0.03889620304107666 -0.10730043053627014 0.038371384143829346 0.0678182989358902 -0.04086531698703766 -0.0665607899427414 0.0319264680147171 0.0821179747581482 0.019561767578125 0.009473547339439392 0.09438943862915039 -0.017635270953178406 0.00630459189414978 0.012217193841934204 0.01608489453792572 0.0868830531835556 -0.09317682683467865 0.046101123094558716 -0.03341898322105408 0.024882271885871887 0.06533756852149963 -0.08159326016902924 -0.018209591507911682 0.06327074766159058 0.0846283882856369 -0.030894264578819275 -0.036591529846191406 -0.07958951592445374 -0.077241912484169 0.07500733435153961 0.06835828721523285 -0.0788215696811676 -0.09235769510269165 0.07323028147220612 0.07459284365177155 -0.11727330088615417 0.10933828353881836 0.006098836660385132 -0.1019146740436554 0.01287078857421875 0.07320265471935272 0.104893758893013 -0.06110692024230957 -0.10023228824138641
-0.0813542902469635 0.061939820647239685 -0.11147987842559814 0.05704417824745178 -0.12423968315124512 0.06644290685653687 -0.09889984130859375 0.05231602489948273 -0.04609905183315277 0.08631287515163422 -0.05589595437049866 -0.08935514092445374 0.021225959062576294 -0.09708230197429657 -0.030426084995269775 -0.04990057647228241 0.09486587345600128 0.06781898438930511 0.00994408130645752 0.004523709416389465 0.013753294944763184 -0.083134725689888 -0.0036798864603042603 -0.09813594818115234 -0.04152575135231018 -0.09748521447181702 -0.11645668745040894 0.030408337712287903 0.09496696293354034 -0.05675680935382843 0.03798006474971771 0.08609947562217712 0.11296822130680084 0.11851952970027924 0.013090595602989197 0.07861034572124481 -0.12105074524879456 0.09024694561958313 -0.0061006247997283936 0.048010051250457764 0.11828495562076569 0.117369145154953 -0.012256309390068054 0.03986714780330658 0.026332005858421326 0.028460785746574402 -0.1168801486492157 -0.07792551815509796 -0.10572335124015808 -0.1058131605386734 -0.08489492535591125 -0.08437545597553253 0.005952909588813782 -0.07701237499713898 0.07017120718955994 -0.12203012406826019 0.10834617912769318 -0.019763454794883728 -0.044149115681648254 -0.03276991844177246 0.10868038237094879 0.11718907952308655 0.004889070987701416 -0.06148606538772583
0.10525763034820557 -0.023169204592704773 0.03416895866394043 0.04797087609767914 0.006423696875572205 0.09630751609802246 -0.049377068877220154 0.04367204010486603 0.020189225673675537 -0.03815552592277527 0.09776762127876282 -0.07357560098171234 0.11906494200229645 -0.06388869881629944 -0.11460466682910919 0.09763556718826294 0.026968717575073242 -0.041159823536872864 -0.04953987896442413 -0.011032402515411377 0.1242000013589859 0.12426331639289856 0.08243434131145477 -0.01149238646030426 -0.11912210285663605 -0.11746139824390411 -0.12013889849185944 0.003629744052886963 0.10675175487995148 0.0739479511976242 -0.052092939615249634 -0.055306121706962585 -0.059566110372543335 -0.04388275742530823 -0.006461426615715027 -0.006688430905342102 -0.0965602844953537 0.1079069972038269 0.1186261922121048 -0.09123630821704865 -0.025749802589416504 -0.004336029291152954 0.08914190530776978 -0.06441286206245422 0.017780691385269165 -0.008496105670928955 -0.08367259800434113 0.07064688205718994 -0.0854860246181488 -0.002563565969467163 0.06160622835159302 0.02626807987689972 0.07490517199039459 -0.04263828694820404 -0.09355190396308899 0.0671597272157669 -0.019875705242156982 -0.0665883719921112 0.027819320559501648 0.10596325993537903 0.07012864947319031 -0.11564424633979797 0.007735520601272583 0.06342288851737976
0.018865227699279785 -0.03058503568172455 -0.12381379306316376 0.08694493770599365 0.11857813596725464 0.10973979532718658 0.11721089482307434 -0.01097753643989563 0.06047610938549042 0.12367984652519226 -0.030460938811302185 0.1160573959350586 -0.060744330286979675 0.06714481115341187 -0.06703752279281616 0.04445521533489227 -0.026191800832748413 0.07683169841766357 0.0600895881652832 -0.12472948431968689 -0.04802009463310242 -0.06770555675029755 0.11030735075473785 -0.1092623919248581 -0.11998197436332703 0.010255038738250732 -0.07499173283576965 -0.09375382959842682 -0.02428571879863739 0.09033703804016113 0.04489417374134064 -0.0506315678358078 0.07143904268741608 0.0015324801206588745 -0.1173904687166214 0.07751888036727905 0.12153923511505127 0.08732135593891144 0.03698928654193878 -0.10264772176742554 0.048482999205589294 0.08554095029830933 0.007319852709770203 0.0020885467529296875 0.029121145606040955 -0.07241971790790558 -0.07093772292137146 -0.038582295179367065 0.017970189452171326 -0.060808658599853516 -0.10787966847419739 0.022931009531021118 -0.0631307065486908 0.11777152121067047 0.09665927290916443 0.06981459259986877 0.0241430401802063 -0.03488042950630188 0.11002564430236816 -0.021395578980445862 -0.10668441653251648 -0.11825597286224365 -0.12046603858470917 0.014964073896408081
0.015391677618026733 -0.053408265113830566 0.018114954233169556 -0.08773280680179596 -0.05348367989063263 -0.057158589363098145 -0.003008604049682617 -0.09705398976802826 0.013809457421302795 0.10449476540088654 0.06073908507823944 0.1040654182434082 0.026276037096977234 -0.115298330783844 -0.009869694709777832 0.11898988485336304 0.05859507620334625 0.11386789381504059 -0.10143427550792694 -0.05916687846183777 -0.04082050919532776 -0.05493973195552826 0.0442160964012146 -0.07114103436470032 -0.09854048490524292 0.08212593197822571 0.1028808057308197 0.06623797118663788 -0.096605584025383 0.004789143800735474 0.004207804799079895 -0.057350531220436096 -0.09800109267234802 0.03377245366573334 -0.005681678652763367 -0.08662322163581848 0.05508500337600708 -0.04333390295505524 -0.009639203548431396 -0.04567359387874603 0.07124581933021545 -0.033988744020462036 0.11386971175670624 0.01376621425151825 -0.013784214854240417 -0.1037040501832962 -0.10764564573764801 -0.08823651075363159 -0.060476019978523254 -0.10712970793247223 0.04947568476200104 -0.0050227344036102295 -0.09403455257415771 -0.043116748332977295 -0.06585915386676788 -0.08134254813194275 0.0036164075136184692 0.0879906713962555 -0.02668885886669159 0.11356784403324127 -0.09699386358261108 0.028638824820518494 0.09386038780212402 -0.04398970305919647
-0.1042882651090622 -0.1033821851015091 0.08066631853580475 -0.09265531599521637 0.07904192805290222 0.06462828814983368 0.09010502696037292 -0.12474934756755829 -0.10658775269985199 -0.06396040320396423 0.059270069003105164 -0.07867799699306488 0.0074197351932525635 -0.09755842387676239 0.10206152498722076 0.07547861337661743 0.06141290068626404 0.034273043274879456 -0.011211574077606201 -0.008575096726417542 0.09866535663604736 -0.03506055474281311 -0.0811501294374466 -0.08250628411769867 0.07010212540626526 0.012279361486434937 0.03342066705226898 0.12315797805786133 0.07086072862148285 0.025914594531059265 0.05343849956989288 0.04252439737319946 -0.050949662923812866 0.10733918845653534 -0.06311409175395966 -0.01319192349910736 0.06537103652954102 0.015110969543457031 0.08433765172958374 -0.06088709831237793 0.12030957639217377 0.05705556273460388 -0.08431798219680786 -0.07920394837856293 0.0363314151763916 -0.05877973139286041 0.043180763721466064 0.004258006811141968 0.11007088422775269 -0.12003785371780396 0.1194334328174591 -0.10574094951152802 -0.07326492667198181 -0.10857513546943665 -0.12383012473583221 -0.05971236526966095 0.05034078657627106 0.11263053119182587 0.05148583650588989 -0.11146867275238037 -0.0913766473531723 -0.028411731123924255 0.06916576623916626 0.0994916558265686
0.08735743165016174 0.09763459861278534 0.08334088325500488 0.027309894561767578 -0.002422630786895752 -0.008522048592567444 -0.07760351896286011 -0.07229599356651306 0.04216451942920685 -0.0262090265750885 -0.07265020906925201 -0.12358471751213074 -0.03929223120212555 0.03913581371307373 0.09584327042102814 -0.10746829211711884 0.060445636510849 0.11445324122905731 0.09642697870731354 0.05560988187789917 -0.02587127685546875 0.06156328320503235 -0.12069836258888245 -0.033067867159843445 -0.11560934782028198 -0.03262700140476227 -0.05068767070770264 0.06354522705078125 0.018991515040397644 -0.04545636475086212 -0.04992477595806122 -0.005770295858383179 0.07394754886627197 0.05626058578491211 -0.026213958859443665 -0.06820660829544067 -0.07058364152908325 0.05113521218299866 -0.060860320925712585 0.01277153193950653 0.061072662472724915 -0.005865082144737244 -0.08821409940719604 -0.07886216044425964 0.017122656106948853 0.12273669242858887 0.00880180299282074 -0.040956541895866394 0.09527219831943512 0.03298540413379669 0.010640174150466919 -0.0012469440698623657 -0.08729279041290283 0.08556775748729706 0.06609559059143066 0.09834468364715576 0.005324423313140869 0.004867255687713623 0.04226785898208618 -0.008530810475349426 0.08468538522720337 0.03156781196594238 0.03769990801811218 -0.11857399344444275
0.04735580086708069 0.037142202258110046 -0.08789318799972534 -0.05280101299285889 0.06812980771064758 0.10968327522277832 -0.11089062690734863 0.09967495501041412 0.06636069715023041 0.06649753451347351 0.12346707284450531 0.11037370562553406 0.050565630197525024 0.09505407512187958 -0.06204640865325928 -0.007656082510948181 -0.11392883956432343 0.05102239549160004 -0.06784467399120331 0.06817686557769775 -0.0036401450634002686 0.11373017728328705 0.031198352575302124 0.01966482400894165 -0.048329710960388184 -0.04162491858005524 0.07210083305835724 -0.047936514019966125 -0.058844342827796936 0.09834440052509308 0.06841790676116943 0.107993483543396 0.05154654383659363 -0.08677412569522858 -0.11671143770217896 -0.09666977822780609 -0.03439156711101532 -0.11335907876491547 -0.036784231662750244 -0.10504306852817535 -0.05661606788635254 0.04432748258113861 0.039170846343040466 -0.10983975231647491 -0.041711047291755676 0.08323723077774048 -0.0906396359205246 -0.046285927295684814 -0.049697816371917725 0.009912610054016113 -0.049676403403282166 -0.055591702461242676 0.03859184682369232 0.10802148282527924 0.08051338791847229 -0.06002442538738251 0.04155914485454559 -0.04556199908256531 -0.1075529158115387 -0.12180428206920624 0.10954836010932922 -0.09353482723236084 0.012701734900474548 0.027489125728607178
-0.024729520082473755 -0.07014782726764679 0.055933624505996704 0.1210477352142334 -0.04587887227535248 0.013040930032730103 0.043236374855041504 0.028210505843162537 -0.09356382489204407 0.1139095276594162 -0.011198952794075012 0.029995620250701904 -0.028348147869110107 0.1248326301574707 -0.02432316541671753 -0.03110705316066742 -0.06776732206344604 -0.06300801038742065 -0.11653730273246765 0.08667470514774323 0.07230891287326813 0.021680131554603577 0.12113392353057861 0.11694848537445068 -0.05272325873374939 0.007808491587638855 0.038699597120285034 0.03920567035675049 0.06431971490383148 -0.0034201890230178833 -0.04461026191711426 -0.01783062517642975 -0.025658294558525085 0.07491876184940338 -0.023008674383163452 -0.05851320922374725 -0.08498905599117279 -0.028158128261566162 -0.010447829961776733 0.03926199674606323 0.021453574299812317 0.11338038742542267 0.08021073043346405 0.07929326593875885 -0.05070389807224274 -0.07156012952327728 -0.0968138724565506 -0.01764838397502899 -0.10369592905044556 -0.019714295864105225 0.0795089602470398 -0.05930417776107788 0.010501474142074585 -0.04464346170425415 -0.009704500436782837 -0.12288737297058105 -0.035822898149490356 0.12481701374053955 0.008454740047454834 -0.12287473678588867 -0.030330181121826172 0.08112218976020813 -0.087794229388237 -0.11476209759712219
0.09920631349086761 0.03189872205257416 -0.002252832055091858 0.10297198593616486 -0.056990429759025574 -0.12299716472625732 -0.11031492054462433 0.12372396886348724 -0.12398989498615265 0.12442812323570251 -0.1127130538225174 -0.004107058048248291 0.11702278256416321 -0.0961826890707016 -0.0918446034193039 -0.09944181144237518 -0.03938741981983185 -0.0010898411273956299 0.09184397757053375 -0.014303207397460938 0.1245928555727005 0.02715742588043213 -0.000906720757484436 -0.03102564811706543 0.07952046394348145 0.04800248146057129 -0.10443389415740967 -0.08243905007839203 -0.020576104521751404 -0.014419525861740112 0.08857600390911102 -0.05244673788547516 -0.12201143801212311 -0.010853990912437439 0.029938697814941406 -0.032308176159858704 0.1192411482334137 -0.025972679257392883 0.04770711064338684 -0.04496060311794281 -0.0656939297914505 -0.09711332619190216 -0.10071446001529694 0.045003846287727356 -0.04993656277656555 -0.11729790270328522 0.12462963163852692 0.035608112812042236 -0.10167604684829712 0.05016244947910309 0.04092384874820709 -0.1237228512763977 0.10511104762554169 -0.11751101911067963 -0.025099143385887146 -0.02262340486049652 0.04033204913139343 -0.08347873389720917 0.047155722975730896 0.06385917961597443 -0.10234715044498444 0.024057120084762573 0.0943368524312973 -0.09416313469409943
0.0011499077081680298 -0.0339755117893219 -0.0779801458120346 0.010796874761581421 -0.011027425527572632 0.035632312297821045 -0.048134371638298035 0.08096855878829956 0.0941302627325058 -0.09687048196792603 -0.0005306750535964966 0.07060031592845917 0.040653616189956665 0.12074063718318939 0.08257989585399628 0.04658886790275574 0.03757111728191376 0.04826754331588745 -0.09340542554855347 0.09775550663471222 0.06598365306854248 -0.10466930270195007 -0.011293172836303711 0.015574082732200623 -0.08642145991325378 -0.05304889380931854 -0.11525444686412811 -0.11967624723911285 0.030659422278404236 -0.0032598525285720825 0.10672323405742645 -0.09871986508369446 0.019228696823120117 -0.09097997844219208 -0.10710106790065765 -0.0933099240064621 -0.11636757850646973 0.06080308556556702 0.007369324564933777 -0.051160022616386414 -0.031071558594703674 -0.021045848727226257 -0.041622087359428406 -0.09434853494167328 -0.05571673810482025 -0.04558245837688446 -0.1053241640329361 0.05211895704269409 0.0380532443523407 0.01854945719242096 -0.10565900802612305 0.05400314927101135 0.06962676346302032 0.07353202998638153 0.04994405806064606 0.09250493347644806 0.05855460464954376 -0.05437861382961273 0.11080387234687805 0.0755104273557663 -0.06311172246932983 0.11768035590648651 -0.10565169155597687 0.058518022298812866
0.11209192872047424 -0.032371968030929565 -0.10527203977108002 -0.10186083614826202 -0.06663046777248383 0.006019279360771179 -0.013942703604698181 -0.06819622218608856 -0.09180839359760284 -0.0970018059015274 0.009861528873443604 -0.0898667722940445 -0.040802642703056335 0.02733863890171051 0.10310867428779602 -0.07844097912311554 0.023226678371429443 0.06528608500957489 -0.019379422068595886 -0.10521148145198822 0.065415158867836 0.0950438529253006 0.023333489894866943 0.03683735430240631 -0.08314540982246399 0.10538554191589355 -0.09957730770111084 -0.04680591821670532 -0.10995784401893616 0.02739626169204712 -0.023645669221878052 -0.1087249368429184 -0.007715493440628052 -0.11204665899276733 0.024453341960906982 0.030108004808425903 0.07219558954238892 -0.12330187857151031 0.10174298286437988 -0.027998119592666626 -0.042392000555992126 -0.04098956286907196 0.07082559168338776 0.05859281122684479 0.03933964669704437 0.0026844292879104614 0.04385720193386078 -0.04355691373348236 -0.08101853728294373 0.05516408383846283 -0.05713111162185669 -0.1086655706167221 -0.05084937810897827 -0.048618704080581665 0.06670504808425903 -0.10755142569541931 0.03373764455318451 -0.027051761746406555 -0.024264350533485413 0.10348094999790192 0.050234004855155945 0.028158068656921387 -0.049575597047805786 -0.022251516580581665
0.03677532076835632 0.11651009321212769 -0.019877582788467407 0.1196904182434082 0.027739927172660828 0.09113657474517822 -0.06613770127296448 -0.02378465235233307 0.004670679569244385 -0.06621791422367096 -0.016558557748794556 -0.1229405552148819 -0.10176138579845428 0.11709918081760406 0.12115336954593658 -0.09577479958534241 0.09679217636585236 -0.058912456035614014 0.1234237402677536 0.12164464592933655 0.11566068232059479 0.0817737728357315 -0.10303670167922974 -0.11677351593971252 0.0682506114244461 -0.008189216256141663 0.05994890630245209 -0.06000354886054993 -0.03347252309322357 0.006113260984420776 0.05487971007823944 0.09430325031280518 0.11837725341320038 -0.07614511251449585 -0.06946620345115662 0.10321123898029327 0.03872710466384888 -0.06905311346054077 -0.11883360147476196 0.02656431496143341 -0.12357653677463531 -0.0001977682113647461 0.05945734679698944 -0.09341733157634735 0.08103601634502411 -0.10602502524852753 0.07337316870689392 -0.08657264709472656 -0.08636994659900665 -0.06421089172363281 0.03125520050525665 0.12226581573486328 -0.089479461312294 -0.0944155603647232 0.04970383644104004 -0.08771805465221405 -0.0006005764007568359 -0.012793466448783875 -0.064032182097435 0.0864916443824768 0.11181482672691345 0.09625506401062012 0.06343331933021545 -0.09614235162734985
-0.017225265502929688 -0.028699710965156555 0.03922286629676819 0.012045562267303467 0.058849796652793884 0.10569523274898529 -0.057861849665641785 0.050226569175720215 0.1125563532114029 0.11019352078437805 0.09617437422275543 0.04891881346702576 -0.08191482722759247 0.04541730880737305 -0.04042963683605194 0.0937059223651886 0.0031805485486984253 0.004261761903762817 -0.09431403875350952 -0.07670439779758453 0.005971252918243408 0.09956879913806915 0.03147083520889282 -0.012340903282165527 -0.05671137571334839 0.11865691840648651 0.027047231793403625 -0.015413925051689148 -0.02099229395389557 -0.01880677044391632 0.10905773937702179 0.03748825192451477 0.003592386841773987 -0.09992651641368866 -0.098178431391716 -0.086202472448349 0.07595431804656982 -0.08990772068500519 0.05216105282306671 -0.012412145733833313 -0.06594505906105042 0.04923243820667267 -0.00521695613861084 0.04534517228603363 0.03946322202682495 0.099734827876091 -0.06781099736690521 -0.03426283597946167 0.061716482043266296 0.11775766313076019 -0.019166767597198486 -0.0928104817867279 0.032865941524505615 -0.0008692145347595215 -0.07695432007312775 0.11198253929615021 0.019366517663002014 -0.10899807512760162 0.0580727756023407 0.10370311141014099 0.055005282163619995 0.007517889142036438 -0.09543476998806 -0.07224419713020325
-0.07386705279350281 -0.11971074342727661 0.07305660843849182 -0.014363408088684082 -0.0678698718547821 -0.12113872170448303 -0.043193817138671875 0.09072287380695343 0.00531516969203949 0.0805199146270752 0.07632727921009064 -0.08713193237781525 -0.0034929364919662476 -0.06598173081874847 -0.028598830103874207 -0.025096550583839417 0.07540978491306305 -0.018965885043144226 0.10340595245361328 0.0010881870985031128 -0.030324503779411316 -0.06586326658725739 -0.10609424114227295 -0.1165054589509964 -0.0060320645570755005 -0.1051340252161026 -0.09590576589107513 0.0006993114948272705 -0.10143740475177765 0.05515003204345703 0.07722419500350952 0.1032027155160904 0.013519391417503357 -0.013896867632865906 -0.07235093414783478 -0.06629565358161926 0.11642587184906006 -0.10051679611206055 -0.10533091425895691 -0.01695646345615387 0.07784923911094666 0.11834502220153809 -0.05187705159187317 0.10890854895114899 0.1134261041879654 0.10706114768981934 0.06171555817127228 0.0753803551197052 0.1191941350698471 0.0038181841373443604 0.06991730630397797 -0.10911892354488373 0.12471617758274078 -0.06984716653823853 -0.07342609763145447 0.12225200235843658 0.09652599692344666 -0.03628496825695038 -0.0566859096288681 -0.07329480350017548 0.05504840612411499 -0.121319979429245 -0.025350525975227356 0.10904388129711151
0.08950372040271759 0.07239806652069092 0.12198540568351746 0.04365114867687225 -0.10468943417072296 0.008902311325073242 -0.022575154900550842 0.10702444612979889 -0.03190059959888458 0.103888139128685 0.06360651552677155 -0.06680142879486084 -0.08947910368442535 0.005589216947555542 -0.08515317738056183 -0.08352360129356384 0.09560275077819824 0.12384413182735443 0.07506169378757477 0.10927359759807587 -0.10967846214771271 -0.08760356903076172 0.052586451172828674 0.01566210389137268 -0.08925627171993256 0.043341219425201416 0.10467642545700073 -0.06076452136039734 0.00329512357711792 -0.03513267636299133 -0.03257586061954498 -0.05982556939125061 0.061810821294784546 -0.12438520789146423 0.0775211751461029 -0.024446532130241394 0.05968920886516571 0.08578786253929138 -0.11948409676551819 0.0750388652086258 -0.021765977144241333 0.10361860692501068 -0.06917671859264374 -0.08038666844367981 0.04013898968696594 -0.09837506711483002 -0.0054611265659332275 -0.046906888484954834 0.09027871489524841 0.002131059765815735 -0.1063639223575592 0.01935899257659912 -0.11943678557872772 0.11745676398277283 -0.09082283079624176 0.1068546324968338 0.046962469816207886 0.1063261479139328 -0.00074024498462677 -0.08384920656681061 0.10890078544616699 -0.005123540759086609 0.06614278256893158 0.0028064697980880737
-0.10924385488033295 0.06971502304077148 -0.02828383445739746 -0.05702829360961914 -0.0419217050075531 0.09197701513767242 0.016708657145500183 -0.0037017911672592163 0.054962337017059326 0.08941672742366791 -0.04727888107299805 0.05641403794288635 0.052266716957092285 -0.031397104263305664 0.043392956256866455 -0.03778332471847534 0.008997514843940735 -0.11920124292373657 -0.062366604804992676 0.006043359637260437 -0.06742055714130402 0.04859916865825653 -0.1092706024646759 -0.09442645311355591 0.10264867544174194 -0.1024855524301529 0.06095251441001892 0.10229030251502991 -0.04403062164783478 0.10702691972255707 -0.032970547676086426 0.061446622014045715 -0.06387072801589966 -0.09359152615070343 -0.0752498060464859 -0.032323405146598816 -0.04890879988670349 0.09747374057769775 0.06860396265983582 -0.04481746256351471 0.03413490951061249 -0.013272181153297424 -0.003813430666923523 0.056164175271987915 0.04027678072452545 0.08590218424797058 -0.006363138556480408 -0.06950101256370544 0.035199910402297974 0.07925775647163391 0.02394305169582367 0.0016181766986846924 -0.04185652732849121 0.06621603667736053 0.10121344029903412 -0.0809706449508667 -0.030425265431404114 0.09042641520500183 -0.05694633722305298 0.11395016312599182 0.08298349380493164 -0.0879603922367096 -0.12042072415351868 -0.09958893060684204
-0.024056240916252136 0.008419468998908997 0.09457038342952728 0.04438669979572296 -0.07256080210208893 -0.024021580815315247 0.09583237767219543 0.0560310035943985 0.10665608942508698 -0.10618910193443298 0.1208997368812561 0.06946226954460144 -0.016479432582855225 -0.12313792109489441 0.018876686692237854 -0.07988041639328003 -0.09245717525482178 -0.05428667366504669 -0.07717500627040863 0.06723923981189728 -0.0655951201915741 0.02639251947402954 0.07933887839317322 0.018499374389648438 0.04773314297199249 -0.045042216777801514 -0.0163593590259552 0.12498164176940918 -0.03425949811935425 -0.08548055589199066 -0.01907689869403839 0.0659441202878952 -0.08094187080860138 0.09682926535606384 -0.11163324117660522 0.02280104160308838 0.11210182309150696 -0.02628399431705475 -0.02212458848953247 0.10509130358695984 -0.025446578860282898 0.01694108545780182 -0.04462134838104248 -0.09970620274543762 0.08589279651641846 0.03715527057647705 -0.10791739821434021 0.05688957870006561 0.0379064679145813 -0.12436750531196594 -0.03073190152645111 0.1176888644695282 0.0294998437166214 0.07774269580841064 0.09034521877765656 -0.07625612616539001 0.036816924810409546 0.09533336758613586 -0.09946627914905548 -0.0347474068403244 0.0513232946395874 0.013067767024040222 -0.09309515357017517 -0.022204726934432983
0.06845466792583466 -0.012843102216720581 -0.01036769151687622 0.044373318552970886 0.005764037370681763 -0.0690285861492157 -0.042252689599990845 -0.01721474528312683 0.05796825885772705 0.030474931001663208 0.06331606209278107 -0.015529125928878784 -0.04914310574531555 -0.018296539783477783 -0.009581252932548523 -0.052394017577171326 -0.017846450209617615 0.05719490349292755 -0.019266903400421143 -0.090257927775383 0.007121160626411438 -0.07771919667720795 -0.07090623676776886 0.004886195063591003 -0.03359347581863403 -0.09622976183891296 -0.09657129645347595 -0.040602803230285645 -0.0404205322265625 -0.0012149065732955933 0.10631199181079865 -0.09684644639492035 -0.05339790880680084 -0.06317329406738281 -0.057933419942855835 -0.10360795259475708 -0.018994152545928955 -0.10591781139373779 -0.09812775254249573 0.017010658979415894 -0.07401494681835175 -0.00428694486618042 0.11853714287281036 0.10469868779182434 -0.004904747009277344 -0.04349489510059357 -0.08635745942592621 0.007553696632385254 -0.12398402392864227 0.036941662430763245 -0.0881102979183197 0.11895348131656647 0.12496607005596161 0.11432211101055145 0.028490513563156128 -0.01632097363471985 -0.001580074429512024 0.047122612595558167 -0.015216678380966187 -0.11298805475234985 -0.05120620131492615 -0.004643991589546204 0.02237871289253235 -0.033028826117515564
-0.030426979064941406 0.10063408315181732 -0.05218048393726349 -0.0672277957201004 0.051003456115722656 0.10462233424186707 -0.04228179156780243 0.11419408023357391 0.02339889109134674 -0.0971933901309967 -0.09650039672851562 -0.118541419506073 0.03870062530040741 0.094975546002388 -0.0707378089427948 -0.003906473517417908 -0.11751876771450043 0.10322320461273193 -0.04854138195514679 0.041051045060157776 0.06396062672138214 -0.06788213551044464 0.05236002802848816 0.004564389586448669 -0.04391685128211975 0.012284159660339355 0.12447741627693176 0.0578787624835968 0.035628169775009155 -0.062450915575027466 0.06782570481300354 0.11760057508945465 -0.11728762090206146 0.09848359227180481 0.03256554901599884 0.10898920893669128 0.10247831046581268 0.07657627761363983 -0.0862417072057724 0.033873870968818665 -0.07022185623645782 0.05224524438381195 -0.1075926423072815 -0.012174203991889954 -0.1194506287574768 0.12180177867412567 0.03257903456687927 -0.0010472089052200317 -0.05973497033119202 -0.07146690785884857 0.01748603582382202 0.09363570809364319 0.11242237687110901 -0.08204823732376099 -0.04545733332633972 0.05248574912548065 -0.058324068784713745 0.04405364394187927 -0.012419357895851135 -0.1074744164943695 0.09860257804393768 -0.08308778703212738 -0.11686766147613525 -0.058584243059158325
0.03642256557941437 0.10296575725078583 -0.050782710313797 -0.04400452971458435 0.08667837083339691 0.0373663455247879 0.015370398759841919 0.05615369975566864 -0.12499143183231354 -0.07769887149333954 -0.08395905792713165 -0.030605822801589966 -0.033762067556381226 -0.10840895771980286 0.06151650846004486 0.07837885618209839 0.11746945977210999 -0.008477747440338135 -0.12493719160556793 -0.06096561253070831 0.04181443154811859 -0.09088240563869476 0.08308249711990356 -0.11510217189788818 -0.11148013174533844 -0.04820889234542847 0.08595208823680878 0.06602589786052704 0.06865251064300537 -0.09952421486377716 0.04864075779914856 -0.006348595023155212 -0.03680846095085144 -0.06612083315849304 -0.11839914321899414 0.04485882818698883 -0.018309593200683594 0.05468274652957916 0.017596468329429626 -0.07380595803260803 0.03608487546443939 0.10008569061756134 0.07577788829803467 -0.12243105471134186 0.11905048787593842 0.016732588410377502 0.0050621479749679565 -0.05193699896335602 -0.08945238590240479 0.050313979387283325 -0.027897223830223083 -0.0037320107221603394 0.07333120703697205 0.014929890632629395 -0.0684431940317154 0.10702380537986755 -0.08541767299175262 0.09127840399742126 0.06592896580696106 -0.09995366632938385 0.07906809449195862 0.01171712577342987 0.07067032158374786 0.05599357187747955
